<?xml version="1.0"?>
<opencv_storage>
<my_svm type_id="opencv-ml-svm">
  <svm_type>C_SVC</svm_type>
  <kernel><type>LINEAR</type></kernel>
  <C>1.0000000000000001e-01</C>
  <term_criteria><epsilon>1.1920928955078125e-07</epsilon>
    <iterations>1000</iterations></term_criteria>
  <var_all>2916</var_all>
  <var_count>2916</var_count>
  <class_count>2</class_count>
  <class_labels type_id="opencv-matrix">
    <rows>1</rows>
    <cols>2</cols>
    <dt>i</dt>
    <data>
      1 2</data></class_labels>
  <sv_total>1</sv_total>
  <support_vectors>
    <_>
      -4.03156541e-02 -6.99191913e-02 -4.83379923e-02 -1.51000889e-02
      6.70289919e-02 5.96103035e-02 4.94741388e-02 4.15153168e-02
      7.90654798e-04 -4.85683754e-02 -2.48800758e-02 8.44483078e-03
      -2.76808105e-02 9.25157815e-02 3.42351310e-02 7.05571994e-02
      9.14287046e-02 7.79833645e-04 -3.67315002e-02 -8.27836320e-02
      -2.26850249e-02 -2.30703764e-02 2.14814972e-02 -1.41709344e-02
      -2.70199943e-02 1.90509167e-02 -8.26523639e-03 -8.94784648e-03
      -1.05409836e-02 -6.86516687e-02 -6.69950917e-02 -4.95962612e-02
      -2.31097508e-02 -1.29212695e-03 4.88919206e-02 1.70605555e-02
      -1.22269345e-02 1.22379493e-02 1.85301006e-02 -1.42263379e-02
      3.57370870e-03 -7.95821473e-03 3.86804640e-02 5.36094718e-02
      1.94456219e-03 3.43181118e-02 4.68715839e-02 2.67319437e-02
      2.80409437e-02 6.48330376e-02 -6.27827831e-03 1.48391314e-02
      1.86566822e-02 6.93939906e-03 -1.52190998e-02 3.09724230e-02
      -2.76280399e-02 -5.77950478e-02 -2.95689609e-02 -8.44367687e-03
      9.93748475e-03 3.40053216e-02 -1.47525612e-02 -3.56115103e-02
      5.26964553e-02 4.24086675e-02 -1.41453836e-02 -1.78250447e-02
      -2.91429576e-03 7.67307961e-03 2.06098855e-02 -5.48281660e-03
      1.67629551e-02 3.56471688e-02 2.45216140e-03 2.20373385e-02
      3.42478976e-02 1.82106707e-03 -5.84851345e-03 1.73161756e-02
      -1.26207881e-02 1.52198579e-02 6.86966181e-02 4.37982986e-03
      -7.31941825e-03 1.30255464e-02 -1.80472508e-02 -2.73905005e-02
      -1.98080763e-02 4.84460173e-03 -4.24229503e-02 -2.53294897e-03
      9.25243832e-03 -5.08954562e-03 2.84377648e-03 -2.00373936e-03
      -7.42239179e-03 8.95511638e-03 1.58061422e-02 2.19603628e-02
      -2.33553853e-02 -1.46642718e-02 -2.99603101e-02 1.34315458e-03
      5.94530953e-04 1.18464669e-02 4.91165370e-02 3.86698842e-02
      6.10076496e-03 1.28321601e-02 5.56123536e-03 6.49932073e-03
      -8.07117764e-03 -4.99157282e-03 -2.18396168e-02 -7.75801251e-03
      4.32052910e-02 -4.22902629e-02 2.04424877e-02 1.65613426e-03
      2.76048183e-02 4.60710283e-03 -3.80680221e-03 2.20296532e-03
      6.68862893e-04 -6.79409923e-03 -1.80441588e-02 -4.63696606e-02
      -9.93599556e-03 -4.34733275e-03 1.29977698e-02 8.80623795e-03
      3.52058560e-02 6.90357313e-02 8.96432325e-02 -2.18983032e-02
      1.75388891e-03 -2.64783180e-03 2.46085376e-02 2.53447443e-02
      -7.02853967e-03 2.07934212e-02 8.28373358e-02 7.75897177e-03
      1.30294003e-02 5.40743284e-02 -2.11863071e-02 1.53063927e-02
      -1.96417086e-02 -9.10128094e-03 8.46678577e-03 -4.33646366e-02
      -2.17465311e-02 6.22123405e-02 1.36682793e-01 -1.61291156e-02
      4.73223627e-03 -3.21892388e-02 -1.41894994e-02 2.95020221e-03
      -6.73992038e-02 -1.02631465e-01 -1.97102968e-03 1.17480129e-01
      -3.13568860e-02 1.53203122e-02 -8.33878003e-04 -1.74536780e-02
      -1.37776816e-02 1.40399197e-02 -1.80784967e-02 4.24427800e-02
      1.23875365e-01 1.55551741e-02 8.76444043e-04 -2.09608637e-02
      -2.34935936e-02 -2.45973635e-02 -3.49151343e-02 -5.07481582e-02
      5.71808256e-02 7.85376132e-02 1.48783356e-03 -1.26138981e-02
      -3.82943661e-03 2.37469751e-04 2.98850369e-02 -1.42099047e-02
      -8.59193429e-02 1.36991516e-02 5.21488227e-02 1.45730879e-02
      7.29039544e-03 2.18732469e-02 4.72012674e-03 4.53477167e-02
      2.01379806e-02 -3.86302322e-02 7.09737837e-02 1.40614912e-01
      1.08809732e-02 -2.09821388e-02 -2.40165386e-02 9.06684343e-03
      2.37045735e-02 -2.46183015e-02 -1.12507783e-01 9.50308330e-03
      1.03697367e-01 4.93502803e-03 -2.09901202e-02 -2.99012940e-02
      1.00668781e-02 3.04769985e-02 -1.84739660e-02 -1.15619943e-01
      7.30953664e-02 3.09924148e-02 1.29297208e-02 5.01537835e-03
      1.38608378e-03 -8.21606349e-03 4.91226325e-04 -2.46537493e-05
      2.50206683e-02 3.03367376e-02 1.48772364e-02 1.37007246e-02
      8.15135892e-03 -6.39054645e-03 -2.69060628e-03 -3.41938548e-02
      -2.72256136e-02 5.04383147e-02 2.27189660e-02 1.44048855e-02
      -1.61177814e-02 -1.52343623e-02 -9.61722899e-03 -2.02488508e-02
      -2.40874826e-04 -3.16211917e-02 -3.37696485e-02 -1.68628208e-02
      -2.02699620e-02 -1.63591579e-02 -6.76910533e-03 -1.78157259e-02
      -2.63030399e-02 -2.41781306e-02 3.98744456e-02 1.11222323e-02
      -3.25343087e-02 5.74999442e-03 1.52091831e-02 1.09109459e-02
      -1.08947288e-02 -1.41555620e-02 -1.18313869e-03 3.63630988e-02
      6.63767308e-02 -6.81615099e-02 2.08349410e-03 -2.66480725e-03
      4.12874892e-02 1.47620719e-02 1.28905755e-02 -1.31763546e-02
      4.99914400e-02 7.74503266e-03 -6.09073881e-03 -1.98111441e-02
      -7.53692875e-04 -5.15242526e-03 -2.68916339e-02 -9.11030278e-04
      2.87449844e-02 5.08238673e-02 7.61329057e-03 -8.60104188e-02
      3.63477482e-03 -1.28571382e-02 1.11788483e-02 2.13119425e-02
      3.44105512e-02 -1.37932263e-02 -3.02610248e-02 -1.70413312e-02
      -4.28278521e-02 2.10221531e-03 7.56790032e-05 5.79277463e-02
      7.85475001e-02 4.17497121e-02 -4.98695821e-02 -1.03260288e-02
      -1.17021017e-02 -2.07316261e-02 1.30126541e-02 -1.88026344e-03
      -6.63273362e-03 5.51234260e-02 2.08284818e-02 -1.64002944e-02
      -5.51892184e-02 -2.44063064e-02 -1.41995838e-02 3.60959955e-02
      -5.28808357e-03 2.48309020e-02 9.06348578e-04 -1.56227518e-02
      -7.61971623e-02 -4.79709683e-03 -5.74263223e-02 1.60284229e-02
      2.76413932e-02 2.41510719e-02 -9.11677629e-03 -4.42599952e-02
      -2.51320116e-02 -3.13628092e-02 3.47219929e-02 2.62442473e-02
      -7.35575799e-03 -1.96001679e-02 -1.22636789e-02 -1.45980045e-02
      2.75776815e-03 4.81145922e-03 -1.20159723e-02 -4.47153999e-03
      -1.32051874e-02 -4.92935488e-03 3.46214473e-02 -3.15135624e-03
      -3.27930823e-02 -3.44677866e-02 -2.13045161e-03 -5.12826024e-03
      2.96294149e-02 1.31163104e-02 -2.39673313e-02 4.84564081e-02
      -1.52185587e-02 -4.58092988e-02 1.58609468e-02 2.06816997e-02
      9.42629296e-03 -2.10010000e-02 -2.54478268e-02 -2.89689321e-02
      2.50045676e-02 6.50678277e-02 -4.24201749e-02 4.55813482e-02
      1.91885736e-02 9.26289894e-03 -2.14735772e-02 -3.55027951e-02
      -1.66625325e-02 5.90957068e-02 -1.55300424e-02 -9.00659524e-03
      -1.66619811e-02 3.80620151e-03 1.23425841e-03 -6.27542054e-03
      -1.61028653e-02 2.82012951e-02 5.60129061e-02 -4.13314672e-03
      -2.85619181e-02 -2.28911191e-02 -6.81331288e-03 -3.12724151e-03
      4.94206382e-04 -1.07083041e-02 -4.62824367e-02 6.25471249e-02
      6.53033778e-02 4.12438512e-02 -7.96579011e-03 1.72782631e-03
      1.21097732e-02 -1.32933650e-02 -3.09746414e-02 1.12249125e-02
      6.65388182e-02 3.43662202e-02 -8.30658153e-03 -1.72897670e-02
      -4.98862565e-03 7.95070920e-03 -3.35299713e-03 -1.82696953e-02
      -3.55863734e-03 3.06734648e-02 -6.31948793e-03 -1.58611517e-02
      -4.58303792e-03 -3.17614968e-03 -2.29379605e-03 -1.90640567e-03
      5.11795515e-03 2.83856504e-02 -1.22651355e-02 -2.99739856e-02
      -1.21389432e-02 -1.66177016e-03 1.25034456e-03 3.47834523e-03
      1.93506107e-02 7.72765651e-02 8.38467479e-03 4.95979823e-02
      -4.48451005e-02 -2.47788150e-02 -1.32003240e-02 -5.47368685e-03
      -1.23646939e-02 2.18380671e-02 -3.02903727e-02 -1.30841159e-03
      2.66372468e-02 -3.15505415e-02 -2.14320607e-05 5.29678632e-03
      3.74567322e-03 -4.68348735e-04 5.35496473e-02 3.98401134e-02
      -6.01405427e-02 -6.55214787e-02 -2.21143477e-02 -2.80846935e-03
      2.64967978e-03 5.16508881e-04 2.27027517e-02 2.80147418e-02
      1.01743922e-01 -1.16670979e-02 -3.50574441e-02 -2.32126489e-02
      1.01755431e-03 -9.31702496e-04 -7.66337942e-03 -3.32540623e-03
      5.90322949e-02 7.68030509e-02 -3.83324288e-02 -6.23836815e-02
      -2.26247869e-02 6.03911234e-03 1.62391532e-02 2.48151757e-02
      1.22105936e-02 4.51237969e-02 6.74496666e-02 5.25842905e-02
      -4.04257476e-02 -1.85875036e-02 9.62539017e-03 1.28226317e-02
      2.25386545e-02 -8.85339640e-03 1.57148130e-02 8.43697563e-02
      -1.10337732e-03 7.43319690e-02 -1.64146964e-02 -3.26418504e-03
      -8.43606051e-03 -1.33860046e-02 -1.39413858e-02 -1.62908822e-04
      -7.51221506e-03 4.25203033e-02 7.31415972e-02 1.05651682e-02
      -1.55277243e-02 -1.87528587e-03 -2.49876902e-02 -3.35102230e-02
      -9.32175387e-03 -6.45530820e-02 3.66031937e-02 8.12293962e-02
      1.72032397e-02 -8.11269449e-04 -1.32756289e-02 -8.76594055e-03
      -3.15085612e-02 1.97385587e-02 3.38360518e-02 2.40531769e-02
      7.48537555e-02 4.35087942e-02 6.92681735e-03 -3.79774789e-03
      -3.05828247e-02 -1.28481332e-02 2.20295340e-02 -3.76391113e-02
      8.31847489e-02 9.03677419e-02 6.77294983e-03 -1.17215968e-03
      -2.66614812e-03 -6.90909522e-03 -3.31609137e-03 -2.46804729e-02
      -8.44058469e-02 6.78655952e-02 8.93625319e-02 -1.90544818e-02
      -1.99590772e-02 -1.57200042e-02 3.07016959e-03 -3.42271593e-03
      -2.62203477e-02 -1.00441501e-01 3.48857529e-02 5.11102676e-02
      1.02450873e-03 2.40079369e-02 1.05604762e-03 -2.07953714e-02
      -1.11185573e-02 1.57419611e-02 -2.35732161e-02 2.57219598e-02
      1.58636719e-02 -2.38246918e-02 -1.53112849e-02 -4.44135033e-02
      -2.25093290e-02 9.23094060e-03 4.13603429e-03 -5.45362430e-03
      4.31492776e-02 3.07127461e-03 -2.26996411e-02 -1.55210122e-02
      -4.13104752e-03 -1.10191032e-02 -1.38793197e-02 -2.97392551e-02
      -2.67788675e-02 -4.00145166e-03 -6.03842288e-02 -2.37805136e-02
      -1.15898056e-02 -9.70405992e-03 -1.66518074e-02 1.68028213e-02
      6.10858127e-02 2.81869695e-02 3.68902124e-02 -8.09420180e-03
      -3.59319113e-02 -3.19202952e-02 -2.22353339e-02 -2.66088024e-02
      2.48062867e-03 4.96391356e-02 4.44954894e-02 -4.26008068e-02
      -3.56644392e-02 -5.00215627e-02 -3.36900689e-02 1.21611981e-02
      1.77726429e-02 7.67132714e-02 7.52308220e-02 3.65757346e-02
      -5.94932307e-03 -1.23745129e-02 -1.70306228e-02 -8.66861083e-03
      -2.29623206e-02 1.01017123e-02 7.02815875e-02 3.80021408e-02
      4.63015633e-03 -1.51993074e-02 9.34125390e-03 -2.19449587e-02
      -3.21379229e-02 -9.64981038e-03 4.38850187e-02 -1.92857496e-02
      -3.08679920e-02 -1.85405929e-02 -1.79508403e-02 -8.50462262e-03
      -2.35702731e-02 6.51017670e-03 -7.71447085e-03 7.32637346e-02
      8.49585459e-02 -3.30519793e-03 -7.36673251e-02 2.35546567e-02
      1.89732295e-02 -1.86162237e-02 -1.74871664e-02 -2.20612921e-02
      1.56695805e-02 -1.74145959e-02 -1.51481926e-02 -2.28754468e-02
      1.14322202e-02 4.41562710e-03 -1.05876271e-02 1.81561650e-03
      -3.45569327e-02 -1.67976599e-02 -3.89306322e-02 3.79320160e-02
      -6.35554083e-03 -1.72706638e-02 1.50760850e-02 2.42296103e-02
      1.64940190e-02 -4.21172641e-02 3.35503891e-02 -8.72871373e-04
      5.30597493e-02 -2.40092110e-02 -1.93073356e-03 -9.69780143e-03
      -1.28733180e-02 -1.84026044e-02 -5.32666631e-02 -1.98433250e-02
      -2.92657241e-02 1.30705619e-02 5.84009942e-03 -1.79789811e-02
      2.30792668e-02 5.72400204e-05 1.95000488e-02 -6.09058514e-03
      1.96931208e-03 5.80685921e-02 3.81382219e-02 -2.45248321e-02
      -1.99910775e-02 1.86218601e-02 2.31257116e-04 -6.27231821e-02
      -1.62556358e-02 1.11145023e-02 4.52690246e-03 -7.78647047e-03
      -1.30052175e-02 -4.04507741e-02 3.08281253e-03 4.44224104e-02
      -1.01315677e-02 7.72919087e-03 6.20674808e-03 4.18028329e-03
      -1.01124533e-02 -1.82480998e-02 -1.77657250e-02 -2.51780450e-03
      4.80267592e-02 7.13061448e-03 2.07714960e-02 9.40789469e-04
      -1.09855505e-02 -1.54834874e-02 -8.46894179e-03 -1.09993508e-02
      -6.76987832e-03 5.05727008e-02 3.74870077e-02 -3.08591928e-02
      -8.74661282e-03 -5.63387154e-03 -1.38138430e-02 -5.48930513e-03
      -5.05122468e-02 -7.51017360e-05 5.77273630e-02 2.57710777e-02
      3.84190748e-03 -9.59219993e-04 1.00788893e-02 -1.96414022e-03
      -1.96940843e-02 -6.31032698e-03 2.84297913e-02 1.72868297e-02
      7.25792814e-03 -8.56484286e-03 -4.03779466e-03 1.75507776e-02
      -3.22904298e-03 -3.25931795e-03 9.60934162e-03 3.36982869e-02
      -1.69552471e-02 -1.01726726e-02 -2.35930476e-02 1.73476506e-02
      -3.54008109e-04 7.96926674e-03 -7.59731140e-03 1.67134255e-02
      -2.73239631e-02 -2.66677719e-02 3.11198793e-02 1.88788418e-02
      3.56845818e-02 1.68374516e-02 -4.87158913e-03 8.18212330e-03
      -6.81246584e-03 2.01016776e-02 -1.66411549e-02 -1.89428069e-02
      -1.16788642e-02 2.86590075e-03 -6.75558811e-03 2.87469085e-02
      1.55325315e-03 -2.35969685e-02 1.82599314e-02 -1.30935274e-02
      8.60054046e-03 2.85228540e-04 1.55289611e-02 1.41344061e-02
      5.95007539e-02 1.96199701e-03 -5.32301441e-02 -3.22825438e-03
      -2.17264816e-02 2.98070144e-02 4.84980919e-05 3.39026228e-02
      3.76183749e-03 4.49728295e-02 3.79884019e-02 2.87366495e-03
      -2.11676788e-02 2.99097989e-02 1.25551634e-02 9.55200638e-04
      6.98860139e-02 7.33060688e-02 8.32634419e-02 3.39076631e-02
      -4.34955657e-02 -3.15675475e-02 -7.90952798e-03 1.25249354e-02
      2.50837207e-02 3.71464677e-02 1.67212076e-02 -3.57857952e-03
      3.61020975e-02 1.59558542e-02 -7.65435025e-03 -2.58220118e-02
      -3.11651337e-03 2.12920867e-02 3.34295332e-02 -1.15509043e-02
      -1.27668455e-02 6.61620274e-02 -4.06800732e-02 -1.23827904e-02
      1.30944129e-03 1.52059039e-02 5.71188778e-02 3.80749702e-02
      1.97799988e-02 -2.06799502e-03 1.95448045e-02 3.37904021e-02
      -1.54044330e-02 -5.67345507e-03 4.65664975e-02 6.10562637e-02
      -6.88410271e-03 -1.57305691e-02 -8.65411654e-04 6.02932535e-02
      2.53531542e-02 1.12545295e-02 1.59875564e-02 1.69740466e-03
      -3.55914747e-03 -2.35453062e-02 -3.41141745e-02 5.48799476e-03
      1.70316529e-02 2.32748073e-02 3.28354277e-02 8.68257787e-03
      3.55456304e-03 5.29828202e-03 -2.52383370e-02 -1.83848683e-02
      -7.16848951e-03 -4.31865528e-02 4.34537902e-02 -2.50329375e-02
      2.11584810e-02 -1.17028574e-03 -5.70264645e-03 -3.41421887e-02
      1.37747789e-03 2.55252905e-02 2.40080599e-02 9.50281788e-03
      2.77478565e-02 5.09725846e-02 5.59988767e-02 2.41232403e-02
      -5.28972689e-03 -8.33775848e-03 -3.82951610e-02 -4.00909446e-02
      4.47532609e-02 -2.78433412e-02 -2.00661737e-03 5.80733595e-03
      3.54439649e-03 -3.38628069e-02 -2.77644154e-02 1.34703540e-03
      2.12165294e-03 1.87372845e-02 -5.55446558e-02 -1.15753980e-02
      -2.34281737e-02 -3.62648629e-02 -5.03706485e-02 -1.27084889e-02
      6.54167775e-03 1.70627888e-02 1.77972671e-02 1.06092788e-01
      4.22611684e-02 2.11355034e-02 2.70709973e-02 -2.89109554e-02
      -4.60894965e-02 -4.18454409e-02 7.34539423e-03 7.69717321e-02
      1.04109924e-02 1.00568105e-02 -1.08859194e-02 -3.29176150e-02
      -2.88314056e-02 -4.28735577e-02 -1.11564284e-03 3.69303823e-02
      2.81927530e-02 -3.98928598e-02 -1.82650425e-02 -2.66416445e-02
      -2.51177400e-02 -2.50674281e-02 2.68031890e-03 4.80750538e-02
      1.07825557e-02 -3.84417325e-02 -3.22849154e-02 -4.04822007e-02
      -2.55877655e-02 1.43811665e-03 2.95494329e-02 5.93658052e-02
      2.64907558e-03 -6.10114262e-02 3.42219882e-02 -2.51469593e-02
      -3.48905218e-03 -6.37421431e-03 -1.40992096e-02 -1.83251244e-03
      2.13507283e-02 6.44607618e-02 3.57388407e-02 7.38516822e-03
      -1.07605215e-02 -1.87450815e-02 1.90195404e-02 -1.14307674e-02
      1.52176535e-02 2.62513608e-02 -3.63626443e-02 -5.30300662e-02
      -1.09881544e-02 -1.28688430e-02 -6.97493786e-03 1.39975781e-02
      5.14557818e-03 6.00876659e-02 7.74017945e-02 -5.08090444e-02
      -8.07303041e-02 -1.14604621e-03 -5.60398679e-03 -3.44790838e-04
      3.11779045e-03 -9.48025584e-02 3.08062695e-02 -5.70681971e-03
      -1.07757794e-02 2.04428174e-02 -8.75594094e-04 -1.87677220e-02
      -6.61047595e-03 2.51986627e-02 -4.50580707e-03 6.04770742e-02
      4.55640480e-02 3.32616706e-04 -4.63348180e-02 -1.83713511e-02
      -1.30117489e-02 1.09835679e-03 -1.29163591e-02 -1.84646621e-02
      5.54842465e-02 9.33746174e-02 1.06243230e-02 3.41348834e-02
      -9.23280790e-03 -7.11059058e-03 -4.13798075e-03 -1.36726229e-02
      -5.76651208e-02 5.98090142e-03 8.89281277e-03 3.16372328e-02
      1.14408741e-02 -6.53400202e-04 1.47430431e-02 -7.39371078e-03
      -1.14470848e-03 5.54086035e-03 4.07717787e-02 3.04216519e-02
      8.34712759e-03 6.51399081e-04 -1.40108690e-02 2.77065369e-03
      2.78335134e-03 -2.69273352e-02 -1.93511024e-02 5.26998341e-02
      4.74839248e-02 2.19275411e-02 6.90403394e-03 -1.53261214e-03
      9.57530271e-03 -2.71902117e-03 -4.16845968e-03 3.76888365e-02
      2.03869306e-03 1.69201232e-02 2.38987692e-02 1.36346482e-02
      -1.10035073e-02 -1.94829684e-02 3.67361680e-03 1.38435429e-02
      -4.00792323e-02 4.70264815e-03 -1.28799230e-02 -1.03503875e-02
      -6.86411932e-03 -5.97114349e-03 6.56209188e-03 6.85514212e-02
      4.63279858e-02 -6.70626760e-02 3.36024072e-03 -3.65036726e-03
      -8.78025126e-03 -1.79571880e-03 -5.04398765e-03 -1.58186071e-02
      -4.66211606e-03 5.70608750e-02 -3.35870460e-02 2.93892343e-02
      -1.52543020e-02 -1.03230122e-02 -9.76673421e-03 -2.00570282e-02
      -3.44868340e-02 4.99283262e-02 5.49799800e-02 -4.86690784e-03
      -1.14377560e-02 2.59458367e-02 -1.06536096e-03 -7.79605145e-03
      1.04496730e-02 -1.02468031e-02 8.48660711e-03 2.14058477e-02
      -6.66584540e-03 3.55627947e-02 9.91935027e-04 2.82598217e-03
      -6.97987899e-03 2.62491629e-02 -6.87163174e-02 -5.67530692e-02
      1.98969562e-02 5.04382066e-02 4.57685143e-02 2.65668277e-02
      -1.25238411e-02 -2.15631891e-02 -1.89130269e-02 -3.09157521e-02
      2.85604633e-02 8.85758270e-03 -1.21543817e-02 5.96775599e-02
      4.80373949e-02 1.22479983e-02 2.84100277e-03 -2.70136744e-02
      -6.13710172e-02 -6.67250603e-02 3.49955969e-02 4.93254997e-02
      8.79087448e-02 4.16221619e-02 2.98252963e-02 -1.20983087e-02
      -4.75908220e-02 -8.10186490e-02 -6.66101724e-02 -3.86333489e-03
      -9.69128497e-03 2.81659905e-02 9.57816187e-03 2.85715256e-02
      4.28691655e-02 -2.73478124e-02 -1.25827827e-02 -6.02294691e-04
      -4.39023459e-03 -1.73092708e-02 4.72266711e-02 5.24403192e-02
      3.51873115e-02 1.88333206e-02 1.03530369e-03 -4.64465693e-02
      -2.13090517e-02 1.52714178e-02 7.44202547e-03 2.67046653e-02
      2.37230919e-02 5.73488101e-02 5.45663089e-02 5.34237809e-02
      3.05832401e-02 2.78740823e-02 4.08203900e-02 -7.11158663e-03
      7.15445206e-02 7.02301189e-02 5.23560345e-02 1.01881428e-02
      -1.42126819e-02 -2.56581907e-03 6.27945876e-03 2.29540281e-02
      5.87868057e-02 3.95711213e-02 1.18218819e-02 -3.48034501e-03
      -3.21048722e-02 -1.06192911e-02 -5.37696406e-02 -2.62638070e-02
      4.81474772e-02 9.42070484e-02 -1.05618034e-02 -5.68514923e-03
      -1.27213476e-02 -1.43295517e-02 8.14583059e-03 -2.36116350e-03
      2.78730467e-02 6.87034577e-02 1.00738844e-02 8.44252035e-02
      4.11836617e-02 1.37576824e-02 -3.32319401e-02 -4.39983234e-02
      -4.61174808e-02 1.85933011e-03 9.76570547e-02 7.15067089e-02
      1.05027504e-01 2.17075646e-02 -4.61796075e-02 -5.70805371e-02
      -2.08715051e-02 -4.30585332e-02 8.87710718e-04 2.76237540e-02
      2.71227732e-02 -4.26998250e-02 1.53440451e-02 1.29577601e-02
      -2.15990860e-02 -4.93312553e-02 1.61748752e-02 7.98823535e-02
      6.43177629e-02 2.17446499e-02 4.88438504e-03 1.55887986e-02
      -1.57773923e-02 -6.53705597e-02 -6.35499805e-02 -4.10952270e-02
      3.79218012e-02 8.26682299e-02 6.69409409e-02 -1.35489441e-02
      4.13814411e-02 3.47836805e-03 -4.77328300e-02 -5.79330958e-02
      1.06140161e-02 9.05289352e-02 9.89119112e-02 6.14020936e-02
      -2.01385804e-02 1.33427065e-02 5.24168881e-03 -5.41809350e-02
      -1.58683807e-02 3.76177654e-02 5.25070876e-02 3.12451553e-03
      -1.48428325e-03 -8.84348713e-03 -2.24984791e-02 -3.88571396e-02
      -4.07390259e-02 4.84553091e-02 1.94784552e-02 1.02482215e-02
      3.62958130e-03 -7.95852114e-03 1.56082232e-02 -2.54522711e-02
      -2.10140236e-02 -1.62031054e-02 7.20071327e-03 4.62833159e-02
      6.69106841e-02 2.38385480e-02 -5.99983111e-02 9.15082172e-03
      -2.54553221e-02 3.61058838e-03 -7.49617210e-03 5.04284836e-02
      -2.03424180e-03 -1.38040481e-03 7.53725646e-03 -1.16484435e-02
      -2.23970201e-04 1.45634906e-02 3.48320268e-02 1.78258382e-02
      3.93995829e-02 -1.88039206e-02 -4.24587401e-03 -1.05574932e-02
      9.95963532e-03 1.59392338e-02 2.04873700e-02 3.40698734e-02
      1.38540205e-03 -2.99065504e-02 -3.84294279e-02 3.59821576e-03
      2.90984176e-02 1.89363230e-02 -2.04075016e-02 -2.46368744e-03
      -1.21944509e-02 -3.05356756e-02 5.15040606e-02 -1.73341967e-02
      -1.54679995e-02 8.82269163e-03 3.21881622e-02 2.30803378e-02
      3.92699353e-02 5.85944280e-02 3.92382964e-02 -4.79265675e-03
      -4.10206057e-02 -1.77237391e-02 3.20886150e-02 2.37341709e-02
      1.09969005e-02 3.54026514e-03 -8.01178347e-03 -6.19433410e-02
      -2.40710471e-02 -2.90095806e-02 -1.25008821e-02 3.15154418e-02
      1.57086160e-02 5.99858984e-02 4.92750406e-02 2.57138610e-02
      3.94902751e-03 -2.53212247e-02 -1.00074168e-02 -3.57802659e-02
      -4.02902998e-03 -3.88393477e-02 7.40218908e-02 5.80754951e-02
      3.17956484e-03 1.03570102e-02 -5.41451089e-02 -4.96924818e-02
      2.65373141e-02 4.81041893e-02 4.98730764e-02 5.19842990e-02
      5.26555851e-02 -5.85655507e-04 -4.92417067e-02 -3.59795764e-02
      -5.14126420e-02 -3.13049369e-02 -2.94042267e-02 -6.75134873e-03
      4.56158258e-03 4.02051955e-02 -1.47785875e-03 -1.37664154e-02
      1.19526032e-03 1.63823552e-02 -6.82632253e-03 -1.82936564e-02
      -2.05063056e-02 7.86882043e-02 3.65296975e-02 -1.26404045e-02
      2.11543571e-02 -5.91140985e-03 1.61775853e-02 -3.82000883e-03
      1.92767140e-02 6.51456490e-02 1.31808333e-02 -1.44820372e-02
      4.28766292e-03 1.87618155e-02 -1.31514212e-02 -6.51863683e-03
      -7.73545355e-03 1.39790336e-02 -9.47456714e-03 5.28720319e-02
      5.01182629e-03 -1.77777000e-02 1.97699592e-02 -1.69721711e-02
      -4.26469633e-04 2.39068968e-03 6.16614409e-02 5.95826283e-02
      3.13526429e-02 -3.54181975e-02 2.65194476e-03 -1.11107752e-02
      -4.18537296e-03 -8.19676276e-03 -7.19487341e-03 3.08733433e-03
      -6.30938113e-02 3.22829783e-02 1.23854692e-03 -2.56653572e-03
      -6.12919917e-03 -2.19833720e-02 -3.29627804e-02 -6.91158872e-04
      5.31420708e-02 -4.74325940e-02 4.37227115e-02 4.45585884e-02
      2.77669914e-03 -1.64270345e-02 -1.09688835e-02 -9.93990712e-03
      -1.04106423e-02 1.37806395e-02 -4.58031241e-03 2.47530080e-02
      1.95703711e-02 -5.09676710e-03 -2.38241442e-03 -2.70151813e-02
      -3.15737650e-02 -3.57323140e-02 3.13468389e-02 -3.05169728e-02
      2.26696972e-02 5.47593012e-02 3.46194915e-02 -2.85701472e-02
      -3.19566503e-02 -4.66322042e-02 9.28000268e-03 3.71728390e-02
      -2.26215962e-02 3.20780911e-02 5.83171174e-02 2.19441652e-02
      -8.32643174e-03 -3.93948592e-02 -6.75273761e-02 -5.02062365e-02
      1.71099547e-02 3.69481556e-02 2.52995528e-02 1.25024356e-02
      3.77939977e-02 3.48870130e-03 -4.11476605e-02 -4.28142510e-02
      -2.83151213e-02 3.90021876e-02 -1.85514905e-03 -2.90400740e-02
      6.06589615e-02 5.29979393e-02 -8.87019560e-03 -2.20056474e-02
      -4.78630848e-02 -4.73830886e-02 2.42086817e-02 3.11877392e-02
      3.59193003e-03 1.60685331e-02 7.10785240e-02 4.12801653e-02
      1.49732269e-03 -5.36494963e-02 -4.29962538e-02 1.68865100e-02
      9.36171878e-03 9.54450853e-03 2.65037920e-02 3.00292429e-02
      2.56033111e-02 5.05087003e-02 -7.91873876e-03 1.55637721e-02
      6.06613904e-02 1.95983872e-02 7.09845647e-02 6.57895654e-02
      4.39627506e-02 1.17409974e-02 7.46845559e-04 -4.59112637e-02
      -5.26618287e-02 1.07927127e-02 4.95419791e-03 1.19706970e-02
      -1.96340270e-02 -9.10860859e-03 5.64525835e-02 3.77055183e-02
      -1.38094351e-02 9.01829544e-03 3.55269872e-02 3.08900382e-02
      2.21815072e-02 1.43075027e-02 -3.75248455e-02 7.03378692e-02
      1.84089355e-02 5.83313406e-03 3.58378477e-02 5.69773354e-02
      5.01891179e-03 5.34961447e-02 5.24974726e-02 -1.50301652e-02
      -2.25930084e-02 -3.38479951e-02 -3.44207697e-03 1.11953383e-02
      6.82550445e-02 5.02782725e-02 5.33215590e-02 1.77708790e-02
      -4.55518626e-02 -4.05021943e-02 5.43521456e-02 -3.14654876e-03
      3.53969969e-02 2.26858519e-02 1.55141409e-02 4.82596643e-02
      -1.14059297e-03 -6.64636667e-04 3.66417058e-02 1.87340416e-02
      -2.02998370e-02 1.55663211e-02 3.64317559e-02 1.11255571e-02
      4.75559831e-02 -3.40014584e-02 -2.52836682e-02 9.18012578e-03
      -4.74794880e-02 -2.34712511e-02 4.91422089e-03 3.85285839e-02
      4.60646674e-02 1.44969812e-02 4.36839939e-04 -2.14993078e-02
      -3.18132266e-02 -3.62791009e-02 -2.66946871e-02 6.18320480e-02
      8.95504206e-02 5.80889620e-02 1.88585988e-03 -8.66489485e-04
      -1.38930306e-02 -1.25222225e-02 5.10033639e-03 -2.42628269e-02
      2.64450517e-02 2.05507558e-02 -1.08598014e-02 7.91417658e-02
      2.29657609e-02 -2.97386739e-02 -1.73682161e-02 4.54025110e-03
      3.87883629e-03 -7.12655392e-03 6.36953041e-02 3.79885025e-02
      1.49406900e-03 2.51610819e-02 -3.06158140e-02 -1.06284944e-02
      5.05327480e-03 2.08151173e-02 3.31009962e-02 4.85363603e-02
      -1.30930240e-03 -3.02547608e-02 1.46495495e-02 1.96577869e-02
      1.39929354e-02 5.18448763e-02 2.58927569e-02 2.13447642e-02
      1.53248711e-02 7.52871856e-03 -2.35784687e-02 2.45002359e-02
      3.49412113e-02 8.16496313e-02 -1.25125991e-02 -4.39511016e-02
      -4.20868136e-02 3.76946032e-02 2.22654305e-02 2.94898171e-02
      2.33674161e-02 5.10934442e-02 6.20774068e-02 1.44472169e-02
      1.62747968e-02 -3.23549919e-02 5.90639338e-02 2.86360849e-02
      -3.11395172e-02 -5.77651672e-02 4.95403036e-02 8.90277252e-02
      2.03404222e-02 -8.41293111e-03 -9.01568867e-03 2.87312362e-02
      2.91233901e-02 4.42169374e-04 5.05655892e-02 2.61627808e-02
      7.39303157e-02 1.22150751e-02 -2.18838621e-02 7.42293335e-03
      3.16754952e-02 -2.57414151e-02 1.98091287e-03 2.37585213e-02
      -1.18405065e-02 -3.47630046e-02 8.19125865e-03 -1.21589480e-02
      -4.94476296e-02 1.41325537e-02 3.71701014e-03 -9.93902050e-03
      1.49315083e-02 8.97904020e-03 7.47507364e-02 4.96516284e-03
      1.42000960e-02 -5.19094616e-02 -5.67467650e-03 -7.11980136e-03
      2.09806636e-02 1.29137104e-02 -3.51038799e-02 4.28977236e-03
      -2.12532487e-02 -1.58592388e-02 3.13801803e-02 4.83067259e-02
      9.58765578e-03 6.97935596e-02 1.82398558e-02 -2.31769010e-02
      -5.25930077e-02 -2.20734980e-02 -2.69510876e-02 -2.94299726e-03
      -2.94481050e-02 -4.95480560e-02 4.61373739e-02 -2.64255889e-02
      -1.09910592e-02 -2.96433475e-02 9.68155079e-03 2.81510502e-02
      3.58209386e-02 -6.91601774e-03 7.34513765e-03 8.02208111e-02
      1.74052287e-02 -4.75374311e-02 -3.95119712e-02 -2.87849247e-03
      1.43303126e-02 -1.42584704e-02 -4.84857447e-02 -4.31241095e-02
      6.08541965e-02 1.21156806e-02 -3.06556653e-02 -3.21193598e-02
      -2.15898696e-02 -1.11517655e-02 1.00255962e-02 1.49768824e-02
      -2.21606232e-02 3.07508484e-02 -1.27018653e-02 2.43526301e-03
      2.65092053e-03 -1.97435059e-02 1.02507779e-02 1.87675022e-02
      8.11078101e-02 4.68650535e-02 -1.28658125e-02 -3.31371501e-02
      2.01152358e-03 -1.74729060e-02 1.30109896e-03 1.28833335e-02
      2.75812130e-02 -2.53096242e-02 -4.61067520e-02 1.88060366e-02
      2.51223352e-02 1.70704843e-05 -2.97538331e-03 4.55217948e-03
      2.70573776e-02 2.31278073e-02 7.36657903e-02 6.25584973e-03
      -3.06238849e-02 -3.21287736e-02 -1.46632548e-02 -1.13574937e-02
      -5.41041978e-03 -1.84180669e-03 -1.32248299e-02 1.60580091e-02
      7.95736630e-03 8.01035948e-03 2.84888446e-02 -1.09461723e-02
      -1.85574847e-03 -2.16791946e-02 -1.75686572e-02 -3.97195853e-02
      2.50631548e-03 -9.68561880e-03 5.44620603e-02 4.51927707e-02
      3.94577160e-02 -4.52127978e-02 -1.22853889e-04 -3.82068544e-03
      -1.70251708e-02 1.20965932e-02 3.53651494e-02 -6.45012641e-03
      7.27923168e-03 2.16359179e-03 -5.22281323e-03 -1.40928729e-02
      -2.52065975e-02 -4.36254479e-02 -1.91100985e-02 -8.39423668e-03
      4.49499041e-02 6.76760897e-02 4.14333157e-02 -3.75356562e-02
      -3.54720876e-02 -2.44073775e-02 -3.39427628e-02 -6.09847484e-03
      1.08364606e-02 -9.71601997e-03 3.97553369e-02 7.77697414e-02
      -2.04604235e-03 -3.02604586e-02 -5.19446582e-02 -4.07571830e-02
      2.03535566e-03 3.41197178e-02 8.40400252e-03 6.51860610e-04
      6.89073876e-02 6.07239231e-02 -3.45689952e-02 -1.54305873e-02
      -3.42760719e-02 -2.57495251e-02 -2.20662821e-02 -2.60779671e-02
      3.09300497e-02 9.62948427e-02 2.18648370e-02 -2.06944719e-02
      -2.82236859e-02 -2.42704730e-02 -8.15037265e-03 8.62626173e-03
      -3.31926011e-02 -2.46811323e-02 6.81520551e-02 7.05321059e-02
      -1.34605635e-02 -2.64819060e-02 -4.49896567e-02 -1.90192144e-02
      1.23403911e-02 1.09688370e-02 -1.81122832e-02 3.62517382e-03
      7.99082071e-02 4.50595543e-02 -3.21888775e-02 -8.33960157e-03
      4.07965807e-03 1.95174553e-02 2.64719389e-02 1.10836476e-02
      -3.84686328e-03 8.39484334e-02 -2.64327116e-02 7.45057687e-03
      -2.68509686e-02 -3.74611691e-02 -1.09685259e-02 -9.12440196e-03
      -2.55408064e-02 -3.63993384e-02 1.85474362e-02 5.14388569e-02
      -1.71872899e-02 -1.89865660e-02 -2.75127422e-02 -3.02518737e-02
      -4.53081774e-03 -9.64005291e-03 1.81156266e-02 4.83140424e-02
      7.60987923e-02 5.49783092e-03 2.20190268e-02 3.05461995e-02
      4.88614216e-02 -6.63971936e-04 -1.97334383e-02 -1.41750649e-02
      3.06402631e-02 5.09791262e-02 -2.86842175e-02 7.23379012e-03
      6.05579838e-02 -1.56017598e-02 6.64874865e-03 -3.69808301e-02
      -4.29989509e-02 2.05685720e-02 1.05800748e-01 6.71615452e-02
      -9.41691548e-03 5.48739918e-02 4.00026850e-02 -4.17611450e-02
      -4.73719798e-02 -1.22521296e-02 3.20305079e-02 4.40398306e-02
      4.19750847e-02 -3.43328808e-03 9.06335860e-02 3.58973332e-02
      2.23882664e-02 -3.24866697e-02 -2.38001514e-02 1.75417736e-02
      3.09998114e-02 -2.43311282e-02 -1.16625382e-03 4.73775342e-03
      -2.41716094e-02 8.74101818e-02 3.82429622e-02 -2.06216071e-02
      1.88945103e-02 -7.09075807e-03 -1.39918057e-02 -4.17913422e-02
      1.62738282e-02 -2.91905738e-03 3.62544283e-02 1.57372374e-02
      2.58129928e-03 1.95435286e-02 1.71651337e-02 -2.35718712e-02
      -3.30054723e-02 -6.79468270e-03 3.53042111e-02 4.70330752e-02
      6.49301633e-02 -8.25085968e-04 3.18130553e-02 -1.93226933e-02
      -4.58508767e-02 -4.08383608e-02 5.39381430e-02 4.91086952e-02
      6.54992685e-02 6.98945299e-02 9.97623312e-04 1.74533203e-02
      -1.84867177e-02 -4.43701036e-02 -4.66279872e-02 -3.96617176e-03
      5.82088297e-03 1.95732079e-02 1.68239903e-02 3.33045088e-02
      8.41951817e-02 1.59555171e-02 1.94615424e-02 -3.69350910e-02
      1.43696032e-02 7.79408729e-03 8.08040425e-03 -1.59288086e-02
      4.79977988e-02 9.86870527e-02 -3.74280252e-02 -7.88661167e-02
      -4.27485332e-02 9.78908851e-04 2.26134341e-02 8.27060789e-02
      2.02850047e-02 1.26868654e-02 7.80479461e-02 -2.58517060e-02
      -8.91205389e-03 2.31175534e-02 -3.09136920e-02 1.79296854e-04
      5.37774190e-02 -1.80533342e-02 5.48909046e-02 3.17037478e-02
      2.22878903e-02 1.63543262e-02 -2.61337217e-02 -7.07463780e-03
      1.38401072e-02 5.58447326e-03 5.86394966e-03 5.32242656e-02
      6.62243292e-02 1.60617288e-02 4.50683646e-02 -2.65181884e-02
      1.53001370e-02 -3.49729053e-05 2.57317442e-02 -7.85326865e-03
      -1.06018060e-03 1.54599082e-02 -2.85400008e-03 -1.40238889e-02
      -7.66589912e-03 -3.55601385e-02 -2.03982200e-02 9.66912322e-03
      1.83403492e-02 5.47567122e-02 1.84212998e-03 3.74339451e-03
      8.99553392e-03 3.76573652e-02 -5.08661196e-02 -1.52996182e-02
      6.77112071e-03 -1.81418899e-02 2.82758307e-02 2.14058030e-02
      5.45609975e-03 3.01060788e-02 4.24601547e-02 -1.12104770e-02
      2.43977923e-02 5.44922054e-02 1.38622336e-02 -2.00906452e-02
      -1.47060147e-02 1.09651433e-02 -6.51782518e-03 -9.31313075e-03
      -2.00055167e-03 -2.88437791e-02 5.33501506e-02 2.80340705e-02
      -3.08061130e-02 -2.41509303e-02 3.43753444e-03 4.48206365e-02
      4.24018465e-02 1.94505267e-02 2.65305359e-02 4.62830551e-02
      -1.84695441e-02 5.01380069e-03 -1.89303365e-02 1.74242128e-02
      3.39985103e-03 -2.18279054e-03 1.31530399e-02 -3.43158655e-02
      1.91952847e-02 1.93651505e-02 -1.91323310e-02 -6.08281903e-02
      2.80766990e-02 1.81407742e-02 2.56869253e-02 -2.57694740e-02
      -7.62282982e-02 -3.24263945e-02 2.13463120e-02 -5.81760425e-03
      -1.01736011e-02 2.91327499e-02 5.82291074e-02 2.37956401e-02
      3.00916936e-02 -2.00441922e-03 -4.59037572e-02 -2.25227494e-02
      -2.78216656e-02 -2.36888397e-02 6.09667376e-02 5.19983917e-02
      1.90232433e-02 9.12953168e-03 -7.39720538e-02 -6.89258277e-02
      1.39591517e-02 4.17135481e-04 -2.47761887e-02 4.77436110e-02
      7.51156434e-02 5.05640656e-02 8.13949946e-03 -3.28498483e-02
      -7.11230710e-02 -1.67905521e-02 -2.65550576e-02 -1.49312364e-02
      5.64205169e-04 -7.68660195e-03 -4.63733636e-03 1.46364272e-02
      3.95882912e-02 -1.15682287e-02 1.06038945e-02 -6.48906745e-04
      -1.31950090e-02 -1.36497645e-02 -2.56478041e-02 -1.84059311e-02
      -1.43145528e-02 9.90125118e-04 2.11125668e-02 5.34610189e-02
      2.39612609e-02 -1.57352760e-02 -2.48013586e-02 -2.32239440e-02
      1.00013837e-02 5.39764762e-02 6.02198765e-02 3.80710177e-02
      -1.02210119e-02 -4.71444987e-02 -3.14705074e-02 -3.78116928e-02
      -1.88419167e-02 5.33193676e-03 2.19976902e-02 2.13393141e-02
      1.73793137e-02 -1.16861556e-02 1.96596086e-02 -8.06431659e-03
      -2.22475305e-02 -1.64398421e-02 -1.76212657e-02 -1.25172175e-02
      -3.43984924e-02 -1.23319309e-02 4.36228886e-02 1.06424130e-01
      4.34654653e-02 -2.11355537e-02 -3.57353948e-02 -1.64541993e-02
      -1.78491313e-03 -2.09338069e-02 -6.27016425e-02 1.13612143e-02
      6.71353862e-02 7.92899877e-02 -3.56453210e-02 -4.14009281e-02
      -9.41915810e-03 -1.64049119e-02 -3.36852297e-02 -4.69630398e-02
      -1.26500437e-02 5.73673807e-02 7.00702295e-02 -1.32807868e-03
      -7.51069859e-02 -5.94308926e-03 8.95720627e-03 -2.50900965e-02
      -5.65927029e-02 9.07484069e-03 6.43622130e-02 2.12317370e-02
      -1.60782542e-02 4.21399111e-03 -1.11060813e-02 -1.26951812e-02
      -2.26109680e-02 5.09441365e-03 1.56854130e-02 -2.25896249e-03
      5.76911271e-02 3.70113142e-02 -1.76188722e-02 3.86141799e-03
      -1.10182893e-02 -2.82070134e-02 -4.85584699e-03 3.71622131e-03
      2.85806693e-02 5.44847138e-02 1.21233463e-02 -1.20775402e-02
      -6.27475092e-03 -5.88289555e-03 -2.20552795e-02 -1.17418589e-03
      2.95039378e-02 -2.24341229e-02 -2.06747800e-02 2.13855170e-02
      1.55514898e-02 -1.51822520e-02 -2.98037063e-02 -5.60247898e-02
      -1.31377662e-02 -3.05290963e-03 9.28779249e-04 3.16896779e-03
      1.24479413e-01 5.33731580e-02 -5.87167824e-03 2.72258352e-02
      -2.48827878e-03 -4.51207720e-02 -3.58673558e-02 -6.61448285e-04
      5.67663684e-02 1.29492790e-01 5.62090464e-02 -5.99236926e-03
      2.40182728e-02 4.14391458e-02 -1.98293617e-03 -1.71161927e-02
      1.47993059e-03 5.70244528e-02 9.47675928e-02 3.81692611e-02
      -2.59787682e-02 -4.10074880e-03 -7.24063590e-02 -6.18794411e-02
      -1.65932123e-02 2.21246923e-03 7.05643147e-02 6.56408072e-02
      5.41603006e-02 1.85660063e-03 2.37185303e-02 -2.44720224e-02
      -1.92207471e-02 -4.33537550e-02 4.90242522e-03 1.03684776e-01
      4.48992737e-02 -6.17806939e-03 -3.68673317e-02 5.63414907e-03
      5.16718365e-02 2.12036576e-02 5.84149733e-02 1.58612579e-02
      5.81350103e-02 1.61743127e-02 -4.11481783e-02 1.96902873e-03
      6.97676986e-02 7.12149888e-02 7.61809498e-02 4.69477698e-02
      -1.32877496e-03 3.78349721e-02 -1.39902877e-02 -1.76389888e-02
      -2.56091449e-02 3.26621579e-03 2.32382528e-02 3.59813357e-03
      -1.53213870e-02 3.79056595e-02 3.97389233e-02 -6.63294271e-03
      -2.00951006e-02 8.29569064e-03 3.64885777e-02 1.99078452e-02
      -1.40709085e-02 -4.02014218e-02 1.00293849e-02 8.37782864e-03
      -8.61891918e-03 -5.82604967e-02 -7.63741881e-03 2.94633023e-02
      5.85626177e-02 7.37667531e-02 9.63204820e-03 -1.26007502e-03
      7.99022168e-02 -2.05109216e-04 -1.07938179e-03 3.44363600e-02
      -2.31882241e-02 2.20918749e-02 4.44388539e-02 1.01770284e-02
      5.62248193e-03 3.95079926e-02 -1.00008473e-02 -5.84987365e-02
      -2.50499370e-03 1.37320245e-02 3.17728668e-02 1.28934570e-02
      -1.30998231e-02 3.68603785e-03 -8.59685522e-03 -5.10681458e-02
      -1.62452217e-02 2.80963946e-02 1.04741799e-02 8.93482473e-03
      2.94460002e-02 5.08225411e-02 -3.13768797e-02 9.78768244e-03
      2.84720007e-02 8.68452662e-06 -3.55685741e-04 5.89750474e-04
      -2.01906860e-02 -1.42045459e-03 1.09423744e-02 3.36106420e-02
      -2.98469164e-03 -3.46107362e-03 1.23544633e-02 1.72665641e-02
      -2.04374474e-02 -5.17043797e-03 -1.28784496e-02 -2.04623025e-03
      1.83417350e-02 9.20525417e-02 -2.56960858e-02 -2.62852348e-02
      1.92300100e-02 5.44756763e-02 -1.42589454e-02 -2.14902088e-02
      -3.24723460e-02 -1.91576276e-02 -3.65925469e-02 -8.07805732e-03
      -1.74323581e-02 4.01804075e-02 5.16624078e-02 -2.69391853e-02
      -2.34423745e-02 -4.60997075e-02 -1.10721039e-02 5.43975681e-02
      1.50406295e-02 4.20895889e-02 6.43088669e-02 3.17542441e-02
      -5.14300074e-03 1.51344715e-02 -1.71848889e-02 -1.87517342e-03
      -5.59049705e-03 7.28425337e-03 4.83309217e-02 5.77186868e-02
      -1.02036437e-02 -3.66216823e-02 2.28323997e-03 1.67711880e-02
      5.39392792e-03 -5.51078282e-02 -8.70570913e-03 -2.81100580e-03
      7.90527910e-02 4.16238047e-02 -2.47911643e-03 -1.72010660e-02
      -6.87475037e-03 -1.61123574e-02 2.45365240e-02 -2.72219647e-02
      2.85701528e-02 5.65760098e-02 2.51152058e-04 -2.21221857e-02
      -3.86823043e-02 -9.38359369e-03 -6.74579712e-03 -5.92055358e-02
      2.09577568e-02 4.44958769e-02 -1.18127391e-02 2.57607158e-02
      -6.22450709e-02 -7.79465884e-02 2.05750167e-02 1.07254284e-02
      -7.55969435e-03 3.40014845e-02 5.10057025e-02 5.68746701e-02
      1.87578872e-02 -3.80523726e-02 -4.86271940e-02 -1.07063735e-02
      -2.24424079e-02 -5.61975059e-04 -3.27225849e-02 2.71321032e-02
      6.93991547e-03 8.19643587e-03 -5.63828321e-03 -8.31930339e-02
      1.89034082e-03 1.36858982e-03 -1.28474664e-02 -4.47391300e-03
      3.04343868e-02 1.39540769e-02 3.15960348e-02 -4.60241251e-02
      -4.96249348e-02 -7.65018072e-03 -1.10486615e-02 -1.14419060e-02
      -2.53115222e-02 -1.83481723e-02 2.30478123e-02 4.32301909e-02
      6.85534701e-02 6.30219951e-02 6.83938945e-03 -5.30641675e-02
      -2.74534449e-02 -2.25275345e-02 -2.38455050e-02 7.85759464e-03
      1.85300820e-02 5.28930686e-02 5.64062707e-02 -5.11103384e-02
      -5.78974374e-02 -1.13050807e-02 -3.84898074e-02 -2.41690874e-02
      1.24338791e-02 3.25364769e-02 6.74616173e-02 6.16952516e-02
      1.54358828e-02 -3.54321599e-02 -3.10421716e-02 -8.05442128e-03
      -3.77902947e-02 5.26222307e-03 1.95443686e-02 3.57017778e-02
      3.05296592e-02 -1.08997291e-02 -5.96477203e-02 -2.69110240e-02
      -2.36341748e-02 -3.19044292e-02 1.08063817e-02 -1.24629382e-02
      -4.12832294e-03 -2.32904349e-02 -8.11891258e-03 5.72216474e-02
      7.49809146e-02 -5.94832096e-03 -3.95397358e-02 2.17985455e-02
      7.97794946e-03 -1.61714405e-02 -6.19840436e-02 5.12673473e-03
      6.33899495e-02 4.20262814e-02 -3.30915898e-02 -3.37903760e-02
      1.03007490e-02 -1.76517591e-02 6.03307877e-03 3.71977873e-03
      2.01926678e-02 -9.43822693e-03 1.41613455e-02 -1.07463207e-02
      -2.14592144e-02 -2.09375490e-02 5.18950121e-03 8.74075387e-03
      -6.01851940e-03 3.37795429e-02 4.84788232e-03 2.27867290e-02
      2.30010040e-02 1.49036245e-02 4.17528301e-03 1.44731393e-03
      -9.27233230e-03 -1.29206646e-02 2.02210285e-02 2.38376623e-03
      1.30763566e-02 3.62944044e-02 4.02556621e-02 -7.40297604e-03
      -4.29787077e-02 -4.51263078e-02 -4.05847002e-03 2.15382781e-02
      5.30247837e-02 -1.17488801e-02 -2.65798736e-02 -1.53803295e-02
      -1.09888697e-02 1.25878518e-02 -9.11450945e-03 -1.43531021e-02
      3.09862499e-03 -4.77554910e-02 1.64790619e-02 -5.99068764e-04
      1.21395551e-02 -5.19928476e-03 -2.83029098e-02 -1.36402566e-02
      -9.35129821e-03 1.78881735e-02 2.87850723e-02 -4.15254608e-02
      8.34822208e-02 2.00376455e-02 1.05494529e-03 -2.77625211e-02
      -5.06288484e-02 -4.10743803e-02 3.27261910e-02 1.86906829e-02
      2.81917118e-02 8.10971931e-02 1.52813839e-02 1.86506994e-02
      -7.46141467e-03 -3.32799293e-02 -4.94787470e-03 -3.40189636e-02
      7.86538410e-04 7.32896104e-02 -5.67142526e-03 3.30816843e-02
      4.54692775e-03 -3.94318402e-02 -1.29338056e-02 1.42518124e-02
      2.75998991e-02 -1.68267917e-02 -5.50111756e-02 5.26996329e-02
      4.44091223e-02 1.04600582e-02 -4.77985926e-02 7.21247308e-03
      -3.84643395e-03 -2.22785491e-02 -5.39543480e-02 -2.72106770e-02
      7.08699506e-03 9.25900298e-04 -1.72569938e-02 -1.05016120e-02
      1.67302396e-02 5.35232248e-03 -4.66507748e-02 2.45896000e-02
      6.09574914e-02 -2.57154391e-03 2.37279125e-02 3.56446672e-03
      -5.58924349e-03 1.81170627e-02 -4.20721713e-03 -3.62487249e-02
      2.50024125e-02 2.38061808e-02 -1.91330742e-02 2.24913377e-02
      -1.38116535e-02 -1.57656837e-02 9.40244179e-03 -6.65722357e-04
      -2.59541757e-02 5.30493036e-02 2.25146227e-02 -5.14710434e-02
      6.36026869e-03 -1.36871655e-02 -3.75728235e-02 1.59492921e-02
      -1.99106354e-02 -9.20229778e-03 5.56641296e-02 -2.52000839e-02
      -2.12145317e-02 7.14263367e-03 2.82928557e-03 1.24167360e-03
      2.12580282e-02 8.84217676e-03 3.14615257e-02 -8.06319434e-03
      2.00991947e-02 -4.16603163e-02 2.63082888e-02 4.21398915e-02
      2.55121458e-02 -2.29255282e-04 4.20139357e-02 4.76531945e-02
      5.61287487e-03 4.31685746e-02 -5.32453805e-02 -1.41662061e-02
      -2.37290021e-02 -7.34330202e-03 7.32781040e-03 1.49902422e-02
      4.94930223e-02 1.76025778e-02 -1.95316207e-02 -3.79482284e-02
      -5.16877696e-02 2.66735591e-02 3.39783877e-02 1.38874799e-02
      2.89564319e-02 5.84212728e-02 3.93103808e-02 -7.26951146e-03
      -2.38679070e-02 7.90556613e-03 3.31634618e-02 3.21579129e-02
      -2.84739379e-02 -3.88014829e-03 -1.53144747e-02 -2.72491947e-02
      7.19735306e-03 -8.90223309e-03 -2.25802362e-02 3.20316255e-02
      1.78417191e-02 -1.55627355e-02 -1.98893454e-02 -2.48855017e-02
      -4.87070344e-03 4.28839177e-02 -3.08651179e-02 -1.53511891e-03
      3.10064722e-02 2.20041326e-03 -5.13864122e-03 2.33426364e-03
      6.28927350e-03 -3.48895863e-02 2.18515396e-02 2.48996657e-03
      1.87046435e-02 9.96399112e-03 1.48642145e-03 -2.11537220e-02
      5.27244853e-03 8.78793374e-03 -2.17663567e-03 4.08530533e-02
      -5.58785982e-02 -9.68972594e-03 4.46003787e-02 2.53704786e-02
      8.92852899e-03 -8.53187125e-03 -1.91600338e-04 -1.61585268e-02
      2.04834365e-03 -3.57698016e-02 2.20299116e-03 3.99670117e-02
      -4.19814792e-03 -1.71942487e-02 -1.04931751e-02 -3.96298105e-03
      -2.26517599e-02 -4.32900526e-02 -2.77961958e-02 2.86629144e-03
      5.90217300e-02 1.78615656e-02 -2.53966656e-02 -1.64031703e-02
      1.57911307e-03 8.33697803e-03 -1.42711382e-02 -4.30925153e-02
      1.62757672e-02 4.18228582e-02 -2.39914507e-02 -4.60493937e-02
      -7.34033762e-03 1.49650183e-02 8.75674840e-03 -5.88477496e-03
      -4.27923761e-02 3.49909179e-02 2.43623797e-02 1.28894299e-02
      -3.63636501e-02 -2.58555561e-02 1.30058359e-02 -2.06617117e-02
      -2.50604060e-02 -2.80752443e-02 8.19414295e-03 -8.76942556e-03
      3.28308642e-02 7.00549921e-03 -9.35637392e-03 2.43478753e-02
      -4.78708977e-03 5.10720420e-04 -5.13382740e-02 7.05223996e-03
      1.43151954e-02 1.02103846e-02 -6.33537844e-02 -1.30605604e-03
      1.96401160e-02 -2.84041874e-02 -1.97596103e-02 -4.42265533e-02
      -3.48537154e-02 -3.17387767e-02 1.53773010e-03 -5.22477441e-02
      3.66747170e-03 2.54221149e-02 8.58563557e-03 1.00624980e-02
      -3.90377901e-02 -3.37030813e-02 -1.04843210e-02 7.11193215e-03
      7.75779411e-02 7.52480328e-02 1.83373899e-03 -6.60670642e-03
      -1.68811437e-02 -2.92970128e-02 -4.76887375e-02 1.03168876e-03
      -1.53137231e-02 3.21473330e-02 -2.14165747e-02 -2.18974650e-02
      -8.23522173e-03 -8.15446302e-03 -3.64239551e-02 -3.25497128e-02
      -1.72580797e-02 -5.76980505e-03 5.35754301e-02 7.44817108e-02
      -3.73094752e-02 -8.93116987e-04 -3.21505591e-02 -4.18437235e-02
      -4.98356819e-02 1.07239345e-02 -2.78866831e-02 -1.06322300e-02
      4.59859939e-03 3.79865021e-02 1.68927084e-03 1.22518865e-02
      -4.40874882e-03 -1.79669801e-02 2.68831607e-02 2.06950982e-03
      -9.28387139e-03 -1.00338887e-02 8.66763201e-03 2.03870256e-02
      5.38581191e-03 3.03467200e-03 -3.45879756e-02 -6.21306384e-03
      -3.79117695e-03 -1.05802268e-02 2.42073182e-02 2.54557915e-02
      -1.98797639e-02 3.03456448e-02 -1.43013243e-02 -3.55888717e-02
      2.51211673e-02 3.15007707e-03 -2.41544619e-02 -1.46765541e-02
      3.70299108e-02 3.51056233e-02 1.75116211e-02 -1.70262530e-03
      -4.12094519e-02 -1.68912001e-02 -1.58565808e-02 -4.22056857e-03
      7.32764835e-03 4.61196676e-02 2.50980277e-02 2.04131398e-02
      3.13705802e-02 -3.25076059e-02 -2.34356374e-02 -4.03197762e-03
      -5.82229812e-03 -1.83576923e-02 1.79887824e-02 -1.57863833e-02
      5.33810742e-02 2.67722830e-02 3.83935198e-02 -1.45609649e-02
      -2.41000932e-02 -1.25521850e-02 -9.73901991e-03 3.05590569e-03
      4.42972928e-02 -2.48795040e-02 5.04088476e-02 -1.98874213e-02
      -3.36053446e-02 -2.42585801e-02 -4.64654751e-02 -2.64635608e-02
      2.81639174e-02 -8.74620629e-04 3.41260210e-02 5.33661768e-02
      7.34936371e-02 6.79087685e-03 -2.15183794e-02 -1.09704705e-02
      -3.07638068e-02 -6.91383891e-03 6.83851168e-03 -2.28300411e-02
      -1.14627453e-02 4.26266007e-02 1.00862402e-02 -3.35238501e-02
      -1.80098563e-02 4.75130370e-03 -6.93013147e-03 -2.38342471e-02
      -8.62186998e-02 3.55658941e-02 7.27602020e-02 1.87905915e-02
      -3.66527662e-02 2.05337331e-02 -1.72981564e-02 -2.31090486e-02
      -3.65523547e-02 -2.05686372e-02 -2.02586558e-02 6.10552467e-02
      4.24055150e-03 -2.25887779e-04 7.90397730e-03 -1.46707194e-03
      -2.35687084e-02 -6.29057502e-03 -8.80120695e-02 2.63182190e-03
      9.31713264e-03 -1.70970745e-02 1.31167602e-02 3.58064510e-02
      -9.63108893e-03 -5.40155508e-02 -1.98637769e-02 -2.39291210e-02
      -9.22567770e-03 3.31236273e-02 -1.61718938e-03 -8.44257884e-03
      1.66237690e-02 -2.24913228e-02 -2.88699996e-02 6.21374771e-02
      1.69757232e-02 -4.54104990e-02 3.54461046e-03 8.55284510e-04
      -1.01555539e-02 -3.59868957e-03 -6.60700782e-04 -5.07439626e-03
      7.91843757e-02 3.85133200e-03 3.04358508e-02 2.53112577e-02
      -5.64571055e-05 -4.68165490e-05 1.29369199e-02 -4.11883779e-02
      -1.35466484e-02 8.63958523e-03 -3.81818414e-02 -1.71819180e-02
      4.02674964e-03 3.47428396e-02 2.05120221e-02 2.43079360e-03
      -4.51967567e-02 1.79049540e-02 5.33047467e-02 1.86268811e-03
      -8.03320259e-02 -3.49557512e-02 -1.03575252e-02 1.22686494e-02
      1.22424979e-02 3.88265401e-03 5.28777950e-02 3.02713905e-02
      -2.36901678e-02 -6.82035461e-02 -5.12206368e-02 3.06646116e-02
      4.00251113e-02 5.42602688e-03 1.78814810e-02 4.76628430e-02
      4.94253412e-02 2.91676167e-03 -8.30038115e-02 -1.66281573e-02
      5.77539345e-03 3.92845124e-02 5.13904095e-02 -1.59009616e-03
      1.25209680e-02 1.58968847e-02 -4.25880440e-02 -8.57336819e-02
      -4.30395268e-02 3.36465351e-02 5.44374920e-02 4.43329662e-02
      2.31173616e-02 5.06232120e-02 3.98928896e-02 -1.15916701e-02
      -3.87709029e-02 -3.15172561e-02 2.79396679e-02 3.26986820e-03
      -3.26619658e-04 1.24704801e-02 1.29411053e-02 -2.23498847e-02
      2.79473420e-02 -6.77297404e-03 1.21798031e-02 9.23447590e-03
      6.93935575e-03 -1.43813454e-02 2.89192819e-03 3.32433544e-02
      2.14019399e-02 3.83779444e-02 -5.25912642e-02 -3.76397595e-02
      1.92653127e-02 2.05534957e-02 2.74461531e-03 2.09991746e-02
      3.05866376e-02 -1.40446955e-02 1.60875879e-02 -4.45647575e-02
      -2.45595798e-02 8.91890470e-03 1.49037000e-02 2.39307825e-02
      2.23477464e-02 5.38091324e-02 2.58487556e-02 -1.36043737e-02
      3.48344608e-03 -4.70845308e-03 3.93221565e-02 2.14351118e-02
      -5.79132326e-02 -2.60831206e-03 2.39243601e-02 1.69557426e-02
      -2.53065228e-02 -5.68596348e-02 -1.99477235e-03 5.17260507e-02
      -2.77352631e-02 -4.40551750e-02 -1.34843367e-03 1.08197080e-02
      3.51036736e-03 3.71074886e-03 -1.60194766e-02 1.08796339e-02
      2.12264620e-02 6.82834210e-03 -4.76162555e-03 1.86793581e-02
      3.30426581e-02 1.01504172e-03 -3.39197330e-02 -7.79802352e-03
      2.85858661e-02 -1.06740277e-02 -5.17411216e-04 -4.06307019e-02
      2.75575574e-02 1.51877347e-02 -7.59110134e-03 1.32709164e-02
      -5.07165603e-02 1.40226176e-02 2.46121921e-02 3.80904265e-02
      -2.93515697e-02 1.19268824e-03 3.87328453e-02 8.12689681e-03
      -5.76296402e-03 -3.12582478e-02 -2.49385107e-02 -2.51577105e-02
      -1.81318112e-02 -7.07853585e-02 -6.90833607e-04 4.61286381e-02
      3.26293893e-02 1.72785688e-02 -4.45316732e-02 1.61915971e-03
      -1.59234945e-02 4.99059148e-02 -1.17995609e-02 2.60869674e-02
      3.81415598e-02 3.21624391e-02 5.23357792e-03 -4.16136906e-02
      -8.33562315e-02 -5.09650819e-02 -5.44514460e-03 2.30827741e-03
      -2.36718599e-02 6.06437512e-02 3.87345366e-02 6.18101563e-03</_></support_vectors>
  <decision_functions>
    <_>
      <sv_count>1</sv_count>
      <rho>3.1876402942466164e+00</rho>
      <alpha>
        1.</alpha>
      <index>
        0</index></_></decision_functions></my_svm>
</opencv_storage>
