<?xml version="1.0"?>
<opencv_storage>
<my_svm type_id="opencv-ml-svm">
  <svm_type>C_SVC</svm_type>
  <kernel><type>LINEAR</type></kernel>
  <C>1.0000000000000001e-01</C>
  <term_criteria><epsilon>1.1920928955078125e-07</epsilon>
    <iterations>1000</iterations></term_criteria>
  <var_all>2916</var_all>
  <var_count>2916</var_count>
  <class_count>2</class_count>
  <class_labels type_id="opencv-matrix">
    <rows>1</rows>
    <cols>2</cols>
    <dt>i</dt>
    <data>
      1 2</data></class_labels>
  <sv_total>1</sv_total>
  <support_vectors>
    <_>
      3.61523740e-02 -1.29812080e-02 -6.31948784e-02 -5.23888357e-02
      -6.67484477e-02 -8.92289635e-03 1.09150773e-02 1.50749385e-02
      4.60252501e-02 7.55203515e-02 -2.91152019e-02 -3.51064019e-02
      -5.57278842e-03 3.67301423e-03 4.32675369e-02 3.43982764e-02
      1.56152602e-02 3.65329497e-02 -6.38213241e-03 -1.74416378e-02
      -1.00059505e-03 5.63119212e-03 2.71765748e-03 -9.60719213e-03
      -3.28376004e-03 -6.43932680e-03 1.48346648e-02 6.31718189e-02
      1.38552580e-02 1.80536360e-02 2.91156825e-02 3.18742581e-02
      4.25930060e-02 1.77253224e-02 1.80707537e-02 3.28205414e-02
      2.33777873e-02 -5.18008769e-02 -2.66943537e-02 -1.37047628e-02
      3.77909802e-02 3.96009125e-02 2.68051159e-02 7.75067927e-03
      -4.40241657e-02 1.23572350e-02 -6.23397492e-02 -1.63889006e-02
      2.98280846e-02 6.21265508e-02 2.89383773e-02 1.69220157e-02
      -3.92448064e-03 -2.59919409e-02 -1.23736383e-02 2.48316880e-02
      2.82917707e-03 -1.65389348e-02 2.11545527e-02 3.85272466e-02
      1.82057898e-02 5.46905212e-03 -2.51613762e-02 8.42809603e-02
      3.04752719e-02 5.76813668e-02 -7.70846289e-03 2.35037431e-02
      2.40594018e-02 6.44867681e-03 -2.17710566e-02 -1.94973871e-02
      -4.85351235e-02 -7.88232312e-02 3.22400331e-02 2.09422186e-02
      1.00086899e-02 4.18281695e-03 -1.15236780e-02 -2.59796754e-02
      -2.69546900e-02 1.15944203e-02 -8.89411196e-03 4.98878919e-02
      4.39016800e-03 -2.80355811e-02 6.42120093e-03 -1.94617677e-02
      -1.23138456e-02 -3.99485347e-04 1.56898964e-02 1.73780434e-02
      3.20107453e-02 7.96760619e-03 9.07426409e-04 -2.08085198e-02
      -2.26966739e-02 -2.86289435e-02 -3.10727209e-02 5.39854504e-02
      5.01038581e-02 6.30254373e-02 -1.26016932e-02 -3.68666239e-02
      -2.33012456e-02 -3.78433056e-02 -1.81398559e-02 -6.76223636e-03
      -2.52439221e-03 -2.64470316e-02 -4.87729860e-03 -8.39561224e-03
      -3.68028171e-02 -8.30848701e-03 -3.44948210e-02 -1.26197282e-03
      6.39393106e-02 5.41624725e-02 4.27411869e-03 -1.10797463e-02
      -6.16414659e-03 -1.32129779e-02 -4.18898230e-03 -3.95238921e-02
      -1.36098517e-02 7.42965862e-02 1.87074114e-02 5.01956455e-02
      1.46533893e-02 -2.62101218e-02 -2.31888425e-02 -1.05575388e-02
      -1.58997774e-02 -8.02625529e-03 1.42419562e-02 -2.08677747e-03
      5.77962473e-02 -4.14330401e-02 -2.42562406e-02 -4.38931835e-04
      9.78123979e-04 -1.03309881e-02 -1.31409168e-02 3.30897085e-02
      3.08952425e-02 1.75968856e-02 -1.01435464e-02 -9.74219176e-04
      9.12689883e-03 3.97544494e-03 -8.13840143e-03 -1.24114910e-02
      1.07049355e-02 4.87919338e-02 1.75606888e-02 -1.12503450e-02
      -6.28632493e-03 -1.12696050e-03 -1.43346256e-02 -3.25062498e-03
      -1.58839021e-02 -1.57667696e-02 -7.10422732e-03 7.85937812e-03
      -2.32111346e-02 2.30940850e-03 3.95901268e-03 7.00103410e-04
      -6.77679293e-03 -3.81145393e-03 3.17150988e-02 9.48631298e-03
      -7.20002642e-03 -5.53559931e-03 1.90610322e-03 -7.49732647e-03
      -3.36745307e-02 8.93124938e-03 -2.42411327e-02 3.08700055e-02
      2.65351422e-02 4.09025291e-04 -2.30162847e-03 -1.68550666e-03
      -6.02446590e-03 -8.26094300e-03 4.32503689e-03 2.22280319e-03
      1.25261804e-03 2.98251752e-02 -1.26324045e-02 4.34976624e-04
      7.11242668e-03 -5.88451838e-03 -1.07157985e-02 2.30868254e-02
      -6.97312551e-03 -3.18652801e-02 1.90249663e-02 -1.97373200e-02
      -3.77209997e-03 -9.97825433e-03 -1.45142404e-02 -1.89954620e-02
      4.73971153e-03 2.70288456e-02 1.66446473e-02 -4.95231338e-02
      -2.98752598e-02 -3.79235833e-03 -1.57706309e-02 -6.95385411e-03
      -1.59032680e-02 3.83373946e-02 5.81977926e-02 -1.35094095e-02
      3.70034352e-02 4.49378183e-03 5.70578128e-03 9.86613799e-03
      1.16355317e-02 -1.17958046e-03 1.70179326e-02 -3.35118994e-02
      -5.93558252e-02 6.89921826e-02 1.49820615e-02 3.64162819e-03
      -3.70231504e-03 2.52795732e-03 9.55346972e-03 -7.71500077e-03
      -8.14964622e-02 -3.17430533e-02 -2.33073588e-02 -2.25972664e-02
      -2.80343695e-03 1.89310824e-03 8.00844841e-03 -1.26431799e-02
      1.10088345e-02 5.02306856e-02 2.93885134e-02 4.75850031e-02
      -2.05755942e-02 3.94488173e-03 -4.81709186e-03 3.89921200e-03
      -6.81954296e-03 -1.59304403e-02 4.24144752e-02 6.39667735e-02
      5.71770780e-02 1.09658083e-02 2.12626532e-02 -1.35293417e-03
      4.00430411e-02 -5.30131673e-03 1.07072084e-03 -5.89291044e-02
      9.95031372e-03 5.31560518e-02 2.16199942e-02 2.02937350e-02
      -1.67479161e-02 2.77736653e-02 -3.58761568e-03 3.36867198e-02
      -4.84681576e-02 1.48017136e-02 5.63244596e-02 3.76182655e-03
      1.89170372e-02 1.41336434e-02 3.07260460e-04 -2.68302262e-02
      -6.54400811e-02 3.60915922e-02 7.82615691e-02 7.90487975e-02
      1.35319270e-02 4.01390530e-02 1.20687596e-02 1.79919656e-02
      -1.55214457e-05 3.23444750e-04 6.28821785e-03 5.76965772e-02
      1.85539220e-02 2.38956735e-02 2.63099149e-02 6.41193055e-03
      3.99889015e-02 -1.79481320e-02 -4.17535491e-02 -1.32904295e-02
      2.46022623e-02 -1.55899478e-02 3.25707234e-02 1.70198064e-02
      7.94716701e-02 9.24953446e-02 -2.53168624e-02 -6.75664619e-02
      -4.91022170e-02 -1.61229409e-02 6.72578961e-02 4.70873900e-02
      2.67968271e-02 3.64964642e-02 4.01350521e-02 -3.91419381e-02
      -2.39876546e-02 2.47718114e-03 4.36320081e-02 -2.95796320e-02
      -3.27971429e-02 -1.62186697e-02 8.17403793e-02 1.35636419e-01
      -1.38964495e-02 -7.57573545e-03 -3.60388011e-02 -4.59272340e-02
      -3.73906083e-02 -1.65900253e-02 -2.44091940e-03 -2.10653571e-03
      -4.27629519e-03 -2.67054513e-03 5.03351074e-03 1.44757025e-04
      -2.44160406e-02 2.50980519e-02 -7.82427285e-03 2.21982431e-02
      -1.48035968e-02 -5.31471614e-03 4.90520336e-03 1.37973046e-02
      8.91243946e-03 9.05199163e-03 -9.02775954e-03 1.83330532e-02
      1.62935965e-02 -1.21054833e-03 2.13025399e-02 2.09732503e-02
      1.19511355e-02 3.80586833e-03 -2.41804067e-02 2.75761876e-02
      2.10661981e-02 3.24365050e-02 6.03989661e-02 3.16903554e-02
      3.60463895e-02 1.56746134e-02 6.69389311e-03 1.40253678e-02
      -2.29208730e-03 -4.22779731e-02 2.54646372e-02 -7.04864226e-03
      -1.04159210e-02 -2.81905010e-03 1.29995653e-02 2.91951210e-03
      -9.24626924e-03 2.03488651e-03 3.77009027e-02 2.10667625e-02
      -3.28308158e-02 -6.13917317e-03 -3.64943873e-03 1.68329384e-02
      5.48990769e-03 -1.69010162e-02 -1.41028333e-02 -2.31826454e-02
      7.37505183e-02 2.10610162e-02 -2.38601770e-02 -1.33938426e-02
      -9.11563460e-04 9.43172164e-03 1.49816182e-02 -1.12617007e-02
      -9.46330465e-03 2.16025747e-02 -4.99439938e-03 -3.34057063e-02
      -2.26057693e-02 1.33294025e-02 2.12345757e-02 9.72029101e-03
      -8.39505717e-03 4.00716700e-02 3.57942246e-02 -4.22030594e-03
      7.09859328e-03 -1.06388321e-02 -4.57406230e-03 -8.89741234e-04
      -3.36984079e-03 -3.62874866e-02 1.18133932e-04 5.33434898e-02
      2.38341070e-03 -2.10271729e-03 -7.68531347e-03 -4.69544379e-04
      6.52698008e-03 -2.45218873e-02 1.20412437e-02 -2.84984503e-02
      3.54981283e-03 -7.87348393e-03 -2.43842741e-03 1.05793669e-03
      -7.33691384e-04 1.21954940e-02 1.47652123e-02 2.30994858e-02
      -2.38841050e-03 2.48771403e-02 2.34926189e-03 5.46562299e-03
      7.94369075e-03 3.32886651e-02 2.94408370e-02 1.15798768e-02
      9.31413658e-03 1.94116179e-02 2.22869515e-02 6.07240945e-03
      -1.96811603e-03 -1.11458291e-06 6.14526961e-03 2.07089037e-02
      -2.67162304e-02 -6.11769222e-03 2.60249507e-02 -1.47932004e-02
      8.97006504e-03 9.12556890e-03 5.93433762e-03 1.29586281e-02
      2.12894157e-02 2.14352999e-02 -3.61652561e-02 -3.19698569e-03
      2.66431714e-03 2.58451737e-02 1.00276880e-02 1.23447611e-03
      1.47853112e-02 4.21080291e-02 3.81140597e-03 1.39122121e-02
      -2.38829162e-02 -2.73976475e-04 2.33627763e-02 1.32640507e-02
      5.40402904e-03 1.28119066e-02 2.12191269e-02 6.52330592e-02
      -2.21164580e-02 -7.46738678e-03 -4.68161888e-03 6.87879650e-03
      7.78629212e-04 3.48446681e-03 5.40605420e-03 4.35177004e-03
      -4.37590264e-04 -2.25529801e-02 -1.07597215e-02 5.69561915e-03
      8.35557841e-03 -3.03675048e-03 -1.76699180e-03 2.07334682e-02
      2.08471678e-02 6.37400337e-03 5.15049100e-02 -8.98135453e-03
      -1.42076993e-02 4.03845869e-03 6.05843030e-04 2.07902491e-03
      1.45724500e-02 -1.50724268e-02 7.29640424e-02 4.44219261e-02
      6.71015587e-03 9.94771020e-04 7.86867179e-03 -7.74247630e-04
      5.40914666e-03 1.26907546e-02 7.38711003e-03 1.53437583e-02
      -2.56071053e-02 -1.19798686e-02 7.79600523e-04 2.66183371e-04
      -1.31605775e-03 -3.31058376e-03 4.98980633e-04 6.03171438e-02
      1.15939155e-02 -8.62935632e-02 -8.30823835e-03 7.26542959e-04
      -2.21366016e-03 3.11741227e-04 -8.89964122e-03 1.12507818e-02
      8.93428028e-02 -9.64707229e-03 3.46157327e-02 -9.90752596e-03
      6.67679822e-04 4.16047126e-03 -1.26233936e-04 1.70682371e-03
      4.61710803e-03 6.58182949e-02 4.61073816e-02 -6.70465529e-02
      -6.13059523e-03 1.55809091e-03 3.80315329e-03 3.19582736e-03
      6.15869835e-03 -2.56850035e-03 9.99007970e-02 -1.04396166e-02
      -2.08625607e-02 -5.29861683e-03 -5.97134931e-04 -3.79456149e-04
      2.02388526e-03 -8.55685025e-03 -4.12994996e-03 2.72652470e-02
      -1.33196963e-02 -5.27648861e-03 -1.06714005e-02 -1.95340044e-03
      -4.50318959e-03 2.85508198e-04 -8.44589807e-03 -2.87280865e-02
      1.90000460e-02 2.91013867e-02 -2.04789471e-02 7.61869596e-03
      3.07403854e-03 6.38535537e-04 1.99063006e-03 -3.64247430e-03
      -7.98373204e-03 5.48266694e-02 -4.28433679e-02 -5.32183656e-03
      4.29651933e-03 1.62948680e-03 -6.45767897e-03 -5.69919590e-03
      -9.16251971e-04 -2.23837867e-02 1.93392243e-02 1.42980842e-02
      -1.66251808e-02 -5.29862707e-03 -4.14763205e-03 -2.65324023e-03
      -4.44870023e-03 -1.58003699e-02 -4.12132964e-02 1.28101781e-02
      4.82106656e-02 -1.94291119e-02 -1.23682572e-02 -5.38101187e-03
      -5.46914060e-04 -1.23667596e-02 -2.51534376e-02 -9.83396079e-03
      -9.34675429e-03 4.22407389e-02 -1.38019426e-02 -5.90302399e-04
      -5.51659730e-04 -2.66419444e-03 2.64517264e-04 -1.77450571e-02
      -2.67149433e-02 4.76921983e-02 2.99935509e-02 -3.63310985e-02
      7.91890826e-03 4.72462690e-03 7.77565967e-03 -2.13076826e-02
      6.34745695e-03 1.39168268e-02 7.12757409e-02 5.74314073e-02
      8.75052437e-03 8.61157096e-05 -1.39492564e-02 1.21559352e-02
      8.71796533e-03 -8.83036107e-03 -1.48073873e-02 -2.74929730e-03
      4.70541529e-02 -2.66073309e-02 -6.56558722e-02 -2.81190984e-02
      4.70509604e-02 8.59689862e-02 1.21278884e-02 -2.23513097e-02
      -2.59482954e-02 -4.05655988e-02 -2.89087999e-03 2.12293454e-02
      1.24924518e-02 2.02445616e-03 1.94396805e-02 8.84259678e-03
      1.81728955e-02 7.44951442e-02 4.47567403e-02 -3.39843817e-02
      -1.78537294e-02 -1.14258414e-03 3.12555321e-02 9.91438627e-02
      9.29968134e-02 -3.28723062e-03 2.54947450e-02 -2.22402662e-02
      -2.39865966e-02 -4.01286845e-04 -4.91468702e-03 -3.65709774e-02
      1.32481810e-02 3.31488773e-02 -5.08590369e-03 -5.68232359e-03
      -2.94753946e-02 -7.95902405e-03 2.70365831e-03 2.64469925e-02
      2.42397878e-02 2.57871766e-02 9.86164343e-03 -1.64864250e-02
      -5.52429492e-03 -1.86274182e-02 -4.41128090e-02 -9.04064532e-03
      4.40583304e-02 2.00225245e-02 5.00611179e-02 6.51170462e-02
      -5.92145929e-03 -6.69760443e-03 -2.35511810e-02 -1.21776313e-02
      7.54168332e-02 1.01537332e-01 1.04982078e-01 -1.30320080e-02
      9.22042411e-03 -2.77721547e-02 -1.75885763e-02 -1.39239812e-02
      -3.94701548e-02 -1.01955971e-02 5.59841618e-02 1.81026701e-02
      -2.31748410e-02 -1.28826424e-02 -7.67655252e-03 -1.10466313e-03
      1.10145546e-02 -9.79510136e-03 -1.08472453e-02 1.37124518e-02
      1.21156564e-02 -3.44019048e-02 -1.77996308e-02 -1.45143196e-02
      1.95300449e-02 1.95224502e-03 -3.23990397e-02 5.90545647e-02
      6.41386136e-02 8.71450733e-03 -2.75098695e-03 -7.36335525e-03
      -2.92941350e-02 -8.10601935e-03 -1.33184604e-02 7.84276724e-02
      -1.24559388e-03 6.83986694e-02 -1.29275117e-03 -7.23216683e-03
      -2.12650932e-02 -3.59752737e-02 7.79097388e-03 1.34064676e-03
      -3.81486155e-02 -9.48310867e-02 -4.79544746e-03 1.96497049e-02
      -1.60876680e-02 1.86901225e-03 -2.43624696e-03 6.73239166e-03
      2.95910565e-03 5.92635199e-02 -3.26079950e-02 -7.72726675e-03
      -1.26086967e-02 -1.82601642e-02 8.06238560e-04 6.90358691e-03
      9.09843668e-03 -1.11196693e-02 6.04602993e-02 -2.06320663e-03
      -2.04049218e-02 3.97447012e-02 -2.98315696e-02 -1.48668736e-02
      -7.17673823e-03 3.38747562e-03 -2.10735071e-02 3.03815864e-02
      5.57195256e-03 -4.25881054e-03 8.82402435e-03 -7.36494595e-03
      -1.45216624e-03 1.36587268e-03 -1.08242286e-02 -2.11798232e-02
      1.12053212e-02 -1.35335037e-02 -4.40127589e-02 -1.73826050e-02
      -1.09504443e-02 -1.24044446e-02 -4.06062976e-03 -1.03321569e-02
      -4.98248264e-02 6.56053051e-02 -2.59340759e-02 -2.76491959e-02
      -1.11022312e-02 -6.76407991e-03 -7.37841707e-03 -8.10110010e-03
      -7.79239386e-02 -7.49159430e-04 8.98351371e-02 -1.77956000e-02
      4.14629420e-03 -2.46178415e-02 -1.29129989e-02 -1.86035354e-02
      -2.50750501e-02 -3.53852026e-02 -2.41182204e-02 6.37253448e-02
      1.31958295e-02 -2.37442870e-02 -2.48398222e-02 -1.83171034e-02
      -2.82383431e-02 -3.18528563e-02 -9.39597413e-02 5.20472191e-02
      4.10689674e-02 -4.21519624e-03 -1.79947764e-02 -6.81120995e-03
      -2.23309593e-03 -1.00388313e-02 -6.53819647e-03 -5.55540100e-02
      2.76226341e-03 3.77716832e-02 -2.89261583e-02 -8.28172453e-03
      -6.24610158e-03 -4.53381054e-03 -1.41612757e-02 -1.53396204e-02
      -2.36663260e-02 3.49595584e-02 6.18468039e-02 8.77334643e-03
      -1.30079025e-02 -1.77863184e-02 -5.54124638e-03 -1.18627911e-02
      -1.22058904e-02 -5.32656759e-02 1.02109211e-02 -1.48606542e-02
      -3.49470302e-02 -1.47744948e-02 -2.91640367e-02 -7.98767339e-03
      -1.03345634e-02 -8.57156236e-03 -1.02756992e-02 2.29512285e-02
      -2.55129151e-02 -2.71761678e-02 -8.26520845e-03 -2.42381269e-04
      -3.14971735e-03 -3.49664874e-03 -7.70382863e-03 4.31288645e-04
      4.78846617e-02 -8.10314044e-02 -1.90247204e-02 -1.11837098e-02
      -2.28374428e-03 -3.03313788e-03 -2.44558020e-03 -5.16408049e-02
      3.65490722e-03 2.81361807e-02 6.67934539e-03 -4.77897935e-02
      -1.92301534e-02 -7.04603456e-03 -2.84624612e-03 -2.27071624e-03
      -3.75978719e-03 1.89741682e-02 6.43220469e-02 1.04684401e-02
      -2.82990411e-02 -1.25244549e-02 -9.48470552e-03 -5.02193579e-03
      -1.07499333e-02 -6.01385869e-02 3.43404897e-03 4.93590236e-02
      -2.63082832e-02 2.66192295e-03 -2.26007029e-03 -6.05963985e-04
      4.36816772e-04 -6.80280291e-03 -3.74356583e-02 1.87452547e-02
      1.17063979e-02 -1.80857368e-02 4.87747137e-03 -1.33593392e-03
      -3.02605773e-03 -1.18937856e-02 -5.70074655e-04 -3.67234685e-02
      -4.34445404e-03 -6.23806659e-03 7.34271249e-04 1.73112180e-03
      -4.01418051e-03 7.06689607e-04 1.04727307e-02 -5.00694802e-03
      1.09243346e-02 4.31291610e-02 7.93135241e-02 3.84323113e-03
      7.35119078e-03 -6.88508525e-03 1.41653162e-03 1.02016805e-02
      3.20801474e-02 2.95908228e-02 5.02657145e-02 -6.91622822e-03
      -1.65142007e-02 -1.57064263e-04 -1.35251600e-03 -4.17517498e-03
      -4.79876297e-03 -3.34805325e-02 -2.78844144e-02 4.52817343e-02
      8.23521754e-04 -2.16295645e-02 -3.11410334e-03 -7.68694503e-04
      -8.37583933e-03 -1.14789978e-02 -7.05216359e-03 1.01624765e-02
      1.03129856e-01 -5.20214438e-03 -1.49132935e-02 7.86908204e-04
      -4.74252040e-03 -1.18003683e-02 -3.60797928e-03 -2.87058223e-02
      5.34231924e-02 5.03279455e-02 1.87309477e-02 -1.71850827e-02
      -7.11877597e-03 -1.39945438e-02 -3.06272395e-02 1.14520092e-03
      -1.14897322e-02 4.81261052e-02 5.68786524e-02 -2.61790715e-02
      -1.08973468e-02 -1.29853552e-02 1.54266329e-02 -8.67388491e-03
      -1.96832418e-03 1.23662716e-02 1.90049727e-02 3.44887897e-02
      5.65759838e-03 -2.75713485e-02 -1.46396598e-02 2.62599867e-02
      3.91768757e-03 8.14133510e-03 1.21763879e-02 -5.27069271e-02
      1.95406713e-02 -1.92404806e-03 -2.34300178e-02 -2.58436818e-02
      -2.62270472e-03 -2.74311658e-03 2.88135074e-02 1.97973531e-02
      6.38196766e-02 3.47231850e-02 -1.23925069e-02 -3.60732898e-02
      -2.13009324e-02 3.62935737e-02 3.02185379e-02 2.19051298e-02
      1.36987809e-02 -1.95311327e-02 3.05770654e-02 5.48861688e-03
      -3.88767682e-02 -5.44318929e-02 -4.73610535e-02 3.90378088e-02
      3.99409644e-02 4.21905890e-02 -1.03023136e-03 -1.16473401e-03
      -2.50501893e-02 -2.35751588e-02 1.49071930e-04 8.85807723e-02
      6.85930848e-02 1.08761517e-02 8.12137441e-04 -2.48558708e-02
      -2.02285610e-02 -2.28821691e-02 -2.42476240e-02 -5.31808101e-02
      -5.79440407e-02 4.73350845e-02 5.31065241e-02 4.96526323e-02
      -1.14577101e-03 -9.00493283e-03 -1.53136039e-02 -2.29491815e-02
      -2.29013320e-02 -3.68211069e-03 8.05841982e-02 5.62228523e-02
      8.46595503e-03 -7.54464790e-03 -2.21455730e-02 -1.95704494e-02
      -5.16140796e-02 3.05278413e-02 -1.25259021e-02 1.62398145e-02
      -2.29174970e-03 4.86748386e-03 -2.29086913e-02 -5.27627626e-03
      -1.98093355e-02 2.84860609e-03 6.00406118e-02 5.23594394e-02
      4.18561585e-02 1.53222932e-02 -2.26896200e-02 -5.41436113e-02
      -8.23730510e-03 -1.87932085e-02 -2.62255352e-02 -1.78767182e-02
      -6.44452497e-02 7.20633194e-02 8.44879672e-02 -1.02392156e-02
      -1.02094980e-02 -1.32251782e-02 -1.86897833e-02 -1.57588515e-02
      8.09737816e-02 -2.38739140e-03 8.22920799e-02 8.47478062e-02
      -6.88543357e-03 -2.04735100e-02 -2.26640347e-02 -1.45455245e-02
      5.65719083e-02 -1.65846515e-02 -9.18248761e-03 4.84305015e-03
      -2.99422164e-02 -2.33524255e-02 -1.67188086e-02 -1.02157472e-02
      -3.33012119e-02 4.70680045e-03 -1.03608323e-02 -2.81453338e-02
      2.74985954e-02 -1.00020366e-02 -1.56460311e-02 -6.59742625e-03
      -1.78753398e-02 -3.24448235e-02 3.28211337e-02 3.41864564e-02
      6.42082049e-03 8.28669872e-03 5.21708652e-02 -3.29393223e-02
      -6.29877299e-03 -1.07647264e-02 -2.15477310e-02 2.34046839e-02
      -2.12687608e-02 -1.00982385e-02 -2.80722454e-02 1.09097678e-02
      -3.14431973e-02 -2.46269256e-02 3.24914057e-04 5.16412081e-03
      7.06558153e-02 -3.05020977e-02 2.65972335e-02 4.10422310e-03
      -7.94127956e-03 -1.94848012e-02 -2.01516841e-02 -2.57196072e-02
      1.79551132e-02 8.92305076e-02 6.73026359e-03 -1.25265801e-02
      -1.48648350e-02 -1.49071366e-02 -2.58221254e-02 -4.21060212e-02
      -6.81342632e-02 3.19619551e-02 2.31578872e-02 -3.64435986e-02
      7.40604359e-04 1.68166985e-03 -2.40983022e-03 -1.93615071e-02
      -3.07878461e-02 6.15914119e-03 -7.15094432e-03 7.23101869e-02
      -7.26197474e-03 -1.74682885e-02 -5.03322035e-02 -2.33475063e-02
      -1.30566945e-02 -2.72585880e-02 -3.01952735e-02 -1.96069293e-02
      7.07946047e-02 2.71965880e-02 7.96522200e-03 7.88884610e-03
      -6.92138076e-03 -6.01127231e-03 -2.09582187e-02 -3.13384868e-02
      3.19272801e-02 5.76607250e-02 -6.01048581e-04 7.32319290e-03
      -2.36667544e-02 -1.26116639e-02 3.11701163e-03 -4.82081855e-03
      6.56452589e-03 3.13716643e-02 8.70775525e-03 7.40229944e-03
      1.34000962e-03 -5.44334110e-03 -2.03197952e-02 -1.79879356e-03
      -3.70256566e-02 -1.13606621e-02 -8.30240324e-02 7.75993522e-03
      2.64124256e-02 -3.22602876e-02 -1.69792715e-02 1.44277874e-03
      3.04216938e-03 -2.46209968e-02 -2.13302337e-04 3.43272742e-03
      3.47557664e-02 -2.36733630e-02 -1.18418736e-02 -1.09716011e-02
      1.61604653e-03 -7.14059744e-04 -1.18638827e-02 -1.54937953e-02
      6.48945495e-02 5.68863265e-02 -3.76007566e-03 -1.70823908e-03
      -6.48950133e-03 -7.08688190e-03 -2.20785663e-02 -4.86393273e-02
      1.75854117e-02 4.21828702e-02 4.34945971e-02 -1.08702211e-02
      -3.38319950e-02 -2.50112861e-02 1.23005956e-02 1.95266563e-03
      -5.93141057e-02 -1.03846379e-01 -6.36541052e-03 6.67224973e-02
      -1.65510282e-03 -1.13699762e-02 9.00370255e-03 9.35058109e-03
      -3.78956608e-02 -2.61529926e-02 -3.35994102e-02 4.89321016e-02
      -2.92128399e-02 -9.61483177e-03 -2.03025574e-03 5.32450038e-04
      -4.14007436e-03 -4.32062801e-03 2.40631066e-02 5.80614880e-02
      2.97987442e-02 -4.20329385e-02 -1.48181077e-02 -1.61245465e-02
      -5.37215732e-03 3.93992104e-03 3.71692553e-02 2.09076498e-02
      3.00862994e-02 -2.61383075e-02 -3.88621353e-02 -1.77399218e-02
      -6.13947539e-03 8.73031374e-03 -4.22198232e-03 -5.62309334e-03
      4.03971151e-02 7.77635202e-02 1.63763668e-02 -4.12651002e-02
      -2.99224127e-02 -4.02504578e-02 -1.03388308e-02 1.83896665e-02
      2.03118511e-02 5.80627322e-02 1.16461338e-02 -2.70099193e-02
      -2.25850400e-02 -1.07410355e-02 -8.39616824e-03 -6.04450051e-03
      6.71709748e-03 1.06033552e-02 2.71299090e-02 6.39492571e-02
      -2.02816222e-02 -1.76046137e-02 -5.45188785e-03 -1.65796299e-02
      -3.03711668e-02 4.07925528e-03 3.32334638e-02 2.48632226e-02
      1.99990515e-02 -4.55032252e-02 -1.54360523e-02 -2.17089355e-02
      -1.64868571e-02 -2.29232088e-02 8.24659839e-02 7.95934722e-02
      2.15992033e-02 2.92356927e-02 -2.18116045e-02 -2.27358583e-02
      -3.47783566e-02 -4.04431485e-02 -1.98684949e-02 1.91400982e-02
      2.96407863e-02 -1.35760745e-02 -1.23191392e-02 -2.46990155e-02
      -2.28203703e-02 -8.86433199e-03 -9.75493062e-03 -5.79608185e-03
      3.26301754e-02 4.46074456e-02 6.18357025e-02 -2.37790514e-02
      -2.75825188e-02 -2.51632221e-02 -1.71734560e-02 2.99403397e-03
      9.66981146e-03 2.21253224e-02 1.33679174e-02 -1.35513125e-02
      8.10321793e-03 -1.49008892e-02 -1.69386249e-02 -1.24125229e-02
      -1.95450522e-02 3.01506347e-03 3.21116075e-02 2.71424185e-02
      1.55513408e-02 -5.38843349e-02 -2.52630673e-02 -2.43731029e-02
      -1.69965010e-02 -7.89856538e-03 1.28981443e-02 3.03493179e-02
      6.71778619e-03 1.44280083e-02 -1.89473871e-02 -2.20700949e-02
      -8.51427298e-03 -2.00558547e-02 -4.14924994e-02 2.91508939e-02
      -1.30242109e-02 1.74353495e-02 -4.89019789e-03 -1.49465958e-02
      -1.34921065e-02 -9.03028063e-03 -1.60698202e-02 -4.21583876e-02
      7.29892403e-02 1.18219601e-02 2.30454970e-02 4.27355198e-03
      -1.90590341e-02 -1.63109247e-02 9.24718566e-04 -1.40462639e-02
      -6.21613534e-03 8.07477385e-02 -2.16906182e-02 -4.56805862e-02
      -5.35703972e-02 -2.00498197e-02 -1.35420812e-02 -1.40733672e-02
      -1.86223369e-02 -1.11334827e-02 5.21374010e-02 1.80153940e-02
      -2.16549449e-02 2.10024315e-04 -3.28588556e-03 -1.64026543e-02
      -1.54251633e-02 -2.20675021e-02 -8.52333605e-02 -3.82820424e-03
      3.71170975e-02 1.07702985e-02 -1.43049285e-03 -1.97218023e-02
      -1.74812041e-02 -3.40753160e-02 -9.31548327e-03 -6.00430630e-02
      5.07287830e-02 7.80752078e-02 5.68996854e-02 9.00052115e-03
      -2.25496646e-02 -1.68981124e-02 -1.09242834e-02 -1.36961583e-02
      -2.69575622e-02 -1.18190772e-03 1.45726092e-03 2.05154400e-02
      -2.12918166e-02 -1.22018382e-02 -1.44516621e-02 5.30427555e-03
      2.62498227e-03 -2.73003746e-02 -1.87580306e-02 3.03255711e-02
      6.13587275e-02 6.85667172e-02 3.17878276e-03 -3.59767638e-02
      5.79517009e-03 4.00494225e-02 -1.37287211e-02 -3.73836514e-03
      5.05875349e-02 -1.08926203e-02 -5.77535015e-03 -7.52816070e-03
      -1.66835710e-02 5.71826138e-02 1.37723163e-02 -2.96333972e-02
      -6.06377982e-02 7.56572839e-03 -5.33535853e-02 -2.51555610e-02
      -1.44436872e-02 -4.27929871e-03 1.67933963e-02 1.67516228e-02
      3.42987338e-03 -7.07893027e-03 1.38633056e-02 3.08252238e-02
      4.49411795e-02 -1.39182499e-02 2.28328276e-02 5.70350029e-02
      4.22608554e-02 -7.50754075e-03 -3.83704193e-02 -1.33243296e-02
      3.50396428e-03 -1.62059478e-02 -2.66806800e-02 2.49091443e-02
      4.73103896e-02 7.93545321e-03 -8.62264074e-03 -2.52908655e-03
      3.61677818e-02 -8.95875972e-03 9.83892102e-03 2.56113838e-02
      7.36004580e-03 1.45969354e-02 -1.93948969e-02 1.34895900e-02
      -3.07845455e-02 -2.11916771e-02 -1.42870974e-02 -1.56192351e-02
      -6.83069136e-03 -3.01650800e-02 6.01025373e-02 5.93702123e-02
      4.63010697e-03 -6.68785255e-03 1.93882473e-02 -4.74805292e-03
      2.35523358e-02 7.22564408e-04 5.58946375e-03 -1.64765622e-02
      4.44006696e-02 5.02329767e-02 8.28914065e-03 -1.03075542e-02
      -2.81989444e-02 1.10516055e-02 -4.01222967e-02 -1.38677591e-02
      -2.74451077e-02 2.06146650e-02 2.07236428e-02 -1.70827226e-03
      -1.42084789e-02 8.69854557e-05 -6.10173447e-03 2.48750523e-02
      -3.23537178e-02 -5.41021535e-03 2.87559126e-02 2.00701244e-02
      -1.46907074e-02 2.10234225e-02 4.07420425e-03 -4.89879306e-03
      4.82883565e-02 4.47131880e-03 -2.03639902e-02 6.38196468e-02
      4.59841490e-02 8.60038586e-03 -2.14963779e-02 -3.74695063e-02
      -1.22889439e-02 4.69001643e-02 -2.47695129e-02 -1.54305184e-02
      -4.46234979e-02 9.69948322e-02 -6.23417879e-03 -6.93235453e-03
      -2.93022674e-03 9.68143903e-03 7.80052543e-02 5.44312932e-02
      -1.81495417e-02 -1.95390228e-02 -2.18813363e-02 -4.06186059e-02
      2.31758412e-02 4.82218619e-03 -3.77746709e-02 -5.11682183e-02
      -1.82871614e-02 3.63081098e-02 -1.23132719e-02 3.09918225e-02
      -8.41288641e-03 -7.82902259e-03 -3.65213417e-02 4.23745112e-03
      -3.50323552e-03 6.47310689e-02 2.96850819e-02 -7.53784105e-02
      -3.60056013e-02 -7.17847422e-02 2.37255339e-02 1.59169529e-02
      -2.68839598e-02 4.26927535e-03 4.07177396e-02 7.38606304e-02
      5.68119623e-02 2.79588457e-02 -6.82603344e-02 -5.58643788e-02
      -3.70845161e-02 -2.24552229e-02 2.62222327e-02 1.04889013e-01
      -1.39208632e-02 -8.76929797e-03 1.33340908e-02 -3.10288602e-03
      -1.15669323e-02 -2.12536007e-02 -2.19061156e-03 2.30933409e-02
      -1.39950265e-04 -2.59510186e-02 -1.82578415e-02 -8.53416137e-03
      -1.70923397e-02 1.69146061e-02 2.85282508e-02 2.05646530e-02
      -2.31795083e-03 -4.32296135e-02 3.88199612e-02 4.23543826e-02
      1.79174077e-02 -2.74783261e-02 -4.18434888e-02 1.44629357e-02
      -1.73981709e-03 4.75821504e-03 2.95141339e-02 -6.06753118e-03
      3.85324173e-02 1.26912873e-02 4.01612669e-02 2.24872325e-02
      3.12452912e-02 5.88915171e-03 -2.39550192e-02 -4.64165024e-02
      -8.26907996e-03 -1.16147595e-02 -1.43322740e-02 -2.98056696e-02
      6.57310933e-02 8.92565176e-02 1.98008101e-02 -2.69661611e-03
      -1.78086404e-02 -2.12784810e-03 -3.14939357e-02 -4.52675037e-02
      -1.48785226e-02 -1.90350395e-02 2.86772251e-02 1.89118600e-03
      -1.41728958e-02 -4.81724460e-03 -1.80470906e-02 1.40912528e-03
      -7.58197252e-03 -1.57728661e-02 5.64082861e-02 1.12425156e-01
      4.53469865e-02 -1.46895815e-02 -4.30833995e-02 1.86737161e-02
      1.84950605e-02 -3.72444838e-03 -4.52089906e-02 7.28071202e-03
      1.51181305e-02 3.60885188e-02 -8.90687574e-03 -1.52333863e-02
      -7.85709731e-03 -1.05606019e-02 -1.75706465e-02 3.16865817e-02
      1.69126522e-02 8.47966596e-03 -3.75417015e-03 -1.74495857e-02
      -1.28064016e-02 -1.64450631e-02 -1.55172832e-02 -7.59915961e-03
      5.89620462e-03 7.72997178e-03 -1.15761049e-02 1.39398677e-02
      -1.58311259e-02 -1.25542814e-02 -3.11731058e-03 -2.18141861e-02
      1.70934678e-03 4.31469306e-02 3.35825272e-02 -1.00766784e-02
      -2.25910135e-02 -1.76073592e-02 -1.46762766e-02 -1.18093770e-02
      -1.59821138e-02 -3.27549613e-04 1.14537729e-02 5.03878593e-02
      5.69395954e-03 2.79167038e-03 -2.51831431e-02 -2.09128000e-02
      -1.40793028e-03 -8.23984575e-03 -1.76283691e-04 7.41351247e-02
      3.37318964e-02 -4.54992466e-02 -6.23501427e-02 -1.78902708e-02
      -8.13799631e-03 -1.21355765e-02 -8.26729555e-03 -4.21274174e-03
      7.06780553e-02 4.01830003e-02 3.29246698e-03 2.80987918e-02
      -3.73085076e-03 -2.61468138e-03 -2.95764599e-02 -1.10386489e-02
      5.80149703e-04 4.65712138e-02 1.52450707e-02 -3.45792877e-03
      -1.46283591e-02 -5.07693440e-02 -1.61492210e-02 -1.88476238e-02
      -8.07659421e-03 -8.69638845e-03 2.78644953e-02 4.16787341e-02
      7.16017410e-02 1.37103768e-03 1.05730323e-02 -6.86519826e-03
      -6.80872705e-03 1.47397441e-04 -1.02193060e-03 1.72219239e-02
      1.39391106e-02 2.32664384e-02 -5.89904608e-03 4.53610090e-04
      -3.91907850e-03 1.19607719e-02 1.11299763e-02 -8.44661146e-03
      -2.40929592e-02 5.58527863e-05 7.09166825e-02 8.83523226e-02
      4.82679158e-02 -2.90852841e-02 -1.06766378e-03 5.83375571e-03
      -2.42295093e-03 8.07089498e-04 2.79139983e-03 -2.95610018e-02
      1.21980282e-02 1.66399796e-02 -1.03825312e-02 -2.18687207e-02
      4.20524599e-03 -1.59579664e-02 -1.83060784e-02 -4.96035181e-02
      -5.70380175e-03 3.43909226e-02 8.44654664e-02 -1.00124283e-02
      3.58393067e-03 3.24550696e-04 5.96558023e-03 -1.18565354e-02
      -4.80311289e-02 1.69482420e-03 4.43681665e-02 -8.48242175e-03
      2.49474719e-02 1.63999870e-02 -8.43154173e-03 -1.98652176e-03
      -1.84953734e-02 4.42921557e-03 6.17023651e-03 -6.31769095e-03
      -3.51988971e-02 3.74571197e-02 -2.86281519e-02 -1.89672615e-02
      -4.99195093e-03 -8.63172580e-03 -3.97787057e-02 -1.54370815e-02
      2.28442550e-02 1.77148916e-02 4.32157107e-02 2.75851190e-02
      -3.97898555e-02 -2.07301397e-02 -8.35180841e-03 -1.86040457e-02
      -5.14307385e-03 5.40152844e-03 7.11634930e-04 5.75650334e-02
      2.49118656e-02 -9.71824583e-03 -2.61638947e-02 -1.57837532e-02
      -1.19257765e-02 -6.71613496e-03 1.55846477e-02 -3.49041410e-02
      5.53865451e-03 -2.80633178e-02 7.56111345e-04 -1.84372105e-02
      -2.50918232e-02 -2.13211533e-02 -3.36940424e-03 -1.76021848e-02
      -6.16883934e-02 1.11630093e-02 2.41836347e-02 -3.37875672e-02
      -2.24944055e-02 -8.42800085e-03 -1.80202778e-02 -3.17535736e-02
      9.08689294e-03 9.51062981e-03 8.58390108e-02 1.25728650e-02
      -4.35135001e-03 -3.57890986e-02 -1.79299749e-02 -1.80137362e-02
      -1.64970737e-02 -2.47530881e-02 -2.36076564e-02 9.11696702e-02
      -6.25789315e-02 -1.72066092e-02 -8.90048593e-03 -2.40324792e-02
      -2.77049746e-02 -1.92244258e-02 -2.14610919e-02 -1.31268902e-02
      -2.25581545e-02 -2.90544666e-02 -6.57500848e-02 5.98916039e-03
      -1.76275652e-02 -2.95390282e-02 -1.03972647e-02 -1.77227333e-02
      -7.64937000e-03 -1.39494734e-02 8.73982012e-02 8.17950163e-03
      -3.09234392e-02 -2.66883317e-02 -2.38288660e-02 -1.73840281e-02
      -1.82363000e-02 1.88536197e-02 8.06198344e-02 6.15354590e-02
      -2.65498031e-02 -1.49075128e-02 -9.02767945e-03 -2.10912284e-02
      -1.72302015e-02 -3.43123116e-02 -1.36721740e-02 1.24746472e-01
      6.46555722e-02 -7.42390379e-02 -4.34508100e-02 -1.91723332e-02
      -8.16811435e-03 -6.65361295e-03 -3.25826071e-02 -2.38455068e-02
      -9.37088206e-03 1.33426115e-01 6.31771684e-02 -7.30224699e-02
      -8.42177421e-02 -5.32084852e-02 -2.88720094e-02 -2.68070493e-02
      -4.53121066e-02 -2.78862054e-03 1.58439919e-01 4.79090633e-03
      -4.79311347e-02 -9.16554686e-03 -4.04818868e-03 -6.87202113e-03
      -2.63855699e-02 -4.77910675e-02 -1.21311815e-02 1.58421636e-01
      7.51323402e-02 -1.25116885e-01 -7.45138079e-02 -1.70611870e-02
      -8.94221384e-03 -1.98053084e-02 -6.00389913e-02 -1.94297340e-02
      4.76047248e-02 8.66431966e-02 3.65094952e-02 -3.00885295e-03
      -3.25660370e-02 1.32227466e-02 -3.54953064e-03 -1.80350849e-03
      1.24713434e-02 1.08556391e-03 5.43392561e-02 4.99295704e-02
      3.24233286e-02 8.92266445e-03 5.64570865e-03 -1.28190883e-03
      -1.03842039e-02 -4.90989126e-02 6.54004142e-02 4.39215153e-02
      3.25361360e-03 -4.75140400e-02 -2.71642804e-02 -2.55158776e-03
      -8.55490938e-03 1.27486177e-02 -4.38026749e-02 -2.51524523e-02
      1.19372003e-03 1.32070035e-02 -1.04623870e-03 -8.99581891e-03
      -1.60773081e-04 -2.04518382e-02 1.43773612e-02 -8.87212232e-02
      -2.09620260e-02 2.66003348e-02 1.96493673e-03 1.32386023e-02
      4.76152860e-02 9.01942700e-02 3.89893353e-02 6.84087817e-03
      -2.43987516e-02 1.00184791e-02 4.65033092e-02 7.76816485e-03
      -1.46220531e-02 2.05550017e-03 5.13928197e-02 4.86048199e-02
      1.36125376e-02 -4.96389391e-03 -1.85588486e-02 2.90225982e-03
      3.09651671e-03 3.11956797e-02 3.52295861e-02 4.09271009e-02
      1.08749894e-02 2.96338797e-02 -1.61114540e-02 4.93068574e-03
      1.78039297e-02 -5.04735531e-03 -2.31342111e-02 1.30934990e-03
      2.22422704e-02 1.62281431e-02 3.80963311e-02 1.19641731e-02
      1.16063002e-03 -2.37178877e-02 3.09756231e-02 7.37327412e-02
      3.50773111e-02 1.43820634e-02 -1.67301577e-02 -1.75235216e-02
      -8.81597120e-03 -9.24016256e-03 -1.27539914e-02 -2.13261275e-03
      2.91198343e-02 2.86879279e-02 2.39400589e-03 -2.02879626e-02
      -2.70046070e-02 -1.76214203e-02 -7.77013320e-03 -6.11588322e-02
      1.84743293e-02 5.97852804e-02 4.22932431e-02 -1.41931241e-02
      -2.05314551e-02 -1.85301453e-02 -9.47015453e-03 -2.87506487e-02
      -3.24269161e-02 -1.82713717e-02 4.46858779e-02 7.75733367e-02
      -1.84857603e-02 -2.69645993e-02 -1.87160708e-02 -2.54262444e-02
      -3.31267528e-02 -5.38045028e-03 1.06293047e-02 2.47771665e-02
      1.30319996e-02 4.49155271e-02 4.42264834e-03 -3.98907475e-02
      -3.75219458e-03 -3.53691913e-02 -4.15452663e-03 -3.51057155e-03
      2.07859837e-02 3.43329161e-02 1.14309095e-01 4.86691929e-02
      4.65248413e-02 -1.07751908e-02 -1.63104367e-02 -6.44381298e-03
      2.96272747e-02 -8.79224855e-03 1.75620466e-02 1.31418323e-02
      -3.54628451e-02 -5.58652207e-02 -2.26964001e-02 -2.65667103e-02
      -1.41108017e-02 2.48878710e-02 1.68332346e-02 3.80227044e-02
      6.65274560e-02 6.89667836e-02 -1.03426315e-02 -1.44065609e-02
      -3.14842421e-03 4.08341037e-03 -1.23415352e-03 -4.29018924e-04
      -7.96055142e-03 -2.24132370e-02 7.48609006e-02 1.48340280e-03
      1.00255767e-02 -1.59296580e-02 7.25919474e-03 -4.07346617e-03
      -3.34238913e-03 -2.60939021e-02 -4.77053737e-03 7.55711123e-02
      4.21838351e-02 -6.55387156e-03 -1.64513271e-02 -5.58854174e-03
      2.04578997e-03 7.16286246e-03 -1.35581673e-03 2.75287461e-02
      6.03266582e-02 -7.72112655e-03 -8.79970565e-03 -3.24828997e-02
      -1.50497099e-02 -8.15875921e-03 1.01817166e-03 -1.43043371e-02
      2.30790451e-02 8.03278834e-02 -8.63551348e-03 -3.74600440e-02
      -9.11258720e-03 -2.82146479e-03 -6.85592648e-04 8.29277269e-04
      -3.72155849e-03 -5.69093972e-03 5.72517961e-02 1.43750251e-04
      3.66404280e-02 5.02572320e-02 -1.78751051e-02 -5.95949590e-04
      -6.13623415e-04 -1.43034942e-02 -2.86806393e-02 2.36836355e-02
      5.02355106e-04 7.03964680e-02 -5.27174622e-02 -3.16277184e-02
      -7.42126955e-03 8.16255528e-03 4.77912882e-03 1.19028706e-02
      6.03279211e-02 1.90696772e-02 -7.40713179e-02 -3.19854543e-02
      -2.27138773e-02 5.10885939e-03 -6.26231870e-03 -2.60293223e-02
      -2.09926460e-02 5.36462814e-02 -3.40606715e-03 1.43552739e-02
      3.00139748e-02 -4.80295829e-02 -1.09953750e-02 -1.38623174e-02
      -2.56043170e-02 -4.78141531e-02 -2.61765402e-02 2.16892473e-02
      8.90259147e-02 9.17474460e-03 -2.23258436e-02 -2.28831936e-02
      -3.11600547e-02 -2.77556889e-02 -3.64320837e-02 -1.57876406e-02
      8.07729587e-02 5.82056753e-02 -1.82110965e-02 -3.68135273e-02
      -1.73644498e-02 -3.37486640e-02 -4.17910032e-02 -3.69196311e-02
      -1.47408051e-02 2.64505167e-02 4.19976301e-02 -5.36234630e-03
      -2.00511292e-02 -1.46682486e-02 -3.63311321e-02 -3.91680822e-02
      -4.55006845e-02 -1.98637065e-03 4.31705900e-02 3.94231007e-02
      2.80490983e-02 7.75721204e-03 -1.56580284e-02 -2.23867837e-02
      -1.90475937e-02 -2.03939397e-02 -8.98927823e-03 3.40646282e-02
      7.03215674e-02 1.53465541e-02 -1.16268797e-02 -1.05439099e-02
      -1.64173804e-02 -1.60726923e-02 -1.41002387e-02 -1.86657663e-02
      -1.24236094e-02 8.11127573e-02 -6.67074174e-02 -9.51907132e-03
      -3.99742974e-03 -3.57518494e-02 -2.49932483e-02 -1.10078398e-02
      -7.31589785e-03 3.93144637e-02 5.26633188e-02 -3.47384624e-02
      -1.22248949e-02 -1.81225017e-02 -1.90761834e-02 -1.55644100e-02
      -4.16951207e-03 -2.70381832e-04 -1.06731104e-02 4.34218012e-02
      1.57165334e-01 4.78078751e-03 -1.24753220e-02 -6.54802425e-03
      -2.91336770e-03 -6.38898509e-03 -1.86530240e-02 -6.36048689e-02
      4.18859795e-02 1.13174431e-01 1.00032680e-01 -7.22138062e-02
      -3.14160511e-02 -2.91355904e-02 -1.16790365e-02 -1.63274538e-02
      -4.69932780e-02 -3.22626233e-02 4.84798551e-02 -1.50356973e-02
      -5.18201012e-03 2.10987378e-06 -3.22088739e-03 -7.67406588e-03
      -1.28814159e-02 -8.33731517e-02 4.26994590e-03 3.73981409e-02
      4.76420932e-02 -3.45685370e-02 -1.46276699e-02 -2.81914528e-02
      -2.98824050e-02 -4.16740738e-02 -7.71201998e-02 -5.43525349e-03
      1.35258093e-01 1.22581005e-01 1.34009942e-02 -3.29500474e-02
      -1.67047437e-02 -7.00942008e-03 2.81563681e-03 2.35236064e-02
      -1.82609260e-02 1.19249001e-02 4.59808633e-02 4.32050005e-02
      -5.37582301e-03 -1.06453970e-02 9.74042632e-04 -2.00424431e-04
      2.42833700e-02 -3.47564667e-02 6.23652488e-02 7.74976686e-02
      -2.36328058e-02 -2.50761025e-02 2.11390457e-03 -2.43787337e-02
      -1.38775334e-02 4.12803702e-03 -1.20482380e-02 -4.64886129e-02
      2.41927877e-02 6.86513186e-02 3.29699018e-03 1.14989588e-02
      -7.44818896e-03 -1.34476554e-02 -1.65660121e-02 -3.11709065e-02
      -9.72185750e-03 -1.70029365e-02 -1.16813229e-02 9.95342154e-03
      4.51801438e-03 7.85548147e-03 1.07766921e-03 7.14198919e-03
      8.55423417e-03 -2.41840165e-03 -2.94344518e-02 1.56195927e-02
      1.79805513e-02 -1.52960951e-02 -7.51210097e-03 -6.58836355e-03
      1.00047980e-02 2.14393139e-02 -3.69317271e-02 2.26914156e-02
      4.76987511e-02 3.47738178e-03 -7.24587496e-03 -2.21178867e-03
      -5.50937233e-03 -7.80778751e-03 7.89508340e-05 -4.73203473e-02
      -1.85509715e-02 2.05976274e-02 2.63238121e-02 -5.05836308e-03
      -1.44120334e-02 -7.90797733e-03 -4.10500541e-03 8.25414620e-03
      -1.96041260e-02 -2.78972071e-02 3.27083617e-02 7.51616880e-02
      6.54862747e-02 2.01143301e-03 -1.58612393e-02 -7.31558399e-03
      -1.33540966e-02 -2.14296728e-02 -9.15666483e-03 -2.05886476e-02
      6.04166165e-02 7.70482421e-02 2.36173766e-03 -1.66891124e-02
      -1.40284668e-04 -1.33434609e-02 -3.83953862e-02 -5.60176857e-02
      3.90057974e-02 5.85847683e-02 5.00943661e-02 1.61188189e-02
      -1.30621511e-02 -2.60834526e-02 -2.86392514e-02 -1.52340075e-02
      -1.07594477e-02 -4.76176925e-02 -2.38802191e-02 2.05526464e-02
      8.40031542e-03 -5.48501313e-03 2.05506068e-02 -1.82003640e-02
      -2.10592225e-02 -5.07182302e-03 1.74416732e-02 -6.57883566e-03
      3.20330001e-02 3.83766405e-02 -1.49019845e-02 -3.35446708e-02
      -2.14742702e-02 7.68588809e-03 -4.62210085e-03 1.74327437e-02
      2.71013915e-03 1.78971179e-02 6.36153668e-02 7.11935014e-02
      -1.00928750e-02 8.64811987e-03 -1.40627678e-02 -1.06844380e-02
      -3.75040481e-03 2.37886868e-02 5.52954860e-02 4.06435356e-02
      -2.08374429e-02 -2.90264431e-02 -2.55007707e-02 3.83482352e-02
      1.95639450e-02 3.54474708e-02 5.18372096e-03 2.33124290e-02
      1.23003880e-02 1.23929838e-02 2.99398303e-02 3.29044238e-02
      -1.58110484e-02 -7.94468168e-03 9.02165566e-03 1.42787397e-02
      2.82111322e-03 1.58752855e-02 5.39517105e-02 8.67004599e-03
      1.00471489e-02 -4.07584123e-02 -1.69747621e-02 -1.68856466e-03
      8.36692099e-03 -1.74898829e-03 7.04810163e-03 7.06942081e-02
      3.32334228e-02 -6.94135064e-03 3.49622965e-02 7.32252607e-03
      1.61595456e-02 2.54699308e-03 -1.30454516e-02 -7.29644904e-03
      -3.22586074e-02 -1.06673986e-02 2.74237152e-02 1.25966659e-02
      4.44300822e-04 -5.08943223e-04 7.76822260e-03 -3.07342280e-02
      -2.17583328e-02 1.97251011e-02 5.55051267e-02 2.72419117e-03
      -4.19973917e-02 -2.15263180e-02 -1.12283872e-02 -4.66924161e-03
      -4.53864038e-03 -8.25742166e-03 4.99486215e-02 6.91814572e-02
      -4.58940640e-02 -4.30652276e-02 -1.79048665e-02 -1.95972640e-02
      -1.98719315e-02 -1.76169816e-02 -2.72021852e-02 3.59327383e-02
      9.27238464e-02 2.07785387e-02 -3.45902555e-02 -2.01084949e-02
      -1.03854295e-02 -5.72434347e-03 -9.88875888e-03 -1.83564238e-02
      2.15029847e-02 8.27116966e-02 1.12938462e-02 -5.67369610e-02
      -2.07418576e-02 -2.66001187e-02 -2.27793790e-02 -6.69336226e-03
      -2.38433611e-02 -4.68372507e-03 7.21386522e-02 2.06340309e-02
      2.40618140e-02 -8.40202812e-03 -1.70452520e-02 -3.50678526e-02
      -2.37170737e-02 -1.44999204e-02 9.06185620e-03 3.79401422e-03
      3.97197157e-02 4.89444919e-02 -9.97600332e-03 -7.72726350e-03
      -2.54389569e-02 -1.90394185e-02 -9.03570373e-03 1.80845556e-03
      2.93413214e-02 4.79184575e-02 -1.04880417e-02 -2.02207472e-02
      -3.31985541e-02 -3.23532708e-02 -1.42700942e-02 -8.07004701e-03
      -1.32008735e-02 7.67696789e-03 1.49995601e-02 2.45980415e-02
      -5.17500527e-02 -2.69193258e-02 -2.68385559e-02 -1.52973421e-02
      -7.94592686e-03 -8.58419202e-03 2.86006313e-02 3.37890983e-02
      -9.98232281e-04 4.79907962e-03 1.71699177e-03 -1.37696574e-02
      -8.69335979e-03 2.04138737e-03 -1.70049607e-03 1.82079207e-02
      3.25962976e-02 4.51892093e-02 2.94783060e-02 -7.08650239e-03
      -5.74461045e-03 -1.88720843e-03 6.34701503e-03 4.74076904e-03
      -1.08444057e-02 2.06544865e-02 3.53816599e-02 -2.80982070e-02
      -1.23252990e-02 -1.25998054e-02 -1.06789023e-02 -4.68929345e-03
      -7.86575861e-03 4.07195510e-03 3.75119001e-02 2.99829822e-02
      3.04872673e-02 -1.23361805e-02 -1.61336996e-02 -9.28958785e-03
      -3.23588331e-03 -1.73388943e-02 -4.33611311e-02 -5.10349218e-03
      7.74179846e-02 1.09329063e-03 3.02731944e-03 2.28109909e-03
      4.32109264e-05 8.99182749e-04 9.34817246e-04 -3.97937521e-02
      -4.48636636e-02 1.27425373e-01 5.33349216e-02 -7.91139994e-03
      -8.56065250e-04 -1.81980021e-02 -2.11834293e-02 -2.22037584e-02
      -3.93392108e-02 -2.95216404e-02 4.68752310e-02 5.76283745e-02
      -7.03140022e-03 -6.85505802e-03 -4.52750642e-03 -2.32720794e-03
      -1.20815542e-02 -4.06109393e-02 -6.08229563e-02 3.32184583e-02
      1.02982752e-01 -2.39539891e-02 -1.09700877e-02 -1.15845585e-02
      -2.48484705e-02 -3.45228910e-02 -4.52971160e-02 -3.37083526e-02
      5.63441403e-02 9.86481160e-02 -1.64869055e-02 -7.84719735e-03
      -7.65933003e-03 -2.80928463e-02 -2.61851437e-02 -1.67673118e-02
      -3.70564498e-02 1.59752835e-02 8.31347927e-02 2.02488080e-02
      -1.73653346e-02 -6.62670797e-03 -2.13782731e-02 -2.93319467e-02
      -3.86185907e-02 -4.12666947e-02 6.63348585e-02 8.24380592e-02
      -2.95891408e-02 -6.65281853e-03 -7.47418962e-03 -1.96166970e-02
      -2.56845728e-02 -4.05507311e-02 -2.42718440e-02 7.03455433e-02
      9.38880891e-02 -7.69118667e-02 -8.85419734e-03 -7.25632417e-04
      -9.65687353e-03 -2.33879052e-02 -5.47210090e-02 8.98952771e-04
      -1.23063521e-02 4.56445925e-02 4.98155802e-02 -1.01983026e-02
      -7.16837030e-03 -5.18707372e-03 -3.55663407e-03 -9.53896344e-03
      -8.63775425e-03 -4.67883609e-02 -6.80234097e-03 7.37711713e-02
      2.20509861e-02 2.50726892e-03 -1.09790638e-02 2.23888760e-03
      -2.03213701e-03 3.92892311e-04 3.51589397e-02 3.86356488e-02
      -3.59817296e-02 2.28163716e-03 9.17424168e-03 1.19930413e-03
      1.28543505e-03 -8.47452506e-03 -1.34742782e-02 -1.40772024e-02
      -1.24892434e-02 1.28873913e-02 6.82781218e-03 -2.08116025e-02
      -4.66709305e-03 1.67626143e-02 3.09975212e-03 -5.69501519e-03
      -3.94706801e-03 1.27640339e-02 1.10691562e-02 7.57452995e-02
      5.05268686e-02 2.41449010e-02 1.46224257e-02 -1.30751561e-02
      1.02387033e-02 -8.88969656e-03 -2.95196474e-02 -4.21955902e-03
      1.17849987e-02 9.57061071e-03 1.92432422e-02 2.16072928e-02
      4.26879786e-02 2.03907508e-02 1.00128287e-02 -1.93044636e-03
      3.87930125e-02 3.09530385e-02 3.47272540e-03 3.28061124e-03
      3.29893492e-02 1.91056449e-02 3.55522521e-02 -2.95750126e-02
      -8.32796022e-02 5.84679330e-03 3.42967175e-02 1.88498143e-02
      2.48215888e-02 3.12126838e-02 4.42752168e-02 1.53384162e-02
      -2.03772336e-02 -2.57772557e-03 3.88427591e-03 2.21935492e-02
      4.33554985e-02 1.67795569e-02 -5.77799045e-03 -2.30482556e-02
      -1.32664246e-02 4.89285253e-02 5.53778745e-02 5.08893020e-02
      -2.16681394e-03 -3.04099219e-03 2.14362354e-03 1.59012550e-03
      1.51010454e-02 4.34052385e-03 9.09895822e-03 1.91072635e-02
      1.09482715e-02 -2.64177099e-02 -3.71567905e-02 -3.09590492e-02
      8.36158451e-03 4.31017987e-02 4.95589264e-02 9.91526991e-02
      3.16535458e-02 2.69470196e-02 -3.54906619e-02 7.61559093e-03
      -2.06998885e-02 3.23063023e-02 2.68803984e-02 2.57717562e-03
      2.74617895e-02 2.28553135e-02 2.86632739e-02 1.37147401e-03
      -1.58813130e-02 -3.68759222e-02 -3.09058148e-02 -4.33155410e-02
      3.74192335e-02 3.50775793e-02 4.44706790e-02 1.51519356e-02
      1.21725081e-02 -2.95124371e-02 -3.72900404e-02 2.56711617e-03
      5.40770218e-02 5.38394728e-04 6.03697784e-02 3.94205675e-02
      -8.12788086e-04 6.26769755e-03 -1.82480942e-02 -4.73043323e-02
      -2.09316351e-02 -2.35691611e-02 4.36447635e-02 1.19870594e-02
      5.74392453e-02 8.57966393e-03 1.64743159e-02 2.24137865e-02
      5.71870618e-03 1.76513870e-03 -2.93530691e-02 2.15783343e-02
      6.56601135e-03 4.29692504e-04 -5.13044326e-03 -3.01202499e-06
      -1.98173486e-02 -9.52774286e-03 3.97655331e-02 8.15779269e-02
      1.62636656e-02 2.62730476e-02 -1.89235043e-02 -1.99607257e-02
      -1.58726294e-02 -2.90851551e-03 -3.44348475e-02 -8.77155550e-03
      7.35400766e-02 9.28378955e-04 -2.32291389e-02 6.25828980e-03
      -4.48319130e-03 9.13969520e-03 2.80802008e-02 1.15982967e-03
      2.87302379e-02 2.21328866e-02 -1.90076809e-02 1.90200508e-02
      -8.43662710e-04 -3.32730147e-03 2.77565815e-03 2.96814796e-02
      -1.35478601e-02 9.45050176e-03 1.57323331e-02 -9.28471610e-03
      -1.31192598e-02 -1.06858835e-02 -1.34084215e-02 -1.31885344e-02
      -3.47822183e-03 -7.24381488e-03 -1.20116323e-02 1.46246059e-02
      2.68464815e-02 1.50252664e-02 -3.24860960e-02 -3.02677788e-02
      -1.84093900e-02 -1.13143437e-02 3.98894743e-04 -6.09045336e-03
      3.26236561e-02 5.38031198e-02 -4.61550280e-02 -6.32730685e-03
      -2.71637487e-04 -1.15005234e-02 -1.13161711e-03 -1.39239512e-03
      1.26316268e-02 1.01467082e-02 -2.37581693e-02 -7.75279803e-03
      -1.80152757e-03 -8.74647032e-03 -1.57685373e-02 1.07590342e-03
      1.44773405e-02 1.05504505e-02 7.34608481e-03 4.97776717e-02
      4.13246937e-02 -3.51977013e-02 -1.54871941e-02 -9.03028157e-03
      -5.83160482e-03 -5.52060222e-03 -9.27203894e-03 -1.27499516e-03
      6.48661479e-02 4.04491313e-02 2.54924688e-03 -1.95315853e-02
      -7.56718684e-03 -9.06444527e-03 -1.35430098e-02 -2.82599889e-02
      -3.88720483e-02 6.69091288e-03 1.67617239e-02 -8.07605684e-03
      -9.97910928e-03 -1.34167280e-02 7.63474312e-03 -4.32080962e-03
      -5.42814983e-03 -6.98136305e-03 8.92527960e-03 8.29605833e-02
      -1.19676720e-02 -1.95943378e-02 -9.68080014e-03 6.65309373e-03
      -9.64853074e-03 -7.75518967e-03 -2.46088617e-02 -2.63697258e-03
      5.22125997e-02 4.57026437e-02 -1.30330361e-02 4.33713431e-03
      -9.36280191e-03 -1.50582101e-02 -1.39157586e-02 -2.53345612e-02
      -4.13720384e-02 2.13853996e-02 8.03269818e-02 -1.14921145e-02
      4.50638589e-03 -6.95031928e-03 -6.30622357e-03 -1.78242370e-03
      -1.94111075e-02 -3.52011882e-02 6.42779423e-03 -3.14685032e-02
      -1.81671195e-02 2.49804575e-02 1.66970994e-02 -6.72939513e-03
      1.12177227e-02 2.86978297e-02 -4.88340333e-02 -6.81474619e-03
      -4.82053384e-02 -7.57182296e-03 3.34687792e-02 3.55976224e-02
      3.32380384e-02 4.96957228e-02 3.20413448e-02 -7.30104977e-03
      4.58150506e-02 5.01690693e-02 -9.76584014e-03 -4.30788472e-03
      -3.38564999e-03 -1.98373385e-03 -1.60763059e-02 -3.63309644e-02
      5.10187214e-03 7.32321143e-02 7.08151162e-02 -3.23628783e-02
      5.56981657e-03 9.31887142e-03 4.41848440e-03 -1.60883516e-02
      -3.93342264e-02 3.02247163e-02 5.94127458e-03 -7.71328658e-02
      1.26876319e-02 6.44860603e-03 5.45594953e-02 1.88783631e-02
      1.50016528e-02 -4.36044968e-04 1.73721462e-02 -6.27830019e-03
      -2.05710642e-02 6.11222610e-02 1.83894448e-02 4.85633537e-02
      6.55296817e-03 -8.34178273e-03 -1.26172500e-02 1.85602661e-02
      5.59427515e-02 2.12248117e-02 -2.29649637e-02 1.60621591e-02
      1.39989308e-03 1.33922696e-02 6.30894583e-03 -2.41560396e-03
      2.99692601e-02 1.19820647e-02 1.30933267e-03 -9.54983011e-03
      1.48452800e-02 -3.46345454e-02 3.49979056e-03 5.35683101e-03
      2.30224337e-02 3.92576270e-02 4.43003839e-03 -4.20583896e-02
      5.98566979e-02 1.04531385e-02 6.15680665e-02 2.48840544e-02
      9.17746592e-03 1.43034640e-03 3.45000736e-02 9.04534850e-03
      -2.38329992e-02 -3.46532501e-02 -2.34046746e-02 3.11920289e-02
      2.44181827e-02 1.26528973e-02 3.81175056e-02 7.45220855e-02
      -2.11657453e-02 -7.36947060e-02 2.73750210e-03 2.73569673e-02
      5.71392197e-03 1.96185336e-02 2.41004191e-02 3.94055620e-02
      3.73326987e-02 -6.50283322e-02 -1.51923195e-01 -4.37953835e-03
      2.74207629e-02 2.45433748e-02 3.75383869e-02 2.86934040e-02
      5.06737418e-02 -5.80093404e-03 -4.01913980e-03 -6.76895529e-02
      -2.99372822e-02 -4.13867552e-03 4.21987064e-02 2.31742412e-02
      3.55023816e-02 5.03458716e-02 7.18190521e-02 -4.48153764e-02
      -1.37344465e-01 1.20165767e-02 1.60879083e-02 6.21244572e-02
      4.25415486e-02 4.58119139e-02 6.24561310e-02 5.50614251e-03</_></support_vectors>
  <decision_functions>
    <_>
      <sv_count>1</sv_count>
      <rho>4.3556826791077548e+00</rho>
      <alpha>
        1.</alpha>
      <index>
        0</index></_></decision_functions></my_svm>
</opencv_storage>
