<?xml version="1.0"?>
<opencv_storage>
<my_svm type_id="opencv-ml-svm">
  <svm_type>C_SVC</svm_type>
  <kernel><type>LINEAR</type></kernel>
  <C>1.0000000000000001e-01</C>
  <term_criteria><epsilon>1.1920928955078125e-07</epsilon>
    <iterations>1000</iterations></term_criteria>
  <var_all>2916</var_all>
  <var_count>2916</var_count>
  <class_count>2</class_count>
  <class_labels type_id="opencv-matrix">
    <rows>1</rows>
    <cols>2</cols>
    <dt>i</dt>
    <data>
      1 2</data></class_labels>
  <sv_total>1</sv_total>
  <support_vectors>
    <_>
      1.00436425e-02 8.99572950e-03 1.00840935e-02 -2.04210598e-02
      -8.89687985e-03 -6.60667149e-03 -2.00878433e-03 -1.04847224e-02
      2.01427517e-03 5.34943119e-03 1.76616572e-02 2.53270846e-02
      -7.14199804e-03 6.16776757e-03 -7.18836579e-03 4.02603298e-03
      -1.31190447e-02 9.29688662e-03 1.57317165e-02 3.17724049e-02
      1.97307635e-02 4.04403126e-03 -9.75437742e-03 -2.18377635e-02
      3.23891267e-03 -7.76253268e-03 1.72399904e-03 1.10388445e-02
      3.63894925e-02 3.32968384e-02 2.01311465e-02 -2.67590210e-02
      -1.75252203e-02 6.58994715e-04 -7.47448439e-03 4.87173768e-03
      -1.30366650e-03 3.02652566e-04 5.85607544e-04 4.72709723e-03
      5.40713454e-03 2.06466159e-03 -1.44614326e-02 -2.08253078e-02
      6.23032404e-03 -3.49258189e-03 -1.30613474e-02 2.80655809e-02
      1.96242798e-02 2.45546065e-02 1.48447906e-03 -2.88602673e-02
      -2.27394663e-02 3.63367982e-03 3.53528885e-03 1.04943616e-02
      2.03881208e-02 1.77217163e-02 -1.68722903e-03 -4.64332895e-03
      -1.26397572e-02 -1.86806154e-02 -1.06099444e-02 7.99522083e-03
      -4.10427945e-03 2.33271252e-02 3.64574119e-02 1.74644087e-02
      1.25320498e-02 -1.43283410e-02 -1.55894225e-02 2.90880515e-03
      6.99695572e-03 -7.29536591e-03 1.45620378e-02 -5.11755841e-03
      -1.19403061e-02 -2.40331292e-02 -1.70381237e-02 -1.43741518e-02
      1.14136403e-02 2.56605744e-02 -6.55372022e-03 2.38278452e-02
      -9.22156963e-03 -1.70417149e-02 -3.73228900e-02 -2.09455919e-02
      -1.67191252e-02 3.79484370e-02 2.77945325e-02 -3.33390920e-03
      2.23342832e-02 8.99757259e-03 4.89111198e-03 -2.43777446e-02
      -1.13279745e-03 -1.50263589e-03 1.91068035e-02 5.22488914e-02
      2.56249327e-02 1.88673045e-02 -9.42153577e-03 -2.41871458e-02
      -4.13295291e-02 -1.02197770e-02 8.30607302e-03 3.42898332e-02
      9.89217870e-03 -2.60623656e-02 -1.62503775e-02 -1.13226846e-02
      -3.50416871e-04 -1.24294246e-02 -2.60099606e-03 3.43983411e-03
      7.51547329e-03 1.06350780e-02 -1.69775523e-02 -1.32253068e-02
      -9.13173147e-03 -1.21516280e-03 -1.76017769e-02 -1.24260196e-02
      -4.78363549e-03 1.76330432e-02 4.93616313e-02 -7.30392477e-03
      -2.64600646e-02 -1.75170712e-02 -1.82302427e-02 -1.49405776e-02
      1.66206376e-03 1.32130524e-02 4.42560874e-02 3.00995782e-02
      -5.10487938e-04 -2.68094726e-02 -1.97444521e-02 -2.78324839e-02
      -1.61498431e-02 -5.61888563e-03 1.61358584e-02 1.71140973e-02
      -8.54787417e-03 -2.81804008e-03 1.60040427e-03 -2.36572814e-03
      -1.73237524e-03 -4.23657242e-03 -1.57403126e-02 -6.68831868e-03
      6.56690821e-03 -7.28262356e-03 -1.44231832e-03 -6.33286964e-03
      -7.66117824e-03 -8.03288724e-03 -1.35506382e-02 -1.59587748e-02
      1.32548269e-02 6.23545516e-03 1.87767558e-02 7.43397092e-03
      -9.93790943e-03 -1.54944872e-02 -5.50163118e-03 1.07807165e-03
      -4.03358741e-03 2.10693087e-02 1.77428778e-02 3.14655970e-03
      2.81900587e-03 -2.42319573e-02 -1.79957058e-02 -5.08070923e-03
      -4.43153922e-03 -9.20026284e-03 4.26417179e-02 2.04323903e-02
      -2.00192947e-02 -9.17375926e-03 -9.79155581e-03 -3.16192093e-03
      -7.41310231e-03 -1.16110481e-02 -5.00327675e-04 1.43934358e-02
      1.69151044e-03 -1.73265189e-02 -2.19938774e-02 -1.93814505e-02
      1.54324458e-03 -1.65719893e-02 -2.35528266e-03 -1.86653726e-03
      -4.64065652e-03 -7.50372838e-03 1.14477361e-02 -9.22610518e-03
      -2.28048749e-02 -5.84126962e-03 -8.61970149e-03 -8.73443112e-03
      -7.09181884e-03 2.94871479e-02 4.24895734e-02 2.57456787e-02
      -2.26711156e-03 -1.57820061e-02 2.24537798e-03 -7.05766771e-03
      -7.74889765e-03 -3.10412887e-03 -1.57244981e-03 2.47773789e-02
      -6.79605175e-03 -1.74172260e-02 -4.49587405e-03 3.71973915e-03
      -5.31393889e-05 -4.43199649e-03 -1.60938804e-03 -4.00211848e-03
      -2.56132688e-02 -5.74235804e-03 -2.24689581e-02 1.19906059e-03
      1.60723347e-02 1.40699632e-02 -1.40802888e-02 4.45120619e-04
      -3.28639476e-03 -2.25152783e-02 2.23626271e-02 1.07476413e-02
      1.25244819e-02 2.33260752e-03 -4.18700697e-03 -7.95293041e-03
      4.80054552e-03 -1.14439968e-02 2.12214561e-03 1.22296903e-02
      1.86183248e-02 4.19626973e-04 1.44768469e-02 5.86528471e-03
      -2.09654830e-02 6.99410541e-03 5.07050380e-03 3.07961542e-04
      -1.01290527e-03 -5.45872329e-03 -1.06587890e-03 1.30301164e-02
      1.14581604e-02 -1.68181658e-02 -6.91579003e-03 -8.41958355e-03
      -2.31638849e-02 5.46203833e-03 6.96434779e-03 -3.56676476e-03
      -1.38387932e-02 1.29826711e-02 -1.22118760e-02 -4.78577428e-03
      -1.01517430e-02 -2.19310857e-02 2.99603473e-02 9.47425701e-03
      1.88705865e-02 9.30375420e-03 7.34466407e-03 -1.74287781e-02
      1.29060051e-03 -1.47144813e-02 5.91518497e-03 3.02340016e-02
      1.84913501e-02 1.20678905e-03 -6.65212050e-03 -4.68268152e-03
      5.33191441e-03 5.66382846e-03 -2.31877603e-02 6.99227164e-03
      1.90450624e-03 -1.27280662e-02 -1.77016631e-02 -1.17428144e-02
      1.37616191e-02 9.57920589e-03 -6.47574849e-03 -5.21112699e-03
      5.70572075e-03 -1.89812516e-03 -3.10689174e-02 -2.91502345e-02
      -2.33211536e-02 2.08620168e-02 2.91279517e-02 1.68626625e-02
      3.87310702e-03 6.50506513e-03 1.32080177e-02 -4.63425275e-03
      -1.24424333e-02 -1.56521872e-02 -4.85105393e-03 2.58805193e-02
      7.04935694e-04 -4.64258832e-04 2.35612262e-02 2.00817920e-03
      -2.93317903e-02 -2.58449763e-02 -3.01071238e-02 2.27009784e-02
      3.64930257e-02 2.06431039e-02 3.39124277e-02 2.59912498e-02
      5.35315787e-03 6.10730005e-03 -1.51166611e-03 6.50190795e-03
      -2.66732473e-04 -1.00961328e-02 1.06827738e-02 -4.06957610e-04
      -2.09747115e-03 1.43821380e-04 1.48584172e-02 2.55975574e-02
      1.94730237e-02 -1.97130498e-02 -5.30642178e-03 6.09715376e-03
      2.87202443e-03 -1.01348227e-02 2.48757220e-04 -1.40986713e-02
      -4.54249280e-03 2.17460487e-02 7.32494006e-03 1.42862499e-02
      1.33507454e-03 6.53407536e-03 8.46749463e-04 -2.23804619e-02
      1.57204794e-03 3.11865681e-03 1.58145614e-02 1.94016043e-02
      3.28647234e-02 1.09516904e-02 1.35021179e-03 -2.31467038e-02
      -2.13166280e-03 4.20886464e-03 1.17632039e-02 1.35422572e-02
      -7.18181487e-03 -2.21089460e-03 -7.84471340e-04 -1.20419683e-02
      -1.20261749e-02 4.36603790e-03 2.65912851e-03 1.96514148e-02
      3.37602608e-02 2.08674707e-02 1.24969920e-02 5.05489204e-03
      -1.40988352e-02 -1.54511596e-03 -2.70447545e-02 4.14570235e-03
      3.69834271e-03 1.01629859e-02 9.30414535e-03 1.87780354e-02
      9.48195253e-03 -2.15692762e-02 -1.94279067e-02 -2.09356993e-02
      2.10344690e-04 9.29589290e-03 3.38571854e-02 3.61867324e-02
      3.51338722e-02 2.96097677e-02 3.77959851e-03 -1.02841882e-02
      1.19910175e-02 7.91933795e-04 7.58573879e-03 5.81806805e-03
      4.61652502e-03 -1.28389327e-02 -9.22115706e-03 -5.76421386e-03
      -6.92493282e-04 3.42328623e-02 2.02188529e-02 4.14453680e-03
      -6.22005714e-03 -3.94899724e-03 -1.83075406e-02 -1.50720030e-02
      -6.16136333e-03 5.77671267e-03 -1.03722652e-02 6.60941983e-03
      7.39651918e-03 2.68193893e-02 2.57244576e-02 7.02607026e-03
      3.51608003e-04 -2.75518000e-03 -1.68408733e-02 1.25698941e-02
      1.60939246e-02 5.93008893e-03 1.93871688e-02 1.14024412e-02
      -7.98096694e-03 -1.25518255e-02 2.20642611e-03 -2.22604396e-03
      3.70726883e-02 -8.88530631e-04 -1.71100628e-02 -1.27828559e-02
      -8.23216792e-03 -5.14405826e-03 -3.28532839e-03 3.10787070e-03
      2.96878684e-02 2.94425972e-02 2.39757565e-03 -2.81899758e-02
      -1.84959397e-02 -1.66371018e-02 -5.12823882e-03 -7.20110349e-03
      1.86461378e-02 2.23057903e-02 2.69889683e-02 9.02078755e-04
      -8.72267783e-03 -3.00902594e-03 -2.51345243e-03 -2.09542760e-03
      -3.84581927e-03 -7.87624682e-04 2.10999865e-02 -7.07462430e-04
      -2.49798247e-03 -1.60752237e-02 -9.29298066e-03 -1.14059988e-02
      -9.19877458e-03 -3.93019896e-03 1.06764138e-02 2.04856005e-02
      1.40475128e-02 1.33252935e-02 -1.55290989e-02 -1.03489738e-02
      -5.18544856e-03 -3.79707315e-03 -7.90375005e-03 1.10531757e-02
      2.37554424e-02 1.87020749e-02 -1.03798135e-04 -2.92498078e-02
      -1.53860562e-02 -1.43332279e-03 -9.40118684e-04 -1.26826903e-02
      1.69154946e-02 2.44648382e-02 1.04294037e-02 1.67155471e-02
      -4.21207445e-03 -5.73324505e-03 -2.79828138e-03 -7.06110103e-03
      -1.11618293e-02 4.21249354e-03 2.57757530e-02 1.73472352e-02
      -5.22969291e-03 -2.14757882e-02 -1.82699561e-02 -7.35535752e-03
      -4.61596483e-03 -1.12125995e-02 -6.27600122e-03 1.56699866e-02
      2.53191218e-02 -1.79008730e-02 -2.08652094e-02 -8.74031708e-03
      -5.19926567e-03 -6.41642138e-03 -1.13184862e-02 1.00370608e-02
      4.59159017e-02 2.93958746e-02 -9.41203628e-03 -1.72717161e-02
      -7.66894734e-03 -9.07288305e-03 -9.04569030e-03 -1.34131536e-02
      -6.42340584e-03 4.06314470e-02 1.83374751e-02 -2.33550165e-02
      -2.61113346e-02 -1.37202032e-02 5.37187560e-04 -3.86994053e-03
      -4.55630757e-03 -3.96507420e-03 3.09541468e-02 3.02326661e-02
      -3.18483301e-02 -3.26014496e-02 -1.80959012e-02 -3.95717751e-03
      8.20975343e-04 -5.72300144e-03 -5.49388956e-03 3.04222014e-02
      3.34245898e-02 9.53614805e-03 9.78509546e-04 -5.63716888e-03
      -6.28579827e-03 -8.54157005e-03 -3.82168964e-03 -6.91466639e-03
      6.57229917e-03 5.45112882e-03 1.44072687e-02 5.56435995e-03
      1.16053643e-02 -8.83952063e-03 -1.81836281e-02 -5.09196846e-03
      -2.00111838e-03 8.19197670e-03 2.31006127e-02 2.79124570e-03
      -1.04791764e-02 -8.97967815e-03 -4.80465544e-03 3.45585519e-03
      -6.52458845e-03 -3.22167366e-03 1.86954811e-02 1.27846571e-02
      -3.36439721e-03 2.76417583e-02 9.12850490e-04 -5.77062462e-03
      -1.06611550e-02 4.36622277e-03 -5.52079640e-03 2.53356830e-03
      2.32011229e-02 9.94203333e-03 5.19847265e-03 8.78890976e-03
      -2.04941747e-03 -1.38428537e-02 -2.21879617e-03 -1.36433067e-02
      3.16830631e-03 2.38780566e-02 8.25752970e-03 -4.90551954e-03
      -7.09011964e-03 -1.15837837e-02 -2.70017982e-03 -4.54866746e-03
      -3.25061241e-03 2.44203303e-03 1.54098189e-02 -5.15422132e-03
      1.93033591e-02 1.59086399e-02 -2.37110304e-04 -1.46483257e-02
      4.38382244e-03 1.19561078e-02 1.64498724e-02 2.92676836e-02
      4.53008479e-03 -5.00392402e-03 1.03435554e-02 1.40730711e-03
      -5.49285393e-03 -1.52782712e-03 1.88559275e-02 1.17257480e-02
      5.95358200e-03 -1.44474078e-02 -1.43778864e-02 -1.10553857e-02
      -8.52799788e-03 2.18031555e-02 1.13202222e-02 2.35013873e-03
      2.22588126e-02 -3.30141652e-03 -1.72214806e-02 -2.55187508e-02
      -2.78108492e-02 2.28134706e-03 4.06734161e-02 2.74651181e-02
      3.23106870e-02 1.48875937e-02 2.10052705e-03 -4.13846079e-04
      5.67530748e-03 -2.63244007e-03 1.01199271e-02 2.08941288e-02
      8.69153533e-03 -4.76851128e-04 3.82973976e-03 -5.15693659e-03
      -1.49974469e-02 3.92609835e-03 2.11725049e-02 3.36882696e-02
      4.42036353e-02 1.88025441e-02 2.62555927e-02 1.05451699e-02
      2.95989611e-03 -2.38720211e-03 -4.33736044e-04 1.28363352e-02
      1.07719749e-02 6.70103170e-03 -4.83785570e-03 -4.83741472e-03
      3.55972978e-03 -1.63665358e-02 3.41336685e-03 4.13779519e-04
      5.77606354e-03 1.05839940e-02 1.66501291e-02 -4.38974006e-03
      -6.77294005e-03 -7.81972799e-03 1.05426293e-02 -5.26559632e-03
      1.09924860e-02 2.52285916e-02 4.56204498e-03 1.19023968e-03
      -9.76798823e-04 -1.82918161e-02 8.48237309e-04 -4.45445953e-03
      -3.60792875e-03 6.28530630e-04 1.88046042e-02 9.15666111e-03
      7.91143067e-03 -2.62664002e-03 -8.54142383e-03 -2.11073831e-03
      -2.51470339e-02 -6.66891411e-03 -6.47286698e-03 -5.58130862e-03
      3.13209253e-03 1.89799387e-02 6.36258395e-03 -6.26025209e-03
      -7.01629696e-03 -3.19635011e-02 -2.10178532e-02 7.05600297e-03
      2.75919680e-02 3.65244970e-02 5.13718277e-02 2.24185847e-02
      9.15382430e-03 -2.44887685e-03 -2.21029632e-02 -1.52397119e-02
      -1.37202041e-02 -1.56741142e-02 3.90331523e-04 3.13088149e-02
      1.78847509e-03 1.73429516e-03 -1.04702329e-02 -2.75799092e-02
      -3.58774960e-02 -1.69958100e-02 4.56178933e-03 4.05585431e-02
      5.09982295e-02 5.71315028e-02 2.31854878e-02 9.13723651e-03
      -3.69641148e-02 -1.92288086e-02 -1.02654565e-02 2.25536972e-02
      2.25937050e-02 6.91486429e-03 3.41554359e-03 1.76818166e-02
      -3.26902419e-03 -2.04497203e-03 3.81204271e-04 -1.39719313e-02
      1.54398233e-02 1.51099171e-02 -1.34071778e-03 -1.51063199e-03
      2.88756266e-02 1.58546492e-02 -3.41766737e-02 -3.54268551e-02
      -2.63610370e-02 -1.30309176e-03 1.79068185e-02 1.15072373e-02
      2.36522909e-02 4.53861579e-02 1.72532108e-02 9.44268052e-03
      -1.96420588e-02 -2.89692190e-02 -8.41364916e-03 -1.49242801e-03
      -6.24941988e-03 1.57297347e-02 4.73824590e-02 2.84614656e-02
      -2.07940512e-03 -7.94632477e-04 -1.13214143e-02 -4.56418982e-03
      -1.20205022e-02 -5.76424645e-03 -2.36943073e-04 8.04198906e-03
      1.19343102e-02 -5.98608237e-03 -2.08041281e-03 -1.45835485e-02
      -1.20514538e-02 -2.09275391e-02 -1.01007391e-02 -3.75888636e-03
      4.91952850e-03 2.28215232e-02 2.26419009e-02 4.49777674e-03
      -1.73094925e-02 -1.65831391e-02 -2.39536893e-02 -7.91247189e-03
      7.45270541e-03 2.55213268e-02 3.14237624e-02 3.52978962e-03
      -1.12322047e-02 -1.00832041e-02 -1.05460184e-02 -2.56342627e-02
      -3.55914165e-03 6.03811117e-04 2.08440907e-02 2.18822155e-02
      9.78973694e-05 -4.24697413e-04 -5.76596148e-03 -2.05367734e-03
      -7.35017750e-03 -3.15716211e-03 -3.84677760e-03 6.21039234e-03
      1.73329115e-02 2.65383418e-03 5.60376467e-03 2.04448029e-03
      -1.42680826e-02 -7.35944370e-03 -2.15805997e-03 -9.83629003e-03
      -1.20463651e-02 -3.62677500e-03 -6.31369092e-03 -6.91202981e-03
      3.73955700e-03 2.30491452e-04 -4.23984043e-03 1.05721382e-02
      1.18107414e-02 1.18298773e-02 2.98647061e-02 -2.29352452e-02
      1.34363165e-03 2.27936283e-02 8.97857361e-03 1.86374895e-02
      1.91680510e-02 2.07886491e-02 -8.24111223e-04 -1.42037217e-02
      1.86624583e-02 -6.63762586e-03 -5.24497172e-03 -1.22195063e-02
      3.86326876e-03 1.00882596e-03 -2.39984063e-03 -5.90926793e-04
      2.10778974e-02 3.31749693e-02 -2.99276747e-02 -2.37447005e-02
      -1.21943504e-02 1.00195520e-02 6.45083655e-03 1.77822798e-03
      9.63645242e-03 3.67830805e-02 -1.74458884e-02 1.31323305e-03
      2.57853344e-02 -1.80746918e-03 1.98448543e-02 1.56511087e-02
      8.96567758e-03 -8.73681996e-03 -1.38570275e-02 -2.62331596e-04
      -7.43986992e-03 1.00551285e-02 -2.50478857e-04 2.19583996e-02
      1.26045663e-02 -4.65022214e-03 -1.68943759e-02 -5.55077940e-03
      6.22771168e-03 -2.22286712e-02 -1.23095466e-02 -6.17057271e-03
      5.98685874e-04 3.93181900e-03 -2.23587384e-03 -9.61643737e-03
      -4.66651563e-03 5.52264042e-03 -9.22710355e-03 1.61407925e-02
      4.42337338e-03 1.52596028e-03 -7.69302854e-03 5.53733530e-03
      -7.65067572e-03 3.48442444e-03 1.21663441e-03 1.01017300e-02
      8.58039316e-03 -4.50825039e-03 2.82172672e-02 1.60638597e-02
      1.77393307e-03 -1.59829371e-02 -1.50712011e-02 9.45252366e-03
      1.18799992e-02 1.88056901e-02 -1.74669933e-03 1.04352729e-02
      2.27146011e-04 -7.93472305e-03 -1.79046560e-02 -6.31745532e-03
      -7.28931325e-03 -1.82159562e-02 -3.19164293e-03 1.66230730e-03
      -6.75731851e-03 -1.38467243e-02 -4.75127483e-03 -1.10700831e-03
      9.41486564e-03 2.43740696e-02 -1.25324698e-02 -1.08960569e-02
      -8.76089372e-03 -1.54626081e-02 -1.43331522e-02 -3.17145046e-03
      -1.83531886e-03 2.28319354e-02 4.13374156e-02 3.58222378e-03
      -1.22975136e-04 -2.68983445e-03 -2.76289007e-04 -1.30256787e-02
      -1.14515675e-02 -1.19781343e-03 4.03420255e-02 4.93262261e-02
      8.44078884e-03 -1.76276676e-02 -1.91391818e-02 -1.99621283e-02
      -2.03010272e-02 -1.45585854e-02 -7.73856603e-03 3.87055799e-02
      7.10297888e-03 -1.09625151e-02 9.55914054e-03 -2.52492190e-03
      2.18368531e-03 3.51234013e-03 -3.40841128e-03 -1.59708355e-02
      1.03973942e-02 -9.66528337e-03 -1.49967289e-02 1.59153286e-02
      3.09752263e-02 3.17384712e-02 1.02100959e-02 -2.98215970e-02
      -6.10810751e-03 9.25552100e-03 3.72690931e-02 1.04228000e-03
      1.10514201e-02 1.51911599e-03 -7.47517031e-03 -1.38931209e-02
      -9.91966389e-03 -9.20537021e-03 3.91860381e-02 1.74064972e-02
      1.23785681e-03 3.18114944e-02 2.46490669e-02 -8.30720877e-04
      -2.55949087e-02 -3.43832187e-02 -2.28141379e-02 2.20871884e-02
      -3.60660953e-03 -9.85794887e-03 1.18814074e-02 2.08411627e-02
      2.18195803e-02 -2.73951725e-03 1.34630932e-03 -1.29604116e-02
      3.11094895e-03 -1.44711314e-02 -1.69753525e-02 3.29433382e-03
      2.49409974e-02 1.20269442e-02 1.58547284e-03 4.90947347e-03
      -4.62519238e-03 -6.29360043e-03 -1.25508728e-02 -2.43676845e-02
      -2.09780061e-03 1.41589269e-02 3.11413165e-02 -5.74133592e-03
      1.17948530e-02 2.01671273e-02 2.35231072e-02 -8.06082692e-03
      -1.80022139e-02 -4.55080811e-03 4.45278641e-03 5.43257035e-03
      -1.09559419e-02 2.22367551e-02 1.49974730e-02 1.43350624e-02
      -1.49819646e-02 -2.50472184e-02 -1.20323561e-02 -5.73115284e-03
      -2.16590846e-03 2.47646887e-02 1.21097593e-02 6.62918028e-04
      -2.56324117e-03 -1.01015372e-02 -3.09130251e-02 1.75734493e-03
      -5.06053958e-03 1.87800564e-02 4.46276888e-02 3.97100300e-02
      1.63820758e-02 2.58065592e-02 3.24988551e-03 -1.87656358e-02
      -1.65693462e-02 -6.81244861e-03 -9.23419278e-03 -1.65917526e-03
      1.68422218e-02 1.37564226e-03 7.82430079e-03 6.97460724e-03
      -2.21114643e-02 -6.22294378e-03 -1.10854823e-02 -1.27525013e-02
      1.77982505e-02 1.99758448e-02 1.86994597e-02 2.93032117e-02
      -1.37218591e-02 -2.29466092e-02 -9.47061181e-03 -8.09181016e-03
      -1.61517528e-03 3.72087769e-03 2.31961459e-02 3.00372802e-02
      3.37133110e-02 2.18177121e-02 1.32742128e-03 -8.91403947e-03
      -1.83125231e-02 -1.17976451e-02 -1.31432870e-02 1.54449306e-02
      2.83629298e-02 3.22892182e-02 1.39728282e-03 -2.65701320e-02
      -7.81590026e-03 -1.64044499e-02 -2.18579974e-02 -7.79701676e-03
      1.18145030e-02 1.06634637e-02 1.93499364e-02 1.58636533e-02
      1.68235525e-02 -1.02293156e-02 -8.69649369e-03 -2.32912060e-02
      -1.40292728e-02 1.59846600e-02 1.21821761e-02 2.60215048e-02
      2.07327213e-02 1.12599984e-03 -1.81222800e-02 -1.16921775e-02
      -1.94328707e-02 -7.60545954e-03 7.40183657e-03 7.89408293e-03
      2.05195677e-02 -1.56878075e-03 -4.37015481e-03 7.98982277e-04
      7.68212252e-04 -1.00359526e-02 -1.02136540e-03 3.83355329e-03
      1.12111336e-02 2.35668253e-02 3.16743436e-03 -3.74812540e-03
      8.80180113e-03 -1.71657396e-03 -1.08972881e-02 -1.60202179e-02
      2.99079064e-03 -3.00757587e-03 -1.00471182e-02 -7.46670831e-03
      -1.98313873e-02 3.96717489e-02 1.07907094e-02 1.28266157e-03
      -6.47397060e-03 -8.19783751e-03 -1.27321156e-03 -1.15135461e-02
      -1.58493631e-02 -3.52046057e-03 1.10383732e-02 1.05585391e-02
      4.25599748e-04 1.01606930e-02 1.34326788e-02 -1.32420775e-03
      2.28485689e-02 -4.34021838e-02 -1.25888418e-02 2.21962612e-02
      1.94351505e-02 1.67260524e-02 1.06406594e-02 9.46003757e-03
      -1.66160781e-02 -2.08060592e-02 -2.56201979e-02 -2.88819894e-04
      4.34139110e-02 2.36837454e-02 1.17969001e-02 1.51320873e-02
      -8.30675475e-03 -1.03568509e-02 -2.44119950e-02 -3.23538035e-02
      3.80281662e-03 3.63463797e-02 2.64778137e-02 6.73038093e-03
      1.99317057e-02 -3.44898761e-03 -2.74170581e-02 -4.24008407e-02
      -3.13517191e-02 -3.09144938e-03 1.99865960e-02 9.35711805e-03
      2.05440503e-02 7.57482927e-03 8.26989021e-03 -1.03268204e-02
      -1.42658930e-02 -1.80370566e-02 3.98240890e-03 2.15024929e-02
      1.44692026e-02 2.50940826e-02 1.69249661e-02 8.47194251e-03
      -2.11091470e-02 -2.48763636e-02 -1.81314349e-02 6.20716193e-04
      7.44485948e-03 1.61325131e-02 1.08552314e-02 1.36305830e-02
      1.10856015e-02 -1.28891575e-03 -1.56573374e-02 -1.64481066e-02
      8.49295501e-03 1.49363764e-02 1.58419907e-02 2.89023463e-02
      2.95584910e-02 1.98577009e-02 -7.04177469e-03 -3.29114608e-02
      -1.33297481e-02 1.60133261e-02 1.80591289e-02 3.60391708e-03
      1.85571145e-02 1.69873424e-02 -1.46876264e-03 -2.56191697e-02
      -3.99082378e-02 1.53649459e-03 1.68302283e-02 1.40805030e-02
      7.41963135e-03 1.78115647e-02 1.07135307e-02 -1.21616023e-02
      -2.82982402e-02 -1.65964626e-02 -3.50327827e-02 1.39155108e-02
      2.12442372e-02 2.17325594e-02 1.25516001e-02 2.27569416e-02
      2.89516430e-02 -2.02787425e-02 -5.52119017e-02 -2.83482540e-02
      8.66134837e-03 5.06243156e-03 1.72317345e-02 2.46751830e-02
      2.21049730e-02 2.33502537e-02 -1.73359066e-02 -2.31894571e-02
      3.48087735e-02 1.18309641e-02 9.35778581e-03 3.32686293e-04
      5.80224441e-03 -9.75722354e-03 -1.05442312e-02 -1.66526940e-02
      3.02800201e-02 3.69742960e-02 1.31902341e-02 -7.02623092e-03
      -1.32264271e-02 -1.52423754e-02 -2.06126757e-02 -2.31125001e-02
      -2.87669767e-02 2.66605169e-02 -2.07759044e-03 -7.64843915e-03
      9.89864208e-03 2.64604972e-03 1.83311123e-02 -6.51616231e-03
      4.64580534e-03 -9.07801650e-03 1.63817815e-02 1.12733999e-02
      1.86455399e-02 -2.02087220e-03 -3.54043068e-03 -1.58010386e-02
      -2.72175297e-02 -3.03530544e-02 -2.55478472e-02 -7.28735235e-04
      4.04780917e-02 1.43934526e-02 9.43578407e-03 5.97211393e-03
      -1.46680856e-02 -1.66776795e-02 -2.32663769e-02 -9.04212799e-03
      4.34946939e-02 2.95452010e-02 1.86326690e-02 2.82613002e-02
      1.43931946e-02 -1.42548410e-02 -3.31858024e-02 -4.51116264e-02
      -2.42883470e-02 2.47189403e-02 2.22837850e-02 2.01928187e-02
      -3.71633889e-03 6.80166762e-03 -1.91578194e-02 -2.45297756e-02
      -3.46848518e-02 -2.60982886e-02 1.11736655e-02 2.74632312e-02
      4.94998880e-03 6.11577323e-03 9.75621806e-04 -1.61526743e-02
      -3.89310196e-02 -5.10543734e-02 -3.33527811e-02 1.80644225e-02
      -8.71979631e-03 -2.07741465e-02 -1.23892119e-02 8.33164668e-04
      2.54167765e-02 -7.79330265e-03 4.77136252e-03 1.81988962e-02
      3.36100571e-02 6.30632800e-04 -1.01036262e-02 -1.71708539e-02
      -5.92434267e-03 7.83434045e-03 -5.88448020e-03 7.19140400e-04
      8.20159388e-04 2.00868547e-02 -6.30168535e-04 -1.50439208e-02
      -1.94866508e-02 -3.38940648e-03 1.72738750e-02 4.19125287e-03
      1.55673446e-02 1.77713223e-02 4.04120572e-02 4.71242797e-03
      -6.49900176e-03 -2.03132704e-02 1.12683594e-03 2.99052219e-03
      -3.00911288e-05 -6.09198306e-03 3.63105955e-03 1.42545216e-02
      1.68051589e-02 -8.51774029e-03 -1.49758933e-02 -8.58312286e-03
      -4.49081999e-04 -4.39100014e-03 -1.44435337e-03 -1.39651122e-02
      4.73008677e-03 1.29340664e-02 -1.74511615e-02 -3.59511306e-03
      -1.23387184e-02 -1.45577751e-02 1.54723907e-02 1.94477793e-02
      1.07279308e-02 1.38476370e-02 7.88698345e-03 -1.83712896e-02
      -1.88941613e-03 7.40127463e-04 8.17997102e-03 -2.72329221e-03
      -1.68229286e-02 -1.12314578e-02 1.96317374e-03 -1.84701744e-03
      -7.41913402e-03 -6.75667310e-03 3.46590555e-03 -6.17280882e-03
      1.58982840e-03 1.25722466e-02 1.32070696e-02 2.53649708e-03
      3.81558738e-03 -2.23613568e-02 -6.90266583e-03 -2.05164067e-02
      -2.74357293e-02 -6.19552610e-03 1.46155097e-02 1.88233033e-02
      1.04536489e-02 2.50274744e-02 4.88475058e-03 -2.32705334e-03
      -9.32512805e-03 -2.03075968e-02 -1.74989067e-02 1.21867629e-02
      7.58693181e-03 3.35026579e-03 -9.80756432e-03 -1.39812967e-02
      -1.27740111e-02 -1.19068325e-02 -1.60234831e-02 -4.07569716e-03
      8.23110063e-03 2.66342442e-02 7.73811713e-03 2.06575170e-02
      2.83195768e-02 1.98571030e-02 -1.18979495e-02 -1.12931430e-02
      -1.05924141e-02 4.03097365e-03 1.35145904e-02 6.85956189e-03
      -2.65371078e-03 5.24718640e-03 1.60715058e-02 -3.22063483e-04
      -1.03309881e-02 -1.24396645e-02 -3.08066048e-03 -5.83287654e-03
      -1.44119654e-02 -2.16443930e-02 4.65151528e-03 5.51344492e-02
      1.45731177e-02 -2.58435309e-03 -9.06725880e-03 -6.24411274e-03
      -3.63084837e-04 -1.10701732e-02 1.26260230e-02 3.52535136e-02
      1.41761908e-02 -1.61442608e-02 -1.68935079e-02 -2.39101648e-02
      -1.97229106e-02 -9.18307342e-03 -3.12001701e-03 -2.44387891e-03
      2.07271744e-02 1.96241774e-02 -8.06741696e-03 -1.52717838e-02
      -2.38403436e-02 -1.82345156e-02 2.38905847e-03 -6.41696295e-03
      -2.39030942e-02 1.15011856e-02 4.48596813e-02 2.40053628e-02
      4.44486970e-03 3.21645360e-03 -2.89277080e-03 -6.20840117e-03
      -2.12012064e-02 -1.69238576e-03 9.57234111e-03 2.66520176e-02
      2.02727374e-02 -9.06773959e-04 7.97635969e-03 -2.70513189e-03
      -6.90421602e-03 -3.00754122e-02 -1.25519671e-02 1.48766637e-02
      4.09240201e-02 1.21511854e-02 -9.56044719e-03 -7.51797576e-03
      -1.23980222e-02 4.75661550e-03 -1.60902124e-02 1.81882251e-02
      3.37777175e-02 2.39598751e-02 -1.06566716e-02 -2.22392865e-02
      -8.27650167e-03 6.20218983e-04 1.24661941e-02 -2.24420452e-03
      -9.12564807e-03 -1.25046656e-03 -6.23464072e-03 -6.37335936e-03
      -1.33898454e-02 2.43677598e-04 3.04447999e-03 -3.27202864e-03
      1.43936672e-03 -1.07713807e-02 -3.60897451e-04 3.10681033e-04
      -2.85534677e-03 -8.36772565e-03 6.43330486e-03 1.03448192e-02
      -1.44175650e-03 6.59783604e-04 3.13925743e-02 1.47982277e-02
      -4.61096969e-03 -1.63927507e-02 -2.17157379e-02 -1.48875369e-02
      7.97656644e-03 3.19572836e-02 2.86912173e-02 8.48818221e-04
      2.27064220e-03 -3.31239006e-03 -1.75890271e-02 -2.64023151e-02
      -2.50168853e-02 2.58413404e-02 2.62364000e-02 2.05832943e-02
      -1.54270437e-02 6.07238384e-03 1.25292903e-02 7.01977825e-03
      3.02949548e-03 1.07473973e-02 3.20292115e-02 -2.83543672e-03
      -3.39932330e-02 -1.99688561e-02 -1.07545638e-02 -7.51503836e-03
      -3.19329533e-03 9.65795014e-03 1.78680923e-02 4.67553921e-02
      4.97898506e-03 4.35832795e-03 -2.42874101e-02 6.84311567e-03
      -4.16565547e-03 -4.68354765e-03 -1.03221256e-02 -1.38365412e-02
      1.98686067e-02 1.28735583e-02 -1.86436425e-03 -1.37845054e-02
      -4.54988703e-03 -2.03240663e-02 -2.21684705e-02 -1.33935371e-02
      1.03321159e-02 3.27546149e-02 2.36114264e-02 3.16551663e-02
      -6.47608517e-03 -1.27920071e-02 -6.55645644e-03 -6.42858073e-03
      1.00380005e-02 7.43519561e-03 9.66231525e-03 -1.37194130e-03
      2.15091519e-02 -3.37872049e-03 2.14919657e-03 -1.11515634e-02
      -8.86995904e-03 -1.01782642e-02 -1.26505494e-02 -1.50153842e-02
      -2.12512258e-02 -3.87602276e-03 -1.68836433e-02 -6.04400644e-03
      -1.22715095e-02 -2.08803806e-02 -9.67917126e-03 1.07075162e-02
      2.46563833e-02 2.25741882e-02 4.09283228e-02 -1.68481767e-02
      -1.28785009e-02 -1.54195325e-02 -1.63982082e-02 -1.98606402e-02
      -2.06281641e-03 1.22839110e-02 9.39608831e-03 2.26619132e-02
      1.59791838e-02 1.41497236e-02 -8.17164499e-03 3.51666939e-03
      -9.88818053e-03 -8.76958203e-03 -1.07521610e-02 -1.67803280e-02
      2.60732777e-04 8.01022258e-03 2.24067923e-03 -1.32891135e-02
      -3.36265494e-03 -1.19876990e-03 -2.79763844e-02 -3.16463150e-02
      -1.32533982e-02 1.42295556e-02 -7.36763189e-03 -7.62999244e-03
      -1.29027003e-02 -7.46210385e-03 -3.13810306e-03 8.02681025e-04
      2.46249288e-02 2.67198421e-02 2.81161238e-02 -3.86373489e-03
      -1.73663199e-02 -3.02066095e-02 -2.06385795e-02 -3.83893843e-03
      -1.20855449e-02 6.69819815e-03 3.50421891e-02 2.03245655e-02
      5.75435394e-03 -1.45385675e-02 -1.49510615e-02 -3.84362647e-04
      1.00149550e-02 8.28901026e-03 1.13267871e-02 7.59281544e-03
      2.08161175e-02 7.14379409e-03 -1.57465003e-02 -1.61704402e-02
      3.68587533e-03 -2.29155272e-03 9.26885754e-03 4.81225521e-04
      1.11188730e-02 1.92108471e-02 2.42498014e-02 -1.20088393e-02
      -8.53988063e-03 -5.17569808e-03 2.31216152e-04 2.27390677e-02
      1.22815697e-02 -9.33802128e-03 6.37698546e-03 1.72082800e-02
      -2.23486032e-02 -1.56273842e-02 9.85856634e-03 6.67267619e-03
      1.08853178e-02 1.46155804e-02 -6.82593230e-03 -4.82339150e-04
      -3.71295004e-03 -1.57978795e-02 -1.30356634e-02 1.60701852e-03
      1.62895292e-03 -1.76588411e-03 -7.10495561e-03 -1.35119626e-04
      -1.70883036e-03 -8.78592487e-03 5.97313279e-03 -7.62125105e-03
      2.15146802e-02 9.07368551e-04 3.85947479e-03 9.33166035e-03
      1.85869145e-03 -1.84090424e-03 -5.71881840e-03 -2.55877767e-02
      -1.71658713e-02 1.88826416e-02 9.47335456e-03 2.98952102e-03
      1.38153899e-02 5.06185461e-04 -5.89458318e-03 -2.93549593e-03
      4.58536018e-03 1.64627167e-03 2.59767734e-02 1.90420505e-02
      5.15938038e-03 -1.86921866e-03 -6.91812718e-03 4.74841474e-03
      -1.65014360e-02 -1.82604752e-02 -5.74362697e-03 -2.39222264e-03
      -8.92225094e-03 -4.51510772e-03 -4.22656303e-03 8.94288160e-03
      5.77305676e-03 -8.77529941e-03 2.58044973e-02 4.57245000e-02
      -1.04189245e-02 -2.08074804e-02 -1.10974666e-02 -7.17928726e-03
      2.82452721e-03 -6.92856079e-03 -5.47305855e-04 1.43273985e-02
      2.74605751e-02 2.03234330e-02 4.64387797e-03 -8.73923302e-03
      -1.03254886e-02 -1.72870811e-02 -2.15153617e-04 -1.29558910e-02
      1.77297313e-02 4.18579280e-02 2.24427730e-02 -5.90895442e-03
      -1.13505814e-02 -1.36234204e-03 -1.64073855e-02 -1.40853105e-02
      1.51314661e-02 4.75064218e-02 3.65181305e-02 -8.26484244e-03
      -1.30260419e-02 -2.18754858e-02 -1.54014444e-02 -1.27893435e-02
      -1.27211888e-03 9.91136953e-03 3.23750339e-02 2.42097992e-02
      -3.13428493e-04 -1.51516916e-02 -2.21865438e-02 -2.08375603e-02
      -6.52999151e-03 1.10303471e-02 -4.79053939e-04 3.11708730e-02
      4.11854573e-02 -6.31964346e-03 -1.31054763e-02 -1.60714369e-02
      -1.17359171e-02 -2.28821095e-02 -2.33398750e-02 -5.02346316e-03
      2.34288927e-02 3.15024331e-02 1.20805278e-02 -1.41908862e-02
      -2.04246305e-02 -1.95032991e-02 -3.12613323e-02 -1.02495719e-02
      -5.92723116e-03 8.16727430e-03 3.45316567e-02 9.29282326e-03
      -1.10431202e-02 -6.48401165e-03 -1.05863037e-02 -1.90418644e-03
      -1.08217215e-02 2.40937248e-02 4.66355160e-02 3.66505086e-02
      -1.50458436e-04 -1.99055709e-02 -1.54875731e-02 -9.97568108e-03
      3.33823171e-03 -1.70336664e-02 -3.21525186e-02 -5.32897608e-03
      5.08580171e-02 3.24201956e-02 -1.38361882e-02 -1.03172418e-02
      -1.98579971e-02 -2.69414205e-02 -2.22995281e-02 3.84323974e-03
      2.29476634e-02 4.79733050e-02 1.65887587e-02 -2.47926190e-02
      -2.27407943e-02 -2.38760002e-02 -2.35278141e-02 -2.78935153e-02
      2.53343657e-02 1.64235141e-02 -3.11377429e-04 -1.40732992e-02
      -1.63115878e-02 -1.80852730e-02 9.53862164e-03 2.27522198e-02
      1.20149441e-02 -1.02310805e-02 -9.04722884e-03 -4.36726771e-03
      -1.66027341e-02 -2.76983790e-02 -2.53434367e-02 2.16576811e-02
      4.08352576e-02 2.49403734e-02 8.48312397e-03 8.54880456e-03
      2.36118096e-03 -1.37818335e-02 -1.27929021e-02 -9.44712386e-03
      5.09569189e-03 1.10969013e-02 -1.30820116e-02 -1.76565778e-02
      -1.75603256e-02 -3.37308533e-02 -2.10830756e-02 -2.16808040e-02
      -1.16772307e-02 2.23424882e-02 4.04066071e-02 6.59025973e-03
      -2.75800982e-03 -2.87065026e-03 -6.36013458e-03 -5.44239674e-03
      -1.30015267e-02 -1.74322147e-02 1.16901156e-02 2.88789663e-02
      2.13971063e-02 4.65659238e-03 -7.46590644e-03 -1.40331313e-02
      -9.09499824e-03 -1.06427623e-02 -6.17052848e-03 2.41453648e-02
      2.85954978e-02 4.16917354e-02 -1.41424481e-02 -5.09947585e-03
      -2.11306904e-02 -1.75129436e-02 -1.92360505e-02 -1.22404778e-02
      2.06028968e-02 4.92935404e-02 2.34472677e-02 -7.48860044e-03
      -9.79930721e-03 -2.40196735e-02 -1.27997594e-02 -1.45260599e-02
      -7.38709327e-03 1.24807777e-02 1.68035831e-02 3.24057750e-02
      -5.25897369e-03 -4.66073584e-03 -2.84443586e-03 -4.00681561e-03
      -8.29537027e-03 -5.78329619e-03 1.19333519e-02 2.25692503e-02
      4.60080616e-02 -9.48633347e-03 -9.70089901e-03 -9.95785277e-03
      -6.57920633e-03 -1.26144458e-02 -6.04641484e-03 1.87605396e-02
      2.79323570e-02 3.38038430e-02 -1.27172573e-02 -2.11681724e-02
      -1.37451235e-02 2.01127073e-03 3.00813961e-04 -9.90762189e-03
      -6.77370559e-03 1.26037654e-02 1.59977544e-02 -2.94127204e-02
      -1.35108419e-02 -1.41412402e-02 2.87894579e-03 -1.73763052e-04
      -1.29595287e-02 9.95328091e-03 2.46131457e-02 2.82505844e-02
      -2.10228730e-02 -1.27143431e-02 -6.87304977e-03 -8.80762842e-03
      -1.41794961e-02 -4.65463242e-03 1.27421375e-02 3.08076683e-02
      3.60903144e-02 -2.01703105e-02 -2.53703706e-02 -1.94431487e-02
      -2.08261330e-02 -1.81457829e-02 -1.46555090e-02 1.03372643e-02
      4.58141491e-02 1.61961727e-02 -4.89092767e-02 -2.28203759e-02
      -1.23477895e-02 -1.03269024e-02 -1.34667167e-02 -2.69231596e-03
      1.75887775e-02 4.33233529e-02 1.96242258e-02 -3.40542383e-02
      -2.94971298e-02 -1.66995395e-02 -1.43084051e-02 -2.01540086e-02
      -2.75328802e-03 3.04103307e-02 2.43880320e-02 1.61930057e-03
      1.50807621e-02 -6.60666078e-03 -4.25165938e-03 -1.12801362e-02
      5.15245600e-03 1.27963424e-02 9.97839961e-03 -5.42215025e-03
      -6.20640721e-03 8.50890297e-03 -2.11661905e-02 9.24189881e-05
      1.26588261e-02 2.79929256e-03 1.40383467e-02 1.55001143e-02
      -1.55866137e-02 -6.17673015e-03 3.35049699e-03 -1.12204412e-02
      -1.85592286e-03 -3.34547041e-03 1.41988732e-02 1.40070368e-03
      7.71170761e-03 -7.22930208e-03 -5.51788975e-03 1.70508549e-02
      -5.60184382e-03 2.14797650e-02 1.67315137e-02 6.99482812e-03
      6.90602651e-03 -2.87041510e-03 -1.40104946e-02 -9.07495711e-03
      1.57399150e-03 -2.35851035e-02 -9.14835650e-03 9.95485298e-03
      1.97678921e-03 6.76628249e-03 2.68870988e-03 -4.30178875e-03
      -1.37696359e-02 2.32829666e-03 -2.11363798e-03 5.87907899e-03
      2.59611774e-02 1.34055419e-02 1.06582977e-02 -4.03305748e-03
      -9.94370319e-03 -1.56694036e-02 -1.55675299e-02 -9.97226033e-03
      1.17951483e-02 6.62601134e-03 8.14589113e-03 2.72000674e-03
      -2.36251974e-03 -4.88350866e-03 -1.63999796e-02 6.03562407e-03
      -1.50448587e-02 6.58120087e-04 1.41917067e-02 1.86998099e-02
      2.68691033e-02 1.30819036e-02 -7.96033721e-03 -7.00211339e-03
      6.60493132e-03 1.53064439e-02 1.67388655e-02 2.06525866e-02
      7.26213120e-03 -2.67496536e-04 -2.00796500e-03 -1.74178369e-02
      -3.53253307e-03 -3.34935705e-03 8.05717427e-05 2.14211959e-02
      1.83480158e-02 6.42107148e-03 -8.90262425e-04 3.22730187e-03
      -1.19142132e-02 -1.43685788e-02 4.07562777e-03 -6.35994971e-03
      -1.11179687e-02 1.51558546e-02 7.36311404e-03 1.26504563e-02
      1.93170682e-02 -9.81401745e-03 1.43198445e-02 1.27436053e-02
      -9.85443313e-03 -6.41402882e-03 4.79675969e-03 6.61141286e-03
      3.27165471e-04 9.87135246e-03 4.75871377e-03 9.93156247e-03
      -1.13454117e-02 2.54669902e-03 2.01709811e-02 6.75518240e-04
      -1.07491240e-02 -6.23455876e-03 -9.18959267e-04 -9.31171235e-03
      -1.50933694e-02 -8.55627656e-03 2.68701464e-02 4.63176891e-02
      6.47619599e-03 -1.38695072e-02 -1.69092957e-02 -1.05181234e-02
      -2.89187860e-02 -7.57255452e-03 -1.68363578e-04 2.17631143e-02
      4.08582091e-02 1.24410829e-02 -1.80892833e-02 -1.15946913e-02
      -3.22014530e-04 -7.88492558e-04 -9.11095738e-03 -2.55962694e-03
      4.36351858e-02 7.12443665e-02 1.17221270e-02 -2.99081095e-02
      -1.72902383e-02 -1.72346663e-02 -2.60891188e-02 -2.03822758e-02
      -2.05228049e-02 9.78208426e-03 5.41292541e-02 3.79893221e-02
      -9.64821223e-03 -5.52384229e-03 -6.45329710e-03 -2.07340494e-02
      -1.72666442e-02 -3.35419178e-03 1.27030909e-02 4.53401133e-02
      2.40720790e-02 -1.81486718e-02 -4.47521079e-03 -1.46051953e-02
      -2.25560516e-02 -1.98065564e-02 -1.38150202e-02 1.64212175e-02
      5.06156422e-02 1.98161025e-02 -1.76417157e-02 -4.54341201e-03
      -9.23020393e-03 -1.80001967e-02 -3.17662396e-02 -3.10711493e-03
      -4.16155206e-03 1.20922811e-02 1.05768628e-02 -1.17625436e-02
      8.04161900e-05 -1.33649595e-02 -2.53585894e-02 -1.50460871e-02
      1.75008811e-02 9.62160248e-03 1.37357321e-02 -9.92135610e-04
      -3.64459539e-03 9.80525929e-03 7.61846360e-03 6.50347956e-03
      -2.03940924e-03 5.12707699e-03 -1.04192542e-02 -2.29048654e-02
      -4.11105808e-03 -1.61480089e-03 1.05984220e-02 1.56625528e-02
      4.18953858e-02 1.57142468e-02 2.81216553e-03 -1.08666457e-02
      -2.61018169e-03 -1.38903456e-02 -9.08831775e-04 7.05975993e-03
      5.28540788e-03 -1.71896350e-02 -1.29225699e-03 4.18617530e-03
      -2.58859675e-02 -2.09795162e-02 2.36892840e-03 1.30789736e-02
      5.66049060e-03 -3.62912426e-04 4.51391796e-03 1.02848634e-02
      -1.03360824e-02 5.44343051e-03 -1.59952417e-02 -7.33753713e-03
      -3.58212716e-03 -6.07255055e-03 1.57480072e-02 4.64184433e-02
      1.32727185e-02 -1.01139527e-02 -4.99516772e-03 -2.45902967e-02
      -1.12815248e-02 -3.18175089e-03 -8.05329531e-03 2.36778259e-02
      2.95391865e-02 2.21406966e-02 -4.67008073e-03 -8.29660241e-03
      -2.15750877e-02 -5.05650416e-03 3.11887381e-03 -3.82897677e-03
      -3.68351885e-03 -6.89523853e-03 2.40092352e-02 -2.20397655e-02
      -1.64236706e-02 -2.44054943e-02 -1.63283907e-02 -3.08120833e-03
      -7.45624257e-03 3.21315266e-02 3.06831952e-02 2.61079166e-02
      -1.24966502e-02 -2.03727763e-02 -1.22153899e-02 -6.73479808e-04
      -1.72252883e-04 -5.73388813e-03 1.11759352e-02 3.56252231e-02
      1.82894729e-02 -1.43812206e-02 -1.41958287e-02 -8.75203311e-03
      1.33616163e-03 -2.02797470e-03 -5.20514976e-03 -3.75645759e-04
      2.82397643e-02 2.46745218e-02 -2.88031865e-02 -2.22547110e-02
      -1.14908991e-02 -7.17133051e-03 -8.50613695e-03 -1.00985030e-02
      2.56369561e-02 5.16776927e-02 8.48015305e-03 -1.78616797e-03
      -1.93096511e-02 -4.56161518e-03 -4.87466902e-03 -9.47948080e-03
      -1.81554258e-02 3.73450154e-03 3.27418782e-02 2.56363750e-02
      -2.24240553e-02 -1.58733893e-02 -4.27676644e-03 -6.94327813e-04
      -6.58435561e-03 3.32376012e-03 3.20084835e-03 2.55126301e-02
      1.08359205e-02 -1.70270689e-02 -2.89346073e-02 -3.15928087e-03
      3.62613820e-03 -5.93186589e-03 9.88757331e-03 3.76110375e-02
      2.08490305e-02 1.30852929e-03 -6.47741649e-03 -5.94006153e-03
      2.39234697e-03 2.29633716e-03 -8.71166214e-03 -9.11308546e-03
      -1.63489301e-02 1.04386322e-02 2.04380695e-02 3.18230176e-03
      -1.34849101e-02 9.98144131e-03 1.71859544e-02 2.46720808e-03
      6.40832528e-04 8.69350217e-04 -1.30988192e-02 4.00673971e-03
      9.05226276e-04 -1.43499477e-02 -1.15767531e-02 -7.68893445e-03
      1.71685386e-02 7.42008677e-04 8.86220858e-03 -4.02772753e-03
      -5.29753556e-03 -2.62094056e-03 -4.94780578e-03 8.12448841e-03
      9.86953080e-03 -3.99877504e-03 9.24428552e-03 8.38802720e-04
      -1.15245571e-02 2.39294209e-03 2.03237459e-02 4.02078702e-04
      -4.96822782e-03 -6.90633105e-03 4.01863363e-03 1.02763157e-02
      9.83449630e-03 -5.81104308e-03 -1.40624233e-02 2.32423898e-02
      -1.57644821e-03 -4.52444050e-03 -1.04335556e-02 -1.67295113e-02
      1.89328473e-02 2.07391419e-02 -7.16138282e-04 4.06202208e-03
      -1.41589260e-02 -8.67778435e-03 1.66543443e-02 3.40265664e-03
      -6.22601598e-04 5.05874492e-03 2.91112089e-03 -2.73955869e-03
      -7.17701577e-03 7.26717524e-03 -2.12111752e-02 3.91955767e-03
      7.36607378e-03 1.98003016e-02 2.25211252e-02 3.08897682e-02
      1.06059189e-03 4.08004457e-03 -5.64011000e-03 -1.14404894e-02
      6.55216456e-04 -8.80677067e-03 -2.83927657e-02 -6.96922536e-04
      7.60357687e-03 -1.43405539e-03 7.05633638e-03 -8.79461411e-03
      -1.15359891e-02 -1.49893360e-02 -1.82092888e-03 1.39157695e-03
      1.00237364e-02 3.26587036e-02 1.41577944e-02 1.57155860e-02
      1.31681645e-02 -2.01054458e-02 -2.77593862e-02 -4.02012747e-03
      1.52184600e-02 1.88200772e-02 1.83473062e-02 1.80869270e-03
      1.82754230e-02 2.15853639e-02 -7.94615655e-04 -5.33320988e-03
      3.82469594e-03 6.01990009e-03 -1.41843967e-03 9.37935896e-03
      1.38681112e-02 1.88414361e-02 1.11723843e-03 -1.89422611e-02
      -2.72582136e-02 -1.87695567e-02 2.88319634e-03 1.03421994e-02
      -1.76194508e-03 1.55988662e-02 2.40255687e-02 2.37268414e-02
      9.40013304e-03 8.82375799e-03 -1.66239496e-02 -1.19301137e-02
      -1.41180437e-02 -1.26033658e-02 1.41379144e-02 2.56396588e-02
      1.23373531e-02 3.20598930e-02 5.07778898e-02 1.54115288e-02
      -1.83872320e-02 -1.52487084e-02 -2.40618712e-03 7.55515473e-04
      -6.14108192e-03 2.92087113e-03 3.89129594e-02 6.40643388e-02
      1.41018126e-02 -2.52967235e-02 -1.33871296e-02 -1.72122400e-02
      -2.34099440e-02 -2.36036293e-02 1.10586798e-02 2.92309821e-02
      4.41059433e-02 1.43634714e-03 -3.87137234e-02 -2.66426485e-02
      -1.02227833e-02 -7.04034278e-03 -8.14015791e-03 -1.20001491e-02
      7.63474265e-03 4.66515794e-02 2.03133281e-03 -3.20941247e-02
      -1.69165488e-02 -1.84252094e-02 -2.91449949e-02 -1.73536483e-02
      2.19371729e-03 3.17221284e-02 4.93947566e-02 2.19069496e-02
      -8.28435458e-03 7.94763770e-03 -2.98135635e-03 -1.72586832e-02
      -1.64226517e-02 7.14168418e-03 -9.25337255e-04 1.75515320e-02
      1.48583483e-02 1.56272296e-02 1.84757859e-02 -1.02386111e-03
      -1.50513258e-02 2.39219144e-03 5.59991552e-03 -1.95452897e-03
      2.41418574e-02 1.33030359e-02 -6.14102324e-03 1.04814833e-02
      -6.26442069e-03 -1.16132721e-02 1.95086212e-03 -2.31357059e-03
      -4.98445611e-03 2.69249547e-03 1.35740498e-02 7.90809933e-03
      1.05546918e-02 -7.27683399e-03 2.92090932e-04 -5.39600290e-03
      9.90334549e-04 -1.57989245e-02 4.51782113e-03 9.92426882e-04
      1.87470131e-02 1.13717988e-02 1.50759621e-02 -9.11403913e-03
      9.02905408e-03 1.04405340e-02 -1.87965352e-02 -6.87744422e-03
      5.75007685e-03 1.91598814e-02 9.68996808e-03 7.07170367e-03
      -1.21462476e-02 2.77459975e-02 -1.73336044e-02 -1.80935934e-02
      -7.95975968e-04 5.32153156e-03 2.44839257e-03 5.33026468e-04
      2.62657646e-03 1.23375198e-02 -2.32176669e-03 -2.44290475e-02
      -1.18305963e-02 -1.14541408e-03 2.60510319e-03 -2.63952184e-03
      6.86243642e-03 2.61466717e-03 1.28251547e-02 -4.55048122e-03
      -9.30629298e-03 2.34917947e-03 -7.67533761e-03 -2.27409136e-03
      3.61375511e-03 6.88852277e-03 1.24098714e-02 -1.53845167e-02
      3.07843871e-02 -9.84448753e-03 -9.26353876e-03 -4.57743416e-03
      -1.28023364e-02 -2.15201476e-03 1.28568187e-02 2.45913584e-02
      2.79056821e-02 2.36278027e-02 -6.11612434e-03 1.43485656e-02
      -5.51819452e-04 -4.09267982e-03 -7.67925940e-03 -6.46717940e-03
      8.05427786e-03 -8.47060885e-03 8.09364300e-03 -6.50194532e-04
      -1.66401211e-02 -1.07948352e-02 -4.71027708e-03 9.95479338e-03
      7.95217115e-04 1.44820511e-02 -9.92936664e-04 7.98183866e-03
      -2.06472836e-02 -2.55094394e-02 -6.45548431e-03 -4.16116463e-03
      -7.70551944e-03 1.47555431e-03 2.10734662e-02 4.77948524e-02
      1.52871236e-02 2.00599921e-03 -1.75500456e-02 -3.49198817e-03
      -6.71938667e-03 -1.02342525e-02 -2.22733952e-02 9.05216020e-03
      3.30685265e-02 2.76964009e-02 -1.70357600e-02 -2.74606440e-02
      -1.43101541e-02 -4.07545594e-03 5.92356874e-03 4.04306455e-03
      1.47916805e-02 7.33461091e-03 1.00699905e-02 5.16369753e-03
      -4.52430639e-03 -1.79688039e-03 -3.11328750e-03 -1.41773112e-02
      -7.55186472e-03 1.52931483e-02 3.22439745e-02 2.61362549e-02
      1.83455590e-02 1.95278018e-03 5.06620575e-03 -1.51118578e-03
      -9.92969610e-03 -1.81717649e-02 -6.38279831e-03 5.49329352e-03
      3.41242030e-02 2.21636817e-02 6.56481786e-03 1.48592843e-02
      2.08204351e-02 1.26146749e-02 -1.63619742e-02 -2.51152902e-03
      -2.12195814e-02 1.73012149e-02 2.20544506e-02 7.07957754e-03
      4.98218695e-03 -7.26119615e-03 -3.46888192e-02 -2.96288710e-02
      1.22509729e-02 1.33477533e-02 2.02226005e-02 3.57857756e-02
      4.58784848e-02 2.04681195e-02 5.79919759e-03 -4.47502593e-03
      -1.82132442e-02 -1.01765795e-02 -7.42572173e-03 1.13534331e-02
      2.64960844e-02 1.36790387e-02 1.80482923e-03 -1.86412479e-03
      7.89229758e-03 9.49317496e-03 1.71725620e-02 -2.67803110e-03
      -1.47840120e-02 2.99461056e-02 -6.88051397e-04 -1.43790245e-02
      -9.14242584e-03 -1.20683433e-02 1.96177326e-02 3.31779309e-02
      4.52097086e-03 6.28323574e-03 2.29743998e-02 -3.60216596e-04
      -1.49496756e-02 -1.63321793e-02 2.17273366e-02 3.48129612e-03
      1.18831955e-02 -1.63721293e-02 -1.97194386e-02 2.17665806e-02
      -1.41787222e-02 -2.58300230e-02 -2.46850494e-02 2.21778974e-02
      5.44499885e-03 2.20586061e-02 -1.15726003e-02 -4.84725833e-03
      1.49831986e-02 7.78124959e-04 -7.47998990e-03 2.21519638e-03
      -1.96745750e-02 -4.43652831e-03 2.42580101e-02 7.67657440e-03
      2.09383778e-02 1.43237915e-02 6.46649208e-03 -1.83893379e-03
      1.28609808e-02 -1.07248249e-02 7.90631399e-03 3.66955064e-02
      2.50322092e-02 2.92881522e-02 3.16705788e-03 -2.22441535e-02
      -3.01637948e-02 -1.46158542e-02 2.75088400e-02 -1.28595596e-02
      8.27651564e-03 -2.26974022e-03 1.28248092e-02 4.52188309e-03
      9.50261237e-05 -7.94908963e-03 -1.26533341e-02 2.52182018e-02
      -7.31406175e-03 1.15537895e-02 1.12252415e-03 8.78745411e-03
      1.50648849e-02 5.64345112e-03 -1.18555725e-02 -1.82212517e-02
      -8.35035555e-03 6.89489162e-03 1.01734409e-02 2.17586495e-02
      2.76786089e-02 4.26970385e-02 2.96899788e-02 1.13150980e-02
      -1.76903177e-02 -2.23957337e-02 -1.68467928e-02 -9.42249410e-03
      2.62943059e-02 3.38149741e-02 1.38268135e-02 1.39736123e-02
      -2.01646350e-02 -1.63323618e-02 2.42047571e-02 -1.75209530e-02
      -7.11449469e-03 6.49104174e-03 2.67221709e-03 1.43310511e-02
      2.77661290e-02 -3.71224363e-03 -2.59185694e-02 1.88709684e-02
      -3.83253843e-02 -1.73852704e-02 1.64652131e-02 3.54597974e-03
      2.02535037e-02 3.61002013e-02 4.34997194e-02 1.81918144e-02
      -2.20680907e-02 -1.61802117e-02 -3.52506759e-03 8.25215317e-03
      1.26067305e-03 1.49988220e-03 1.45973265e-02 4.66157049e-02
      8.42850562e-03 -2.50653476e-02 -1.13199148e-02 -3.70845804e-03
      6.38149958e-03 1.50512801e-02 -6.93553640e-03 1.62104368e-02
      1.66261345e-02 6.06390461e-03 1.08931540e-02 -2.90112626e-02
      -6.45698048e-03 1.43306814e-02 -1.40962498e-02 -1.77877415e-02
      -3.17918323e-03 -1.86896743e-03 -1.38919018e-02 8.34739394e-03
      -2.42768936e-02 -2.39092647e-03 2.02939957e-02 3.08872620e-03
      1.07152034e-02 -1.77978515e-03 1.08507962e-03 -2.39532697e-03
      -1.75643247e-02 -3.98528436e-03 -1.18564942e-03 1.27940848e-02
      1.37689495e-02 2.78064329e-02 4.38468810e-03 -3.87806492e-03
      1.79188862e-03 -1.34804742e-02 -1.89385959e-03 -1.15273390e-02
      6.53348956e-03 1.61378197e-02 1.27573556e-03 -5.33875171e-03
      -1.41111184e-02 -2.33638883e-02 3.77299972e-02 -2.01075841e-02
      -4.43295529e-03 2.48719100e-02 5.48548764e-03 1.71364546e-02
      -5.93993999e-03 -8.18681158e-03 -1.57358944e-02 5.36980890e-02
      -1.83533654e-02 -2.23708302e-02 1.17759209e-03 -1.17135923e-02
      7.10198004e-03 -3.00799799e-03 -4.11831308e-03 6.86633680e-03
      -2.92602950e-03 -6.15776796e-03 -9.08426382e-03 1.43285468e-02
      1.42378057e-03 8.01117253e-03 -6.67761127e-03 -1.38071727e-03
      1.99800520e-03 -6.10576198e-03 1.08111824e-03 -5.66707645e-03
      2.88156606e-02 1.17488429e-02 -2.92762881e-04 -6.53545931e-03
      -4.94701415e-03 -6.40510209e-03 4.58679534e-02 -1.41645502e-02
      -2.34995540e-02 -1.10374717e-02 -1.54552590e-02 -1.15762065e-04
      -1.53689766e-02 -2.63251103e-02 -1.67873632e-02 2.22200695e-02
      -7.68131670e-03 -2.28495747e-02 4.61942144e-03 4.37952718e-03
      5.66847390e-03 5.08327736e-03 -4.21548774e-03 -1.87790487e-03
      -8.33701808e-03 -5.43635990e-03 8.10676161e-03 8.16966966e-03
      8.98796692e-03 1.63736921e-02 -1.30067905e-02 -1.74303800e-02
      3.52532323e-03 1.04094166e-02 -5.54307480e-04 1.87484100e-02
      -2.90669478e-03 -5.80137421e-04 7.07922783e-03 -5.67638688e-03
      -1.61596835e-02 -2.02417467e-02 2.86862105e-02 -1.49835143e-02
      1.17656949e-03 1.41206244e-02 7.93980528e-03 -9.76552328e-05
      -1.70114711e-02 -2.86735743e-02 -6.15902338e-03 6.72633797e-02
      -2.42230054e-02 1.45427813e-03 3.60877090e-03 -1.26968464e-02
      7.23760808e-03 -2.88503827e-03 -1.08736884e-02 6.49370253e-03
      1.42028658e-02 1.42475497e-02 1.56950504e-02 9.19196056e-04
      1.17865400e-02 2.36777961e-02 1.73729807e-02 -6.65145041e-03
      -2.11521983e-04 -1.15547953e-02 -8.06889869e-03 2.17220839e-02
      2.18350589e-02 1.52234528e-02 1.65558374e-03 -4.37545707e-04
      -2.23099850e-02 -2.53366074e-03 3.60791571e-02 -1.05678216e-02
      -5.10321185e-03 -6.72297040e-03 -8.38114321e-03 1.39267454e-02
      1.04055898e-02 -2.27878504e-02 -2.17774119e-02 2.87755951e-02
      -2.21401472e-02 1.09846955e-02 8.33536219e-03 8.57863948e-03
      2.69602630e-02 7.25956261e-03 5.22892410e-03 -7.13319192e-03
      -3.53148133e-02 -1.63370539e-02 2.21648142e-02 1.92128308e-02
      3.01247388e-02 2.91411933e-02 2.97365021e-02 1.52935227e-02
      3.40868160e-03 -2.39028037e-02 -8.28039646e-03 -3.09701590e-03
      1.30825397e-02 3.22858728e-02 1.98803954e-02 -7.77369179e-03
      -7.84668047e-03 -2.26418357e-02 1.55800283e-02 -1.24457022e-02
      1.14492234e-02 1.16260229e-02 2.46168897e-02 1.15259811e-02
      -1.82181632e-03 -6.74855663e-03 -2.17934288e-02 2.88501959e-02
      -1.46574602e-02 -1.49640851e-02 1.61464605e-02 2.13708226e-02</_></support_vectors>
  <decision_functions>
    <_>
      <sv_count>1</sv_count>
      <rho>1.7719429851395121e+00</rho>
      <alpha>
        1.</alpha>
      <index>
        0</index></_></decision_functions></my_svm>
</opencv_storage>
