<?xml version="1.0"?>
<opencv_storage>
<my_svm type_id="opencv-ml-svm">
  <svm_type>C_SVC</svm_type>
  <kernel><type>LINEAR</type></kernel>
  <C>1.0000000000000001e-01</C>
  <term_criteria><epsilon>1.1920928955078125e-07</epsilon>
    <iterations>1000</iterations></term_criteria>
  <var_all>2916</var_all>
  <var_count>2916</var_count>
  <class_count>2</class_count>
  <class_labels type_id="opencv-matrix">
    <rows>1</rows>
    <cols>2</cols>
    <dt>i</dt>
    <data>
      1 2</data></class_labels>
  <sv_total>1</sv_total>
  <support_vectors>
    <_>
      1.28999045e-02 1.37140285e-02 -5.84709505e-03 -2.02343781e-02
      8.60719755e-03 2.81722080e-02 2.14286391e-02 1.21665802e-02
      3.69020761e-03 1.48588065e-02 8.68667476e-03 8.69062543e-03
      -3.87459411e-03 -3.53344902e-02 4.87596262e-03 5.47275320e-03
      8.54903646e-03 1.90235097e-02 9.49815009e-03 -5.60381869e-03
      1.47905424e-02 7.85560347e-03 2.14216467e-02 5.40898107e-02
      7.17822276e-03 -1.98445539e-03 2.18320405e-03 2.11528800e-02
      3.95076536e-02 3.67540345e-02 3.35536264e-02 -3.79665755e-02
      9.28615592e-03 2.74337176e-02 2.78179087e-02 3.68462838e-02
      -4.87677101e-03 -7.64053501e-03 -1.26671335e-02 -4.94837668e-03
      -1.45494640e-02 2.93556899e-02 3.28442603e-02 2.88290977e-02
      7.68287200e-03 9.47200228e-03 2.47653876e-03 -8.65101069e-03
      5.83986007e-03 -5.35127521e-03 2.05012877e-02 2.71728765e-02
      3.73919262e-03 -1.50740324e-02 4.03263420e-02 -1.67980196e-03
      -4.31088125e-03 -1.46688577e-02 9.72738210e-03 5.92554323e-02
      7.27495700e-02 2.73838565e-02 2.46278681e-02 2.37374697e-02
      -7.95152877e-03 -7.83052947e-03 3.21968063e-03 1.38688264e-02
      2.70993188e-02 5.66749647e-02 2.62216982e-02 -1.24793760e-02
      2.11526584e-02 1.19235571e-02 2.11429056e-02 1.58296451e-02
      7.43101118e-03 -1.08115971e-02 2.63316985e-02 2.28046183e-03
      -7.55202863e-03 2.72802152e-02 3.35073061e-02 5.25454730e-02
      3.33461724e-02 1.97832063e-02 -1.39058689e-02 1.40892062e-03
      -8.46888497e-03 -5.48828579e-03 1.35968970e-02 1.98190436e-02
      -1.33505119e-02 2.08644103e-02 -2.49513984e-03 1.35150198e-02
      1.65935382e-02 8.65350664e-03 -3.25199636e-03 -2.15502437e-02
      4.37933058e-02 3.20020802e-02 1.98720545e-02 7.87456613e-03
      -1.12963272e-02 3.03933900e-02 5.71981305e-03 -4.57985289e-02
      4.58870642e-02 2.34544463e-02 1.77520532e-02 5.70647931e-03
      1.52830807e-02 -1.33123314e-02 -1.19214207e-02 -1.48740737e-02
      2.76584569e-02 3.26872431e-02 1.27938166e-02 1.42712602e-02
      1.45335067e-02 4.21016477e-02 -1.28423674e-02 -5.16159320e-03
      -4.03628089e-02 2.20130268e-03 -9.15467180e-03 2.77619027e-02
      6.03044592e-03 -2.64887325e-03 -5.92519296e-03 -7.02864444e-03
      3.44771193e-04 -3.23527493e-02 -3.35038975e-02 4.25620517e-03
      1.66159514e-02 3.44850798e-03 4.61208122e-03 -1.67676806e-02
      -5.79793891e-03 4.11278149e-03 -1.90448631e-02 -1.79258250e-02
      3.94653715e-02 5.33098634e-03 -7.14808656e-03 -1.20069261e-03
      -1.54773949e-03 -1.14919350e-03 -1.12788705e-02 -2.40187384e-02
      1.97051894e-02 2.04828754e-02 3.02244965e-02 -7.81767629e-03
      -8.53389781e-03 -7.87309278e-03 1.56460272e-03 -2.22735796e-02
      -5.90798771e-03 -1.17531617e-03 -2.96142651e-03 9.63408966e-03
      1.43068647e-02 3.12919449e-03 -2.09051762e-02 8.66740290e-03
      -1.96343325e-02 -2.09235437e-02 -1.87398568e-02 3.49130575e-03
      2.60517020e-02 -3.16378102e-02 -2.30308548e-02 -1.17420563e-02
      -2.18456262e-03 -2.08957698e-02 -6.25833636e-04 -3.99829168e-03
      2.04188507e-02 2.68196482e-02 4.88713756e-03 -9.65858344e-03
      -2.00768840e-02 -7.93416798e-03 -1.32251345e-02 1.01770682e-03
      4.36340682e-02 -8.89666658e-03 4.15794589e-02 1.61319487e-02
      -2.74792537e-02 -3.19277272e-02 -3.22417915e-02 -2.63133515e-02
      1.69763751e-02 4.33076099e-02 -8.09171645e-04 1.73213589e-03
      -1.96068734e-02 -3.03932894e-02 -1.40220113e-02 -3.90238664e-03
      -1.41034052e-02 5.09448815e-03 3.26362886e-02 2.54752580e-03
      2.25216709e-02 1.67143531e-02 -4.20740386e-03 -1.33682759e-02
      -3.39106023e-02 -2.02512965e-02 3.68869118e-03 2.78920662e-02
      -1.76441122e-03 1.16061009e-02 2.31086183e-02 -2.09788489e-03
      -2.12797076e-02 -1.79694034e-02 -1.06774243e-02 8.37035757e-03
      2.69779246e-02 2.08924455e-03 6.11269753e-03 -1.23366453e-02
      1.43845649e-02 -1.26551148e-02 -3.05091757e-02 -7.45822070e-03
      2.22755466e-02 1.26651106e-02 -8.00414197e-03 -1.86745485e-03
      8.33800901e-03 -8.96862766e-04 1.03638945e-02 -6.43326528e-03
      -1.17995532e-03 2.59841662e-02 -2.37013139e-02 1.69333275e-02
      2.31057722e-02 -1.90057196e-02 -1.52031491e-02 1.29589541e-02
      -8.39422829e-03 1.90866720e-02 5.47651909e-02 8.69170390e-03
      5.17061912e-03 6.64653198e-04 -8.20546225e-03 1.26287406e-02
      -2.16240548e-02 -1.13081019e-02 4.07379866e-03 3.96978622e-03
      1.90077033e-02 3.15091722e-02 -1.82284843e-02 -4.23926441e-03
      1.16521874e-02 -2.65508685e-02 -8.89885798e-03 5.36212185e-03
      -1.82178300e-02 2.47183349e-02 3.13988216e-02 -4.63758782e-03
      -2.59347018e-02 -1.17318369e-02 -2.39282809e-02 -1.04463696e-02
      1.95051245e-02 1.48416748e-02 -1.85954326e-03 4.57211137e-02
      8.27306975e-03 -1.28270197e-03 1.10254688e-02 -1.87131967e-02
      7.83000514e-03 3.61607730e-04 1.32878507e-02 2.31808480e-02
      2.69108973e-02 -2.05459278e-02 -4.17549396e-03 -1.52589278e-02
      -2.28425208e-02 -1.32454010e-02 6.35041809e-03 -9.57805663e-03
      3.08563951e-02 1.91394333e-02 -9.61856171e-03 1.14499778e-02
      1.52052855e-02 5.40120201e-03 -2.90746056e-03 7.68190809e-03
      -1.14647886e-02 -9.16429423e-03 1.90123182e-03 -9.10762884e-03
      -1.77522078e-02 -1.32867973e-02 6.11699186e-03 -5.06032398e-03
      -1.21919857e-02 -4.10436041e-04 3.84488851e-02 1.06154345e-02
      -9.87790897e-03 -1.55287376e-02 1.67118013e-02 2.15229746e-02
      2.72098836e-02 2.33569052e-02 1.77330691e-02 1.93594676e-02
      -4.60049743e-03 -1.19144963e-02 -1.04112434e-03 2.52492111e-02
      5.00875749e-02 2.17331033e-02 2.50427751e-03 -1.35497181e-02
      -4.01105778e-03 1.91934034e-02 7.77203636e-03 1.70503817e-02
      2.46185269e-02 -5.23299612e-02 5.93691785e-03 1.89705808e-02
      3.13674891e-03 1.31704258e-02 1.27530536e-02 2.45199393e-04
      -4.67544096e-03 5.22691347e-02 2.81302221e-02 -1.58919524e-02
      -6.67871721e-03 -1.79890525e-02 -9.65182483e-03 3.51633015e-03
      1.54951168e-02 2.16600113e-02 3.33679430e-02 -2.49494556e-02
      -1.05030835e-02 1.16025424e-02 8.65498951e-05 2.04413608e-02
      1.48105426e-02 -5.98021783e-04 4.44113091e-03 -2.02993378e-02
      -5.02328947e-03 5.10945730e-02 3.94440703e-02 -2.45581940e-03
      -1.25004258e-02 2.59498917e-02 -1.60517748e-02 -2.55557615e-02
      2.27633421e-03 -5.74645959e-03 1.86910331e-02 1.39213409e-02
      -2.06400976e-02 -4.70132334e-03 3.01807728e-02 -2.66699190e-03
      -3.31277424e-03 4.93463548e-03 -1.41453575e-02 7.56420195e-02
      1.84128731e-02 1.61158352e-03 6.77924464e-03 2.93855779e-02
      -2.99210032e-03 -6.72058063e-03 6.63381368e-02 2.14748364e-02
      3.49752381e-02 2.16056760e-02 -7.57757854e-03 1.49543642e-03
      1.51307127e-02 2.17968877e-03 -1.06806681e-02 1.35865679e-03
      -7.78212072e-03 -5.04372176e-03 2.08116658e-02 2.24891659e-02
      -3.09726084e-03 -1.59165841e-02 3.36574055e-02 -2.11237930e-03
      -3.35871130e-02 -1.04909893e-02 1.83472049e-03 1.27158631e-02
      2.95899976e-02 -2.63853110e-02 2.32512876e-02 1.37033034e-02
      1.11839529e-02 3.85304242e-02 2.29663700e-02 5.36913611e-03
      3.04762982e-02 3.43287885e-02 2.77544931e-02 3.22001167e-02
      -8.89542280e-04 -1.14230104e-02 -4.19897027e-02 -3.28148417e-02
      2.64107492e-02 1.33585576e-02 2.62350403e-02 1.01901898e-02
      1.30835595e-03 2.73894724e-02 -7.34172855e-03 -3.59954685e-03
      9.61453281e-03 2.45297188e-03 1.43204127e-02 1.45296333e-02
      -4.01737727e-02 -1.83263666e-03 1.66654885e-02 8.46117362e-03
      1.57399736e-02 -4.56261029e-03 5.35367616e-03 1.37322498e-02
      1.18577306e-03 -1.23527301e-02 -2.73749721e-03 4.94657410e-03
      -1.33684827e-02 -1.96748134e-02 2.05884203e-02 2.17930563e-02
      1.86369997e-02 1.08674318e-02 6.14928780e-03 2.70511117e-02
      -1.72165167e-02 3.13659497e-02 2.13622916e-02 5.61167067e-03
      1.00723226e-02 1.32298367e-02 8.90721567e-03 -1.12964166e-02
      -3.15023749e-03 -6.31417427e-03 4.04370716e-03 9.16238595e-03
      -1.02316560e-02 1.23028262e-02 -1.44519377e-03 -4.61049983e-03
      1.17945159e-02 5.70898689e-03 3.32774371e-02 -1.18164867e-02
      -1.03014028e-02 -1.06783276e-02 1.48557574e-02 6.76658377e-03
      3.74306482e-03 1.50505118e-02 -4.23410907e-03 -1.97922718e-02
      8.63909628e-03 5.28112578e-04 6.22880924e-03 1.04822526e-02
      -4.96026268e-03 -2.36413348e-02 -1.31824389e-02 3.37365307e-02
      2.39203870e-02 -1.91382524e-02 -1.80797279e-02 -7.96478335e-03
      2.70278230e-02 1.01494500e-02 1.94510911e-03 -2.40154006e-02
      4.74003842e-03 3.69156385e-03 1.99310342e-03 -1.45148421e-02
      3.71860364e-03 -3.37509229e-03 -1.33247171e-02 4.77752043e-03
      4.58032228e-02 -1.76505763e-02 2.24624434e-03 3.73229831e-02
      1.46509018e-02 8.69470928e-03 -7.30210403e-03 -6.67229358e-07
      1.43796403e-03 3.84809114e-02 -2.53086034e-02 1.17427511e-02
      -4.29645739e-03 2.06637988e-03 8.24149046e-03 -2.44016829e-03
      -5.42272115e-03 -1.20468177e-02 -8.36198963e-03 -1.93260368e-02
      -1.49165709e-02 8.98975786e-03 1.51365986e-02 7.75861880e-03
      -6.14613947e-03 6.81762351e-03 1.18014039e-02 1.73536967e-02
      -1.35075497e-02 1.15545560e-02 -6.09425223e-03 -7.08873430e-03
      2.29009963e-03 -1.86675705e-03 -3.34895425e-03 -3.15066514e-04
      -2.95805670e-02 9.43698920e-03 2.41855588e-02 -3.51922810e-02
      -1.41271828e-02 5.11682127e-03 1.17964810e-02 1.17499774e-04
      3.50695103e-02 1.33282207e-02 5.34309186e-02 1.91505142e-02
      -1.81285087e-02 -8.54434259e-03 2.24864882e-04 -4.92927292e-03
      -7.86503311e-03 -2.48343148e-03 4.76666167e-03 7.73093104e-02
      1.20938793e-02 -4.86763492e-02 -1.13800727e-02 -1.49982395e-02
      -2.67715659e-03 -1.16041526e-02 1.03838667e-02 2.99032703e-02
      -2.40583764e-03 7.61591084e-03 -2.75266524e-02 -4.64588637e-03
      -9.22142621e-03 6.11954182e-03 1.33966925e-02 1.80363972e-02
      -2.69339071e-03 3.42788622e-02 2.40168325e-03 -8.74845404e-03
      -1.38852261e-02 -2.76425742e-02 4.26608510e-03 3.88793205e-03
      -5.06014656e-03 1.06202429e-02 6.54289648e-02 3.11088357e-02
      -3.29541750e-02 -1.46684637e-02 -1.28913950e-02 -9.55883530e-04
      6.91044331e-03 2.93931793e-02 1.31143192e-02 4.93781194e-02
      5.64448945e-02 -2.80350307e-03 -2.98975632e-02 -4.12030518e-02
      -9.89096938e-04 1.35882003e-02 2.20731609e-02 2.98652314e-02
      2.22480949e-03 -1.30029684e-02 -1.44765796e-02 -8.10078625e-03
      -1.16892792e-02 -6.03394024e-03 7.96605367e-04 -1.29708732e-02
      2.86228433e-02 6.79097045e-03 -1.51557988e-02 -7.44396588e-03
      -9.57574230e-03 -2.42916737e-02 1.11840861e-02 3.04478686e-02
      1.31569076e-02 3.32409553e-02 3.10046226e-02 1.26206297e-02
      1.99398790e-02 -5.75921126e-03 -3.41018178e-02 -6.29910035e-03
      4.27381881e-02 9.60865524e-03 2.49566939e-02 -1.01965452e-04
      4.65909531e-03 -5.54453209e-03 -2.42390912e-02 -1.19974427e-02
      2.65554171e-02 4.19704057e-02 1.85540481e-03 3.65344025e-02
      -1.38190854e-03 -1.81029027e-03 -1.03236577e-02 2.97112111e-02
      4.52675335e-02 -3.54075879e-02 -9.09521431e-03 -6.16363715e-03
      -7.88578205e-03 2.78629339e-03 -7.20541412e-03 3.62127135e-03
      2.89526638e-02 -1.08408108e-02 -1.82374734e-02 -1.47011904e-02
      -3.06807039e-03 1.20502021e-02 1.08045982e-02 1.58317015e-02
      -1.58110186e-02 3.93417440e-02 3.82076390e-02 -2.86461040e-02
      -1.64529961e-02 2.31373779e-04 -2.50748289e-03 4.51776106e-03
      -3.09785386e-03 -7.28008244e-03 1.45494556e-02 7.21186923e-04
      -4.57290746e-02 -1.30547862e-02 2.59681493e-02 2.10935157e-02
      7.51785189e-03 -1.82624031e-02 -1.30386138e-03 1.64391268e-02
      8.59333784e-04 2.44306978e-02 2.50736740e-03 -5.88179706e-03
      1.46555286e-02 1.46222925e-02 -2.37188768e-02 -1.82905998e-02
      4.08365056e-02 2.01933645e-02 2.91158892e-02 -4.58547007e-03
      -1.48943337e-02 -6.80457521e-03 -9.26475599e-03 -2.68734433e-02
      -2.67363172e-02 2.49393564e-02 -1.65334437e-02 2.93298010e-02
      2.72968747e-02 2.92769410e-02 1.49410041e-02 -1.76396649e-02
      -2.60861404e-02 -1.54637583e-02 3.87632437e-02 5.39939329e-02
      5.73929399e-02 4.50626342e-03 -1.03590377e-02 -2.72272490e-02
      8.26229248e-03 -6.20614272e-03 -6.52186805e-03 3.83129865e-02
      1.04332939e-02 4.17441018e-02 3.03863920e-03 -5.71878627e-03
      1.45556731e-02 2.00452693e-02 -2.09513921e-02 -3.39039452e-02
      -4.45471220e-02 -1.38096111e-02 3.16889100e-02 9.62155219e-03
      -1.59880854e-02 1.99023746e-02 -2.35758792e-03 1.43969348e-02
      -6.87747670e-04 7.98993707e-02 6.57412633e-02 4.72346619e-02
      -1.05393734e-02 -2.89546214e-02 -4.17431444e-03 1.86563525e-02
      -1.25474418e-02 1.63851492e-02 3.51826549e-02 2.05317158e-02
      2.06601489e-02 -7.29765231e-03 -1.75270624e-02 5.85759699e-04
      7.42026232e-03 -9.49305668e-03 -2.26947051e-02 -1.86781883e-02
      1.00057116e-02 2.98591815e-02 7.49508664e-03 -1.06401788e-02
      -1.50357224e-02 4.02598176e-03 -7.33292836e-04 1.95615701e-02
      8.30603484e-03 1.76709599e-03 -7.85959978e-03 -5.77039085e-03
      -3.93344238e-02 -3.90460193e-02 1.62333958e-02 4.55840379e-02
      2.11337171e-02 -3.69490148e-03 3.98524962e-02 -6.09513419e-03
      -8.78857356e-03 -4.88804048e-03 -2.49484479e-02 -1.25926370e-02
      3.82917896e-02 1.39558446e-02 2.23781560e-02 2.81315483e-02
      -2.70046648e-02 1.98145323e-02 1.42044825e-02 -3.34024499e-03
      2.51451088e-03 7.02878367e-03 -6.74758339e-04 -5.16991690e-03
      7.52388267e-04 -1.87150680e-03 -1.24901077e-02 -9.76214465e-03
      -9.26446822e-03 1.22363772e-02 2.00188700e-02 -2.70034391e-02
      -1.20092370e-02 7.48138782e-03 1.29110096e-02 -5.76674566e-03
      1.51372980e-02 -8.99153471e-04 1.66705828e-02 2.09627878e-02
      -7.29937106e-03 1.21042144e-03 1.21574430e-02 8.97897873e-03
      1.65070349e-03 1.13194184e-02 -2.17875428e-02 5.20619303e-02
      5.37199751e-02 6.42461330e-03 -2.44080964e-02 1.94172133e-02
      -2.30543241e-02 -1.03971222e-02 1.35282278e-02 -7.30296038e-03
      -2.95171440e-02 6.76470296e-03 -8.06381367e-03 -3.67305893e-03
      2.57632718e-03 2.64851958e-04 -2.93406239e-03 2.33882340e-03
      -2.03079563e-02 2.11770423e-02 -1.08867753e-02 -1.57820769e-02
      -7.14538014e-03 -4.99546761e-03 -2.56226165e-03 -5.49874548e-03
      1.34562030e-02 1.40717253e-02 4.85967882e-02 3.42534743e-02
      3.06617614e-04 -1.79696530e-02 -2.78532738e-03 -2.34763976e-02
      -3.67338164e-03 1.58008130e-04 -7.83302262e-03 2.69153900e-02
      5.04967943e-02 -6.10275334e-03 -2.66983043e-02 -1.14042675e-02
      -2.17373688e-02 -1.43448086e-02 -1.65391378e-02 -7.65907438e-03
      2.61787921e-02 7.92305637e-03 -2.57532913e-02 -4.55251150e-03
      -3.59661668e-03 -9.36068036e-03 -1.30654275e-02 -1.89757105e-02
      1.22508989e-03 8.36360231e-02 2.88113784e-02 -6.66780844e-02
      -9.26023908e-03 -1.13760196e-02 -1.23886988e-02 -1.29268300e-02
      -3.33957520e-04 2.96495035e-02 1.56877190e-02 4.24366333e-02
      -2.45739110e-02 -4.60778037e-03 -3.11565911e-03 -1.42188799e-02
      -2.90242657e-02 -3.15565094e-02 -1.62909981e-02 3.59787568e-02
      4.72350419e-02 -9.14684404e-03 8.65401962e-05 -7.39952608e-04
      -1.93282124e-02 -2.05959640e-02 -9.17107426e-03 -1.42570995e-02
      3.96160707e-02 2.86574140e-02 -4.85869087e-02 -2.90667266e-02
      -3.30079580e-03 3.26843327e-03 -5.78812789e-04 2.67566647e-02
      2.42583212e-02 4.55430932e-02 2.00869609e-02 -3.25286575e-02
      -6.05847947e-02 -2.35106573e-02 2.13805139e-02 1.57633945e-02
      4.66795750e-02 1.67949777e-02 4.22576703e-02 4.51888628e-02
      -3.45741659e-02 -1.04077645e-02 2.42206212e-02 -6.20499067e-03
      -2.35238057e-02 1.42462077e-02 -1.03674158e-02 2.43360121e-02
      4.87981969e-03 -2.62528751e-02 -2.42043901e-02 7.93223083e-03
      2.86803730e-02 2.07309332e-02 3.85209881e-02 3.02874725e-02
      -1.30643265e-03 -9.21042170e-03 5.81941148e-03 -2.05948185e-02
      -1.49635328e-02 3.17866215e-03 4.63022068e-02 2.00802293e-02
      1.61679219e-02 -7.80995609e-03 -3.13531840e-03 -3.94757371e-03
      5.32599539e-03 3.32379192e-02 2.17039827e-02 3.37312408e-02
      -1.35092409e-02 3.22354538e-03 -2.14457996e-02 -8.84161890e-03
      8.63889605e-03 1.29655423e-02 1.76113546e-02 2.79294383e-02
      3.62778418e-02 4.10257280e-02 1.75674893e-02 -1.47832977e-02
      -1.21807661e-02 5.69477584e-03 5.59987910e-02 3.41486447e-02
      -1.74233038e-02 5.34640299e-03 -1.69214401e-02 7.85268936e-03
      1.73077162e-03 8.25678930e-03 9.20493738e-04 2.67023314e-02
      5.30734695e-02 -2.57834978e-02 -1.05035016e-02 -3.55876144e-03
      -3.51190730e-03 -6.34453539e-03 1.97445136e-03 -1.06076719e-02
      3.65538970e-02 1.11734495e-02 -5.00637665e-02 -1.89595930e-02
      1.19565586e-02 2.21846607e-02 -9.54843778e-03 -3.53345508e-03
      -1.11873785e-03 3.16206962e-02 5.28582074e-02 -2.98535172e-03
      -1.47755174e-02 1.42378558e-03 -1.58736715e-03 -1.39070377e-02
      -2.25810595e-02 -2.80024745e-02 5.76971285e-02 1.38186058e-02
      -1.56222777e-02 -3.09113599e-02 1.72524098e-02 1.59293488e-02
      -1.33484052e-02 -2.33348999e-02 -2.88407840e-02 2.25800145e-02
      -5.63185522e-03 8.97332747e-03 1.30123626e-02 1.71560030e-02
      1.45414087e-03 -3.30518149e-02 -3.07740644e-02 -2.09363811e-02
      2.15235986e-02 6.56265616e-02 5.44381961e-02 -1.61104333e-02
      -2.09860578e-02 -4.03376594e-02 -3.92149687e-02 -5.57974316e-02
      -3.28188576e-02 5.04131541e-02 4.76228036e-02 2.94320472e-02
      -1.75902492e-03 1.09530119e-02 -2.42512044e-03 -4.02282886e-02
      -4.82880212e-02 -2.55866013e-02 5.60627095e-02 5.79988323e-02
      6.74781203e-02 5.47117274e-03 -1.64430626e-02 -2.28989199e-02
      -1.59228519e-02 -1.62958691e-03 -6.37001963e-03 3.79162356e-02
      4.36165892e-02 2.51046680e-02 1.78163778e-03 -2.21016109e-02
      -2.32946612e-02 -1.06288027e-02 -3.78226116e-03 1.48107428e-02
      3.60044949e-02 1.04826922e-02 -1.24475295e-02 -8.04369105e-04
      -6.45741075e-03 -3.31329554e-02 8.22828896e-03 1.46726482e-02
      -5.62492060e-03 2.78423801e-02 5.21903560e-02 5.21038733e-02
      4.86805700e-02 1.20738968e-02 -1.06667383e-02 5.70840435e-03
      1.07418904e-02 1.29439228e-04 5.28753642e-03 8.66993144e-03
      6.59299176e-03 3.78749631e-02 5.75105380e-03 -1.20017938e-02
      -4.49125189e-03 4.57369462e-02 2.31721234e-02 2.05231458e-02
      2.47024484e-02 -1.96859464e-02 -1.15998825e-02 -1.19163143e-02
      -3.21507864e-02 -9.86382482e-04 3.00468132e-02 -8.47305171e-03
      2.53441054e-02 1.88010540e-02 -2.24199500e-02 9.77749750e-03
      1.12368828e-02 -2.75096949e-02 -1.90111976e-02 3.56386863e-02
      1.36872567e-02 2.88961194e-02 5.40725961e-02 1.84476152e-02
      8.95472476e-04 -3.03778034e-02 -4.96953465e-02 4.09427378e-03
      4.55052443e-02 -9.44044068e-03 3.15343253e-02 2.94221491e-02
      -6.68688864e-03 8.75755586e-03 -1.40270796e-02 -4.90987636e-02
      -1.70669239e-02 -2.77494825e-03 -1.03540963e-03 4.16907948e-03
      5.44593378e-04 -3.51647125e-03 -9.26177762e-03 8.37543886e-03
      -1.71621162e-02 2.97969487e-02 5.94720244e-02 -8.90625734e-03
      -1.72722135e-02 -1.23799965e-02 -2.12466400e-02 -2.03473978e-02
      -1.61885396e-02 -1.93065498e-02 2.88294051e-02 5.05961515e-02
      6.23705448e-04 1.36075849e-02 -8.23641010e-03 -1.32552264e-02
      -9.97991208e-03 -1.71770677e-02 -4.31092568e-02 5.09469137e-02
      7.55367726e-02 -3.58928591e-02 -3.36081092e-03 -1.01118013e-02
      -1.82930473e-02 -2.54295878e-02 -3.11007369e-02 -5.65267056e-02
      3.94660681e-02 5.45264706e-02 -1.06539438e-02 -1.20735234e-02
      -5.68462163e-03 -2.05734838e-02 -1.51790297e-02 -8.66685156e-03
      -3.70368920e-02 5.01198210e-02 4.69181687e-02 -3.32266465e-02
      -2.09159274e-02 -5.94950840e-03 -1.46914013e-02 -1.47744957e-02
      -1.36041194e-02 -4.16143052e-02 6.07721210e-02 7.51134977e-02
      -3.01439818e-02 -7.90028088e-03 -6.54008565e-03 -2.09801998e-02
      -2.46860124e-02 -7.67472992e-03 -3.44717205e-02 4.85545099e-02
      5.19527681e-02 -4.06160690e-02 -1.01842675e-02 -1.28296409e-02
      -2.14501787e-02 -2.31371783e-02 -8.11008271e-03 -3.41872610e-02
      4.11323179e-03 3.51788998e-02 -6.34552585e-03 -5.97404921e-03
      -1.28284388e-04 -1.10173160e-02 -1.83879528e-02 -1.90383885e-02
      -1.61830690e-02 3.36931385e-02 3.30612212e-02 1.90033782e-02
      8.71522445e-03 6.19951077e-03 -1.92586593e-02 -2.27643885e-02
      -1.80606376e-02 -2.11552270e-02 1.19570820e-02 4.60620746e-02
      1.41391624e-02 -7.94842199e-04 -1.35374823e-04 -2.43432932e-02
      -2.11497005e-02 -1.14764618e-02 -1.24456305e-02 2.88800653e-02
      5.31734154e-02 2.80437060e-02 8.95776786e-03 3.11193126e-03
      -2.83943526e-02 -2.66614556e-02 -1.50680132e-02 -2.43491493e-02
      4.92099263e-02 5.72789833e-02 -1.93372797e-02 1.02627343e-02
      1.90639272e-02 -1.74712986e-02 -1.80169679e-02 -4.98266565e-03
      -2.63930336e-02 3.20783891e-02 8.37911386e-03 -4.01821733e-03
      7.94960000e-03 1.58853475e-02 1.46656493e-02 4.45470074e-03
      2.35173646e-02 -1.19600762e-02 5.54096512e-02 5.94881922e-02
      4.75997059e-03 1.30798463e-02 -5.21050533e-03 -4.34219576e-02
      -3.30664739e-02 -2.50482932e-02 -7.69586582e-03 3.58930342e-02
      3.08344606e-02 1.58158336e-02 2.82667167e-02 2.63053086e-03
      -3.18115321e-03 -1.16740502e-02 5.18235087e-04 -1.22598989e-03
      -4.96977242e-03 4.24283324e-03 2.33281916e-03 3.90651170e-03
      7.31418328e-03 5.89995040e-03 1.72485877e-02 1.18594784e-02
      -1.15439369e-04 7.18528498e-03 -8.43827520e-03 5.83200762e-03
      4.41471040e-02 1.24302425e-03 -2.85452250e-02 2.35386332e-03
      3.39932158e-03 2.05060765e-02 -1.35004530e-02 -1.29228132e-02
      1.45715754e-02 4.03916975e-03 3.05060204e-02 2.62843668e-02
      8.54820851e-03 -2.79434281e-03 -2.29531713e-03 9.80706606e-03
      -1.33901956e-02 5.85888885e-03 1.30990203e-02 1.54015990e-02
      1.37547106e-02 1.83081049e-02 1.00519508e-02 8.42206366e-03
      -3.58275371e-03 -1.21434890e-02 -1.63490418e-02 7.45950174e-03
      7.52877444e-02 -9.60077252e-03 -1.35539426e-02 6.23393513e-04
      -3.25980625e-04 -1.45683885e-02 -3.35880890e-02 -4.17650118e-02
      9.99842491e-03 5.24499044e-02 -9.67893284e-03 -2.36230344e-02
      8.59534740e-03 1.41893923e-02 -6.85025193e-03 -3.00527997e-02
      -4.72018868e-02 -9.84191056e-03 9.65011045e-02 4.07101065e-02
      -2.85279565e-02 -6.20026561e-03 -3.17086442e-03 -1.49559323e-02
      -4.61623147e-02 -6.52046576e-02 -1.81116555e-02 6.28412440e-02
      5.10718189e-02 5.70894498e-03 4.70577087e-03 6.22014655e-03
      -3.11541539e-02 -5.13695963e-02 -3.62789519e-02 2.51278505e-02
      5.71852066e-02 4.42458987e-02 -2.01680884e-03 9.87159554e-03
      -3.68338707e-03 -3.78624760e-02 -4.66478914e-02 -3.73490304e-02
      5.27130961e-02 5.99935241e-02 6.43703192e-02 1.55235706e-02
      5.36338007e-03 -8.55612755e-03 -1.99550577e-02 -5.03278375e-02
      -7.46730492e-02 -5.39203780e-03 3.73576581e-02 5.66028059e-02
      2.35325880e-02 -1.51191454e-03 -4.89943428e-03 -5.25677092e-02
      -4.83726114e-02 -8.13021138e-02 -1.24597289e-02 2.30109654e-02
      5.37249558e-02 1.11121051e-02 2.38802470e-02 6.07544556e-04
      -8.53118859e-03 -7.15189707e-03 -8.84089898e-03 1.51648540e-02
      7.75230583e-03 4.23876047e-02 1.63182355e-02 5.59585541e-03
      -3.21896956e-03 -4.64350870e-03 -1.22695556e-02 -2.07746699e-02
      -2.08822973e-02 -4.89855045e-03 2.65877750e-02 2.27792766e-02
      3.99785908e-03 -2.89424118e-02 -2.80900430e-02 8.09258129e-03
      2.32171435e-02 1.22158648e-02 1.50332293e-02 2.29950882e-02
      4.11174148e-02 1.67282727e-02 -2.62390968e-04 3.82896177e-02
      -9.47486237e-03 3.83494496e-02 -1.76308062e-02 -3.44337448e-02
      2.27238871e-02 3.11792158e-02 3.35636660e-02 -4.34854142e-02
      -2.30338648e-02 3.16321850e-02 -1.05682136e-02 -1.48190586e-02
      -4.14109463e-03 -4.44669789e-03 -1.93192775e-03 -9.24036745e-03
      -3.06581184e-02 1.82156786e-02 5.32434434e-02 1.67471599e-02
      -9.60098300e-03 -1.53280776e-02 -1.90223828e-02 -1.63867939e-02
      -1.86189506e-02 -4.34795395e-02 4.14118581e-02 3.68122496e-02
      -3.22718383e-03 -2.56400611e-02 -3.44033651e-02 -1.13981189e-02
      1.10765314e-02 2.05099080e-02 8.82530003e-04 4.85934317e-02
      8.35919753e-02 -2.08633542e-02 -1.36595527e-02 -1.62901450e-02
      -1.30195851e-02 -1.61393341e-02 -1.15557639e-02 7.33377005e-04
      4.19614464e-02 4.45977487e-02 3.96096660e-03 -3.88476648e-04
      -1.22397682e-02 -1.29367597e-02 -9.38296225e-03 -2.05671228e-02
      -4.34619561e-02 5.74212782e-02 2.12638397e-02 -1.15312701e-02
      2.17050081e-03 -5.84018044e-03 -1.85068958e-02 -2.42927372e-02
      -2.81501506e-02 -5.93833588e-02 8.34908634e-02 4.08729278e-02
      -4.40217694e-03 -8.48869793e-03 -2.84008868e-03 -1.09218648e-02
      -9.20646731e-03 -1.86097622e-02 -3.38822640e-02 5.87896779e-02
      2.88748778e-02 -3.47829238e-02 2.73015816e-03 5.56908222e-03
      -1.69176832e-02 -1.82806365e-02 -2.87884530e-02 -3.93625163e-02
      6.90352842e-02 4.89062928e-02 -2.30128299e-02 -5.94146950e-05
      -8.09661578e-04 -1.84890367e-02 -1.93123110e-02 8.72043311e-04
      -2.70633064e-02 4.06338423e-02 3.60004082e-02 -2.27429904e-02
      -3.83025967e-03 -1.38702895e-02 -2.00458001e-02 -2.01761518e-02
      -1.33000212e-02 -3.48655693e-02 1.47608975e-02 7.61437491e-02
      1.33218272e-02 -3.20073660e-03 -2.34104181e-03 -1.94972437e-02
      -2.06623729e-02 -1.58529766e-02 -6.35554418e-02 2.30187885e-02
      8.41363221e-02 3.82426344e-02 -1.10323774e-02 -1.56409517e-02
      -2.18037944e-02 -3.13213207e-02 -3.59539837e-02 -6.10227473e-02
      2.98864208e-02 5.01392484e-02 1.23533243e-02 3.64077953e-03
      -7.44076492e-03 -2.12125126e-02 -1.52490884e-02 -5.41062606e-03
      -1.24322781e-02 2.99530700e-02 7.99842849e-02 3.43115851e-02
      4.37468151e-03 -1.53842540e-02 -3.71832401e-02 -2.67182980e-02
      -8.87097511e-03 -7.74106197e-03 3.58814970e-02 4.24972512e-02
      1.87074002e-02 -3.54105444e-03 -8.57527554e-03 -1.43574849e-02
      -1.76104363e-02 -2.51072943e-02 -2.79092230e-03 4.41786125e-02
      4.11634780e-02 3.01139485e-02 7.97938835e-03 -9.60242748e-03
      -2.40998697e-02 -2.14761570e-02 -1.64684858e-02 -2.74128430e-02
      4.16526236e-02 7.33783916e-02 1.77959036e-02 6.82828575e-03
      -1.98986698e-02 -4.71980646e-02 -1.41656417e-02 -4.86612786e-03
      2.44508358e-03 4.65116799e-02 2.52592079e-02 1.85909029e-02
      3.34726903e-03 -2.22997852e-02 -2.46652197e-02 -9.94880777e-03
      1.49119115e-02 3.00636049e-02 2.66310200e-02 5.87800294e-02
      1.36447102e-02 1.54801589e-02 -2.36660475e-03 -2.44145468e-02
      -1.17706396e-02 -1.61698479e-02 -3.29665169e-02 2.72283573e-02
      5.71363457e-02 2.66525988e-02 1.05524892e-02 -2.04921095e-03
      -4.38855141e-02 -7.67653668e-03 -2.01811828e-03 1.48441503e-02
      9.17788362e-04 -5.89826098e-03 -1.44119677e-03 7.22701009e-03
      1.76954214e-02 1.44090538e-03 -1.61450244e-02 -4.76031797e-03
      1.38455154e-02 1.47840660e-02 1.43749109e-02 -3.53875523e-03
      -5.30685112e-03 7.45942490e-03 1.26386955e-02 -2.94861593e-03
      6.98963972e-03 1.33424439e-02 2.28045043e-02 3.37742008e-02
      3.27991471e-02 1.60816200e-02 5.38803451e-03 -4.55251932e-02
      -2.66080573e-02 -1.30033493e-02 3.73857692e-02 3.98626737e-02
      3.52197178e-02 2.63165007e-03 -3.02660484e-02 7.97957648e-03
      -3.72708286e-03 2.35962681e-03 4.42875875e-03 2.50737090e-02
      -3.53110814e-03 -2.16982625e-02 -3.51893008e-02 -7.90652819e-03
      9.77425948e-02 3.01843118e-02 -1.68872941e-02 -3.46085569e-03
      -4.15493082e-03 -4.99111740e-03 -2.95228660e-02 -6.39411733e-02
      -3.74218449e-02 4.78719212e-02 4.43111919e-02 -8.88913579e-04
      5.36745507e-03 1.20260501e-02 -3.93952476e-03 -1.68343075e-02
      -3.51546332e-02 7.12898979e-03 5.86943589e-02 2.39410736e-02
      -1.91272758e-02 -4.73812874e-03 3.87827080e-04 1.27594620e-02
      -3.36696692e-02 -7.04556108e-02 -1.60711426e-02 1.84523296e-02
      5.99503927e-02 -1.26645276e-02 -3.79511924e-03 1.25474650e-02
      -4.36154846e-03 -3.38860340e-02 -5.86922057e-02 -3.07961870e-02
      1.62892621e-02 6.58762306e-02 2.73790099e-02 -8.65464471e-03
      -1.34600466e-03 -8.52072437e-04 -3.01669482e-02 -6.90714866e-02
      -2.86970232e-02 2.84806527e-02 6.75786808e-02 2.69175284e-02
      1.55608505e-02 3.25817009e-03 1.04951086e-02 -3.55363078e-02
      -6.07911274e-02 -6.18491210e-02 1.44177973e-02 6.76060691e-02
      4.38064747e-02 -1.39508368e-02 2.98143690e-03 1.85709577e-02
      -7.52205774e-03 -5.60888276e-02 -3.54937799e-02 2.01591309e-02
      8.47616345e-02 7.75716305e-02 2.83725448e-02 3.74562405e-02
      1.42894275e-02 2.35289894e-02 2.14712135e-02 -2.02006735e-02
      -3.24583463e-02 2.20965575e-02 4.60210778e-02 9.90056153e-03
      1.32541144e-02 3.42956260e-02 2.72651613e-02 4.29021120e-02
      -2.48916652e-02 -4.87981886e-02 5.41769434e-03 3.06956861e-02
      2.25749500e-02 -2.94984896e-02 1.83532084e-03 1.57123078e-02
      1.41750434e-02 -2.17781309e-02 -2.73436494e-02 2.01280359e-02
      4.52882089e-02 1.28768329e-02 3.22445519e-02 -8.60378705e-03
      1.22907329e-02 3.72231342e-02 -1.21784594e-03 -2.29025427e-02
      -2.24764422e-02 2.14905422e-02 -5.12724277e-03 -3.30439098e-02
      5.34119084e-02 5.00959195e-02 -1.51224260e-03 -1.21169118e-02
      -1.57865994e-02 -5.41572785e-03 1.04254503e-02 2.27213837e-02
      -4.59005032e-03 4.75857668e-02 3.97774056e-02 -1.67139545e-02
      -4.94079757e-03 4.51137638e-03 3.39740096e-03 1.23716274e-03
      8.22535437e-03 -1.46282120e-02 -2.62813792e-02 1.47924991e-03
      1.86472256e-02 7.03128753e-03 -2.43586791e-03 -5.89482673e-03
      2.41584666e-02 3.31564210e-02 -2.49774847e-02 -1.07637176e-03
      1.49297947e-02 2.05386151e-02 7.27664400e-03 1.00445030e-02
      6.09489204e-03 1.86853949e-02 1.64643619e-02 -4.40483127e-04
      7.17268959e-02 2.80929077e-02 -8.79004039e-03 -1.35875940e-02
      4.51460900e-03 -2.22173659e-03 -2.28947005e-03 2.52389885e-03
      -1.59492232e-02 6.79216832e-02 4.30653691e-02 -4.46400372e-03
      -1.20640500e-03 9.61387064e-03 -1.52906030e-02 -1.17820781e-02
      -4.30239085e-03 -3.65176238e-03 1.79109704e-02 2.58307066e-02
      -2.96383048e-03 -8.78360029e-03 -4.63565142e-04 3.05596087e-03
      -4.99624154e-03 7.18672993e-03 4.41745156e-03 3.86291705e-02
      3.27663906e-02 -7.96845648e-03 -9.20620107e-04 -7.15835558e-05
      -6.97277952e-03 -7.62843853e-03 -4.86067077e-03 -3.07837821e-04
      1.64099652e-02 4.22053151e-02 2.07894873e-02 6.27556536e-03
      -9.12923366e-04 -1.28669348e-02 -8.19350034e-03 4.55662748e-03
      -2.54962388e-02 8.00374150e-03 6.31216392e-02 3.26724648e-02
      1.12452765e-03 -1.55450194e-03 -3.04955151e-03 -9.99715086e-03
      -8.77309032e-03 -3.59087959e-02 3.56525630e-02 6.61255196e-02
      3.71894203e-02 2.02060025e-02 4.33400099e-04 -2.38419883e-03
      -9.39418562e-03 -2.33031549e-02 -2.16822922e-02 1.81040242e-02
      3.89608406e-02 4.36636396e-02 1.53752491e-02 4.58595669e-03
      4.38576285e-03 -1.63901690e-02 -1.82652718e-03 -2.77770422e-02
      2.09802557e-02 2.09283810e-02 6.21885061e-03 -2.17226520e-03
      -2.64278008e-03 3.60158412e-03 -5.21142595e-03 3.52810347e-03
      1.88720357e-02 4.44323644e-02 4.86219749e-02 4.83919447e-03
      1.87475588e-02 1.78744607e-02 -1.39547726e-02 -2.31078956e-02
      -2.55080871e-02 -6.56457618e-03 1.34821460e-02 8.43687076e-03
      -2.38324236e-02 -5.66356862e-03 5.74902340e-04 1.14495838e-02
      3.02203977e-03 1.56304445e-02 3.10471095e-02 2.64309552e-02
      3.22721712e-02 -2.87859831e-02 4.33798600e-03 1.07897744e-02
      -1.29737975e-02 -1.94025636e-02 -8.46525002e-03 6.42648083e-04
      4.02839333e-02 5.29331490e-02 6.33518910e-03 2.03801841e-02
      2.52593718e-02 -4.85923653e-03 -3.38066779e-02 -3.27497460e-02
      -3.61387879e-02 3.85430232e-02 5.67191616e-02 1.25935534e-02
      1.85203105e-02 1.15161389e-02 -1.45840319e-02 -1.44267762e-02
      -7.85661023e-03 2.17100102e-02 5.79244569e-02 6.30979687e-02
      -1.62925776e-02 5.89984423e-03 8.41894001e-03 -4.11507394e-03
      -4.94030416e-02 -1.89718809e-02 -2.67699976e-02 4.10794467e-02
      3.70563418e-02 -2.10727341e-02 1.42851109e-02 2.06256583e-02
      1.60545874e-02 -6.34105410e-03 2.92022224e-03 -2.28893152e-03
      1.33839836e-02 4.03894000e-02 3.00117824e-02 5.14841871e-03
      -2.24126081e-04 -3.92181948e-02 -2.10425500e-02 -4.25643008e-03
      3.17289829e-02 3.82318720e-02 2.84694098e-02 2.39887051e-02
      -2.11628266e-02 1.11390231e-02 1.24951303e-02 2.90342830e-02
      1.01520820e-02 1.85931735e-02 1.65408663e-02 1.63202826e-02
      1.84299201e-02 -1.27767213e-03 -1.74605623e-02 -2.34693531e-02
      -6.29784632e-03 1.34253339e-03 2.28014253e-02 2.55520120e-02
      3.96170132e-02 2.48128120e-02 -2.74911989e-02 6.46457961e-03
      6.38953131e-03 2.59071067e-02 9.70649254e-03 1.41581474e-02
      -1.99631671e-03 -1.11067258e-02 -1.40372207e-02 1.53311659e-02
      5.61177433e-02 4.83308919e-03 -1.89736132e-02 -3.99578159e-04
      1.08863907e-02 1.16389012e-02 -1.85415745e-02 -4.30858955e-02
      -2.58929357e-02 2.00329330e-02 1.45338038e-02 -1.52585302e-02
      -2.08454928e-03 1.66425239e-02 -7.05808692e-04 -3.87237011e-03
      -1.64716411e-02 -1.69795225e-04 4.22779806e-02 3.02753206e-02
      -5.27974172e-03 -1.20471399e-02 1.55432113e-02 -1.55543140e-03
      -1.12563809e-02 -2.73468904e-02 -3.85787748e-02 1.13248564e-02
      4.86184806e-02 -1.56297982e-02 3.28737078e-03 2.03178413e-02
      1.23309391e-02 -1.65797248e-02 -2.33185496e-02 -4.49114218e-02
      -5.36665227e-03 6.17203042e-02 5.86799495e-02 -1.24599237e-03
      1.26229152e-02 2.14250889e-02 5.49700111e-03 -2.28291806e-02
      -1.37352413e-02 7.30734458e-03 6.39299527e-02 6.31027147e-02
      3.57357971e-02 5.19766249e-02 2.24928316e-02 -1.54754994e-02
      -5.10309730e-03 -3.55056375e-02 -1.77955404e-02 2.42807921e-02
      1.95998140e-02 1.07502667e-02 9.83989332e-03 2.54358277e-02
      1.67309605e-02 5.23505267e-03 -8.42547603e-03 -1.27780223e-02
      -1.36176799e-03 8.47164076e-03 4.38224077e-02 2.30733790e-02
      2.39420198e-02 3.64440940e-02 1.52487559e-02 -4.00939491e-04
      -2.69476208e-03 6.31892309e-03 2.24661157e-02 -1.67791278e-03
      3.33473794e-02 -8.14433023e-03 1.20570995e-02 4.56499904e-02
      8.07335228e-03 6.89914729e-03 -3.18342238e-03 2.06306688e-02
      -7.23921275e-03 -2.90230960e-02 4.62889783e-02 3.93344313e-02
      2.10567936e-02 6.10582138e-05 6.90482906e-04 -1.21660875e-02
      4.81463532e-04 1.38506917e-02 3.50195579e-02 1.98914018e-02
      3.64617892e-02 2.56332755e-02 -1.02032972e-02 8.25465191e-03
      1.84799246e-02 1.17455795e-02 -1.92541685e-02 2.50271596e-02
      -1.80232944e-03 -1.04554119e-02 1.82921533e-02 4.38713608e-03
      1.04801552e-02 1.60405051e-03 1.80426296e-02 1.42547451e-02
      -1.84116308e-02 6.04690518e-03 2.11847965e-02 1.93575937e-02
      1.91879354e-03 9.73500311e-03 1.45096146e-02 1.03821903e-02
      -5.84546104e-03 -1.71469543e-02 6.20532930e-02 2.46368181e-02
      -1.53173297e-03 1.99701381e-03 8.19432177e-03 6.92846254e-03
      1.23795141e-02 -1.01035542e-03 1.55752816e-03 2.09062472e-02
      1.58409793e-02 1.11775408e-02 1.30601171e-02 7.07775448e-03
      4.61238343e-03 -2.66805640e-03 -1.41257867e-02 3.23110702e-03
      -1.31988516e-02 -1.54328858e-02 1.11542819e-02 5.24086785e-03
      -1.48775266e-03 1.08940853e-02 -5.81270200e-04 -1.09951468e-02
      -2.79820687e-03 4.88268323e-02 -3.78399971e-03 -1.42907575e-02
      6.92935078e-04 -6.87782373e-03 -2.96791387e-03 1.36196706e-03
      1.21658656e-03 2.49218754e-02 3.53293382e-02 -2.57858960e-03
      -1.81484502e-02 1.17923981e-02 -7.37930508e-03 1.01765683e-02
      6.23146445e-03 -1.15785701e-02 1.17655788e-02 4.73552495e-02
      -6.80266460e-03 -5.44375889e-02 7.77547108e-03 -1.28247980e-02
      -1.30389081e-02 1.92842912e-02 3.17555740e-02 4.00849096e-02
      3.54006328e-02 4.77208756e-02 2.08511688e-02 2.00760979e-02
      -2.51982384e-03 3.37505422e-04 -1.51197519e-02 -1.67317297e-02
      -2.11578305e-03 -2.42506759e-03 4.66445982e-02 2.20281985e-02
      2.54450981e-02 -1.87487202e-03 1.66641884e-02 -2.47731879e-02
      -2.08268221e-02 -3.34722847e-02 3.61363217e-02 1.96517929e-02
      -2.21718922e-02 1.64789725e-02 -4.45943139e-03 -1.11887616e-03
      -1.21962815e-03 3.29462551e-02 5.00867069e-02 -1.15034506e-02
      2.64319871e-02 -3.97710539e-02 -3.91673436e-03 -5.26457140e-03
      2.03759167e-02 7.68242683e-03 -5.47420746e-03 -6.01160433e-03
      9.42618120e-03 9.59957764e-03 -1.68013964e-02 -6.46815402e-03
      6.20938465e-03 2.61297990e-02 2.97120400e-03 1.91160906e-02
      1.19816605e-02 2.90063955e-02 9.73628554e-03 -4.60723154e-02
      -1.75602026e-02 1.16832182e-03 1.24425720e-02 -7.50432629e-03
      9.33471788e-03 1.24949096e-02 2.00737435e-02 1.86998770e-02
      -5.20489998e-02 -1.20209595e-02 1.96407996e-02 3.04698832e-02
      -4.61219484e-03 -4.68763523e-03 -6.47793349e-05 4.78163175e-02
      -1.08744660e-02 -4.88313437e-02 -2.98217088e-02 3.42056863e-02
      2.71740351e-02 1.28910178e-03 1.42275766e-02 -8.98635667e-03
      4.68575358e-02 2.59325765e-02 -2.28196401e-02 -1.85770895e-02
      -4.42247791e-03 1.37392282e-02 -7.63951475e-03 -1.01207653e-02
      -7.53687043e-03 3.03408671e-02 7.25991139e-03 -1.70432087e-02
      -4.40216390e-03 1.26278829e-02 3.78243737e-02 2.88778311e-03
      -5.12714451e-03 4.80217440e-03 4.58541512e-02 6.81223860e-03
      -3.49548906e-02 -2.84756944e-02 5.68407914e-03 2.05636453e-02
      2.41248924e-02 -8.20469018e-03 -1.52793322e-02 5.23873083e-02
      3.01295631e-02 -3.12435795e-02 -1.51580535e-02 6.32841280e-03
      4.36629727e-02 1.11572696e-02 1.57130335e-03 3.03687192e-02
      2.76831985e-02 -6.86574867e-03 -1.23258419e-02 -2.92142294e-02
      -8.87234416e-03 5.45175048e-03 -1.11506144e-02 6.23612315e-04
      9.03540943e-03 1.72513966e-02 1.00971442e-02 2.16935221e-02
      -8.12528748e-03 7.39043206e-03 1.81512013e-02 6.05438137e-03
      1.04268715e-02 -2.92494055e-03 2.09380314e-02 5.27310371e-03
      -1.27275959e-02 -1.70539338e-02 -8.30551260e-04 3.10709774e-02
      -1.91617539e-04 -1.30958147e-02 2.28071609e-03 4.21080366e-03
      -1.97576378e-02 2.73532793e-02 4.79591899e-02 2.90476456e-02
      4.29064631e-02 -2.30153669e-02 -9.71945189e-03 -1.77948978e-02
      1.47689307e-05 -4.09552967e-03 -1.36107150e-02 -9.33718402e-03
      1.58500113e-02 3.81134264e-02 2.35760044e-02 -1.16830487e-02
      9.30504221e-03 1.95057578e-02 -2.70605972e-03 -2.29761042e-02
      -3.94246466e-02 4.39183693e-03 3.71223763e-02 1.63742341e-03
      3.26262112e-03 2.62826774e-02 -3.91309988e-03 -1.30490651e-02
      -1.17566744e-02 2.24180380e-03 1.66475493e-02 2.36192849e-02
      5.42499162e-02 3.51696089e-02 4.58254525e-03 2.54440177e-02
      -3.82890413e-03 -2.37585921e-02 -2.65464019e-02 -2.00589877e-02
      -8.80864542e-03 1.15816053e-02 2.20864173e-02 3.43793556e-02
      2.99506243e-02 1.86188351e-02 1.14540188e-02 -5.32842008e-03
      -1.31419189e-02 -4.91959450e-04 -8.17475747e-03 -3.14447004e-03
      1.90413855e-02 3.41164581e-02 3.81695107e-02 1.07380860e-02
      -1.19822938e-02 -1.66466739e-02 -1.88903455e-02 -1.34700984e-02
      1.51049681e-02 1.04036853e-02 6.51755705e-02 5.58018349e-02
      2.15219148e-02 7.05942372e-03 -2.00461615e-02 -2.31247060e-02
      -2.58037671e-02 -2.89040413e-02 2.68649403e-02 5.35413250e-02
      5.70389703e-02 7.26297172e-03 -1.42049128e-02 -1.46957580e-02
      -2.01414190e-02 -3.10607702e-02 -3.58258449e-02 -1.55241536e-02
      4.71967347e-02 1.84952579e-02 -3.20316781e-03 -2.06460916e-02
      -2.04839204e-02 -1.54420584e-02 -1.54103599e-02 -6.20540651e-03
      3.41349770e-03 6.75415993e-02 3.23204473e-02 -2.79993378e-03
      -2.12910548e-02 -1.88967958e-02 -1.10052563e-02 -2.56270356e-03
      -1.09196184e-02 5.20129222e-03 6.39394224e-02 1.92958470e-02
      -2.52701417e-02 -1.54284853e-02 -1.78055409e-02 -1.21736070e-02
      -1.09874699e-02 -1.80014875e-02 5.65762352e-03 5.74154407e-02
      3.09350789e-02 1.55279189e-02 -1.31347962e-02 -1.48462662e-02
      -2.73771840e-03 -8.61550332e-04 -4.33533220e-03 5.71576320e-03
      4.16891351e-02 1.05881458e-03 -1.85481403e-02 -1.00014228e-02
      -1.54868439e-02 -9.32700653e-03 -1.43128401e-03 6.07396336e-03
      2.31666397e-03 2.73990631e-02 -7.44202500e-03 -1.66305378e-02
      -3.90441972e-03 -1.46544017e-02 -1.63450260e-02 -3.25430743e-03
      8.07402004e-03 -2.57657636e-02 3.61035764e-02 2.39210110e-02
      -4.64368565e-03 -1.55913634e-02 -9.01346374e-03 -5.26942685e-03
      1.40441516e-02 1.96984205e-02 -3.79703403e-03 1.03112776e-02
      6.64565060e-03 -3.73405963e-02 -1.19089531e-02 -5.61324507e-03
      3.91780026e-03 3.09939068e-02 2.59955693e-02 -2.52203662e-02
      1.82202961e-02 3.61813209e-03 -4.12235707e-02 -6.70528447e-04
      -1.83486119e-02 -1.16166556e-02 -1.13366591e-03 4.26676404e-03
      9.86090023e-03 1.34629766e-02 -2.00612447e-03 -6.57606944e-02
      1.14757828e-02 -8.55775364e-03 -1.13903834e-02 4.26039612e-03
      1.95700880e-02 2.11775936e-02 -1.41506242e-02 1.35050723e-02
      -5.06110825e-02 -2.17515137e-02 -5.69315813e-03 4.69502236e-04
      2.56109107e-02 2.27858946e-02 -2.07812781e-03 1.18322317e-02
      4.17889431e-02 -2.82240491e-02 4.11583669e-03 5.66622615e-03
      4.37636534e-03 -2.65777018e-03 -1.82361424e-03 -1.29189435e-03
      2.84561925e-02 1.56814493e-02 -1.56225804e-02 3.41134369e-02
      8.16354901e-03 -1.05149783e-02 -6.85020536e-03 1.56796798e-02
      2.93458384e-02 -6.68125739e-03 7.24965613e-03 -3.57175656e-02
      -7.30381114e-03 -1.14156306e-02 -7.55215529e-03 -6.55968813e-03
      7.91081134e-03 1.84397250e-02 3.30725163e-02 5.48332056e-04
      2.93877034e-04 3.82675268e-02 2.26076543e-02 -8.57440196e-03
      -3.06859729e-03 -1.56624727e-02 1.91978682e-02 2.96748355e-02
      -4.14756015e-02 -2.20041350e-02 1.40315145e-02 3.56686558e-03
      -1.32208047e-02 -8.36705696e-03 1.17085893e-02 6.43260255e-02
      8.38483777e-03 3.30824107e-02 -3.49746570e-02 -1.18393032e-03
      1.03121018e-02 1.80132613e-02 -7.26757897e-03 3.32328514e-03
      5.18403342e-03 2.68434435e-02 -9.47495643e-03 6.33486221e-03
      2.40051448e-02 3.40012014e-02 1.73513331e-02 -2.25844588e-02
      -4.09405475e-04 -3.67483608e-02 -6.59265835e-03 -2.08493266e-02
      -5.91648091e-03 1.95077751e-02 9.04628448e-03 6.55989861e-03
      -3.87078105e-03 3.06740683e-02 5.19759431e-02 4.27123858e-03
      7.88458996e-03 2.59903874e-02 5.38913608e-02 2.67524030e-02
      1.40430708e-03 5.13161824e-04 -2.89990604e-02 -1.10634603e-02
      1.77144688e-02 5.21244947e-03 -2.18113884e-03 -3.58701160e-04
      1.84975043e-02 -6.94557047e-03 4.20976942e-03 -3.54784876e-02
      -1.89395472e-02 3.72552015e-02 1.38659822e-02 -8.14101472e-03
      -6.97251689e-03 2.41967384e-03 1.12381130e-02 -4.49204817e-03
      -9.82609298e-03 1.98561028e-02 1.36952382e-02 2.62291059e-02
      3.69836763e-02 4.24118303e-02 8.76338221e-03 -1.71446651e-02
      -1.17281033e-02 -5.47545627e-02 3.14534525e-03 3.01327407e-02
      4.29101251e-02 3.98351699e-02 6.55246228e-02 2.77224034e-02
      1.49648180e-02 -1.14203440e-02 -1.02999182e-02 1.07505359e-02
      -5.77778975e-03 -1.83604881e-02 -1.46913864e-02 4.64314176e-03
      3.26984376e-03 1.36961713e-02 -6.50961418e-03 -2.72707287e-02
      -2.85288952e-02 -7.91271683e-03 -2.82585509e-02 1.14309955e-02
      4.40520793e-02 2.61359513e-02 6.07472360e-02 9.30712931e-03
      -3.10058072e-02 -3.55044045e-02 -1.54803330e-02 -1.58552863e-02
      3.78703373e-03 2.55025942e-02 2.65861172e-02 2.52508540e-02
      -6.32993924e-03 -2.12369207e-02 -2.83523481e-02 1.67657100e-02
      1.56271420e-02 -1.29674366e-02 2.74172402e-03 2.03025602e-02
      6.91969469e-02 3.32822315e-02 -1.28659997e-02 7.00183387e-04
      -8.74560419e-03 -5.65915462e-03 4.55635105e-04 5.44440886e-03
      4.62389132e-03 -2.03424953e-02 2.84245275e-02 5.10104969e-02
      1.01708723e-02 9.35574935e-04 -1.40905855e-02 -1.91088542e-02
      -1.99173186e-02 -3.61983962e-02 -4.10022773e-02 1.69926807e-02
      3.90671603e-02 2.11259034e-02 -2.83553102e-03 -5.51636098e-03
      1.03083737e-02 2.01354865e-02 1.03673516e-02 -4.65700179e-02
      -3.45574878e-03 3.61929759e-02 2.38132589e-02 4.19122051e-04
      -3.17836925e-02 -1.27257472e-02 3.20086721e-04 -1.34799760e-02
      -2.94250082e-02 -3.87348467e-03 3.55703942e-02 4.74250875e-02
      4.39340360e-02 3.44437100e-02 4.08912922e-04 8.76304787e-03
      -5.05494140e-03 -1.68045331e-02 -8.38983711e-03 -3.13856862e-02
      8.78522824e-03 3.03903855e-02 4.38026264e-02 -9.59018432e-03
      -3.58848530e-03 -3.24505521e-03 -9.50687006e-03 -9.07385349e-03
      -3.34343836e-02 -2.16785595e-02 4.92656939e-02 5.63864363e-03
      -4.03232165e-02 7.11867120e-03 -1.84352696e-02 -6.16720738e-03
      1.13629247e-03 6.43153489e-03 1.90905407e-02 3.79330218e-02
      3.62909911e-03 -1.84189640e-02 2.70396005e-03 -1.19974855e-02
      -3.00975959e-03 1.62213165e-02 -9.08022933e-03 -2.04156246e-02
      2.02765763e-02 -1.23460535e-02 -1.89937819e-02 -5.96881006e-03
      -1.59930997e-02 -2.72701122e-03 -5.24343643e-03 -1.29194148e-02
      -2.34455615e-02 1.29791042e-02 2.24604793e-02 1.82977747e-02
      -5.00522414e-03 -3.88315436e-03 8.30045342e-03 7.19218049e-03
      4.45917528e-03 1.11029856e-02 1.20664458e-03 -4.18368094e-02
      6.27829228e-03 7.78283284e-05 3.35542206e-03 2.99689337e-03
      -9.23456799e-04 7.08724791e-03 -7.09813507e-03 2.04912201e-03
      -1.48138665e-02 9.20299627e-03 1.65057424e-02 2.16998812e-02
      1.41920829e-02 9.17228963e-03 2.24845260e-02 1.27778947e-02
      -2.79213265e-02 1.66480392e-02 -2.88220914e-03 -8.86971131e-03
      9.48265754e-03 9.72025655e-03 2.04979740e-02 2.31071245e-02
      -6.98017003e-03 -2.89730337e-02 7.00666569e-03 -2.42611021e-02
      -1.20172584e-02 7.76979188e-03 1.15598720e-02 4.14761417e-02
      2.84953434e-02 -4.39856611e-02 -7.26492926e-02 -3.95043724e-04
      1.20797819e-02 2.19970429e-03 1.84364188e-02 2.85738893e-02
      1.85680483e-02 2.15064138e-02 -1.37043986e-02 -6.63213730e-02
      1.27886701e-02 4.86644404e-03 5.12089441e-03 3.88510339e-02
      4.51038294e-02 4.02655900e-02 2.16194540e-02 -5.49606681e-02
      -1.75447837e-02 1.79832298e-02 -2.72631701e-02 -1.32392859e-02
      1.13939820e-02 6.38762023e-04 2.86024995e-02 2.38171760e-02
      -2.14790367e-02 1.39626898e-02 2.05091052e-02 6.89500850e-03
      4.37239185e-03 8.41171946e-03 -1.23781767e-02 -4.16290527e-03
      -9.28558316e-03 -1.18953194e-02 -3.62337828e-02 8.60396214e-03
      -1.16663752e-02 1.25123831e-02 5.64055182e-02 8.07665661e-03
      1.99936815e-02 2.37869397e-02 -4.14159447e-02 -1.40284756e-02
      2.27218140e-02 -5.83290681e-03 9.26124025e-03 3.50604020e-02
      -1.83674246e-02 -9.51009616e-03 -9.42082703e-03 -2.56264228e-02
      1.05024483e-02 -3.37203825e-03 3.82842007e-03 2.37568263e-02
      1.32803218e-02 -1.55473398e-02 -1.31867081e-02 -4.33446094e-02
      1.20743702e-04 2.11358536e-02 -3.14010493e-02 -2.42655072e-02
      1.55791119e-02 1.31227111e-03 -2.25174204e-02 -3.64290923e-02
      -2.41708253e-02 2.79542301e-02 4.21877317e-02 2.25005783e-02
      1.00303385e-02 2.94412486e-02 3.52946594e-02 -2.54387986e-02
      -2.64434293e-02 -2.36534514e-02 -6.42974116e-03 5.37606142e-02
      9.41556133e-03 -7.78775988e-03 3.03588491e-02 2.84103360e-02
      -3.14922109e-02 -3.36943567e-02 -1.79210100e-02 3.13621461e-02
      -1.22935744e-02 -3.74847725e-02 -1.09488806e-02 2.52356101e-02
      -8.05454049e-03 -9.03425459e-03 -2.58783977e-02 -1.24543980e-02
      2.35799383e-02 -1.45563968e-02 -2.99648885e-02 -1.54859349e-02
      2.20595933e-02 1.02079660e-02 -9.14751180e-03 -2.53938902e-02
      -3.87755930e-02 -1.13024283e-02 1.95343941e-02 -3.34757753e-02
      -1.89689435e-02 2.26464067e-02 4.45274487e-02 9.09838546e-03
      -1.11915609e-02 1.83850434e-02 5.61219081e-02 1.16423182e-02
      -4.83380519e-02 -3.72913666e-02 2.89779659e-02 2.41091345e-02
      -5.61589259e-04 4.54219757e-03 3.11746709e-02 4.78229858e-02
      -2.00551702e-03 -3.94008644e-02 -1.16849933e-02 2.06368230e-02
      -2.58301827e-03 -3.80294234e-03 4.60989727e-03 -3.29790376e-02
      1.38122251e-03 -3.86022497e-03 -2.67741010e-02 5.05297305e-03
      4.21953872e-02 1.17765646e-03 -1.00440057e-02 -8.12666304e-03
      -2.42793411e-02 -9.23886057e-03 1.20260678e-02 -5.82077540e-02
      -2.69777533e-02 3.51997465e-02 3.01012117e-02 8.37859418e-03
      3.50067019e-02 2.95361560e-02 3.27463485e-02 -9.58125480e-03
      -4.13576178e-02 3.84623022e-03 4.96780165e-02 2.24137828e-02
      1.19074071e-02 3.61812152e-02 8.75825994e-03 -2.29836795e-02
      -3.90480808e-03 -2.35717408e-02 -8.13593809e-03 1.05632581e-02
      1.90020483e-02 -8.51735123e-04 -1.00427447e-02 -1.13287475e-02
      -3.58457454e-02 9.83691122e-03 6.03785692e-03 -3.07962671e-02
      -1.51176546e-02 6.14115736e-03 4.02385853e-02 1.70412734e-02
      -4.91152657e-03 -8.59718770e-03 -3.21687176e-03 -1.29832728e-02
      -6.81815483e-03 3.89392190e-02 2.53861956e-02 9.37585253e-03
      1.16626546e-02 9.83500201e-03 -2.80925930e-02 5.86048421e-03
      4.14357474e-03 -2.16400065e-02 -7.36696599e-03 2.51285769e-02
      3.61678340e-02 2.18330398e-02 2.03659795e-02 -2.18890533e-02</_></support_vectors>
  <decision_functions>
    <_>
      <sv_count>1</sv_count>
      <rho>3.5473347931050609e+00</rho>
      <alpha>
        1.</alpha>
      <index>
        0</index></_></decision_functions></my_svm>
</opencv_storage>
