<?xml version="1.0"?>
<opencv_storage>
<my_svm type_id="opencv-ml-svm">
  <svm_type>C_SVC</svm_type>
  <kernel><type>LINEAR</type></kernel>
  <C>1.0000000000000001e-01</C>
  <term_criteria><epsilon>1.1920928955078125e-07</epsilon>
    <iterations>1000</iterations></term_criteria>
  <var_all>2916</var_all>
  <var_count>2916</var_count>
  <class_count>2</class_count>
  <class_labels type_id="opencv-matrix">
    <rows>1</rows>
    <cols>2</cols>
    <dt>i</dt>
    <data>
      1 2</data></class_labels>
  <sv_total>1</sv_total>
  <support_vectors>
    <_>
      -1.54140145e-02 4.75721527e-03 1.65523831e-02 1.22196125e-02
      -3.51239415e-03 -5.45892958e-03 -4.77778143e-04 9.31871030e-03
      -1.04587646e-02 -4.15290380e-03 3.63677484e-03 7.07039377e-03
      1.15653854e-02 -4.81156167e-03 -1.24062523e-02 -8.73435475e-03
      2.17641960e-03 2.61046481e-03 -2.30676383e-02 9.00576171e-03
      5.47332503e-03 5.33716101e-03 -5.60183253e-04 1.50148466e-04
      1.31451124e-02 1.12669012e-02 -2.00120322e-02 -2.46306155e-02
      1.17910188e-02 -2.65345513e-03 9.25160944e-03 1.08739613e-02
      -6.74944650e-03 -1.89885660e-03 3.20569566e-03 -7.51629239e-03
      1.11059388e-02 6.71208370e-03 -2.39793165e-03 2.44715856e-03
      -1.55375258e-03 1.42332271e-03 -1.20462459e-02 -9.93997231e-03
      -3.13758338e-03 4.13760953e-02 -9.96689964e-03 -9.62116406e-04
      5.88005595e-03 -6.05211686e-03 -2.40737782e-03 -1.30572543e-02
      -6.69277320e-03 3.04475110e-02 9.37072281e-03 2.57404950e-02
      4.53665992e-03 4.22991952e-03 -2.15623342e-03 1.98974553e-03
      1.72074663e-03 -2.00645011e-02 -3.31975296e-02 3.35848778e-02
      1.19766826e-02 7.46553822e-04 1.30413173e-06 2.70231091e-03
      1.00988243e-02 -1.14242341e-02 5.87512448e-04 1.60203464e-02
      -3.58578609e-03 -1.52875306e-02 -9.44740977e-03 4.08759527e-03
      -7.56731350e-03 1.37347553e-03 -2.50232639e-04 -2.75112363e-03
      2.50202883e-02 -1.24602136e-03 -6.73613464e-03 -5.74260019e-03
      1.41229318e-03 -4.88728285e-03 3.90893128e-03 3.48137040e-03
      5.35306893e-03 1.23304967e-02 -7.65367318e-03 -2.26120949e-02
      -5.42833423e-03 2.81184609e-03 4.40216936e-05 3.20147141e-04
      -1.44340340e-02 -3.87564301e-03 2.13489570e-02 -1.47747935e-03
      -8.95765424e-03 -5.03172958e-03 -1.81314372e-03 -5.22554573e-03
      -2.48502893e-03 -2.31090356e-02 -1.85417861e-03 2.89116446e-02
      8.49601231e-04 7.48803187e-03 -2.47413223e-03 -6.97807549e-03
      7.95816712e-04 4.97267814e-03 -2.77570309e-03 -6.93184265e-04
      -1.63890738e-02 -1.24931633e-02 4.25660051e-03 6.28496101e-03
      3.58276777e-02 2.24737190e-02 1.72288192e-03 -9.23210196e-03
      -5.03049232e-03 -2.93094926e-02 -4.34335350e-04 -3.56718345e-04
      -2.79167434e-03 -8.91294423e-03 -5.39362151e-03 2.12102686e-03
      -1.84499957e-02 -1.53763928e-02 1.13430768e-02 -3.29916626e-02
      -2.00407468e-02 -5.80960279e-03 1.42816491e-02 1.78207196e-02
      2.01872550e-02 2.81726709e-03 -8.25449172e-03 7.02178432e-03
      9.04660206e-03 -1.38094258e-02 -3.16610863e-03 1.82738155e-02
      1.67650208e-02 -2.80388980e-03 -5.23062609e-03 -1.25259636e-02
      -4.67420742e-03 8.40901397e-03 -1.64172016e-02 -1.77470353e-02
      2.85866810e-03 2.09566951e-03 1.90471066e-03 -5.32605639e-03
      1.48551101e-02 9.19680111e-03 -1.28549077e-02 -1.68126710e-02
      -2.50582080e-02 2.93074269e-03 1.18446220e-02 3.33220442e-03
      4.34995024e-03 3.83122417e-04 4.17317031e-03 1.13745900e-02
      -4.01730416e-03 -2.64497194e-02 -1.04641877e-02 8.83955159e-04
      9.39793140e-03 -1.36632370e-02 9.30864364e-03 1.34002203e-02
      -3.67533625e-03 -7.70742074e-03 -1.10369911e-02 -2.21729535e-03
      -6.74192654e-03 -3.57159413e-04 -5.82308555e-03 1.81891881e-02
      1.51101053e-02 -8.72717355e-04 -5.17422287e-03 -1.43799279e-02
      1.53685964e-04 -1.20956292e-02 -4.11619525e-03 -1.21023264e-02
      3.38667519e-02 1.57247938e-03 -1.72989443e-02 2.89225974e-03
      -2.57246848e-02 -4.19091322e-08 3.36052896e-03 2.74662767e-03
      -1.27523150e-02 2.68537048e-02 1.81226414e-02 -7.96955265e-03
      1.57561782e-03 -3.16054486e-02 3.36213945e-03 -3.88746127e-03
      -1.16988309e-02 -2.51457822e-02 3.49809937e-02 1.98715087e-02
      1.03993248e-02 -5.03593916e-03 -8.20708275e-03 8.12964397e-04
      4.17239266e-03 9.18301812e-04 3.08914832e-03 1.60801746e-02
      -2.61420617e-03 -6.96294475e-03 -2.27965470e-02 -1.67187694e-02
      1.87407609e-03 4.49794345e-03 6.02506939e-03 1.66764166e-02
      1.18636889e-02 -5.16614318e-03 -5.75845072e-04 -6.32639742e-03
      -9.05358884e-03 7.08124274e-03 6.56061166e-04 -4.08897363e-03
      -6.65175356e-03 3.31539214e-02 8.92236922e-03 -6.30626688e-03
      -1.84941702e-02 -2.16613803e-02 1.61149018e-02 2.34335894e-03
      -1.05374423e-03 -1.42564590e-03 2.93492582e-02 6.51747826e-03
      -4.30453848e-03 -1.02340234e-02 1.08812346e-04 8.06587283e-03
      8.29331391e-03 3.07248835e-03 6.23019272e-03 -5.01997164e-03
      -8.33567698e-03 -2.23006606e-02 -8.87286011e-03 1.21493572e-02
      1.35126505e-02 1.30239883e-02 1.26154267e-03 2.65701837e-03
      2.24646204e-03 -1.76079962e-02 1.89468842e-02 -8.10806174e-03
      6.78384677e-03 1.67848859e-02 8.93345859e-04 1.62445812e-03
      -4.52968851e-03 -1.05546564e-02 -2.18817659e-04 4.38466144e-04
      3.45367705e-03 1.43458555e-02 1.55370198e-02 2.01198389e-03
      -2.50173471e-04 -4.42799600e-03 3.32303438e-03 1.51350163e-03
      -1.34662073e-02 -3.58758657e-03 5.94152929e-03 1.03832176e-03
      1.83283519e-02 -2.52719945e-03 -2.67119450e-03 -2.00660480e-03
      -1.39624840e-02 -4.84328903e-03 -1.16067403e-03 3.59493704e-03
      1.01573234e-02 1.71248764e-02 -4.62899636e-03 -1.64375675e-03
      2.26424774e-03 -1.45765636e-02 -1.11422623e-02 6.68542925e-03
      4.14906070e-03 -1.59208965e-03 1.17664663e-02 1.48631977e-02
      1.25341117e-02 7.90273119e-03 -7.98968319e-03 -1.42428773e-02
      -7.63559714e-03 -1.07214600e-02 -5.08667435e-04 9.53026954e-03
      1.30286226e-02 1.42673180e-02 7.43867829e-04 -1.46036195e-02
      -1.50807546e-02 4.75195004e-04 -3.60815250e-03 -1.81185512e-03
      -4.88895504e-03 -4.43875510e-03 2.03620791e-02 9.01138689e-03
      -1.26045235e-02 -1.87525451e-02 1.29624736e-03 6.48017926e-03
      3.80713632e-03 2.45830161e-03 -7.03075994e-03 1.39722247e-02
      1.01003433e-02 -7.21159717e-03 -1.44421030e-02 -1.22263154e-03
      1.64986565e-03 -1.01924958e-02 -5.62119298e-03 8.00258422e-04
      1.80926882e-02 1.28842359e-02 -1.44867413e-02 -9.97830555e-03
      4.24292265e-03 1.09224292e-02 1.30122676e-02 1.34623013e-02
      2.70386366e-03 1.00729717e-02 3.82889528e-03 -1.60422437e-02
      -6.47856668e-03 2.54934710e-02 1.12269102e-02 9.36325174e-03
      3.49236885e-03 -4.53862594e-03 -1.93879518e-04 -2.77952235e-02
      -2.62191501e-02 2.60606483e-02 2.28070952e-02 9.36006662e-03
      2.59655598e-03 1.20644784e-03 4.50557360e-04 -1.38001461e-02
      -2.87189037e-02 7.15604704e-03 -5.26395440e-03 1.29934512e-02
      2.00027972e-02 2.20411718e-02 1.86341647e-02 2.73378263e-03
      3.74617008e-03 -2.87318639e-02 -3.31458985e-03 3.76600437e-02
      2.22546607e-02 1.27772847e-02 1.41822193e-02 1.00944340e-02
      5.97364036e-03 -1.60604622e-02 -2.51030084e-02 -1.32808974e-03
      1.49674723e-02 -4.87117749e-03 -2.69573787e-03 -7.58235517e-04
      -1.56154123e-03 -1.92419975e-03 -1.14656780e-02 -3.73446792e-02
      3.73045430e-02 2.02037152e-02 5.49191050e-03 -4.80208872e-03
      -8.92762747e-03 -8.35265592e-03 -3.22626741e-03 -1.80381630e-02
      -2.43084580e-02 3.54703441e-02 5.46415523e-02 3.81465256e-03
      -8.59328173e-03 -1.93070062e-03 -3.52333649e-04 7.26227416e-04
      -1.71046201e-02 -4.13284823e-02 2.12014169e-02 5.87398820e-02
      2.64633838e-02 -2.99933949e-03 -5.30994730e-03 7.94305874e-04
      7.26669887e-03 -5.89595595e-03 -3.95011492e-02 3.12149860e-02
      7.50081986e-03 4.35593259e-03 -1.81372068e-03 -9.98790562e-03
      -4.17829817e-03 -1.41062681e-03 -1.80130657e-02 -7.16611044e-03
      3.32839824e-02 1.88541866e-03 -1.46149546e-02 -1.31667284e-02
      -1.17542371e-02 -2.23489827e-03 1.71499664e-03 -8.66276398e-03
      1.08980192e-02 3.36115174e-02 1.75675061e-02 2.16054246e-02
      -5.99741703e-03 -1.01169562e-02 4.96991386e-04 7.88584165e-03
      -3.11537702e-02 -3.01856752e-02 8.52978788e-03 2.35761385e-02
      -1.14091591e-03 -1.27733629e-02 -1.76727455e-02 -1.55252349e-02
      1.46202731e-03 -2.40254998e-02 -8.10512342e-03 2.95520984e-02
      6.32054405e-03 -1.32361269e-02 -1.44142611e-02 -5.50015643e-03
      -1.14582642e-03 -7.65387726e-04 -3.28985997e-03 -7.76548032e-03
      1.93164460e-02 2.16040984e-02 -1.22325635e-02 -1.70003604e-02
      -6.40675938e-03 -3.67538910e-03 -2.78637890e-04 -1.33235045e-02
      4.61704610e-03 1.21598085e-02 3.71471569e-02 -1.60063561e-02
      -1.47704575e-02 -2.17482410e-02 -8.58924817e-03 -3.61270388e-03
      -1.34518184e-02 -1.84108522e-02 3.46324556e-02 6.68734079e-03
      -2.54360121e-02 -2.97541097e-02 -1.34038357e-02 4.20642365e-03
      -4.52469429e-03 -1.95114706e-02 -1.01511152e-02 1.96151286e-02
      4.37576696e-03 2.29203352e-03 -1.07672606e-02 -1.50249840e-03
      -2.03811401e-03 -8.14560772e-05 -1.27466992e-02 1.93331949e-02
      3.57294418e-02 1.66657530e-02 -1.55224577e-02 -3.00202277e-02
      -2.57117953e-03 -5.02666086e-03 -5.72282029e-03 -1.43623315e-02
      2.53586937e-02 3.32622938e-02 -1.17336947e-03 -3.12541910e-02
      -6.31261943e-03 -2.03839550e-03 -1.96526316e-03 -6.82775490e-03
      -1.23737762e-02 2.17558164e-02 3.20994407e-02 1.78317130e-02
      -2.80073397e-02 -4.15012203e-02 -4.41866415e-03 -2.21347506e-03
      -3.96095449e-03 -1.02746487e-02 2.38588247e-02 4.85161729e-02
      1.73325296e-02 -1.72360204e-02 -7.78361177e-03 -3.20356106e-04
      -3.18968249e-03 -5.54132601e-03 -9.37967375e-03 1.87681969e-02
      1.10843955e-02 1.41447857e-02 -2.68295910e-02 -1.68007929e-02
      1.39114454e-05 -2.11180351e-03 -1.63935521e-03 -6.75427215e-03
      5.09630237e-03 2.73450483e-02 2.51750760e-02 -3.58892828e-02
      -2.62509380e-02 -2.61151372e-03 -2.71289516e-03 -2.70309392e-03
      -1.02830138e-02 1.21751586e-02 4.74479832e-02 1.92595180e-02
      -3.06832697e-02 -2.27035359e-02 -3.63612897e-04 -1.52600207e-03
      -2.98563950e-03 -1.22118695e-02 1.51351490e-03 4.23077531e-02
      1.44410133e-02 -1.85361579e-02 -8.69824458e-03 3.96050862e-04
      -1.27593975e-03 -1.52038108e-03 -6.53693732e-03 -9.27763246e-03
      8.17305967e-03 -7.08884560e-03 -4.02574055e-03 7.94049352e-03
      -3.44398199e-03 -1.22482646e-02 -6.74276613e-03 4.95883683e-03
      1.80961285e-02 2.90814205e-04 5.36604691e-03 -2.26344150e-02
      -1.80106107e-02 -1.75998872e-03 6.42686267e-04 -8.14747903e-03
      -4.43557231e-03 1.06919731e-03 4.11279127e-02 5.33143990e-03
      -6.91593345e-03 -1.15024960e-02 -1.29087279e-02 -1.31630874e-03
      2.11978536e-02 3.62406522e-02 3.63256522e-02 1.59689058e-02
      -2.01251227e-02 -8.01299885e-03 -1.07387407e-03 -4.13462287e-03
      2.28625591e-04 9.51511320e-03 1.59312598e-02 1.77111123e-02
      -7.44621642e-03 -2.24623214e-02 -1.18299089e-02 -1.30442427e-02
      -3.07359453e-03 5.16407844e-03 1.91544555e-02 1.67526994e-02
      6.31152140e-03 -1.87107790e-02 -2.22478546e-02 1.60939735e-03
      -8.35951511e-03 -9.57481749e-03 2.63041351e-02 2.84416582e-02
      2.69063506e-02 2.40693893e-02 -1.12517318e-02 -2.28037555e-02
      -4.02629562e-03 2.52881902e-04 -1.46719906e-03 1.93048362e-02
      3.08019109e-02 2.43019257e-02 6.94232760e-03 -1.97818056e-02
      -8.42312817e-03 -1.57659606e-03 1.67024857e-03 -5.92135591e-03
      8.78618303e-05 6.57834404e-04 -2.16127373e-03 -2.43313541e-03
      -1.46625275e-02 -6.88293250e-03 3.74326599e-03 8.09409935e-03
      8.40666797e-03 8.88702925e-03 4.56892280e-03 -2.38468195e-03
      -6.92720944e-03 -5.07343980e-03 1.94034178e-03 -9.43426683e-04
      -5.08566503e-04 1.98249542e-03 1.44322207e-02 9.08823125e-03
      -1.40627529e-02 5.48150204e-03 4.64475295e-03 1.02910874e-02
      -4.40651830e-03 3.48532898e-03 -6.03378750e-04 1.54549554e-02
      -1.31267204e-03 -2.02735630e-03 -6.48871809e-03 2.01471541e-02
      -1.08657889e-02 -3.23511823e-03 5.10061618e-05 1.03540830e-02
      5.76929841e-03 5.89591917e-03 -7.08561810e-03 -1.91209931e-02
      4.41926299e-03 1.40666077e-02 -1.96796143e-03 -4.86710807e-03
      4.74353787e-03 3.90026486e-03 7.29113258e-03 -4.20407346e-03
      -2.06255689e-02 3.38765010e-02 3.15935425e-02 -9.56749450e-03
      -2.94528180e-03 -7.43501261e-03 3.01154942e-05 1.21686263e-02
      -7.42592989e-03 1.02015874e-04 2.75443606e-02 4.73029353e-02
      -2.10970733e-02 -2.19316520e-02 -5.35652786e-03 -1.32106524e-02
      4.05412773e-03 2.10060948e-03 1.35056558e-03 4.01126184e-02
      2.12388355e-02 -9.14029218e-03 -1.20486328e-02 3.37645964e-04
      -8.88285693e-04 6.97399490e-04 -7.16247549e-03 -2.77860276e-02
      1.64465252e-02 2.40504555e-02 1.08134095e-02 -4.97645466e-03
      2.32225819e-03 4.72864090e-03 1.26164779e-02 8.66117794e-03
      -2.82897465e-02 -7.68862737e-05 2.61074658e-02 -1.78318731e-02
      -1.73110180e-02 3.01146437e-03 -2.21480033e-03 1.38965491e-02
      -1.76609680e-03 -6.59188547e-04 5.28114215e-02 7.28958333e-03
      -2.36374279e-03 1.42401806e-03 2.13658623e-02 2.98964828e-02
      4.20929864e-02 1.30067766e-02 -1.10107567e-02 5.05206781e-03
      1.77415535e-02 1.45190628e-02 -2.78617977e-03 -4.34475020e-03
      1.21263526e-02 1.96894761e-02 1.27243565e-03 -3.51984948e-02
      1.63129494e-02 2.02937089e-02 7.89096672e-03 -8.23738985e-03
      -1.24465153e-02 -2.51815934e-03 9.36649740e-03 -8.32118466e-03
      -1.69175584e-02 2.75063310e-02 4.97324532e-03 1.85547536e-03
      -2.22969754e-03 1.50558827e-02 3.46156061e-02 4.08411287e-02
      4.54272004e-03 -3.12941633e-02 9.86696500e-03 1.20338649e-02
      1.18630994e-02 -2.58882879e-03 6.86159777e-03 1.07227182e-02
      2.58741323e-02 1.43031478e-02 -1.68633042e-03 -8.71067960e-03
      2.66730487e-02 3.36553738e-03 -4.01481520e-03 -1.44505454e-02
      -7.61078717e-03 2.79233512e-03 2.32462911e-03 -2.80037778e-03
      1.89334005e-02 9.97893419e-03 3.43981694e-04 2.05650670e-03
      -2.11718562e-03 1.47074955e-02 3.07055470e-03 -1.76093671e-02
      2.48927914e-04 1.75294746e-02 -2.25931611e-02 -1.53977622e-03
      2.33194977e-02 1.85847431e-02 3.15568759e-03 -1.54159369e-03
      8.06988776e-03 -7.94848800e-03 -2.58189626e-02 -8.91979598e-03
      -8.83836066e-04 2.08294094e-02 4.38477360e-02 2.90602762e-02
      1.70649234e-02 -1.11127563e-03 -4.31136834e-03 -2.54639722e-02
      6.71129255e-03 -3.08552198e-02 2.42115231e-03 3.60402022e-03
      2.19123391e-03 -6.03788532e-03 -1.41844098e-02 1.13138054e-02
      1.34960553e-02 2.85515059e-02 -2.32237987e-02 -1.43792173e-02
      4.50915424e-03 1.11997314e-03 -3.88333923e-03 -1.15636345e-02
      2.18704734e-02 1.85653884e-02 9.96205583e-03 -6.39496255e-04
      2.65001673e-02 1.93387233e-02 2.57488396e-02 4.53312125e-04
      -1.79629344e-02 -2.81906314e-03 -7.43470527e-03 2.49773674e-02
      2.74378229e-02 2.99870335e-02 2.27978211e-02 2.42980141e-02
      -1.14686564e-02 -2.02195235e-02 -1.60669666e-02 2.50355415e-02
      3.31247151e-02 -3.42200622e-02 -2.35329978e-02 -1.73162506e-03
      -2.96550780e-03 -2.63898703e-03 -1.16455993e-02 3.14428564e-03
      2.79369392e-02 1.70122609e-02 -3.67035568e-02 -1.77303087e-02
      2.63373414e-03 -3.92404106e-03 -4.00227169e-03 -1.24197956e-02
      3.71680013e-03 4.53885011e-02 4.59434949e-02 -8.87837168e-03
      -5.51570067e-03 7.65044766e-04 -3.06898775e-03 -1.35116884e-02
      -1.85310710e-02 1.07316661e-03 4.40257601e-02 2.07651369e-02
      -1.74687635e-02 -1.33917164e-02 -3.04311252e-04 -1.08352900e-02
      -1.17962118e-02 -1.40375448e-02 1.53044257e-02 6.00131899e-02
      2.21591676e-03 -3.63581032e-02 -8.82046018e-03 4.97182831e-04
      3.54592106e-03 -3.39192362e-03 -4.16574022e-03 1.13197658e-02
      3.07496972e-02 -7.03234971e-03 -2.82952022e-02 -1.68369133e-02
      -5.28707961e-03 1.85582619e-02 2.51047574e-02 2.53958926e-02
      1.85374152e-02 7.86060747e-03 2.12943163e-02 -1.15936007e-02
      1.10978521e-02 1.99359911e-03 2.03310512e-03 -4.16975887e-03
      -7.86964316e-03 1.53071107e-02 3.84451412e-02 1.10067101e-03
      1.36817740e-02 1.73634067e-02 3.82630154e-02 1.75274909e-02
      7.55056646e-03 -8.73795804e-03 -2.68619880e-03 1.70670841e-02
      -1.46515016e-02 -1.02214273e-02 -9.18004382e-03 -4.56512393e-03
      2.91466769e-02 2.88292654e-02 1.41025260e-02 1.41486223e-03
      -2.49966513e-02 -2.53502019e-02 1.08460942e-03 1.52651698e-03
      4.70066769e-03 2.27370765e-02 1.72400847e-02 -9.95943483e-05
      -5.83079411e-03 -2.24896893e-02 -1.24786096e-02 3.90635664e-03
      1.27476286e-02 3.66620533e-02 2.06720177e-02 5.44475392e-03
      -1.28243165e-02 -1.10711157e-02 -2.34900955e-02 -2.02003382e-02
      8.58222693e-03 1.23561528e-02 2.67024301e-02 2.36970652e-02
      -4.44410695e-03 -2.58948766e-02 -1.00282561e-02 -1.66218132e-02
      -5.52707526e-04 -3.88130406e-03 -3.11560027e-04 1.95002183e-03
      2.64949689e-04 5.22001460e-03 -9.29943472e-03 3.38716572e-03
      1.14092855e-02 1.81018952e-02 -9.17535555e-03 -4.43620654e-03
      -1.13432715e-02 -4.32664907e-04 1.11114299e-02 -5.23855956e-03
      1.34091182e-02 1.42105641e-02 -3.70553904e-03 -5.69207733e-03
      2.66209058e-03 5.80396317e-03 -1.01348422e-02 -2.74567225e-04
      2.48247921e-03 4.75378521e-03 1.61258969e-02 8.34397413e-03
      1.03940908e-02 -1.30599341e-03 -1.88444890e-02 -1.12154223e-02
      8.40703584e-03 1.01516871e-02 4.89753298e-03 1.65151618e-02
      1.82043258e-02 -1.12932511e-02 1.41299912e-04 -1.13263624e-02
      -1.02886176e-02 2.36320682e-03 -1.80925452e-03 -1.82854291e-02
      2.52527613e-02 3.05809807e-02 -2.24750210e-03 -7.55080581e-03
      -5.10543026e-03 -1.33700622e-02 -1.07447605e-03 -6.95273094e-03
      -1.35194929e-02 4.28961292e-02 -6.20383769e-03 1.52503746e-02
      2.02831496e-02 -1.47833927e-02 -1.77949611e-02 -1.20398111e-03
      7.65544595e-03 -7.03394925e-03 6.35978812e-03 2.07393127e-03
      1.71780381e-02 2.01452225e-02 -1.85298012e-03 -3.34757520e-03
      1.08884100e-03 -5.04956907e-03 -1.56069752e-02 -1.90362436e-04
      5.80928382e-03 -8.57579522e-03 -6.07053982e-03 2.38621095e-03
      5.91346063e-04 1.51617359e-02 1.71078951e-04 -8.21872801e-03
      2.79084779e-02 -1.15567101e-02 -1.44370301e-02 1.38625605e-02
      2.83137783e-02 3.97376083e-02 3.84836681e-02 1.27790375e-02
      -1.94141399e-02 -7.98589177e-03 9.01552441e-04 1.01678772e-02
      1.92249287e-02 -1.37035051e-04 9.61957686e-03 3.84434662e-03
      -3.75018013e-03 -5.55986026e-03 3.51357460e-03 -1.73512399e-02
      9.53235105e-03 5.01440577e-02 2.59815808e-02 1.38797918e-02
      3.02000213e-02 -1.18948044e-02 -9.78849828e-03 -2.09521279e-02
      6.12339657e-03 -7.13985972e-03 8.35303497e-03 2.92829555e-02
      4.23543751e-02 3.91335376e-02 1.29249850e-02 -2.84899492e-02
      -6.62445091e-03 -3.35327978e-03 8.15501902e-03 2.13536639e-02
      1.81631260e-02 2.23847423e-02 1.81096792e-02 8.63811374e-03
      -1.81965139e-02 -2.50355918e-02 -4.27093208e-02 -2.85589206e-03
      3.15173827e-02 4.18156199e-02 2.45929286e-02 2.60221027e-02
      2.73084156e-02 -1.01577351e-02 -2.08893921e-02 -4.97431029e-03
      1.24421623e-02 3.94061022e-02 3.20657045e-02 7.39606656e-03
      1.26654468e-02 2.38898098e-02 -1.75528917e-02 -2.47177165e-02
      -2.48737987e-02 1.51485261e-02 2.46206336e-02 2.07844563e-02
      1.18505061e-02 -1.36113185e-02 -3.78311216e-03 -7.62187596e-03
      -2.94474345e-02 -2.94773206e-02 8.01411830e-03 2.89394315e-02
      4.89131957e-02 4.15593013e-02 1.34593230e-02 -6.95709838e-03
      3.06546735e-03 -3.20630036e-02 -1.09731527e-02 2.42453534e-02
      5.38928732e-02 3.47533487e-02 -8.36597383e-03 -2.19420679e-02
      -1.19928392e-02 -6.24929322e-03 -2.10339185e-02 -3.00931446e-02
      1.89402271e-02 4.93279472e-02 7.22516552e-02 4.04642560e-02
      1.63292903e-02 -6.29136432e-03 -2.57570501e-02 -3.38506848e-02
      -1.12111410e-02 -1.26709845e-02 1.96047854e-02 1.72802750e-02
      3.14100198e-02 -3.46626621e-03 -1.06514487e-02 -9.22464672e-03
      -2.68737711e-02 2.70080450e-03 1.64673384e-02 2.76058298e-02
      1.98444370e-02 3.44657525e-02 -1.17739653e-02 -1.50985382e-02
      -1.17688961e-02 -1.07904067e-02 -2.58698687e-02 -9.04131308e-03
      3.52997035e-02 3.84466983e-02 1.66963488e-02 1.98509973e-02
      1.46704046e-02 -1.63027663e-02 -3.85271087e-02 -8.24670866e-03
      2.75525101e-03 1.95674859e-02 2.51326081e-03 1.06272083e-02
      1.53578846e-02 2.28712540e-02 1.18216476e-03 -8.01846758e-03
      1.43563757e-02 -7.08844746e-03 5.95631404e-03 -7.11694884e-05
      4.43331758e-03 -9.21298377e-03 -1.61497928e-02 7.56799290e-03
      2.21030600e-02 1.08263828e-02 -2.20396742e-02 -5.70188416e-03
      -2.33617541e-03 -7.53597636e-03 -1.13127148e-02 -1.54663101e-02
      1.24218557e-02 5.70475757e-02 -1.59389549e-03 -1.13628581e-02
      2.24407646e-03 -1.13704549e-02 7.54592568e-03 9.54553671e-03
      -2.98778992e-03 2.52957363e-02 2.39137691e-02 -2.96556437e-03
      -2.60639656e-02 -1.12322951e-02 -6.23904867e-03 -7.73388718e-04
      6.26991782e-03 -1.85828730e-02 2.28242297e-02 4.97141145e-02
      1.58336367e-02 -1.52168013e-02 2.92886607e-03 9.15036828e-04
      -4.65839496e-03 -8.15961324e-03 -1.86710600e-02 7.96706695e-03
      3.79354209e-02 2.36574393e-02 1.58473793e-02 2.58819703e-02
      2.28292365e-02 3.58349690e-03 -1.30355414e-02 -2.34470107e-02
      -6.36997772e-03 4.90916753e-03 6.22195564e-03 -1.68250073e-02
      -2.68389820e-03 -2.53730151e-03 -7.26774614e-03 -6.70029316e-03
      -1.90598797e-02 3.75225698e-03 3.08256075e-02 3.03514153e-02
      2.99392957e-02 1.91658605e-02 -7.50511233e-03 -1.57885216e-02
      -1.56265050e-02 -2.74638161e-02 4.33675898e-03 1.56321637e-02
      -9.99944843e-03 1.65949706e-02 2.29216740e-02 3.23679037e-02
      1.26029877e-02 -1.37214456e-02 -1.73248183e-02 -1.12763103e-02
      -9.67567414e-03 -2.04262491e-02 1.15790516e-02 1.88329984e-02
      1.80740207e-02 1.63824931e-02 -1.93634536e-02 -2.10319366e-02
      -6.17637299e-03 -1.00645078e-02 1.98355336e-02 4.66839522e-02
      3.77031080e-02 -8.79343692e-03 2.97019025e-03 -2.12314297e-02
      -1.30653651e-02 -9.51622706e-03 -8.56710505e-03 -1.17868185e-03
      1.99324135e-02 2.49608848e-02 -1.25647720e-03 6.15870440e-03
      -2.28255391e-02 -3.60223767e-03 -3.98058305e-03 -2.05482058e-02
      1.58562511e-03 -9.77850705e-03 -1.79726165e-02 -7.10909860e-03
      -8.34835880e-03 -7.71751348e-03 6.56965002e-03 2.46641343e-03
      1.61401555e-02 2.41596289e-02 2.20995657e-02 -7.38902541e-04
      -2.96454802e-02 -2.80862190e-02 -2.33525247e-03 4.61750478e-03
      1.29350612e-03 9.60764103e-03 1.28352828e-02 6.54998468e-03
      -4.44835378e-03 -1.64528396e-02 -1.01485848e-03 9.02208406e-03
      1.15780598e-02 -2.84644426e-04 -1.00437393e-02 1.82216559e-02
      2.34824866e-02 1.90603882e-02 -1.18130473e-02 -2.69708652e-02
      -1.98019985e-02 4.82970616e-03 -2.93343182e-04 -5.06405206e-03
      -1.78817622e-02 2.02290826e-02 1.59983728e-02 -1.50437495e-02
      -1.25189070e-02 -1.15506526e-03 -1.81125675e-03 1.16487197e-03
      -6.49745017e-03 -1.14366543e-02 2.11491697e-02 1.25814537e-02
      -6.17237110e-03 -8.63141031e-04 9.27124565e-05 -5.21960296e-03
      -1.68694314e-02 -3.08407005e-03 -3.55534032e-02 1.91025455e-02
      3.08267828e-02 -5.59464982e-03 -1.72887649e-02 -3.75754479e-03
      -3.56015656e-03 -1.26641551e-02 -1.74430311e-02 -2.19194479e-02
      1.31883752e-02 1.23928236e-02 -9.30512231e-03 -8.34754016e-03
      -6.64230483e-03 -6.30177651e-03 -2.35268753e-03 -2.00994476e-03
      1.82475185e-03 1.70270000e-02 1.36435749e-02 -1.01850368e-02
      7.44855637e-03 -9.13947646e-04 -8.23917799e-03 -4.19505686e-03
      2.04835832e-03 -2.19032355e-02 1.45241031e-02 3.76743153e-02
      6.70658890e-04 -6.81232475e-03 5.90580609e-03 -3.02822795e-03
      -4.03415086e-03 -1.62263066e-02 1.72017850e-02 2.75646546e-03
      3.01649072e-03 -1.06390787e-03 6.52922830e-03 -3.42251128e-03
      -2.82934331e-03 2.33375048e-03 -4.89505287e-03 -1.38579225e-02
      -1.46605661e-02 2.43079606e-02 -7.53998943e-03 3.22832540e-03
      1.53644215e-02 5.13343560e-03 2.58167204e-03 -1.50389364e-02
      -2.67710667e-02 5.19656111e-03 2.77638007e-02 6.91053504e-03
      -1.32163977e-02 2.38171639e-03 1.01854373e-02 5.38180524e-04
      -3.32111120e-03 5.81551809e-03 8.51755776e-03 2.92979032e-02
      -6.21587387e-04 -2.60542333e-02 -1.04366206e-02 1.60096604e-02
      -5.98208338e-04 -2.10886775e-03 -1.18411621e-02 1.42277707e-03
      2.05522105e-02 -2.88289413e-02 -2.39298679e-02 1.43922195e-02
      1.94892921e-02 9.14061349e-03 1.85565725e-02 3.41513269e-02
      1.13009093e-02 1.71134621e-02 -3.44947763e-02 -4.65901121e-02
      -1.52435375e-03 1.18919527e-02 1.84490941e-02 1.91490185e-02
      3.70955607e-03 7.00315274e-03 2.75065377e-02 2.49183476e-02
      -2.18914971e-02 -2.22685076e-02 -2.61390558e-03 -1.11834686e-02
      -8.88977572e-03 -2.51099970e-02 -6.70865364e-03 3.20206657e-02
      4.72591482e-02 5.64732822e-03 -3.20629426e-03 5.57258318e-04
      -2.04776768e-02 -1.33415638e-02 3.57145295e-02 1.78149361e-02
      2.38349624e-02 5.42852515e-03 -4.04503196e-02 -2.53512170e-02
      -7.33585702e-03 1.09802987e-02 2.00860426e-02 1.00527881e-02
      -3.94612830e-03 2.32663807e-02 2.09595356e-02 -3.85926862e-04
      -9.41366516e-03 8.05316027e-03 2.67283563e-02 1.47864055e-02
      -1.96133293e-02 1.20449311e-03 2.07391419e-02 1.61494613e-02
      -1.16744163e-02 1.65546853e-02 2.38370225e-02 5.91896428e-03
      -2.20024679e-02 1.20695739e-03 5.64093608e-03 1.26075558e-02
      -2.04136278e-02 -2.54156850e-02 1.41005255e-02 1.93435494e-02
      2.88030989e-02 4.82135126e-03 -2.32131649e-02 -8.29932280e-03
      9.23884800e-04 4.01419122e-04 -1.46306437e-02 -1.54209533e-03
      1.83963105e-02 5.19361645e-02 2.79539498e-03 5.09883161e-04
      -5.52093517e-03 -3.80323618e-03 -2.07779091e-02 -3.40727568e-02
      -1.18759694e-02 2.71063996e-03 3.26826759e-02 7.86635745e-03
      7.29201734e-03 -6.48220768e-03 -7.10768299e-03 -1.74983218e-02
      -6.96361437e-03 4.47106687e-03 -1.26676485e-02 1.71775762e-02
      9.11758002e-03 1.08771620e-03 -2.39448082e-02 -1.62339844e-02
      -6.46852329e-03 -4.06504935e-03 3.26089561e-03 -1.39311580e-02
      5.44450758e-03 3.67650986e-02 1.43946819e-02 -6.24369318e-03
      -9.27711837e-03 -1.23463441e-02 -1.25921797e-02 1.51683670e-03
      -2.82187536e-02 2.43103737e-03 1.92613807e-02 2.51879683e-03
      -5.70457522e-03 -1.15525825e-02 -1.04065165e-02 -1.38500100e-02
      -6.94001559e-03 -2.08207555e-02 3.57606425e-03 3.79827507e-02
      2.24833339e-02 -1.07941087e-02 -5.34661114e-03 -6.90278085e-03
      -3.51231545e-03 -4.61673783e-03 -6.32711267e-03 -2.31016384e-04
      1.75756328e-02 3.16553228e-02 2.00636741e-02 4.17364249e-03
      -2.17719432e-02 -2.02901438e-02 -1.15157524e-02 -1.18001113e-02
      -9.14507487e-04 2.61255782e-02 2.10986938e-03 1.58879021e-03
      -1.15993014e-02 -1.16775865e-02 4.45258850e-03 -6.12318143e-03
      -1.34445289e-02 -4.49678209e-03 2.76490189e-02 2.54925876e-03
      -1.09384786e-02 -9.13082715e-03 -2.63812505e-02 -1.46909524e-02
      -4.27181926e-03 4.23026178e-03 -9.89141222e-03 1.88813992e-02
      2.94781961e-02 4.79294769e-02 2.12405268e-02 -3.41241388e-03
      -4.44406969e-03 -1.31099913e-02 -5.30072581e-03 -1.12790428e-03
      1.33887795e-03 1.22776553e-02 3.68826389e-02 5.97772701e-03
      4.37362352e-03 3.37596983e-03 -1.64431930e-02 -6.42590038e-03
      -7.09978305e-03 -1.51154278e-02 1.27535807e-02 -4.14359942e-03
      -1.93513315e-02 -5.22842910e-03 -1.19993957e-02 3.69121414e-03
      1.35367522e-02 1.65811908e-02 2.15727668e-02 1.50479586e-03
      8.08645599e-03 -1.80577934e-02 1.78247795e-03 1.20560604e-03
      -2.28323392e-03 1.20667703e-02 1.57188494e-02 -1.17872357e-02
      -7.74674583e-03 1.08557258e-04 7.41182454e-03 -6.26127282e-03
      -1.43733127e-02 -3.74203140e-04 9.99628380e-03 9.20992531e-03
      -9.34983604e-03 -6.80078194e-03 1.57057941e-02 1.91620532e-02
      1.51937706e-02 -2.24702395e-02 -1.01733590e-02 7.70812808e-03
      -1.67373917e-04 -1.02888579e-02 -2.06522504e-03 8.15118849e-03
      -1.23065971e-02 1.50184110e-02 -1.64737329e-02 -6.65483857e-03
      1.21766319e-02 8.22188146e-03 -7.92929903e-03 -1.20583670e-02
      8.83224607e-03 1.39694661e-02 2.44873520e-02 -8.61348119e-03
      -1.57671925e-02 1.05774794e-02 7.92343728e-03 -1.53203215e-02
      -1.21253207e-02 3.07681151e-02 4.00658548e-02 3.75605351e-03
      -1.53822210e-02 -5.52786142e-03 -7.57242739e-03 -1.27499485e-02
      -2.70777196e-02 5.67291724e-03 3.99424471e-02 3.54122669e-02
      -1.09853894e-02 -1.00246184e-02 -7.71976076e-03 -7.82664400e-03
      -1.03702527e-02 -2.44107340e-02 -3.09257507e-02 1.33340396e-02
      4.20307703e-02 4.24905457e-02 -8.08616076e-03 -1.28023839e-02
      -1.21336477e-02 -1.00515271e-02 -2.95326207e-02 -9.39583126e-03
      3.85467261e-02 3.59163545e-02 1.66788243e-03 -1.64292175e-02
      -1.75569411e-02 -1.33563047e-02 -6.04036590e-03 -3.16316113e-02
      1.80074163e-02 1.51007697e-02 1.19166318e-02 1.22714974e-03
      -1.48161314e-03 6.64806692e-04 -6.25235043e-05 -1.17330952e-03
      -3.27429082e-03 -1.96464341e-02 -1.58844031e-02 4.14712839e-02
      1.06303664e-02 3.74299777e-03 1.67562366e-02 4.52676648e-03
      3.45393829e-03 -1.39786648e-02 -1.15758898e-02 7.70427193e-03
      3.02845556e-02 1.15050003e-02 -7.67293246e-03 1.60948839e-03
      5.53611247e-03 8.25772528e-03 -2.02650856e-02 -4.42830883e-02
      -4.09102300e-03 3.54171619e-02 3.27921659e-02 2.95008300e-04
      1.57072507e-02 7.29277963e-03 1.06216427e-02 -2.05769893e-02
      -1.01245698e-02 -9.92283924e-04 1.61211323e-02 -2.62345653e-02
      -1.19025372e-02 9.67975892e-03 9.12397169e-03 8.61749798e-03
      3.83480801e-03 2.42095627e-02 2.11880598e-02 1.50880404e-02
      -3.30290869e-02 -3.78708877e-02 -1.25917057e-02 -1.15261413e-03
      1.05341440e-02 3.68511304e-02 -2.43199468e-02 -1.33819319e-02
      3.68356518e-02 -1.06141800e-02 -8.19263980e-03 -5.48331300e-04
      1.68070337e-03 8.65681190e-03 1.74539629e-04 1.89028941e-02
      2.40695979e-02 1.01927239e-02 -1.50289061e-02 -2.76664887e-02
      -1.34082036e-02 -1.34374546e-02 6.13712566e-03 3.60184200e-02
      2.06279103e-02 1.48062650e-02 1.70543641e-02 -1.28508341e-02
      -2.89376061e-02 -1.63041633e-02 -9.00539849e-03 1.97443590e-02
      3.40081230e-02 5.61447954e-03 -2.03853101e-03 3.82249476e-03
      -1.48365842e-04 -1.98105834e-02 -1.97474938e-02 5.47289033e-04
      4.47380580e-02 1.55662559e-02 3.62889236e-03 -3.40650976e-03
      9.79476701e-03 -2.29463298e-02 -2.34191995e-02 -1.41063388e-02
      -1.57399662e-02 3.13751660e-02 4.19927873e-02 -7.45960930e-03
      -7.12806766e-04 -1.05335731e-02 -1.34921344e-02 -1.88789964e-02
      -2.73031220e-02 -6.07223762e-03 4.20031995e-02 2.84169354e-02
      -4.62330878e-03 -5.42503688e-03 -4.74563753e-03 -7.10587855e-03
      -1.39888534e-02 -1.51951239e-02 9.05835722e-03 4.95847985e-02
      -1.04841422e-02 7.85826799e-03 -7.98304752e-03 -6.42922428e-03
      -7.20935175e-03 -4.99041239e-03 -2.29463959e-03 -3.74991936e-03
      3.04904226e-02 1.30475387e-02 -1.81915129e-05 -1.66121894e-03
      -1.01121599e-02 -9.13109072e-03 -1.00439843e-02 -1.52089531e-02
      3.97159066e-03 2.27432661e-02 -1.11136250e-02 -3.13704921e-04
      -1.75456051e-03 -5.46805514e-03 -1.87917601e-03 1.50726701e-03
      2.60917842e-03 -1.54980198e-02 4.86383354e-03 2.37908512e-02
      4.79449565e-03 -3.36839026e-03 -2.70309090e-03 -1.69351639e-03
      -1.65990973e-03 3.89036559e-03 -1.29138036e-02 9.87922959e-03
      3.51582393e-02 -1.08810570e-02 -2.59480160e-03 -1.02411746e-03
      -1.30756607e-03 -3.39182746e-03 -3.93941812e-03 -1.61978230e-02
      2.23741233e-02 5.09973429e-02 -1.60191841e-02 -6.31714752e-03
      -4.11756430e-03 6.81790872e-04 4.35624784e-03 -2.61393562e-03
      -2.23722104e-02 5.04292455e-03 2.19284613e-02 -2.43902374e-02
      -1.08841509e-02 3.10690491e-03 1.95418787e-03 2.96440208e-03
      -1.25099141e-02 -2.59642471e-02 2.82480586e-02 1.31127294e-02
      -8.51226598e-03 -1.11409603e-03 -2.09158589e-03 -3.08299297e-03
      -6.72526425e-04 -6.25388604e-03 -1.58243366e-02 2.85255560e-03
      3.30831446e-02 -8.27011466e-03 -3.50584462e-03 -7.17383204e-03
      -1.03221918e-02 -6.01396058e-03 5.02010866e-04 7.73765380e-04
      2.10362412e-02 1.25654163e-02 -1.52547201e-02 -5.17757563e-03
      3.28064524e-03 -5.76905906e-03 -3.63203418e-03 -1.76919326e-02
      -3.39003317e-02 3.22155207e-02 8.24407116e-03 -1.60505679e-02
      -4.01079375e-03 -2.71390448e-03 -9.33224522e-03 -1.20485593e-02
      3.89167131e-03 1.85270775e-02 2.99948007e-02 -1.78345933e-03
      -5.08864922e-03 -1.53164528e-02 -1.42258499e-02 -5.94577380e-03
      -8.17303779e-04 1.17517766e-02 1.50425304e-02 2.37965714e-02
      1.02960141e-02 -1.73239335e-02 -1.31651917e-02 -1.87630579e-02
      -4.78515401e-03 -1.41587923e-04 7.32070720e-03 1.53878247e-02
      3.34449206e-03 -1.19328843e-02 -1.03488723e-02 -1.79417375e-02
      -5.93937002e-03 8.22884787e-04 1.25366244e-02 1.90046988e-02
      3.03165410e-02 6.77968562e-03 2.23992160e-03 -1.89510174e-02
      -2.30755433e-02 -5.50788408e-03 1.18653066e-02 1.09261107e-02
      3.02135963e-02 1.33292414e-02 1.55761978e-03 -1.33900400e-02
      1.06643629e-03 1.04884943e-02 -4.60675731e-03 1.44310594e-02
      -1.41790230e-02 -5.98838972e-03 4.79446212e-03 8.76654987e-04
      -8.65825359e-03 -3.09895794e-03 1.89031102e-03 2.08482966e-02
      3.44289094e-02 -2.81178486e-03 -4.37737210e-03 2.41984823e-03
      4.38912259e-03 -1.02680828e-02 -8.80556274e-03 5.19649824e-03
      5.86414384e-03 3.91488476e-03 -8.38228315e-03 1.38000147e-02
      4.96234745e-03 -5.44392923e-03 -1.17968032e-02 2.25870172e-03
      -4.80773998e-03 -5.96615905e-03 1.75531656e-02 -1.95803563e-03
      1.92203615e-02 6.97023282e-03 1.33636082e-03 -4.88816993e-03
      -1.90625750e-02 -9.80382506e-03 3.13583612e-02 3.50546353e-02
      3.75306187e-03 -3.56204063e-03 -5.13232127e-03 7.56699359e-04
      -1.10927895e-02 -2.11536773e-02 9.85834002e-03 2.85652801e-02
      1.54087432e-02 -1.80252537e-03 -7.60303903e-03 -4.37380234e-03
      5.73829701e-03 -1.48093868e-02 2.06439709e-05 5.76056214e-03
      -1.04654422e-02 1.51809293e-03 1.19018564e-02 1.95073839e-02
      3.50495451e-03 1.08546549e-02 3.68556683e-03 -1.17102629e-02
      2.34486964e-02 3.35029699e-02 1.22650051e-02 4.04530205e-03
      6.98101241e-03 3.65320803e-03 3.52860428e-03 -4.97908099e-03
      -2.58326437e-02 -2.76042311e-03 2.87676062e-02 1.58357024e-02
      -5.81801031e-03 8.61760112e-04 6.07887143e-03 9.67929419e-03
      -1.50706749e-02 -4.34135869e-02 -1.80493798e-02 6.26417845e-02
      2.20747814e-02 -8.61907657e-03 3.56250163e-03 3.74805299e-03
      5.65609848e-03 -1.53983356e-02 -2.08984353e-02 2.73504108e-02
      5.45582473e-02 1.39751602e-02 -3.99750890e-03 -6.18749345e-03
      6.60363294e-04 2.15524319e-03 -1.75981242e-02 -3.92557494e-02
      1.02203591e-02 5.98571971e-02 2.20054779e-02 -1.04753040e-02
      -6.39821077e-03 -4.93741420e-04 -8.21007299e-04 -2.27335077e-02
      -4.07948270e-02 -1.70298070e-02 5.56054637e-02 4.85256780e-03
      -4.34316974e-03 -2.65229819e-03 -7.39171461e-04 7.54210691e-04
      -9.57410302e-05 3.61841448e-05 1.03839417e-03 3.46605852e-02
      -7.08953291e-03 -1.09225297e-02 -8.38798750e-03 -1.74426064e-02
      -1.77488360e-03 3.20936516e-02 -5.40089458e-02 -1.87978372e-02
      5.58364466e-02 1.94596741e-02 1.79444323e-03 -6.17382291e-04
      -1.31284958e-03 9.10767703e-05 -9.51958075e-03 -2.69344151e-02
      -3.37399058e-02 3.75151262e-02 8.57018400e-03 9.41727649e-06
      -4.66864835e-03 -1.04332101e-02 2.74828356e-03 -7.15236040e-03
      -9.44338925e-03 -1.82688609e-02 1.05957044e-02 -1.31943263e-02
      -1.25103928e-02 -5.48695400e-03 -8.27831961e-03 2.64580026e-02
      4.56744768e-02 -1.63104311e-02 -1.58739332e-02 -9.59249027e-03
      -1.43479845e-02 -9.28718597e-03 -1.65052470e-02 5.20625338e-03
      3.82991694e-02 3.25125903e-02 -2.00843588e-02 -1.45157417e-02
      1.05413226e-02 4.58579464e-03 -9.43448103e-05 -2.46653752e-03
      -9.89484694e-03 -2.20702565e-03 1.29030207e-02 -2.42764633e-02
      -9.24819894e-03 -1.87400682e-03 -2.83296918e-03 2.80187232e-03
      -1.94841833e-03 1.93604007e-02 3.52300443e-02 6.96217408e-03
      -7.90255424e-03 -4.89317486e-03 -1.02694426e-02 -7.84712005e-03
      -5.68017038e-03 -4.43811342e-03 8.94002151e-03 3.30843031e-02
      -1.28691234e-02 -6.40287297e-03 -4.32836777e-03 -6.85001723e-03
      -4.04485175e-03 5.59215376e-04 4.71879635e-03 1.02496687e-02
      2.50357557e-02 -8.93330388e-03 -3.01489998e-02 -7.25032389e-03
      -5.90664661e-03 -3.92988836e-03 -3.62349791e-04 -1.28346728e-03
      3.48467901e-02 3.64246741e-02 -3.66361775e-02 -3.34800184e-02
      -6.32774271e-03 -5.84221724e-03 -5.67235844e-03 -1.70179922e-03
      -5.18193422e-03 3.97146791e-02 2.36930009e-02 -3.41499299e-02
      -1.14281652e-02 -5.45512279e-03 -4.66838479e-03 -2.48307129e-03
      2.21157144e-03 -1.98440137e-03 -5.52125461e-03 3.09680961e-02
      -4.32839198e-03 -2.82217897e-02 -8.81244335e-03 1.04748702e-03
      -2.23094411e-03 1.58284011e-03 -4.77692485e-03 -1.75238994e-03
      4.72457334e-02 7.65978219e-03 -2.46319715e-02 -4.34202654e-03
      -4.08213120e-03 -5.89890778e-03 -2.29780236e-03 -6.70386199e-03
      1.73070505e-02 4.48298305e-02 -2.89339628e-02 -3.93306538e-02
      -5.35643985e-03 -2.57918146e-03 -5.57234464e-03 -4.09950642e-03
      -2.69554742e-03 1.10956430e-02 4.15989272e-02 1.53456423e-02
      -1.12759322e-02 -3.31057631e-03 4.26355563e-03 -5.45607693e-03
      -8.63175665e-04 -6.37909444e-03 -2.02989392e-02 3.11390404e-02
      1.03110103e-02 -1.39225423e-02 -8.73677433e-04 3.03396396e-03
      -3.65513167e-03 -6.34214934e-03 1.49286008e-02 2.62946915e-02
      1.96560062e-02 4.17762343e-03 -1.04291681e-02 -2.32259816e-04
      -4.27890010e-03 -1.21012526e-02 -2.34781648e-03 -1.00359553e-02
      3.64170014e-03 3.11418027e-02 1.02473581e-02 1.78602539e-04
      5.28034242e-03 1.08310711e-02 -6.39148522e-03 -2.03983695e-03
      -1.86187134e-03 8.62840621e-04 1.06867962e-02 -1.27342772e-02
      -1.16759837e-02 -9.64946765e-03 4.90382174e-03 3.10544809e-03
      7.23117543e-03 2.40369849e-02 1.24456631e-02 6.09338796e-03
      -1.34983910e-02 -1.64002888e-02 -1.75010990e-02 1.92935127e-04
      2.65676342e-03 1.09226285e-02 2.17647497e-02 2.35995720e-03
      -2.55600992e-03 -1.33405719e-02 -1.60620511e-02 -3.88247333e-03
      8.47313087e-03 1.57564767e-02 9.19935945e-03 1.40046570e-02
      -5.67514822e-03 -1.30575029e-02 -1.74789261e-02 -2.04944890e-02
      -1.51510416e-02 -9.80938040e-03 5.83250495e-03 1.09979399e-02
      2.01465283e-02 -6.98807603e-03 -6.14869781e-03 -2.06929278e-02
      -6.18178537e-03 -7.10551813e-03 1.41910103e-03 2.99524923e-04
      3.68040614e-03 3.11164111e-02 1.21894618e-03 -3.55026405e-03
      -2.83747283e-03 9.47768055e-03 -9.01117828e-03 -1.21781351e-02
      9.42367711e-04 -1.33274635e-03 2.77031027e-02 8.67692381e-03
      1.29813859e-02 8.07707757e-03 -3.58981243e-03 -1.54361287e-02
      -7.78583391e-03 -5.01778722e-03 -6.51128450e-03 3.77943888e-02
      4.37821634e-03 2.79608998e-03 -4.76904539e-03 4.66852589e-03
      -1.39788049e-03 -2.01986060e-02 -1.37144700e-02 -1.87338572e-02
      1.59761962e-02 1.52630350e-02 2.93735210e-02 1.74847413e-02
      5.56165213e-03 1.06474990e-02 -1.21559529e-02 -9.44903772e-03
      1.79872406e-03 1.28179304e-02 8.64171516e-03 1.38830403e-02
      2.99629872e-03 3.36538581e-03 4.13496122e-02 2.52400320e-02
      -1.53864194e-02 -7.98867457e-03 2.83449097e-03 -1.23659382e-04
      7.71512510e-03 -9.79019236e-03 8.71133432e-03 1.08989617e-02
      -5.27608022e-03 -2.14957036e-02 -2.00146735e-02 3.10378405e-03
      6.50776643e-03 2.70120203e-02 1.42300790e-02 7.71586783e-03
      4.29336019e-02 2.09659114e-02 -2.23582871e-02 -2.49193683e-02
      -1.77138988e-02 -7.88694900e-03 1.43247461e-02 8.26307852e-03
      -6.96301414e-03 3.73335406e-02 4.71530445e-02 -4.69696335e-03
      -3.74274654e-03 -3.79749155e-03 -1.93092937e-03 -2.71713873e-03
      -2.25477088e-02 -3.48745696e-02 2.61595603e-02 5.88384084e-02
      -8.44926806e-04 -2.08662660e-03 -1.21499249e-03 2.42759334e-03
      -3.77595052e-03 -2.93356739e-02 -6.17645588e-03 3.71206291e-02
      2.25510094e-02 -1.54893370e-02 -9.99358390e-03 -6.90509845e-03
      -4.82336571e-03 -3.68604669e-03 -3.91833782e-02 -1.03963735e-02
      2.64841076e-02 2.29680259e-02 -9.05552972e-03 -6.90535735e-03
      -3.11037921e-03 1.20174689e-02 -2.56095105e-03 -3.76828797e-02
      -3.99179719e-02 1.58957951e-02 5.06558865e-02 1.92509331e-02
      4.50084032e-03 1.43148797e-03 1.49694947e-03 2.53444351e-03
      -3.60414293e-03 -3.02541889e-02 -1.90876666e-02 3.08713112e-02
      2.18289848e-02 3.49688623e-03 -6.69802423e-04 -2.90290429e-03
      9.23585333e-03 -3.94807849e-03 -1.52467738e-03 1.94034725e-02
      1.36123830e-02 4.41489508e-03 -4.18698089e-03 -6.61326898e-03
      5.96405566e-03 5.71227865e-04 -2.26326380e-02 -1.66916996e-02
      -4.96450113e-03 2.67623778e-04 2.11553350e-02 1.29107982e-02
      -7.52252992e-03 -1.12012075e-02 3.14515433e-03 -4.93657077e-03
      -1.12841902e-02 -7.23919924e-03 1.15669402e-03 1.17373755e-02
      3.13549303e-03 -5.30347228e-04 -8.00676178e-03 3.76593089e-03
      -1.09623978e-03 -1.86583940e-02 -5.48150763e-03 8.42495728e-03
      3.32472729e-03 1.69176143e-03 -4.52746591e-03 1.15041155e-02
      4.03835289e-02 3.04021244e-03 -1.59354359e-02 -8.61830916e-03
      1.89192395e-03 2.10382733e-02 1.30183566e-02 -4.38192952e-03
      -9.84781887e-03 1.13760661e-02 -1.77152678e-02 -1.79581698e-02
      -1.87797509e-02 7.03107798e-03 7.84472469e-03 3.69092263e-03
      -5.90940658e-03 -2.50679981e-02 2.65557487e-02 1.60804000e-02
      -3.06369271e-02 -3.50397313e-03 -2.41634887e-04 -1.67460181e-04
      1.77050103e-03 -3.40502942e-03 3.95882763e-02 3.91326286e-02
      -4.00203690e-02 -3.37850079e-02 -8.06052890e-03 -2.51338026e-03
      -2.10119248e-03 -1.00935309e-03 -1.15936836e-02 4.69675250e-02
      2.89193820e-02 -4.01990749e-02 -1.29785426e-02 -8.69153440e-03
      -6.95226656e-04 -7.94700347e-03 6.12106640e-03 6.39077090e-03
      7.80838309e-03 2.19269656e-02 9.75401700e-03 -9.08344798e-03
      -9.19014961e-03 -1.71267020e-03 7.32047623e-03 1.34931775e-02
      -2.52345297e-03 2.00290047e-02 4.06888127e-02 -1.76762370e-03
      -2.54222006e-02 -2.61851097e-03 -2.05344986e-03 -3.27061571e-04
      -1.94771599e-03 -8.04006215e-03 1.39596779e-02 5.45783266e-02
      -2.17521377e-02 -2.77954116e-02 -7.50730978e-04 -6.94893999e-04
      -4.40743100e-03 -5.49683208e-03 -1.76035184e-02 1.48079405e-02
      5.39928675e-02 1.40834386e-02 -2.23574862e-02 1.86384842e-03
      3.56956990e-03 7.62866065e-03 -4.91229072e-03 -7.12392153e-03
      -8.32399260e-03 3.66930403e-02 -6.23642746e-03 -3.47725488e-02
      5.14875492e-03 -1.91274085e-04 -2.15253117e-03 -1.32869491e-02
      -1.29349437e-02 -2.32180627e-03 5.58595657e-02 1.37492921e-02
      1.96778728e-03 8.04638863e-03 -7.48287828e-04 -3.69800953e-03
      -6.83504436e-03 -2.01075934e-02 1.04126974e-03 2.13642251e-02
      1.68647952e-02 1.85780097e-02 8.35906155e-03 1.66016892e-02
      5.22108562e-03 -1.08123748e-02 -1.54250544e-02 -3.82395461e-03
      3.16031091e-03 1.20214047e-02 -1.78722863e-03 -3.51429381e-03
      -1.73915163e-04 -4.23639780e-03 -1.74886268e-02 -2.60670260e-02
      -1.99509203e-03 3.94126512e-02 1.47779332e-02 1.45817613e-02
      9.20429081e-03 1.04804179e-02 5.00187604e-03 -2.41802540e-02
      -3.30109745e-02 -1.45864906e-02 1.49723291e-02 2.26238295e-02
      -1.67268992e-03 -4.12656227e-04 1.08106798e-02 2.68439185e-02
      1.21310260e-02 2.97402753e-03 -9.35228541e-03 -4.23114933e-03
      -3.58109665e-03 -1.20645175e-02 -1.35285351e-02 -1.97716733e-03
      1.35510126e-02 2.00233925e-02 2.15780400e-02 -1.03575103e-02
      -3.95982573e-03 -1.14242369e-02 2.66232132e-03 -7.12213805e-03
      9.88223683e-03 1.23610934e-02 -3.06539400e-03 -1.65549107e-02
      -1.64582711e-02 9.01193637e-03 1.05817113e-02 -1.30695393e-02
      -8.75700847e-04 9.60350008e-05 1.61239300e-02 1.82413589e-02
      8.37863144e-03 -1.66924633e-02 -6.30125683e-03 -1.18606780e-02
      -4.10105847e-03 -1.37462905e-02 -2.87433225e-03 -4.00069449e-03
      -2.42592752e-04 2.90158484e-02 1.10538825e-02 5.65015757e-03
      -5.26438933e-03 8.52901302e-03 7.37296650e-03 -4.06181253e-03
      -1.65995434e-02 -2.33329516e-02 1.03540607e-02 3.71729466e-03
      2.71380562e-02 1.99136566e-02 2.09116330e-03 -1.54831093e-02
      -5.17984247e-03 -4.94370004e-03 -3.04901530e-03 5.73605997e-03
      4.59780777e-03 1.75578538e-02 1.48105314e-02 1.25443432e-02
      1.07053248e-02 -6.71218033e-04 -4.44614887e-03 -1.43062724e-02
      -1.98857132e-02 2.96737626e-03 2.45233513e-02 2.09095348e-02
      1.29696652e-02 1.71294231e-02 1.58282127e-02 -1.90770738e-02
      -2.51038298e-02 -3.71090951e-03 -1.39720132e-05 1.86816473e-02
      1.62867717e-02 6.21278910e-03 3.59098800e-02 4.15555984e-02
      -1.09074637e-02 -2.85819806e-02 -1.58791319e-02 -6.69388706e-03
      1.23832133e-02 1.16210934e-02 1.40300039e-02 2.61979867e-02
      1.12714050e-02 -1.34543125e-02 -2.62948498e-02 -8.48813448e-03
      -1.85455626e-03 8.11540894e-03 1.59385689e-02 -1.03593303e-03
      2.53993589e-02 2.17695162e-02 -1.17409471e-02 2.27712188e-03
      -7.30522210e-03 -1.47853303e-03 9.82796215e-03 8.79884511e-03
      -1.49568263e-02 3.99501324e-02 3.94333638e-02 6.85952790e-03
      -9.83987190e-03 -3.30591993e-03 2.72951229e-03 -1.12812893e-04
      -3.42396200e-02 6.69115037e-03 3.99785340e-02 1.13906404e-02
      2.82085314e-03 -1.06254555e-02 -6.24957727e-03 1.00686559e-02
      1.81818148e-03 -2.49050483e-02 -1.70556903e-02 6.86678896e-03
      1.66947115e-02 1.12481164e-02 1.86856799e-02 -2.62166228e-04
      7.14073982e-03 2.42552208e-03 2.37520807e-03 6.48775790e-03
      2.79275812e-02 3.64022492e-03 5.59988548e-04 8.36902205e-03
      -1.30808130e-02 -1.05356252e-04 -9.05067287e-03 -8.57111998e-03
      8.68714228e-03 2.55349334e-02 -4.68579540e-03 6.43809233e-03
      -4.75583551e-03 -9.85895190e-03 5.23068663e-03 4.32372978e-03
      -2.20636725e-02 -1.14537971e-02 -1.58126634e-02 -6.22279430e-03
      1.70705896e-02 2.95537096e-02 5.54443151e-03 3.62852286e-03
      7.10177002e-04 -2.02764068e-02 1.58664230e-02 2.65232585e-02
      2.39541009e-03 -6.34529581e-03 -5.65140799e-04 -7.70264631e-03
      3.41545441e-03 -4.51633707e-03 -1.05120605e-02 5.81817329e-03
      -3.92796798e-03 -1.52994003e-02 2.27828510e-03 4.98357788e-03
      1.00964317e-02 9.39514954e-03 2.86055356e-03 -2.00406592e-02
      -3.13268229e-02 -1.72231533e-02 -7.54752755e-03 1.45674003e-02
      1.67558845e-02 8.03851988e-04 1.89013872e-03 9.23793763e-03
      -2.06529219e-02 -3.58378626e-02 -1.86873432e-02 -9.43065912e-04
      6.98269857e-03 3.30237905e-03 -1.30908927e-02 -2.05358732e-02
      1.93483401e-02 1.09339766e-02 -2.97929719e-02 -1.07458085e-02
      -6.94055436e-03 1.02430834e-02 7.53540220e-03 7.22720055e-03
      5.74814528e-03 -7.13249343e-03 -1.07904011e-03 -2.36474536e-02
      -1.87345743e-02 -1.32158643e-03 1.27396313e-02 -1.99313890e-02
      -1.90818086e-02 -1.09398309e-02 2.18446106e-02 2.42736582e-02
      -2.22680811e-02 -1.88767761e-02 -1.09425830e-02 -3.24181863e-03
      9.26306192e-03 4.11773706e-03 -1.45789497e-02 2.70754658e-02
      5.58768446e-03 -2.06573159e-02 -1.73131470e-02 -4.34240140e-03
      1.07100653e-02 2.42778268e-02 4.95906314e-03 -2.07017735e-02
      1.62528139e-02 1.34262666e-02 -2.25187503e-02 -2.31845807e-02
      -1.44916624e-02 1.36135630e-02 -1.73799018e-03 -9.90478229e-03
      -8.43336247e-03 3.49065512e-02 9.78581514e-03 -2.77933925e-02
      -2.15116702e-02 -1.50183896e-02 7.79533107e-03 8.10419023e-03
      3.58438329e-03 -3.37542817e-02 2.86142565e-02 7.94284511e-03
      -1.55475754e-02 1.10767940e-02 1.12379082e-02 7.53856497e-03
      3.92522430e-03 -1.42324483e-03 -2.62762550e-02 2.72207391e-02
      8.03514291e-03 -1.41973058e-02 1.89125501e-02 4.38355561e-03
      -5.99696720e-03 -1.28202317e-02 -7.50814192e-03 -1.25630908e-02
      4.16549519e-02 1.14563322e-02 -6.21871045e-03 9.73330229e-04
      6.51346426e-03 2.77859881e-03 1.20693855e-02 5.62521862e-03
      -2.91059725e-02 3.78124462e-03 1.40933581e-02 2.59911409e-03
      3.81887169e-03 4.32224153e-03 -4.20755520e-03 3.26084998e-03
      1.94073538e-03 -1.57544557e-02 4.36855946e-03 1.09411823e-02
      -3.89308250e-03 -8.85616973e-05 -9.18910082e-04 -3.76342307e-03
      -1.09145278e-02 -1.31536340e-02 9.83794034e-03 3.25765759e-02
      7.02210004e-03 1.53598040e-02 2.89105740e-03 -2.03650491e-03
      3.12100444e-03 -1.66611988e-02 -2.04551034e-02 4.74895351e-03
      2.86922380e-02 2.88847107e-02 3.21110780e-03 5.46514150e-03
      -3.16787278e-03 -2.48727645e-03 -2.59053847e-03 -1.45642052e-03
      -1.23053149e-03 1.63735896e-02 1.87773048e-03 5.13189286e-03
      7.00725615e-03 -9.13354661e-03 -1.31843996e-03 -1.94924939e-02
      2.55163875e-03 3.98021005e-03 1.97639391e-02 1.35410894e-02
      1.30307395e-02 3.47757596e-03 6.75841840e-03 8.83339997e-03
      -4.88918368e-03 -1.28183076e-02 -2.41945963e-03 1.07265590e-02
      1.60053466e-02 -1.24782068e-03 1.26220593e-02 1.28586299e-03
      1.28330085e-02 1.08194733e-02 -1.19431131e-03 -1.26712518e-02
      -2.31027813e-03 6.09314411e-05 1.90855674e-02 8.34792107e-03
      -5.28089993e-04 5.31619601e-03 -2.95512211e-02 -4.26306482e-03
      -2.26751296e-03 -2.11145543e-03 8.78760498e-03 1.00930976e-02
      2.65987813e-02 1.26782693e-02 1.07642170e-02 -1.70224085e-02
      -1.27761876e-02 -1.26835229e-02 -7.32981646e-03 -3.39099416e-03</_></support_vectors>
  <decision_functions>
    <_>
      <sv_count>1</sv_count>
      <rho>2.0387604912601276e+00</rho>
      <alpha>
        1.</alpha>
      <index>
        0</index></_></decision_functions></my_svm>
</opencv_storage>
