<?xml version="1.0"?>
<opencv_storage>
<my_svm type_id="opencv-ml-svm">
  <svm_type>C_SVC</svm_type>
  <kernel><type>LINEAR</type></kernel>
  <C>1.0000000000000001e-01</C>
  <term_criteria><epsilon>1.1920928955078125e-07</epsilon>
    <iterations>1000</iterations></term_criteria>
  <var_all>2916</var_all>
  <var_count>2916</var_count>
  <class_count>2</class_count>
  <class_labels type_id="opencv-matrix">
    <rows>1</rows>
    <cols>2</cols>
    <dt>i</dt>
    <data>
      1 2</data></class_labels>
  <sv_total>1</sv_total>
  <support_vectors>
    <_>
      8.30726139e-03 8.51698313e-03 9.89284273e-03 2.45061014e-02
      -1.71068516e-02 1.20192737e-04 -3.82224633e-03 -8.58702604e-03
      1.70832488e-03 1.94066390e-02 1.05889719e-02 1.46449469e-02
      2.53977403e-02 -1.22201052e-02 -8.82651750e-03 -3.96606047e-03
      -1.19021293e-02 4.80896467e-03 1.40957646e-02 1.53454589e-02
      1.36022987e-02 1.42933326e-02 -1.81984957e-02 -1.05327424e-02
      2.45688250e-03 2.12309812e-03 1.96331224e-04 7.22242054e-03
      1.13922777e-02 1.14575764e-02 1.62941199e-02 -2.25061420e-02
      -1.95762664e-02 1.05196983e-02 3.21094552e-03 -1.38334662e-03
      3.90291889e-03 -1.02293277e-02 -1.16698686e-02 1.24285696e-03
      1.39289498e-02 -9.43679083e-03 -1.14345935e-03 -7.53417797e-03
      2.71068774e-02 1.84426177e-02 2.33973213e-03 -1.21975644e-02
      -1.92578547e-02 -2.03171317e-02 4.45012748e-03 -2.62289628e-04
      -9.46934894e-03 2.46047340e-02 4.12755366e-03 -1.01121860e-02
      3.79587837e-05 -1.78001355e-02 -1.31918779e-02 -2.15334576e-02
      -3.27480317e-04 6.64075511e-03 1.33149680e-02 4.07436164e-03
      2.62692804e-03 1.58559456e-02 2.00657267e-02 2.61894730e-03
      -4.33698436e-03 2.62941793e-03 -3.12437350e-03 1.41031458e-03
      -1.72604970e-03 -3.01595009e-03 -3.91178794e-04 -2.75352485e-02
      -2.60141436e-02 1.04337567e-02 7.67086493e-03 -1.39823044e-02
      -2.13332847e-02 2.84816865e-02 2.34753285e-02 -1.71781555e-02
      -5.31527773e-02 -9.39002540e-03 2.89103612e-02 1.27415033e-02
      6.02251966e-05 -1.33807110e-02 -2.01694164e-02 1.02495179e-02
      2.44241208e-02 1.89193692e-02 6.58073463e-03 8.90624151e-03
      8.17832723e-03 -1.20811118e-02 -2.99367439e-02 1.86586175e-02
      3.48293930e-02 2.26698443e-02 7.47832842e-03 6.29118038e-03
      2.01395638e-02 1.85320433e-02 4.11085930e-04 -9.41715669e-04
      -3.06300796e-03 7.28367688e-03 -2.43257005e-02 -2.10610647e-02
      -1.90997776e-02 1.03237957e-03 9.55736171e-03 8.56551249e-03
      -1.92243643e-02 -2.77525629e-03 8.07711668e-03 -1.76921245e-02
      -8.01149011e-03 -8.15763324e-03 -2.00900598e-03 1.05428053e-02
      -6.73389807e-03 1.15824509e-02 1.94499660e-02 3.85063551e-02
      4.75946208e-03 -2.13893969e-02 -2.52931938e-02 -3.43069527e-03
      9.78303514e-03 2.59999931e-03 2.16728565e-03 2.69398037e-02
      1.42208263e-02 -1.81931332e-02 -3.11869606e-02 -1.73053704e-02
      -2.51656901e-02 4.70311381e-03 -6.68201782e-03 2.98673287e-02
      6.58140192e-03 9.94458795e-03 8.34897347e-03 -5.37018874e-04
      -5.30155329e-03 -2.05084775e-03 5.00824244e-04 -1.06150974e-02
      3.89894634e-03 1.99587736e-02 1.65498778e-02 4.12075548e-03
      9.96352290e-04 -2.94469129e-02 -2.36208774e-02 -6.30678749e-03
      -8.04600865e-03 6.41306676e-03 2.33709291e-02 3.34299845e-03
      -2.09734868e-02 -1.19605754e-02 -2.28556115e-02 -1.76580027e-02
      6.92258729e-03 1.22011034e-02 3.19880173e-02 1.17228264e-02
      1.13291433e-02 -1.86617803e-02 -1.60415769e-02 -3.16245370e-02
      -1.52176348e-02 9.80942324e-03 2.75504608e-02 3.24579328e-02
      1.67751424e-02 1.00420211e-02 -2.83467211e-03 2.06217635e-03
      -1.33605590e-02 -1.85659584e-02 -5.99035481e-03 -1.80308931e-02
      1.81301124e-02 1.78028690e-03 6.88342843e-03 -9.47131950e-04
      9.80629679e-03 -4.28422680e-03 -8.63579568e-03 4.08526184e-03
      -3.03053167e-02 -2.50894972e-03 2.65045036e-02 6.49852632e-03
      -3.29394639e-03 3.50462832e-03 -3.00092576e-03 -8.09962489e-03
      1.06930388e-02 5.24640083e-03 1.45742837e-02 2.36493442e-02
      1.97734777e-02 3.58257908e-03 1.59640890e-02 -1.11370382e-03
      -6.13877201e-04 8.02185666e-03 -9.88639519e-03 1.89309437e-02
      -1.08784260e-02 9.05367453e-03 -3.54379346e-03 6.05203724e-03
      -3.16040008e-03 -6.68349955e-03 2.42125033e-03 -1.00217052e-02
      -7.59935612e-03 -3.39714577e-04 1.76272355e-02 -1.72506936e-03
      4.24311915e-03 -6.82399981e-03 -1.16657875e-02 8.63682304e-04
      4.84706694e-03 -7.16915540e-03 2.79033836e-02 2.47395393e-02
      -1.48524800e-02 9.12028365e-04 -1.17001066e-03 -3.60635715e-03
      -4.93335212e-03 -2.62205359e-02 5.59398672e-03 2.80332249e-02
      3.88301872e-02 -7.51236733e-03 3.62795754e-03 -1.18876556e-02
      -8.41580704e-03 -7.34319864e-03 -1.68961268e-02 3.97451362e-03
      1.29430015e-02 -5.89066185e-03 -1.88323623e-03 -9.25122574e-03
      -2.04625912e-02 -6.29547238e-03 5.20788925e-03 -9.00219381e-03
      -2.74414290e-03 4.03350182e-02 1.54736247e-02 -7.96368346e-03
      -1.89037379e-02 -1.30789001e-02 -4.46044514e-03 1.26208561e-02
      -9.53283999e-03 -5.19836042e-03 5.18923514e-02 -3.80625995e-03
      -2.26665149e-03 -3.64242494e-03 -1.07918400e-02 -6.35676971e-03
      -4.88213915e-03 -4.19313088e-02 1.14060016e-02 5.74191585e-02
      2.58578043e-02 -6.00350928e-03 -9.51029081e-03 -1.34982932e-02
      1.05855486e-03 -1.32689497e-03 -5.64264953e-02 -1.78807683e-03
      1.00762313e-02 1.15694767e-02 -1.68286655e-02 -1.40255764e-02
      -1.56551320e-02 2.36439938e-03 1.44460397e-02 1.45146891e-03
      -9.21637937e-03 -1.96755165e-03 -7.34249246e-04 -7.76830874e-03
      -2.79879873e-03 2.31436617e-03 2.82817744e-02 8.47061723e-03
      8.31681886e-04 -1.47839524e-02 2.90674157e-02 1.89382192e-02
      -8.79537256e-04 3.36309592e-03 -6.59910263e-03 1.79225532e-03
      -4.67916764e-03 -1.94232054e-02 -8.59567881e-05 9.61815193e-03
      4.21163597e-04 1.10197961e-02 -4.04813839e-03 1.97105221e-02
      1.35724740e-02 1.03576221e-02 -3.76869529e-03 -1.56480707e-02
      8.72557610e-03 1.30449990e-02 7.48838298e-03 1.12690460e-02
      -1.07059209e-02 -3.72089748e-03 -6.16332749e-03 -4.68948204e-03
      -2.29700305e-03 2.82843877e-03 1.55749163e-02 1.27958339e-02
      1.17514003e-03 -1.88315548e-02 -1.36869000e-02 1.91581044e-02
      2.03049090e-03 -2.49825604e-03 1.65774953e-02 1.03330938e-02
      1.11032417e-03 -2.67649465e-03 7.15210428e-03 7.64415972e-03
      -1.93854440e-02 -7.08365673e-03 5.65097528e-03 1.17026148e-02
      7.52125168e-03 -8.78870115e-03 1.21710096e-02 -2.11221464e-02
      -1.20588653e-02 -1.13528455e-02 3.29027586e-02 8.04704800e-03
      6.28171675e-03 1.19965978e-03 1.08659212e-02 -6.11497089e-03
      -9.47690196e-03 -1.78335421e-02 -1.97400339e-03 8.08288157e-03
      4.00515879e-03 -6.04962790e-03 -4.37645242e-03 1.02753118e-02
      3.12172510e-02 2.45492868e-02 -6.96050143e-03 -1.57228354e-02
      -9.59109631e-04 1.18568528e-03 1.08293369e-02 5.66875504e-04
      1.12882163e-02 -3.24396975e-02 -1.62226763e-02 -1.77614111e-02
      -1.34707484e-02 3.20554152e-02 2.17771549e-02 -8.99569597e-03
      -7.77427619e-03 1.28435064e-02 1.58787251e-03 2.24324483e-02
      1.36618307e-02 -1.49276108e-02 2.87660453e-02 -1.93611742e-03
      -1.59465726e-02 -1.19599747e-03 9.50993970e-03 2.41557043e-02
      3.67023633e-03 1.26826502e-02 8.43513478e-03 -9.62136313e-03
      -2.45090388e-02 -1.16470344e-02 7.40145333e-03 3.69473882e-02
      3.81366909e-02 6.80412725e-03 2.03669313e-02 2.16440167e-02
      -1.12539046e-02 -3.10349674e-03 -5.24761640e-02 -1.93604883e-02
      -7.31775491e-03 8.69816355e-03 2.06357706e-02 1.15302131e-02
      4.06304337e-02 5.05634304e-03 -3.92124653e-02 -2.21109763e-02
      -2.54674014e-02 9.48896352e-03 2.01879684e-02 1.54546453e-02
      1.36233596e-02 5.57974800e-02 2.81602237e-02 -1.02378810e-02
      2.74383705e-02 1.95516124e-02 2.67824680e-02 -1.87725376e-03
      -1.06233358e-02 -6.81296643e-03 1.00776339e-02 -2.65766680e-03
      2.15622634e-02 5.37076294e-02 -3.61494953e-03 -8.87629762e-03
      -1.68367587e-02 -1.11709880e-02 -2.55598538e-02 -4.87673050e-03
      -1.11202698e-03 3.78988236e-02 -2.18982566e-02 -1.86502654e-02
      1.75496191e-02 5.99145377e-03 9.17748362e-03 -2.15543471e-02
      1.44040752e-02 -2.34259386e-03 -1.67592429e-02 -1.35599114e-02
      -3.14370841e-02 1.27557321e-02 2.97059119e-03 -1.72892166e-03
      -2.14021653e-02 -1.38505707e-02 -2.71534529e-02 7.89186358e-03
      3.83711979e-02 -7.53129506e-03 -2.49334462e-02 -1.24356765e-02
      -1.67648699e-02 -9.91657283e-03 4.80922684e-03 1.42654171e-02
      5.07184714e-02 2.28030682e-02 -5.77648461e-04 -1.65546294e-02
      -1.94653627e-02 -2.18811482e-02 2.55098473e-03 1.13499444e-02
      1.56905260e-02 4.37643975e-02 -3.94390263e-02 -4.00726460e-02
      -5.05642686e-03 5.71300322e-03 4.81615867e-03 -1.52044762e-02
      -9.59658157e-03 -2.50234623e-02 -2.08886061e-02 6.15047244e-03
      -9.93127376e-03 -7.56077562e-03 2.63264831e-02 3.41220237e-02
      3.01113795e-03 -2.66303401e-03 -2.91292779e-02 -6.12589391e-03
      3.01843113e-03 -1.14752343e-02 -7.29003549e-03 1.79729378e-03
      9.18181904e-04 -8.68481875e-04 5.43590402e-03 -1.85762327e-02
      -1.45547846e-02 8.45292117e-03 1.03119221e-02 7.21583515e-03
      1.81765649e-02 3.16885533e-03 -6.37320383e-03 -6.07436197e-03
      -2.99543906e-02 2.98962044e-03 1.02276057e-02 -1.21374335e-02
      -5.42264618e-03 3.54548097e-02 3.71805243e-02 -6.49589719e-03
      -2.48420965e-02 -2.89326888e-02 -9.30199400e-03 1.40761454e-02
      1.27902832e-02 3.66134420e-02 4.38557416e-02 1.26188453e-02
      -1.74042899e-02 -2.66993362e-02 -8.22528917e-03 9.10782348e-03
      1.46443788e-02 1.36325462e-02 -1.31671736e-02 3.44996253e-04
      -6.87059341e-03 -1.32518793e-02 -1.03927059e-02 -3.13587151e-02
      5.83329983e-03 3.65134142e-02 3.09543759e-02 -2.33161654e-02
      -1.07091311e-02 -1.47298258e-02 -6.89683342e-03 -1.55313928e-02
      -1.45199196e-02 1.43883936e-02 5.30034341e-02 2.99282838e-02
      5.94313769e-03 -5.28025255e-03 -1.63089167e-02 -2.46759765e-02
      -2.77114362e-02 -1.37477592e-02 3.03625334e-02 3.38942483e-02
      3.78565630e-03 -2.79364884e-02 -3.28645371e-02 -2.47111879e-02
      -8.17342661e-03 -4.20769770e-03 1.11001157e-06 3.32340896e-02
      4.64611799e-02 -6.72269100e-03 -3.22203338e-03 -4.34718747e-03
      -7.64059927e-03 -1.21629704e-02 -1.15283150e-02 -3.78200039e-02
      5.61607722e-03 5.97427450e-02 1.87211316e-02 -5.48680732e-03
      -1.29262405e-03 -1.19418167e-02 -1.12903100e-02 -1.50749711e-02
      -6.68747574e-02 4.93955798e-03 2.91411243e-02 -1.43158585e-02
      -1.15361782e-02 -5.57699939e-03 -1.33730723e-02 -1.35321291e-02
      -8.85281805e-03 4.66722809e-03 3.66572440e-02 4.82779257e-02
      -1.38331261e-02 2.33706716e-03 9.71938862e-05 -4.80495878e-02
      -1.59369614e-02 -1.27369119e-02 -2.29440560e-03 2.25231033e-02
      2.38244813e-02 9.49434005e-03 7.69829983e-03 4.86212224e-03
      -8.33032653e-03 -8.70663580e-03 -1.92243624e-02 -2.42056996e-02
      1.46012672e-03 2.97134084e-05 -4.54779575e-03 2.12240592e-02
      8.40289891e-03 1.90465767e-02 4.41629114e-03 2.62548821e-03
      -6.75775390e-03 -6.89728244e-04 3.78778204e-03 3.52869951e-03
      1.72670502e-02 3.67853791e-03 -2.63146702e-02 -1.23515297e-02
      -1.34697538e-02 -1.33594256e-02 3.18040252e-02 -1.29731465e-02
      2.36450080e-02 3.39507572e-02 2.07969621e-02 7.92733394e-03
      -1.62581075e-02 -2.36091651e-02 -2.73150187e-02 -1.18585443e-02
      9.93768498e-03 8.75802431e-03 -5.95547259e-03 2.36207293e-03
      1.53834820e-02 1.76705886e-03 -1.55740399e-02 -4.35266923e-03
      -6.61998568e-03 5.15618268e-03 1.02934679e-02 -9.58887022e-03
      -9.94428410e-04 1.70412904e-03 5.91897499e-03 -4.05772822e-03
      1.34460432e-02 1.01017510e-03 -8.05239659e-04 6.70694606e-03
      -2.11481135e-02 5.19741885e-03 9.99396294e-03 2.95941010e-02
      -3.17030377e-03 5.97750954e-03 -8.48134980e-03 -1.27281144e-03
      2.80273659e-03 -2.36958917e-02 -5.26421703e-03 1.44906361e-02
      5.25391027e-02 4.02795477e-03 -8.60795844e-03 -1.84665807e-02
      2.46872590e-03 -1.15030154e-03 5.07340254e-03 -1.41937798e-02
      -7.47290486e-03 6.16077753e-03 -8.22504051e-03 2.83939689e-02
      3.78318247e-03 -9.97410063e-03 8.64188094e-03 2.82751676e-03
      -6.96469424e-03 1.53860985e-03 2.29460727e-02 2.03563459e-02
      2.79733334e-02 -5.27459290e-03 -1.54062323e-02 1.57865894e-03
      3.47156543e-04 2.36796448e-03 -1.10608405e-02 3.17024551e-02
      -2.15693414e-02 -2.12424342e-03 -5.07097412e-03 -1.18519049e-02
      8.31896905e-03 8.23056325e-03 -1.14247557e-02 3.77371162e-03
      5.44303935e-03 1.03916386e-02 4.42710482e-02 7.35500176e-03
      -4.58585173e-02 -1.83544941e-02 -7.80818611e-03 -9.20467894e-04
      5.68434643e-03 4.85909963e-03 3.54792625e-02 4.01183926e-02
      -1.58250909e-02 -2.34239344e-02 -1.41281681e-02 1.14343173e-04
      1.40081753e-03 1.49207385e-02 4.97491891e-03 4.72888090e-02
      5.36084026e-02 4.29789210e-03 -3.09145115e-02 -3.16936113e-02
      -1.61431078e-02 -1.03368331e-02 -1.67385358e-02 -6.04552403e-03
      -2.22348142e-02 5.84703237e-02 2.78604887e-02 -6.98158052e-03
      -3.69939394e-02 1.73394196e-03 5.81568666e-03 -8.27827374e-04
      -1.20663317e-03 1.21967774e-02 4.53746319e-02 1.87290739e-02
      -1.67559702e-02 -1.07062487e-02 3.14662146e-04 -2.26154202e-03
      -6.76575163e-03 -1.66746769e-02 3.13370638e-02 2.04690527e-02
      -2.40130816e-02 -3.73288020e-02 -3.12077608e-02 6.28944952e-03
      -6.33943477e-04 7.48133054e-04 -2.24706642e-02 -1.22112967e-03
      -5.06852521e-03 -4.12715450e-02 -1.68040432e-02 -1.55278742e-02
      -3.10391979e-03 -1.10688861e-02 -1.14108911e-02 -7.78016960e-03
      3.57672609e-02 3.97035964e-02 2.09100847e-03 3.48779815e-03
      -1.97467580e-02 -5.82764111e-03 -1.57198254e-02 -1.06632570e-02
      -3.93248461e-02 3.91593613e-02 5.27570248e-02 1.96490921e-02
      -4.77827229e-02 -1.69331729e-02 7.06914719e-03 1.03961304e-02
      2.34701280e-02 -6.65027462e-03 -6.36387849e-03 1.29193543e-02
      -2.78865211e-02 -3.08085512e-02 -9.55662038e-03 1.54558464e-03
      4.20760326e-02 7.53328204e-02 1.36255380e-02 8.15636828e-04
      -2.32992396e-02 -4.58121076e-02 -2.43860893e-02 -1.94100346e-02
      -6.79839286e-04 1.00152916e-03 2.19468828e-02 -1.65156480e-02
      4.40314300e-02 3.52460891e-02 1.20112591e-03 -3.07061914e-02
      -1.23583097e-02 -1.65119383e-03 2.36133263e-02 7.59435892e-02
      7.28570903e-03 4.94047515e-02 1.89022832e-02 -3.56547460e-02
      -3.83386761e-03 -8.07599351e-03 -4.66593634e-03 2.53179893e-02
      5.72257899e-02 -4.34405077e-03 -2.81120744e-03 -2.44608261e-02
      -2.92635448e-02 1.41131524e-02 6.21904898e-03 3.59514095e-02
      4.27644812e-02 4.72819507e-02 -5.11370553e-03 -1.65603589e-03
      7.63035205e-05 1.11829843e-02 -1.01168938e-02 -9.07555223e-03
      -1.03388187e-02 6.76210644e-03 5.98091967e-02 1.22468639e-02
      1.58280153e-02 -1.12951715e-02 -4.09534313e-02 -1.50980474e-02
      -1.74908061e-02 1.99006707e-03 1.76846795e-02 2.66962703e-02
      4.64686798e-03 3.54542620e-02 -6.66827569e-03 -1.91971585e-02
      3.83703932e-02 2.87237223e-02 2.59614550e-02 2.36480148e-03
      -1.16168999e-03 -1.20325899e-02 -1.09548895e-02 -1.04773538e-02
      2.85356268e-02 3.62922587e-02 -1.90329354e-03 -1.49969300e-02
      -1.75263993e-02 -1.20467413e-02 -1.24380011e-02 -2.50733830e-03
      -3.20427213e-03 3.33174057e-02 -1.08540691e-02 -1.82085373e-02
      7.06206309e-03 8.93908553e-03 4.90939943e-03 6.81680348e-03
      1.83429141e-02 4.06087823e-02 7.11824605e-03 5.81705291e-03
      -2.98594385e-02 -2.59432122e-02 -1.59130339e-02 -8.96366592e-03
      1.50196545e-03 1.81334913e-02 3.41752805e-02 2.11734194e-02
      3.25438604e-02 -1.21775046e-02 -1.09224739e-02 -2.68898997e-03
      -1.91734470e-02 -1.40519422e-02 -5.09671913e-03 1.55941164e-02
      4.51900810e-02 3.08216400e-02 -3.59865557e-03 -9.27774142e-03
      -3.50842625e-03 -4.54695895e-02 -1.86765492e-02 -3.70582705e-03
      2.46069208e-02 4.29305024e-02 6.44860044e-03 -3.40906084e-02
      -2.78251860e-02 -8.73353984e-03 -2.36599091e-02 -4.56627342e-04
      3.94910458e-04 2.86935363e-03 2.18506027e-02 8.43943283e-03
      5.13804983e-03 -1.88991651e-02 -6.99000899e-03 -3.01335845e-02
      -2.41581984e-02 -8.88405554e-03 1.92487147e-02 2.69012116e-02
      7.66975619e-03 1.23753641e-02 1.33010792e-02 3.46153905e-03
      -4.36680727e-02 -1.06842266e-02 -1.02718417e-02 7.37726223e-03
      4.96929809e-02 4.31863219e-03 2.22139545e-02 3.06139067e-02
      1.18548498e-02 -2.90093455e-03 -1.83359478e-02 -1.99713260e-02
      -1.37411896e-02 1.29455514e-02 -3.45286494e-03 9.38436668e-03
      4.38830117e-03 -8.28010868e-03 -3.15529294e-02 -1.86307020e-02
      -5.29411435e-03 1.83965303e-02 1.55241461e-02 -8.98217224e-03
      2.37411298e-02 1.73617695e-02 1.86360385e-02 -4.70542535e-03
      -5.21849608e-03 -1.57442119e-03 -3.75371473e-03 -3.17726168e-03
      -3.33633204e-03 -4.58921166e-03 -1.02704074e-02 6.86190743e-03
      5.29948156e-03 3.00855301e-02 5.84504195e-03 1.41331204e-03
      -2.28141597e-03 -1.94119439e-02 8.52067082e-04 -1.93638839e-02
      -1.18412580e-02 1.85351186e-02 5.08365296e-02 1.27584105e-02
      -8.97553191e-03 -1.34733664e-02 -3.61401844e-03 -5.85758965e-03
      -6.17006887e-03 2.02773437e-02 1.30632538e-02 1.11047057e-02
      1.46233430e-02 1.29116215e-02 5.51527692e-03 -3.45401987e-02
      -7.36466609e-03 -6.79882383e-03 -2.47739675e-03 2.31476333e-02
      1.78208314e-02 5.43762837e-03 2.27833912e-03 -3.71153355e-02
      -1.19048441e-02 7.90021196e-03 5.66127338e-03 -8.18880182e-03
      -1.12441671e-03 2.94591673e-02 -1.35846166e-02 1.49653647e-02
      -8.79131607e-04 9.09943413e-03 9.75644961e-03 1.25621324e-02
      -1.45858182e-02 -1.48047525e-02 1.10989681e-03 -1.62457339e-02
      3.45491655e-02 2.55775079e-02 -1.40311604e-03 6.43208763e-03
      -3.10829584e-03 -7.95174949e-03 -1.35686947e-03 2.09863950e-02
      7.35191070e-03 9.00276192e-03 -2.12244951e-04 1.35142477e-02
      1.28839016e-02 1.25326104e-02 6.23792131e-03 1.39974486e-02
      3.16727255e-03 -3.50873135e-02 1.28595671e-02 1.82190109e-02
      -2.15379912e-02 -2.38478035e-02 -4.70713852e-03 -5.44220768e-03
      -6.30703871e-04 -7.20024388e-03 -3.07649542e-02 3.82393785e-02
      3.96495983e-02 -1.09960483e-02 -1.83503609e-02 4.43245750e-03
      2.87072361e-03 1.54042495e-02 2.01509912e-02 -1.69431157e-02
      4.26814407e-02 2.17020493e-02 -1.86260790e-03 3.88380693e-04
      6.20408682e-03 -1.02809314e-02 1.45277206e-03 -1.30554577e-02
      -3.60054895e-02 -6.75342930e-03 -5.89674979e-04 -1.55349532e-02
      -1.56582173e-04 -2.92063970e-03 -2.12778989e-02 1.67594980e-02
      9.71589796e-03 -7.57537608e-04 3.30151767e-02 1.93395540e-02
      -2.32410952e-02 -1.41606014e-02 -7.94673525e-03 -7.63156265e-03
      -4.84492769e-03 -1.08216368e-02 6.71143597e-03 5.46222553e-02
      9.29907616e-03 -1.15515664e-02 -2.42261626e-02 -2.13065296e-02
      -1.98206734e-02 -2.07953900e-02 -1.90075319e-02 4.55698781e-02
      7.52964690e-02 3.80369872e-02 -3.28495391e-02 -3.18658128e-02
      -3.84863652e-02 -1.49272308e-02 -4.36267210e-03 -1.50515037e-02
      -4.49777697e-04 3.81223299e-02 9.16157290e-03 -9.60829575e-03
      -5.26340231e-02 -3.75515521e-02 -5.20712975e-03 1.32508716e-02
      1.18766744e-02 2.69063395e-02 7.42304847e-02 5.38184643e-02
      -3.21626104e-02 -2.01656669e-02 -1.58340540e-02 -5.20001166e-03
      -1.68188429e-03 -9.17791482e-03 3.17512788e-02 6.56362250e-02
      6.80310186e-03 -2.31353082e-02 -1.36000840e-02 -1.95744149e-02
      -1.83028318e-02 2.23069824e-03 -1.17838532e-02 2.87130177e-02
      9.13039222e-03 -3.99958715e-02 -2.82670744e-02 -3.93775851e-02
      -1.33905141e-02 9.36768018e-03 1.37038175e-02 2.08527166e-02
      5.05407974e-02 7.02934936e-02 2.26962548e-02 -8.53456091e-03
      -3.42375264e-02 -3.49744037e-02 6.67767180e-03 1.45220896e-02
      2.45904271e-02 4.30493429e-02 4.15374413e-02 -1.28830727e-02
      8.87078699e-03 -3.57061392e-04 -1.28605291e-02 -1.32614737e-02
      -3.18644173e-03 -9.95523203e-03 3.25799063e-02 -1.15933525e-03
      -1.58566460e-02 -1.20989112e-02 -1.19227814e-02 -1.21580018e-02
      -2.01411694e-02 -1.21201193e-02 -1.10676000e-02 5.83442040e-02
      3.18180732e-02 4.91937716e-03 1.34977456e-02 -8.94951634e-03
      -1.28551275e-02 3.46027035e-03 -1.52946329e-02 -1.46369645e-02
      4.05125841e-02 8.37855879e-03 -2.69351923e-03 -2.20470019e-02
      -2.07680259e-02 -1.84972286e-02 -2.00052913e-02 -2.01161094e-02
      1.98195018e-02 6.63201883e-02 5.28404303e-02 2.38614436e-02
      -4.17290516e-02 -2.98287496e-02 -2.53961934e-03 -2.26224326e-02
      -1.83780510e-02 1.23223132e-02 5.36545552e-02 6.99586570e-02
      -5.16156852e-03 -2.62950081e-02 -4.65042181e-02 -1.62597653e-02
      -1.54683087e-02 -1.06642814e-02 1.60389170e-02 3.42559107e-02
      5.00535108e-02 9.31789167e-03 -4.27393690e-02 -2.52575949e-02
      -2.80303005e-02 -4.71803695e-02 -9.52526368e-03 2.41529346e-02
      6.93143681e-02 7.12977424e-02 -6.98854355e-03 -5.45174330e-02
      -3.64119932e-02 -3.00663412e-02 -3.69089656e-02 -1.92883704e-02
      5.25589027e-02 6.59622177e-02 5.21187298e-02 -7.13802921e-03
      3.17845903e-02 -1.09551158e-02 -1.67566705e-02 5.85107971e-03
      -2.24272739e-02 5.02816029e-03 7.59214582e-03 2.39615794e-02
      8.61440226e-03 1.99519731e-02 2.34435406e-02 -1.25810141e-02
      -4.60251840e-03 -1.77773982e-02 -1.19123887e-02 -2.75920285e-03
      2.11860333e-02 1.99330188e-02 1.32194981e-02 -1.49387284e-03
      -2.65015289e-03 1.26618193e-02 -3.84546518e-02 2.07516123e-02
      3.18136662e-02 2.20679380e-02 -3.62501666e-02 2.37202402e-02
      2.52230167e-02 -2.01428914e-03 -2.34250296e-02 -1.78176761e-02
      7.52509921e-04 -8.31510057e-04 6.20750617e-03 7.58711540e-04
      -5.50614670e-03 3.22088338e-02 9.24435910e-03 7.15597067e-03
      -1.41167901e-02 -4.37872764e-03 5.73064375e-04 2.63487510e-02
      2.15749373e-03 2.05441820e-03 2.51309704e-02 2.65157111e-02
      2.94794198e-02 1.83995566e-04 1.03635788e-02 9.98748932e-03
      -1.02794077e-02 -6.65181270e-03 1.33449072e-02 2.97396705e-02
      5.96551877e-03 -4.37626708e-03 -4.17173607e-03 -2.56683328e-04
      9.35764425e-03 -4.43127984e-03 6.50022412e-03 2.54189916e-04
      1.75744779e-02 1.15418071e-02 2.86645833e-02 -2.07825622e-04
      7.65924901e-03 9.19361878e-03 -2.42134556e-02 -2.08155327e-02
      -4.76383977e-03 -3.56488419e-03 -1.36498045e-02 5.43860672e-03
      1.58818662e-02 -2.58098706e-03 5.24128601e-03 1.47482976e-02
      4.73917928e-03 -2.27157269e-02 -2.90924055e-03 9.55901388e-03
      -2.52678525e-03 1.99053120e-02 -1.38786074e-03 -1.16323447e-03
      8.73299222e-03 -1.30083617e-02 -6.96508586e-03 7.40262400e-03
      -2.55686063e-02 1.73076708e-02 1.23438155e-02 1.12300171e-02
      5.04390476e-03 -1.42166577e-03 -4.22766352e-05 -7.83382077e-03
      9.81460046e-03 2.02999096e-02 2.91883247e-03 8.64622835e-03
      -2.21118219e-02 -2.33977865e-02 -5.97039424e-03 -1.48965139e-02
      -7.60137849e-03 9.14092269e-03 4.96982085e-03 3.47978622e-03
      4.13509028e-04 1.27079077e-02 1.15779573e-02 1.78621558e-03
      2.94798519e-03 -1.70578761e-03 1.25655290e-02 1.72664796e-03
      6.00919966e-03 2.71465704e-02 1.32180122e-03 -2.18085274e-02
      2.13956126e-04 4.19988809e-03 2.84486613e-03 1.48502206e-02
      2.76774094e-02 1.83888022e-02 -5.12691634e-03 2.39911606e-03
      4.94501961e-04 -1.84221193e-02 -2.51268297e-02 -8.74625053e-03
      1.09301489e-02 4.08141315e-03 1.17905159e-02 2.50292122e-02
      1.14154816e-02 -7.49976002e-03 7.66300317e-03 -1.99030470e-02
      5.70996664e-03 5.36762970e-03 3.48016876e-03 -5.80348028e-03
      7.33999209e-03 -1.85388862e-03 -2.16529556e-02 -2.33379449e-03
      -5.84733346e-03 5.00868307e-03 5.64366207e-03 -8.61139968e-03
      -7.79306400e-04 1.53787574e-02 1.04566840e-02 -8.80348205e-04
      1.43281389e-02 1.98443551e-02 1.45972772e-02 4.31578228e-04
      4.20056703e-03 -1.05776479e-02 1.18772537e-02 1.07301679e-02
      -2.53296532e-02 -3.30871786e-03 -6.92277914e-03 2.30697691e-02
      4.89222519e-02 7.26293493e-03 6.14664331e-03 4.99268668e-03
      8.96361563e-03 -2.67125778e-02 -7.98105728e-04 4.03304584e-03
      -1.34393526e-02 -1.70892514e-02 -3.23176011e-02 -3.24414764e-03
      -8.25075113e-05 -9.72267427e-03 -1.35107497e-02 1.02083338e-02
      1.13955699e-02 1.55440243e-02 -2.04585865e-02 -2.06674766e-02
      2.53145322e-02 1.57983322e-02 1.34176640e-02 -3.04832356e-03
      5.06866425e-02 4.88234311e-02 1.91478208e-02 3.01943980e-02
      -5.93631854e-03 5.49492368e-04 -1.03177484e-02 -1.20388903e-02
      -2.94626150e-02 -1.37323430e-02 -1.64660532e-02 5.55962063e-02
      4.21324372e-02 1.05412537e-02 -1.15715414e-02 1.86152384e-03
      1.21378424e-02 -2.27059908e-02 -1.03307106e-02 3.21742296e-02
      -1.60716865e-02 -3.91106447e-03 -2.85254698e-03 2.21714526e-02
      1.51905967e-02 2.40729861e-02 1.19730998e-02 3.94684263e-02
      1.17988912e-02 -8.10368080e-03 -2.41729058e-02 -5.78723848e-03
      1.94787327e-02 4.93591418e-03 2.11070254e-02 2.66032908e-02
      8.19977187e-03 -5.91178751e-03 1.62083544e-02 1.94769278e-02
      2.21762080e-02 8.89891852e-03 -7.62666157e-03 8.47786292e-03
      -1.48083534e-04 2.82893743e-04 -1.59377325e-02 2.86430190e-03
      1.85673696e-03 1.62874572e-02 1.03477957e-02 -2.00851504e-02
      5.85723342e-03 1.20367231e-02 -7.52971787e-03 -4.21978300e-03
      -8.51336110e-04 -1.12911472e-02 1.39369164e-02 2.39386782e-02
      -1.42003165e-03 8.58032436e-04 2.74001565e-02 1.04117030e-02
      -9.96951759e-03 -1.79425720e-02 -9.64623597e-03 1.64677948e-02
      1.39675103e-02 -1.10249384e-03 1.41530484e-02 5.30451611e-02
      3.81692946e-02 2.64329044e-03 4.08776477e-03 8.33917037e-03
      4.71737646e-02 1.87859870e-02 -1.10959085e-02 1.60020292e-02
      2.46696989e-03 -8.25815927e-03 7.24495295e-03 1.18660675e-02
      2.28305850e-02 5.77437915e-02 3.78473252e-02 4.92180884e-03
      -2.77608875e-02 5.76264411e-03 -1.76983347e-04 1.05589246e-02
      -3.45349386e-02 -1.38525525e-02 -1.12429829e-02 -2.39597000e-02
      -1.41489739e-02 2.03866307e-02 3.14283483e-02 3.37949954e-02
      -1.19747184e-02 -2.59383097e-02 -8.76507349e-03 -6.69763377e-03
      -3.20929266e-03 8.50962475e-04 3.55748683e-02 3.43142748e-02
      1.29018072e-02 -7.69703742e-03 -3.79786408e-03 4.44429554e-02
      2.75636110e-02 2.53309235e-02 -7.59514049e-03 -1.83948651e-02
      -1.22438679e-02 -1.72623079e-02 -1.57759394e-02 -1.21026915e-02
      3.41281295e-02 2.26488151e-02 2.73849573e-02 2.60698609e-02
      1.87633708e-02 -3.07034398e-03 -4.18522395e-02 -3.93151119e-02
      2.78713298e-03 1.01491902e-02 6.96912920e-03 1.64229237e-02
      -6.84980536e-03 3.83969434e-02 3.72381732e-02 -2.74535990e-03
      -3.13613601e-02 1.74907595e-02 2.28555445e-02 2.24013440e-03
      -8.17501638e-03 -1.83571260e-02 5.82319964e-03 9.42863710e-03
      4.83764568e-03 -5.45998057e-03 -1.35702351e-02 8.21379758e-03
      1.00883041e-02 2.35400833e-02 1.53283598e-02 3.09007559e-02
      -2.48307176e-03 -2.61968877e-02 -4.25033346e-02 4.79767704e-03
      -2.62452173e-03 -1.38861509e-02 1.05083846e-02 7.13095395e-03
      1.92753039e-02 1.08537860e-02 -5.57362218e-04 1.77690610e-02
      1.13016786e-02 2.01208387e-02 1.04475282e-02 1.40230858e-03
      6.72284327e-03 1.41327828e-02 3.00102169e-03 -2.31193285e-02
      1.62475370e-02 8.30113480e-04 1.14516634e-02 1.00706732e-02
      2.37468630e-02 4.35803272e-03 7.61271501e-03 7.56634027e-03
      -3.10788602e-02 -1.23027507e-02 2.21281592e-03 -1.84920374e-02
      2.41472814e-02 1.86240189e-02 1.70738269e-02 2.32242402e-02
      1.13125630e-02 1.55275818e-02 1.34761222e-02 -1.40177924e-02
      6.08148240e-03 -2.40469119e-03 3.42677385e-02 1.04666771e-02
      5.50998421e-03 1.39446883e-02 -8.21713172e-03 4.42973105e-03
      -1.12104416e-02 1.67147594e-03 2.51651439e-03 3.01542273e-03
      5.85912587e-03 1.41866943e-02 1.28239291e-02 2.33082077e-03
      -4.14440222e-03 -5.02602244e-03 1.13613280e-02 1.48904510e-02
      6.80140080e-03 -4.69596405e-03 -8.73540435e-03 -6.65069139e-03
      -6.97142119e-03 -1.16722984e-02 -1.76351368e-02 -3.12689878e-03
      1.77016165e-02 2.12169960e-02 -7.35002058e-03 -4.87088459e-03
      1.13251968e-03 2.26657838e-03 -2.36384314e-03 4.26783646e-03
      1.07361353e-03 -2.84303969e-04 1.69466692e-03 -5.40086161e-03
      -9.53596085e-03 1.08894528e-04 1.24453595e-02 -4.91214392e-04
      6.62297476e-03 5.00114227e-04 6.54960377e-03 5.97019354e-03
      9.28993337e-03 -2.59408285e-03 5.66628203e-03 3.98084521e-03
      -1.60952564e-02 1.86833348e-02 1.19864335e-03 -1.51562830e-02
      7.62637379e-03 2.78465427e-03 1.93487592e-02 6.48319814e-03
      1.79404989e-02 -2.29527522e-02 7.92756025e-03 1.51107321e-02
      -1.72593147e-02 -2.56037693e-02 -8.52657855e-03 2.83502806e-02
      2.43255813e-02 2.58732978e-02 7.45732104e-04 1.62761044e-02
      2.42424924e-02 -4.33363765e-03 1.94159418e-03 -2.82812025e-02
      1.91498417e-02 3.75168920e-02 3.41138430e-02 1.13150822e-02
      -3.81194730e-03 -9.91984177e-03 4.76363348e-03 -1.09199705e-02
      -1.82849579e-02 6.26826566e-03 -1.02255009e-02 -2.95388419e-03
      -2.27403045e-02 -3.93793592e-03 3.79052907e-02 8.86936765e-03
      1.43967569e-02 1.10128159e-02 1.12247781e-03 -8.20210762e-03
      3.55786557e-04 -3.80862765e-02 2.82715657e-03 2.17159744e-02
      1.09734805e-02 3.52099910e-03 -1.15460996e-02 -2.27305875e-03
      1.39595370e-03 1.06716854e-03 -2.31773276e-02 1.29357670e-02
      4.51844335e-02 1.69358924e-02 2.62535214e-02 1.61879808e-02
      -4.15352872e-04 1.28653040e-03 -1.23380078e-03 -3.85444984e-02
      1.19345253e-02 2.66469326e-02 -1.36191137e-02 -2.66825985e-02
      -1.19321356e-02 2.85503862e-04 -4.96834749e-03 -3.98518099e-03
      -1.85371302e-02 5.42503297e-02 5.66179566e-02 7.52843125e-03
      -3.04826554e-02 -2.35319380e-02 -4.06015897e-04 -5.01738675e-03
      -8.54768977e-03 -4.73818649e-03 1.83887370e-02 5.98632097e-02
      1.21728191e-02 -2.26925835e-02 -7.69056426e-03 1.94417790e-03
      -3.60283861e-03 -6.84757205e-03 -2.59314477e-02 3.38205546e-02
      7.75545612e-02 3.35140489e-02 -3.52740698e-02 -2.96614245e-02
      4.11378127e-03 -1.19139710e-02 -1.46439904e-02 -1.49324629e-02
      3.43034752e-02 5.16990200e-02 3.69683690e-02 3.86011787e-03
      -7.01831654e-03 -4.09616623e-03 1.33218500e-03 -4.75338288e-03
      -1.06595568e-02 1.05030732e-02 1.96089987e-02 2.34132726e-02
      1.73872076e-02 -1.32005038e-02 -1.05615733e-02 2.47264071e-03
      -1.08888117e-03 6.67348597e-03 1.07160313e-02 4.38456200e-02
      2.47222465e-02 -2.76167411e-02 -1.70768686e-02 4.48672473e-03
      -2.79297819e-03 -2.49743299e-03 -1.76516566e-02 2.37540153e-04
      1.62029080e-02 -7.51182018e-03 3.05203977e-03 3.26814204e-02
      1.18449493e-03 -4.37479280e-03 8.29903223e-03 1.76462997e-02
      -2.67950678e-03 1.32754249e-02 1.50474515e-02 -4.16534860e-03
      -3.06295324e-02 -8.43193568e-03 -8.96435697e-03 -2.97711394e-03
      2.77053984e-03 2.06654500e-02 4.04192358e-02 5.96982315e-02
      3.00141796e-02 -1.15804626e-02 -4.06909361e-02 -2.73742359e-02
      -1.54095823e-02 5.37391799e-03 1.82967470e-03 1.04903104e-02
      9.10425745e-03 1.20327808e-02 3.72594371e-02 -2.81286333e-03
      -1.67464688e-02 5.76686533e-03 5.88082103e-03 2.74714790e-02
      5.01188301e-02 5.90310916e-02 4.12300043e-02 3.07201706e-02
      -9.12065525e-03 -3.18776630e-02 -1.64181981e-02 5.69799310e-03
      7.30753364e-03 5.49349487e-02 3.95824425e-02 4.13353778e-02
      1.20392079e-02 -2.49581169e-02 -2.41421741e-02 -1.76112950e-02
      -2.49049775e-02 -2.29847319e-02 4.19958718e-02 2.88460236e-02
      3.36580463e-02 3.70448045e-02 1.08917439e-02 -1.99085250e-02
      -2.55356301e-02 -5.73906377e-02 -5.18712075e-03 5.11835441e-02
      3.57136503e-02 3.98005806e-02 1.15567781e-02 -6.65384950e-03
      -4.39002179e-02 -1.47420689e-02 -1.38466703e-02 -6.46796427e-04
      2.37812325e-02 1.19721424e-02 1.69126652e-02 7.57806702e-03
      6.66736392e-03 -3.23880054e-02 -1.80239137e-02 -1.42097212e-02
      1.34094320e-02 2.87129171e-02 1.50321489e-02 1.55158015e-02
      5.08745713e-03 2.17289608e-02 -6.01964118e-03 -6.01576595e-03
      -2.24303436e-02 1.98987592e-03 -7.62798963e-03 1.42181022e-02
      1.05495770e-02 5.04398253e-03 1.09531609e-02 -8.27547512e-04
      1.17178997e-02 3.09392475e-02 -1.59585278e-03 9.28749144e-03
      -7.44548766e-03 -4.35189949e-03 -7.11509213e-03 2.22070850e-02
      -1.30518479e-03 -8.75963923e-03 1.15316138e-02 1.54973529e-02
      -7.86915142e-03 6.93278667e-03 6.00243360e-03 -1.05931796e-02
      8.68334994e-03 4.42415662e-03 2.29027849e-02 2.49130093e-02
      -1.42537775e-02 -4.53980686e-03 1.36194825e-02 4.39784024e-03
      1.63906044e-03 1.46622220e-02 7.54437689e-03 1.41040757e-02
      3.57390149e-03 -1.03658997e-02 -5.63061237e-03 9.51496325e-03
      1.98095087e-02 4.21627471e-03 5.08053601e-03 1.46181565e-02
      1.79338381e-02 -1.11111989e-02 2.52513699e-02 1.36295287e-03
      1.01581672e-02 1.32872183e-02 -1.00267529e-02 7.33950175e-04
      2.43851580e-02 2.34601088e-02 3.19231115e-02 2.52940487e-02
      -6.06871070e-03 1.40289431e-02 2.38351431e-02 -4.61434666e-03
      5.51251974e-03 1.43001452e-02 9.24878661e-03 2.57155076e-02
      8.70263495e-04 -1.14673311e-02 5.98144438e-03 1.14508551e-02
      1.50029203e-02 -1.12023847e-02 -1.37201445e-02 3.43797146e-03
      -2.53571058e-03 -6.19473634e-03 -6.86975988e-03 -5.16165700e-03
      -7.31446128e-03 1.02440696e-02 7.23314984e-03 -2.29173270e-03
      1.81441884e-02 -7.10520102e-03 6.03636820e-03 -1.16640404e-02
      1.67012811e-02 2.67174933e-02 -1.65583193e-02 -1.00113787e-02
      -2.84121819e-02 7.52685498e-03 9.10582952e-03 1.36667548e-03
      1.87241507e-03 3.55941593e-03 -1.40396403e-02 1.48722408e-02
      1.12759750e-02 8.49425443e-04 -3.21952743e-04 7.76184909e-03
      1.54006411e-03 1.15251038e-02 -2.50827298e-02 -2.19628084e-02
      -7.65520032e-04 2.74467524e-02 1.14159789e-02 7.63909053e-03
      -5.58469119e-03 2.11859564e-03 7.02766096e-03 2.22395360e-03
      -8.61269794e-03 -3.14801522e-02 8.62296298e-03 1.91407371e-02
      1.95629913e-02 9.21513792e-03 1.76570695e-02 2.71851942e-02
      -2.61307257e-04 -2.35736631e-02 -1.03209801e-02 1.52135473e-02
      1.90077908e-02 7.41666323e-03 -1.14270262e-02 1.63121298e-02
      1.68805793e-02 2.25644913e-02 -1.42271733e-02 2.55618687e-03
      2.15925165e-02 2.28327420e-02 2.19968222e-02 -1.27422763e-02
      3.40323895e-03 6.05695648e-03 -1.26899418e-03 -1.03063611e-02
      -6.74701110e-03 -1.31388782e-02 -3.42594762e-03 1.49589629e-04
      -1.35925999e-02 -7.28356931e-03 4.30648923e-02 2.90238783e-02
      1.92745880e-03 2.19646725e-03 -9.50668287e-03 -9.45628528e-03
      -3.10658198e-03 -8.65029637e-03 1.52077910e-03 6.47045299e-03
      1.16610201e-02 -9.44656960e-04 1.87541991e-02 -1.21550811e-02
      -1.07036224e-02 -5.98702021e-03 -2.61268895e-02 -1.04787862e-02
      1.66514497e-02 2.94595789e-02 3.31164263e-02 1.87939201e-02
      -1.14035355e-02 -2.23554131e-02 -1.29323890e-02 -3.40063311e-02
      4.76679299e-03 6.92800432e-02 3.39887552e-02 -1.16483197e-02
      -1.15200337e-02 -2.91523058e-03 -1.68570143e-03 -6.51961949e-04
      -2.63246405e-03 3.71638648e-02 3.81632000e-02 2.63846647e-02
      -1.26798209e-02 -1.75150018e-02 -4.48850682e-03 -1.83454193e-02
      -6.19345671e-03 -8.92219786e-03 -2.92689968e-02 1.90058276e-02
      2.39946060e-02 -2.81123305e-03 9.51997284e-03 -2.72664125e-03
      -3.92089039e-03 1.71886175e-03 -2.50829551e-02 -3.40670347e-03
      2.20721103e-02 1.24426987e-02 -4.04552696e-03 -1.58055313e-02
      -1.10174799e-02 -1.18740750e-02 -4.63106961e-04 -2.02790461e-02
      1.74837727e-02 3.90424244e-02 2.13049296e-02 -1.23804631e-02
      6.35462115e-03 7.63968145e-03 -7.30912201e-04 -2.65576714e-03
      -1.68303829e-02 2.59988778e-03 4.32428526e-04 -1.68272927e-02
      3.77573706e-02 7.39762485e-02 1.82754509e-02 7.14883534e-03
      1.18572731e-02 1.63534544e-02 -6.65517198e-03 6.95159798e-03
      7.25682243e-04 1.12020532e-02 1.98868718e-02 -1.05942562e-02
      -5.27522806e-03 -1.91925350e-03 -1.48665672e-02 -1.92432310e-02
      -3.23328748e-02 -4.79940791e-03 4.27023508e-02 7.88007230e-02
      2.39391755e-02 -2.46780971e-03 1.38365687e-03 4.22076322e-03
      -1.64900217e-02 -2.77194213e-02 -7.20845629e-03 9.17604286e-03
      5.92066124e-02 8.04180931e-03 -1.25744287e-02 5.43295266e-03
      1.14564947e-03 1.58041995e-02 1.20547321e-02 9.58836544e-03
      2.95813270e-02 4.68206592e-02 2.43447907e-02 -2.66847177e-03
      -5.03009930e-03 1.71795823e-02 -8.55051074e-03 -4.25421000e-02
      -1.13622434e-02 1.05511406e-02 4.49386500e-02 1.71524342e-02
      -6.42785570e-03 -6.63471548e-03 -1.29984738e-03 1.84718834e-03
      -2.75314357e-02 -2.91375611e-02 4.49017435e-03 4.05157171e-02
      4.01170738e-02 2.23811697e-02 9.57255997e-03 3.10465656e-02
      2.29082350e-02 6.68434077e-04 6.31770911e-03 2.56225243e-02
      1.51596135e-02 6.03189133e-03 -1.62171815e-02 4.11812728e-03
      2.50109173e-02 1.18709421e-02 -1.18060932e-02 7.91114056e-04
      9.92836338e-03 8.75618588e-03 -3.57663934e-03 -1.69126764e-02
      -5.61767351e-03 3.92155945e-02 2.59080883e-02 -3.23252156e-02
      -3.15633193e-02 4.36302507e-03 -7.00669177e-03 1.27606820e-02
      1.04352906e-02 3.04946676e-02 4.34843525e-02 2.26149596e-02
      -1.78891812e-02 -2.12514792e-02 3.68612818e-03 -1.96851846e-02
      -1.51522853e-03 -1.05717555e-02 -2.22382764e-03 4.33599427e-02
      1.69277899e-02 -1.32544227e-02 -1.95142962e-02 -7.80364964e-03
      -1.35264685e-02 6.11877954e-03 -3.79113038e-03 -2.08193101e-02
      1.30863264e-02 3.97732668e-02 4.56334138e-03 -2.55481270e-03
      -3.23159061e-03 -3.08452118e-02 -1.35144289e-03 7.98483961e-04
      -1.84430671e-03 3.19261812e-02 2.48189792e-02 -8.82938155e-04
      -6.33393321e-03 -4.27800883e-03 -2.29634922e-02 -5.23342006e-03
      -4.81424481e-03 -1.30689070e-02 2.23869085e-02 4.37587500e-02
      2.63254195e-02 -1.04322787e-02 -4.65757633e-03 -1.31564839e-02
      -8.39807373e-03 -1.07314705e-03 -4.21607122e-03 5.02508953e-02
      2.62212511e-02 -9.74254683e-03 -3.51782190e-03 5.78224834e-04
      -2.50125472e-02 -7.64913799e-04 1.65202282e-02 2.73394957e-03
      1.92057546e-02 1.52049540e-02 -1.50102247e-02 -6.22150116e-03
      3.40336212e-03 -8.57872423e-03 4.32770234e-03 1.27976127e-02
      1.05565870e-02 1.93061810e-02 3.29065435e-02 -3.74893285e-03
      -1.15584172e-02 2.83770380e-03 -7.52073200e-03 5.02758007e-03
      2.28237621e-02 7.67794577e-03 3.57498899e-02 5.31645352e-03
      -1.11316685e-02 -1.86336357e-02 1.97085682e-02 2.15753429e-02
      2.29665656e-02 3.13788913e-02 2.30934639e-02 2.54714992e-02
      9.15097888e-04 3.84718482e-03 2.26982497e-02 3.30931507e-02
      -2.07760129e-02 -2.87694801e-02 -7.55383074e-03 1.41347526e-02
      6.28072117e-03 5.36073698e-04 2.22030357e-02 2.13468764e-02
      -8.72570183e-03 3.71879293e-03 3.29738739e-03 1.91759132e-02
      6.98284246e-03 -1.21465733e-03 -1.44887890e-03 3.04810535e-02
      3.81781273e-02 1.27199721e-02 -2.82560419e-02 -3.82196270e-02
      -3.80838476e-03 1.60195511e-02 -4.20938432e-03 -7.22435722e-03
      2.86881849e-02 3.27031203e-02 -1.45302871e-02 -9.94211063e-03
      -2.00765356e-02 1.47185344e-02 1.10931387e-02 2.98589584e-03
      1.54388987e-03 1.85694583e-02 1.30735105e-02 -1.11636734e-02
      -4.08195396e-04 -3.30968387e-03 1.16878767e-02 1.11983922e-04
      -1.55946342e-02 3.51538719e-03 1.42876590e-02 1.02275275e-02
      6.37715822e-03 4.03258484e-03 -5.47515741e-03 9.10289492e-03
      4.79931012e-03 -1.36937648e-02 -1.03868665e-02 1.17673539e-02
      1.25924274e-02 1.44145824e-03 -6.19435171e-03 -1.62654575e-02
      1.22256540e-02 5.22792665e-03 -1.56446546e-02 -2.43598744e-02
      1.92725752e-02 2.86360420e-02 2.24468578e-02 1.93933696e-02
      -4.65916004e-03 -1.53473401e-02 -4.78655845e-03 -2.53090747e-02
      -8.74707382e-03 2.73525133e-03 -1.45488826e-03 2.33347528e-03
      1.64014027e-02 -2.36439565e-03 -4.11569374e-03 -1.15566831e-02
      -3.40834260e-02 -1.19818803e-02 7.06343865e-03 1.15911001e-02
      2.07116324e-02 1.78237166e-02 1.75526049e-02 2.05039047e-02
      -5.26359770e-04 -3.30898874e-02 -1.16306581e-02 9.00366437e-03
      -1.20603014e-03 5.38632507e-03 -3.15516954e-03 1.50740920e-02
      -1.04921293e-02 -1.18265795e-02 -1.31428391e-02 1.58449204e-03
      6.51117554e-03 -1.43851042e-02 -1.93903816e-03 -2.15820549e-03
      1.70043502e-02 1.91821177e-02 2.89908294e-02 -1.06631769e-02
      -2.82358751e-02 -1.64823665e-03 -1.46763679e-02 -6.91424450e-03
      1.51283704e-02 -3.19235667e-04 9.51869600e-03 6.55300403e-03
      -5.27660642e-03 1.00207068e-02 -2.63823979e-02 -2.14101505e-02
      -2.32987609e-02 -1.40682263e-02 -7.58038508e-03 5.19353524e-03
      8.63268320e-03 1.67141820e-03 2.79927198e-02 9.80670564e-03
      -1.01833390e-02 -1.44448951e-02 -1.22801894e-02 -1.43220844e-02
      1.61297135e-02 1.97208337e-02 9.52459127e-03 2.61384975e-02
      2.16931626e-02 -2.52308529e-02 -2.19199695e-02 -1.13547081e-02
      -2.70214546e-02 -2.91778962e-03 1.23784477e-02 1.81645583e-02
      -1.25855040e-02 -1.23884669e-02 -1.35192825e-02 4.69329534e-03
      -5.14560100e-03 -1.78049542e-02 -1.03985323e-02 -3.82870086e-03
      4.68388153e-03 -1.01183355e-02 -3.40770632e-02 -1.44465389e-02
      2.29775589e-02 2.37130672e-02 -7.60302704e-04 -7.23401725e-04
      -6.21838775e-03 1.10255582e-02 2.89598033e-02 1.31080383e-02
      -2.65063774e-02 -6.61600428e-03 -9.32108052e-03 -1.38221281e-02
      -8.89628753e-03 4.20353981e-03 3.56694832e-02 1.60921272e-02
      2.58359034e-02 -1.24156037e-02 3.91784031e-03 -8.85807036e-04
      2.85859662e-03 -6.87385153e-04 1.13068512e-02 3.19600478e-02
      2.31366977e-02 -2.84146443e-02 -3.66603420e-03 9.99262743e-03
      1.32438010e-02 1.19641600e-02 2.87738675e-03 -1.19887283e-02
      1.47040403e-02 2.27561966e-02 -2.94793267e-02 -3.29203531e-02
      -2.97840266e-03 1.23497015e-02 1.88117027e-02 1.53252995e-02
      2.62476737e-03 4.38332409e-02 1.65396277e-02 -1.82972047e-02
      -1.44988522e-02 7.07095489e-03 4.67798207e-03 1.23308981e-02
      2.14104019e-02 2.16506850e-02 1.28029687e-02 6.65186299e-03
      -1.95375085e-02 -3.18046175e-02 -2.57317442e-04 6.48960052e-03
      7.89668038e-03 3.04319356e-02 4.11902592e-02 9.94241703e-03
      7.55826524e-03 -3.18443701e-02 -3.03384252e-02 -3.05746612e-03
      -3.48488474e-03 7.69972848e-03 1.37967654e-02 1.95949096e-02
      3.25304829e-02 3.01179197e-02 -1.01889800e-02 -2.37684511e-02
      2.32928339e-03 -9.33752861e-03 1.90814992e-03 1.26618205e-03
      1.04409149e-02 4.19538468e-02 -3.74169555e-03 -1.85573753e-02
      -2.75631249e-02 7.78696849e-04 -1.34053850e-03 5.84403239e-03
      1.35120349e-02 3.79664153e-02 -2.28584465e-03 -1.11765359e-02
      -1.94707736e-02 -2.64721904e-02 7.80444639e-03 8.83842644e-04
      9.92470793e-03 1.35951806e-02 3.79016288e-02 2.03143079e-02
      3.56314296e-04 5.82422421e-04 -8.64544325e-03 -1.49396656e-03
      -2.26981333e-03 -2.58799549e-03 -6.30563707e-04 -2.25907494e-03
      1.18280901e-02 3.38589810e-02 1.87916774e-02 -5.05686691e-03
      -3.69445444e-03 -6.66189939e-03 -6.61199680e-03 2.90783122e-03
      -1.43280998e-02 2.93051023e-02 -1.39821954e-02 -5.67153795e-03
      -1.04988078e-02 -5.74781280e-03 -1.11128530e-02 3.49286897e-03
      1.93672534e-02 3.11696753e-02 1.36403572e-02 -7.33697880e-03
      4.05492773e-03 8.46390612e-03 -6.89765997e-03 -1.37786902e-02
      -6.02432294e-03 4.14057821e-03 -1.70294556e-03 -7.24031543e-03
      1.31441988e-02 -8.79117008e-03 -2.29517417e-03 2.01950967e-03
      -7.16004142e-05 -3.59525112e-03 4.37105820e-03 -1.20902983e-02
      1.08766733e-02 -1.89405307e-02 -1.16309710e-02 8.31787754e-03
      1.03881443e-02 2.10136529e-02 1.07915420e-02 1.37635674e-02
      3.69299698e-04 8.94389674e-03 9.90772247e-03 -7.07106246e-03
      3.42381792e-03 -7.62125896e-03 -2.07310542e-03 -1.32408878e-02
      1.23049587e-03 -3.12220764e-05 1.42766573e-02 -1.61482058e-02
      1.16406484e-02 2.99783982e-03 -7.20737735e-03 1.20928017e-02
      2.05005724e-02 1.55444106e-03 -2.67134979e-03 -4.39625839e-03
      -5.26412483e-03 2.67137587e-02 3.32303345e-02 2.31094984e-03
      -2.99567282e-02 -2.74136104e-02 5.08160610e-03 3.55957891e-04
      -1.36065045e-02 6.94789644e-03 3.71399038e-02 3.77213098e-02
      1.35556683e-02 -1.13433665e-02 -9.06916335e-03 5.71473362e-03
      7.58116366e-03 -2.00681146e-02 3.34076118e-03 2.71290150e-02
      2.23628990e-02 -4.90111345e-03 4.58624680e-03 -6.65589888e-03
      7.45395524e-03 -1.14593022e-02 -1.86770763e-02 5.10143442e-03
      4.56926674e-02 3.03512327e-02 1.97830014e-02 2.95247659e-02
      -6.89966884e-03 -1.01222880e-02 -1.20289456e-02 -1.71803776e-02
      -1.71433110e-02 3.37251835e-03 -3.10365949e-03 1.03328284e-02
      1.54692372e-02 -6.63648453e-03 4.11173888e-03 7.46113423e-04
      -1.95037965e-02 -2.40499433e-02 1.37938187e-04 1.57551896e-02
      2.86234040e-02 3.41454633e-02 6.99277688e-03 -2.38478333e-02
      -4.44289856e-03 -1.27367498e-02 -1.32178580e-02 3.72358365e-03
      -6.56676665e-03 5.26064401e-03 2.98781693e-02 -4.38196771e-03
      -8.29118025e-03 2.14334158e-03 -1.62669457e-02 -8.55609018e-04
      -9.09938756e-03 -1.70984981e-03 5.99894719e-03 1.52430385e-02
      4.51572851e-04 -1.58381145e-02 -1.19656846e-02 -6.08308648e-04
      -2.54928949e-03 1.97044038e-03 -1.55721977e-03 5.91266842e-04
      1.83663350e-02 1.31548671e-02 -1.51530309e-02 3.31859500e-03
      -1.73182297e-03 1.78704746e-02 5.10248356e-03 -1.41601628e-02
      -4.27966844e-03 -8.13790504e-03 1.05250031e-02 1.91767905e-02
      3.15731280e-02 9.84974019e-03 1.29426010e-02 -5.73134348e-05
      -1.34376285e-03 -4.17738128e-03 -2.48684678e-02 2.71713594e-03
      -2.71866340e-02 5.44946827e-03 8.24817165e-04 1.75830983e-02
      -8.80243443e-03 -5.25111100e-03 -1.41599658e-03 -1.11631155e-02
      -1.64705925e-02 1.38190659e-02 1.87478587e-02 1.62201375e-02
      3.05036381e-02 1.82784293e-02 -1.00725982e-03 -7.06111314e-03
      -1.33998077e-02 -1.18511962e-02 4.82034404e-03 2.55566891e-02
      -2.47196644e-03 1.75014120e-02 1.53499367e-02 -4.81348764e-03
      -6.97676837e-03 -1.34838745e-02 -2.57440135e-02 -4.97709960e-03
      2.08643414e-02 2.07761698e-03 -6.40294561e-03 2.24439031e-03
      -7.92437408e-04 -1.87303784e-04 -7.10883318e-03 -1.16750952e-02
      5.01435669e-03 7.28662219e-03 -1.11936545e-02 8.84995703e-03
      1.03410322e-03 1.38564343e-02 1.96158700e-03 -1.63420532e-02
      -1.67532749e-02 4.23490210e-03 7.73714436e-03 -1.55126574e-02
      3.01894713e-02 5.34750009e-03 -1.40502993e-02 -8.92185792e-03
      -6.29224256e-03 -6.05442142e-03 -3.10065039e-03 4.55708522e-03
      3.25324945e-02 2.48296298e-02 1.97639130e-02 -1.69299804e-02
      -5.30260894e-03 -4.94532660e-03 5.41660938e-06 9.30762384e-04
      1.04304040e-02 2.26135589e-02 9.11191199e-03 -9.68243554e-03
      -3.04090232e-03 -4.28723497e-03 -1.26645751e-02 -4.04531648e-03
      -1.12050318e-03 4.66873171e-03 6.62275311e-03 2.21357755e-02
      -2.62976275e-03 -1.78835653e-02 -3.90220503e-03 -1.59466434e-02
      1.59894291e-03 3.04453890e-03 2.16555293e-03 1.23777762e-02
      2.24591270e-02 6.06650440e-03 -1.89039540e-02 1.48027277e-04
      2.53664656e-03 6.75740931e-03 1.64899006e-02 2.86363009e-02
      3.67085561e-02 1.19790446e-03 -7.62664434e-03 -1.97337046e-02
      -2.29763356e-03 8.04529991e-03 2.67018075e-03 2.13615559e-02
      4.62706760e-02 2.73095164e-02 -2.40677483e-02 -1.05586313e-02
      -1.80001073e-02 -7.77386315e-03 -1.48999905e-02 2.22659507e-03
      1.42053142e-02 1.88618694e-02 1.71638746e-02 -3.10923066e-02
      -4.08742344e-03 -1.01383962e-02 -5.07145980e-03 -9.25570074e-03
      -5.76239603e-04 8.13963078e-03 3.44056189e-02 3.01423129e-02
      6.49303477e-03 -1.76540893e-02 -2.52512954e-02 4.83033335e-04
      2.15715962e-03 2.99956696e-03 7.48146139e-03 2.03397609e-02
      1.62462480e-02 1.72413774e-02 -2.53442656e-02 -3.44001949e-02
      4.76230355e-03 -1.27975829e-03 9.58853122e-03 1.14370268e-02
      1.30647952e-02 1.84534006e-02 2.25559273e-03 -4.69907979e-03
      -1.19195161e-02 2.82501802e-03 -8.39006994e-03 7.52679480e-04
      -1.32818858e-03 -1.03021497e-02 -3.22594098e-03 5.11586182e-02
      -1.41713014e-02 -1.39978873e-02 -3.04166018e-03 -1.99278817e-02
      6.33972511e-03 4.51109186e-03 -1.48268202e-02 1.02373818e-02
      7.20417686e-03 -2.16589812e-02 -9.72188916e-03 -4.49029449e-03
      -8.34250357e-03 2.64312746e-03 1.33946026e-02 1.73537992e-02
      2.28606872e-02 -8.19738675e-03 -9.28059127e-03 5.08842431e-03
      6.74265157e-03 -4.29505575e-03 -4.10650187e-04 2.91448203e-03
      7.24257610e-04 1.36408573e-02 -3.24874301e-03 -8.01981241e-03
      -1.24461530e-02 -6.78596133e-03 -1.91605594e-02 5.29813347e-03
      7.04089738e-03 -5.44349337e-03 1.02522988e-02 -3.11764572e-02
      -1.89066865e-02 2.60981731e-03 1.66572910e-02 -7.10032322e-03
      4.76303604e-03 7.29545904e-03 1.31560396e-03 1.61416922e-02
      -4.65829810e-03 -6.82813069e-03 2.12286413e-03 -5.07096201e-03
      7.85807054e-03 -1.35605363e-03 5.25725947e-04 -3.35041247e-03
      9.43572447e-03 2.53408798e-03 -8.22793343e-04 -2.73785042e-03
      2.25103158e-03 3.41891646e-02 2.31862571e-02 -2.00355751e-03
      -1.86047293e-02 -1.02550015e-02 -3.81149501e-02 -1.39698926e-02
      -2.35142093e-03 1.61869284e-02 -5.43739321e-03 5.33450488e-03
      5.02896588e-03 -1.96627295e-03 -1.82829015e-02 -3.77026317e-03
      -7.66345160e-03 -2.69211666e-03 2.47214288e-02 -1.73479635e-02
      2.15619132e-02 -6.75489707e-03 -2.10241228e-02 -2.82881390e-02</_></support_vectors>
  <decision_functions>
    <_>
      <sv_count>1</sv_count>
      <rho>1.8338161551619441e+00</rho>
      <alpha>
        1.</alpha>
      <index>
        0</index></_></decision_functions></my_svm>
</opencv_storage>
