<?xml version="1.0"?>
<opencv_storage>
<my_svm type_id="opencv-ml-svm">
  <svm_type>C_SVC</svm_type>
  <kernel><type>LINEAR</type></kernel>
  <C>1.0000000000000001e-01</C>
  <term_criteria><epsilon>1.1920928955078125e-07</epsilon>
    <iterations>1000</iterations></term_criteria>
  <var_all>2916</var_all>
  <var_count>2916</var_count>
  <class_count>2</class_count>
  <class_labels type_id="opencv-matrix">
    <rows>1</rows>
    <cols>2</cols>
    <dt>i</dt>
    <data>
      1 2</data></class_labels>
  <sv_total>1</sv_total>
  <support_vectors>
    <_>
      -1.07362196e-02 3.19597162e-02 -6.75269738e-02 -4.67617363e-02
      1.79749429e-02 3.29355896e-02 2.95742247e-02 2.45948527e-02
      2.71035451e-02 7.21391812e-02 -1.26735764e-02 -4.17610258e-03
      1.57917105e-02 8.78254101e-02 4.05660756e-02 3.81353498e-02
      3.70162502e-02 1.55318473e-02 -4.44779024e-02 -2.95836069e-02
      -3.66044044e-02 -6.38205558e-03 7.65511813e-03 3.80781814e-02
      2.35568546e-02 -8.46847706e-03 -3.53666805e-02 6.14486784e-02
      2.54600793e-02 -1.91273484e-02 -2.54294742e-02 2.72314865e-02
      1.28778061e-02 1.28299138e-02 2.12131869e-02 1.71559285e-02
      9.55614168e-03 -8.43700767e-02 2.82726213e-02 4.06916961e-02
      4.87608761e-02 1.38238994e-02 4.98992726e-02 2.47332756e-03
      -5.28429151e-02 -4.00070325e-02 -6.69135973e-02 5.78648336e-02
      8.82144794e-02 7.32024983e-02 1.41410418e-02 1.94373075e-02
      8.99103936e-03 -2.77406890e-02 -5.14264703e-02 2.23836284e-02
      4.68335301e-02 -5.68861188e-03 3.82217369e-03 1.00948531e-02
      1.14810159e-02 1.71682276e-02 -6.19816631e-02 1.80109106e-02
      7.78827490e-03 7.25213587e-02 2.97400299e-02 2.91418377e-02
      -1.69162955e-02 -3.48971002e-02 5.67237381e-03 -3.08958776e-02
      -8.13101009e-02 -6.65868670e-02 5.40279076e-02 8.71899351e-03
      -2.07827496e-03 6.04476733e-03 8.03290773e-03 -3.05358157e-03
      -9.97771509e-03 3.10440250e-02 -1.12056676e-02 5.03090397e-02
      -1.61231365e-02 -4.34122160e-02 1.25003671e-02 -6.37230882e-03
      3.69088282e-03 4.15788442e-02 7.94809498e-03 -3.08834612e-02
      3.54746766e-02 -7.07274303e-03 1.13694286e-02 -2.32510567e-02
      -2.34633894e-03 1.55940288e-04 -6.99818972e-03 5.94988950e-02
      7.51860216e-02 2.33949106e-02 -5.03574535e-02 -4.03851047e-02
      -1.01029295e-02 -2.57011428e-02 9.09947883e-03 8.14215746e-03
      6.48817513e-04 -1.92163978e-02 1.63355377e-02 -6.36146683e-03
      -2.71192659e-02 -1.60416644e-02 -5.25067337e-02 5.43861603e-03
      8.46197903e-02 4.74500880e-02 4.32520136e-02 6.98381197e-03
      -4.13507782e-03 2.61709150e-02 -6.37088623e-03 -7.38420635e-02
      -2.32081418e-03 8.50301608e-02 3.42922248e-02 9.48528498e-02
      2.05786303e-02 -3.53416950e-02 -3.63425873e-02 -2.10207775e-02
      -1.96185913e-02 -1.76315866e-02 -6.41038222e-03 1.37138590e-02
      5.87811880e-02 -4.10457999e-02 -1.89472027e-02 5.72216185e-03
      -1.80369969e-02 -4.55851555e-02 -7.39037171e-02 3.91233042e-02
      -3.22236051e-03 9.82344616e-03 -4.60804068e-03 2.62378692e-03
      3.70306037e-02 2.16391236e-02 -1.34169590e-02 1.32442983e-02
      1.42953116e-02 2.65923725e-03 1.77828819e-02 2.03725435e-02
      1.52604459e-02 3.45314406e-02 6.87549450e-03 1.23498577e-03
      1.51780620e-02 -2.84626540e-02 -2.39463300e-02 4.11630534e-02
      -2.64379382e-03 1.24741988e-02 1.06880134e-02 2.47421558e-03
      -2.22384725e-02 -3.88277695e-02 2.69848872e-02 1.28706526e-02
      4.03645523e-02 1.14716990e-02 2.28037983e-02 -1.46082221e-02
      -2.81088129e-02 7.08304718e-03 -3.27517875e-02 1.60982888e-02
      3.66981961e-02 4.08872552e-02 2.95266304e-02 1.22733861e-02
      1.67718567e-02 -1.32795135e-02 -9.60654207e-03 8.73738341e-03
      -4.03878465e-02 7.66547695e-02 1.71962287e-02 1.04479492e-02
      1.80644938e-03 -1.09334690e-02 -2.36379895e-02 3.99625972e-02
      2.74873320e-02 -5.94361834e-02 4.00737263e-02 3.10583934e-02
      1.01129999e-02 -1.49242552e-02 -3.23713049e-02 -2.94348039e-02
      2.88097914e-02 6.56596050e-02 2.85335258e-02 -9.54105332e-03
      -1.40101807e-02 -1.86809059e-02 -3.74744907e-02 -5.59938513e-02
      -3.15881893e-02 4.23862822e-02 1.01585999e-01 2.21738685e-02
      4.44421433e-02 1.54060200e-02 1.49553651e-02 1.59878563e-02
      1.06947646e-02 3.08426819e-03 1.89785790e-02 -3.81476767e-02
      -7.53997490e-02 7.44400620e-02 3.80800888e-02 2.87813377e-02
      2.31182817e-02 -2.10530609e-02 -9.89475753e-03 -1.74312312e-02
      -1.02025010e-01 -1.68193579e-02 3.80687788e-02 -3.00206663e-03
      2.03544386e-02 1.36048123e-02 -1.51167223e-02 -1.18260030e-02
      -1.71717275e-02 7.54830465e-02 5.84470481e-02 8.01763237e-02
      3.94729488e-02 6.60724118e-02 1.11191226e-02 -8.76594521e-03
      2.10801093e-03 -2.33446597e-03 2.10924000e-02 5.25083616e-02
      8.19289461e-02 2.36859191e-02 3.37713957e-02 2.54705716e-02
      3.65308970e-02 -2.04936452e-02 -1.58441695e-03 -1.11288577e-01
      1.78889353e-02 7.13144541e-02 1.92211512e-02 -3.41320457e-03
      -4.22977619e-02 2.14330722e-02 -6.13502227e-03 1.34058101e-02
      -4.12896946e-02 5.80521077e-02 1.38138682e-01 3.21325026e-02
      5.91310039e-02 4.23381589e-02 -1.56215299e-02 1.18986480e-02
      -6.08067177e-02 -1.17047876e-02 4.91688661e-02 7.48717263e-02
      2.84315366e-02 1.88455526e-02 1.77465696e-02 2.19421834e-02
      4.54857647e-02 4.59509948e-03 -2.33586598e-02 8.13752040e-02
      3.98696065e-02 9.01211053e-03 2.67492048e-02 -3.20820920e-02
      -1.38920266e-02 -3.97403724e-02 -4.69068252e-02 6.05704784e-02
      7.80505463e-02 -1.29057588e-02 5.14464378e-02 9.37915593e-02
      1.19513161e-01 1.03413843e-01 -6.62437901e-02 -5.93454465e-02
      -4.98545915e-02 -4.85630054e-03 2.92848758e-02 5.49035557e-02
      1.59568302e-02 3.08558065e-02 1.13668321e-02 -3.14332396e-02
      1.18990494e-02 2.13230532e-02 6.44996464e-02 -8.50841627e-02
      -1.37844859e-02 3.03772334e-02 1.09095149e-01 1.57891631e-01
      2.42288094e-02 -6.96676504e-03 -3.98772322e-02 -7.36901462e-02
      -3.60763259e-02 -1.07992440e-02 -3.06482092e-02 -1.80677865e-02
      -8.16493761e-03 2.94520501e-02 1.56188719e-02 2.04657819e-02
      -3.72913368e-02 2.53107063e-02 4.74071428e-02 2.79132612e-02
      -3.56511958e-02 1.50087262e-02 9.88909043e-03 1.35467006e-02
      5.42757846e-03 -1.55286752e-02 -1.53406616e-02 -7.50885904e-03
      -2.84887422e-02 -2.30842717e-02 5.12368791e-02 1.79604273e-02
      2.26649921e-02 2.60933004e-02 -3.78036797e-02 3.01805679e-02
      4.42854241e-02 4.89571095e-02 7.47274011e-02 2.45458968e-02
      3.55494488e-03 6.79326011e-04 -1.19215991e-04 -8.62172060e-03
      4.82892618e-04 -7.26805022e-03 5.29166646e-02 -8.49309564e-03
      -5.10696555e-04 -9.44754295e-03 4.75968700e-04 2.09793169e-03
      -2.72541959e-02 8.30149557e-03 3.03244926e-02 1.64116565e-02
      -2.02567820e-02 1.01210410e-02 -1.31128151e-02 1.53765138e-02
      1.89040937e-02 -2.50622369e-02 -3.52732430e-04 3.73780578e-02
      7.25068524e-02 -2.14471612e-02 -2.11786889e-02 -3.24256420e-02
      -2.52511241e-02 -3.77929118e-03 -1.96127826e-03 -2.36103544e-03
      2.32714694e-02 3.66043113e-02 -5.28028086e-02 -2.75867470e-02
      -2.47145910e-02 5.85443340e-03 1.73861701e-02 -5.47831925e-03
      -3.69097805e-03 1.29543403e-02 4.77023236e-02 -9.64208692e-03
      7.03135645e-03 -9.76562500e-03 -1.40249229e-03 1.40042091e-02
      2.59801000e-02 -1.63736772e-02 9.24169365e-03 5.86906411e-02
      -9.24091134e-03 2.49103969e-03 -5.17652323e-03 -1.92209694e-03
      3.05839423e-02 -1.33746015e-02 1.92288142e-02 -5.45673221e-02
      5.96784940e-03 -3.28574963e-02 7.82274641e-03 1.89676910e-04
      2.25893687e-03 1.39867505e-02 1.98093932e-02 1.50842806e-02
      -1.20056849e-02 2.07426026e-02 -3.92797543e-03 2.05246676e-02
      2.16185804e-02 2.75961887e-02 2.42796745e-02 2.32837480e-02
      4.99412306e-02 4.54245359e-02 2.25308482e-02 2.40620435e-03
      -7.49138929e-03 -4.68928786e-03 6.64700801e-03 2.37279851e-02
      -7.18089491e-02 1.57061536e-02 4.59434576e-02 8.46180785e-03
      1.14909075e-02 2.38728430e-02 8.45841132e-03 6.10608188e-03
      -1.33345537e-02 1.45542426e-02 -3.08268517e-02 3.42999212e-02
      1.53784798e-02 2.36005466e-02 8.85394774e-03 4.44267038e-03
      1.62897725e-02 1.69555936e-02 -2.83182822e-02 5.39723895e-02
      1.46961920e-02 4.05555777e-02 1.22388657e-02 3.05609703e-02
      9.73395444e-03 1.64546389e-02 -4.82390542e-03 2.65887603e-02
      -2.97912620e-02 1.81533827e-03 1.09020108e-02 1.14160627e-02
      4.40594414e-03 6.08088914e-03 2.06887769e-03 -1.72022022e-02
      -1.15095116e-02 2.17527449e-02 -5.39631257e-03 2.82522365e-02
      1.95312053e-02 -4.10553068e-03 1.12854701e-03 2.68359222e-02
      2.96865497e-03 6.67852582e-03 6.14256188e-02 3.64012904e-02
      -2.15376937e-03 1.08450744e-02 1.35132130e-02 5.43393428e-03
      1.58475395e-02 -5.75493611e-02 5.42099997e-02 5.26059009e-02
      3.70303728e-02 4.78889532e-02 4.73586693e-02 8.51701014e-03
      7.98749737e-03 3.18951495e-02 1.19829401e-02 -5.63680241e-03
      2.13866634e-03 1.68238916e-02 2.05540508e-02 8.36478837e-04
      -1.44334603e-03 3.35144415e-03 1.47722056e-02 5.08167297e-02
      1.87922118e-03 -6.29923567e-02 -1.25325015e-02 -7.56518031e-03
      -1.45576419e-02 -9.69246961e-03 -4.73416504e-03 2.22389251e-02
      1.11068301e-01 3.49932313e-02 5.93681037e-02 1.36994373e-03
      3.24068777e-02 2.70628873e-02 1.05367638e-02 1.12392157e-02
      1.03004612e-02 6.13618381e-02 6.86463490e-02 -5.74670918e-02
      -3.71439978e-02 1.13168377e-02 3.05326656e-02 2.88355146e-02
      2.77440455e-02 2.14791913e-02 8.84231180e-02 2.99778599e-02
      5.85119100e-03 4.02825046e-03 9.78898350e-03 -1.10994944e-04
      -8.63075070e-03 -6.84411591e-03 1.15039805e-02 5.72782643e-02
      2.05419268e-02 1.45784412e-02 1.24710621e-02 3.33082974e-02
      -6.03154814e-03 -2.72515118e-02 -5.83239365e-03 2.56485231e-02
      3.11417459e-03 3.70059237e-02 -5.64785451e-02 5.49423834e-03
      2.00873502e-02 6.91992044e-03 2.10378822e-02 2.07638852e-02
      2.53262762e-02 8.16604942e-02 -5.59239089e-02 -3.44304629e-02
      3.67976278e-02 2.94201542e-02 -4.16250667e-03 -2.26157475e-02
      1.10528115e-02 6.15483187e-02 6.38123928e-03 -1.45519292e-03
      4.38015908e-04 5.98018378e-05 1.94972754e-02 1.31331943e-02
      -2.87654418e-02 9.92310978e-03 -5.62215550e-03 -1.77339483e-02
      3.16511504e-02 -3.26399691e-02 -4.54614218e-03 -1.37018729e-02
      -5.23907831e-03 -3.82071249e-02 -3.09197209e-03 9.16220061e-03
      -2.37605553e-02 4.76466492e-02 -3.45158838e-02 9.50778835e-03
      1.01335570e-02 -9.01208166e-03 -2.18236148e-02 5.69851650e-03
      1.06173372e-02 5.75912073e-02 2.94787204e-03 -9.34299603e-02
      8.22849292e-03 1.01786340e-02 4.04717401e-03 -2.14655902e-02
      1.75772551e-02 6.06557429e-02 3.03976517e-02 6.49817437e-02
      -1.34971300e-02 -3.89483781e-03 -1.00714406e-02 1.74298268e-02
      -1.58771239e-02 6.80924905e-03 -1.39522469e-02 1.72646325e-02
      4.23815511e-02 -4.00568061e-02 -3.55138443e-02 9.23695602e-03
      5.93526848e-02 8.86798725e-02 3.24290469e-02 -2.66284943e-02
      -4.35545519e-02 -6.42623901e-02 -6.50564348e-03 4.84931357e-02
      2.59940363e-02 7.42189819e-03 3.50335403e-03 2.06122193e-02
      4.24826592e-02 4.42982875e-02 1.82649735e-02 -1.14197563e-02
      1.04163308e-02 4.63164300e-02 6.38576820e-02 1.09655693e-01
      1.15383483e-01 1.26592573e-02 -1.93491708e-02 -4.49729972e-02
      -4.16067168e-02 -2.81476174e-02 -3.16115245e-02 -6.31104559e-02
      2.55697817e-02 2.77091265e-02 -4.85556666e-03 -5.74425139e-05
      -3.81341465e-02 -3.08335070e-02 2.32682638e-02 8.65389258e-02
      3.70626822e-02 2.48355139e-02 -1.03187971e-02 -3.25387754e-02
      -1.54522909e-02 -3.65116112e-02 -5.63641377e-02 -3.61655168e-02
      5.58298826e-02 1.66049022e-02 6.80188239e-02 5.20024225e-02
      -2.11716685e-02 -6.96885679e-03 -3.84934582e-02 -3.57406251e-02
      7.64508471e-02 1.44283324e-01 1.05683610e-01 2.02884665e-04
      -6.12175092e-03 -5.70403449e-02 -3.19744609e-02 -4.26248498e-02
      -3.20316181e-02 3.73739377e-02 6.16931953e-02 -3.03599122e-03
      -1.40240556e-02 -2.64567733e-02 -2.35605258e-02 -1.31235691e-02
      2.39509880e-03 2.87224352e-02 2.30793711e-02 2.91519053e-03
      -1.89029928e-02 -2.59015374e-02 -2.78302152e-02 -2.55725682e-02
      2.05948539e-02 -2.55299509e-02 -3.09612174e-02 5.93296550e-02
      9.01759788e-02 4.41444889e-02 1.05199572e-02 -1.43660177e-02
      -4.48405109e-02 -2.79093217e-02 -2.32494604e-02 1.43872216e-01
      6.80856826e-03 9.44859311e-02 1.16599975e-02 2.10409202e-02
      -3.27088870e-02 -4.12301570e-02 1.01433629e-02 -3.45728435e-02
      -2.23024376e-02 -1.17016725e-01 -3.73546816e-02 -3.11812689e-03
      -8.62821005e-03 4.77736304e-03 1.66487810e-03 9.76431358e-04
      -2.21396144e-02 5.78595214e-02 -1.36425365e-02 -1.19812961e-03
      -2.12996975e-02 -6.76807808e-03 1.71073209e-02 7.30282674e-03
      -1.56791639e-02 -6.11178875e-02 9.92794931e-02 6.67912066e-02
      -1.93082280e-02 1.88410487e-02 -1.68671608e-02 -7.38487393e-03
      -2.36492697e-02 -6.74994430e-03 -7.48927295e-02 4.85709459e-02
      5.81806488e-02 6.83618858e-02 -8.53523437e-04 6.45677187e-03
      5.65552618e-04 -2.94463038e-02 -5.41211180e-02 -6.28221631e-02
      3.01326923e-02 -1.05281046e-03 -2.19226237e-02 -2.21354570e-02
      -1.95929073e-02 -1.28153954e-02 -3.67857865e-03 -3.05828340e-02
      -4.72428240e-02 9.83064473e-02 1.79690565e-03 -3.08295037e-03
      -4.98459823e-02 -1.20122908e-02 -1.06762070e-02 -1.05714332e-02
      -1.22589104e-01 -2.36613099e-02 9.99497920e-02 -1.90899633e-02
      2.51266230e-02 -3.67661044e-02 -9.71418712e-03 -2.75531150e-02
      -3.53420302e-02 -2.98773944e-02 1.09967124e-02 6.85302317e-02
      -5.26482658e-03 -4.59218323e-02 -5.46546392e-02 -5.31582907e-03
      -2.28336956e-02 -4.69392240e-02 -4.44849283e-02 1.01482213e-01
      1.54514303e-02 3.87589186e-02 -1.04087135e-02 -1.27176829e-02
      2.87366286e-03 -9.25391167e-03 -1.63064636e-02 -8.39849412e-02
      -4.45364788e-03 2.91429311e-02 -1.06566055e-02 1.03458827e-02
      1.83982924e-02 -3.03110853e-03 -1.35805216e-02 5.54366130e-03
      -6.52336143e-03 6.79434044e-03 9.68377069e-02 3.48626040e-02
      -2.42276173e-02 -1.90867744e-02 -1.02995979e-02 -2.59779077e-02
      -1.36420242e-02 -1.86876804e-02 2.87146866e-02 -8.24155472e-03
      -1.01451315e-02 -2.78405733e-02 1.31061571e-02 -6.99964212e-03
      -2.12975536e-02 9.97559819e-03 5.79496706e-03 1.74281895e-02
      -2.09123865e-02 -1.30884349e-02 5.38291363e-03 1.18827475e-02
      -9.57015995e-03 -1.06097898e-02 -7.80256058e-04 3.09935305e-02
      5.34170158e-02 -7.38848746e-02 -4.40888293e-02 -2.61356286e-03
      1.37213487e-02 -9.41165630e-03 -5.75506920e-03 -4.61052321e-02
      -2.82556918e-02 6.83310404e-02 -2.38873921e-02 -2.80836411e-02
      -1.62491165e-02 2.08869558e-02 -7.46176625e-03 -1.67273649e-03
      1.49567425e-02 1.38196014e-02 5.42069897e-02 1.03720985e-02
      -5.47038540e-02 -1.47306379e-02 4.14221361e-03 -7.06131710e-03
      -1.04284557e-02 -3.64689417e-02 1.45209231e-03 6.15987703e-02
      -5.53015508e-02 -1.89151586e-04 9.82149784e-03 6.04775909e-04
      1.64077841e-02 1.60615314e-02 -5.00933267e-03 -1.15943244e-02
      1.31016709e-02 -5.94323575e-02 1.56834628e-02 1.10058542e-02
      1.39010328e-04 -2.56151557e-02 5.46774082e-03 1.95101574e-02
      -9.19206068e-03 -3.12989317e-02 4.53487560e-02 -2.17003073e-03
      3.02659511e-03 -5.12526743e-03 1.14059057e-02 1.22328335e-02
      -5.34220506e-03 4.30674739e-02 9.68642235e-02 2.62355376e-02
      1.06490711e-02 -1.68446247e-02 7.60884583e-03 -2.28272509e-02
      2.31838971e-03 3.28491926e-02 6.51515126e-02 3.08996961e-02
      -3.99886705e-02 -5.82714519e-03 8.30665871e-04 -1.58007294e-02
      -2.65465342e-02 -2.01050248e-02 -3.15422118e-02 5.15997596e-02
      8.46564770e-03 -7.07223937e-02 -1.51605355e-02 8.27953033e-03
      1.30608166e-02 3.96016985e-03 3.66489962e-02 3.94110605e-02
      6.24278039e-02 -1.14522576e-02 -1.78246386e-02 6.17913948e-03
      -6.21162471e-04 -2.86745559e-03 -3.74435112e-02 -2.73396522e-02
      7.42828548e-02 7.60621130e-02 4.09505107e-02 -3.78515162e-02
      -2.75656786e-02 -2.02467255e-02 -2.77967826e-02 2.98655555e-02
      2.58750152e-02 9.58899558e-02 7.68067017e-02 -2.19269767e-02
      -4.23375284e-03 1.04973633e-02 3.51858623e-02 -1.92042720e-03
      2.07567401e-02 2.97120791e-02 1.98243391e-02 1.98735446e-02
      -3.08938306e-02 6.43371139e-03 8.52966029e-03 4.17502895e-02
      1.89652499e-02 2.82518379e-02 2.48638466e-02 -8.15530568e-02
      2.91154366e-02 -1.43039078e-02 -2.12560724e-02 -4.59603556e-02
      -3.48188682e-03 -3.02069180e-04 7.07483068e-02 2.99441162e-03
      1.03250787e-01 3.44395489e-02 -4.99053970e-02 -2.69550681e-02
      -3.18127126e-02 4.91986275e-02 3.89840938e-02 9.53073800e-02
      3.27622378e-03 -6.81819543e-02 5.46562783e-02 -1.33787468e-02
      -5.38352206e-02 -7.10389242e-02 -7.50299962e-03 3.66842784e-02
      1.41324112e-02 4.49757762e-02 -1.35128479e-03 -5.99806197e-04
      -3.24042737e-02 -5.19271158e-02 -2.79095792e-03 1.04174718e-01
      3.79961990e-02 -1.10605275e-02 -3.74721549e-03 -3.67508903e-02
      -2.55921148e-02 -2.85005458e-02 -2.08434742e-02 -6.17667437e-02
      -4.91332868e-03 8.11928064e-02 3.79025675e-02 8.47750083e-02
      -3.46945063e-03 -1.12109650e-02 -1.68207660e-02 -3.06075774e-02
      -1.29478257e-02 3.72823775e-02 6.31501824e-02 -1.49852801e-02
      -8.73792917e-03 -2.84914915e-02 -3.04768067e-02 -1.94249470e-02
      -8.02137926e-02 6.39728550e-03 1.41951423e-02 2.00905418e-03
      3.98323731e-03 6.07366161e-03 -3.77053656e-02 -1.41314892e-02
      -3.77407856e-02 2.26316717e-03 1.25103712e-01 6.86474666e-02
      8.19634050e-02 3.80181745e-02 -3.34095769e-02 -5.85213117e-02
      2.05865689e-03 -4.85753529e-02 -6.57276437e-02 -5.10394312e-02
      -3.86401676e-02 7.72805437e-02 4.36887071e-02 -2.70613115e-02
      -3.18560451e-02 -1.55274486e-02 -3.09751406e-02 -2.97167543e-02
      1.00259542e-01 4.68888804e-02 1.05705783e-01 5.95970303e-02
      1.53651636e-03 -1.45309996e-02 1.73860583e-02 -3.06749158e-02
      4.01154608e-02 3.20572332e-02 5.44708641e-03 -1.41760707e-02
      -2.43341532e-02 -1.79757532e-02 -2.28567719e-02 -1.14529347e-02
      -5.19140735e-02 3.83666670e-03 3.31523828e-02 1.02248201e-02
      2.86492389e-02 -1.12803457e-02 -1.02889510e-02 -2.75245979e-02
      -4.40939516e-02 -6.03190325e-02 -1.93661544e-02 8.81364718e-02
      3.62478755e-02 -3.83724421e-02 6.98943138e-02 -3.81555781e-03
      4.18810319e-04 1.07433200e-02 -3.81495692e-02 -3.37525131e-03
      1.92915052e-02 5.17757982e-02 -2.39608139e-02 4.04718369e-02
      -2.07273010e-02 -2.66062282e-02 -1.73271187e-02 -2.07109787e-02
      8.25956538e-02 -2.02746931e-02 2.41841394e-02 -5.82485460e-03
      1.47113549e-02 -2.23358143e-02 -3.16694938e-02 -1.96950380e-02
      5.27961962e-02 1.00316972e-01 -3.57174911e-02 -3.47469673e-02
      -2.90202387e-02 2.65858956e-02 -2.47133840e-02 -5.99350259e-02
      -3.37193301e-03 9.05510783e-02 1.17338579e-02 1.19501364e-03
      4.94300295e-03 4.93788868e-02 1.81310866e-02 -4.17471230e-02
      -2.56983172e-02 -7.87422759e-04 1.72646455e-02 4.02669311e-02
      -5.02711311e-02 -2.86329854e-02 3.79816964e-02 1.64334048e-02
      -5.28295292e-03 -2.19771005e-02 1.89967882e-02 -4.82110633e-03
      9.86814648e-02 1.53358439e-02 -1.80490054e-02 2.59343218e-02
      2.48282379e-03 9.95810330e-03 6.72523165e-03 2.86485273e-02
      5.68487681e-02 5.27205728e-02 3.20174694e-02 3.98688391e-03
      1.36585115e-02 2.59300484e-03 1.37243643e-02 3.75175588e-02
      4.61288728e-02 8.63019284e-03 1.11812744e-02 1.85445149e-03
      -1.16273919e-02 1.77306831e-02 4.46933933e-04 2.52290703e-02
      -1.99077316e-02 1.01522747e-02 -9.25715864e-02 2.08335440e-03
      7.47583658e-02 -3.76570746e-02 -6.77983537e-02 -8.03000946e-03
      4.93835136e-02 5.32432692e-03 -9.71669890e-03 -5.77645330e-03
      1.88665874e-02 -2.14919783e-02 -2.02794839e-02 4.53996146e-03
      1.59541145e-02 1.01009663e-03 2.26707757e-02 -7.57012749e-03
      6.00126050e-02 5.19689657e-02 -2.74392255e-02 -7.17736920e-03
      1.11881122e-02 -6.50605280e-03 -2.26321928e-02 -3.39188543e-03
      5.30749001e-02 6.89687207e-02 1.74163003e-02 -2.42862105e-02
      -4.92254496e-02 -5.14773913e-02 1.39873791e-02 -9.04131494e-03
      -2.17746682e-02 -7.27904737e-02 -1.77854449e-02 2.99577024e-02
      -4.00510877e-02 -2.60580275e-02 1.30741131e-02 -3.39761772e-03
      -3.42711844e-02 1.90638509e-02 4.62494269e-02 6.98918626e-02
      -7.94060808e-03 -8.35210551e-03 -9.01976228e-03 -6.98920246e-03
      -2.81223804e-02 1.04576899e-02 9.20537394e-03 8.00542384e-02
      5.05413264e-02 -9.74464603e-03 -7.21443212e-03 -2.64215991e-02
      2.04791385e-03 -3.57990302e-02 1.73142646e-02 2.75572166e-02
      3.80503386e-02 4.47794283e-03 -2.67764013e-02 -4.89543006e-03
      -6.32743491e-03 -1.20103117e-02 -2.03313157e-02 -9.29063465e-03
      5.59191667e-02 8.69635791e-02 3.72290760e-02 2.02627177e-03
      -2.21424992e-03 -2.95144077e-02 -8.36163200e-03 2.63292324e-02
      1.37480150e-03 2.87781116e-02 1.16954064e-02 -1.57550797e-02
      -3.95448832e-03 4.06990154e-03 -9.00509581e-03 1.81587797e-03
      -1.41425431e-02 -2.43953615e-02 3.74779999e-02 6.40947074e-02
      -3.56681994e-03 -1.48662692e-02 -2.23446898e-02 -4.00544852e-02
      -4.08203006e-02 9.56331100e-03 4.45610844e-02 4.29472476e-02
      3.21009569e-02 -3.97608504e-02 9.60263610e-03 4.60042572e-03
      -1.77302249e-02 1.25830015e-02 1.01915941e-01 3.34116705e-02
      -1.13816541e-02 2.66203415e-02 1.52466132e-03 -1.41037104e-03
      -3.61345559e-02 -6.43735081e-02 -2.62895562e-02 -5.96346520e-03
      2.73622535e-02 -1.87383201e-02 -3.93417152e-03 -8.12293030e-03
      -2.73470003e-02 -2.98538525e-02 -2.08813213e-02 -7.86073506e-03
      3.25894319e-02 7.36306682e-02 1.02310836e-01 -1.43081117e-02
      -4.66999598e-02 -4.06272076e-02 -2.48193499e-02 1.56405475e-02
      3.73747423e-02 1.80393029e-02 3.46194841e-02 -4.30364423e-02
      5.81662916e-03 -2.38830969e-02 -3.56449857e-02 -3.49895097e-02
      -4.27973419e-02 1.26675740e-02 2.00982243e-02 6.33225441e-02
      5.29883020e-02 -8.26203451e-02 -4.26423922e-02 -6.03953749e-02
      -3.53821889e-02 -3.76243191e-03 4.66687940e-02 3.58773693e-02
      5.17925881e-02 2.91852877e-02 -3.73144113e-02 -5.46585508e-02
      -3.91546637e-03 -1.80148073e-02 -1.27575072e-02 5.12993038e-02
      -2.50444897e-02 7.70611987e-02 -9.65580251e-03 -1.44967623e-02
      -1.31403683e-02 -1.14225969e-02 -1.27295032e-02 -2.03735735e-02
      5.18696420e-02 -4.07968909e-02 4.35647219e-02 -1.35587100e-02
      -1.93781871e-02 -1.62004381e-02 -1.49495865e-03 -1.29112042e-02
      -6.87476154e-03 5.93977608e-02 -1.66688561e-02 1.98015589e-02
      -5.05100563e-02 -1.83255300e-02 -1.95033699e-02 -2.40853969e-02
      -2.33596489e-02 -2.74498649e-02 2.94188242e-02 -2.88135670e-02
      3.86964530e-02 3.34295407e-02 1.33275497e-03 -2.17569135e-02
      -3.48012745e-02 -4.38986719e-02 -7.39729404e-02 4.63164411e-02
      1.61200315e-02 1.35537740e-02 -3.09189819e-02 -2.86380220e-02
      -2.64431648e-02 -5.54037020e-02 4.50040214e-03 -4.41107433e-03
      7.51314163e-02 8.93472508e-02 7.52079412e-02 1.87857393e-02
      -1.90042425e-02 -5.25899082e-02 -3.96781936e-02 -3.58899273e-02
      -2.81122476e-02 1.08395107e-02 -7.29195448e-03 3.29969786e-02
      -1.16305901e-02 -5.95416576e-02 -3.32300588e-02 -3.59889604e-02
      -8.55645072e-03 1.19353039e-02 3.20301391e-02 6.12355731e-02
      7.08145872e-02 7.24297836e-02 5.54532418e-03 -8.60858634e-02
      -4.07212973e-02 8.77546817e-02 2.73354240e-02 -4.08897623e-02
      5.95581718e-02 2.53387401e-03 1.25707015e-02 1.86839923e-02
      -4.77487072e-02 3.22309043e-03 2.63855644e-02 7.23982812e-04
      -3.84615287e-02 6.47211298e-02 -3.08146365e-02 -2.86907926e-02
      -2.02981438e-02 -5.18951304e-02 -4.06078965e-04 3.90607454e-02
      2.65607238e-02 8.42558593e-03 1.51796099e-02 4.32605259e-02
      4.29135710e-02 2.20253188e-02 3.57812876e-03 5.83955050e-02
      4.81016226e-02 -3.89849022e-02 -2.28301361e-02 1.69080049e-02
      5.59804589e-03 -1.09881815e-02 -1.52207566e-02 -2.32305303e-02
      8.11366271e-03 1.05375908e-02 -2.01946627e-02 4.16029505e-02
      4.65443432e-02 -4.15265784e-02 2.33834721e-02 3.10690105e-02
      5.42569964e-04 -2.16086768e-02 -6.47039935e-02 -1.75860908e-03
      4.54759672e-02 -3.65343550e-03 -4.60806191e-02 -3.11477184e-02
      2.36374140e-02 -3.62950601e-02 4.78695929e-02 2.03819349e-02
      -6.11856468e-02 2.73321220e-03 8.30910578e-02 7.21018240e-02
      5.40295281e-02 5.18433005e-02 2.89425589e-02 1.04001109e-02
      9.59336571e-03 -7.29526626e-03 3.58313769e-02 9.87019949e-03
      -5.51824225e-03 1.05336700e-02 -3.79979354e-03 1.16306907e-02
      -2.56398562e-02 1.02666719e-02 -3.33399232e-03 1.63068692e-03
      -1.69507824e-02 1.56707056e-02 -6.31199777e-03 1.24119744e-02
      -5.50100729e-02 3.27225141e-02 4.42145877e-02 1.93098411e-02
      -1.14437461e-01 -2.08493080e-02 1.83039680e-02 2.01892685e-02
      -4.78163874e-03 8.07942636e-03 3.18378992e-02 9.14228782e-02
      5.53400740e-02 -1.03436783e-02 -2.74068248e-02 -1.30360182e-02
      7.40277162e-03 4.50683683e-02 -1.81801990e-02 2.88139004e-02
      -7.34727681e-02 1.33921996e-01 -2.23885309e-02 -3.65332067e-02
      -1.54684121e-02 3.77532579e-02 2.56530587e-02 2.11645905e-02
      -1.59823094e-02 -3.03141363e-02 -3.81430201e-02 -8.55673477e-02
      1.27297910e-02 6.30073808e-03 9.62191261e-03 -3.02168150e-02
      1.14463009e-02 1.74270850e-02 -5.93924662e-03 2.37229187e-02
      -2.17960812e-02 -2.51275431e-02 -6.91145286e-02 2.62409430e-02
      5.18184826e-02 6.55863509e-02 2.44248733e-02 -9.42390859e-02
      -3.73775847e-02 -3.56090628e-02 2.41804831e-02 1.87892597e-02
      -1.24982810e-02 9.76398680e-03 3.51360440e-02 9.12957266e-02
      3.65220532e-02 4.31895591e-02 -1.32501712e-02 -2.05422305e-02
      -5.56103922e-02 -2.49961391e-02 3.37278508e-02 1.11738138e-01
      -1.08323433e-02 7.03081751e-05 1.65388621e-02 -1.94512848e-02
      1.27802405e-03 -3.46350409e-02 -1.35291340e-02 1.56480316e-02
      -3.47498688e-03 5.04591130e-03 1.08107254e-02 -1.36032691e-02
      -2.13775113e-02 3.34751680e-02 2.29757596e-02 -2.37620883e-02
      -2.13248432e-02 -1.33085940e-02 3.58161852e-02 6.00248501e-02
      -1.07229957e-02 -5.11302706e-03 -1.78962648e-02 -1.69292465e-02
      -3.21891271e-02 -1.24169560e-02 5.44084655e-03 -1.47345765e-02
      7.83977509e-02 -1.16438679e-02 4.24343757e-02 4.81328964e-02
      1.73150245e-02 -8.27258453e-03 -3.59217227e-02 -2.29538437e-02
      1.00692147e-02 -1.34055188e-03 -5.76937338e-03 -6.42904360e-03
      9.38036367e-02 5.28877042e-02 -2.51800902e-02 -8.25536996e-03
      1.00381207e-02 3.30261025e-03 -3.23901400e-02 -3.52671631e-02
      1.92797289e-03 -3.11853457e-02 3.07305772e-02 -5.91233093e-03
      -1.91607177e-02 -2.68358015e-03 -3.44987512e-02 1.26154786e-02
      -4.78513539e-02 1.37709789e-02 6.90715238e-02 7.00837374e-02
      3.54008488e-02 -2.21541524e-02 -2.18229666e-02 1.37754008e-02
      2.62291208e-02 -2.96981744e-02 -1.92399267e-02 2.58782972e-02
      3.46517679e-03 1.84184574e-02 -2.59535965e-02 -1.42593952e-02
      -1.48939276e-02 -3.17133516e-02 -4.26178463e-02 6.05209321e-02
      3.80095318e-02 6.73588589e-02 5.91537962e-03 -3.46516222e-02
      -3.12998481e-02 -4.06813473e-02 -3.43389474e-02 -1.75457764e-02
      4.99641150e-02 9.07569285e-03 -4.01747972e-03 7.25455116e-03
      -3.86156328e-02 -3.21568102e-02 -4.11970122e-03 -4.73395512e-02
      -2.63660382e-02 1.01394616e-01 4.29283157e-02 1.72251184e-02
      -2.78239511e-02 -2.44798958e-02 -1.14177521e-02 -2.00084373e-02
      -3.16352583e-02 1.24398945e-02 2.22715233e-02 6.83913082e-02
      1.04483552e-02 -2.12166402e-02 -4.37880345e-02 -2.13196892e-02
      -2.78669782e-03 -8.73885211e-03 -3.01426207e-03 4.72647622e-02
      6.22196728e-03 3.02081406e-02 -5.17650843e-02 -1.91221870e-02
      -1.57104414e-02 -1.52107310e-02 -1.76556949e-02 -1.48742972e-02
      4.10423391e-02 -1.35774920e-02 6.40088990e-02 1.09216847e-01
      -7.73538277e-03 -1.24003785e-02 -3.16100195e-02 -1.15239145e-02
      1.72532571e-03 3.35139036e-02 -1.39783053e-02 3.19829099e-02
      -4.45435010e-03 -7.63376132e-02 -2.59614680e-02 -2.13273875e-02
      -1.28181837e-02 -2.04885937e-02 4.18708380e-03 1.14163449e-02
      1.02158718e-01 2.09248532e-02 2.08031549e-03 -4.25562225e-02
      -1.56334750e-02 -1.15302987e-02 -8.15411378e-03 1.61913969e-02
      4.11975309e-02 4.52242158e-02 1.98713746e-02 -2.06967033e-02
      -2.36870982e-02 -1.28827356e-02 5.13773272e-03 -5.08114137e-03
      1.56002343e-02 3.12009156e-02 9.25466344e-02 8.54585990e-02
      7.81563446e-02 -7.04269856e-02 -5.28333522e-03 7.93272723e-03
      -5.14554977e-03 2.63656080e-02 5.40996641e-02 -4.28677127e-02
      3.25726159e-02 1.71456002e-02 -4.37700525e-02 -3.47991325e-02
      1.23398313e-02 -9.86688770e-03 1.33244498e-02 4.39917073e-02
      2.68516038e-03 6.02196977e-02 1.48054153e-01 -3.90720479e-02
      -4.43760771e-03 7.87337124e-03 1.33732287e-02 -4.53992607e-03
      -7.94095397e-02 -3.43704410e-03 6.18897863e-02 4.31967713e-02
      3.01785078e-02 1.95337348e-02 -4.64519206e-03 -1.26810335e-02
      -1.26182185e-02 -2.78814211e-02 1.43625599e-03 -4.14620005e-02
      -8.91224947e-04 7.37639666e-02 -1.60850808e-02 -9.35287308e-03
      -2.52312925e-02 -2.64042597e-02 -7.59453923e-02 -8.65266565e-03
      3.97732370e-02 6.32444024e-02 1.09705821e-01 4.55741324e-02
      -3.58041190e-02 -5.75715788e-02 -1.68712493e-02 -6.01158328e-02
      -4.23219316e-02 -1.47178853e-02 5.82564436e-02 1.40536666e-01
      2.37957165e-02 -3.50947268e-02 -5.79412133e-02 -2.12859325e-02
      -5.22961281e-03 2.30283383e-02 1.52704762e-02 -1.72898471e-02
      4.21404131e-02 -5.27635822e-03 5.81313483e-03 -3.58142518e-02
      -1.13875521e-02 3.21146776e-03 3.72333489e-02 -3.58459428e-02
      -3.00425086e-02 -7.58377928e-03 4.22113426e-02 -5.61717339e-02
      -2.21089777e-02 3.28742829e-03 -1.85992997e-02 -4.19589803e-02
      4.95238230e-04 -4.13194671e-03 6.19514845e-02 -3.93732898e-02
      2.82869842e-02 -9.62675025e-04 1.54287601e-03 -2.41869930e-02
      -4.07668725e-02 -3.80565189e-02 -6.72019878e-03 8.13169256e-02
      -1.23410905e-02 6.42078556e-03 1.52988145e-02 -1.87542010e-02
      -3.59983444e-02 -1.18473405e-02 -2.19889116e-02 -1.90765061e-03
      -6.97710318e-03 -2.96771098e-02 -6.52076602e-02 5.13559468e-02
      2.01874264e-02 -1.07737994e-02 -3.15880240e-03 -2.47864779e-02
      -3.05554550e-02 -1.80787146e-02 5.82910590e-02 5.11819646e-02
      -1.59216151e-02 -2.41604038e-02 -2.11181790e-02 -3.22251469e-02
      -2.93907784e-02 6.59323558e-02 3.54642645e-02 5.02153262e-02
      -1.80905517e-02 1.25944400e-02 8.19763914e-03 1.97141878e-02
      -9.61929653e-03 -3.97476777e-02 -1.15652299e-02 1.36761576e-01
      4.17289361e-02 -5.83194420e-02 -2.44647954e-02 3.11061498e-02
      1.10560106e-02 -5.97706670e-03 -5.30982502e-02 -3.44298556e-02
      -2.73310468e-02 9.63549539e-02 5.04113324e-02 -9.25283283e-02
      -1.89024918e-02 -2.93127205e-02 -2.06060056e-02 -2.35804971e-02
      -8.12076330e-02 -4.23982255e-02 1.41102925e-01 3.88040394e-02
      1.06088761e-02 2.67194975e-02 3.73288170e-02 2.32475996e-02
      -6.52524456e-03 -5.25016077e-02 -1.44437570e-02 1.41904160e-01
      2.99380161e-02 -8.51687491e-02 -3.10766250e-02 -1.23567116e-02
      1.52582666e-02 4.13420564e-03 -7.01080561e-02 -2.69064456e-02
      4.73297015e-02 1.15978852e-01 1.76092144e-02 1.39300795e-02
      -1.16459336e-02 1.16190957e-02 -2.03512609e-02 -1.55895725e-02
      1.70872919e-02 -4.12498228e-03 9.91554558e-02 4.44012284e-02
      3.96879762e-02 4.95449528e-02 -1.03745153e-02 -3.74176353e-03
      -1.57986339e-02 -4.32208776e-02 3.81660871e-02 8.72053951e-03
      5.28259436e-03 -5.80448397e-02 -3.70636694e-02 1.27940644e-02
      -5.21315727e-03 2.13687439e-02 -2.62910835e-02 -6.20898651e-03
      9.09291767e-03 2.82299053e-02 -1.93747170e-02 -3.08855483e-03
      6.79246557e-04 -7.31583359e-03 4.22386490e-02 -4.19684239e-02
      -3.26282233e-02 3.75173241e-02 -5.29207848e-02 2.14608684e-02
      7.00573772e-02 7.08549693e-02 4.51121740e-02 2.51273029e-02
      -1.59684885e-02 2.12443992e-02 5.77640720e-02 -1.40627120e-02
      1.41671915e-02 1.36698661e-02 2.71445774e-02 2.32169013e-02
      1.41949486e-02 -5.57164010e-03 3.02397292e-02 -6.68299664e-03
      1.82991137e-03 2.11773682e-02 6.32895380e-02 2.99405977e-02
      2.10237801e-02 5.48405014e-02 5.26149431e-03 4.03803363e-02
      7.78013170e-02 2.84111686e-02 -7.87359779e-04 2.60837879e-02
      1.09302495e-02 -1.74680743e-02 3.60450037e-02 2.49574892e-02
      -4.57082177e-03 -4.86266501e-02 3.51605602e-02 1.01373926e-01
      5.70072830e-02 1.79023836e-02 -2.29736827e-02 -2.38361452e-02
      -3.51433572e-03 -2.25300454e-02 -2.36133561e-02 4.23511071e-03
      -1.15290694e-02 2.83423997e-02 2.78627891e-02 -2.62634903e-02
      -3.30040380e-02 -1.57838799e-02 -3.30238566e-02 -5.52800708e-02
      1.26155719e-01 8.44803080e-02 8.07767361e-02 -1.12760602e-03
      -3.33788469e-02 -3.89525220e-02 -3.21718468e-03 -5.35861999e-02
      -3.54679152e-02 2.67748181e-02 3.78863025e-03 1.39930770e-01
      8.45810473e-02 3.16666625e-03 -1.98588520e-02 -4.15293537e-02
      -3.25904228e-02 -1.19422507e-02 1.40056368e-02 2.42775995e-02
      -9.42494720e-03 7.86035955e-02 1.50322532e-02 -5.92052601e-02
      -1.03603043e-02 -3.33233513e-02 -9.22946818e-03 -1.76647734e-02
      1.13967434e-02 4.75546382e-02 1.59348130e-01 7.94238523e-02
      4.78424765e-02 -2.77671609e-02 -6.79905340e-03 -1.10425735e-02
      3.49854678e-02 1.66400634e-02 5.16355000e-02 9.51268524e-03
      -6.11669309e-02 -9.58948433e-02 -5.23215309e-02 -2.94838957e-02
      -1.88542921e-02 2.25324929e-02 4.50275689e-02 1.07623331e-01
      5.13593815e-02 1.12475753e-01 -2.81079765e-02 -3.57644744e-02
      8.55554920e-03 1.57481488e-02 1.75744342e-03 1.45025421e-02
      2.36825254e-02 -5.76138264e-03 7.29265437e-02 1.12138744e-02
      1.24946889e-03 -8.78784712e-03 2.44636387e-02 1.38585400e-02
      1.36745190e-02 2.46991180e-02 1.97562668e-02 8.38804245e-02
      5.06220721e-02 4.37488407e-03 -1.83415860e-02 1.00936685e-02
      3.16545996e-03 6.06382033e-03 1.47111341e-02 5.98512888e-02
      7.20975175e-02 -1.91077050e-02 -1.58129688e-02 -6.67622462e-02
      3.73414578e-03 2.93295272e-03 1.87791965e-03 1.57419797e-02
      6.30411357e-02 6.95462450e-02 -3.14736851e-02 -2.29891501e-02
      1.33415153e-02 5.82686858e-03 -5.65178366e-03 1.22075411e-03
      -2.71148905e-02 -2.83204578e-02 6.31775111e-02 2.61898898e-02
      7.75221065e-02 7.31938332e-02 7.26310536e-03 -2.92742010e-02
      3.40402056e-03 -4.16018963e-02 -4.80661429e-02 2.14047767e-02
      3.88523266e-02 1.43439651e-01 -7.30617046e-02 -2.74344068e-02
      -5.92817925e-03 7.81140244e-03 -3.63778975e-03 -1.04380455e-02
      4.24675941e-02 1.52285770e-02 -6.42149970e-02 -1.65774841e-02
      2.33300645e-02 -6.71515381e-03 -2.31504701e-02 -4.73547950e-02
      -2.49510445e-02 5.22835553e-02 -8.48115236e-03 2.55609937e-02
      6.23329170e-02 -3.88231203e-02 -9.28989518e-03 -1.52122788e-02
      -2.88262628e-02 -4.94208783e-02 -1.30674674e-03 3.70272920e-02
      1.21462613e-01 -7.29521783e-03 4.68012178e-03 -2.28847321e-02
      -3.02251782e-02 -2.71429867e-02 -4.86158244e-02 1.89241171e-02
      1.23028442e-01 7.40089864e-02 2.32556611e-02 -2.65583321e-02
      -3.91995050e-02 -5.41803762e-02 -6.02077134e-02 -6.73212670e-03
      3.44933458e-02 -3.62060890e-02 -8.17167200e-03 -2.96313222e-02
      -5.96709810e-02 -2.32462455e-02 -4.25272025e-02 -2.70462725e-02
      3.64150945e-03 6.66728765e-02 2.45686602e-02 3.49768959e-02
      2.22429242e-02 4.93661575e-02 -2.47155000e-02 -2.77340952e-02
      -1.98226776e-02 -3.27429175e-02 -2.43543386e-02 6.97355941e-02
      7.88152665e-02 4.75612655e-02 2.20632423e-02 -2.50862371e-02
      -2.95501463e-02 1.46354027e-02 -6.88735954e-03 -1.21113593e-02
      1.18119642e-02 7.38506392e-02 -6.88614622e-02 -4.24199067e-02
      -2.14180499e-02 -3.05375122e-02 -2.50944048e-02 1.12985894e-02
      -2.36086920e-03 4.63388115e-02 3.54987197e-02 2.92712562e-02
      3.33630331e-02 -3.85329947e-02 -1.35599244e-02 9.48254671e-03
      1.58958174e-02 9.60483123e-03 3.16236122e-03 5.67285120e-02
      1.64057612e-01 5.33069670e-02 2.28875726e-02 -3.83961597e-03
      1.28077585e-02 2.29152036e-03 -2.14110725e-02 -7.10525215e-02
      3.22454460e-02 1.20628059e-01 7.67509118e-02 -3.11747566e-02
      -2.51856055e-02 -6.11436665e-02 -1.01661598e-02 -4.83780447e-03
      -5.13866507e-02 -2.12963894e-02 8.60100687e-02 3.03817187e-02
      2.25598123e-02 -3.21067614e-03 1.44444341e-02 -3.07336007e-03
      -2.05171518e-02 -7.73433372e-02 1.95301138e-02 7.67119825e-02
      6.56412020e-02 -1.52882626e-02 -2.69583594e-02 -7.61974528e-02
      -7.94917718e-02 -6.35354146e-02 -5.08900248e-02 1.93698257e-02
      1.00742050e-01 9.98230800e-02 2.38827020e-02 -5.34720458e-02
      -3.09978835e-02 -6.47971733e-03 4.19034017e-03 4.03916948e-02
      1.04831690e-02 2.16777585e-02 7.43549317e-02 5.61243556e-02
      -4.50870693e-02 -1.81109477e-02 -1.37286223e-02 -4.02059546e-03
      4.83186543e-02 1.29912207e-02 9.27422121e-02 1.50017455e-01
      1.08126206e-02 -7.52758011e-02 -4.28178683e-02 -6.51442036e-02
      -4.47982252e-02 3.28559838e-02 -5.00786630e-03 -6.28801212e-02
      6.74555600e-02 1.25044629e-01 -2.32152510e-02 4.14749654e-03
      -7.39278793e-02 -3.41818333e-02 -6.94345508e-04 -5.94003089e-02
      3.08850259e-02 -3.46058011e-02 8.97457730e-03 -7.05766259e-04
      -1.74360238e-02 4.52175364e-03 5.68607775e-03 1.84618719e-02
      2.99062710e-02 2.94716507e-02 9.23204143e-03 5.80410250e-02
      -5.57886017e-03 -1.98076833e-02 -1.32912621e-02 -1.91289298e-02
      -3.99047835e-03 3.28591317e-02 -4.86742556e-02 6.76523522e-02
      6.87880516e-02 2.20648441e-02 -2.45379731e-02 -1.77161936e-02
      -5.98765258e-03 4.89959493e-03 8.52841418e-03 -4.13586348e-02
      -1.20336935e-02 4.26542386e-02 1.71556249e-02 -2.90423743e-02
      -1.97294336e-02 -3.37675959e-03 -5.56195562e-04 1.26402238e-02
      -2.59419959e-02 2.46673301e-02 1.12678804e-01 7.80204237e-02
      5.00437692e-02 1.39427520e-02 -1.70696750e-02 -1.88788231e-02
      -1.50604546e-02 -3.51825282e-02 2.93929800e-02 3.08872499e-02
      2.57827099e-02 1.07045680e-01 7.32223764e-02 1.45978369e-02
      -4.21838881e-03 -4.52499241e-02 1.24572245e-02 3.28828096e-02
      7.74869919e-02 4.60845791e-02 1.20350653e-02 5.81456115e-03
      5.53154340e-03 -2.11059973e-02 -1.83751006e-02 -6.22811262e-03
      7.36635327e-02 -1.56032722e-02 -3.88013683e-02 1.08238300e-02
      1.24306921e-02 1.30712697e-02 1.43608367e-02 -4.25994843e-02
      -3.90764046e-03 -1.19218521e-03 2.09043566e-02 2.81565730e-02
      5.76196238e-02 1.90360304e-02 -3.36720459e-02 -4.66570370e-02
      -3.04152779e-02 9.34779644e-03 -1.61587503e-02 2.48030536e-02
      4.20444272e-02 8.04887041e-02 4.62339893e-02 1.05499148e-01
      2.69964114e-02 3.40623893e-02 -4.94128838e-03 -3.33967432e-03
      -4.96438378e-03 5.90559840e-02 7.67380968e-02 -3.16623715e-03
      -9.33924839e-02 -3.58108021e-02 -4.27025519e-02 6.72307983e-02
      1.96235497e-02 4.24450785e-02 2.92507987e-02 6.49638921e-02
      -1.24955038e-02 2.03429703e-02 8.45399648e-02 7.99851418e-02
      -3.24672349e-02 -7.15217134e-03 3.63056827e-03 7.92208966e-03
      5.60573023e-03 2.58169528e-02 7.10789189e-02 2.11989749e-02
      1.81039833e-02 -1.10367149e-01 -2.05556657e-02 -2.73763295e-03
      -7.60465045e-04 1.23140533e-02 1.14007629e-02 1.03724867e-01
      5.92676438e-02 1.36028612e-02 5.04193194e-02 -3.84033099e-03
      -6.06197631e-03 -2.38474514e-02 -2.62970552e-02 -3.63054201e-02
      -2.09222734e-02 2.13040896e-02 7.77980760e-02 4.82104113e-03
      -1.53048588e-02 -1.89454071e-02 -3.51642817e-02 -2.38465741e-02
      -4.36836146e-02 3.72614712e-02 9.11649093e-02 1.89926773e-02
      -7.96086490e-02 -3.07047404e-02 -1.28733702e-02 -1.26427179e-02
      -9.12577088e-04 -3.42775416e-03 7.66456872e-02 9.40588266e-02
      -4.42440473e-02 -6.23472743e-02 -4.61967383e-03 -2.49142218e-02
      -4.30495031e-02 -2.69694161e-02 -2.30332930e-02 6.37076572e-02
      1.22024924e-01 1.75205357e-02 -6.96788505e-02 -2.44740043e-02
      -1.97460465e-02 -8.64598528e-03 5.12472866e-03 -2.64697243e-02
      7.32650086e-02 1.17687151e-01 7.94543326e-03 -5.45629561e-02
      -5.38650248e-03 -3.43826264e-02 -4.44649197e-02 -1.39144855e-02
      -8.93217977e-03 3.00048161e-02 1.04829386e-01 2.97277886e-02
      -1.24905317e-03 8.24712100e-04 -2.00531594e-02 -4.95660566e-02
      -3.85294557e-02 2.14439537e-03 2.98832022e-02 4.28507663e-03
      5.31064309e-02 -9.49712750e-03 -2.15061549e-02 1.93575288e-05
      -2.21439470e-02 -7.69286556e-03 2.63685919e-02 3.11644282e-02
      4.47346717e-02 5.02039008e-02 5.73523249e-03 -1.92206795e-03
      -2.64936239e-02 -5.60238846e-02 -2.72351950e-02 -1.43719157e-02
      -5.36323749e-02 6.89954311e-02 8.98556560e-02 2.03646068e-02
      -2.48624887e-02 1.16259949e-02 -2.97830235e-02 -1.32511780e-02
      -1.28102079e-02 -4.07501310e-02 1.00138672e-01 5.26392013e-02
      -6.01071753e-02 -1.53121790e-02 1.59222819e-02 -8.94210581e-03
      3.91854439e-03 3.82626653e-02 -1.03850930e-03 1.44659644e-02
      -2.90794112e-03 1.89386196e-02 4.83794920e-02 2.42589554e-03
      1.10821119e-02 6.81970567e-02 5.53074740e-02 1.05359070e-02
      1.91365387e-02 9.20544099e-03 -2.11989358e-02 1.25264190e-02
      4.10437509e-02 -1.88905440e-04 -4.59998986e-03 3.60178086e-03
      -6.79599913e-03 2.81382576e-02 4.95769978e-02 1.63448565e-02
      5.21034226e-02 3.18599790e-02 -2.18086457e-03 4.74554487e-02
      4.67155389e-02 -1.38131168e-03 8.16741399e-03 1.97837385e-03
      5.20230718e-02 -3.33787780e-03 2.96184644e-02 1.23542333e-02
      3.57945263e-02 1.79667603e-02 8.51085235e-04 -4.19155508e-02
      -3.02329008e-02 1.63900942e-01 1.06512167e-01 2.97440700e-02
      4.65986039e-03 -5.48502989e-02 -6.75508901e-02 -4.38225493e-02
      -1.28542045e-02 2.92712804e-02 7.63740437e-03 8.38236064e-02
      3.33009884e-02 -4.15183604e-03 1.15294149e-02 3.24933045e-02
      -7.32440501e-03 -1.23033172e-03 1.30177625e-02 5.87393437e-03
      1.28521025e-01 3.56454477e-02 -1.33784777e-02 -3.99204418e-02
      -5.29602468e-02 -3.67646217e-02 -2.04429459e-02 1.27287135e-02
      6.33316338e-02 1.43959895e-01 1.71770975e-02 -3.04625630e-02
      -4.12061438e-02 -6.92842528e-02 -5.19837253e-02 -1.61692573e-04
      -3.11243050e-02 -1.10637676e-02 1.45318434e-01 1.17006168e-01
      -9.12467390e-03 -9.50157642e-03 -5.48188090e-02 -4.38770317e-02
      -2.35475637e-02 -7.81412721e-02 7.39994645e-02 1.33829072e-01
      1.34846254e-03 -1.17190611e-02 -2.08547954e-02 -4.72684130e-02
      -2.53158640e-02 -3.90358977e-02 -1.39187491e-02 5.42537346e-02
      1.08904824e-01 -4.46694791e-02 -1.15916720e-02 3.23979976e-03
      3.12271551e-03 -1.38874063e-02 -2.16167234e-02 -2.36925893e-02
      -4.30589654e-02 7.64579773e-02 1.00956008e-01 2.29088925e-02
      -4.75462666e-03 -7.71080889e-03 -3.65631119e-03 -1.51682121e-03
      -1.86756570e-02 -6.45731688e-02 9.26638301e-03 7.68975317e-02
      4.29745838e-02 3.71180126e-03 -2.04319134e-02 1.74653844e-03
      4.18393128e-03 2.74599157e-03 6.18963018e-02 4.43100408e-02
      -3.05879787e-02 9.42587201e-03 7.31786806e-03 3.86082102e-03
      2.14785081e-03 1.89511124e-02 -4.34799679e-03 6.90805493e-03
      -3.09924837e-02 -6.86973333e-04 2.11173166e-02 -1.61325186e-02
      -9.88440868e-03 1.27484398e-02 1.40126655e-02 5.63425058e-03
      2.87099257e-02 7.46107846e-02 4.92365658e-02 8.51474330e-02
      2.57352348e-02 -2.60031736e-03 1.63445026e-02 -7.75353471e-03
      3.39726806e-02 -1.84703954e-02 2.05864124e-02 2.80023348e-02
      9.57832858e-03 3.86387482e-02 5.97809209e-03 1.22955926e-02
      4.18790765e-02 6.00476097e-03 2.28897519e-02 -1.07533978e-02
      7.56329373e-02 4.17469442e-02 1.54534960e-02 -2.08296888e-02
      3.17011699e-02 4.74149622e-02 6.33905679e-02 -5.70222624e-02
      -7.53857866e-02 7.96977058e-03 6.40936270e-02 4.49782349e-02
      2.77428571e-02 3.73184681e-02 7.36165047e-02 -1.92425412e-03
      -1.68152191e-02 2.72722496e-03 7.16193486e-03 5.25999926e-02
      6.73726127e-02 -4.05355776e-03 -6.11234456e-02 -1.77287180e-02
      -2.16086209e-02 5.94714992e-02 6.60855696e-02 6.70650750e-02
      1.76173691e-02 3.48694809e-02 -2.08331645e-02 -1.78718548e-02
      7.13903680e-02 4.60318401e-02 6.75905263e-03 -9.07265989e-04
      -1.33736990e-03 3.80725563e-02 5.11926645e-03 -1.42104854e-03
      2.78590037e-03 6.56683147e-02 5.15194200e-02 8.51207376e-02
      2.54243389e-02 4.40674759e-02 -7.10110599e-03 3.86848375e-02
      -1.78715754e-02 1.35327615e-02 8.99245590e-02 7.89895002e-03
      5.65062612e-02 2.14519966e-02 1.58688184e-02 -2.61561461e-02
      -3.43180411e-02 -7.35533834e-02 -2.09728759e-02 -5.00284806e-02
      9.93960276e-02 9.70969051e-02 5.13126068e-02 4.77252202e-03
      -2.54972652e-02 -3.53253707e-02 -5.69051206e-02 2.32811421e-02
      9.23556313e-02 4.49672751e-02 7.00143874e-02 3.90978120e-02
      1.10029313e-03 -7.96607137e-03 6.70827040e-03 -6.64027557e-02
      -3.53473276e-02 -5.67201786e-02 4.33217548e-02 6.38590157e-02
      9.11927894e-02 2.30949223e-02 6.46756543e-03 8.55567604e-02
      -4.69771214e-03 2.27910616e-02 -6.62590340e-02 5.57263605e-02
      6.91038184e-03 -1.44996298e-02 -1.06253512e-02 -6.35331357e-03
      -1.05332583e-02 -3.79116461e-02 5.65728396e-02 7.32024834e-02
      1.39195556e-02 6.65510893e-02 -2.57734563e-02 -2.05983073e-02
      -7.65954191e-03 -1.16560338e-02 -4.09861282e-02 -2.21085753e-02
      8.67508873e-02 1.62862781e-02 4.04369123e-02 7.01341836e-04
      -3.18841846e-03 -5.24303317e-03 3.16548236e-02 2.66855895e-05
      4.90465835e-02 -4.95295115e-02 -1.26286279e-02 8.26273039e-02
      -4.61721560e-03 1.84807219e-02 3.04568317e-02 3.30797657e-02
      -7.66315917e-03 -2.97911763e-02 -6.65580630e-02 2.18275320e-02
      -8.38737283e-03 -1.61685850e-02 -1.47597613e-02 -1.57368835e-02
      -1.20150493e-02 -1.52942948e-02 -6.17603809e-02 -5.98918693e-03
      7.97461495e-02 -6.20874576e-03 -6.79476094e-03 -3.16575132e-02
      -1.42938374e-02 -2.33471524e-02 -1.79619435e-02 -4.49920371e-02
      3.27238627e-02 5.85023053e-02 1.82353631e-02 1.11715375e-02
      1.48832342e-02 4.57164412e-03 -6.45923289e-03 -1.94132514e-02
      -2.62922794e-02 -5.81014194e-02 2.59476788e-02 3.43591347e-02
      4.27466482e-02 -1.08932098e-03 -4.15095873e-03 3.40494327e-02
      -1.90805849e-02 -1.84969592e-03 -1.65045001e-02 9.29263830e-02
      -7.90074933e-03 -2.34151110e-02 1.88334566e-02 7.83117767e-03
      -2.04473287e-02 -2.45939884e-02 -1.52471289e-02 2.73516722e-04
      7.64212459e-02 -9.34654102e-03 -1.46108568e-02 7.82715913e-04
      -3.80536565e-03 -1.22704869e-02 -1.10307429e-02 -4.90132719e-02
      -2.80159544e-02 -1.20210946e-02 3.90056781e-02 1.73187163e-03
      -9.81184933e-03 3.84179340e-03 1.64957643e-02 -3.72342914e-02
      5.73964790e-03 4.22884198e-03 5.44811040e-02 6.27843291e-02
      -5.15584350e-02 -4.24985662e-02 3.88763775e-03 5.45183271e-02
      -3.44770192e-03 -1.02289421e-02 3.41558866e-02 2.15740241e-02
      2.75847353e-02 5.33983186e-02 4.79402905e-03 -1.39374752e-02
      -2.77827810e-02 4.68994305e-03 -1.89728569e-02 3.86520918e-03
      5.84422331e-03 -4.71009966e-03 5.79437464e-02 1.20659126e-02
      -2.69280672e-02 -4.99996878e-02 -2.93437634e-02 -8.91658943e-03
      -3.89181115e-02 -3.57650295e-02 3.61577719e-02 -2.66545042e-02
      -3.84340473e-02 1.12362131e-02 6.90076426e-02 1.46133341e-02
      2.24584192e-02 7.88600221e-02 1.24878865e-02 3.20449099e-02
      -3.15492600e-02 -1.43086044e-02 1.24348588e-02 1.23469876e-02
      1.71278156e-02 5.02247103e-02 4.20098118e-02 6.18565362e-03
      5.98958135e-02 7.85102472e-02 -4.66347061e-04 1.46962097e-03
      -7.04112323e-03 -7.41074700e-03 -2.06934325e-02 -5.36095537e-02
      -6.63951458e-03 7.14883134e-02 5.56708351e-02 -4.80532944e-02
      9.47406981e-03 3.30549777e-02 2.28175353e-02 -1.88167337e-02
      -7.53249088e-03 2.12167464e-02 1.21332584e-02 -6.88224360e-02
      1.54120075e-02 1.94374993e-02 8.33184049e-02 1.50285987e-02
      1.16103133e-02 -1.66241266e-02 -3.07525886e-04 1.88857373e-02
      -6.46991283e-02 4.84952256e-02 3.15071046e-02 5.82283959e-02
      1.07176853e-02 -1.39468778e-02 5.82517777e-03 4.68456782e-02
      5.48729189e-02 4.86260168e-02 -3.33620273e-02 3.67856678e-03
      6.84124697e-03 1.79302506e-02 2.93797851e-02 3.07198036e-02
      2.88556758e-02 5.33910543e-02 -1.73791125e-02 -2.61792485e-02
      2.60088444e-02 -3.10619269e-02 6.30968157e-03 7.28145568e-03
      3.51580940e-02 2.37128213e-02 2.50900723e-02 -6.27323836e-02
      7.35154748e-02 2.88917609e-02 8.66524503e-02 3.33169997e-02
      3.84516381e-02 3.90345566e-02 4.45255972e-02 -2.27670986e-02
      -3.13120112e-02 -3.97946090e-02 -1.22263990e-02 1.54714789e-02
      5.07443994e-02 1.52420299e-02 5.21888323e-02 3.93011756e-02
      1.65780261e-02 -5.63569926e-02 2.45703924e-02 4.39385660e-02
      2.67714635e-03 4.32479661e-03 2.86397710e-02 8.12655166e-02
      8.48882794e-02 -9.04723257e-02 -1.36316478e-01 -1.70423016e-02
      5.38822971e-02 2.04289425e-02 4.40990813e-02 3.22420262e-02
      7.70095587e-02 9.98839852e-04 -7.27329054e-04 -4.27186079e-02
      -4.23910655e-02 3.09091597e-03 3.01552992e-02 8.36071372e-03
      2.05867775e-02 8.84186327e-02 9.93585363e-02 -6.91915825e-02
      -9.94024277e-02 -8.08423012e-03 4.87121753e-02 4.12750170e-02
      2.03636140e-02 2.12252941e-02 7.96262324e-02 1.94174349e-02</_></support_vectors>
  <decision_functions>
    <_>
      <sv_count>1</sv_count>
      <rho>6.3779514353219415e+00</rho>
      <alpha>
        1.</alpha>
      <index>
        0</index></_></decision_functions></my_svm>
</opencv_storage>
