<?xml version="1.0"?>
<opencv_storage>
<my_svm type_id="opencv-ml-svm">
  <svm_type>C_SVC</svm_type>
  <kernel><type>LINEAR</type></kernel>
  <C>1.0000000000000001e-01</C>
  <term_criteria><epsilon>1.1920928955078125e-07</epsilon>
    <iterations>1000</iterations></term_criteria>
  <var_all>2916</var_all>
  <var_count>2916</var_count>
  <class_count>2</class_count>
  <class_labels type_id="opencv-matrix">
    <rows>1</rows>
    <cols>2</cols>
    <dt>i</dt>
    <data>
      1 2</data></class_labels>
  <sv_total>1</sv_total>
  <support_vectors>
    <_>
      -2.19271379e-03 5.53842215e-03 4.19429620e-04 -2.15677321e-02
      -2.34774174e-03 -1.23455944e-02 -5.72642253e-04 5.25564933e-03
      3.14647114e-05 7.60484312e-04 2.04377100e-02 1.37282386e-02
      -8.20866507e-03 -1.38217444e-03 -1.04759578e-02 4.39238828e-03
      1.72434822e-02 9.44239739e-03 -1.39288837e-03 1.74193196e-02
      1.86702665e-02 -4.34315484e-03 -1.50238993e-02 -1.09266629e-02
      2.27353116e-03 8.80169310e-03 -7.40699377e-03 2.11037360e-02
      3.93447801e-02 1.26692215e-02 -1.34524163e-02 -1.90766566e-02
      -7.76829477e-03 1.80428091e-03 2.15761196e-02 1.48319406e-02
      6.89784577e-03 1.20475460e-02 4.27459413e-03 -3.11475224e-03
      -1.07192900e-02 -1.17761316e-02 -7.78084481e-03 4.17632656e-03
      -2.92029290e-04 1.60401147e-02 2.35955734e-02 6.34316262e-03
      3.54859675e-03 -1.00773927e-02 -1.03065995e-02 -2.02098186e-03
      -1.09655419e-02 -4.89506824e-03 1.87461954e-02 2.17474215e-02
      -1.60980914e-02 -1.81122869e-02 -2.74196845e-02 -8.68182816e-03
      -4.05124296e-03 1.44794397e-02 1.25628188e-02 -2.13269159e-04
      2.67503634e-02 5.13451500e-03 1.51166623e-03 -1.93446837e-02
      -7.14983512e-03 -4.72505158e-03 7.94070773e-03 -1.72445260e-03
      1.25232097e-02 1.40730171e-02 -1.31935184e-03 -6.40310766e-03
      -3.53100756e-03 -4.02159407e-04 6.36592507e-03 1.17252031e-02
      2.30540079e-03 -8.77666636e-04 5.58581669e-03 -2.18139752e-03
      -1.25362193e-02 -3.06503335e-03 -2.14942265e-03 6.42368523e-03
      2.96033733e-02 1.11016650e-02 -9.40772705e-03 2.35489812e-02
      5.18273981e-03 -6.39750250e-03 -1.02945669e-02 -4.31040255e-03
      -1.01512601e-03 1.63837597e-02 -5.67915197e-03 6.57548616e-03
      8.26241355e-03 -4.22180397e-03 -1.36362445e-02 -2.41477285e-02
      -5.59866428e-03 5.32890204e-04 1.12623181e-02 -4.19254648e-03
      1.75530324e-03 -1.47894835e-02 -2.06993730e-03 -1.04260193e-02
      -3.65203060e-03 -1.06417947e-03 3.00015812e-03 1.26364734e-02
      1.07404487e-02 8.82732216e-03 -2.65540928e-02 -7.47186970e-03
      -7.13531207e-03 6.28989516e-03 -1.63686287e-03 6.43750280e-03
      7.15231290e-03 2.81191785e-02 3.79808643e-03 6.07680157e-03
      -9.46880039e-03 -1.72034893e-02 -1.00916671e-02 -8.60377389e-04
      8.96578841e-03 1.80842355e-03 -6.22493308e-03 -7.70481210e-03
      -1.60055012e-02 -1.93190277e-02 -2.40184180e-02 -3.24373576e-03
      -1.51478220e-03 5.02900407e-03 2.20184196e-02 1.16089834e-02
      3.28103080e-03 1.05504776e-04 -2.26316601e-03 -2.05493229e-03
      7.66012003e-04 -4.29886952e-03 9.46484448e-04 1.23444255e-02
      1.34567609e-02 4.60713403e-03 1.12497658e-02 -6.52254187e-03
      1.73825320e-05 -1.64950769e-02 -1.12989219e-02 -7.98956305e-03
      1.56405400e-02 -1.22100394e-03 -2.31527910e-03 -7.90046807e-03
      -1.60008222e-02 -1.18411938e-02 -1.41568799e-02 1.57861691e-03
      1.32341282e-02 1.61497835e-02 2.57681515e-02 -2.61141942e-03
      7.35633215e-03 -1.74503811e-02 -1.66362077e-02 -2.23366581e-02
      3.91725684e-03 1.51752764e-02 3.84743512e-02 1.65864564e-02
      9.25342645e-03 -5.13904402e-03 -9.04427841e-03 2.93267798e-03
      1.10545428e-02 1.04493760e-02 1.49088185e-02 1.65107865e-02
      4.64723911e-03 -5.38377149e-04 -2.20878404e-02 -1.15104131e-02
      -1.35232899e-02 8.74601770e-03 2.09390223e-02 5.24316123e-03
      6.26909733e-03 1.49291242e-03 -2.49534450e-03 -2.75289523e-04
      -9.20674764e-03 1.08083161e-02 -9.39543080e-03 1.89586058e-02
      2.72223372e-02 3.86774726e-02 5.76123316e-03 -3.63329635e-03
      -3.50281806e-03 -4.35380032e-03 -1.02054449e-02 -2.51731952e-03
      2.89706141e-02 1.41861215e-02 1.98345911e-02 -3.66206048e-03
      -9.61777940e-03 -9.17711854e-03 -1.15763247e-02 -1.00456616e-02
      8.29226337e-03 9.03830212e-03 1.07813673e-03 2.43716221e-03
      6.36498956e-03 -2.59240177e-02 1.06465491e-03 3.76280135e-04
      9.59470030e-03 3.28787640e-02 6.87802024e-03 2.41607055e-03
      3.74349160e-03 3.06607550e-03 -1.12321535e-02 8.93700868e-03
      -5.09557687e-03 -6.24439213e-03 4.34711017e-03 2.59346906e-02
      5.03107440e-04 -8.21085647e-04 -1.80150177e-02 -1.44498739e-02
      7.66493008e-03 5.55571122e-03 2.10529063e-02 2.19497755e-02
      3.18900794e-02 2.94929720e-03 3.24237556e-03 -1.85287781e-02
      -1.31088672e-02 5.18850703e-03 1.00805638e-02 1.02131497e-02
      1.88470744e-02 1.09478063e-03 -4.33630729e-03 -1.44476993e-02
      -7.16215000e-03 -1.73780732e-02 1.01786880e-02 6.63015852e-03
      1.01509178e-02 1.69554651e-02 1.15499832e-02 -1.01932581e-03
      -1.08925533e-02 -9.40650236e-03 -5.29470621e-03 2.60213520e-02
      1.66519061e-02 1.75916590e-02 2.29849461e-02 1.02094999e-02
      -4.71851230e-03 -1.48824519e-02 -2.61716656e-02 -2.35372433e-03
      2.45838687e-02 6.76861918e-03 6.01067580e-03 1.18216518e-02
      2.13129688e-02 1.15888601e-03 -5.79589931e-03 -9.17119719e-03
      1.84011715e-03 2.24101334e-03 1.04234368e-03 7.89982732e-03
      1.83320902e-02 1.84588879e-02 -3.01339640e-03 -1.29172271e-02
      5.99854067e-03 -8.65223072e-03 -8.89595656e-04 -6.14382792e-04
      1.54109010e-02 2.74653453e-02 2.09286734e-02 -1.23259267e-02
      -3.31954770e-02 -7.78911682e-03 -4.62076906e-03 5.03654499e-03
      -9.17911995e-04 -3.29566724e-03 1.43669751e-02 2.07375158e-02
      6.55811513e-03 4.05143807e-03 1.19283078e-02 -1.11503750e-02
      -2.50751898e-03 7.45622627e-03 1.46821346e-02 3.33808139e-02
      8.25653970e-03 -1.46249188e-02 -1.29349921e-02 -1.24209607e-02
      -1.27542689e-02 1.07316198e-02 8.53718817e-03 -1.25412457e-02
      -6.54502073e-03 -1.39045268e-02 -4.16018208e-03 8.96056081e-05
      -1.63324568e-02 2.04394571e-02 3.50318439e-02 9.29579698e-03
      -1.04507683e-02 -1.78523995e-02 -2.76895473e-03 -5.39183570e-03
      2.01780768e-03 3.47589748e-03 -1.30212381e-02 1.38004804e-02
      1.68628991e-02 2.10909266e-03 4.02432913e-03 1.14999595e-03
      3.68181197e-03 6.47411041e-04 -1.78975407e-02 2.13043746e-02
      4.32575122e-02 2.08869800e-02 9.40718316e-03 -1.09154098e-02
      1.52563548e-03 2.90573970e-03 -3.93149443e-03 -1.08155943e-02
      2.17390582e-02 1.39196059e-02 -1.62029322e-02 -1.94772501e-02
      -1.17599312e-02 -7.08535779e-03 -2.02929624e-03 5.59325097e-03
      6.45117927e-03 -6.56143064e-04 2.64955626e-04 -5.75416768e-03
      -5.47477836e-03 -1.73980370e-02 -7.44220056e-03 -4.56451811e-03
      1.43662347e-02 3.73929506e-03 3.63014787e-02 1.18924119e-02
      -2.10890174e-02 -2.26550344e-02 -6.75828196e-03 -7.24789128e-03
      2.29065539e-03 2.32073269e-03 2.30124267e-03 1.66571792e-02
      -8.53745360e-03 -1.97905526e-02 -9.47324187e-03 -1.49886580e-02
      -4.87221638e-03 -4.50876821e-03 8.49133451e-03 1.39886113e-02
      3.36749665e-03 8.22898094e-03 4.74752812e-03 -1.80185423e-03
      6.15891302e-04 5.59354776e-05 2.68839765e-03 1.33650573e-02
      -9.99995973e-04 1.34864915e-02 7.82623887e-03 1.39305030e-03
      -1.05950395e-02 -1.22224605e-02 -6.51953567e-04 3.54680046e-03
      2.15181778e-03 -3.63386841e-03 6.03627553e-03 -8.41350015e-03
      2.39994284e-03 2.00177266e-04 -6.80802623e-03 2.62285722e-03
      5.68370055e-03 5.45871677e-03 -1.06809335e-03 5.02963364e-03
      -5.42321894e-03 2.79681291e-03 -6.88469410e-03 -8.24734569e-03
      -7.65140983e-04 -1.06992444e-03 1.32108643e-03 -1.69191277e-03
      1.18975975e-02 1.03222663e-02 -2.65396596e-03 -9.29172710e-03
      -3.20687890e-03 -1.18450087e-03 8.00638646e-03 5.76977851e-04
      -5.62511757e-03 9.87690408e-03 -6.51544612e-03 -1.13029508e-02
      -8.51164013e-03 -1.61154056e-03 -2.49357102e-03 -5.47144082e-05
      1.98222287e-02 1.88953914e-02 1.28031308e-02 2.87505472e-03
      -2.67551490e-03 -4.44008037e-03 -7.69228069e-03 -2.54390412e-03
      -8.98587238e-03 -3.93345021e-03 -6.02455437e-03 1.08216964e-02
      6.07897481e-03 -4.54386929e-03 -3.56999040e-03 2.01566797e-03
      -1.29983136e-02 -8.04151129e-03 2.38390686e-03 1.63223986e-02
      -1.07760895e-02 -8.38512555e-03 -1.09172985e-02 -4.02193330e-03
      -5.47615020e-03 -5.46038500e-04 8.70015379e-03 1.62006486e-02
      1.90415625e-02 -1.07728550e-02 -5.58798620e-03 -1.32431146e-02
      -5.04088216e-03 -7.91010540e-03 4.32899361e-03 2.49854829e-02
      2.69386489e-02 1.28065534e-02 -3.97257414e-03 -2.17674975e-03
      -1.18619166e-02 9.23754007e-04 -6.12380262e-03 -2.48250482e-03
      -8.67998134e-03 6.83339825e-03 -5.40482346e-04 -2.99915322e-03
      -8.56365543e-03 -1.17203817e-02 4.58388496e-03 6.25855941e-03
      9.71796736e-03 1.56396031e-02 -6.06093148e-04 1.98976346e-03
      -1.06215728e-02 -5.26543986e-03 -1.89213187e-03 1.27343955e-02
      1.88210816e-03 2.00447068e-02 2.20723394e-02 2.11636163e-02
      -6.74485927e-03 -1.29311066e-02 4.68435697e-03 -3.41683300e-03
      3.80678219e-03 -1.39927994e-02 9.59716272e-03 1.18293976e-02
      4.69562830e-03 -1.87408123e-02 -4.80463356e-03 -6.94201561e-03
      -1.24602718e-03 2.02266034e-02 2.33060420e-02 1.42623363e-02
      3.37982103e-02 7.46254204e-03 -1.52269704e-02 -1.15089845e-02
      1.29175009e-02 1.95803191e-03 9.52841993e-03 -1.82706234e-03
      1.40075004e-02 1.38795897e-02 5.37465839e-03 -1.70130301e-02
      -2.05972269e-02 -1.15742791e-03 -9.52965394e-03 -8.22553353e-04
      -4.94641392e-03 8.78068153e-03 9.84019367e-04 -4.90848813e-03
      -2.72414219e-02 -1.58057120e-02 3.81005998e-03 1.54036311e-02
      2.00609230e-02 2.19926108e-02 1.96039565e-02 5.95659157e-03
      -6.07011607e-03 -2.76330207e-02 -1.61281079e-02 8.08499521e-04
      -1.17465407e-02 4.33823699e-03 -2.20438791e-03 1.05869828e-03
      9.07456782e-03 2.52124993e-03 -1.04232104e-02 -1.76657513e-02
      -3.50588560e-03 1.18235527e-02 3.67982835e-02 3.75707150e-02
      2.47578286e-02 2.90790549e-03 6.13803603e-03 -3.06238998e-02
      -1.04251718e-02 1.41697088e-02 9.93712619e-03 1.12087792e-02
      1.62205044e-02 1.13778841e-02 -9.20506776e-04 -2.04964578e-02
      -2.39192806e-02 -5.95798891e-04 1.05114346e-02 2.45772093e-03
      -1.92462365e-04 6.27364591e-03 1.51400119e-02 -2.92993360e-03
      -1.74004678e-02 -4.69119195e-03 -1.48395654e-02 1.01027712e-02
      1.94251575e-02 3.25904712e-02 2.04474628e-02 4.31878399e-03
      1.71340338e-03 2.34221327e-04 -2.42584608e-02 -1.15471892e-02
      -2.41657253e-03 7.80415442e-03 6.08116388e-03 6.74075400e-03
      1.02924192e-02 -8.29087198e-03 -4.01077233e-03 -3.47557478e-03
      -1.11708017e-02 -5.45771001e-03 -4.70620999e-03 -4.12842026e-03
      6.71600457e-03 1.25081632e-02 9.95620736e-04 1.66940466e-02
      1.74044557e-02 -1.86091140e-02 -1.43993190e-02 -1.63839408e-03
      6.83373911e-03 6.56636478e-03 -1.89246063e-03 -7.50251627e-03
      6.58191880e-03 -7.50908256e-03 -1.23442309e-02 -2.38300320e-02
      -8.44056159e-03 -1.84584898e-03 -8.89553130e-03 1.84273049e-02
      1.51382675e-02 2.35476792e-02 1.92103982e-02 -2.27388088e-02
      -3.21908295e-02 -1.12883672e-02 8.13988678e-04 -1.55392177e-02
      1.59652084e-02 2.38738731e-02 2.87198685e-02 2.67749070e-03
      -1.83970761e-02 5.19271893e-03 1.28639564e-02 1.31698363e-02
      -7.97742046e-03 -1.13983089e-02 3.64933512e-03 -9.49916794e-05
      -2.33277865e-02 1.69714494e-03 2.76602805e-02 1.88125186e-02
      1.47205377e-02 -3.10824178e-02 -1.48924598e-02 2.02363334e-03
      -5.40227769e-03 -2.72042975e-02 -7.90551305e-03 -4.89151455e-04
      1.35926995e-02 3.10326423e-02 3.37402266e-03 -1.68354064e-02
      -2.24221061e-04 -2.16080225e-03 -2.48967577e-03 -1.85838400e-03
      9.95787513e-03 1.53955594e-02 2.92610601e-02 -6.68062735e-03
      -1.13666039e-02 -1.18038077e-02 -9.57248453e-03 -1.45408139e-02
      2.53285542e-02 1.85313448e-02 -4.93561244e-03 1.16823381e-03
      -7.16167456e-03 -1.44114951e-03 1.96570228e-03 -4.01237048e-03
      -1.04856621e-02 2.38026287e-02 -1.09137949e-02 -1.26705253e-02
      -9.60548117e-04 -2.70784609e-02 -4.21572244e-03 -1.02552748e-03
      7.00389594e-03 9.05270968e-03 1.48108713e-02 2.78203748e-03
      -8.35669786e-03 1.95487849e-02 7.26152584e-03 7.21490337e-03
      -2.76403897e-03 -7.08804280e-03 2.52658385e-03 3.02283913e-02
      1.90135161e-03 -1.96457990e-02 1.74039751e-02 -6.96978671e-03
      1.81888859e-03 9.40865721e-04 -5.24031697e-04 1.95132568e-02
      1.20408582e-02 -9.79184452e-03 1.61632034e-03 6.93641510e-03
      -1.47430627e-02 -5.97491255e-03 -3.35448072e-03 -3.05944192e-03
      -6.56748237e-03 8.77778884e-03 -2.80248071e-03 1.21905224e-03
      -9.12265480e-03 -1.57478657e-02 -1.30411843e-02 -1.21342521e-02
      -5.48729161e-03 7.34075846e-04 3.33484262e-02 9.35183186e-03
      1.37529094e-02 1.71404686e-02 -1.60994064e-02 2.16714735e-03
      -7.54131051e-03 -1.11261792e-02 1.10527566e-02 3.21317054e-02
      1.13881314e-02 1.09313661e-02 -4.21602838e-03 -2.36690678e-02
      -2.95607280e-03 -6.56595081e-03 6.19893102e-03 2.70974729e-02
      1.26038101e-02 -3.07826238e-04 -2.55429698e-03 -5.28313569e-04
      -8.83135479e-03 -4.15348355e-03 -1.23863481e-02 -1.09558157e-03
      -3.72538553e-03 1.58902425e-02 8.94633029e-03 -3.72345652e-03
      1.66190043e-03 -1.43675338e-02 -1.75326690e-02 -6.46985509e-03
      3.34767438e-03 5.16636111e-03 1.42563181e-02 3.82609339e-03
      -6.92861341e-03 -4.88562463e-03 -9.57582053e-03 7.33817974e-03
      7.51335220e-03 1.60879847e-02 2.94459257e-02 1.08166728e-02
      5.42453350e-03 2.47352378e-04 9.98259522e-03 1.43253722e-03
      9.94464103e-03 7.90582132e-03 6.08676393e-03 1.04549304e-02
      1.16655333e-02 4.89135319e-03 -5.98126557e-03 2.20100023e-03
      -1.12924026e-02 -3.33541399e-03 4.32734750e-03 -8.58118664e-03
      -4.83939657e-03 -4.23986232e-03 -3.12273600e-03 -3.51472059e-03
      2.17676759e-02 1.47702554e-02 3.64705287e-02 1.92731265e-02
      -1.17481127e-02 -8.46635830e-03 8.17788951e-03 -2.28172285e-03
      -3.06739309e-03 3.67873511e-03 -4.11379803e-03 4.82250610e-03
      -5.77531150e-03 -1.64727625e-02 -5.64161642e-03 -3.84675269e-03
      -8.81081726e-03 -2.38860748e-03 9.42452811e-03 3.02678198e-02
      1.83853842e-02 7.72159360e-03 -1.87626928e-02 -1.40012465e-02
      -3.57537740e-03 -1.93034147e-03 3.83264897e-03 2.54391376e-02
      2.26272419e-02 1.79273523e-02 1.39928041e-02 -1.32239247e-02
      -1.56439189e-02 -1.39770629e-02 1.32257324e-02 5.72440261e-03
      -3.61436600e-04 -4.54217196e-03 2.81578919e-04 -2.32021674e-03
      -2.10074126e-03 -2.48840749e-02 -5.90713276e-03 -9.00899712e-03
      5.33368066e-03 2.36590449e-02 2.55654324e-02 1.03381490e-02
      5.55061689e-03 -1.24813179e-02 -1.15022976e-02 -2.42156372e-03
      5.84786944e-03 1.39012774e-02 7.66411843e-03 2.25715823e-02
      -2.29362934e-03 -7.44471792e-03 -5.65051520e-03 -8.66967533e-03
      -1.56174358e-02 -9.73687449e-04 -5.61908819e-03 -1.15203783e-02
      -1.28957406e-02 -2.40916526e-03 4.57872963e-03 3.05252173e-03
      -8.40378180e-03 -2.78371572e-02 -7.37100933e-03 -1.11752434e-03
      2.83117350e-02 2.26761494e-02 4.26722020e-02 1.10473139e-02
      8.53740145e-03 -2.67953649e-02 -5.31855086e-03 6.84207818e-03
      -3.77247605e-04 -1.96445864e-02 -1.64244883e-02 9.34339303e-04
      -7.88139459e-03 -1.58338191e-03 -8.95701069e-03 -1.90112926e-02
      3.90406419e-03 -6.16553938e-03 -4.76588914e-03 1.91764794e-02
      4.08179760e-02 3.72232720e-02 1.59100275e-02 -1.62049215e-02
      -1.74149293e-02 4.26607439e-03 1.13442838e-02 2.90363748e-02
      2.16055233e-02 1.37532530e-02 1.43392442e-03 -2.10092607e-04
      -2.95396298e-02 -1.41278049e-02 -1.21518532e-02 -1.37907581e-03
      -3.94149771e-04 -1.08620636e-02 6.49899058e-03 -7.57719856e-03
      -3.26646818e-03 -1.82267725e-02 -1.83447413e-02 -3.24126240e-03
      -4.46684845e-03 3.17795109e-03 3.59230908e-03 3.27381827e-02
      2.42160801e-02 9.44564957e-03 -1.35249579e-02 -1.30067943e-02
      -2.31524790e-03 -1.04437871e-02 4.01070295e-03 -1.38394656e-02
      1.84365176e-02 3.00850649e-03 1.01605011e-02 -1.94743555e-02
      -6.95166551e-03 -2.00405717e-02 -7.06960401e-03 -2.23150034e-03
      -1.69776510e-02 1.41342198e-02 2.23537702e-02 1.61774550e-02
      1.34311698e-03 -1.05806226e-02 -3.29178423e-02 -1.27949398e-02
      -6.84687356e-03 -2.10899469e-02 1.60786901e-02 2.03132983e-02
      1.71582587e-02 -3.39187239e-03 -7.38669699e-03 -5.71601698e-03
      -5.73569536e-03 4.81852051e-03 2.57885130e-03 9.38706473e-03
      1.02735199e-02 5.03237965e-03 -9.47734620e-03 -3.00389668e-03
      -7.63226254e-03 -6.33020559e-03 2.96649477e-03 1.05140693e-02
      1.93992108e-02 -6.78864913e-03 -1.05207518e-03 -3.59824137e-03
      -6.57983916e-03 -3.93601367e-03 4.80348291e-03 1.52846137e-02
      1.23487944e-02 -5.70893334e-03 -4.04657517e-03 -3.45025421e-03
      -4.40684194e-03 -1.00665716e-02 -7.65347015e-03 7.96040054e-03
      2.22077165e-02 1.17461886e-02 6.15821965e-03 -1.06458319e-02
      -1.21315625e-02 -1.56720914e-02 -1.07138548e-02 -7.48335151e-03
      -5.94659429e-03 5.34107303e-03 4.36441228e-03 2.12348811e-03
      -3.72708798e-03 -8.83122906e-03 -1.19492086e-02 -2.03695130e-02
      -2.72467863e-02 -6.86368812e-03 1.78948343e-02 1.99028440e-02
      1.10985516e-02 1.81303557e-03 -1.67997461e-02 -1.62540488e-02
      7.16042414e-04 -6.55013975e-03 -3.75340274e-03 2.94542871e-03
      1.05505716e-02 7.22198887e-03 -3.13385436e-03 -8.64938367e-03
      -2.21509649e-03 1.69152673e-02 -1.34858713e-02 -7.11486628e-03
      2.87362300e-02 1.20683117e-02 1.31457923e-02 7.75398046e-04
      -6.63387775e-03 4.15378576e-03 -1.42792212e-02 -2.47865021e-02
      -1.60054304e-02 1.03898230e-03 2.87691485e-02 2.28501018e-02
      3.72139225e-03 -6.67052483e-03 -1.90640311e-03 -9.71022435e-03
      -3.82551849e-02 -9.08366125e-03 2.48788800e-02 3.25629599e-02
      3.04650031e-02 1.54988989e-02 -9.20652971e-03 -1.25698757e-03
      2.22189520e-02 3.16287996e-03 1.74436700e-02 2.18369327e-02
      -9.16726515e-03 6.02672715e-03 -6.86733238e-03 -1.26533937e-02
      4.78261802e-03 2.45192740e-02 1.07015157e-02 1.23015027e-02
      -3.39567661e-03 -3.16248089e-02 7.00566499e-03 1.31830992e-03
      6.34702155e-05 2.56760269e-02 2.21601664e-03 -1.25082452e-02
      1.72144827e-02 4.22036871e-02 9.78606846e-03 7.72827398e-03
      -8.04229267e-03 -2.43150424e-02 -4.77019872e-04 1.37279928e-02
      3.75707680e-03 2.46465877e-02 2.59927902e-02 -2.02418957e-02
      -6.14798395e-03 8.00497457e-03 1.27244298e-03 1.49309868e-02
      3.04645982e-05 1.11308845e-03 -2.38542841e-03 -7.18343398e-03
      -1.58801414e-02 1.79484002e-02 1.89008620e-02 1.69003960e-02
      1.02628814e-02 -5.31528750e-03 -7.86306243e-03 -6.95034070e-03
      1.97652774e-03 5.20592183e-03 1.97427496e-02 1.08775850e-02
      -2.51830765e-03 -8.02513771e-03 -8.61489773e-03 -7.44680990e-04
      6.59437559e-04 -6.36782916e-03 -3.14937352e-04 2.78007314e-02
      2.31374949e-02 4.89988783e-03 -2.35427753e-03 -7.33789289e-03
      -1.51961055e-02 -7.40366429e-03 4.70105605e-03 6.94981404e-03
      2.84910742e-02 1.81756746e-02 -6.70565711e-03 -1.71312205e-02
      1.87796168e-03 -7.45528890e-03 -2.66775652e-03 -9.27973742e-05
      -3.07444134e-03 9.26405750e-03 -1.52620412e-02 -1.88544691e-02
      -1.93156011e-03 -5.86529728e-03 -9.21200123e-03 -1.48002850e-03
      1.35053676e-02 3.25263478e-02 2.23106630e-02 -8.26849695e-03
      -8.73154029e-03 -1.13274036e-02 -7.37566361e-03 -1.07621830e-02
      -3.38599412e-03 -7.11633125e-03 1.11290831e-02 1.68062840e-02
      -1.26962410e-02 -1.35772061e-02 -8.70218966e-03 -1.16144866e-02
      -9.99300089e-03 -3.11142649e-03 1.26040643e-02 3.61174792e-02
      3.35388891e-02 -7.31010502e-03 -8.17648694e-03 -1.03003979e-02
      -6.74853288e-03 -7.97743071e-03 1.36046918e-04 1.57584250e-02
      3.03406063e-02 4.45460808e-03 -4.77943243e-03 -8.09783023e-03
      -6.62349071e-03 -5.74846100e-03 -6.06395910e-03 6.52076444e-03
      -9.11034085e-03 1.12714879e-02 3.63277458e-03 -1.04255760e-02
      -8.93152691e-03 -1.05621424e-02 -5.13596227e-03 -1.18781570e-02
      -2.04004697e-03 2.04603896e-02 2.74929367e-02 1.35173043e-02
      2.41458090e-03 -4.82754596e-03 -6.27455302e-03 4.12249099e-03
      -6.46073092e-03 -6.50621718e-04 -9.65016335e-03 7.55494228e-03
      1.43716419e-02 1.10618530e-04 2.17497093e-03 -4.01761755e-03
      6.63630490e-04 4.96808952e-03 2.13860301e-03 -2.28489060e-02
      -2.01420989e-02 7.57440599e-03 -8.15148465e-03 6.94399932e-04
      -9.55083314e-03 -5.86338481e-03 2.51052296e-03 1.98933389e-03
      -2.34615896e-02 3.06029152e-03 4.08041365e-02 3.45167071e-02
      2.23387778e-02 -6.28527813e-03 8.91804136e-03 3.13666766e-03
      -9.11740121e-03 -2.84348428e-02 -2.01663505e-02 3.41203180e-03
      -6.83651259e-03 9.42710135e-03 8.85894243e-03 2.10493035e-03
      1.16869505e-03 -1.01024294e-02 -8.77777021e-03 -2.56298488e-04
      2.91212238e-02 1.72131173e-02 1.83914322e-02 1.00839324e-02
      -1.12837758e-02 -6.84429286e-03 -5.40717784e-03 -8.50723032e-03
      -6.78324513e-03 2.15547886e-02 2.31313668e-02 1.55199105e-02
      -9.94605292e-03 -1.23841064e-02 -3.63349682e-03 -7.35157030e-03
      2.78489286e-04 -1.33199971e-02 2.39910334e-02 1.91398617e-02
      1.04188072e-02 -1.55963739e-02 -1.19155981e-02 -1.45001598e-02
      -5.21608768e-03 3.11967754e-03 3.34513653e-03 1.00801867e-02
      5.69696538e-03 1.34714348e-02 -9.89833847e-03 -1.91626865e-02
      -2.30979174e-02 -1.64918881e-02 7.92837120e-04 -3.07441551e-05
      1.97040569e-02 5.51697379e-03 5.15086344e-03 -1.21873375e-02
      -6.65785279e-03 -2.46021897e-03 -1.66808930e-03 5.75689087e-03
      1.43958954e-03 1.03884377e-02 6.87690079e-03 1.29962608e-03
      -7.01901969e-03 -5.66041330e-03 -3.82769667e-03 -4.66628093e-03
      7.30082812e-03 1.07514272e-02 2.24929228e-02 -8.90063122e-03
      -6.87784422e-03 -6.52466342e-03 -7.80316768e-03 -1.07131843e-02
      -1.25030354e-02 9.48678982e-03 7.43686687e-03 2.17221938e-02
      7.32565066e-03 2.92555499e-03 -6.78952411e-03 -8.44801497e-03
      -1.77900419e-02 -1.27114085e-02 1.78943761e-02 -2.65455892e-04
      2.51204614e-02 -2.46417476e-03 -4.49302513e-03 -6.62998995e-03
      -9.94147826e-03 -3.97903426e-03 -2.67385924e-03 8.03228095e-03
      2.50525977e-02 3.75190261e-03 -4.78758942e-03 -5.89217572e-03
      -1.07735405e-02 -2.39614453e-02 -2.31234077e-02 -8.33595917e-03
      6.15970511e-03 2.31562909e-02 1.53936995e-02 5.72539633e-03
      -5.61488420e-03 -8.83097854e-03 -1.27104772e-02 -1.48065826e-02
      4.09468962e-03 1.85998995e-02 1.84917841e-02 6.41304953e-03
      -8.03152751e-03 -1.03501137e-02 -2.20660195e-02 -2.21431591e-02
      -2.74909437e-02 -1.97130851e-02 1.71205718e-02 1.86628681e-02
      3.19202989e-02 5.79094747e-03 -6.01615338e-03 -1.13149723e-02
      -9.59383324e-03 -2.20401306e-02 -1.63432676e-02 -1.02866804e-02
      2.06612796e-02 1.45352744e-02 4.65865107e-03 -2.22519971e-03
      -7.11043132e-04 -7.73895252e-03 -3.57165597e-02 -2.59689633e-02
      2.53032818e-02 3.91145274e-02 2.45946702e-02 1.38067668e-02
      -1.00774271e-02 -4.20112815e-03 -2.53298599e-03 -2.47647762e-02
      -3.05494890e-02 7.35983346e-03 2.29384769e-02 1.49367526e-02
      3.77896824e-03 -7.06107868e-03 -2.34740181e-03 -7.42507353e-03
      -2.87590194e-02 -3.95622998e-02 2.38313992e-02 4.06197086e-02
      1.67549774e-02 8.32995865e-03 -1.56561397e-02 -1.36267878e-02
      6.76793979e-06 -1.75902750e-02 7.21874507e-03 4.36231345e-02
      2.18936186e-02 9.10321902e-03 -9.81224701e-04 -1.57078486e-02
      8.23472859e-04 -8.70121003e-04 -1.10729532e-02 1.79911163e-02
      2.72858106e-02 -7.70783285e-03 -7.44223129e-03 7.75723660e-04
      -1.44814153e-03 6.73653278e-03 -5.49428351e-03 -2.72762254e-02
      -1.45626403e-02 2.96705160e-02 2.25297268e-02 1.85797829e-02
      -4.18623583e-03 -1.25336135e-02 -4.69674030e-03 -1.29826099e-03
      -2.15857681e-02 8.69575795e-03 2.47148126e-02 7.16729043e-03
      1.26542710e-02 -1.11881795e-03 -4.39876865e-04 1.67390658e-03
      -9.13932640e-03 -3.52917099e-03 2.90037738e-03 2.25957832e-03
      -6.72159076e-05 2.21265759e-02 4.35574725e-03 -8.69651511e-03
      -1.44077688e-02 -1.14488788e-02 -5.03709028e-03 -8.87130445e-04
      7.23227253e-03 1.54227009e-02 2.47060563e-02 -1.85712625e-03
      -2.30732001e-02 -2.00500004e-02 -5.76552562e-03 -5.74521674e-03
      -2.98250816e-04 1.05935084e-02 1.33074122e-02 2.14502327e-02
      -8.54051951e-03 -7.29251280e-03 -1.05845192e-02 -1.98716708e-02
      -4.43611480e-03 1.85000477e-04 1.42477881e-02 9.77624860e-03
      2.52578361e-03 5.70253935e-03 -1.72664169e-02 -2.13237349e-02
      -7.54406303e-03 -4.75355517e-03 1.32946577e-03 -2.87524192e-03
      8.67524743e-03 1.92212705e-02 -1.29256165e-02 -9.68365371e-03
      -9.45528690e-03 -6.55986276e-03 -9.30647366e-03 -3.54972226e-03
      2.21081474e-03 2.34407932e-02 3.33365388e-02 9.41793958e-04
      -4.31933673e-03 -7.01127667e-03 -8.57567508e-03 -4.65413090e-03
      4.19518957e-03 3.98007547e-03 2.16016779e-04 1.56123163e-02
      1.53235579e-03 -3.80310207e-03 -6.75100507e-03 -6.33012364e-03
      -5.50484378e-03 -1.69658370e-03 -2.65263952e-03 1.53809050e-02
      1.64067764e-02 1.81354154e-02 4.56872908e-03 -3.15929716e-03
      -3.33083398e-03 -8.33494682e-03 -2.89005344e-03 8.08874518e-03
      1.66662242e-02 2.94672754e-02 6.92779757e-03 2.29026238e-03
      -2.97646900e-03 -4.55917604e-03 -1.07753621e-02 -8.99665616e-03
      -1.54498015e-02 -8.38426128e-03 1.92403514e-02 8.33343714e-04
      4.95469710e-03 2.25352007e-03 -1.04549369e-02 -6.12908462e-03
      -2.36677541e-03 -2.64938013e-03 1.12713466e-03 1.99073646e-02
      3.01083736e-02 6.02885522e-03 2.51147128e-03 -1.13541558e-02
      -8.57282244e-03 -1.68213677e-02 -1.85644049e-02 -6.12498727e-03
      1.24526182e-02 1.60444379e-02 1.56824151e-03 -6.33029640e-03
      2.92966166e-03 -1.06807065e-03 -1.15012992e-02 -2.38564964e-02
      -1.30740991e-02 -1.48232270e-03 2.71916878e-03 7.64176389e-03
      1.45204049e-02 -1.11092953e-03 -2.81256530e-03 -1.22537054e-02
      -2.01115408e-03 1.76635459e-02 1.61971264e-02 7.84130942e-04
      1.12911435e-02 9.51769575e-03 1.37340883e-03 -2.48020072e-03
      -2.77873967e-02 -1.58802755e-02 -1.26937311e-02 -4.60111676e-03
      1.29147554e-02 1.02862474e-02 1.28005929e-02 -1.05245160e-02
      -1.62745791e-03 -9.87690222e-03 2.47777556e-03 1.30046215e-02
      6.89542806e-03 1.74664229e-03 3.04118521e-03 7.65622407e-03
      -9.48703196e-03 -8.29726085e-03 -4.59087692e-04 1.23624429e-02
      1.67014860e-02 4.75987280e-03 6.36989670e-03 1.00523373e-03
      -8.31478648e-03 -1.65096335e-02 -1.30949588e-02 -4.17921925e-03
      1.16016511e-02 2.26177666e-02 1.19014988e-02 1.05351163e-02
      1.99764065e-04 -1.09103182e-02 -2.69492511e-02 -9.76397656e-03
      1.65451150e-02 2.09155567e-02 1.56271886e-02 3.98849091e-03
      -1.12461327e-02 -9.87519324e-03 -1.39462659e-02 -2.51085889e-02
      -1.90389603e-02 4.02602833e-03 2.62318701e-02 1.66441873e-02
      -9.64123989e-04 -1.13160815e-02 -4.46496671e-03 -1.64204966e-02
      -5.53039694e-03 -8.23994819e-03 -8.51218775e-03 9.34625976e-03
      8.55066907e-03 1.20991245e-02 3.96230537e-03 1.56216230e-03
      -6.60414807e-03 -6.28342573e-03 -1.17617287e-02 -7.93289673e-03
      2.21128780e-02 7.74657680e-03 1.84314549e-02 -3.28974472e-03
      -3.48174293e-03 -4.59169457e-03 -1.65794473e-02 -1.78011060e-02
      -9.04374197e-03 2.00157445e-02 8.73614848e-03 -2.59386929e-04
      9.97746713e-04 -7.22236698e-03 -7.05366721e-03 -1.69861075e-02
      -1.67494994e-02 -7.42456317e-03 1.04465103e-02 1.20487632e-02
      1.39247151e-02 -4.04965272e-03 -4.64591524e-03 -4.04709624e-03
      -1.22552663e-02 -1.67399440e-02 4.64404700e-03 1.46010322e-02
      2.64257882e-02 1.02140605e-02 3.49400420e-04 -1.25039825e-02
      -2.17753705e-02 -1.24621242e-02 -2.37707030e-02 -1.24959573e-02
      7.96059612e-03 1.84255950e-02 3.54863554e-02 8.32708366e-03
      -3.38482158e-03 -1.11063877e-02 -1.55754527e-02 -1.41159659e-02
      6.73447549e-03 1.83007885e-02 1.82329342e-02 3.11045558e-03
      1.37362035e-03 -2.38831323e-02 -2.60902122e-02 -1.95983127e-02
      -2.15861313e-02 -6.67094346e-03 -6.83718827e-03 1.23335673e-02
      3.07692736e-02 5.05061401e-03 -4.42393636e-03 -1.80184897e-02
      -1.33443158e-04 -1.74634941e-02 -1.87037643e-02 -1.29350054e-03
      8.10008403e-03 1.90446191e-02 -1.73447374e-03 -6.59914920e-03
      -1.37920177e-03 -7.38531072e-03 -1.86449476e-02 -2.69353706e-02
      1.36261079e-02 4.27308008e-02 2.78364308e-02 2.44822168e-05
      -1.67714208e-02 -1.61499660e-02 -4.95051080e-03 1.04351831e-03
      -4.50067222e-03 -2.58938479e-03 -1.13106295e-02 3.15456167e-02
      3.05035012e-03 -2.32626242e-03 2.00463925e-03 -1.78923607e-02
      -2.89427902e-04 -1.02656176e-02 -1.41427002e-03 2.20962763e-02
      3.53173167e-02 2.61844858e-03 -2.68061161e-02 -2.53540520e-02
      -5.28751360e-03 -9.97913349e-03 -2.43848655e-03 2.86069624e-02
      3.15655805e-02 2.49595232e-02 1.20619276e-04 -7.04053091e-03
      -7.19983736e-03 4.73179109e-03 -8.97326414e-03 4.49235411e-03
      1.85203832e-02 1.04618920e-02 5.40818227e-03 -8.85278266e-03
      -1.05727161e-03 -2.75268801e-03 -2.54782327e-02 -8.41035228e-03
      4.38354583e-03 1.61787923e-02 3.92513648e-02 2.88250092e-02
      6.22613495e-03 -1.96331050e-02 -2.37477627e-02 -1.23414705e-02
      -4.04537003e-03 9.01106652e-03 3.90006881e-03 2.04102937e-02
      7.12362165e-03 -1.85241923e-03 -7.02934712e-03 -1.83521584e-02
      -3.63539997e-03 -4.63757198e-03 -4.69990866e-03 7.22381240e-03
      9.28220514e-04 1.34063046e-02 3.41112656e-03 -3.67639167e-03
      -1.03424881e-02 -1.40704159e-02 -6.77339127e-03 -5.05479518e-03
      8.63221567e-03 3.12784989e-03 1.44593827e-02 2.16178652e-02
      -4.32873517e-03 -1.72196478e-02 -6.66690944e-03 -3.69244302e-03
      -7.74701592e-03 -9.86284297e-03 -4.98239463e-03 1.85300913e-02
      1.21399658e-02 -1.84341092e-02 -2.61170398e-02 -1.06130484e-02
      -1.15994448e-02 -9.64880828e-03 6.98934193e-04 -9.04553663e-03
      7.19271973e-03 5.08912615e-02 -1.48888836e-02 -2.92638298e-02
      -3.57755716e-03 -2.12858920e-03 -6.62726816e-04 1.11992273e-03
      -1.67628285e-02 1.84374806e-02 6.55457331e-03 4.74196998e-03
      -3.98200750e-03 -6.16626721e-03 -2.58724205e-03 -2.03706979e-04
      7.21207587e-04 6.66739326e-03 1.01895919e-02 1.79501157e-02
      1.26411971e-02 -3.24299722e-03 -4.42910288e-03 -2.20958376e-03
      -6.50869682e-04 -4.81831841e-03 -2.02526823e-02 -1.01150444e-03
      3.21736112e-02 9.20983776e-03 -4.17274609e-03 -1.23403380e-02
      -7.38316868e-03 1.17114233e-03 -4.86219302e-03 -2.96335248e-03
      -1.39310118e-03 2.33091563e-02 3.17584984e-02 -3.59438965e-03
      -8.46098829e-03 -5.34543395e-03 -1.96145824e-03 -4.23893146e-03
      -5.60912117e-03 2.35703140e-02 3.01641636e-02 8.23343918e-03
      -7.97140703e-04 -3.52603989e-03 -3.11210449e-03 -1.96617693e-02
      -2.09212583e-02 -5.93687547e-03 4.01087105e-03 2.09743977e-02
      7.34755583e-03 -5.34832198e-03 -1.86579823e-02 -1.26352254e-02
      -1.18086599e-02 -5.93718328e-03 2.68538715e-03 1.58465113e-02
      2.20975839e-02 1.02879433e-02 -6.85308652e-04 -1.38770454e-02
      -3.07091814e-03 -1.96904391e-02 -2.16582492e-02 -1.06055627e-03
      6.89910399e-03 1.95028726e-02 8.37246422e-03 7.08388584e-03
      -4.39499598e-03 -2.84912926e-03 -2.53312066e-02 -1.81954186e-02
      -8.17381591e-03 -5.39238239e-03 5.17838169e-03 1.87247414e-02
      8.37868080e-03 -5.78877889e-03 3.78000620e-03 -1.32616693e-02
      -5.85295772e-03 3.86566506e-03 7.11514195e-03 -4.55567706e-03
      6.86267810e-03 3.49218089e-06 7.21911713e-03 -7.35945674e-03
      -1.19275693e-02 -2.06629895e-02 -1.38321454e-02 1.48508709e-03
      8.40082020e-03 2.16470025e-02 1.55264400e-02 -7.09676743e-03
      2.73913145e-02 2.13986263e-02 -1.66381560e-02 -4.05056053e-04
      5.50693925e-03 -5.42940199e-03 4.43532737e-03 1.37567641e-02
      -7.89826456e-03 4.20703273e-03 2.23234892e-02 1.26499953e-02
      3.46172368e-03 -1.69105863e-03 -8.38339236e-03 -4.47719917e-03
      -3.70399770e-03 -1.61713902e-02 -4.41095699e-03 2.02936660e-02
      1.68798212e-02 1.19428365e-02 -9.35221760e-06 -1.01939682e-02
      -4.71239863e-03 -7.33674737e-03 -8.20358377e-03 1.72039624e-02
      3.15729342e-02 7.11863581e-03 1.53551204e-02 -9.08284169e-03
      -1.84855592e-02 -1.16688777e-02 -7.92012550e-03 -2.19794177e-02
      8.03836808e-03 2.01193150e-02 1.30376713e-02 3.25562083e-03
      4.64819139e-03 -1.49986995e-02 -1.16067464e-02 -8.88983905e-03
      -1.43224429e-02 -5.36163617e-03 1.04134269e-02 1.89715344e-02
      6.05240744e-03 6.70057430e-04 3.84776591e-04 -6.53119851e-03
      -3.14372964e-03 -1.58617869e-02 -1.07259443e-02 1.09278737e-02
      1.86491534e-02 1.19533064e-02 1.16540026e-02 -2.62237689e-03
      -2.61935871e-03 2.30639736e-04 -2.08654981e-02 -6.79010153e-03
      2.46267673e-02 9.00438614e-03 -1.03987325e-02 9.19951533e-04
      -2.39364206e-04 -1.19596277e-03 -3.78805934e-03 -2.26836056e-02
      -9.54227708e-03 2.46952083e-02 1.69084091e-02 1.90595281e-03
      9.95558314e-03 -5.77549508e-04 -6.58386527e-03 -1.23975119e-02
      -7.28117581e-03 -4.51396219e-03 5.55549702e-03 2.00416241e-02
      1.83444545e-02 4.04294394e-03 -5.69339423e-03 -2.00811625e-02
      -2.26888787e-02 -1.07321851e-02 -1.01131033e-02 -2.98606022e-03
      -1.72719115e-03 1.01207977e-03 1.47029860e-02 7.84431957e-03
      3.10058892e-03 -1.23087531e-02 -6.21213252e-03 -4.91762208e-03
      9.31898947e-04 -1.24632092e-02 1.16681615e-04 2.05849130e-02
      -7.55403284e-03 -2.35693203e-03 -5.49443252e-03 7.56855262e-03
      -1.13584995e-02 -5.64856362e-03 -5.04055480e-03 -7.06920587e-03
      1.47974538e-02 1.71116330e-02 1.80454887e-02 1.09288963e-02
      2.02423101e-03 -2.04113172e-03 3.55931534e-03 -7.76039623e-03
      -1.27181849e-02 2.45605037e-02 4.40061186e-03 7.13296281e-03
      2.69966689e-03 -1.28389327e-02 -5.72121236e-03 5.04470710e-03
      -4.89345612e-03 1.98148135e-02 3.03339735e-02 6.47007069e-03
      -4.52058110e-03 -2.08857674e-02 1.00398446e-02 -7.93799385e-03
      -6.49061659e-03 1.53596641e-03 -1.40777454e-02 2.80289706e-02
      6.63296925e-03 9.76135582e-03 5.26128989e-03 -1.78487517e-03
      -9.29873902e-03 4.55182139e-03 -4.84536914e-03 6.09188620e-03
      2.53284220e-02 7.80949369e-03 4.84147761e-03 -4.45826352e-03
      -1.20096169e-02 -4.28418024e-03 7.38719385e-03 1.74347460e-02
      4.09299135e-02 2.36272868e-02 6.93187024e-03 -3.70979728e-03
      -1.55834006e-02 -1.11868456e-02 -7.16988638e-04 9.65578854e-03
      3.52147897e-03 2.43735742e-02 -3.39907850e-03 1.20845402e-03
      -6.49916427e-03 -1.54769281e-02 -9.89409629e-03 2.38585984e-03
      1.04409261e-02 5.72330924e-03 2.30770893e-02 1.53841292e-02
      2.51008803e-03 4.91696130e-03 -5.83768776e-03 -8.56718794e-03
      7.98369013e-03 1.10326223e-02 4.05363645e-03 2.10484881e-02
      -2.82342592e-03 -5.77900978e-03 -4.08846745e-03 -2.20273784e-03
      -5.83126349e-03 1.72351592e-05 -1.61552592e-03 -1.05548445e-02
      1.00490311e-03 1.37004070e-02 1.57107003e-02 -2.45740265e-02
      -1.67326909e-02 -5.32062072e-03 -3.65778222e-03 -1.88748795e-03
      1.22734548e-06 -6.40635518e-03 2.94482037e-02 6.01117983e-02
      -1.38320616e-02 -1.54066170e-02 -4.97484300e-03 4.53347899e-03
      2.21340498e-03 -1.31140035e-02 5.82506415e-03 3.96513473e-03
      -2.03000382e-02 -2.43125018e-02 -8.25115386e-03 -4.82520321e-03
      4.84107877e-04 4.62625967e-03 -1.03702191e-02 8.68439861e-03
      3.31501365e-02 3.29576768e-02 2.75655836e-03 -1.52937165e-02
      -2.31907121e-03 -2.79729906e-03 -9.59782337e-04 -8.07118893e-04
      -2.55426783e-02 -8.89722817e-03 4.16748188e-02 7.40057277e-03
      -4.12264699e-03 -9.66781192e-03 -7.72464648e-03 -2.19663070e-03
      6.61088037e-04 -1.97807495e-02 -1.61934737e-02 8.38526525e-03
      1.53966835e-02 -7.78245227e-03 -4.43352107e-03 -3.39423097e-03
      -2.42860196e-03 -6.53252983e-03 -1.36063574e-02 1.41284720e-03
      3.51334661e-02 1.06466413e-02 -1.77273657e-02 -5.62447123e-03
      3.05452850e-03 -7.44962459e-03 -4.30196943e-03 -1.32651227e-02
      -1.39618013e-02 6.64013624e-03 2.03683507e-02 -6.15754910e-03
      -1.48239667e-02 -8.21117312e-03 -1.11729279e-02 1.43034640e-03
      8.82368255e-03 4.29941760e-03 1.49897477e-02 1.71291567e-02
      -4.12339019e-03 -1.12411417e-02 -8.17286316e-03 -1.93150286e-02
      -2.05273554e-02 5.23554813e-03 1.43715478e-02 3.15041691e-02
      1.93933286e-02 -3.28997499e-03 -1.67043563e-02 1.00187829e-03
      -8.35779868e-03 1.58028293e-03 3.79109103e-03 -1.32391870e-03
      8.42175353e-03 -7.08240690e-03 -1.39775109e-02 -3.20003666e-02
      -1.70786306e-02 -2.13735402e-02 -1.29031073e-02 6.19040895e-03
      1.58330351e-02 1.62904132e-02 1.83626954e-02 6.04548538e-03
      -2.19518226e-03 -4.76304907e-03 -6.63944520e-03 -2.09772494e-02
      -9.98337660e-03 3.38375825e-03 7.41473027e-03 1.93270016e-02
      1.52610112e-02 -5.90900052e-03 2.39774585e-02 9.51324683e-03
      -1.38589405e-02 -6.58198120e-03 -3.47251561e-03 -1.25678349e-02
      1.81864924e-03 1.24900294e-02 2.51083542e-03 -3.98530578e-03
      -1.55791491e-02 -2.40915604e-02 -1.20295100e-02 1.98843190e-03
      1.27003305e-02 2.22876258e-02 2.49351002e-02 5.96499396e-03
      2.27934066e-02 6.88697957e-03 -1.74893960e-02 -1.33032715e-02
      -9.91628319e-03 -1.34849725e-02 5.01725636e-03 1.96060110e-02
      -5.20045403e-03 2.77043842e-02 2.73016058e-02 -1.23913970e-03
      4.21287632e-03 -4.20334097e-03 -9.95732844e-03 -9.92405135e-03
      -1.95811386e-03 -2.17504483e-02 1.83113068e-02 2.27138698e-02
      7.32964545e-04 -2.21416965e-04 4.02631704e-03 -1.93060772e-03
      -8.10365472e-03 -4.42035263e-03 -1.23889083e-02 3.91811430e-02
      2.97243986e-02 -5.69329830e-03 -3.90132423e-03 -9.74445697e-03
      -8.80825240e-03 -7.93436356e-03 -1.86699014e-02 -3.36451456e-02
      3.31062749e-02 2.12987233e-02 -7.29866652e-03 -3.66043951e-03
      -3.92733235e-03 1.82969891e-03 -4.82790777e-03 -2.21232753e-02
      -2.47675925e-02 3.01048835e-03 2.35307142e-02 2.82931398e-03
      1.95743213e-03 -1.75772875e-03 9.59263125e-04 -1.18084354e-04
      -5.13417355e-04 -2.60874573e-02 -2.17671366e-03 2.69504134e-02
      1.25375688e-02 2.52821250e-03 1.03286793e-02 1.27509795e-03
      -7.66882394e-03 -1.15715433e-02 -2.39146352e-02 1.53204212e-02
      1.08726639e-02 -1.03371334e-03 7.54138501e-03 -2.06453563e-03
      8.41946458e-04 -7.43314740e-04 -6.09328551e-03 -2.87219454e-02
      5.84007846e-03 8.94586928e-03 -2.97063118e-04 8.03264882e-03
      9.23661888e-03 -6.94669143e-05 -4.34549246e-03 -1.75291412e-02
      -1.96269504e-03 -4.32078214e-03 -4.93769418e-04 -1.05729522e-02
      6.83069578e-04 2.37840507e-02 1.50971105e-02 6.55784411e-03
      1.82818645e-03 2.04706304e-02 -2.88669998e-03 -7.82022066e-03
      -1.10802799e-02 -2.23655626e-02 2.45498288e-02 2.39709225e-02
      1.65690519e-02 2.32988782e-02 4.94859740e-03 -1.41647449e-02
      -1.50798978e-02 -1.43921366e-02 -2.83694780e-03 2.14713812e-03
      1.99347418e-02 1.37131857e-02 1.13695592e-03 2.78207324e-02
      6.21016929e-03 -5.11256186e-03 -8.78162589e-03 -2.59531680e-02
      5.30499266e-03 2.28969138e-02 2.61585135e-02 3.32637541e-02
      2.21193507e-02 -2.54416536e-03 -1.74253422e-03 -6.20878709e-04
      -3.39133814e-02 1.28477011e-02 3.01791867e-03 8.81765783e-03
      1.73005704e-02 4.87644784e-03 -1.63348415e-03 9.13580414e-03
      4.81676823e-03 -1.70857590e-02 1.20487921e-02 9.07092588e-04
      1.01688607e-02 1.28829088e-02 3.32554542e-02 7.39049446e-03
      1.04767142e-03 -4.55483934e-03 -3.20690386e-02 -1.12459697e-02
      2.44407309e-03 1.41482707e-02 3.60071100e-02 1.26431016e-02
      1.02720950e-02 1.56496111e-02 5.91675192e-03 -2.11921539e-02
      -2.19339738e-03 2.31591915e-03 1.34323556e-02 2.26456281e-02
      -9.26184468e-03 2.95531563e-03 1.33641986e-02 4.50578192e-03
      6.29161205e-03 1.56351626e-02 8.28069821e-03 6.62312983e-03
      1.10167242e-03 -1.38850781e-04 1.70920193e-02 1.28413234e-02
      4.93660104e-04 7.90492818e-03 -1.13967638e-02 -1.14198914e-02
      -2.95998156e-03 -3.73476837e-03 -5.41095668e-03 1.13483239e-02
      2.63298433e-02 1.03185354e-02 3.81289632e-03 1.76497046e-02
      1.11773610e-02 7.10995356e-03 3.03018169e-04 9.27998684e-03
      3.58705744e-02 2.12502740e-02 2.13397807e-03 1.43454317e-02
      -5.43934386e-03 -1.96391214e-02 -3.25333606e-03 -4.31236811e-03
      1.02771283e-03 6.82039279e-03 -5.45698567e-04 -9.82525479e-03
      1.26224356e-02 1.18431798e-03 -1.95315145e-02 -1.37589928e-02
      2.71824631e-03 -1.73966133e-03 -2.41190242e-03 -8.74314108e-04
      -8.35433323e-03 1.32471276e-02 2.87935212e-02 3.22134160e-02
      1.29926326e-02 -8.88852961e-03 1.37747480e-02 1.16987480e-02
      -1.02297601e-03 -4.10455232e-03 8.16550199e-03 -9.90930386e-03
      -2.80451477e-02 -3.85323539e-03 6.43228879e-03 1.14714708e-02
      -9.14872100e-04 -8.32940731e-03 -8.67861044e-03 2.38334034e-02
      3.14133577e-02 9.49749071e-03 1.23911295e-02 6.03817822e-03
      -4.64124884e-03 -2.31201854e-03 -3.22679710e-03 -7.16469204e-03
      -4.72921319e-03 -3.48627078e-03 3.75931412e-02 2.93690781e-03
      -2.14631166e-02 -1.09640453e-02 -9.38906160e-04 -7.94878788e-03
      -8.71263258e-03 -7.00736931e-03 -2.71844026e-02 2.00788956e-02
      1.60207208e-02 -8.33140500e-03 5.34134358e-03 -2.87546124e-03
      -5.59339067e-03 -6.92788325e-03 -1.66412187e-03 -7.80290691e-03
      1.96263082e-02 -4.63039475e-03 -3.16043757e-02 -1.37887560e-04
      -4.87721525e-03 -5.97276120e-03 -6.41330658e-03 -7.53593026e-03
      -2.60848575e-03 1.87303480e-02 8.45636800e-03 -1.52229080e-02
      -1.56529397e-02 2.40796665e-03 -4.89209779e-03 -4.17148221e-05
      -7.41029100e-04 -3.56143387e-03 -1.04572577e-02 2.95980810e-03
      -6.08251523e-03 -3.45400237e-02 -1.11741722e-02 -1.19889602e-02
      -4.34768992e-03 3.95036972e-04 -2.00038939e-03 6.27824105e-03
      8.10966454e-03 1.57848950e-02 -2.01858878e-02 -1.05125562e-03
      -7.86114298e-03 -1.07962429e-03 -6.59239898e-03 -3.16063501e-03
      9.54926293e-03 2.90631484e-02 1.37237580e-02 -2.03009862e-02
      -1.20653892e-02 -1.59812048e-02 -1.49044779e-03 -8.81571975e-03
      -1.07194474e-02 1.04859415e-02 3.47081982e-02 2.69599706e-02
      2.68721487e-03 -1.63582852e-03 -1.69665832e-02 -1.28292115e-02
      -8.01729877e-03 -2.53252639e-03 -2.78494810e-03 1.50090391e-02
      1.73147768e-02 1.37678599e-02 1.01795923e-02 -5.44145051e-03
      -9.01508331e-03 -1.22647919e-02 -1.03978328e-02 -1.01551376e-02
      2.09236168e-03 1.41739370e-02 9.38693341e-03 7.17354985e-03
      -1.47928083e-02 -1.58741442e-03 -7.09007867e-03 -8.47483892e-03
      -7.15782261e-03 9.95684881e-03 2.80514210e-02 8.78365524e-03
      1.27469711e-02 -1.59409754e-02 -9.84421186e-03 -1.28172906e-02
      -5.06558362e-03 -4.63455310e-03 2.10343511e-03 1.86798461e-02
      -1.57125909e-02 2.37808526e-02 2.54172161e-02 -4.65290528e-03
      -5.55124925e-03 -9.15340614e-03 -2.68928031e-03 -2.90982542e-04
      -9.75925848e-03 -3.40830162e-02 2.37962678e-02 3.39907631e-02
      4.06126352e-03 -4.83445916e-03 -7.81490095e-03 9.53695562e-04
      2.17303299e-04 -1.80073716e-02 4.49201325e-03 1.48147549e-02
      1.61209013e-02 -3.94783448e-03 -1.13848727e-02 -3.37951118e-03
      8.13407300e-04 4.53274144e-04 4.52924985e-03 -5.72686316e-03
      1.26490984e-02 2.68815495e-02 1.21828653e-02 -1.03215291e-03
      -5.55512169e-03 7.48758379e-04 1.52404449e-04 -1.05421133e-02
      -1.74699761e-02 2.30024792e-02 1.31637193e-02 1.14139752e-04
      7.15932995e-03 -3.18225054e-03 -1.98978596e-04 3.50632053e-03
      -5.28975762e-03 -2.15100478e-02 1.94553602e-02 2.62313941e-03
      -5.00541925e-03 2.28156485e-02 5.82759781e-03 -8.20584304e-04
      3.11889988e-03 -1.13750445e-02 -9.18797683e-03 4.12502047e-03
      1.30182076e-02 5.12491958e-03 1.01550799e-02 1.57858350e-03
      3.14225745e-03 7.62765715e-03 1.32779474e-03 -1.77782234e-02
      7.74644502e-03 -2.55208439e-03 -3.31590092e-03 2.01020576e-02
      1.05293915e-02 7.64733553e-03 9.58816800e-03 -6.50712941e-03
      5.35700144e-03 -6.98449137e-03 -7.65829440e-03 2.06639594e-03
      9.55567881e-03 -4.32795798e-03 1.28675178e-02 1.36736166e-02
      3.36224679e-03 2.92586014e-02 5.77343535e-03 -8.70663766e-03
      5.27588744e-03 -1.00301737e-02 -5.54548251e-03 1.89519841e-02
      3.20775099e-02 3.22377980e-02 8.13263119e-04 -1.06786182e-02
      -7.07754865e-03 6.21217259e-05 -1.55749191e-02 -2.66062422e-03
      6.27868949e-03 9.30710230e-03 3.56794149e-03 2.48752031e-02
      5.19433466e-04 -2.36993171e-02 6.56679971e-03 -1.37314787e-02
      -2.05520838e-02 1.15045886e-02 2.92956010e-02 2.85525844e-02
      3.01350970e-02 1.30325500e-02 -6.79960055e-03 -9.00618732e-03
      -2.40881015e-02 -1.10643413e-02 5.04549220e-03 1.91754196e-02
      3.51460166e-02 2.30720453e-02 2.46341936e-02 1.20208934e-02
      1.15864188e-03 -1.55018168e-02 -4.73468844e-03 1.32124859e-03
      1.44754769e-02 2.61013731e-02 2.60223858e-02 5.01234178e-03
      -1.79744344e-02 -8.02181475e-03 -2.69442629e-02 -1.51944133e-02
      -4.73122564e-05 1.58929881e-02 2.70406716e-02 2.83149146e-02
      2.47057024e-02 -1.57304369e-02 -8.12851544e-03 -9.84188635e-03
      -1.26718264e-02 -4.80851997e-03 7.66519597e-03 2.27901507e-02
      -1.85657060e-03 5.47279045e-03 9.41114128e-03 3.21210874e-03
      5.38373971e-03 1.13575300e-02 4.90648812e-03 4.72791214e-03
      5.11937356e-03 9.57279373e-03 2.56246626e-02 7.69717665e-03
      -9.91556421e-03 1.68839619e-02 -1.45753007e-02 -2.33070087e-02
      2.68378248e-03 4.39132564e-03 1.46417692e-02 8.32034554e-03
      -7.72969751e-03 -1.32582639e-03 5.71848918e-03 -2.98744207e-03
      -2.38122884e-03 8.17350764e-03 2.61597931e-02 1.53380157e-02
      1.38944136e-02 -6.12732721e-03 -5.84377674e-03 2.17753625e-03
      -1.79571584e-02 -1.57795977e-02 1.05404891e-02 2.28536800e-02
      1.48942284e-02 1.93553083e-02 -7.30702537e-04 -9.80178174e-03
      6.19602716e-03 -7.55769154e-03 -2.24456042e-02 -6.49016583e-04
      8.68514087e-03 1.66128222e-02 1.13581931e-02 -1.47264136e-03
      -1.13573130e-02 1.70179680e-02 1.90226082e-02 2.61418754e-03
      1.79212866e-03 1.21940924e-02 1.23721128e-02 2.24623680e-02
      -6.32920442e-03 -1.07284309e-02 7.71393394e-03 -1.15972962e-02
      -1.78968031e-02 9.30524711e-03 1.75376907e-02 1.10561997e-02
      1.96954031e-02 5.80700021e-03 -1.32750685e-03 -7.21983844e-03
      5.13552828e-03 -8.87440052e-03 -5.37529727e-03 8.10223166e-03
      1.30330119e-02 3.75945214e-03 -3.19472491e-03 -5.25152031e-03
      1.26626063e-03 3.84736457e-03 1.36369327e-02 -9.36615560e-03
      -9.99166816e-03 1.70656722e-02 3.78836947e-03 -4.70714318e-03
      -2.78819795e-03 -2.10005583e-05 6.53406372e-03 2.31302734e-02
      1.15818821e-03 -1.04212873e-02 8.58973432e-03 5.54521335e-03
      -4.56584338e-03 -3.01841414e-03 -1.38432710e-02 4.35211090e-03
      -8.34709872e-03 -2.06969269e-02 -5.64875966e-03 1.28036374e-02
      1.14474762e-02 -6.58853399e-03 8.17800640e-07 -6.60332385e-03
      6.51806500e-03 1.70520470e-02 -1.12782111e-02 -1.42330555e-02
      -1.70024652e-02 -1.37971796e-03 -8.06046743e-03 1.84438453e-04
      -4.70670266e-03 -2.02325894e-03 1.38505157e-02 2.04927307e-02
      1.03152031e-02 -1.94874872e-02 -9.14380699e-03 -1.59277804e-02
      -1.28290651e-03 -9.75170266e-03 -9.35422536e-03 1.60895567e-02
      2.41283178e-02 1.39417853e-02 -1.48513904e-02 2.65675038e-03
      -1.03791663e-02 2.80171004e-03 -1.34092313e-03 7.39820185e-04
      1.35815991e-02 -7.65423197e-03 -1.47876833e-02 -2.52513103e-02
      1.46672493e-04 -9.85806808e-03 6.96228351e-04 7.46859564e-03
      -5.29925572e-04 1.45278592e-02 -6.31377392e-04 5.86236687e-03
      4.24577296e-03 7.52415275e-03 -1.75043885e-02 -4.55242116e-03
      -5.10277972e-03 -2.59379740e-03 1.47027298e-04 6.58902619e-03
      2.94090156e-02 9.93353128e-03 -6.65580435e-03 -2.02691555e-02
      -2.07724180e-02 -1.34067098e-02 -3.90367175e-04 -1.94803893e-03
      -6.75443851e-04 2.64670327e-02 -1.07200323e-02 6.24271529e-03
      -1.63931195e-02 -1.30611584e-02 3.77836404e-03 4.10850625e-03
      8.42494052e-03 1.01683196e-02 1.52959786e-02 6.43395633e-03
      -9.48457792e-03 -1.20061869e-02 -1.74007826e-02 -5.17228711e-03
      4.88409726e-03 1.50598085e-03 6.26779394e-03 2.22222600e-02
      3.58545105e-03 2.00231862e-03 6.38706144e-03 -4.32163384e-03
      -7.88412523e-03 2.01717857e-03 -2.71954504e-03 6.17899408e-04
      1.52492635e-02 -5.04531090e-06 8.04803055e-03 1.56885684e-02
      9.82749742e-03 5.49227046e-03 2.02870043e-03 -2.61893985e-03
      -2.64313130e-04 3.17436666e-03 6.16955385e-03 -8.28938466e-03
      3.99588281e-03 -8.75288621e-03 5.94889745e-03 4.55085468e-03
      -5.43954736e-03 2.42381473e-03 1.84248202e-02 -3.19874566e-03
      -5.43961674e-03 -1.35530066e-03 3.78472963e-04 5.75418491e-03
      5.72390063e-03 -5.77170961e-03 -3.13951401e-03 3.13393003e-03
      -7.84042757e-03 3.37800104e-03 2.19307258e-03 4.75344388e-03
      1.01790996e-02 7.15143839e-03 5.18845255e-03 8.06514453e-03
      9.54678224e-04 -1.64515655e-02 5.94557868e-03 2.76084803e-03
      4.27113264e-06 1.81748457e-02 8.25131685e-03 9.08653997e-03
      1.15776937e-02 -1.75567972e-03 -7.86814280e-03 2.49006646e-03
      -1.51973311e-03 5.27159823e-03 3.24500725e-03 8.32224917e-03
      5.89362485e-03 3.55438609e-03 1.63525098e-03 -1.02910222e-02
      -3.79366032e-03 -5.28183207e-03 -6.94802636e-03 -5.18947281e-03
      -6.12937659e-03 8.20972957e-03 8.86989757e-03 1.70942547e-03</_></support_vectors>
  <decision_functions>
    <_>
      <sv_count>1</sv_count>
      <rho>1.1855372335917651e+00</rho>
      <alpha>
        1.</alpha>
      <index>
        0</index></_></decision_functions></my_svm>
</opencv_storage>
