<?xml version="1.0"?>
<opencv_storage>
<my_svm type_id="opencv-ml-svm">
  <svm_type>C_SVC</svm_type>
  <kernel><type>LINEAR</type></kernel>
  <C>1.0000000000000001e-01</C>
  <term_criteria><epsilon>1.1920928955078125e-07</epsilon>
    <iterations>1000</iterations></term_criteria>
  <var_all>2916</var_all>
  <var_count>2916</var_count>
  <class_count>2</class_count>
  <class_labels type_id="opencv-matrix">
    <rows>1</rows>
    <cols>2</cols>
    <dt>i</dt>
    <data>
      1 2</data></class_labels>
  <sv_total>1</sv_total>
  <support_vectors>
    <_>
      5.56236180e-03 1.73653755e-02 9.24326014e-03 -4.25745762e-04
      -2.07089186e-02 -3.01307649e-03 -1.97274471e-03 7.61830201e-03
      4.80381586e-03 1.07460702e-03 1.93115473e-02 2.44606920e-02
      3.18728536e-02 2.08938662e-02 -1.75694376e-02 -3.61427222e-03
      8.53385311e-03 -1.06572984e-02 -2.40038009e-03 1.94655526e-02
      2.12266538e-02 4.05416451e-02 -2.07434576e-02 -1.88599098e-02
      -7.12922961e-03 2.09553749e-03 1.61293279e-02 -2.16334723e-02
      1.05316136e-02 5.38321100e-02 7.00974390e-02 1.65166054e-02
      -2.50593573e-02 -1.76810157e-02 7.30614224e-03 -9.92197450e-03
      -1.18714003e-02 -9.79729521e-05 9.37427208e-03 9.93272942e-03
      8.68615042e-03 -8.43881629e-03 -1.43477228e-03 1.08543588e-02
      -5.96792763e-03 -1.41001260e-02 1.84817985e-02 2.38881875e-02
      1.09398374e-02 2.38441881e-02 7.96127412e-03 7.00610410e-03
      2.23041475e-02 -1.68211553e-02 -1.27076553e-02 -6.33138278e-03
      2.75270697e-02 2.66859271e-02 1.54932085e-02 -1.34589411e-02
      -1.36378044e-02 8.85702204e-04 -1.41140278e-02 1.28702063e-03
      2.00498272e-02 2.74704415e-02 2.40963530e-02 1.91468205e-02
      3.12077976e-03 1.22671323e-02 -1.27063962e-02 -8.46121693e-04
      3.29610659e-03 1.66735463e-02 1.09994384e-02 7.51081901e-03
      -2.23627426e-02 -5.07786113e-04 9.74253169e-04 -1.16784908e-02
      -5.11561474e-03 2.63559427e-02 1.29619548e-02 1.10031646e-02
      2.80853845e-02 -4.54647373e-03 2.41869217e-04 -1.18426625e-02
      3.11307912e-03 2.38071047e-02 -1.46022311e-03 1.04492288e-02
      2.44710874e-02 1.31012443e-02 6.97468221e-03 -5.84703544e-03
      -1.53453480e-02 -3.16468589e-02 -3.89346131e-03 1.93794738e-04
      1.04375277e-03 2.08093692e-02 2.48912983e-02 3.94219309e-02
      3.13624972e-03 -2.16658358e-02 -2.64287461e-02 -3.71628394e-03
      1.67830139e-02 6.52440032e-03 3.29796341e-04 1.70718657e-03
      -1.22474032e-02 2.86140759e-03 -1.26853250e-02 1.77847538e-02
      2.44853888e-02 1.87629890e-02 3.20899449e-02 2.02926844e-02
      -1.40671488e-02 -1.42009482e-02 1.07229957e-02 -7.13142566e-03
      1.71778200e-03 2.91035557e-03 -1.55467046e-02 6.63654227e-03
      1.24329198e-02 1.53237348e-02 3.37290242e-02 1.11141140e-02
      -1.83233507e-02 -1.17526809e-02 -2.15236191e-02 3.79185285e-03
      1.67633668e-02 1.16662588e-02 1.10606542e-02 1.64947957e-02
      7.85953924e-03 -2.20110193e-02 -1.42039387e-02 -1.16663286e-02
      2.25446951e-02 3.09267938e-02 2.00938899e-02 3.58222239e-03
      5.14523312e-03 9.08612832e-03 1.48571411e-03 3.77612025e-03
      -1.68937203e-02 2.76883226e-02 2.79780186e-04 1.74799636e-02
      1.12352343e-02 -1.78527776e-02 -7.34362658e-03 -1.25507894e-03
      9.00250860e-03 -1.97951198e-02 -1.61700102e-03 -4.94338863e-04
      8.93616490e-03 4.02837945e-03 2.12173313e-02 1.59117579e-02
      1.09934229e-02 -5.56739047e-03 -3.22881043e-02 -1.84749104e-02
      -1.95613783e-02 6.82196021e-03 1.37610259e-02 -7.23785395e-03
      -7.70706264e-03 -4.57753846e-03 -3.80899734e-03 -8.20044149e-03
      -5.07098204e-03 -1.75308827e-02 1.55046042e-02 2.95572937e-03
      -2.76476610e-03 1.48865092e-03 2.75799748e-03 1.78779531e-02
      1.35613764e-02 -3.79567500e-03 -2.45995875e-02 -6.99338270e-03
      -9.12003126e-03 -1.14389593e-02 -7.46622495e-03 -8.15274660e-03
      1.84998661e-02 1.82625633e-02 -1.81914736e-02 -1.67196784e-02
      1.15592377e-02 -9.21151310e-04 -9.04254615e-03 6.29410730e-04
      3.82627215e-04 2.14802511e-02 2.17506867e-02 2.18360275e-02
      -5.29600447e-03 -9.16918367e-03 -1.40483221e-02 -2.07223035e-02
      -9.39200632e-03 -1.60396192e-02 1.62312649e-02 3.21754441e-02
      2.36628316e-02 -1.51468404e-02 -7.39357853e-03 -7.95206521e-03
      -1.71044804e-02 -8.47755373e-03 -4.72468510e-03 3.17160739e-04
      1.41637390e-02 3.20917033e-02 -9.91186034e-03 -4.92311956e-04
      -5.11404034e-03 7.54403998e-04 -2.75866711e-03 -8.59098788e-03
      2.73671560e-03 -7.02543557e-03 6.29449412e-02 -2.51143184e-02
      -1.14748860e-02 -1.06725907e-02 -2.05187984e-02 -1.21136447e-02
      -1.63526852e-02 -4.00304794e-03 3.85193862e-02 4.38482687e-02
      2.04750970e-02 -1.25642517e-03 -1.46549344e-02 -1.22695426e-02
      -3.38922464e-03 5.57623291e-03 -8.63426831e-03 2.71930620e-02
      3.34871188e-02 5.32928668e-03 -7.34118698e-03 -9.51405556e-04
      -5.31439064e-03 -2.11879436e-04 -1.08694739e-03 1.30302249e-03
      -1.61558818e-02 2.37454791e-02 3.06715891e-02 6.61922153e-03
      -1.13992486e-02 -1.52348951e-02 5.39624179e-03 1.28599228e-02
      6.88776933e-03 -1.56536442e-03 2.03112382e-02 1.86240580e-02
      -5.00113354e-04 -1.62163414e-02 -3.65048484e-03 4.71535232e-03
      1.98930092e-02 -5.46740973e-03 1.45838140e-02 1.29641183e-02
      -1.22854486e-03 1.50283938e-03 -2.49931626e-02 -2.69477423e-02
      2.30647940e-02 3.30194198e-02 3.34265903e-02 7.41042616e-03
      -1.12478724e-02 -1.83434400e-03 4.98614646e-03 2.22720345e-03
      2.29179915e-02 3.29425782e-02 1.76556334e-02 -1.95009802e-02
      -1.73592940e-02 -7.28169747e-04 -6.48521062e-04 1.35364551e-02
      -1.30452812e-02 5.27017824e-02 4.84337099e-02 2.94154081e-02
      -2.20905188e-02 2.66064098e-03 -3.63180675e-02 -2.14312524e-02
      -8.85860622e-03 -1.32184224e-02 2.18918617e-03 4.04993892e-02
      2.21844483e-02 7.06970552e-03 -2.20199768e-02 -2.01403839e-03
      -2.64425715e-03 4.17904649e-03 -2.23370288e-02 7.90204667e-03
      1.65955201e-02 1.21186897e-02 -2.71118712e-02 1.67857134e-03
      -1.04079852e-02 9.99033824e-03 5.51418914e-03 1.87134054e-02
      -2.00034901e-02 -1.32643916e-02 -1.24145048e-02 -8.78408924e-03
      1.26413694e-02 1.97414402e-02 -4.73160530e-03 4.05729786e-02
      4.05400172e-02 4.22487734e-03 -2.66319420e-02 -2.24576630e-02
      -1.06328744e-02 -1.84653271e-02 -4.60638711e-03 3.68245803e-02
      1.46755890e-03 1.26559827e-02 -3.73974554e-02 -1.32627245e-02
      -3.65496939e-03 -8.91136285e-03 6.45522028e-04 1.89951551e-03
      1.34327626e-02 2.78847218e-02 1.43289976e-02 -1.46934828e-02
      -3.11649274e-02 -7.90002476e-03 1.42776351e-02 -7.20600691e-03
      1.59428257e-03 6.56453008e-03 9.26170498e-03 1.31067690e-02
      7.29447231e-03 -9.64966509e-03 -1.91132892e-02 -2.64684074e-02
      -3.28484625e-02 2.28009224e-02 -1.24938479e-02 -2.89973430e-03
      5.70997642e-03 1.53053775e-02 9.47416629e-05 -1.22417295e-02
      -2.90268678e-02 -2.38561979e-03 1.21790795e-02 -8.63601640e-03
      -4.24464094e-03 2.01537982e-02 1.55537529e-02 -1.94585361e-02
      4.65048663e-03 -4.29437403e-03 -2.13782564e-02 2.29577720e-02
      -2.53547747e-02 -5.84349036e-03 2.16431487e-02 2.15271972e-02
      5.36820246e-03 3.12426896e-03 4.20255726e-03 3.51172090e-02
      2.19824966e-02 -1.18898293e-02 3.23873502e-03 -3.60688777e-04
      1.20934623e-03 -3.69670941e-03 -1.07282577e-02 -3.12099401e-02
      2.57182252e-02 1.34807208e-03 -8.00711755e-03 1.82917749e-03
      1.95928365e-02 2.01552231e-02 3.27870809e-03 -1.36518637e-02
      -2.50371918e-02 2.55641788e-02 3.26601230e-02 -2.30926666e-02
      -1.49718318e-02 -1.68088041e-02 2.58380547e-03 -8.34907684e-03
      -8.12006276e-03 -7.50102522e-03 8.46669599e-02 2.36306433e-02
      -1.31072225e-02 -2.70695612e-02 -1.62843335e-02 2.46454459e-02
      4.70214058e-03 -2.68160701e-02 -7.63905142e-03 6.20377958e-02
      -1.41197229e-02 -2.67019938e-03 1.48997037e-02 1.82577576e-02
      1.16352653e-02 -8.67265742e-03 -1.35127455e-02 -1.16065592e-02
      -1.49539337e-02 7.03562424e-03 1.27687240e-02 1.32137798e-02
      1.60234049e-02 1.44204190e-02 -7.28049176e-03 -1.19655775e-02
      6.89820806e-03 -6.56447047e-03 1.73615608e-02 -1.99818201e-02
      1.61404777e-02 2.13294253e-02 9.70592722e-03 -1.01057636e-02
      -2.34167576e-02 -1.54528283e-02 4.51542400e-02 3.02270651e-02
      1.30325984e-02 2.82464921e-02 1.24356784e-02 1.31050413e-02
      -8.27997737e-03 -6.14584377e-03 9.68336780e-03 1.23203071e-02
      9.49946046e-03 7.77724851e-03 1.12616364e-03 -7.64137949e-04
      4.63950494e-03 -2.05252902e-03 4.19835979e-03 1.19792381e-02
      -2.64157448e-02 3.44932568e-03 -1.86904687e-02 6.33513497e-04
      -8.64710100e-03 -1.37740346e-02 -1.10846534e-02 6.86248299e-03
      4.16277768e-03 4.61793644e-03 -4.23727697e-03 1.94093641e-02
      1.05205877e-02 1.55442255e-02 9.56361555e-03 4.02462715e-03
      1.76036893e-03 1.48258647e-02 -1.27567537e-02 2.42394153e-02
      1.52603937e-02 2.34918948e-02 1.36270188e-02 -7.77195860e-03
      -2.70035211e-02 7.36493152e-03 -1.27569465e-02 2.19886433e-02
      -1.63954981e-02 -3.31952795e-02 -7.41033116e-03 -1.25823645e-02
      -1.32536944e-02 -6.75568450e-03 -5.56887500e-03 8.71064700e-03
      1.17154205e-02 2.88355201e-02 -2.65016034e-02 -1.47559522e-02
      -9.99649148e-03 -1.72786005e-02 -6.85073668e-03 -1.21152569e-02
      -5.29495021e-03 2.18198039e-02 4.18860503e-02 -2.23025810e-02
      4.20639338e-03 -6.43746462e-03 -1.87449176e-02 -1.48642622e-02
      -1.15507049e-02 -2.07421780e-02 2.39568222e-02 4.65750396e-02
      -2.88580302e-02 -4.64676647e-03 -6.13648864e-03 -1.37526654e-02
      -3.13619705e-04 -1.46176722e-02 -5.50110415e-02 2.24678330e-02
      4.03148793e-02 -2.79171448e-02 -1.14107989e-02 -3.45777581e-03
      -1.01344148e-02 -8.25842936e-03 -9.40187927e-03 -1.64610539e-02
      1.19617693e-02 3.16085964e-02 -2.94442829e-02 -1.20906131e-02
      -6.37733517e-03 -1.31584043e-02 -1.07414424e-02 -7.31695816e-03
      -1.72044560e-02 2.57007144e-02 6.90646544e-02 -3.27855796e-02
      -2.11206358e-02 -5.06398594e-03 -1.55324107e-02 -6.97748782e-03
      -1.57807432e-02 -4.84903976e-02 4.23079245e-02 4.59877700e-02
      -4.52700257e-02 -4.34386916e-02 -1.61516424e-02 -3.05408332e-02
      -1.54555049e-02 -1.67330187e-02 -3.96745540e-02 6.91273138e-02
      2.61193868e-02 -2.03842819e-02 -7.62773585e-03 -2.75368220e-03
      -3.81291192e-03 3.53827071e-03 8.39445088e-03 -6.93901768e-03
      1.00058392e-02 1.36869820e-03 -2.54541300e-02 -1.45304063e-02
      -3.70306801e-03 -8.88381340e-03 2.60834172e-02 2.06424203e-03
      -4.75309003e-04 -1.32962307e-02 3.54360901e-02 -4.37829867e-02
      -3.42099555e-02 3.80109530e-04 -8.96870438e-03 -2.27179495e-03
      -6.85751764e-03 -8.33217893e-03 5.83649166e-02 1.45596610e-02
      4.81756218e-03 7.05494359e-03 4.82620299e-03 2.04119608e-02
      2.01845858e-02 -2.21803151e-02 -4.07437654e-03 1.04681437e-03
      -3.06108594e-02 -1.72456633e-02 -1.71846822e-02 2.95929240e-05
      1.44742094e-02 2.89384816e-02 2.24807975e-03 2.59009842e-03
      -3.47247883e-03 -1.19626941e-02 -1.55207952e-02 -7.47269997e-03
      5.54918253e-04 8.13709851e-03 1.67890787e-02 -8.16328265e-03
      -1.24874590e-02 5.02969511e-03 -1.32076796e-02 -8.68689362e-03
      2.99979486e-02 4.97179590e-02 2.39120722e-02 1.25349248e-02
      7.75937736e-03 4.07402666e-04 -1.56611297e-02 -1.62426736e-02
      -2.34040674e-02 8.95874854e-03 4.85288873e-02 1.51231810e-02
      5.20760100e-03 3.19355924e-04 -3.91916605e-03 -1.67338122e-02
      -1.23183280e-02 1.21156834e-02 4.01021028e-03 3.78006844e-05
      -1.07697891e-02 -6.00103429e-03 7.90166575e-03 4.43056412e-03
      -3.33567453e-03 -9.71533637e-03 -8.50809884e-05 -8.33721948e-04
      8.26574676e-03 1.13127781e-02 2.68824981e-03 1.85016226e-02
      2.14855149e-02 -4.25166124e-03 -6.54272083e-03 3.38951242e-03
      -1.70166530e-02 -1.83343310e-02 -1.77354310e-02 1.77034996e-02
      6.83869608e-03 7.95391575e-03 1.07332645e-02 -1.15563748e-02
      -8.96923617e-03 -2.18977239e-02 -1.67182442e-02 -8.94572958e-03
      2.68420465e-02 4.50919457e-02 3.76661234e-02 3.76070142e-02
      -4.65437537e-03 -5.87537792e-03 -7.58415973e-03 1.56626408e-03
      1.86293051e-02 -1.12675028e-02 -4.86419245e-04 7.15968851e-03
      -2.28061303e-02 2.53069717e-02 -3.00896186e-02 5.10850979e-04
      7.78572354e-03 2.63971817e-02 1.97325759e-02 -1.07699148e-02
      2.33180579e-02 1.88125893e-02 -5.68630965e-03 -1.30837588e-02
      -2.15175971e-02 -1.79495960e-02 -2.54817889e-03 1.82304643e-02
      6.06305618e-03 2.45601833e-02 9.10423137e-03 4.39965399e-03
      -6.81292359e-03 -3.22688334e-02 -2.33422536e-02 1.87817533e-02
      1.25762485e-02 -2.35393289e-02 1.64064430e-02 4.50481735e-02
      3.71416025e-02 -2.75979806e-02 -6.26969058e-03 -2.32284535e-02
      -8.05242336e-04 -4.04967507e-03 -1.38635822e-02 -4.92874859e-03
      6.48434460e-02 2.18782760e-02 -3.77607644e-02 -2.51851827e-02
      -2.75909901e-02 4.70038783e-03 -4.53262636e-03 -2.85145063e-02
      -2.53839158e-02 7.85866007e-02 1.10791065e-02 -3.78321856e-02
      -2.66316701e-02 -2.42610406e-02 7.01551978e-03 1.84595026e-02
      -1.61558483e-02 3.26684746e-03 3.64208929e-02 3.32599357e-02
      -4.69565876e-02 -2.32661068e-02 -2.96534058e-02 -7.29598152e-03
      -1.52087025e-02 -3.96290869e-02 3.93193476e-02 8.81241038e-02
      1.40017886e-02 -3.37810330e-02 4.82721627e-03 5.62850712e-03
      5.10309730e-03 1.27565544e-02 -2.22090129e-02 -2.05327533e-02
      4.81718034e-02 2.49768682e-02 -1.73171720e-04 8.45860690e-03
      5.40090026e-03 4.16330667e-03 2.69765463e-02 -2.55691179e-04
      -1.33343767e-02 7.59239774e-04 1.94949042e-02 -2.09889431e-02
      3.43004242e-03 -1.59431808e-02 -3.07782367e-02 4.73551871e-03
      -2.65076011e-02 3.45626986e-03 4.36539352e-02 -1.55764502e-02
      1.00808488e-02 7.38906441e-03 -3.10053700e-04 -5.12219733e-03
      4.11911719e-02 1.85172111e-02 2.21753903e-02 2.63561122e-02
      -2.82418039e-02 1.82277020e-02 1.00584207e-02 1.83996093e-02
      1.68732554e-02 2.02393569e-02 1.79408696e-02 -2.06307205e-03
      -9.66055598e-03 6.44667260e-03 2.39737164e-02 1.07870819e-02
      1.16471834e-02 -3.42158903e-03 -8.01016856e-03 5.70057286e-03
      -1.01416437e-02 -4.80201840e-03 -6.34443536e-02 8.64702649e-03
      1.98382847e-02 3.41187231e-02 2.12859940e-02 5.05026206e-02
      2.69990452e-02 6.88320631e-03 -1.36054801e-02 -3.07471193e-02
      2.31653415e-02 6.90738624e-03 1.86798852e-02 3.68417916e-03
      7.50297308e-03 6.13390794e-03 -1.60861090e-02 -2.81468481e-02
      3.69582139e-02 -9.79338679e-03 9.16048046e-03 1.96917308e-03
      -8.77213478e-03 -1.78105384e-02 -1.26269879e-02 -2.83275489e-02
      1.16625326e-02 4.60433923e-02 -6.83470257e-03 1.21549340e-02
      5.16024558e-03 -1.09353680e-02 -3.90280713e-03 -1.45138167e-02
      -4.03478779e-02 8.20842758e-03 4.90997806e-02 1.05623556e-02
      4.04391112e-03 -1.97252189e-03 1.04912370e-02 3.15607933e-04
      -1.30661409e-02 -2.95378622e-02 -5.23327896e-03 2.66328193e-02
      9.06384457e-03 5.50845638e-03 9.23689269e-03 2.87471875e-03
      -1.27239088e-02 -2.28923410e-02 -3.01907230e-02 -5.81364054e-03
      6.21588193e-02 -2.73057260e-02 -3.34897730e-03 -4.45568189e-03
      -1.07840020e-02 -6.39480771e-03 -1.79443248e-02 -2.17096340e-02
      3.61218788e-02 6.54257014e-02 -4.46556546e-02 -1.93395503e-02
      -1.98748466e-02 -2.96393819e-02 -1.15739945e-02 -2.25353781e-02
      -1.17173269e-02 5.54729253e-02 3.45426761e-02 -2.04794742e-02
      1.02694118e-02 -2.00923416e-03 -1.34222051e-02 -1.81195531e-02
      -2.47205496e-02 -1.62978210e-02 2.96861995e-02 2.85031311e-02
      -4.96119000e-02 -4.64126701e-03 -1.84423439e-02 -2.30409298e-02
      -2.81157773e-02 -4.81201261e-02 -1.06564462e-02 5.28926142e-02
      2.28107795e-02 -3.57799083e-02 -2.33108625e-02 -5.58174355e-03
      -1.21680256e-02 -3.03621171e-03 -1.03529179e-02 2.84007867e-03
      5.32651022e-02 1.86927877e-02 3.61051597e-03 -8.73600040e-03
      5.83554432e-03 4.80598863e-03 -5.53329755e-03 -1.54623194e-02
      -1.27342260e-02 3.01414318e-02 1.44043379e-02 -3.35352346e-02
      -1.28404247e-02 -8.23483337e-03 -1.50343999e-02 -2.17819326e-02
      -2.07349807e-02 1.30384549e-04 5.46484962e-02 2.25260369e-02
      2.24950127e-02 7.30553968e-03 7.48427119e-04 -5.42111415e-03
      -3.64642299e-04 -2.39222124e-02 -1.02320891e-02 4.64511588e-02
      9.43212677e-03 2.03416683e-02 2.56897043e-02 5.35778962e-02
      2.52220221e-02 7.61319418e-03 -3.26540857e-03 -3.93462880e-03
      -1.24582769e-02 -1.97987314e-02 1.30405836e-03 1.39765572e-02
      3.63848917e-02 1.54730380e-02 -6.23714412e-03 -8.62969737e-03
      -9.42219328e-03 -2.86792479e-02 1.24717895e-02 2.91334447e-02
      3.11781783e-02 3.44319455e-02 1.24762906e-02 -1.17186513e-02
      -7.23201921e-03 -1.21184606e-02 7.24855298e-03 -2.50614565e-02
      1.50325000e-02 6.73358236e-03 2.64977012e-02 7.27878837e-03
      1.41424919e-03 -8.27835500e-03 -4.20021918e-03 -3.10445838e-02
      -5.03882708e-04 -5.89055009e-03 -1.22632580e-02 -2.65514199e-02
      -3.30573916e-02 9.26631782e-03 1.36718079e-02 -6.68209977e-03
      1.30872673e-03 4.90474864e-04 -7.22849416e-03 -2.26324014e-02
      -2.57165097e-02 -5.18800132e-03 3.16213183e-02 4.45217378e-02
      3.66723984e-02 2.72256546e-02 -1.50864003e-02 -8.45551118e-03
      -1.33738304e-02 8.88408627e-03 1.04764942e-02 1.62145123e-02
      1.90277118e-02 1.01848366e-02 -1.66619271e-02 1.71939433e-02
      1.26554826e-02 -4.54426464e-03 -6.24221005e-03 2.46166699e-02
      3.64081115e-02 2.48257220e-02 3.29399295e-02 1.66255105e-02
      -1.52061461e-02 -2.75475206e-03 -2.52915099e-02 -2.06087902e-02
      -1.12102451e-02 1.13961678e-02 -6.82126172e-03 4.03485931e-02
      2.32354049e-02 2.22142693e-02 8.99488945e-03 -4.40210700e-02
      -2.80105919e-02 1.66690480e-02 1.99662540e-02 -2.00460888e-02
      3.12205963e-02 1.50399664e-02 7.81594962e-03 5.31943934e-03
      -3.97869339e-03 -1.83761250e-02 -1.80525072e-02 1.50683746e-02
      -9.60158068e-04 3.84407118e-02 1.14031751e-02 1.21367853e-02
      2.65257265e-02 -4.84128809e-03 -6.55822409e-03 6.88725524e-03
      3.91556770e-02 1.29402883e-03 3.06098666e-02 1.95401199e-02
      -1.15966692e-03 -1.63496174e-02 -2.76259072e-02 -1.53674195e-02
      1.09108314e-02 2.07656156e-02 1.35152899e-02 1.41944289e-02
      4.92732646e-03 -7.49302842e-03 -3.01007833e-02 -2.13905293e-02
      -1.95543002e-02 -6.10259455e-03 -9.23236948e-04 2.37813126e-03
      5.34834228e-02 5.69553189e-02 -1.82454679e-02 2.36983388e-03
      -1.21427029e-02 -1.24797197e-02 1.13831516e-02 2.47537903e-02
      3.02274488e-02 4.04326431e-02 1.64075419e-02 -2.27053221e-02
      -1.73003562e-02 -1.10075288e-02 5.68095129e-04 1.05682835e-02
      2.81001925e-02 2.82311291e-02 6.36079162e-02 3.24316658e-02
      2.76681827e-03 -3.74770421e-03 7.78179290e-03 -2.59264112e-02
      -1.70838926e-03 2.72125732e-02 1.35975878e-03 2.74436325e-02
      1.37507915e-02 2.03950185e-04 1.52023258e-02 1.24801993e-02
      -1.13512315e-02 1.94970723e-02 6.13526031e-02 2.49738917e-02
      2.12050192e-02 1.51917068e-02 -1.63532868e-02 -1.34827392e-02
      -1.56563837e-02 -2.73788702e-02 3.66947316e-02 6.11905940e-02
      2.70058420e-02 1.67464081e-04 -4.71787201e-03 4.08299221e-03
      3.23155383e-03 -1.53613361e-02 -8.97915196e-03 4.29213978e-02
      5.45028895e-02 8.48996826e-03 1.80062931e-02 -1.75616778e-02
      -3.05945389e-02 -5.83121320e-04 1.73326284e-02 1.52520370e-02
      3.32017764e-02 3.42739671e-02 1.97589453e-02 -1.41834076e-02
      -2.03685090e-02 -1.82628687e-02 2.70602871e-02 1.77240539e-02
      -7.87435845e-03 1.54934945e-02 -5.49846748e-03 8.08950886e-03
      -1.01277260e-02 -3.39402743e-02 -1.15585504e-02 1.23268098e-03
      8.63763131e-03 8.21567315e-04 3.73611636e-02 1.48587590e-02
      3.75568098e-03 8.49332009e-03 -2.63163280e-02 -2.30292920e-02
      1.48437591e-02 4.05665115e-02 2.59850118e-02 2.68258303e-02
      5.82642897e-05 -4.74555098e-04 1.12608168e-02 -2.62438022e-02
      2.26679146e-02 8.92032497e-03 -5.62225934e-03 -1.17914556e-02
      2.70813499e-02 -5.06908447e-03 9.49906930e-03 1.12408982e-03
      -2.52479352e-02 1.58286244e-02 -3.68385506e-03 1.16646814e-03
      2.17747763e-02 1.92042198e-02 -1.13620702e-02 7.04872468e-03
      -7.18899025e-03 -1.73181314e-02 1.29007979e-03 1.16715748e-02
      6.54898630e-03 1.92798264e-02 4.57641818e-02 8.34332500e-03
      3.76415905e-03 1.00052347e-02 -5.56760803e-02 -5.86332520e-03
      6.18814956e-04 -7.34639773e-03 1.83862541e-02 2.55905632e-02
      3.03337234e-03 3.93803492e-02 -1.07495794e-02 -4.94854003e-02
      3.11828144e-02 8.70169140e-03 2.19970718e-02 1.49757871e-02
      -9.16825316e-04 -1.11734858e-02 -9.56192426e-03 6.91934489e-03
      1.93986427e-02 1.87861547e-02 -3.53061073e-02 8.57891329e-03
      -5.92959368e-05 -1.77635271e-02 -1.78499110e-02 -2.05796715e-02
      6.30396325e-03 5.16879335e-02 -1.32597312e-02 -1.31956313e-03
      7.84871448e-03 -3.84462292e-05 -4.08538757e-03 9.18113068e-03
      4.26760763e-02 -2.43571345e-02 -1.38027938e-02 -2.24109981e-02
      -3.02807968e-02 -5.92039945e-03 -2.51986505e-03 -5.76535799e-03
      -1.66020822e-02 9.59513616e-03 9.28437244e-03 9.61471349e-03
      2.72123292e-02 -3.16231735e-02 -7.63624394e-03 -1.12740532e-03
      -8.59171152e-03 -1.53733985e-02 -7.18470989e-03 1.37076201e-02
      7.58995712e-02 3.61942798e-02 2.38407683e-02 8.05093348e-03
      3.54296109e-03 -5.05581032e-03 -1.10442284e-03 -2.69473670e-03
      8.32146872e-03 4.49252091e-02 -1.28061799e-02 -1.46106062e-02
      -2.42136084e-02 -1.50985578e-02 -1.50953485e-02 -2.30033882e-02
      -1.12688891e-03 9.14593320e-03 3.44735533e-02 5.83148701e-03
      2.07408052e-02 -1.98151264e-02 -2.46459264e-02 2.63975724e-03
      -1.12592801e-02 9.40400828e-03 1.35134840e-02 1.59564074e-02
      3.36450599e-02 3.55756544e-02 3.02624647e-02 1.84330624e-02
      2.30884049e-02 -2.46630562e-03 -2.17306358e-03 -5.73175168e-03
      8.85354297e-04 -1.91921797e-02 7.54879275e-03 1.56731363e-02
      4.36714664e-03 2.55564116e-02 1.31460577e-02 2.86273961e-03
      -1.67972490e-03 -2.96228547e-02 1.87003165e-02 3.16346809e-02
      1.97982453e-02 -6.23431406e-04 3.25186644e-03 -5.68859000e-03
      3.86562804e-03 3.88996885e-03 8.73371784e-04 -1.20681832e-02
      1.11981761e-02 1.02947149e-02 -1.80635825e-02 -8.58754478e-03
      7.40854815e-03 1.79263055e-02 9.62285884e-03 -1.84033774e-02
      -2.23971382e-02 -1.26265110e-02 1.20954681e-03 2.56566629e-02
      1.22373342e-04 -5.76273724e-03 -1.36328274e-02 5.36129670e-03
      -2.78866850e-02 1.63770672e-02 3.57086561e-03 -1.21428855e-02
      6.67131413e-03 2.11376175e-02 9.23364423e-03 1.27661054e-03
      2.94608809e-02 1.67303719e-02 -2.31295582e-02 3.25494446e-03
      1.42199062e-02 1.31451273e-02 -1.27189690e-02 -2.86991429e-02
      -2.50263177e-02 -1.28482096e-02 -9.77149350e-04 2.13587098e-02
      2.67386809e-02 2.43789442e-02 1.60187148e-02 -4.57299408e-03
      -2.03949958e-02 -1.50971236e-02 8.94201081e-03 3.08281686e-02
      5.15056355e-03 -4.57610842e-03 -6.21846505e-03 -1.63054820e-02
      -1.45898527e-02 1.21542215e-02 1.67247758e-03 3.04520521e-02
      -1.81594100e-02 2.42110714e-02 4.35549300e-03 7.59291183e-03
      -6.50896877e-03 1.99966189e-02 2.18232274e-02 3.33372108e-03
      3.95899592e-03 -6.93044346e-03 1.83963031e-02 7.57453451e-03
      -1.58255212e-02 3.78634664e-03 -1.19830715e-03 -7.96332210e-03
      1.26193454e-02 3.26696336e-02 -2.75796745e-03 1.40266190e-03
      -1.09904306e-02 -3.91368978e-02 3.24258185e-03 1.57299172e-02
      -1.45439222e-03 -1.23369051e-02 1.73527952e-02 9.89534240e-03
      2.77486979e-03 1.92612726e-02 1.03147598e-02 -2.07267105e-04
      5.79808280e-03 4.65031061e-03 4.42175253e-04 1.25570139e-02
      9.43069067e-03 -1.17073068e-02 1.51002957e-02 6.16404042e-03
      3.05814296e-02 1.00572743e-02 1.71367172e-02 2.29783040e-02
      2.05987170e-02 1.31528229e-02 -2.79572210e-03 -5.88675309e-03
      5.38265565e-03 1.73041578e-02 1.58277825e-02 3.34400497e-03
      -1.96911283e-02 1.49294995e-02 1.16291447e-02 3.86903323e-02
      1.41755855e-02 5.46691893e-03 3.42613384e-02 1.85056385e-02
      1.99395679e-02 -3.90526443e-03 -6.95126131e-03 -1.17672526e-03
      -1.42952669e-02 -8.90699960e-03 -2.84818448e-02 -1.56417291e-03
      5.77307828e-02 4.63744625e-02 2.64141560e-02 -1.65449046e-02
      -2.15625856e-02 -5.26110316e-03 1.14707444e-02 -3.56711969e-02
      -5.88592514e-03 5.98793253e-02 5.91083057e-02 1.65028665e-02
      -2.29538977e-02 -2.56489571e-02 -1.11655425e-02 1.18159165e-03
      -6.04780437e-03 1.95216741e-02 4.19945456e-02 3.34311984e-02
      2.06965376e-02 -1.38308499e-02 -1.21045420e-02 -2.74349265e-02
      -2.04388844e-03 8.76308419e-03 3.33419740e-02 6.44244626e-02
      4.42930013e-02 2.28374451e-02 -5.77071961e-03 -1.95473954e-02
      -9.37204808e-04 8.95547122e-03 9.36631171e-04 -4.94145649e-03
      3.34841572e-02 8.94115958e-03 4.97646455e-04 -3.88473691e-03
      -1.83813628e-02 4.52869153e-03 1.39500545e-02 2.48000380e-02
      2.23875791e-02 3.05412970e-02 -8.30448046e-03 -1.61385257e-02
      1.42449131e-02 -4.72862981e-02 -1.17138922e-02 1.88871417e-02
      -1.24945818e-02 2.24909931e-03 4.13547717e-02 1.34411594e-02
      -7.06062466e-03 -1.94207449e-02 -2.03298889e-02 -7.20671983e-03
      3.44575793e-02 1.94004085e-02 -1.63416043e-02 2.12987997e-02
      4.93511297e-02 7.21316738e-03 -5.03270654e-03 -5.38249947e-02
      -5.63527923e-03 2.13084538e-02 1.89112294e-02 2.34960429e-02
      3.38772386e-02 9.75942519e-03 4.18084068e-03 1.15747815e-02
      -3.49713825e-02 -2.24117618e-02 6.28718082e-03 8.70301109e-03
      3.69897415e-03 1.75660364e-02 3.35519351e-02 4.04236615e-02
      -3.09762731e-03 -3.44951563e-02 -2.90065333e-02 1.62556171e-02
      5.37523590e-02 1.28871687e-02 1.97408833e-02 6.57141134e-02
      1.71704553e-02 -6.16721110e-03 -5.49869575e-02 -2.32015345e-02
      6.19795593e-03 4.67214696e-02 2.51684543e-02 3.35371345e-02
      6.34717345e-02 2.60304976e-02 -7.66119361e-03 -3.98338251e-02
      -1.18006989e-02 -1.10528739e-02 -5.22944843e-04 -7.89136719e-03
      3.07905022e-03 3.73182297e-02 5.48927523e-02 -6.22508535e-03
      1.48006203e-03 -1.52056292e-02 -2.16212031e-02 -1.30285332e-02
      -2.83209346e-02 -5.02566621e-03 9.17531271e-03 1.25802001e-02
      2.00918894e-02 1.61751602e-02 -1.88840535e-02 3.03184241e-02
      2.52130516e-02 2.18504202e-02 3.25640552e-02 2.57234257e-02
      2.82837376e-02 1.18314743e-03 -1.69488452e-02 3.74130066e-03
      3.46010327e-02 -2.56514605e-02 2.16074614e-03 -3.62949417e-04
      8.44015623e-04 9.43725649e-03 -5.04170638e-03 -1.63524263e-02
      1.09160766e-02 -2.39945706e-02 -2.86968462e-02 -2.96653993e-02
      -3.89361801e-03 -1.42684756e-02 1.15369791e-02 2.11554188e-02
      2.92465128e-02 1.31011764e-02 2.99923494e-03 -3.32386233e-02
      -3.44871432e-02 1.05964122e-02 1.32590625e-03 1.28856972e-02
      2.93823034e-02 3.62639800e-02 2.98122298e-02 -8.34835519e-04
      -3.08789201e-02 -1.66039113e-02 1.05451222e-03 -4.24616924e-03
      1.18089020e-02 -1.85958650e-02 1.80576891e-02 4.67254668e-02
      -2.11995728e-02 -3.91896144e-02 -2.81482469e-02 5.67637337e-03
      6.49412954e-03 4.35210858e-03 1.23593025e-02 1.84868686e-02
      1.30663496e-02 2.45653652e-02 -4.66381758e-03 -2.18134876e-02
      -3.86008876e-03 -5.09350095e-03 1.21891508e-02 9.59174056e-03
      2.63260417e-02 -1.93384960e-02 1.90122128e-02 -1.20644443e-04
      -1.39832329e-02 4.58993483e-03 -1.08052846e-02 2.07564719e-02
      1.77071951e-02 -1.52093288e-03 -6.41373219e-03 1.09595433e-02
      -1.43919773e-02 -4.54186276e-02 -1.39641529e-02 9.55921318e-03
      3.79558727e-02 2.71538962e-02 3.15303020e-02 -3.73276509e-02
      1.04289046e-02 -6.87356712e-03 -4.03816486e-03 1.11798337e-02
      1.07358978e-03 4.45174202e-02 1.23329451e-02 -1.35814333e-02
      -3.96167394e-03 8.31903424e-03 1.66101679e-02 1.30400481e-02
      -1.07831536e-02 -2.10968796e-02 -6.73882803e-03 -5.69326337e-03
      3.15173646e-03 2.17894614e-02 1.38111711e-02 3.50108519e-02
      4.08047289e-02 -3.91226821e-03 -2.44037211e-02 -8.57336354e-03
      -2.00973300e-04 2.26206752e-03 -9.90989339e-03 7.05591403e-03
      1.18116187e-02 1.46772387e-02 -6.95516309e-03 -2.69543305e-02
      -9.64180753e-03 -1.88967437e-02 -3.59127782e-02 1.99371036e-02
      1.63625740e-02 3.93738896e-02 4.42971773e-02 1.47461016e-02
      -3.63871199e-03 -2.71451082e-02 -1.17107062e-02 4.65021329e-03
      2.54851822e-02 2.21801717e-02 3.02159577e-03 1.57918073e-02
      -3.18792579e-03 -2.71357037e-02 -7.16629496e-04 3.78617994e-03
      -6.10888284e-03 3.45249325e-02 7.88068678e-03 -2.92908289e-02
      2.02474650e-02 1.22473845e-02 -1.47237713e-02 -1.71759054e-02
      2.16929037e-02 6.47333683e-03 1.61515605e-02 3.20181958e-02
      2.85861292e-03 1.33374818e-02 -1.18821645e-02 -1.12078572e-02
      -1.75851677e-02 -1.50466140e-03 -2.63845157e-02 4.12352234e-02
      3.87551971e-02 -1.79605260e-02 1.04631195e-02 -5.68120927e-03
      -1.00023532e-02 -2.07620990e-02 -1.99702736e-02 -2.65591461e-02
      2.43904423e-02 8.47336184e-03 -6.65323623e-03 2.61229277e-03
      3.65660386e-03 -7.70905335e-03 -2.01403666e-02 5.99349709e-03
      -1.49496431e-02 4.50640842e-02 2.86275260e-02 -8.48872215e-03
      7.78801832e-03 6.56985305e-03 2.48909313e-02 -5.46769938e-03
      -2.92534772e-02 -4.27492103e-03 6.36618733e-02 4.17383574e-02
      -2.60963943e-02 -4.60084900e-03 -3.77769535e-03 -1.84381343e-02
      -3.07486225e-02 -1.35665722e-02 -3.43453027e-02 5.93452714e-02
      3.53486016e-02 -6.35740114e-03 9.32916161e-03 1.29512157e-02
      1.16550019e-02 -2.95304246e-02 -3.24597470e-02 -1.44529939e-02
      -1.31530594e-03 -3.81819927e-03 2.16762722e-03 1.08445929e-02
      1.98082682e-02 2.75730025e-02 9.21251718e-03 -1.90945435e-02
      -1.19855711e-02 -7.89049920e-03 1.03458427e-02 5.58612915e-03
      4.98733073e-02 5.67350909e-02 4.56205495e-02 -1.42524100e-03
      -2.26801727e-02 -3.19885649e-02 4.86470322e-04 -4.40197857e-03
      1.95994098e-02 4.01281752e-02 1.35376295e-02 2.45947521e-02
      -5.19758323e-03 -1.10508911e-02 -3.06841638e-02 -2.43685413e-02
      2.02126205e-02 4.27858196e-02 5.81548139e-02 3.44297402e-02
      3.01366169e-02 3.36171617e-03 -2.35907845e-02 -2.33368501e-02
      9.55131091e-03 2.67592557e-02 2.48552999e-03 2.64296997e-02
      5.31660393e-02 2.41858419e-02 -5.33797592e-03 -4.22491431e-02
      -2.44290568e-02 1.15223704e-02 4.91665415e-02 1.35007799e-02
      -1.12973284e-02 1.16712842e-02 5.36840707e-02 8.48493911e-03
      -1.56337693e-02 -3.64967920e-02 2.23407727e-02 2.21623294e-02
      9.27902758e-03 3.10892072e-02 2.99664102e-02 2.99462341e-02
      1.71222016e-02 -4.71642055e-02 -3.04713286e-02 2.79221144e-02
      3.71219143e-02 3.70716490e-03 4.05887654e-03 -2.07691663e-03
      1.18219983e-02 1.97008029e-02 -4.26852107e-02 -3.63910049e-02
      -1.77691244e-02 4.88221087e-02 4.06597629e-02 -1.68791506e-02
      -8.79256171e-04 4.49661240e-02 1.02588348e-02 -1.01029659e-02
      -2.33023316e-02 -1.35656085e-03 2.39624884e-02 6.29656017e-02
      6.68454450e-03 1.08718602e-02 3.68713401e-02 2.49035261e-03
      -1.82326213e-02 -2.08088886e-02 6.05387031e-04 2.71817148e-02
      3.20559256e-02 -1.77944619e-02 -2.07890384e-02 -6.22982346e-03
      -6.06120098e-03 -2.41379365e-02 4.18647798e-03 2.33039409e-02
      9.06529464e-03 4.97791469e-02 -8.53580888e-03 -1.29812332e-02
      -3.64931021e-03 -9.55136120e-03 -2.28887070e-02 9.96904261e-03
      7.33290613e-03 1.97705310e-02 2.74787731e-02 2.80782692e-02
      3.07085123e-02 1.23679200e-02 -1.53419818e-03 -3.71769629e-02
      -2.27959193e-02 5.67219630e-02 2.52046846e-02 -3.76421288e-02
      -3.63300135e-03 -8.11176561e-03 -1.95033196e-03 4.28399444e-03
      -3.11595891e-02 -3.96939069e-02 8.39054063e-02 4.10138303e-03
      2.68855281e-02 2.49880534e-02 8.13451782e-03 -5.56949992e-03
      -6.74735522e-03 -5.00837043e-02 1.60920322e-02 7.97299668e-02
      4.50293999e-03 -2.44566668e-02 -9.29630455e-03 -8.54858008e-05
      -4.26124735e-03 -7.28826784e-03 -6.31755441e-02 5.15596429e-03
      4.76253629e-02 -1.18758539e-02 -3.24831828e-02 -1.88474245e-02
      -1.63883679e-02 -4.89290012e-03 3.97263421e-03 -2.79985033e-02
      1.68023864e-03 5.07947244e-02 -2.34086793e-02 -3.53611186e-02
      -3.61209251e-02 -3.82831059e-02 -8.62813368e-03 8.52001924e-03
      6.75882725e-03 3.02000418e-02 9.37123299e-02 -1.04276631e-02
      -3.68870907e-02 -8.26823339e-03 -7.37764966e-03 8.42678268e-03
      5.40293287e-03 -3.32873762e-02 2.90337857e-02 6.39859140e-02
      -1.66067798e-02 -5.68432137e-02 -2.94358432e-02 -3.19789052e-02
      7.30554108e-03 1.46209039e-02 2.27898825e-02 6.40776679e-02
      -4.09758138e-03 -2.39587179e-03 -1.20033473e-02 -4.05762121e-02
      -3.21388766e-02 3.62416357e-03 3.43009979e-02 2.77675875e-02
      1.77442357e-02 -2.40058154e-02 2.87361862e-03 -1.95626765e-02
      -1.29630342e-02 -2.14470662e-02 1.92308500e-02 3.27052921e-02
      9.23274457e-03 -1.17640980e-02 3.28720585e-02 -1.94194745e-02
      -3.08668911e-02 -3.55843827e-02 -2.53118984e-02 1.62473042e-02
      4.79618944e-02 6.34788722e-02 4.88755703e-02 -1.54499076e-02
      -1.58561151e-02 -2.39244308e-02 -2.17796955e-02 -1.27434814e-02
      4.91786636e-02 1.67226475e-02 2.27435585e-02 -6.81425538e-03
      -4.43151454e-03 1.01107182e-02 2.34482288e-02 9.85127687e-03
      -1.91241421e-03 -3.45132523e-03 -9.22628492e-03 -5.81701798e-03
      -1.60091594e-02 1.41476849e-02 3.23918574e-02 3.17129716e-02
      6.46284968e-03 6.91812159e-03 1.15333479e-02 -1.77150220e-02
      7.58727221e-03 -7.04876147e-03 -4.39119339e-03 -1.92699372e-04
      3.63043509e-02 -1.66711230e-02 -4.19802731e-03 1.40865734e-02
      -1.47655315e-03 -1.93477515e-02 -5.28012821e-03 1.41919311e-02
      2.26865225e-02 3.52631621e-02 2.64780247e-03 6.98670046e-03
      -1.93152707e-02 -1.31702330e-02 1.17800077e-02 -2.03819312e-02
      4.73941723e-03 2.28886325e-02 -4.92706383e-03 1.20028676e-02
      -3.38864606e-03 2.99333874e-03 -1.24487793e-02 1.40744867e-02
      -1.56458095e-02 2.18517054e-02 4.87851910e-02 1.87519216e-03
      6.68728398e-03 -7.33075943e-03 -2.29632552e-03 -8.71587452e-03
      6.56605605e-03 -1.29429316e-02 -1.28795803e-02 2.37760022e-02
      9.39185172e-03 -2.05383054e-03 -1.31510915e-02 1.16218219e-03
      -2.66524148e-03 1.91273373e-02 5.15343435e-03 2.02015769e-02
      3.88700031e-02 3.95635841e-03 9.97791998e-03 4.72311582e-03
      1.89693943e-02 -3.10121500e-03 1.28642339e-02 -9.95905045e-03
      4.77669984e-02 3.59065942e-02 -1.60782542e-02 -3.91308125e-03
      -1.88658654e-04 -7.83794560e-03 -2.06900276e-02 -1.49092944e-02
      -1.91560891e-02 4.49403375e-02 1.53933316e-02 -5.14568202e-03
      6.81494549e-03 9.71600041e-03 -7.20960437e-04 -1.95630398e-02
      -2.84443609e-02 -1.19864382e-02 2.99898125e-02 1.59439035e-02
      -5.77758206e-03 -8.69718438e-04 1.19420439e-02 1.90334534e-03
      -1.39065376e-02 -1.94112901e-02 -5.18988306e-03 2.11634804e-02
      1.02087138e-02 -4.45786910e-03 -6.47958275e-03 1.10033639e-02
      7.55972788e-03 -1.61370840e-02 -2.46445406e-02 1.02219051e-02
      6.64476166e-03 4.57750633e-03 7.58303329e-03 2.36184709e-02
      1.83743541e-03 1.21235698e-02 -1.34675112e-03 -4.68213530e-03
      -1.48601448e-02 -1.60303619e-02 8.61883629e-03 4.05607708e-02
      2.83672307e-02 4.40633409e-02 3.14035453e-02 2.02568471e-02
      -1.97542540e-04 -3.25882551e-03 -2.45336425e-02 -3.01982965e-02
      3.42920935e-03 1.08883856e-02 4.45796922e-03 2.20455620e-02
      5.67441387e-03 -5.64421155e-03 8.48357100e-03 2.70675577e-04
      -1.81322023e-02 1.40450234e-02 -5.41315600e-03 1.10212835e-02
      3.37110795e-02 3.66187431e-02 8.04851670e-03 4.12057489e-02
      1.76052074e-03 1.68678816e-02 1.76279694e-02 1.27248941e-02
      1.36053050e-02 3.17682698e-02 2.03295331e-02 -1.83744170e-02
      -2.16742698e-02 7.52340071e-03 2.96180658e-02 -4.04929416e-03
      4.13477980e-03 4.68612881e-04 5.86274825e-03 2.79118586e-02
      -1.50426440e-02 -3.01103387e-02 8.67126416e-03 -1.34694180e-03
      8.03232752e-03 6.51648908e-04 1.33170309e-02 4.33989391e-02
      2.68939175e-02 2.11744173e-03 2.58519258e-02 -1.47976298e-02
      8.34580697e-03 -4.16061375e-03 4.57441527e-03 3.30676720e-03
      1.46263484e-02 1.47982547e-02 2.78662681e-03 -1.95999891e-02
      3.32826795e-03 1.80121213e-02 -1.25842094e-02 -3.32841394e-03
      -1.12312995e-02 -1.86568368e-02 1.95348654e-02 -1.80706824e-03
      1.26007609e-02 4.56690155e-02 2.09713099e-03 1.37005153e-03
      -1.91359986e-02 -1.25175770e-02 -1.99880712e-02 -5.09516895e-03
      1.24220010e-02 3.29623744e-02 2.00705826e-02 9.33533162e-03
      -3.06983963e-02 4.54653846e-03 1.90690462e-03 -1.04806516e-02
      1.89425200e-02 -1.01720321e-03 2.80406196e-02 6.99201748e-02
      -2.55461596e-03 -2.06653997e-02 -9.96023323e-03 -1.04431063e-03
      -1.70919392e-02 -1.57604348e-02 -3.37315165e-03 3.21840569e-02
      7.62659460e-02 -1.32499598e-02 -1.08071789e-02 -1.40340850e-02
      -2.47296761e-03 -7.54828518e-03 -1.04981987e-02 -4.69504371e-02
      4.14741691e-03 7.77294338e-02 -1.41513506e-02 -2.06442252e-02
      -1.27248615e-02 -3.38211027e-03 -3.29657877e-03 -8.94196425e-03
      -6.95674494e-02 -1.65648367e-02 6.47410154e-02 -1.92511398e-02
      -1.85470339e-02 -1.49166817e-02 2.34129300e-04 -1.25491256e-02
      -1.33623965e-02 -3.27632278e-02 2.76050232e-02 4.78530414e-02
      -1.25074806e-02 -1.53174885e-02 -4.01937636e-03 -2.23174249e-03
      -1.15373330e-02 -9.16756783e-03 -4.58061285e-02 1.41525986e-02
      6.55285940e-02 -1.51054962e-02 -2.53729988e-02 -6.81793736e-03
      -1.70204137e-03 7.08759530e-03 -5.80905471e-03 -4.03780155e-02
      1.76781118e-02 3.42176594e-02 -3.86610143e-02 -2.96347141e-02
      3.40993356e-05 -5.95281972e-03 1.73197892e-02 -2.28795153e-03
      7.57328980e-03 6.04792796e-02 3.01938672e-02 -3.49824154e-03
      3.99600156e-03 4.92128823e-03 -7.33417924e-03 -1.46776193e-03
      -1.18675912e-02 -3.19767185e-02 2.38619782e-02 2.95987329e-03
      -1.43476008e-02 1.03521654e-02 3.19439583e-02 -1.14047891e-02
      -6.21535303e-03 -1.33607481e-02 8.21939111e-03 3.33491601e-02
      3.13772284e-03 -3.00130900e-02 -3.04319076e-02 -1.25737693e-02
      -4.08590259e-03 2.18181144e-02 1.57382712e-02 2.85887457e-02
      2.53226124e-02 -1.02900648e-02 -1.92355793e-02 -1.96107086e-02
      -2.07780357e-02 4.61830432e-03 4.44682166e-02 1.10686123e-02
      1.84684817e-03 -1.61926840e-02 -8.16797186e-03 -2.37222631e-02
      -1.17346123e-02 2.17561219e-02 2.62101833e-02 4.52249460e-02
      2.79580541e-02 1.57201700e-02 -8.76382366e-03 -2.09933463e-02
      -1.90263987e-02 -1.87166445e-02 2.17422768e-02 4.55116294e-02
      5.05187847e-02 3.67101990e-02 -1.30994450e-02 -3.98909375e-02
      7.97233917e-03 -1.36250153e-03 2.31491178e-02 4.06811386e-03
      -5.60263963e-03 1.24275275e-02 6.85200468e-03 -1.01977978e-02
      5.99422213e-03 -1.57198962e-02 1.40741300e-02 3.17854248e-02
      2.17847284e-02 1.50086461e-02 3.72421579e-03 -9.28636454e-03
      1.66261641e-04 -1.00265993e-02 9.47649963e-03 -4.20715718e-04
      4.50410880e-03 6.18663384e-03 -6.48934906e-03 -1.22611960e-02
      1.67225599e-02 4.43627173e-03 -2.52530584e-03 -3.31045352e-02
      8.28828011e-03 4.00386862e-02 1.81403644e-02 1.02985473e-02
      -1.62958261e-02 -1.14972249e-03 1.34011926e-02 -3.57423467e-03
      -2.75632218e-02 1.25617906e-02 9.31900088e-03 2.22645719e-02
      -3.21740261e-03 2.57021096e-03 -8.71146005e-03 6.00965414e-03
      5.53667219e-03 2.95003001e-02 7.42261065e-03 -1.30799739e-03
      1.21695017e-02 2.04076003e-02 3.23284306e-02 -1.50932313e-03
      5.84504567e-03 1.95847377e-02 -2.12285630e-02 6.23607542e-04
      -3.47359804e-04 1.03185419e-02 1.69560686e-03 4.94369958e-03
      -3.69743677e-03 3.22805345e-03 2.07142532e-02 4.11603041e-02
      -1.49209620e-02 -2.29940023e-02 -9.24055278e-03 3.75223672e-03
      2.45288927e-02 1.41904699e-02 1.31902145e-02 3.33676413e-02
      1.67958923e-02 -1.10203708e-02 -1.68053769e-02 -2.18284363e-03
      1.16933137e-02 6.85798656e-03 2.22435407e-03 -3.16996919e-03
      -1.40267762e-03 2.00500935e-02 -3.14793102e-02 -1.80602018e-02
      -3.04568233e-03 9.63921193e-03 1.11061204e-02 3.35705373e-03
      3.54514783e-03 1.88550204e-02 3.61629128e-02 -3.16497348e-02
      -3.22963148e-02 -1.88532658e-02 -3.97319859e-03 6.11372665e-03
      1.12336697e-02 3.38228652e-03 2.65075434e-02 3.69926319e-02
      -5.98010607e-02 -3.24409865e-02 -1.43291950e-02 -5.21999737e-03
      5.58239454e-03 1.28315538e-02 1.88260470e-02 4.02191840e-02
      -1.85465068e-03 -5.84722124e-02 -1.31507600e-02 1.15062183e-04
      2.61982816e-04 8.17304198e-03 1.65301550e-03 4.60181246e-03
      1.57815106e-02 3.52598913e-02 -5.94902411e-02 -2.33117733e-02
      -8.05809628e-03 1.63408425e-02 1.69579536e-02 2.32894849e-02
      1.21664796e-02 4.30648327e-02 6.56665955e-03 -5.76718412e-02
      -2.77815368e-02 -7.03246193e-03 -2.47561024e-03 -1.85440702e-03
      -4.15405084e-04 1.94455907e-02 3.33815552e-02 2.36415807e-02
      -3.38426009e-02 -1.97856408e-02 -1.18882908e-02 -4.26947465e-03
      -3.94765241e-03 2.37172819e-03 1.53950108e-02 3.62997167e-02
      4.10914756e-02 -3.36518101e-02 -1.89275518e-02 -3.02576250e-03
      1.11734984e-03 2.62097199e-03 1.09403557e-03 -5.19329961e-03
      3.23421508e-02 2.61234138e-02 -1.16993152e-02 -1.26760826e-02
      1.03747786e-03 -2.25169817e-03 2.11297558e-03 -5.93934092e-04
      -1.55199785e-02 4.69368591e-04 4.20145765e-02 -3.88617478e-02
      -1.98141560e-02 -2.71039084e-04 -5.29610366e-03 -9.41370055e-03
      -9.05810203e-03 1.94475916e-03 3.44721265e-02 2.29096841e-02
      -6.84758415e-03 -9.72263888e-03 2.19087140e-03 -7.84047693e-03
      -1.02742147e-02 -1.19667128e-02 -1.47893960e-02 3.43299657e-02
      1.33213308e-02 -1.26336506e-02 -1.76917352e-02 -3.78988683e-03
      -3.67524754e-03 -8.46213734e-05 3.23946914e-03 3.32579785e-03
      3.02085038e-02 3.08173131e-02 -1.06535181e-02 -2.21234709e-02
      -7.92485941e-03 -2.73894635e-03 -5.93724987e-03 -1.85409971e-02
      -1.11951940e-02 3.57056223e-02 5.25834784e-03 -4.10829345e-03
      -1.25892945e-02 -8.81511625e-03 -5.86608611e-03 -4.85153822e-03
      -2.97477911e-03 2.24803411e-03 2.67454628e-02 7.50762364e-03
      -2.24382281e-02 -1.89721212e-02 -1.47534087e-02 -8.95437598e-03
      -1.02063054e-02 -1.25741940e-02 8.65471549e-03 1.09077031e-02
      3.58549170e-02 -2.09576469e-02 -1.14465607e-02 -3.01293097e-03
      -4.93454747e-03 -9.26335808e-03 -7.72889191e-03 -1.44044729e-02
      3.72521728e-02 4.49283160e-02 -3.19617689e-02 -1.76182408e-02
      -1.65624160e-03 -1.08177932e-02 -2.30507050e-02 -1.18981143e-02
      -6.48815511e-03 2.44955122e-02 -1.08638434e-02 -1.90352723e-02
      -1.15334867e-02 -7.78602716e-03 -1.16429683e-02 -1.69172753e-02
      -6.66201161e-03 1.51787596e-02 4.02590781e-02 1.22727035e-02
      -3.60329598e-02 -2.31290814e-02 -6.94594905e-03 -1.45864440e-02
      -2.40669362e-02 -1.57536112e-03 -5.25587471e-04 3.66974659e-02
      2.20113937e-02 1.22242086e-02 7.24027399e-03 -1.84344873e-03
      -1.09528722e-02 -1.27112018e-02 7.36438320e-04 -2.21882295e-03
      5.14098816e-03 -2.10890956e-02 2.52613127e-02 1.72831155e-02
      3.27218249e-02 -3.42412083e-03 -5.27509546e-04 -8.32848251e-03
      1.03447288e-02 -5.33686951e-03 3.64151434e-03 1.14153596e-02
      -3.58009641e-03 -1.55404042e-02 -1.23515725e-02 -1.02451202e-02
      3.15992045e-03 -3.31538206e-04 1.96456406e-02 1.87396118e-03
      4.66699675e-02 1.71999596e-02 2.65948940e-02 -8.92979745e-03
      -1.01273749e-02 -1.09348446e-02 1.00146967e-03 -2.72515006e-02
      -2.23571621e-02 -1.20728724e-02 1.17468294e-02 4.34039794e-02
      2.51761600e-02 2.84592062e-02 1.25109833e-02 5.95165137e-03
      -3.13805491e-02 -2.10331753e-02 -6.65568979e-03 -8.12851638e-03
      2.30395552e-02 5.01217991e-02 3.40571404e-02 7.24577764e-03
      -1.10993627e-02 -3.52825895e-02 -6.33191643e-03 3.48475799e-02
      5.21056131e-02 4.30859588e-02 -2.00192304e-03 -1.89480488e-03
      -1.45337991e-02 -1.46098277e-02 -3.94835137e-02 -6.43673493e-03
      2.66373972e-03 2.73855310e-02 2.82147303e-02 1.69956610e-02
      2.35423855e-02 -2.73433328e-02 -5.81987249e-03 -1.64811984e-02
      1.07593602e-02 1.93875679e-03 4.53844992e-03 -3.49292904e-03
      -1.31890085e-02 -1.09370882e-02 2.53573023e-02 1.03806667e-02
      -2.08720821e-03 -1.61399674e-02 1.30325397e-02 2.47440450e-02
      7.31909135e-03 1.56053817e-02 -2.51309965e-02 1.01475948e-02
      1.65806450e-02 9.76866577e-03 1.06716398e-02 6.51108276e-05
      1.34032487e-03 -1.47361113e-02 -2.33989079e-02 5.44550736e-03
      8.37422907e-03 -8.10323574e-04 -1.63015653e-03 -2.10565922e-04
      1.08238263e-02 6.88837981e-03 -1.35976607e-02 -7.43609155e-03
      -2.24747173e-02 -5.88867860e-03 2.76356842e-02 1.44628687e-02
      3.85072897e-03 4.37300792e-03 2.55705463e-03 4.72123083e-03
      1.33758725e-03 -1.68547046e-03 6.79497432e-04 -1.00167305e-03
      3.73358396e-03 2.92120073e-02 1.05950516e-03 -1.41548365e-02
      -1.88107565e-02 -8.09539016e-03 2.20331308e-02 1.77914687e-02
      -2.96767801e-03 2.98777316e-02 -5.47461119e-03 8.44365638e-03
      7.08996551e-03 -3.74735263e-03 1.29576810e-02 -1.94805232e-03
      1.17580090e-02 1.05752507e-02 -2.30246410e-02 1.86080728e-02
      2.03574598e-02 1.60043910e-02 -4.46863053e-03 1.54234422e-02
      2.56741815e-03 1.98389459e-02 1.66116524e-02 -1.40636005e-02
      4.15894687e-02 -9.72679351e-03 -2.80091688e-02 -2.78459005e-02
      -1.59284510e-02 3.52291716e-03 1.19917355e-02 4.46103327e-03
      3.20377834e-02 4.46502641e-02 -1.96147431e-02 -3.50930206e-02
      -2.09128931e-02 -1.06758531e-02 3.54516465e-04 1.01320632e-02
      2.43279543e-02 4.09015678e-02 2.97488905e-02 7.09423475e-05
      -1.08957374e-02 -1.57131813e-02 -2.30496675e-02 -3.60145397e-03
      5.98842651e-03 1.93468970e-03 1.48331036e-03 1.66776255e-02
      -4.39044740e-03 -2.24409197e-02 -1.57258399e-02 -3.09170950e-02
      1.27602936e-04 6.35941233e-03 3.10947909e-03 2.79037040e-02
      2.29174388e-03 -2.34214719e-02 -2.09826380e-02 -1.16053084e-02
      -4.08513425e-03 -2.21461290e-03 -2.35450105e-03 1.63128525e-02
      8.85118451e-03 1.81668587e-02 -1.39265810e-03 -1.43102100e-02
      -1.65757407e-02 -1.01592494e-02 -7.55971111e-03 -3.95727437e-03
      1.59354527e-02 2.29099058e-02 2.32985243e-03 -2.25021783e-03
      -1.14044864e-02 -9.65446141e-03 -2.66229082e-02 3.96073243e-04
      -5.64632565e-03 1.83514482e-03 -1.14655020e-02 3.35098878e-02
      2.30964627e-02 -8.81107431e-03 -1.15364576e-02 -4.90734412e-04
      -2.75371969e-03 1.81780197e-03 8.48358870e-03 -2.75888131e-03
      3.16173658e-02 -9.61078238e-03 -1.99586414e-02 -6.91835117e-03
      -7.96185900e-03 -1.25829075e-02 -3.93629866e-03 9.15794354e-03
      2.96101775e-02 2.63064280e-02 -2.90870629e-02 -2.21338961e-02
      -9.22775734e-03 -1.48404641e-02 -1.46909095e-02 6.38068141e-03
      6.86632469e-03 3.78903709e-02 2.18939669e-02 1.13364039e-02
      -1.55519238e-02 -1.32890027e-02 -1.28210476e-02 -8.99507198e-03
      4.46212897e-03 1.08528724e-02 1.34371794e-05 1.11578442e-02
      -1.72710288e-02 -2.47745756e-02 -8.58187489e-03 -1.05175199e-02
      -1.13839442e-02 1.44308470e-02 9.75284074e-03 3.38964909e-02
      2.75513623e-02 -1.62297785e-02 -1.39809586e-02 -1.49176242e-02
      -1.12503543e-02 -3.25465575e-03 7.26324215e-04 8.44686478e-03
      3.99776958e-02 1.65797044e-02 -2.38347985e-02 -2.35882010e-02
      -2.71497089e-02 -1.66828912e-02 -7.92692974e-03 -1.63711961e-02
      2.17106864e-02 4.48407382e-02 -1.87161993e-02 -2.17787065e-02
      -1.28473602e-02 -1.25219552e-02 -8.52240156e-03 -3.84038966e-03
      4.63893666e-04 1.19110439e-02 2.26517227e-02 -1.14920074e-02
      -1.61052831e-02 -2.11717281e-02 -2.34430283e-02 -1.48856528e-02
      -3.95415677e-03 -1.80598255e-02 2.26675104e-02 4.38038558e-02
      -1.39957368e-02 -5.09296125e-03 -6.87665911e-03 -8.86524562e-03
      -7.15451036e-03 -1.59121752e-02 -8.21755361e-03 2.12324597e-02
      4.42986786e-02 1.16547486e-02 -2.92949826e-02 -8.17094464e-03
      -8.46154895e-03 -5.83510986e-03 -9.64459125e-03 1.12803057e-02
      9.49912705e-03 2.38465108e-02 -1.43813808e-02 6.27954956e-04
      -7.36354524e-03 -6.83176564e-03 -1.63084101e-02 -1.53364325e-02
      -6.79392659e-04 3.10783871e-02 -1.32586667e-02 -1.58065874e-02
      -7.60768773e-03 -4.15498624e-03 -1.22404639e-02 3.08924145e-03
      -4.72429115e-03 2.46877912e-02 3.35815512e-02 1.13106496e-03
      6.14857115e-03 -1.13915198e-03 -9.58175305e-03 -7.74817495e-03
      -1.01467036e-02 3.82337766e-03 1.18788956e-02 7.25237280e-03
      3.69032100e-02 1.50843374e-02 3.42562608e-02 8.87560751e-03
      3.57530452e-03 -9.35201813e-03 3.42982996e-04 -5.70769142e-03
      6.27216976e-03 -8.44827504e-04 -1.01032853e-02 -1.05448924e-02
      -4.02728096e-03 -2.60502985e-03 -1.43674938e-02 5.50099602e-03
      8.34768638e-03 2.18525957e-02 1.87774263e-02 1.39657380e-02
      1.50565896e-02 -1.25253014e-02 -2.64710421e-03 -1.08439391e-02
      -1.85394601e-03 -2.94009782e-03 5.84898796e-03 -7.77991721e-04
      1.15265176e-02 2.37790849e-02 3.27229314e-02 2.13551242e-02
      -2.72846338e-03 -6.65530469e-03 -1.21665522e-02 -6.30868087e-03
      -1.38321333e-02 3.34285107e-03 7.43163610e-03 2.35871170e-02
      2.74247490e-02 1.97716895e-02 1.96598601e-02 -1.44797033e-02
      5.24074305e-03 -5.28363697e-03 2.26615425e-02 1.52133061e-02
      -2.13234704e-02 -1.84752569e-02 -1.69772785e-02 -4.68391553e-03
      -5.21034794e-03 -9.76211671e-03 1.16028003e-02 8.24046880e-03
      -1.89618964e-03 -1.42453695e-02 2.21667113e-03 1.19588934e-02
      1.56211909e-02 2.80662533e-03 1.15864957e-02 6.40723715e-03</_></support_vectors>
  <decision_functions>
    <_>
      <sv_count>1</sv_count>
      <rho>2.8274079580312845e+00</rho>
      <alpha>
        1.</alpha>
      <index>
        0</index></_></decision_functions></my_svm>
</opencv_storage>
