<?xml version="1.0"?>
<opencv_storage>
<my_svm type_id="opencv-ml-svm">
  <svm_type>C_SVC</svm_type>
  <kernel><type>LINEAR</type></kernel>
  <C>1.0000000000000001e-01</C>
  <term_criteria><epsilon>1.1920928955078125e-07</epsilon>
    <iterations>1000</iterations></term_criteria>
  <var_all>2916</var_all>
  <var_count>2916</var_count>
  <class_count>2</class_count>
  <class_labels type_id="opencv-matrix">
    <rows>1</rows>
    <cols>2</cols>
    <dt>i</dt>
    <data>
      1 2</data></class_labels>
  <sv_total>1</sv_total>
  <support_vectors>
    <_>
      -3.48545075e-03 1.81546658e-02 1.26400369e-03 -5.90248848e-04
      -3.65797654e-02 -1.97301456e-03 2.06630700e-03 5.05888602e-04
      8.02174676e-03 2.94047855e-02 2.96703968e-02 1.04225967e-02
      2.37705894e-02 -3.25812437e-02 -8.40804726e-03 -1.46032460e-02
      -6.74064457e-03 2.93260999e-02 2.48587225e-03 2.67660152e-02
      2.46445760e-02 -8.46433546e-03 -3.28208357e-02 9.52257309e-03
      1.18702343e-02 2.87017715e-03 1.60784274e-02 4.70690578e-02
      5.73770441e-02 2.67562680e-02 1.37721663e-02 -1.72608867e-02
      -2.54897098e-03 -9.99551360e-03 -1.40100131e-02 2.44673323e-02
      2.47848984e-02 1.95160136e-03 -2.29219021e-03 1.31916516e-02
      -3.10480203e-02 -1.67336315e-03 -5.40938601e-03 8.95068422e-03
      2.81608310e-02 1.44519275e-02 7.34046660e-03 -7.72882113e-03
      -1.26886778e-02 -3.05665210e-02 -2.80586514e-03 -2.82590627e-03
      2.40459591e-02 1.99593492e-02 3.61625329e-02 1.60368700e-02
      -1.45251118e-02 -5.81146125e-03 -1.09807476e-02 5.47780609e-03
      1.38237905e-02 1.47471111e-02 4.33273427e-02 8.31760280e-03
      -8.80246330e-03 -1.17290001e-02 -2.98151877e-02 -4.17393586e-03
      1.55539289e-02 9.76514909e-03 3.73479724e-02 3.87842767e-02
      4.58076410e-03 1.56011824e-02 -2.74178269e-03 -9.86281317e-03
      7.08446372e-03 2.79556755e-02 -1.70352552e-02 1.59594286e-02
      2.54015420e-02 -2.81509804e-03 9.97432508e-03 7.18880538e-03
      -3.94681934e-03 2.95938039e-03 1.86143222e-03 -2.22633351e-02
      1.60451345e-02 1.79787017e-02 -3.16744461e-03 1.00968836e-03
      -1.95235375e-03 -1.93868007e-03 2.51098797e-02 4.73713800e-02
      8.33272561e-03 3.12182121e-02 3.02998610e-02 -1.30212428e-02
      1.21720810e-03 9.61283222e-03 1.57075729e-02 2.42155362e-02
      2.11741794e-02 -3.07479664e-03 2.02539265e-02 -3.59377824e-03
      1.63163990e-02 1.48465866e-02 6.35424629e-03 -3.07587488e-03
      9.21019819e-03 -1.59430690e-02 -1.69146340e-02 2.24864725e-02
      2.77229454e-02 3.29994783e-02 3.33678648e-02 1.59295462e-02
      4.09204140e-03 1.37537892e-03 -1.45257721e-02 -2.26892512e-02
      -9.22306255e-03 2.29953770e-02 -4.45018290e-03 1.09568555e-02
      5.01933042e-03 -3.11193359e-03 -6.06516423e-03 -7.58579979e-03
      5.72197698e-03 1.84503663e-02 4.46841726e-03 9.99110099e-03
      7.95615837e-03 -2.46307929e-03 -2.13134438e-02 -2.31845807e-02
      -1.03435572e-02 -5.05470857e-03 1.07757337e-02 3.01102903e-02
      2.76520532e-02 1.18787223e-02 5.60581544e-03 7.89782777e-03
      6.37293793e-03 -7.28837773e-03 -3.61000042e-04 -1.68246171e-03
      8.89405701e-03 1.10632768e-02 1.49735156e-02 -1.14800036e-02
      -1.31421238e-02 -2.75417138e-03 6.23987848e-03 7.92816654e-03
      1.57636888e-02 8.78983270e-03 1.66429183e-03 5.79055911e-03
      -2.19011796e-03 -9.13467258e-03 -2.14187391e-02 -2.16824515e-03
      -6.09816797e-03 1.02225086e-03 1.51634458e-02 -2.17154226e-03
      3.43261147e-03 -1.59957316e-02 -2.74293460e-02 -2.71611921e-02
      1.41506931e-02 -5.60585177e-03 1.51931727e-02 1.60240661e-02
      1.78153310e-02 6.67093648e-03 -3.28201521e-03 -2.95561808e-03
      4.69905883e-03 -1.99119258e-03 5.99032501e-04 1.36226816e-02
      1.83918960e-02 -3.07791424e-03 -1.66555197e-04 -6.41590450e-03
      4.28793766e-03 3.31332884e-03 -1.22950906e-02 -1.06239738e-02
      1.55725302e-02 2.56258324e-02 7.38918129e-03 5.49086742e-03
      2.41509103e-03 -2.84933532e-03 -1.30406755e-03 -3.98008712e-03
      7.56147958e-04 4.34133084e-03 1.55345444e-02 -2.94508412e-03
      1.06327878e-02 1.71074998e-02 7.05307210e-03 1.64704665e-03
      -1.26802456e-02 -1.72379948e-02 1.61003624e-03 1.49234023e-03
      7.37516815e-03 1.15143182e-02 2.85559380e-03 -2.13792617e-03
      4.04299982e-03 -7.94589054e-03 -1.42856967e-02 5.12097450e-03
      2.60311849e-02 9.35657416e-03 9.78326984e-03 -2.72334344e-03
      -7.58960564e-03 1.16817765e-02 -1.46551011e-02 -1.35153090e-03
      -4.33960836e-03 2.56302319e-02 -3.76184424e-03 3.96789378e-03
      1.59400131e-03 -4.11279791e-04 -4.27526748e-03 -1.49899297e-05
      -8.04594066e-03 7.71216024e-03 1.31358856e-05 1.85925066e-02
      2.74430495e-02 -7.75374193e-03 -1.23378271e-02 -1.00920731e-02
      -1.13787921e-02 5.57364756e-03 2.56160423e-02 1.82836410e-02
      4.72993683e-03 7.56917428e-03 9.80073586e-03 4.12106933e-03
      1.34776505e-02 -1.32452436e-02 -8.89044022e-04 -1.32327888e-03
      7.52473623e-03 1.28253950e-02 -9.34503321e-03 7.83059746e-03
      2.00861637e-02 1.64374262e-02 -3.91029101e-03 -2.32551130e-03
      1.43959029e-02 1.89774986e-02 2.55708359e-02 1.63917318e-02
      -6.47186022e-03 1.92356668e-02 -1.10764308e-02 -2.46487930e-02
      8.97430582e-04 1.42288292e-02 1.50149679e-02 1.99724268e-02
      5.90656651e-03 2.22089072e-03 2.02190671e-02 1.27888145e-02
      -7.87390489e-03 5.92623651e-03 4.17048894e-02 2.69077606e-02
      1.92533073e-03 -4.55858232e-03 7.23086949e-03 2.12602969e-02
      2.12255195e-02 6.87958580e-03 6.10181736e-03 6.26757462e-03
      -3.90787580e-04 -4.93251812e-03 -5.84815210e-03 -2.40727514e-02
      2.27326676e-02 3.75322476e-02 2.99265292e-02 2.64095142e-02
      -3.42865940e-03 -2.64117252e-02 1.53091061e-03 -1.95929613e-02
      -7.68184545e-04 2.07352508e-02 5.35837654e-03 -1.22906710e-03
      6.06270088e-03 3.05838380e-02 1.46677550e-02 -5.69580076e-03
      -7.60925515e-03 -8.11063219e-03 1.58475507e-02 1.32913478e-02
      2.05147378e-02 1.93098690e-02 2.12031435e-02 4.62340517e-03
      6.34910120e-03 1.51349567e-02 9.52704065e-03 -1.45080788e-02
      -4.49265502e-02 -8.30886653e-04 3.96354997e-04 2.40831240e-03
      8.70387442e-03 3.69773954e-02 4.14142497e-02 2.46496554e-02
      6.20931620e-03 -2.03544479e-02 9.32911993e-04 -1.35877430e-02
      -1.24126598e-02 1.24435043e-02 1.32207833e-02 1.61548145e-02
      1.43328290e-02 4.86641766e-05 -2.99073067e-02 -2.57388543e-04
      -8.38429853e-03 5.15753916e-03 6.11935742e-03 2.01865751e-02
      2.93878093e-02 2.57926136e-02 -1.60053358e-04 -3.58718820e-02
      -1.36946989e-02 -1.22516258e-02 -1.01027787e-02 1.07208285e-02
      2.91062724e-02 2.26779152e-02 -5.90432528e-03 -1.49515709e-02
      -9.41359252e-03 -5.88885974e-03 -6.92147017e-03 -7.99001020e-04
      3.31494920e-02 4.84845042e-03 -1.52957300e-02 -2.08032336e-02
      -2.77906731e-02 1.40302153e-02 9.80753172e-03 2.80817947e-03
      1.49556240e-02 2.42785551e-02 2.25263629e-02 1.49236824e-02
      -8.81777611e-03 -2.93012056e-02 -3.33672320e-03 -1.07231308e-02
      -4.89368476e-03 -6.90834783e-03 2.37444863e-02 1.68003386e-03
      -1.42190112e-02 -3.61462459e-02 -1.13649545e-02 2.26442032e-02
      1.87220220e-02 -1.95566652e-04 3.27909342e-03 5.08078141e-03
      -4.23963135e-03 -1.80798080e-02 -7.10068084e-03 1.04239825e-02
      3.68197747e-02 4.26671766e-02 1.61097255e-02 1.98385157e-02
      7.18235364e-03 -1.32287582e-02 -1.00259474e-02 6.78699417e-03
      1.70730501e-02 1.02941524e-02 2.70722602e-02 -1.69365504e-03
      -1.52082241e-03 -1.00196712e-02 1.49751198e-03 -1.72424112e-02
      -1.86360385e-02 2.85244994e-02 4.33093980e-02 4.04441468e-02
      2.39034295e-02 1.69544071e-02 -3.48734233e-04 -4.92187496e-03
      -5.19088609e-03 6.10604591e-04 2.73792129e-02 1.09015079e-02
      4.45126891e-02 5.52423345e-03 -1.53662385e-02 -1.31843053e-02
      -5.00228489e-03 8.78618751e-03 1.83155127e-02 6.15509972e-03
      -1.30962243e-03 1.11568952e-02 1.05683459e-02 5.78126032e-03
      8.33325647e-03 2.06962111e-03 -6.21893350e-03 -4.22687968e-03
      6.29952177e-03 -5.18011395e-04 1.68183818e-02 5.97523013e-03
      5.35579817e-03 2.01930255e-02 -9.91286361e-04 1.33417584e-02
      1.72677599e-02 2.18727402e-02 6.12849323e-03 3.23162079e-02
      2.41784509e-02 -1.37037262e-02 -1.07250549e-02 -9.78814159e-03
      6.45595603e-03 1.90890152e-02 1.66926440e-02 1.55345462e-02
      4.39933501e-02 2.74313912e-02 1.91467069e-03 -7.94233568e-03
      2.32072338e-03 7.06778001e-03 -3.78052425e-03 -8.22595553e-04
      -9.05427802e-03 1.46616949e-02 -1.05762202e-02 -2.90483912e-03
      2.22599581e-02 2.28446238e-02 6.74297009e-03 -7.00326124e-03
      -1.53123857e-02 -6.06522802e-03 5.98554313e-03 -7.76914926e-03
      8.80576670e-03 3.57408859e-02 -7.21560884e-03 1.82209406e-02
      1.04913684e-02 -3.80765903e-03 6.77853939e-04 1.40966289e-02
      -1.23822466e-02 -3.59107158e-03 -1.96285993e-02 3.03472020e-02
      1.74176935e-02 1.22314757e-02 -7.53219007e-03 -6.66042138e-03
      -1.39395446e-02 -1.99952535e-02 1.35994039e-03 1.30999079e-02
      1.16034988e-02 4.89082979e-03 1.14119984e-02 -3.86535469e-03
      -2.46126554e-03 -6.94003468e-03 -2.29909061e-03 3.39671737e-03
      1.21536823e-02 1.29405456e-02 1.40861012e-02 2.20335852e-02
      1.58365350e-02 8.79278814e-04 -1.08863879e-02 -8.97047762e-03
      -7.47240102e-03 -1.82630103e-02 2.15321071e-02 1.53049296e-02
      1.30434902e-02 4.99614747e-03 -3.99446301e-03 -1.45018101e-02
      5.18292130e-04 -1.35198666e-03 -4.40741796e-03 -4.79052216e-03
      2.47561019e-02 2.33490262e-02 2.86579020e-02 3.64829274e-03
      -1.19632473e-02 2.39750580e-03 1.97356958e-02 -8.49960744e-03
      -2.32314765e-02 -3.32867820e-03 5.09850960e-03 4.98057203e-03
      2.50657462e-03 -1.20991282e-03 7.43654743e-03 1.92116722e-02
      -5.43757761e-03 -3.07859574e-03 1.31387338e-02 -1.64766386e-02
      -1.58947334e-02 -2.04802398e-02 -5.86589240e-03 1.52752399e-02
      3.55072170e-02 8.68447870e-03 -2.90217847e-02 -1.09512461e-02
      -2.07851338e-03 2.24897601e-02 2.03784984e-02 3.19551164e-03
      1.16218235e-02 4.18565907e-02 -2.13414081e-03 1.31128961e-02
      2.03441363e-03 -1.14008933e-02 -5.95994294e-03 -2.59798556e-03
      1.57826673e-02 2.81951893e-02 3.99315096e-02 1.35773076e-02
      1.81848146e-02 7.50972331e-03 -7.61281094e-03 6.81723934e-03
      -2.66924016e-02 -1.46631468e-02 5.27599175e-03 5.79675846e-03
      1.27400197e-02 1.36475693e-02 -1.51806860e-03 9.86457616e-03
      1.24625033e-02 -8.74691270e-03 -7.40173971e-03 1.04239723e-02
      2.42166687e-02 2.39708517e-02 3.39049883e-02 1.19780740e-02
      3.36305215e-03 -9.90920421e-03 -1.93222594e-02 -7.48233171e-03
      8.36535264e-03 1.69832353e-02 2.63496060e-02 3.02838609e-02
      1.77644603e-02 1.11407898e-02 -1.24517479e-03 -8.95630661e-03
      7.41099566e-03 7.46434415e-03 2.26116776e-02 1.31996246e-02
      -8.33754335e-03 -1.77103169e-02 1.08417477e-02 6.53320830e-03
      -7.74298003e-03 -4.83808201e-03 6.68176974e-04 1.89359281e-02
      8.58786795e-03 -2.08733929e-03 -1.18791796e-02 7.87952449e-03
      4.33415268e-03 -3.96119012e-03 1.99218374e-02 1.08877067e-02
      1.37023591e-02 -2.14423169e-03 2.58741882e-02 1.72789805e-02
      9.43678431e-03 -3.90781229e-03 -5.14691055e-04 6.94955513e-03
      1.42410062e-02 1.76348034e-02 1.03298826e-02 2.26044580e-02
      7.43506011e-03 4.02111001e-03 8.32147125e-05 7.20564229e-03
      2.36930661e-02 2.93021500e-02 2.00349912e-02 1.63290035e-02
      -7.85600103e-04 4.59904224e-03 1.71484649e-02 1.38494866e-02
      -8.77778605e-03 -3.80982109e-03 -7.12406915e-03 6.12922595e-05
      4.06704232e-04 4.96998942e-03 2.06846278e-02 2.63790581e-02
      2.28115637e-02 -2.14357097e-02 -9.48094483e-03 -2.17069313e-02
      -4.38110949e-03 8.55779368e-03 -1.54797686e-02 -5.17269969e-03
      4.93439613e-03 1.25400210e-02 1.50743267e-02 8.48944485e-03
      -1.91189256e-02 -1.70858856e-02 -1.27523718e-02 -2.11002538e-03
      1.00998953e-02 1.15420474e-02 2.30642483e-02 7.91889243e-03
      -4.85403556e-03 -3.37583981e-02 -1.53869512e-02 -1.21958554e-03
      1.02825677e-02 8.36082920e-03 -3.47123528e-03 -2.56439727e-02
      -2.42515863e-03 4.02990822e-03 -2.02829810e-03 -2.15359521e-03
      8.12721066e-03 -1.03365183e-02 -1.00546489e-02 -2.29967311e-02
      -1.09696644e-04 3.80217992e-02 2.42073592e-02 6.53084880e-03
      -1.19145690e-02 -1.22259045e-02 -2.91840755e-03 6.40903693e-03
      1.93183578e-03 -8.67932662e-03 -2.84079649e-03 9.73100774e-03
      -1.34320464e-03 -4.14166972e-03 -1.36581492e-02 -1.08211050e-02
      -1.39441923e-03 -5.06284460e-03 2.87496373e-02 2.85961404e-02
      1.42573621e-02 -1.30978681e-03 -3.09175998e-02 -1.94389615e-02
      -5.77691477e-04 -1.16193537e-02 -1.54896434e-02 3.41562927e-02
      4.85702232e-02 3.20418179e-02 1.14521813e-02 -4.57388116e-03
      -1.21304765e-02 3.17273615e-03 3.71900713e-03 6.10379828e-03
      1.88344121e-02 -9.21071449e-04 2.18742043e-02 -3.26629233e-04
      -3.32091339e-02 -1.75557546e-02 -1.14985241e-03 -2.67559150e-03
      1.26567658e-03 5.47789447e-02 4.92651649e-02 2.33727321e-02
      4.93911793e-03 -1.66814961e-02 -7.69716874e-03 1.00519089e-02
      -3.00114788e-03 9.58998501e-03 1.26975020e-02 2.54707877e-02
      -9.84738814e-04 2.28682966e-05 -1.94826424e-02 -1.88182225e-03
      5.63098677e-03 1.28758261e-02 8.27642251e-03 5.09812078e-03
      -2.50473525e-03 2.94045061e-02 7.84563925e-03 -2.31917705e-02
      -1.03938906e-02 -1.33486502e-02 8.85143131e-03 1.63958815e-03
      4.70513303e-04 1.70966722e-02 4.00632732e-02 1.20641766e-02
      -5.27234341e-04 -2.60982830e-02 1.08064096e-02 1.31843323e-02
      4.99519333e-03 -6.31222269e-03 1.14205172e-02 4.15474176e-02
      2.84385756e-02 2.37841741e-03 1.95555575e-03 2.53413012e-03
      8.87192134e-03 3.03890891e-02 1.82868692e-03 1.12930741e-02
      4.81795482e-02 3.84802483e-02 1.45575525e-02 -4.79245326e-03
      -1.20097259e-02 1.96239222e-02 1.21264923e-02 -1.12080406e-02
      2.33678985e-03 8.88606347e-03 2.18184246e-03 -4.99243895e-03
      -1.89830810e-02 8.40462744e-03 2.43835673e-02 2.78648436e-02
      -1.26928389e-02 -1.42152794e-02 -1.30816242e-02 3.59067344e-03
      7.48062087e-03 -2.86222026e-02 -3.56371491e-03 1.83132198e-02
      1.84119400e-02 -2.23211683e-02 -1.27804801e-02 2.73419209e-02
      2.27668956e-02 9.98923276e-03 1.06625529e-02 2.32386682e-02
      1.59258209e-02 1.96672846e-02 -1.02089131e-02 -3.16586681e-02
      4.03968012e-03 3.63022126e-02 2.45968215e-02 1.65639147e-02
      6.15822757e-03 1.38764353e-02 7.30328215e-03 -2.04161531e-03
      -8.47926829e-03 -1.05712404e-02 7.07876822e-03 4.04594187e-03
      -2.69375723e-02 -8.69065151e-03 1.55801773e-02 3.95859499e-03
      7.09749106e-03 3.33744241e-03 -9.62140784e-03 8.27695895e-03
      7.78905768e-03 -2.38938015e-02 3.75694484e-02 2.12753713e-02
      1.19067477e-02 -8.37813877e-03 -2.07850859e-02 3.82050569e-03
      1.65091138e-02 8.74527264e-03 8.61121248e-03 3.67347561e-02
      2.52901558e-02 2.56840754e-02 -5.64641180e-03 5.90895442e-03
      7.97584839e-03 1.23123191e-02 1.56600084e-02 1.49901202e-02
      -3.99635024e-02 -1.94001682e-02 -3.51371733e-03 2.44127843e-03
      2.35554366e-03 1.30121061e-03 5.10719093e-03 1.76395196e-02
      -2.34271828e-02 -1.56379584e-02 -9.05770517e-04 -1.59756523e-02
      -3.14515713e-03 -1.06083695e-02 9.46844183e-03 1.21061495e-02
      7.34956795e-03 3.87812243e-03 2.81106755e-02 2.46949941e-02
      -1.27449119e-03 4.44102613e-03 3.94162536e-03 8.35981965e-03
      5.41394856e-03 4.35672980e-03 3.69249191e-03 4.03532423e-02
      4.66604494e-02 -1.67134730e-03 7.41005270e-03 -8.18820484e-03
      -4.49855812e-03 2.69485568e-03 -6.61970256e-03 7.95421470e-03
      1.32926158e-03 -1.74940452e-02 -7.66395545e-03 -1.23633547e-02
      -9.56406817e-03 -1.31446635e-02 -1.09724971e-02 1.37308298e-03
      9.36754420e-03 9.95225087e-03 -7.41189753e-04 -3.85813089e-03
      -1.40348617e-02 2.41931388e-03 -7.21364655e-03 -1.29685206e-02
      -2.80279131e-03 3.24515277e-05 3.33019122e-02 2.01833677e-02
      3.61099932e-03 -2.79108412e-03 -5.84144564e-03 -1.03324875e-02
      -9.76847392e-03 -1.84358296e-03 1.73047334e-02 1.78585108e-02
      1.31245330e-02 1.57998484e-02 -8.19481630e-03 -4.44906298e-03
      -1.93605476e-04 -9.79662756e-04 6.89161615e-03 1.76400319e-02
      1.16632283e-02 -1.02211256e-02 -3.77932540e-03 -8.88467859e-03
      -1.56769343e-02 1.19510782e-03 8.91893357e-03 -5.80335408e-03
      -7.16698822e-03 1.46431499e-04 -9.49013885e-03 -1.51598183e-02
      -1.77877247e-02 -2.50169937e-03 1.29128750e-02 2.80552171e-02
      2.12252792e-03 4.50556120e-03 1.30012594e-02 -2.71095266e-03
      -2.46393750e-03 -1.16019342e-02 -2.07598452e-02 1.29041448e-02
      2.76719388e-02 5.89675689e-03 1.15096644e-02 9.35046282e-03
      4.59899241e-03 -1.12893302e-02 -2.17212923e-02 1.15132201e-02
      4.26824428e-02 4.64408770e-02 8.74142069e-03 1.48085374e-02
      -1.04467487e-02 -3.28450976e-03 -9.73059144e-03 5.78935910e-03
      3.28793973e-02 1.44885704e-02 -1.10521549e-02 -1.06465165e-02
      -1.95443481e-02 -2.29678256e-03 7.47524248e-03 -2.67246971e-03
      2.99678370e-02 2.73618158e-02 -7.49816187e-03 -2.87233740e-02
      -1.01628536e-02 -2.01485511e-02 -2.51623038e-02 -2.88609089e-03
      -2.26728376e-02 7.81089766e-03 2.87967473e-02 2.37350743e-02
      -1.37474285e-02 -1.26837529e-02 -2.81840917e-02 -2.21032258e-02
      -3.16688698e-03 -2.45596711e-02 3.35972533e-02 2.64598783e-02
      -6.32527797e-03 -2.31577717e-02 -7.12599652e-03 -3.45517509e-02
      -1.07765438e-04 3.11651989e-03 5.17115602e-03 1.56455506e-02
      -8.85751564e-03 -4.53207130e-03 -3.32295755e-03 -7.93354958e-03
      -2.04894207e-02 -1.61520466e-02 -1.25899399e-02 1.57080614e-03
      4.63522524e-02 2.96885651e-02 6.11393247e-03 -1.93027128e-03
      -3.11055128e-02 -1.88797731e-02 -1.58036724e-02 -8.77690688e-03
      -3.56226112e-03 3.13309468e-02 2.16497984e-02 -2.21487926e-03
      7.25484639e-03 -1.48940813e-02 -2.60180198e-02 -4.82222736e-02
      -2.44382881e-02 -7.36492826e-03 5.00012422e-03 4.28311601e-02
      4.75671934e-03 -1.35525372e-02 -3.69814597e-02 -3.29339504e-02
      -1.07554970e-02 -6.55747950e-03 -6.29602073e-05 4.35650349e-02
      4.59337793e-02 1.68596487e-02 1.05328090e-03 -1.32995937e-02
      -1.29847340e-02 -1.36312228e-02 -9.19268467e-03 5.42729860e-03
      -5.49981091e-03 1.06246127e-02 5.49102086e-04 3.04240268e-03
      -1.52717018e-02 -3.13248090e-03 -2.45320536e-02 -1.56294145e-02
      -1.07368296e-02 2.40080375e-02 4.98092696e-02 3.53122838e-02
      9.32337623e-03 -1.18696271e-02 -1.38340034e-02 -6.13244995e-03
      -1.52997840e-02 -9.78675298e-03 1.86970085e-03 1.22666191e-02
      1.72696728e-02 8.62766989e-03 3.97307752e-03 -1.02507044e-02
      -6.74169045e-03 -5.96880796e-04 1.24818608e-02 -9.98051465e-03
      -1.42949133e-03 1.99010018e-02 8.10361654e-03 -1.28785018e-02
      -2.66196709e-02 -1.87417809e-02 4.14694333e-03 1.72090437e-02
      9.96844191e-03 -2.34804954e-03 3.07334475e-02 2.41217669e-02
      -1.62531361e-02 -3.26356590e-02 8.01116321e-03 2.21431572e-02
      4.01633903e-02 1.74430888e-02 8.85792077e-03 1.04763461e-02
      4.51266486e-03 1.26328869e-02 -1.31889926e-02 1.03774639e-02
      2.16435194e-02 4.35210690e-02 2.86361463e-02 8.01189279e-04
      1.10901184e-02 6.40055351e-03 1.30796283e-02 -2.63946634e-02
      -2.10176483e-02 -6.24575466e-03 2.49433168e-03 -6.57449942e-03
      -6.25558384e-03 1.31593421e-02 1.10504469e-02 -4.54425206e-03
      -2.53567677e-02 8.81959032e-03 -1.77584961e-02 -1.85314287e-02
      -1.44999307e-02 -1.72404200e-02 1.11861052e-02 1.54668894e-02
      3.35832499e-03 -6.33963337e-03 1.80574730e-02 1.31215369e-02
      1.03443414e-02 1.84339583e-02 3.95603571e-03 9.09702014e-03
      9.62377060e-03 3.75767634e-03 -7.64769316e-03 3.73816676e-02
      3.25408019e-02 -1.67375524e-02 -5.44890901e-03 -5.06566511e-03
      5.61636779e-03 1.85086727e-02 5.53539838e-04 1.87244285e-02
      5.80774853e-03 -8.91146064e-03 -1.17487777e-02 -2.06432305e-02
      -1.33981388e-02 -3.60132311e-03 1.84093916e-03 -1.52162910e-02
      -1.91675723e-02 2.43686046e-02 -4.71571879e-03 -6.53936807e-03
      -6.45665638e-03 -3.71025107e-03 -4.16038511e-03 -4.45143925e-03
      -1.12177636e-02 5.96626801e-03 4.83539477e-02 3.18185426e-02
      -1.47397937e-02 -8.99090804e-03 -1.02136917e-02 -1.07914014e-02
      4.71984874e-03 -3.19459010e-03 1.06195426e-02 4.21281271e-02
      1.73190851e-02 4.66557266e-03 7.71904504e-03 -3.56080546e-03
      -1.28911752e-02 -1.18213799e-02 -2.90843565e-03 3.07489298e-02
      1.79092903e-02 1.06178038e-02 -1.38437524e-02 -7.05728773e-03
      -3.72826355e-03 -2.41617905e-03 -4.92043793e-03 -2.43870378e-03
      -7.66152702e-03 2.90980414e-02 3.07213552e-02 -1.32903550e-02
      -1.43550038e-02 -1.30784549e-02 -1.19807003e-02 -1.15800500e-02
      -4.36129840e-03 -1.04680303e-02 4.45306189e-02 2.11547874e-02
      -1.56638358e-04 -1.46272033e-02 -1.62333306e-02 -1.50571028e-02
      -1.41428430e-02 4.44874866e-03 1.72027089e-02 4.93613817e-02
      2.98204850e-02 -9.83797386e-03 -2.01349407e-02 -2.87131164e-02
      -2.66837366e-02 -2.47380249e-02 -1.72074195e-02 1.60135515e-02
      1.98346656e-02 2.23654918e-02 2.84723542e-03 -7.88429938e-03
      -9.00107622e-03 -1.54365981e-02 -1.46505563e-02 -6.00777194e-03
      -7.38634553e-04 2.17254255e-02 1.12506915e-02 1.47917289e-02
      -1.55486837e-02 -1.36277713e-02 -1.32134566e-02 -3.52675188e-03
      1.09604804e-03 -3.80669837e-03 3.57991345e-02 2.70795673e-02
      -1.10440198e-02 -1.73721891e-02 -2.42628381e-02 -2.91247368e-02
      -2.50389278e-02 -6.57723425e-03 2.10032668e-02 1.32538183e-02
      1.20273959e-02 -1.94220338e-03 -1.48394248e-02 -2.47819405e-02
      -2.51826718e-02 1.54107634e-03 1.29448175e-02 1.42761916e-02
      1.69207659e-02 4.47763130e-03 -1.60901539e-03 -1.73934456e-02
      -2.05995571e-02 5.44308033e-03 2.05003433e-02 3.25729069e-03
      -8.83719698e-03 9.15548357e-04 -6.40401943e-03 -1.57944635e-02
      -1.57798752e-02 1.38776004e-02 4.29092571e-02 3.90959866e-02
      -1.03751151e-02 6.67499378e-03 1.14684198e-02 2.03758595e-03
      -2.04768907e-02 -1.83315258e-02 -1.71758011e-02 4.45789937e-03
      1.89503133e-02 -2.17768527e-03 -1.42822107e-02 3.61393765e-03
      -2.62978412e-02 -2.48300843e-02 7.05465488e-03 2.83838622e-02
      3.18066701e-02 1.00121591e-02 -9.84778255e-03 -1.13546988e-02
      -1.55152213e-02 -6.74355542e-03 -8.10658652e-03 1.26919430e-02
      4.28023748e-02 4.03412757e-03 -2.11580228e-02 -1.14549603e-02
      -1.73464697e-02 -1.67960040e-02 -2.16313973e-02 -2.75310036e-02
      2.42362488e-02 5.86650707e-02 6.52714958e-03 -1.08162425e-02
      -4.34153527e-03 -1.72985047e-02 -1.42289111e-02 -2.00128574e-02
      -4.28616395e-03 2.83987522e-02 4.53767143e-02 -9.95560666e-04
      -4.82908040e-02 -1.51850246e-02 -1.68339964e-02 -1.66875999e-02
      -3.21649276e-02 -2.12198365e-02 3.33365649e-02 4.92261350e-02
      -2.85426271e-03 -1.34920003e-02 -7.52159581e-03 -9.76118166e-03
      -1.28386179e-02 -1.82351079e-02 -1.08443173e-02 1.86223611e-02
      1.83467157e-02 -4.43032617e-03 1.01989694e-02 -7.00330734e-03
      -1.83405560e-02 -3.34311314e-02 -1.76215507e-02 -2.20494643e-02
      9.78656765e-03 5.37512898e-02 3.85560617e-02 -1.38687191e-03
      -2.32312307e-02 -3.45133655e-02 -2.00851839e-02 -3.97628993e-02
      -1.60341933e-02 4.58519906e-02 3.32578421e-02 1.78573839e-03
      -2.25754105e-03 -2.55753915e-03 -1.85116436e-02 -2.83764042e-02
      -3.51655111e-02 -2.24754959e-02 3.37480530e-02 5.36267310e-02
      3.41713876e-02 6.57487847e-03 -2.08055060e-02 -2.36061104e-02
      -1.48632852e-02 -7.24713597e-03 -1.53262466e-02 2.35991320e-03
      3.47464457e-02 3.19033787e-02 -1.34368101e-02 -1.01304268e-02
      -1.68887954e-02 7.96615030e-04 -1.57431848e-02 -1.31376423e-02
      3.85373388e-03 -6.39895862e-03 -1.29977455e-02 -2.44035665e-02
      9.85479821e-03 -9.73317772e-03 -7.79029168e-03 6.91937096e-03
      -2.10795049e-02 9.50514805e-03 2.50919200e-02 3.63224931e-02
      -8.14697985e-03 8.80130939e-03 -2.03079032e-03 4.43435833e-02
      2.21923664e-02 5.88020217e-03 4.74737911e-03 -1.33487885e-03
      -1.04301777e-02 -1.51244663e-02 -4.40477720e-03 1.51968421e-02
      2.20923196e-03 7.99958143e-05 1.20817740e-02 -9.10804328e-03
      -1.14542050e-02 -1.65424459e-02 -2.97735445e-02 -2.53232778e-03
      -2.24438477e-02 9.43414122e-03 3.05145606e-02 2.22397316e-02
      1.10990051e-02 -1.25016095e-02 -2.06268672e-02 -3.35221328e-02
      -1.12108300e-02 -3.80918384e-02 3.16779390e-02 5.44705875e-02
      3.78025845e-02 -9.51937772e-03 -1.68762207e-02 -1.50695657e-02
      -2.19736490e-02 -9.44570731e-03 -3.38380947e-03 6.76617608e-04
      5.47666140e-02 1.58020221e-02 4.72841738e-03 -7.13003939e-03
      -8.47564731e-03 -3.72994654e-02 -1.95008926e-02 -2.13753544e-02
      2.08016466e-02 2.96706483e-02 1.38614252e-02 1.16510252e-02
      -5.85971912e-03 -5.71730826e-03 -2.70083640e-03 -1.20293964e-02
      -3.44200954e-02 2.89316569e-02 3.47480737e-02 -1.73933785e-02
      -5.10161743e-03 -9.54763032e-03 -1.02810767e-02 7.43727433e-03
      -2.77062599e-03 -1.72503460e-02 2.39898711e-02 4.44294214e-02
      9.32022091e-03 1.28447535e-02 -7.00767059e-03 -5.56869898e-03
      -5.86766424e-03 -2.23811399e-02 -4.24382538e-02 2.97553260e-02
      2.49891188e-02 -3.57459486e-03 -2.36104173e-03 -1.59565713e-02
      -1.02469046e-02 7.28697050e-03 -5.77142090e-03 -1.35255326e-02
      5.11752404e-02 3.11302021e-02 -7.73020415e-03 -3.87405953e-03
      -1.16862524e-02 -1.09436382e-02 -2.31733965e-03 8.38910695e-03
      1.14083393e-02 3.43246013e-02 5.44528384e-03 -1.42524941e-02
      3.35307815e-03 -3.38475965e-03 -1.54757090e-02 -1.98160633e-02
      6.25911774e-03 2.36338843e-02 3.13916355e-02 1.62612777e-02
      -3.36968377e-02 -1.22940391e-02 -1.20697180e-02 -9.46103409e-03
      6.80404343e-03 2.16393415e-02 6.80337660e-03 1.03250723e-02
      -1.09133245e-02 -3.84967029e-02 -7.03309383e-03 -5.28147537e-03
      -1.60360672e-02 -1.73612812e-03 5.45582268e-03 1.91743951e-02
      5.50448485e-02 3.56557891e-02 2.64871027e-03 -3.92638147e-03
      -1.12856282e-02 -1.26312049e-02 -1.13141965e-02 5.25265420e-03
      2.06901040e-02 4.66558971e-02 2.69024335e-02 -1.00251744e-02
      -1.73481945e-02 -2.46135034e-02 -2.86748353e-02 -2.04059239e-02
      -1.66759677e-02 1.10083623e-02 3.67223322e-02 -5.72560309e-03
      -1.52132539e-02 2.03790376e-03 -1.34675158e-02 -8.49292241e-03
      -9.84217506e-04 -6.83400081e-03 1.37322992e-02 3.09612043e-02
      8.12525675e-03 -1.50373988e-02 -5.98787190e-03 -2.17758287e-02
      -1.22224782e-02 -2.10858369e-03 -3.36440019e-02 1.94736980e-02
      3.46128084e-02 -6.17788453e-03 -1.58053003e-02 -1.50164561e-02
      -1.46085192e-02 -2.17600893e-02 -1.39065227e-02 -5.70636941e-04
      2.37771738e-02 1.79055482e-02 -7.14002410e-04 2.10331799e-03
      -7.43352529e-03 -2.18676496e-02 -1.98298264e-02 5.39302547e-03
      1.89517438e-02 2.42420640e-02 4.94699664e-02 -1.39332209e-02
      -1.89259611e-02 -7.35109393e-03 -5.56352315e-03 -9.06898826e-03
      -1.34039368e-03 -1.42872147e-02 4.56009666e-03 3.52423452e-02
      9.66604240e-03 4.35871119e-03 -2.86286999e-03 -1.69563864e-03
      -4.08040965e-03 6.01386279e-03 2.64843198e-04 9.10281483e-03
      9.87945590e-04 -4.79218754e-04 -1.41874971e-02 -9.85983107e-03
      -6.56155823e-03 2.38015316e-03 1.10739255e-02 -8.83714389e-03
      -1.65836643e-02 5.08040190e-03 -1.70541778e-02 -7.35924172e-04
      1.92705020e-02 3.85441296e-02 3.09891044e-03 -1.98584739e-02
      -1.88859329e-02 -1.25444885e-02 1.14557175e-02 1.00456439e-02
      4.79580602e-03 -9.85037186e-04 1.37039386e-02 -1.18872123e-02
      -1.13739707e-02 -1.70970801e-02 -1.96585320e-02 2.69455719e-03
      8.17971490e-03 3.00959721e-02 1.40797552e-02 3.46445478e-02
      -9.47532523e-03 -3.71801034e-02 -1.39316004e-02 -1.02891363e-02
      -1.01292105e-02 -2.11086329e-02 -6.90373417e-04 9.50315595e-03
      5.85956611e-02 -5.36729163e-03 -3.06078140e-02 -5.21768909e-03
      -1.51746990e-02 -1.01623125e-02 -2.27136984e-02 -1.95225179e-02
      9.32120625e-03 5.95347025e-02 1.08476616e-02 -1.48717565e-02
      -3.05595389e-03 -6.17250241e-03 -1.86305661e-02 -2.88115945e-02
      -1.84131172e-02 -8.18558782e-03 6.55099377e-02 2.61516366e-02
      -2.85670869e-02 -1.37668597e-02 -1.18314475e-02 -1.51922216e-03
      -1.70814097e-02 -2.88667083e-02 -1.26089575e-02 5.34695573e-02
      3.39682661e-02 -3.14612351e-02 -1.94886215e-02 -1.48568507e-02
      -9.85620450e-03 -2.77069379e-02 -1.54515412e-02 3.25983390e-02
      2.62921546e-02 -2.16826657e-03 -1.26084071e-02 -4.81550256e-03
      -7.90575054e-03 -8.32055695e-03 -2.79670823e-02 -2.63821259e-02
      2.62931250e-02 4.51318771e-02 4.25134040e-02 2.06657071e-02
      -4.98476764e-03 1.30099701e-02 4.53861925e-04 3.72132473e-03
      -2.00105775e-02 6.57686172e-03 2.30010059e-02 3.29225149e-04
      -3.05252299e-02 -2.26521641e-02 -2.84722056e-02 1.24090752e-02
      -3.93282715e-03 -2.44773980e-02 -1.19808344e-02 2.17818748e-02
      3.36762518e-02 2.22614463e-02 6.20621629e-03 3.72062554e-03
      7.21687963e-03 1.23745557e-02 -1.56835187e-02 -1.08244857e-02
      4.98839607e-03 1.54076451e-02 1.56663172e-02 6.02763332e-03
      2.17531086e-03 3.47519815e-02 5.27189337e-02 1.23718437e-02
      -4.74417256e-03 -1.25087230e-02 -1.20157721e-02 -1.05070928e-03
      5.36596822e-03 -1.54223444e-03 1.31956311e-02 4.27920511e-03
      -7.93782435e-03 -2.73886994e-02 -6.02871133e-03 1.74769666e-02
      2.12908834e-02 3.46548180e-03 1.57540999e-02 -3.69017920e-03
      3.23931612e-02 8.54692701e-03 -8.61209538e-03 -9.44815762e-03
      -1.05790216e-02 3.90965771e-03 1.71226710e-02 -1.58094373e-02
      4.11351174e-02 7.09676966e-02 4.14010920e-02 1.20588124e-03
      -5.23796212e-03 -9.64654237e-03 -1.08826412e-02 -1.13859784e-03
      -9.42123879e-04 1.11818686e-02 4.56520803e-02 2.82709710e-02
      8.17468949e-03 -2.67909840e-03 -5.42216760e-04 -1.32418703e-02
      -1.27107836e-02 -2.56485995e-02 2.21907976e-03 2.75922511e-02
      2.73839850e-02 5.30867511e-03 -2.87233666e-03 -5.75041538e-03
      -6.34637522e-03 -7.92189687e-03 -2.45827455e-02 -1.09596970e-02
      1.31845456e-02 1.97469797e-02 1.05095850e-02 1.82482344e-03
      -4.48191864e-03 -7.90825859e-03 -1.02925980e-02 -3.49882431e-02
      4.09890041e-02 5.56918308e-02 3.57964337e-02 1.71428677e-02
      -5.47220279e-03 -2.49535055e-03 -1.40162033e-03 -3.87365464e-03
      -1.92194041e-02 3.66495326e-02 3.00001316e-02 1.93754453e-02
      6.93958206e-03 -1.22360783e-02 -9.18172207e-03 4.57681390e-03
      1.00903064e-02 -3.34684458e-03 8.30876175e-03 1.21219158e-02
      8.18859227e-03 1.27420928e-02 -1.10964989e-03 -4.93950490e-03
      -3.80527624e-03 9.27626342e-03 -2.93909516e-02 2.73025297e-02
      8.65946244e-03 -1.24589140e-02 -9.84173617e-04 -1.45921726e-02
      -5.10567985e-03 -2.28739483e-03 1.29065923e-02 -8.34900513e-03
      2.62550134e-02 3.59930797e-03 -1.92196220e-02 -2.00840621e-03
      -1.26121996e-03 -1.08085398e-03 7.66305625e-03 1.82102695e-02
      2.88841873e-03 2.56375782e-02 -1.17252273e-02 -2.04799529e-02
      -3.49955820e-03 2.55260529e-04 -1.99066009e-03 6.96321856e-03
      1.08156595e-02 1.34252235e-02 4.04096618e-02 2.51655076e-02
      -2.01458372e-02 -9.61480290e-03 -8.86727066e-04 -5.14296757e-04
      4.94480086e-03 1.19353635e-02 -5.15041233e-04 4.76643220e-02
      2.47068666e-02 1.04953134e-02 -1.05525497e-02 1.38630986e-03
      -3.06324218e-04 -3.79184028e-03 5.24573075e-03 1.49536058e-02
      1.60791092e-02 -1.81332696e-02 -1.61978677e-02 1.65040698e-03
      -5.75954793e-03 -3.44146555e-03 -3.41767707e-04 -1.32603021e-02
      -5.21216716e-04 3.41868140e-02 9.32431687e-03 -3.51496087e-03
      2.74046767e-03 -7.32398545e-03 -1.76382763e-03 -7.34083541e-03
      -2.89818272e-02 2.58570351e-03 4.14192602e-02 1.48759233e-02
      -1.07094431e-02 1.08642038e-03 -1.01811474e-03 -1.33628966e-02
      -8.85494612e-03 -1.41630163e-02 1.62597001e-02 3.68587226e-02
      2.08471864e-02 1.63766630e-02 2.56032986e-03 -7.98181165e-03
      -1.08807990e-02 -3.44528025e-03 -1.94233730e-02 1.46172512e-02
      3.37738879e-02 -6.32971292e-03 -1.97341423e-02 -6.81654178e-03
      -3.51314223e-03 -1.28433271e-03 -9.14592016e-03 -1.62756164e-02
      -1.05707683e-02 4.15016785e-02 6.55177655e-03 -3.26040993e-03
      -1.04430579e-02 -4.97541274e-04 -4.39979089e-03 -1.39576551e-02
      -1.86850075e-02 -9.95006599e-03 4.54658382e-02 4.18367684e-02
      6.70912303e-03 2.36165314e-03 -1.01756826e-02 -6.22664229e-04
      -2.33783759e-02 -2.22373195e-02 -1.97821241e-02 4.00405154e-02
      4.76860479e-02 3.15929786e-03 7.20157335e-03 -1.21516606e-03
      -5.94674377e-03 -2.99459007e-02 -4.27282564e-02 -1.05220787e-02
      3.21069583e-02 1.88346058e-02 1.25214355e-02 6.81195920e-03
      1.20622758e-02 -9.26046260e-03 -1.55140916e-02 -1.67421158e-02
      -1.19261341e-02 1.24255288e-02 2.05899943e-02 3.07833105e-02
      1.15629863e-02 1.16960453e-02 -2.02974789e-02 -3.17929722e-02
      -2.01934460e-03 -1.11356210e-02 1.23321982e-02 1.59526095e-02
      -9.51242261e-03 1.95070077e-02 4.27458761e-03 -4.71390551e-03
      -1.90868899e-02 -2.50694025e-02 4.24239924e-03 -1.10044628e-02
      1.45788779e-02 4.53996152e-04 -2.70556286e-03 -1.08798761e-02
      -1.53328050e-02 2.49878690e-03 -1.07011516e-02 -1.77462418e-02
      -1.37397712e-02 -2.21411567e-02 -9.25780088e-03 1.23946574e-02
      4.89682965e-02 3.39861140e-02 -3.30274776e-02 -1.59728918e-02
      -9.46452562e-03 -2.29720119e-02 -6.44383021e-03 -1.39982821e-02
      3.53015750e-03 3.68693061e-02 4.27884459e-02 -3.35894227e-02
      -2.25501657e-02 -8.61368980e-03 -8.74590222e-03 -2.13201549e-02
      -1.19558619e-02 2.68494617e-02 3.62117887e-02 2.48899907e-02
      -1.13708507e-02 -1.59536917e-02 -1.53252054e-02 -3.83437797e-02
      -3.80340964e-02 -2.01677438e-02 3.33121754e-02 2.50486359e-02
      3.97392884e-02 -3.86264262e-04 -1.68368276e-02 -4.19293204e-03
      -3.31253582e-03 1.77576356e-02 1.20953731e-02 1.48237152e-02
      2.60360949e-02 6.16980577e-03 -3.17444131e-02 -1.64164733e-02
      -1.31647037e-02 2.07680725e-02 1.00297555e-02 1.17251547e-02
      -1.45371575e-02 1.83715113e-02 1.88063867e-02 -2.69866129e-03
      -7.15601584e-03 1.67914946e-02 -1.62693486e-03 -1.10466247e-02
      1.84871908e-02 1.40567068e-02 1.04683749e-02 1.16983848e-02
      -1.24760810e-02 -1.54438950e-02 1.96746271e-02 2.24540569e-02
      1.92835163e-02 2.60044038e-02 -3.01514193e-03 7.04520196e-03
      -3.52227315e-03 -1.43749034e-02 -2.53358036e-02 1.39576178e-02
      4.65598628e-02 2.32366398e-02 5.26057463e-03 -8.28648731e-03
      2.96500453e-04 1.93973389e-02 1.38539607e-02 -8.10046028e-03
      2.11306885e-02 2.84111723e-02 1.94999557e-02 8.72394908e-03
      -3.32354801e-03 -4.11194749e-03 1.64456945e-03 1.75796412e-02
      1.58858169e-02 1.45251779e-02 2.94424966e-02 4.28281585e-03
      -8.88665672e-03 -3.97544727e-03 1.83783413e-03 -4.27810010e-03
      5.15788328e-03 -2.21814904e-02 -1.54397078e-03 1.72471125e-02
      2.23059095e-02 6.45322492e-04 -1.72793085e-03 -6.94614660e-04
      5.48447063e-03 1.93419121e-02 4.34429414e-04 2.11172178e-02
      1.56306308e-02 1.03881508e-02 1.27075398e-02 1.09676346e-02
      3.73649382e-04 -8.31983401e-04 2.64193839e-03 -6.94460832e-05
      -9.98764019e-03 1.00110238e-02 -6.64305780e-03 1.40060931e-02
      1.06823118e-02 4.93647531e-03 -1.63265038e-03 -2.50272010e-03
      4.84084152e-03 -2.33909255e-03 4.18391675e-02 1.27587384e-02
      6.43773796e-03 5.06332237e-03 2.88769195e-04 7.01436715e-04
      7.54095963e-04 1.44013846e-02 5.80911757e-03 1.18899494e-02
      4.19318862e-02 4.81044687e-03 4.28594602e-03 -2.25958438e-03
      -4.44457866e-03 -1.91571959e-03 2.52285134e-02 1.65524185e-02
      -4.94067091e-03 -2.64604669e-02 3.90240643e-03 2.92972196e-03
      -2.38225516e-03 -3.16061941e-03 -5.68758557e-03 4.31509875e-03
      -2.30958369e-02 3.59447524e-02 1.32620502e-02 -8.06999669e-05
      -1.12974392e-02 -1.07977949e-02 -2.08542333e-03 -7.65013089e-03
      2.91403849e-03 -1.35152563e-02 2.99729090e-02 5.22892959e-02
      1.87605340e-02 -5.08850301e-03 -1.00771170e-02 -5.05248178e-03
      -7.80857028e-03 -1.98189612e-03 -3.97261977e-03 4.12953459e-02
      4.42133769e-02 1.03731593e-02 -9.37647559e-03 -8.10551737e-03
      -2.30421592e-03 -2.48984620e-02 -1.44107444e-02 -5.79935405e-03
      2.46203225e-02 2.30811462e-02 -1.48658743e-02 -1.30311912e-02
      -2.83875997e-04 3.81179075e-06 -3.60411708e-03 -9.58832074e-03
      -6.48866314e-03 4.15754654e-02 2.65482105e-02 -8.16299394e-03
      -1.51078906e-02 1.70083449e-03 -2.61786650e-03 -1.35575961e-02
      -3.07342806e-03 4.61288262e-03 4.81028408e-02 3.98649648e-02
      -5.40553778e-03 -1.15420735e-02 4.03710688e-03 7.24954123e-04
      -2.87531875e-02 -2.26281919e-02 2.11911108e-02 3.07815392e-02
      3.45178731e-02 -1.62982251e-02 -1.11372042e-02 1.09729161e-02
      -5.28258132e-03 -3.10783908e-02 -1.36224488e-02 1.87042318e-02
      3.73370685e-02 1.92528591e-02 -4.00259020e-03 -3.13527416e-03
      9.18641163e-05 -1.14232963e-02 -4.54917597e-03 -6.21277839e-03
      1.12692583e-02 3.48810926e-02 3.31922546e-02 4.62012785e-03
      -4.81107883e-04 -1.06825260e-02 -3.82893346e-03 7.08629703e-03
      -1.37172760e-02 2.04405864e-03 2.44237570e-04 3.51084070e-03
      5.95563790e-03 -2.04700115e-03 1.00964960e-02 -5.85523318e-04
      -9.36565455e-03 -1.81065802e-03 -8.21846828e-04 2.34396337e-03
      3.25893797e-03 7.74480542e-03 1.09679857e-02 7.29362015e-03
      1.03828181e-02 -1.92868290e-03 -1.86537653e-02 -2.13578623e-02
      4.74619418e-02 3.62606794e-02 1.34532796e-02 8.82079080e-03
      -1.06669702e-02 2.43061502e-03 -5.65599743e-03 -1.47973411e-02
      -9.03810188e-03 3.39599736e-02 2.87607200e-02 1.04592694e-02
      1.58191808e-02 9.26719280e-04 -2.30481921e-04 -1.47922793e-02
      -2.12967377e-02 2.40216288e-03 1.79882050e-02 1.99553147e-02
      1.20329135e-03 2.27551833e-02 4.90113627e-03 9.67398565e-03
      -2.93278228e-02 -1.36509975e-02 -2.09074207e-02 2.84637306e-02
      1.58378854e-02 -3.05917463e-03 1.78673526e-03 -2.13020365e-03
      5.95484953e-03 -1.48501135e-02 -1.07923523e-02 -1.08576918e-04
      1.23883812e-02 1.29792038e-02 3.48536228e-03 1.62097011e-02
      1.24193896e-02 5.62629662e-03 -1.62310933e-03 -5.12327999e-03
      8.21885467e-03 -5.32825012e-03 1.54723218e-02 4.32598870e-03
      3.37008678e-04 -1.22330645e-02 1.78566035e-02 2.09838655e-02
      5.20082796e-03 5.46825991e-04 9.09773633e-03 5.08468645e-03
      -1.03796115e-02 -1.08011952e-02 1.65346917e-02 1.51910009e-02
      -8.33002094e-04 1.89611001e-03 -1.28771057e-02 -9.37528908e-03
      -7.00969202e-03 -1.83850862e-02 -1.11034941e-02 1.15507822e-02
      2.34663785e-02 2.92742308e-02 1.22899916e-02 -1.45848831e-02
      -1.24199018e-02 -1.18450122e-02 -3.43151879e-03 2.04108506e-02
      2.82571819e-02 2.67630666e-02 -2.01265048e-03 -1.09805213e-02
      -9.18701570e-03 -1.17089516e-02 -3.15245651e-02 -3.21282856e-02
      2.37672292e-02 2.22527664e-02 4.03261147e-02 5.44914836e-03
      -4.18896973e-03 2.26640794e-02 -7.70064443e-03 -2.71029938e-02
      -2.53611486e-02 1.43924812e-02 1.48146423e-02 2.33433079e-02
      1.86701268e-02 1.20086614e-02 -2.24750163e-03 3.16417366e-02
      -4.17869091e-02 -4.09206487e-02 8.67599156e-03 1.89228803e-02
      2.03350186e-02 1.98792107e-02 2.46268343e-02 5.18797264e-02
      1.97549928e-02 -8.81678611e-03 -2.47063627e-03 2.93616019e-03
      1.23391743e-04 4.84282291e-03 -1.30269285e-02 -1.32147297e-02
      2.81942524e-02 4.16252166e-02 -2.27763224e-03 7.29332445e-03
      -1.90392463e-03 -6.90611685e-03 -1.19440928e-02 -1.86774787e-02
      -3.38753685e-02 1.51800783e-02 5.14225923e-02 -6.90534897e-03
      -2.42700186e-02 -1.07199363e-02 -1.80168694e-03 5.37262298e-03
      -1.51904421e-02 1.04190744e-02 6.55752420e-02 5.16934618e-02
      2.11101808e-02 -4.29999549e-03 -1.40325548e-02 -2.11815070e-02
      -1.91885047e-03 -2.03276780e-02 -9.41763259e-03 2.29585990e-02
      3.58244069e-02 3.55912698e-03 2.71083042e-03 3.71131464e-03
      -2.74676085e-03 -3.59978480e-03 -2.99361930e-03 -2.22333726e-02
      -7.65208667e-03 4.56146747e-02 3.82674150e-02 3.39033734e-03
      1.41751580e-03 -5.25131123e-03 -3.15951230e-03 -7.66571786e-04
      -2.08232421e-02 -2.87266681e-03 6.38649613e-02 4.33504432e-02
      4.46127821e-03 2.56182067e-03 -1.15370965e-02 -1.24155602e-03
      -3.62601085e-03 -1.78811178e-02 -3.28670889e-02 5.57954833e-02
      6.14755861e-02 1.14693837e-02 -3.77791002e-03 -7.46796560e-03
      -8.38525314e-03 -5.28677041e-03 -8.01101699e-03 -2.05577314e-02
      5.44289164e-02 1.99179370e-02 -3.28342966e-03 -3.18047637e-03
      -1.80444226e-03 -2.08610599e-03 -7.20523065e-03 7.09271431e-03
      8.40938371e-03 3.11309639e-02 2.92536635e-02 -7.37857260e-03
      -6.87213195e-03 -8.75464082e-03 -9.97106545e-03 -4.80470574e-03
      2.32913736e-02 1.18809957e-02 1.75801367e-02 3.94030176e-02
      -2.47868849e-03 -1.31952646e-03 -7.85524084e-04 -3.97059368e-03
      -1.46256143e-03 1.04060695e-02 -3.07039600e-02 1.32533815e-02
      2.87493207e-02 -1.40628433e-02 -1.01533299e-02 -1.63291115e-04
      -2.53742142e-03 3.38101201e-03 2.21691877e-02 -2.13309075e-03
      3.92252319e-02 4.95894961e-02 1.48238419e-02 -5.19814715e-03
      -7.39034126e-03 -3.74437100e-03 -4.93369251e-03 7.17600761e-03
      2.42089406e-02 3.69389057e-02 2.36203130e-02 5.60585503e-03
      9.39061749e-04 -3.13344318e-03 4.88475244e-03 -1.60693433e-02
      -6.23858161e-03 -1.04668960e-02 6.68413797e-03 2.25640684e-02
      3.38034984e-03 -2.71538319e-03 -8.83447099e-03 -1.15115009e-03
      7.44910818e-03 3.46852769e-03 -1.59626435e-02 -1.19872838e-02
      9.04958975e-03 -1.37575145e-03 4.60138917e-03 -5.99534763e-03
      8.07145704e-03 -4.19031968e-03 -9.54316184e-03 -3.07024512e-02
      6.26283959e-02 4.00087647e-02 1.60381440e-02 6.56120572e-03
      6.57217810e-03 4.64189565e-03 -2.15880796e-02 -1.13130407e-02
      2.51016878e-02 3.81921902e-02 2.19560396e-02 1.18077053e-02
      7.87154865e-03 4.23608813e-03 -7.59163778e-03 -2.61311606e-02
      -1.00739836e-03 1.44841131e-02 1.94555521e-02 -1.43584674e-02
      -4.30795830e-03 8.01468827e-03 1.37884142e-02 1.92270253e-03
      -1.06971180e-02 -1.27173960e-02 -1.82407703e-02 1.61995683e-02
      -8.17369204e-03 -8.95972084e-03 1.36957373e-02 -3.54272284e-04
      -1.13384770e-02 -1.11351060e-02 -7.69584207e-04 -4.48203646e-03
      2.86413245e-02 8.43339716e-04 1.59085132e-02 7.56012043e-03
      7.71154510e-03 3.15052783e-03 -2.85447598e-03 9.63346288e-03
      1.63650736e-02 7.95919728e-03 8.72598030e-03 1.14973374e-02
      1.37209082e-02 1.11634852e-02 1.79365203e-02 3.84997413e-03
      -1.15189990e-02 1.56037626e-03 7.46181887e-03 -1.67344548e-02
      -1.28486827e-02 1.21088270e-02 3.93686397e-03 3.63115477e-03
      -6.52283023e-04 1.86774638e-02 -7.39039714e-03 -5.92189666e-04
      1.51140185e-03 4.09382535e-03 -3.45208729e-03 9.68558062e-03
      8.29681288e-03 -6.38793642e-03 1.05225609e-03 4.52503649e-04
      3.73660102e-02 2.04151403e-02 4.52565541e-03 1.50163453e-02
      3.12080514e-03 1.47896423e-03 -2.32707895e-02 -9.25695058e-03
      1.79429594e-02 3.69849689e-02 2.32601091e-02 1.64053912e-04
      8.78328737e-03 1.58361793e-02 7.71007920e-03 -6.65456580e-04
      1.33407312e-02 2.63504218e-02 5.79680735e-03 8.53956584e-03
      7.18972005e-04 -4.60926769e-03 -1.48280850e-03 -1.62194241e-02
      -2.06232606e-03 -2.48602312e-03 7.27753900e-03 -2.35530385e-03
      -2.23941077e-03 -3.78234638e-03 1.38505930e-02 1.60146281e-02
      6.55291602e-03 -1.12958048e-02 8.35319515e-03 1.07678631e-02
      1.88872591e-02 8.43859650e-03 2.05256650e-03 2.33517541e-03
      2.72270781e-03 1.27119245e-02 -4.83429292e-04 9.18012671e-03
      1.21904304e-02 -1.09499432e-02 -1.00209666e-02 -6.91459933e-03
      1.29321543e-02 2.15782374e-02 2.20259950e-02 2.28115860e-02
      1.86259467e-02 2.38297810e-03 -1.20764300e-02 -8.93075299e-03
      8.51625809e-04 2.62388755e-02 3.57697927e-03 -3.23961070e-03
      -6.45615673e-03 1.94342376e-03 3.04006948e-03 -1.62829086e-02
      -2.67943125e-02 1.08073652e-02 4.40693870e-02 3.22448872e-02
      7.22549623e-03 -1.68740691e-04 7.59831117e-03 -1.52694492e-03
      1.09865936e-03 -4.34208801e-03 -6.73940592e-03 1.30218845e-02
      4.62734466e-03 1.56059954e-02 5.06072491e-03 2.22287253e-02
      7.92060699e-03 5.00547774e-02 -1.50184538e-02 -2.15152409e-02
      1.00949910e-02 9.74812824e-03 1.28365289e-02 -1.94495264e-03
      2.54784320e-02 5.26788384e-02 1.19691156e-02 3.68318148e-03
      -6.72732852e-03 4.94651310e-03 -6.66877115e-03 -1.97476242e-03
      -2.45806854e-03 3.37648089e-03 1.46409282e-02 4.52144705e-02
      -7.57537549e-03 -8.06070399e-03 3.57887731e-03 -9.61234141e-03
      2.21158797e-03 -1.91446953e-02 -8.53963848e-03 3.46536525e-02
      4.40152064e-02 1.17983473e-02 -1.16086723e-02 -3.89235374e-03
      -9.34767630e-03 7.33698835e-04 -1.02719357e-02 -5.26496954e-03
      4.43995073e-02 3.97740342e-02 2.69058589e-02 1.34162316e-02
      -1.90787402e-03 -1.93492267e-02 3.06610693e-03 -6.30410900e-03
      -8.26513954e-03 5.25195105e-03 2.60570738e-02 -4.97191038e-04
      -1.14441104e-02 1.00024203e-02 -8.00934061e-03 -3.61921196e-03
      -5.48823911e-04 -1.41124949e-02 1.54365385e-02 -3.67609871e-04
      9.96720418e-03 1.24699948e-02 5.03866607e-03 2.02103220e-02
      2.78919586e-03 8.43862351e-03 -9.92428325e-03 -1.99066550e-02
      5.25936186e-02 5.50178848e-02 9.40260757e-03 9.23932821e-04
      -6.93818973e-03 2.90662330e-03 2.53302185e-03 -1.06892362e-02
      -1.67156626e-02 4.22737487e-02 6.96119592e-02 1.00732613e-02
      -6.77702809e-03 1.23067969e-03 7.70402956e-04 2.47830874e-04
      5.91810001e-03 -1.20106600e-02 1.65683741e-03 2.17805505e-02
      3.52880801e-03 7.63059594e-04 1.44171687e-02 9.54339933e-03
      7.29883462e-03 -9.24113579e-03 -1.23164654e-02 6.18313439e-03
      2.09391639e-02 -1.55771319e-02 -8.19479208e-03 1.06293592e-03
      1.72845442e-02 5.34588564e-03 1.05829434e-02 -1.07741738e-02
      1.17112258e-02 4.78608534e-02 -3.06656957e-03 -5.36745589e-04
      5.28313499e-03 2.32538045e-03 8.25824495e-03 1.47499833e-02
      -2.00934540e-02 2.03919690e-02 3.43160406e-02 -3.06547061e-03
      5.91210555e-03 4.11874941e-03 1.19445268e-02 2.12643277e-02
      2.74171252e-02 3.05764098e-03 -3.75748635e-03 1.86818074e-02
      -4.74245613e-03 -5.14555350e-03 3.28574190e-03 7.99888652e-03
      1.07246647e-02 1.00453505e-02 -1.85469296e-02 -2.17364952e-02
      5.46279270e-03 -8.76005460e-03 -2.40465684e-04 -7.08931882e-04
      9.06430371e-03 3.19792740e-02 2.11532619e-02 -2.05976553e-02
      1.72154736e-02 3.04993968e-02 1.46044502e-02 1.19923307e-02
      2.80069117e-03 6.59810379e-03 9.73579101e-03 5.82267204e-03
      6.22335216e-03 6.74898922e-03 2.28273999e-02 8.67855549e-03
      1.02319326e-02 8.55157524e-03 8.59932974e-03 1.36270756e-02
      -1.02873112e-03 3.17360112e-03 -6.98520755e-03 6.47997670e-03
      1.29031861e-04 1.46554029e-02 2.35453504e-03 3.87044763e-03
      4.78885975e-03 9.08233970e-03 -5.52096078e-03 -7.40978727e-03
      -6.21492742e-03 7.92202353e-03 5.33822924e-03 -9.41741746e-03
      -5.68511430e-04 1.69577505e-02 5.71783306e-03 -5.40356059e-03
      2.08747294e-02 -9.17856768e-03 -1.37175992e-03 9.31440759e-03
      2.03229859e-02 1.22911418e-02 1.00348303e-02 -5.46452915e-03
      -7.51225138e-03 3.06392591e-02 3.37447459e-03 -6.36628410e-03
      2.01825406e-02 1.79430861e-02 1.38315959e-02 1.17723448e-02
      5.19699696e-03 1.07476693e-02 -4.06963332e-03 -1.73102804e-02
      -2.56805052e-03 6.71581831e-03 2.55307630e-02 2.07797736e-02
      9.58986115e-03 -1.30793871e-02 -1.28163258e-02 1.82938520e-02
      -1.01938844e-04 -1.21582067e-02 1.69074722e-02 2.69091856e-02
      2.59868894e-02 2.12761317e-03 -8.47732835e-03 -1.48143042e-02
      9.44047049e-03 -1.83827598e-02 -2.10281573e-02 9.39579029e-03
      6.99616317e-03 8.52449983e-03 4.12361231e-03 7.25486595e-03
      1.86966802e-03 1.43426163e-02 1.18606510e-02 -1.11963321e-02
      -6.29682187e-03 -1.34490069e-03 5.64733893e-03 -2.59231834e-04
      1.63727417e-03 6.82763895e-03 2.54317690e-02 -5.22394432e-03
      -2.12489478e-02 4.52871202e-03 2.60478202e-02 9.99309123e-03
      1.47277419e-03 -1.27829537e-02 -3.76054994e-03 2.67997161e-02
      1.74661949e-02 -9.99308005e-03 -6.53848145e-03 3.04828659e-02
      5.39791910e-03 6.93090586e-03 -8.48900434e-03 5.93384542e-03
      8.00397806e-03 5.89388330e-03 1.02566264e-03 -5.03997644e-03
      -1.03523815e-02 -6.19146600e-03 5.70208253e-03 8.01265985e-03
      1.57070085e-02 1.10546853e-02 -2.69082026e-03 -7.61688163e-04
      1.65541284e-02 7.09267054e-03 -2.89735012e-03 -2.51642428e-03
      2.06025434e-03 1.60443261e-02 4.36465479e-02 1.26033081e-02
      -2.42092856e-03 -2.17163656e-03 1.85226614e-03 -2.54981127e-03
      9.29081906e-03 4.38620988e-03 2.82897037e-02 2.33969353e-02
      -8.78271461e-03 -1.57035198e-02 6.27736747e-03 9.47533641e-03
      -2.53409171e-03 8.73349328e-03 1.33459400e-02 2.99554076e-02
      -4.27551195e-03 -3.83132393e-03 9.26624145e-03 1.97745021e-02
      -9.15134978e-03 -1.09275421e-02 1.66072592e-03 -4.62373253e-04
      2.40050000e-03 -1.16447695e-02 -5.65919932e-03 3.15126665e-02
      4.46617119e-02 6.85958844e-03 1.58399274e-03 4.77855028e-05
      1.13979345e-02 -6.51993603e-03 4.20218892e-03 -9.82963759e-03
      5.87988505e-03 9.45640448e-03 1.35584213e-02 -1.65575230e-03
      1.15615940e-02 8.74383561e-03 5.74594333e-06 -8.04646686e-03
      -9.82591533e-04 2.76486985e-02 1.97797287e-02 1.93961859e-02
      -7.46122387e-04 1.28379846e-02 6.62834384e-03 -1.21571217e-02</_></support_vectors>
  <decision_functions>
    <_>
      <sv_count>1</sv_count>
      <rho>2.4060390408624346e+00</rho>
      <alpha>
        1.</alpha>
      <index>
        0</index></_></decision_functions></my_svm>
</opencv_storage>
