<?xml version="1.0"?>
<opencv_storage>
<my_svm type_id="opencv-ml-svm">
  <svm_type>C_SVC</svm_type>
  <kernel><type>LINEAR</type></kernel>
  <C>1.0000000000000001e-01</C>
  <term_criteria><epsilon>1.1920928955078125e-07</epsilon>
    <iterations>1000</iterations></term_criteria>
  <var_all>2916</var_all>
  <var_count>2916</var_count>
  <class_count>2</class_count>
  <class_labels type_id="opencv-matrix">
    <rows>1</rows>
    <cols>2</cols>
    <dt>i</dt>
    <data>
      1 2</data></class_labels>
  <sv_total>1</sv_total>
  <support_vectors>
    <_>
      1.40937846e-02 7.66579621e-03 8.05614237e-03 -3.54177947e-03
      -6.00796677e-02 -1.10519668e-02 6.97099604e-04 5.94192185e-03
      5.34127885e-03 5.67035340e-02 3.59604694e-02 4.22786288e-02
      -7.07886741e-03 -6.52350709e-02 -3.18443254e-02 -4.65370202e-03
      1.83396600e-02 2.20912527e-02 1.64314993e-02 2.37305239e-02
      3.22924368e-02 1.62693430e-02 -3.17899361e-02 -1.11310156e-02
      4.44009638e-04 8.38250853e-03 -2.42663245e-03 4.06576395e-02
      6.17501475e-02 6.51573986e-02 2.76308414e-02 -4.22954112e-02
      -5.32085225e-02 -3.64661193e-03 1.28175644e-02 1.34967361e-02
      3.31912749e-02 2.01225933e-03 -4.02784499e-04 -1.87950935e-02
      -5.22197075e-02 -2.15906482e-02 -1.75006082e-03 3.97069752e-02
      3.09822075e-02 1.68308355e-02 -1.62354019e-02 -2.25351676e-02
      -2.49546710e-02 -6.08370453e-02 -3.19550857e-02 2.03734054e-03
      5.08219041e-02 3.07394881e-02 3.79392952e-02 1.57762673e-02
      1.76533200e-02 -1.36420717e-02 -4.56455722e-02 -2.95092668e-02
      2.07740683e-02 3.98456007e-02 3.67582999e-02 -5.40590705e-03
      -2.99601387e-02 -3.39696258e-02 -2.28260811e-02 -3.52626257e-02
      2.51176488e-03 4.41978760e-02 5.11666127e-02 1.72820613e-02
      -2.80687143e-03 -7.59841129e-03 -2.28422717e-03 -3.84329149e-04
      -5.90578141e-03 -1.51796523e-03 1.59261059e-02 2.54431255e-02
      3.97440093e-03 -1.22385100e-02 -4.70209075e-03 -8.51199776e-03
      -1.18859364e-02 -1.85105968e-02 -1.38984481e-02 -3.66965053e-03
      4.21010563e-03 -1.72199972e-03 -3.32413651e-02 -3.67236808e-02
      -5.20326785e-06 2.82377899e-02 2.79731173e-02 3.36959176e-02
      5.72740287e-02 4.97532189e-02 -1.38237805e-03 1.46757939e-03
      -1.11959002e-03 1.75925083e-02 1.76522247e-02 3.42298038e-02
      -9.11081396e-03 9.93576925e-03 5.31539228e-03 -8.96913558e-03
      -5.61839552e-04 1.79471225e-02 9.13577713e-03 -1.22251352e-02
      -3.44948918e-02 -7.21864263e-03 -4.86785732e-03 2.20397883e-03
      9.23273247e-03 -3.99544835e-03 2.17710603e-02 1.42893922e-02
      4.82305826e-04 2.05677608e-03 3.90383153e-04 -1.72986870e-03
      -2.29028668e-02 -6.29222160e-03 2.69650924e-03 3.29886936e-02
      1.74836796e-02 -4.72791912e-03 -1.83045689e-03 -9.70554259e-03
      -8.86517204e-03 9.12760105e-03 9.25731100e-03 1.61926858e-02
      4.22734022e-02 2.49878597e-02 5.59261115e-03 1.71899311e-02
      -1.53239509e-02 -1.55322114e-02 -3.82093969e-03 1.96605977e-02
      -8.39222397e-04 9.19416663e-04 3.42721958e-03 -5.24743693e-04
      2.35629594e-03 -1.53690642e-02 -5.89024927e-03 -7.71672791e-03
      -5.78035181e-03 -1.18250092e-02 3.63119412e-03 1.11311758e-02
      4.76668216e-03 9.69043060e-04 -1.00994846e-02 8.86289589e-03
      3.01709818e-03 -1.31770456e-02 1.00217117e-02 5.37647633e-04
      -4.31869505e-03 -1.65990256e-02 8.47954862e-03 -2.10601836e-02
      6.65036030e-04 -7.13640498e-03 -6.01369793e-05 -1.75537206e-02
      -1.98928770e-02 -6.17617276e-03 3.86795029e-03 1.07045826e-02
      -6.11431722e-04 1.81795750e-02 2.67155170e-02 -3.54282814e-03
      -1.97020713e-02 7.93596916e-03 7.30863074e-03 8.49081948e-03
      4.00255015e-03 1.13932518e-02 8.64020269e-03 1.58557179e-03
      -1.23340394e-02 1.20377596e-02 -4.63636068e-04 -7.55222142e-03
      -5.81999216e-03 -1.44452713e-02 -1.60721561e-03 -1.11178756e-02
      9.18426365e-03 1.46650579e-02 5.00331400e-04 1.30069500e-03
      -2.21908535e-03 6.42194180e-03 7.70798652e-03 2.37038247e-02
      1.77174080e-02 -9.18987207e-03 3.45098833e-03 3.65522541e-02
      8.17227084e-03 -4.18371009e-03 -7.17387907e-03 -1.03443777e-02
      1.11164572e-02 -2.49914285e-02 -3.69692110e-02 3.08642909e-03
      4.83740726e-03 2.21754401e-03 -1.24697865e-03 -9.01600625e-03
      -2.33196039e-02 -5.33916696e-04 -1.17583629e-02 9.70857684e-03
      5.38325915e-03 -1.55036598e-02 2.09941659e-02 1.48830824e-02
      -1.53348073e-02 -1.38746910e-02 3.54485889e-03 -1.12955701e-02
      3.46799684e-03 -1.28862110e-03 -7.85841420e-03 2.24163942e-02
      1.47810271e-02 -8.44016857e-03 -1.60706677e-02 4.49543208e-04
      -6.18312694e-03 4.28524055e-03 -7.60572497e-03 -2.08234955e-02
      1.80886332e-02 4.66491980e-03 -1.89962853e-02 -7.64615973e-03
      1.63449794e-02 1.10256076e-02 2.88431067e-02 -2.96025909e-02
      6.05151895e-03 1.84278097e-02 1.52861942e-02 -8.50225054e-03
      1.23871015e-02 -1.11049190e-02 -1.20904390e-02 -1.96820218e-02
      -1.77308023e-02 -9.55770910e-03 1.28205251e-02 8.69901385e-03
      6.85205730e-03 2.48295572e-02 1.58729812e-03 -1.55533012e-02
      -1.96310245e-02 -1.92021579e-02 -1.01126777e-02 2.25070696e-02
      1.37579748e-02 -1.96248032e-02 5.33840293e-03 8.96621216e-03
      -8.69757030e-03 8.29667971e-03 -7.28306500e-03 -1.39693841e-02
      1.69123914e-02 2.94075571e-02 5.87295182e-03 8.66315141e-03
      1.69163700e-02 -1.12020746e-02 -1.66002642e-02 -1.70176271e-02
      -9.09672305e-03 -1.51323533e-04 -5.03015146e-03 1.25214513e-02
      2.01072022e-02 1.82742178e-02 -6.03366503e-03 -1.60734802e-02
      -1.41758919e-02 -3.79943498e-03 -3.61925410e-03 -6.01040572e-03
      1.47026917e-02 1.95267741e-02 2.76046619e-02 1.34065580e-02
      6.39901916e-03 -2.06848308e-02 -1.39114512e-02 8.71819630e-03
      -6.76867785e-03 -1.15139503e-03 3.09760508e-05 1.54602658e-02
      -8.49608239e-03 -1.04702488e-02 -1.59164630e-02 -1.14170453e-02
      -8.29714257e-03 -6.60176389e-03 -1.00405905e-02 6.70403894e-03
      1.14729945e-02 2.21435037e-02 1.93053819e-02 5.40382927e-04
      -5.51543245e-03 6.06438797e-03 8.40211101e-03 1.65209286e-02
      -3.07034813e-02 8.34601582e-04 -4.48029907e-03 -2.19606864e-03
      -9.81023535e-03 -7.93943880e-04 2.28292309e-02 5.71458451e-02
      4.37993370e-02 -3.51855978e-02 -2.79081948e-02 -1.06337452e-02
      1.06060761e-03 7.71633233e-04 -5.07585704e-03 -1.55566388e-03
      5.19443420e-04 2.60519385e-02 5.81280794e-03 3.44162099e-02
      4.25398396e-03 -9.69470851e-03 -8.64650868e-03 -1.03618046e-02
      -6.93736074e-04 3.76739018e-02 2.96432823e-02 1.69376228e-02
      7.47439871e-03 -3.07031837e-03 -1.51321394e-02 2.16388004e-03
      9.54135507e-03 7.77252438e-03 1.64200831e-02 -9.79301147e-03
      -2.58055106e-02 -1.54632088e-02 2.51523647e-02 1.42010208e-02
      1.31157339e-02 -1.77325252e-02 -3.43613848e-02 -2.54697669e-02
      -5.79226110e-03 -1.19443494e-03 4.00824100e-03 5.29139601e-02
      3.18807513e-02 4.43690037e-03 -2.90805055e-03 -2.12348043e-03
      1.50873549e-02 1.51641271e-03 -3.05317994e-03 1.32917855e-02
      1.86466835e-02 8.76238942e-03 9.02475975e-03 -1.77938845e-02
      -2.95503717e-02 -1.95258074e-02 3.29991756e-03 2.24964623e-03
      2.87789945e-02 4.68982905e-02 6.09681802e-03 -9.05604661e-03
      -3.77526097e-02 -2.49420777e-02 1.34060648e-03 3.39757092e-02
      1.67437121e-02 1.30486060e-02 1.99822076e-02 1.35555556e-02
      -1.98111590e-02 -1.83656104e-02 5.64516196e-03 2.94837914e-03
      1.13368332e-02 -1.90325663e-03 -1.11529175e-02 -1.88295841e-02
      -1.41791003e-02 -1.70170888e-02 -2.82025803e-02 -4.86536324e-03
      7.51401903e-03 3.04347053e-02 3.26339342e-02 3.71970385e-02
      1.86606403e-02 -7.73755694e-03 -2.27393676e-02 -1.52843697e-02
      2.11392567e-02 1.57149881e-02 2.26052962e-02 3.18116918e-02
      2.46030483e-02 -1.78412981e-02 -2.36897897e-02 -9.37019940e-03
      -1.23910920e-03 1.88215114e-02 -3.01100058e-03 -5.39560616e-03
      -9.89700574e-03 -2.32563727e-02 -1.06839100e-02 2.03381646e-02
      7.54981162e-03 1.95280055e-03 2.29012929e-02 4.11449699e-03
      -1.39190732e-02 -2.67162500e-03 -1.24115553e-02 -1.04594659e-02
      -7.88760278e-03 -1.21652964e-03 1.68396793e-02 2.61301789e-02
      7.07688555e-03 3.24240723e-03 -7.07394723e-03 -1.65310968e-02
      -1.18144508e-02 3.02961469e-02 1.53782126e-02 1.25209438e-02
      2.96146888e-02 2.26024352e-03 -2.30244617e-03 -2.09506415e-02
      -1.83371678e-02 1.74740255e-02 2.69223675e-02 3.35287601e-02
      -9.33702383e-03 -4.33299085e-03 -1.00081656e-02 -1.77276991e-02
      -1.10665534e-03 3.73049499e-03 1.28973164e-02 2.64904695e-03
      -4.86355321e-03 -2.26551369e-02 -2.97836605e-02 -2.30455082e-02
      -8.66628531e-03 9.24395863e-03 1.56639554e-02 2.25964859e-02
      1.95665956e-02 1.71796679e-02 -2.10050214e-02 1.44142704e-02
      -1.35746105e-02 -1.35608632e-02 -1.24245696e-02 1.14726452e-02
      6.31522806e-03 1.48433782e-02 2.12556794e-02 6.89397240e-03
      -9.76026896e-03 -2.03563515e-02 -1.53215714e-02 -3.74839338e-03
      1.27922874e-02 9.00258590e-03 1.67744327e-02 1.64243151e-02
      2.66044657e-03 -1.31926741e-02 -1.67084895e-02 1.41795166e-03
      7.44926231e-03 1.82620585e-02 7.91183021e-03 -7.04152184e-03
      8.81442335e-03 2.64077503e-02 8.83399229e-03 5.56639070e-03
      -2.21123882e-02 -1.70120411e-02 9.54553578e-03 -2.17715260e-02
      -3.43167596e-02 8.13659187e-03 -1.51449605e-03 -8.03486817e-03
      -1.33967390e-02 1.36668771e-03 3.80263431e-03 1.68977175e-02
      9.37720854e-03 -4.41154838e-03 1.16046015e-02 8.30048043e-03
      -4.76878835e-03 -9.47594177e-03 -1.61488447e-02 -6.22974196e-03
      1.52025968e-02 -7.66269164e-03 7.06550339e-03 1.62928887e-02
      -8.69714003e-03 1.75408386e-02 1.20122833e-02 -8.02492071e-03
      -1.51143223e-02 1.38890296e-02 2.68964586e-03 5.87118603e-03
      -1.44425593e-02 -3.78474668e-02 1.17011815e-02 -3.47438082e-03
      -1.01348851e-02 5.99935465e-03 1.24638071e-02 1.74596254e-02
      2.26786081e-02 -3.43211032e-02 9.48852487e-03 -5.81179885e-03
      -1.30628366e-02 -3.78242345e-03 -2.90166610e-03 2.63513736e-02
      1.36012323e-02 1.21563887e-02 -2.46435497e-02 -2.40408368e-02
      4.92876489e-03 -9.78298020e-04 5.73278917e-03 1.93352662e-02
      2.02735420e-02 9.15770512e-03 7.40610622e-03 -1.66154709e-02
      -2.68445220e-02 3.05902865e-03 4.79172362e-04 -6.54298067e-03
      1.41351875e-02 9.15598869e-03 6.99400553e-04 5.94293512e-03
      -2.59603988e-02 -1.40143037e-02 1.08565008e-02 7.63041573e-03
      -7.70892901e-03 6.55912096e-03 2.09635943e-02 -1.79230270e-03
      -1.96613129e-02 -3.23584452e-02 -1.05665680e-02 1.15709510e-02
      1.12402141e-02 3.34530440e-03 2.72239819e-02 1.18071381e-02
      -9.09802111e-06 1.44020570e-02 -7.85303488e-03 1.14827016e-02
      2.28805207e-02 -1.89874077e-03 -1.61467046e-02 2.35630805e-03
      1.84388310e-02 -9.33047198e-03 -5.63963596e-03 -1.04062269e-02
      -6.05732435e-03 7.50412513e-03 5.63007372e-04 -7.18093943e-03
      -3.44244647e-03 1.33656170e-02 -5.15250955e-03 -1.08169643e-02
      -2.30008364e-02 -9.98493284e-03 -1.03471391e-02 -1.21111600e-02
      2.27992167e-03 2.57432573e-02 7.76343327e-03 1.32466918e-02
      1.58517156e-02 -4.82068770e-03 1.49063012e-02 5.98776853e-03
      -5.87568060e-03 -1.53995818e-02 -1.00741768e-02 2.63179070e-03
      -4.51639062e-03 -8.31664354e-03 -2.28807814e-02 -1.37612894e-02
      -1.06029138e-02 3.57740629e-03 3.01824557e-03 2.48866305e-02
      -1.17206490e-02 6.53302949e-03 7.90645089e-03 -5.17861871e-03
      -7.13400776e-04 -2.16831383e-03 -1.28862178e-02 -7.45392684e-03
      1.02720794e-03 1.78564340e-02 5.89994574e-03 -7.96515029e-03
      -7.83353765e-03 -5.61938342e-03 -1.82901025e-02 -1.63912459e-03
      1.83874462e-02 3.15760523e-02 1.83516573e-02 -4.73196292e-03
      -1.36107281e-02 -1.89050043e-03 -3.70745291e-03 -9.65207163e-03
      -1.35505702e-02 -3.03006973e-02 6.46728929e-03 3.96130234e-02
      3.75642418e-03 -7.25933874e-04 -7.12326402e-03 -2.55261851e-03
      -1.62804686e-02 -2.09862683e-02 -2.05565803e-02 1.42930243e-02
      4.29629274e-02 9.01794247e-03 -8.72570928e-03 -5.14894444e-03
      -4.65567876e-03 -1.24364663e-02 -2.89950636e-03 1.04141105e-02
      6.39976747e-03 2.58513503e-02 2.37381458e-03 -3.50546930e-03
      -3.05967079e-03 -1.75782405e-02 -2.35658921e-02 -2.88924836e-02
      6.10713568e-03 7.39386352e-03 4.24802415e-02 4.12911139e-02
      -1.40594859e-02 -1.49220508e-02 -5.54417912e-03 -1.58550460e-02
      -1.96873955e-02 4.25049663e-03 1.73830129e-02 3.96764912e-02
      5.46146510e-03 -1.57377496e-02 -7.38024386e-03 -3.10282391e-02
      -3.88268195e-02 -2.67924927e-02 -1.72642118e-03 2.18624640e-02
      5.15085123e-02 3.23187076e-02 -1.96592659e-02 -1.95146333e-02
      -2.20071618e-02 -9.40813217e-03 -1.11494027e-02 1.23334415e-02
      2.00762488e-02 5.37717119e-02 1.61829649e-03 -1.92660149e-02
      -1.96508206e-02 -1.02161020e-02 1.85882952e-03 5.92325116e-04
      -7.80060794e-03 1.31435031e-02 2.60356441e-02 -3.73099782e-02
      -2.55058035e-02 -3.67607921e-03 -2.64211781e-02 -1.87445525e-02
      -1.25361392e-02 -6.64950209e-03 7.49494182e-03 4.60081026e-02
      4.73463200e-02 1.43158510e-02 2.57560462e-02 1.22829275e-02
      -1.61510743e-02 -1.38842817e-02 -9.92814265e-03 -1.31296515e-02
      2.42950618e-02 -1.03597948e-02 2.50322688e-02 3.67139764e-02
      8.06820695e-04 2.36225547e-03 -2.42544943e-03 -2.53423396e-03
      -9.31877922e-03 -1.17416903e-02 -2.85678357e-02 -1.84868637e-03
      -1.94323156e-02 2.61192136e-02 1.66770909e-02 -6.04556128e-03
      -1.04458723e-02 -2.28256043e-02 -1.90248322e-02 -2.41404343e-02
      -2.35491078e-02 -1.42229479e-02 4.96686809e-02 -9.81381815e-03
      -5.92868542e-03 -2.11030617e-03 -5.84888691e-03 1.60833850e-04
      -1.25046307e-02 -4.04878659e-03 2.62232944e-02 4.32478189e-02
      -6.59781974e-03 -1.24568101e-02 -4.94623929e-03 -1.21179186e-02
      -5.88259799e-03 -2.68319435e-02 -1.22823520e-02 3.59297879e-02
      -7.21622165e-03 -9.95857408e-04 -3.00259539e-03 -8.65682214e-03
      -7.28588086e-03 -5.04784146e-03 -9.49721038e-03 -4.10490436e-03
      -1.64565630e-02 4.10512183e-03 -2.14278772e-02 -7.94347748e-03
      -5.53302234e-03 -2.33573024e-03 1.41185208e-03 -9.35571734e-03
      -1.45326415e-02 -1.59460877e-03 2.14042235e-02 -3.06232199e-02
      -7.95286614e-03 -4.82374616e-03 -2.57032923e-03 -4.86484682e-03
      -1.29642049e-02 4.61466471e-03 2.91847419e-02 3.59020606e-02
      -3.17138545e-02 -1.58636123e-02 -2.35599186e-03 2.76118168e-04
      -9.52635717e-04 -1.76184513e-02 -1.61616858e-02 3.77117768e-02
      -1.39554748e-02 -9.15544759e-03 -4.63407766e-03 -1.26522663e-03
      3.00209201e-03 4.00893250e-03 -2.80938763e-03 -1.05018783e-02
      -1.91212688e-02 2.02393392e-03 -1.12052578e-02 -1.20852655e-02
      -9.98561829e-03 -5.97772514e-03 -7.48084905e-03 -4.38990630e-03
      -2.80920835e-03 -2.74300165e-02 7.15373307e-02 -4.05092724e-03
      -1.84215687e-03 -3.62717849e-03 -2.70428997e-03 -5.63706271e-03
      -1.12005379e-02 -2.21748035e-02 4.41537946e-02 3.73165421e-02
      1.28897112e-02 2.86829891e-03 -1.17421886e-02 -1.32308416e-02
      -1.27038453e-02 -4.46174387e-03 -1.31757157e-02 2.47170907e-02
      2.44260358e-04 -5.27582783e-03 -6.34109834e-03 -2.05528829e-03
      -2.86265067e-03 -5.67495823e-03 -2.51712254e-03 5.39135141e-03
      -4.72773872e-02 -1.68217905e-03 -3.22671840e-03 2.18766578e-03
      3.86714673e-04 7.47571746e-03 -3.97760328e-03 -9.75940935e-03
      1.04166251e-02 -4.16612253e-02 4.94412445e-02 1.77403279e-02
      1.29858393e-03 -1.14232488e-03 -7.23419851e-03 -4.84378636e-03
      -8.99310876e-03 -5.34635130e-03 -7.02201575e-03 5.69274388e-02
      2.96209473e-02 6.75962679e-03 -4.55297763e-03 -5.52077638e-03
      -1.66893471e-02 -1.43739432e-02 -1.61707979e-02 1.34479348e-02
      -5.51107666e-03 3.59274470e-03 1.70092011e-04 -7.21885916e-03
      1.71311619e-03 -2.17332738e-03 -1.57618895e-02 9.09199100e-03
      -1.43293524e-02 -4.19024145e-03 -2.37340364e-03 -1.01292161e-02
      -1.75046492e-02 -1.23968283e-02 -4.22445824e-03 -1.05670309e-02
      7.21468776e-03 6.00565167e-04 3.23045477e-02 -1.23741780e-03
      -3.11339623e-04 -1.25953415e-02 -1.24803162e-03 -4.12518345e-03
      -2.03263350e-02 9.70932003e-03 1.63832344e-02 1.03393067e-02
      -5.95535059e-03 -9.45288502e-03 -8.95141345e-03 -7.12409383e-03
      -2.34207558e-03 1.08987391e-02 1.72516815e-02 2.53103543e-02
      -5.69461612e-03 9.22033913e-04 -9.24189389e-03 -2.45875381e-02
      -2.78369002e-02 -5.98008605e-03 -3.97384306e-03 1.25922421e-02
      -1.90265551e-02 -1.07217422e-02 -3.24979913e-03 7.99688161e-04
      3.79181351e-03 8.33264366e-03 -1.30775273e-02 -4.92891436e-03
      -4.20704670e-03 -2.04515420e-02 4.35843412e-03 1.37890817e-03
      -1.59880724e-02 -1.58049315e-02 -1.37178749e-02 1.17849195e-02
      4.67661442e-03 1.10006314e-02 2.07716506e-03 4.93976893e-03
      9.93304537e-04 -8.12077429e-03 8.61197244e-03 4.56260191e-03
      1.86495706e-02 3.62282852e-03 1.38420789e-02 9.51941963e-03
      -6.12469018e-03 -9.10949428e-03 -8.91579129e-03 -2.27522738e-02
      7.10549764e-03 2.67063864e-02 -5.62941609e-03 3.31896916e-03
      -2.46861111e-03 -6.32523932e-03 -1.22689158e-02 -1.35695012e-02
      -3.69167365e-02 2.95817871e-02 4.98505980e-02 4.68462054e-03
      -3.11555038e-03 -4.62797843e-03 -1.28112650e-02 -1.05661796e-02
      -1.32131074e-02 -1.25933001e-02 1.81016214e-02 5.48857776e-03
      -1.05335070e-02 3.12241376e-04 -4.29453515e-03 -1.38973370e-02
      -1.35579575e-02 -1.24853421e-02 -2.37889513e-02 3.37792486e-02
      2.43563075e-02 -1.76084675e-02 -3.27084935e-03 -6.07638061e-03
      -4.90175094e-03 -1.29553359e-02 -1.16669321e-02 -1.69460813e-03
      1.86745282e-02 4.99911793e-02 7.42178271e-03 -1.55000696e-02
      -6.34877943e-03 -1.90300550e-02 -2.77897902e-02 -1.84771121e-02
      -6.74603321e-03 1.24817630e-02 6.01297319e-02 3.36666815e-02
      3.94884590e-03 -4.92409663e-03 -9.12400242e-03 -3.41420025e-02
      -1.01298988e-02 -1.48166772e-02 2.86045317e-02 1.36618624e-02
      4.08140291e-03 -1.02901747e-02 -5.86212799e-03 -3.40370042e-03
      -2.32460070e-02 -2.83766612e-02 -1.45279551e-02 -6.49884716e-03
      1.09143294e-02 3.44159715e-02 2.24096254e-02 4.25854651e-03
      -1.22055355e-02 -1.54969161e-02 -6.47966051e-03 -1.23692676e-02
      -2.05270853e-02 1.51737947e-02 3.98001373e-02 1.61121283e-02
      2.27172282e-02 3.20432112e-02 -1.44579457e-02 -1.47994710e-02
      -1.02234185e-02 -1.18926177e-02 1.00764791e-02 -8.68687592e-03
      -2.68297270e-03 3.61860693e-02 8.52105091e-04 -1.62168313e-02
      -1.52532840e-02 -2.51505710e-02 -3.68414037e-02 -4.42687748e-03
      2.72673201e-02 2.51180287e-02 1.85237061e-02 3.01206950e-02
      -1.61161926e-02 -1.74921919e-02 -1.68283209e-02 -1.78413149e-02
      -2.67975987e-03 7.56141869e-03 -2.06225850e-02 2.16725599e-02
      3.32078896e-02 -1.08155478e-02 -7.00720772e-03 -3.08105513e-03
      -6.39525615e-03 -3.11465724e-03 -1.06344931e-02 -2.04881914e-02
      7.02254428e-03 2.09837481e-02 -4.69361693e-02 -2.00756527e-02
      -5.93540119e-03 -1.19804936e-02 -5.72432671e-03 -1.05603868e-02
      -9.55423061e-03 8.40205047e-03 2.67851055e-02 -5.21411421e-03
      -1.32821838e-03 -3.28963669e-03 -8.48937687e-03 -5.28404396e-03
      -1.73939690e-02 -3.77268381e-02 2.22025216e-02 1.65925045e-02
      -1.61140915e-02 1.44647062e-02 -7.90858758e-04 -1.96697358e-02
      -1.33682294e-02 -2.79956013e-02 -2.20884029e-02 7.76418811e-03
      1.40265208e-02 -3.80043350e-02 -1.44562563e-02 -4.01194114e-03
      -2.50102277e-03 -2.65653315e-03 -4.78967698e-03 -7.06786336e-03
      3.50244008e-02 1.68444887e-02 -4.35405895e-02 -8.23141541e-03
      -1.94897025e-03 -2.43849194e-04 -2.59326189e-03 -8.16221535e-03
      -3.33089940e-02 3.42892781e-02 2.31338162e-02 -2.92327702e-02
      -3.36740701e-03 -5.01841912e-03 -5.47627080e-03 -8.01970623e-03
      -1.89491734e-02 -8.88368115e-03 4.67512310e-02 4.33930429e-03
      -5.39752096e-02 -5.30575402e-03 -2.05869135e-03 1.00389030e-03
      -1.10183991e-02 -6.27965666e-03 -1.45474337e-02 3.44896838e-02
      5.48157692e-02 -1.11759026e-02 -5.12324739e-04 -3.18949949e-03
      -5.80328982e-04 -6.46378938e-03 -6.63687056e-03 -3.14611606e-02
      1.81085300e-02 2.65552029e-02 -5.34544932e-03 3.21169529e-04
      -3.92387668e-03 -4.53275535e-03 -6.34717243e-03 -8.97312909e-03
      -2.50638966e-02 7.15055363e-03 3.38059440e-02 -2.69700494e-02
      1.77589482e-05 2.16669578e-04 5.08243800e-04 -8.40558484e-03
      -4.77380864e-03 -2.61631776e-02 3.79077829e-02 1.93773434e-02
      -1.16344513e-02 5.85349277e-03 3.37914005e-03 -2.69575440e-03
      -8.00472777e-03 -8.46245978e-03 -2.84030121e-02 6.33160025e-03
      3.89693715e-02 -8.34802282e-04 -2.05672928e-03 -1.71470013e-03
      -3.78004066e-03 -8.99589248e-03 -1.52860349e-02 -1.06975948e-02
      -2.25051343e-02 3.53729576e-02 -5.55712776e-03 -6.62962534e-03
      -1.70599227e-03 -6.57823961e-03 -1.91457942e-02 -2.16115471e-02
      -2.03605704e-02 1.81410424e-02 4.18450311e-02 -1.20864231e-02
      -3.90808054e-06 5.42847556e-04 -2.28883186e-03 -7.19641708e-03
      -5.25166001e-03 -1.62116420e-02 -8.77801143e-03 3.39403860e-02
      -2.52517816e-02 -6.75707124e-03 3.18538951e-04 -2.01667286e-02
      -1.71768758e-02 -1.80087499e-02 7.55938709e-06 3.09728272e-02
      1.53371338e-02 -1.67049468e-02 -5.41101070e-03 -9.63927060e-03
      -3.40202334e-03 -9.80057009e-03 -1.70042161e-02 5.55655861e-04
      2.79691033e-02 3.76965594e-03 -7.72801042e-03 -4.33764141e-03
      -1.66922845e-02 -2.07657684e-02 -1.11571653e-02 -1.20744770e-02
      1.04943495e-02 2.41800845e-02 1.70126576e-02 -2.19501480e-02
      -7.74865039e-03 -4.83103329e-04 -2.37689875e-02 -1.76399592e-02
      9.31834523e-03 2.78221779e-02 3.45263109e-02 -5.26370713e-03
      -1.75466090e-02 -1.44316712e-02 -2.09044926e-02 -2.79341191e-02
      -1.52497767e-02 1.55225936e-02 3.36305313e-02 2.41993051e-02
      6.88498083e-04 1.87701243e-03 -2.04594759e-03 -1.25580709e-02
      -2.07251683e-02 -1.02448491e-02 1.09934872e-02 6.13904651e-03
      -2.68881209e-03 -9.22605954e-03 -1.22419279e-03 -2.06127693e-03
      5.13937557e-03 8.85995920e-04 -1.75722304e-03 5.92119247e-03
      1.02712000e-02 -3.00921709e-03 -1.09538082e-02 -4.32714028e-03
      -8.74671619e-03 -8.82643368e-03 -8.76985025e-03 -1.38010047e-02
      3.48414518e-02 4.05313410e-02 9.40181501e-03 -1.96171794e-02
      -1.24342032e-02 -3.73396697e-03 1.21885585e-02 5.98174194e-03
      2.53874138e-02 3.80577743e-02 1.51679069e-02 -9.62728355e-03
      -3.83985019e-03 -3.92003730e-03 -7.48667913e-03 4.05796664e-03
      4.79759416e-03 -4.07677516e-03 -1.25410426e-02 -1.60890981e-03
      -4.10628458e-03 -5.61595708e-03 -6.45632157e-03 -1.70316398e-02
      1.02349506e-04 3.58223580e-02 5.50905289e-03 -2.33241394e-02
      -5.87723125e-03 -7.71943992e-03 -3.14692338e-03 -2.78012082e-03
      -4.38289670e-03 2.23297216e-02 1.87548958e-02 -2.44359728e-02
      -1.88033562e-02 -8.34956858e-03 -8.08765460e-03 -3.03370086e-03
      -7.61803472e-03 -2.66709402e-02 2.12918576e-02 2.75877547e-02
      -3.95170897e-02 -2.05127709e-02 -1.34252552e-02 -6.77805999e-03
      -3.87565093e-03 -1.60213094e-02 -4.96983249e-03 8.72379728e-03
      4.39188108e-02 8.97821598e-03 -7.33186305e-03 -5.61523298e-03
      -7.12552294e-03 -4.03174805e-03 -1.18668890e-02 -6.33582240e-03
      1.07304230e-02 2.32828334e-02 6.10063493e-04 9.70942806e-03
      -2.80907121e-03 -5.81048056e-03 -1.29803056e-02 -1.63030885e-02
      -1.21886255e-02 2.46929657e-02 4.69099768e-02 1.35893715e-04
      -2.54384875e-02 -8.94615334e-03 -1.10680182e-02 -9.63007379e-03
      4.26708779e-04 3.38544697e-02 4.73327972e-02 5.11279292e-02
      6.54758187e-03 -3.77016850e-02 -3.64310592e-02 -3.79234180e-02
      7.67962867e-03 -6.75407751e-03 -3.59876058e-03 2.34542438e-03
      -1.80006456e-02 9.00931191e-03 2.75272317e-02 1.84629913e-02
      1.73344426e-02 3.54222693e-02 2.27412628e-03 6.26189588e-03
      -2.34750332e-03 -8.43529403e-03 -2.85035442e-03 2.06884220e-02
      -3.83847579e-03 3.41458432e-02 -8.16730317e-03 1.37312403e-02
      3.11583150e-02 3.39260325e-02 3.01975000e-04 -3.83328483e-03
      -9.05638444e-04 -3.65559608e-02 -2.89843008e-02 6.07036659e-03
      -4.34093783e-03 4.93595609e-03 6.35437667e-03 -1.83593278e-04
      5.59065258e-03 1.89488232e-02 -5.21293888e-03 1.01802079e-02
      3.20880860e-02 3.27492692e-03 9.91223194e-03 -1.19453587e-03
      -2.39495491e-03 -9.53291659e-04 -5.43123530e-03 -1.38176195e-02
      7.29614170e-03 8.52836203e-03 3.70882591e-03 2.97769569e-02
      4.29824181e-03 -6.49833400e-03 -6.58719335e-03 -7.63745746e-03
      -7.99534097e-03 2.29011122e-02 2.10954132e-03 -3.17605548e-02
      -7.52036693e-03 -3.40720895e-03 -2.64995004e-04 8.48281663e-03
      7.36705167e-03 9.46339499e-03 2.43204236e-02 -9.39584430e-03
      -3.06652952e-02 7.28803640e-03 -6.90853849e-05 -2.53367936e-03
      -2.40404019e-03 3.20324232e-03 2.32502669e-02 2.74294075e-02
      1.17074586e-02 -1.38875851e-02 1.08188549e-02 7.70822226e-04
      -2.09293864e-03 -4.63974569e-03 -1.06805097e-02 7.07742013e-03
      3.26698162e-02 1.28075173e-02 -1.11336913e-02 5.96643239e-03
      1.55810337e-03 -1.20422919e-03 -1.01136640e-02 -3.35245451e-04
      2.02075578e-02 2.57964358e-02 -1.56961009e-02 -1.79565623e-02
      2.92677130e-03 9.77710239e-04 -1.24616409e-03 -5.61976712e-03
      -5.19312220e-03 2.31317468e-02 3.23205180e-02 -1.69818830e-02
      2.59203208e-03 8.80881399e-03 2.44961889e-03 -1.17280462e-03
      -1.05998097e-02 -5.06425695e-03 3.00889481e-02 1.06218141e-02
      2.03479696e-02 -1.13603184e-02 2.95628957e-03 1.83024746e-03
      -3.47509893e-04 -6.46735448e-03 -1.70571066e-03 1.00430252e-03
      2.41577085e-02 3.80421095e-02 -8.41571204e-03 7.36443978e-03
      4.20313608e-03 -3.28215468e-03 -5.83432848e-03 -6.44982327e-04
      -5.40498411e-03 1.09496918e-02 -7.30153359e-03 1.84924749e-03
      6.31957874e-03 1.20351452e-03 -1.17588381e-03 -7.61276111e-03
      -7.47517729e-03 1.05878823e-02 1.49297547e-02 2.74109235e-03
      -1.12361228e-02 2.21445295e-03 -1.83466807e-04 -5.69800241e-03
      -9.58691724e-03 -5.19027608e-03 1.23071056e-02 2.24307943e-02
      3.66011821e-02 -1.42244166e-02 2.89940136e-03 3.29330738e-04
      -2.80442997e-03 -6.38232380e-03 -3.24980821e-04 -1.40034838e-03
      1.27949687e-02 3.73945683e-02 -2.48635076e-02 1.12751301e-03
      -2.61704670e-03 -1.09610669e-02 -1.75402686e-02 -8.51269811e-03
      1.74449943e-02 2.24707667e-02 1.09933084e-03 -2.39126459e-02
      -4.47786693e-03 -2.03337870e-03 -3.05424584e-03 -4.83246101e-03
      -3.75621323e-03 1.37087815e-02 3.35704722e-02 1.53003670e-02
      -2.85597295e-02 1.33658736e-03 -1.65655557e-03 -6.76827505e-03
      -1.12456167e-02 -5.66460053e-03 7.82863330e-03 3.37571613e-02
      2.26753335e-02 -2.23342851e-02 3.13278940e-03 3.45335319e-03
      -1.57698132e-02 -6.89076819e-03 6.15983550e-03 2.83495672e-02
      2.41471007e-02 -5.19973831e-03 -2.29264461e-02 8.24465696e-03
      7.32321618e-03 -1.35068847e-02 7.72148790e-03 2.14202125e-02
      3.61032486e-02 2.60494836e-02 1.06904646e-02 1.54552062e-03
      1.89959016e-02 2.87194992e-03 3.74235271e-04 -4.22112085e-03
      -1.13841249e-02 8.10130220e-03 3.61548085e-03 -1.03178360e-02
      1.55116562e-02 3.14083770e-02 1.46703823e-02 -6.72877114e-03
      -1.10885054e-02 -1.00450702e-02 9.97535232e-03 -2.39365157e-02
      -1.04676001e-02 -8.32536910e-03 4.84241545e-03 7.80492695e-03
      4.79349727e-03 5.97817241e-04 2.56008338e-02 2.37458814e-02
      4.90679312e-03 -2.70861499e-02 -8.52328539e-03 6.77168043e-03
      1.70185678e-02 7.26274215e-03 1.98468603e-02 2.89792977e-02
      7.76139507e-03 -1.39457891e-02 -1.24417115e-02 1.58546176e-02
      1.99152008e-02 1.50967874e-02 2.59311660e-03 -1.89419538e-02
      -2.44448869e-03 -4.66653844e-03 -2.40632496e-03 -8.92998278e-03
      1.50664349e-03 2.94231940e-02 3.77023313e-03 1.22846980e-02
      1.14610577e-02 6.51760632e-03 -1.42817816e-03 -1.45377414e-02
      -1.70421298e-03 -9.04677378e-04 -1.15590112e-03 1.57061853e-02
      5.67103783e-03 -1.05035705e-02 -1.56127363e-02 -7.50760268e-03
      -4.60983533e-03 -1.21929054e-03 -9.82226897e-03 -2.42727492e-02
      2.57692542e-02 2.73467842e-02 -3.25600430e-02 -1.21968808e-02
      -1.07139489e-02 -7.67174596e-03 -3.43743619e-03 -4.36741533e-03
      1.73442520e-03 4.07036860e-03 1.29676955e-02 -2.44395807e-03
      -1.87333412e-02 -1.43493852e-02 -6.29587891e-03 -8.84100422e-03
      -2.35045701e-02 -2.33125370e-02 -5.11411298e-03 1.84544995e-02
      2.27552019e-02 -1.93584785e-02 -7.64641771e-03 -1.13032116e-02
      -7.84521177e-03 -1.41461771e-02 -7.25853769e-03 1.35011747e-02
      3.50708850e-02 -5.28358016e-03 -1.60992630e-02 -5.88564575e-03
      -9.05860588e-03 -2.43601948e-02 -1.49378050e-02 4.12967280e-02
      3.96090001e-02 3.33689936e-02 -1.45597011e-02 -3.21834385e-02
      -3.20306607e-02 -4.51892503e-02 -6.58964785e-03 -1.77277662e-02
      -1.00131119e-02 1.67490728e-02 2.09693834e-02 4.05100584e-02
      -9.90875997e-03 4.74938750e-03 -1.18214516e-02 -4.05458771e-02
      -8.90052784e-03 4.87326458e-02 6.89026266e-02 3.37814912e-02
      -1.32561419e-02 -3.64514515e-02 -1.93258878e-02 -4.32007536e-02
      -2.48490134e-03 6.27876818e-03 3.07197180e-02 2.67354008e-02
      6.23761490e-03 -5.33163222e-03 -7.68989976e-03 -3.02513912e-02
      -3.09512522e-02 -1.98725797e-03 2.17569599e-04 4.28202050e-03
      6.93236152e-03 -5.29597793e-03 8.63729278e-04 4.04193113e-03
      -8.88919085e-03 1.58604160e-02 -7.58589525e-03 1.67784169e-02
      4.27532792e-02 5.20362593e-02 1.23460200e-02 -1.51221547e-02
      -1.75435822e-02 -2.07454562e-02 -3.54098007e-02 -4.52682376e-03
      2.73323003e-02 1.32493610e-02 1.85552780e-02 7.50164385e-04
      -1.80154480e-02 -1.13373799e-02 -4.32224199e-03 6.85633672e-03
      -1.03911003e-02 -3.08864303e-02 -7.23302411e-03 -5.95554849e-03
      -4.39023180e-03 5.59003209e-04 9.86802115e-05 8.87576677e-03
      3.80780548e-02 7.88555294e-03 -3.39652300e-02 -7.64513481e-03
      -7.58565916e-03 -3.09935864e-03 -2.12253747e-03 -5.40973339e-03
      1.20739890e-02 3.73208374e-02 6.62364392e-03 -9.17858072e-03
      -6.45311875e-03 -8.24976340e-03 -1.02303047e-02 -5.90864569e-03
      -7.86567200e-03 2.02369853e-03 3.85559946e-02 2.05074605e-02
      -1.38285011e-02 -1.17186392e-02 -1.31588923e-02 -9.52201337e-03
      -2.10683374e-03 -2.01301705e-02 -8.02146085e-03 4.72083427e-02
      1.61554366e-02 -2.30702572e-02 -2.61504808e-03 -2.05622520e-03
      -3.58728197e-04 -2.31021526e-03 -5.81422308e-03 -2.90959934e-03
      2.68968251e-02 1.25140538e-02 -1.02249207e-02 1.45251874e-03
      -6.91632275e-04 -2.54416838e-04 -7.74899358e-03 -9.00683179e-03
      4.87477565e-03 2.00365167e-02 2.51496267e-02 -1.62880793e-02
      3.59529186e-05 -5.59452083e-03 -9.86712286e-04 -8.44205497e-04
      -1.20745134e-02 -1.46390451e-02 1.76097155e-02 6.38747541e-03
      -2.15885676e-02 -2.51001795e-04 -2.98383791e-04 -1.53480287e-04
      -8.52396339e-03 -1.16865160e-02 -1.33373467e-02 2.29383223e-02
      1.97601691e-02 -9.20389872e-03 1.58471055e-03 -6.38178259e-04
      -6.94972463e-04 -7.28274416e-03 -8.16860609e-03 -6.27960078e-04
      1.75247695e-02 3.32471193e-03 -2.49027573e-02 -1.06142659e-03
      -3.96016287e-03 -3.16841900e-03 -5.61034167e-03 -7.49940006e-03
      4.52391105e-03 3.12197991e-02 2.66127959e-02 -3.18468772e-02
      -1.53823965e-03 -2.29704916e-03 -1.74768490e-03 -8.28712992e-03
      -1.28892930e-02 -1.48823122e-02 3.89440581e-02 7.08112540e-03
      -3.93570475e-02 -4.04890953e-03 -7.65035674e-03 -4.50888509e-03
      -1.08274799e-02 -1.69098973e-02 -1.65177882e-02 2.07993183e-02
      -1.83899514e-03 -2.40301043e-02 -4.63900995e-03 -1.27649435e-03
      -3.50395171e-03 -4.47851513e-03 -7.26842508e-03 -1.38098164e-03
      4.44515124e-02 2.56598964e-02 -3.15095037e-02 -8.36715382e-03
      -7.49965291e-03 -5.63794561e-03 -9.20164771e-03 -9.95577779e-03
      -9.07891151e-03 4.55899648e-02 -1.26361579e-03 -3.43256332e-02
      -5.79194212e-03 -6.15505176e-03 -4.54561925e-03 -1.13967462e-02
      -7.01595191e-03 -1.20831025e-03 4.44397666e-02 1.99187119e-02
      -4.57342453e-02 -1.82099584e-02 -1.69344656e-02 -1.02885654e-02
      -9.93637182e-03 -2.69342354e-03 -5.41730179e-03 5.03696315e-02
      3.41243073e-02 3.34333652e-03 9.19444952e-04 -3.01362807e-03
      -1.97301968e-03 -1.14816623e-02 -1.25636645e-02 -5.47589269e-03
      1.72080025e-02 1.38410209e-02 2.45520119e-02 3.15699503e-02
      6.10845396e-03 -1.10632284e-02 -1.81157477e-02 -1.82223879e-02
      -5.48658101e-03 5.00611821e-03 3.34007517e-02 -3.52789164e-02
      -1.54461013e-02 -9.64486971e-03 -1.70664564e-02 -1.70249473e-02
      -1.31172466e-03 -7.17157964e-03 5.17048389e-02 3.69191840e-02
      1.57068454e-04 2.95233494e-03 2.50928360e-03 -1.94514543e-02
      -1.98255759e-02 -9.54600424e-03 -8.81788041e-03 3.37691158e-02
      -1.13595054e-02 2.39355322e-02 1.54738910e-02 2.69232616e-02
      -2.01275554e-02 -2.00622901e-02 -1.66673344e-02 -3.07746674e-03
      9.38197039e-03 2.97623803e-03 5.75399632e-03 2.86861006e-02
      1.57164540e-02 -1.04421412e-03 1.27654672e-02 -1.05259707e-02
      -9.12915508e-04 8.67309922e-04 1.20817777e-02 1.18790357e-03
      1.77939981e-02 1.17887110e-02 -2.65561529e-02 -1.25980116e-02
      -1.05811525e-02 -3.63056036e-03 9.23867803e-03 -8.34435131e-03
      1.11497538e-02 3.13267894e-02 1.57734025e-02 -1.26415202e-02
      8.11553560e-04 -7.40857283e-03 -9.11217835e-03 -4.30534640e-03
      -2.71221809e-03 -2.56371987e-03 -2.66128918e-03 1.98196969e-03
      9.19418782e-03 6.41584303e-03 -1.39557151e-02 -7.01530930e-03
      -3.30197439e-03 -7.43843382e-03 -1.84601992e-02 -2.21081208e-02
      -1.97219085e-02 2.06681788e-02 4.24382910e-02 -1.17383124e-02
      -2.78970134e-03 -5.00544300e-03 -8.37407820e-03 -7.31887901e-03
      -1.35833723e-02 -3.32164043e-03 6.09684037e-03 9.55661293e-03
      -7.71808459e-07 -6.21642545e-03 -7.05238525e-03 -1.03325844e-02
      -1.89648475e-02 -2.63296571e-02 -6.84814295e-03 1.38064483e-02
      5.59134036e-02 1.64274499e-02 -4.54134680e-03 -2.99588777e-03
      -2.55069160e-03 -1.92520730e-02 -1.19950110e-02 -6.40173489e-03
      1.91177148e-02 2.87010167e-02 -3.80507950e-03 9.27533675e-03
      -6.23273337e-03 -2.93188393e-02 -3.27908620e-02 3.34721357e-02
      4.68523987e-02 2.37900410e-02 -7.93444738e-03 -3.25578637e-02
      -1.36581473e-02 -2.47893594e-02 -1.11674266e-02 -1.74996965e-02
      -2.40023364e-03 1.48547161e-02 1.05963927e-02 1.77040715e-02
      -2.96238647e-03 -1.47463835e-03 -4.81171301e-03 -1.19290473e-02
      -2.33999249e-02 1.11957649e-02 2.94133890e-02 1.63363200e-02
      1.34643470e-03 -1.47704072e-02 2.01778207e-03 -1.88691542e-02
      -1.01577966e-02 3.99302738e-03 4.24165130e-02 7.70633370e-02
      3.96391153e-02 -7.02395104e-03 -1.67464949e-02 -1.21256327e-02
      -1.93414856e-02 1.15895085e-03 2.15320643e-02 1.69672780e-02
      2.32534297e-02 1.18014663e-02 -1.09535391e-02 -1.33262072e-02
      -1.31059596e-02 4.15031705e-03 -3.18783261e-02 -4.98231165e-02
      6.98661851e-03 4.67872545e-02 5.56581877e-02 8.58102087e-03
      -4.92309872e-03 -1.93177536e-02 -2.81660166e-02 -1.83831677e-02
      -1.33898165e-02 -1.04594873e-02 2.77788546e-02 3.15533616e-02
      1.44734494e-02 -6.08125236e-03 -4.08202596e-02 -2.62100771e-02
      1.60156339e-02 1.71970073e-02 -4.31701355e-03 -1.72857719e-03
      3.95143963e-03 5.53115737e-04 -1.62445917e-03 2.15918873e-03
      4.32976596e-02 2.32885946e-02 3.87414964e-03 5.97042032e-03
      -1.48006212e-02 -8.87047872e-03 -8.59301887e-04 -4.79128724e-03
      1.66185969e-03 4.00719345e-02 -1.41101005e-02 -1.62310563e-02
      -1.78485904e-02 -1.34400083e-02 1.45848142e-02 1.21714734e-02
      2.25804397e-03 -1.76771097e-02 3.53340036e-03 -1.94374025e-02
      -1.75133683e-02 -6.38800440e-03 -2.19636112e-02 -9.10855643e-03
      1.04306284e-02 1.31031889e-02 1.11494362e-02 7.09172338e-03
      5.05486056e-02 2.03342363e-02 1.27968853e-02 -4.20322685e-05
      -1.89376972e-03 9.05999332e-04 -1.00484565e-02 -1.69960856e-02
      3.11525445e-02 1.24756424e-02 -5.70737338e-03 6.70776796e-03
      6.59773732e-03 1.28904171e-03 -2.69263657e-03 -1.43923359e-02
      -2.31262445e-02 4.14196439e-02 -5.67664159e-03 -1.11871387e-03
      7.94671068e-04 -9.48181667e-04 -1.75568755e-04 5.81992557e-03
      -5.10417763e-03 -2.33232602e-02 -1.29589988e-02 -1.88231445e-03
      2.59912536e-02 -1.36232679e-03 -2.62899371e-03 5.87240094e-03
      2.70641269e-03 -1.68612543e-02 -2.58523002e-02 1.15021700e-02
      4.04772647e-02 -2.11294070e-02 -9.47067689e-04 -1.97854228e-04
      -5.66485396e-04 -1.00607127e-02 -1.58454888e-02 -1.03398450e-02
      6.85332865e-02 1.67402700e-02 -2.99201086e-02 -4.26127343e-03
      -5.22339251e-03 6.44433021e-04 -1.26275439e-02 -1.07511189e-02
      2.17078719e-03 3.21388766e-02 -1.83168333e-02 -1.06855053e-02
      2.80275755e-03 2.38270918e-03 -1.46695483e-03 -1.29425153e-02
      -1.66924372e-02 -7.81856664e-03 2.01671142e-02 -1.33680440e-02
      -1.34530878e-02 -9.19851707e-04 1.37100443e-02 1.08379293e-02
      -1.76472608e-02 -1.19464882e-02 5.41391456e-03 2.14739125e-02
      4.37630014e-03 -2.27286145e-02 -3.01540061e-03 -5.13693085e-03
      -1.15705002e-03 -2.77216965e-03 3.30055715e-03 1.07979532e-02
      4.56227846e-02 1.89630669e-02 -2.40470301e-02 -1.11251632e-02
      -1.01735014e-02 -6.93718763e-03 -3.12471692e-03 1.95701905e-02
      1.32781388e-02 4.05370742e-02 -1.91561095e-02 -6.83174515e-03
      4.99149691e-03 1.07941628e-02 1.10343210e-02 -4.71294345e-03
      -4.12189588e-03 -1.14094270e-02 8.42392631e-03 -8.15990008e-03
      -1.58929396e-02 -1.81996066e-03 5.55692380e-03 8.51246249e-03
      -2.70669907e-03 1.45372944e-02 9.37897526e-03 1.89833213e-02
      3.82374413e-02 -3.55162472e-02 -9.78746731e-03 -9.32949688e-03
      -1.54211447e-02 -6.27086451e-03 1.19761191e-02 9.01570823e-03
      5.18150553e-02 4.43870574e-02 8.96816421e-03 9.23197623e-03
      -5.74846007e-03 -1.89221073e-02 -8.74650851e-03 8.76930822e-03
      -7.29649037e-04 5.58099858e-02 -2.27000713e-02 -1.95035748e-02
      -4.89965966e-03 4.42970498e-03 -1.82094134e-03 -8.66407715e-03
      7.64520746e-03 1.77422818e-02 1.19677922e-02 -2.74519157e-03
      -1.17437365e-02 -5.69896260e-03 6.73665619e-03 -1.98286213e-02
      -1.42696798e-02 7.61456788e-03 1.53921638e-02 2.26578955e-02
      5.33875963e-03 1.59938671e-02 2.93870140e-02 -1.67316257e-03
      -2.39353552e-02 -1.18522286e-04 -2.85060564e-03 -7.95379933e-03
      1.19115338e-02 -1.43063962e-02 1.22845657e-02 3.66134122e-02
      2.47570425e-02 -3.48157785e-03 -5.39385155e-03 -1.37913227e-03
      -1.08488202e-02 -6.91539235e-03 4.23240196e-03 6.99574174e-03
      -6.71533355e-03 -3.82549851e-03 -1.27116125e-02 -8.70625395e-03
      1.32528821e-03 7.75154866e-03 7.36437971e-03 -7.86940008e-03
      1.15523832e-02 1.40360799e-02 1.79515574e-02 -3.23920557e-03
      1.33155845e-02 1.01192109e-02 1.67935919e-02 -2.17568800e-02
      -7.25083658e-03 -5.76388789e-03 -1.78190204e-03 3.88984365e-04
      -9.99454409e-03 7.16893328e-03 1.54025247e-02 -2.93564424e-03
      -4.34819562e-03 -2.70055025e-03 -1.23943193e-02 -1.05779804e-02
      -1.25907380e-02 -3.31124058e-03 3.74793001e-02 4.84520011e-02
      6.14971714e-03 -2.55157298e-04 3.78927834e-05 7.92403938e-04
      -4.49653668e-03 -7.04454491e-03 -2.40438171e-02 1.56210326e-02
      3.86614241e-02 1.86358299e-02 5.47561515e-03 -1.54456717e-03
      -5.66863734e-03 -1.41178882e-02 -3.96485999e-02 -1.73231736e-02
      2.95990314e-02 7.12807700e-02 3.16857696e-02 2.24039610e-02
      -6.13421947e-03 -1.44140620e-03 1.60128959e-02 1.97985098e-02
      -4.40003816e-03 9.14847944e-03 1.98116172e-02 7.96003919e-03
      -5.62791305e-04 -1.44973891e-02 4.87588020e-03 2.80440561e-02
      1.92042924e-02 8.44223890e-04 -4.42270748e-03 1.33914477e-03
      7.23807327e-03 -2.38907663e-03 -3.45095550e-03 2.10236777e-02
      1.91237330e-02 -2.79734144e-03 -3.10247410e-02 -1.18770078e-02
      2.70573050e-02 2.22158246e-02 2.71492377e-02 -6.88376604e-03
      3.63722779e-02 4.15021852e-02 1.34796537e-02 -1.41959274e-02
      -2.53809523e-02 -7.97033310e-03 1.58451404e-02 4.50952025e-03
      -1.75370742e-02 -2.26707794e-02 1.07929092e-02 4.31810617e-02
      6.24950603e-02 2.26738676e-02 -8.19925917e-04 -6.81620603e-03
      -1.53673748e-02 -4.25885059e-03 -1.72051508e-02 -4.46650200e-03
      1.74294356e-02 3.39375883e-02 2.79188491e-02 -5.27012628e-03
      -3.26985978e-02 -9.48550086e-03 -6.72937324e-03 9.78593249e-03
      4.67444547e-02 4.26703468e-02 4.17129025e-02 9.58046131e-03
      -6.43195678e-03 -1.71633391e-03 -5.45448100e-04 1.57112479e-02
      -1.42317906e-03 -2.29202840e-03 -1.23674734e-04 1.08729526e-02
      1.27288243e-02 5.71536971e-03 -1.45200174e-02 4.19327960e-04
      7.91926403e-03 -6.84573362e-03 -6.89710677e-03 -8.73339642e-03
      1.41041242e-02 2.55324971e-02 1.09444140e-02 -1.52544510e-02
      -6.24263287e-03 -6.84311893e-03 -2.29912121e-02 -8.29092227e-03
      -5.59049472e-03 6.67581288e-03 2.38019694e-02 2.65860576e-02
      1.67221520e-02 -4.80091013e-03 2.32579987e-02 -8.27321084e-04
      -3.21873650e-02 -1.32729474e-03 1.61161348e-02 2.59506311e-02
      1.55571867e-02 -1.49877009e-03 -9.82511882e-03 1.25316670e-02
      -5.39788278e-03 -6.06405316e-03 5.50225843e-03 2.10267548e-02
      2.56955046e-02 2.09075473e-02 -2.76438519e-03 2.61533540e-03
      -8.83621469e-05 -1.35530401e-02 7.19367806e-03 9.60349664e-03
      7.53155211e-03 5.46173751e-03 7.12492969e-03 5.32930717e-04
      -1.24424649e-02 -4.66495520e-03 3.38182636e-02 7.58918887e-03
      4.00470477e-03 7.25884410e-03 7.50839477e-03 -2.11560004e-03
      -2.44559888e-02 -8.68361164e-03 1.84450801e-02 5.21128858e-03
      -6.07488165e-03 -1.54304190e-03 9.53593571e-03 2.01282237e-04
      2.24656090e-02 1.22705912e-02 5.60114998e-03 -1.30460504e-02
      3.04093212e-02 -7.69091863e-03 1.67174370e-03 7.09164143e-03
      1.28163258e-02 1.16730733e-02 1.87977068e-02 -9.91015323e-03
      -1.35464687e-02 1.67854950e-02 4.90990933e-03 5.37074264e-03
      4.55690984e-04 3.56815918e-03 -8.23008548e-03 3.18960141e-04
      -4.71160281e-03 1.06892781e-02 1.40102459e-02 1.05977559e-03
      1.03044771e-02 8.16085748e-03 -1.40682526e-03 -2.17826222e-03
      1.58620393e-03 1.41546857e-02 9.45066009e-03 1.52564021e-02
      -3.38033540e-03 4.00547171e-03 1.49538908e-02 2.29820069e-02
      -2.61710258e-04 5.15917818e-05 -7.61881564e-03 2.98942905e-02
      2.05277484e-02 2.04132241e-03 1.49057545e-02 -1.12903269e-03
      6.63081743e-03 -1.24102877e-02 -1.08107552e-02 2.06773784e-02
      -6.65213075e-03 1.01292040e-02 8.06282181e-03 1.38136940e-02
      9.33711790e-03 -7.86192156e-03 -8.67429655e-03 -9.61337984e-03
      8.40549171e-03 2.71027582e-03 4.17341525e-03 1.09471958e-02
      1.10942312e-02 1.53685017e-02 -9.24239575e-04 1.35530252e-02
      1.71699934e-03 3.00938562e-02 1.84462052e-02 3.35978484e-03
      1.63678231e-03 -2.48104305e-04 -6.31060265e-03 -9.66186821e-03
      -1.62481349e-02 5.74341929e-03 1.51318898e-02 6.77522318e-03
      2.45888215e-02 2.91315448e-02 -3.18494369e-03 -4.98323282e-03
      -1.08864289e-02 2.31742556e-03 4.96793480e-04 1.55192465e-02
      -2.80515961e-02 -6.55585201e-03 9.43678059e-03 1.48197683e-02
      1.12005658e-02 5.07374387e-03 7.58175319e-03 -3.05517064e-03
      -3.28459824e-03 -2.06083991e-02 6.59112819e-04 5.50907664e-03
      1.81783084e-02 1.06556648e-02 2.60305475e-03 4.19261260e-03
      7.57321017e-03 -1.91702071e-04 1.10341944e-02 2.00510323e-02
      2.81863101e-02 2.06990559e-02 -9.65110958e-03 -1.67678315e-02
      -1.27761578e-02 -1.81564875e-02 -1.06542325e-02 1.72423042e-05
      4.36050911e-03 2.72655580e-02 3.39267775e-02 2.98539503e-03
      -1.05304215e-02 -7.19914725e-03 3.31925228e-03 -8.65904335e-03
      2.25374257e-04 3.74666089e-03 -1.44196572e-02 3.15666059e-03
      -2.89913788e-02 -2.69024563e-03 6.97831670e-03 1.46017987e-02
      1.06008805e-03 -1.70905851e-02 -2.58274633e-03 5.62454481e-03
      -8.94829631e-03 -3.22398134e-02 1.61103923e-02 2.14771107e-02
      2.45479569e-02 -1.15395728e-02 -1.18966633e-03 -1.16865011e-02
      7.06115318e-03 2.68080570e-02 -2.34473906e-02 -3.81881837e-04
      -5.02185384e-03 1.94616709e-02 7.62507506e-03 5.09376591e-03
      3.21858120e-03 1.14618288e-02 -7.63080269e-03 -1.87823623e-02
      1.42168310e-02 9.10170935e-03 2.29740795e-02 -1.33445224e-04
      9.75377043e-05 5.09418407e-03 1.17727148e-03 1.79083622e-03
      -3.08044143e-02 1.03534702e-02 3.70730609e-02 2.13189125e-02
      7.34265102e-03 1.55936955e-02 5.02967229e-03 -2.19638878e-03
      -2.86954790e-02 -2.42899228e-02 1.47138676e-02 4.89328206e-02
      3.83518748e-02 2.98895203e-02 3.30755999e-03 8.73954035e-03
      9.36252996e-03 -6.36204751e-03 -3.19902860e-02 -8.94182734e-03
      2.26033274e-02 1.91688836e-02 2.47214697e-02 1.79771241e-02
      3.43767507e-03 8.50076135e-03 -2.41109543e-02 -1.61657128e-02
      -2.27033999e-03 3.16340104e-02 2.45041754e-02 1.66155733e-02
      1.20651107e-02 3.08296122e-02 1.58443227e-02 -9.86981578e-03
      -3.55154350e-02 -1.94317084e-02 1.24584483e-02 2.98910122e-02
      3.44502404e-02 6.88866014e-03 4.55892533e-02 3.45352739e-02
      -6.04323205e-03 -4.12923805e-02 -3.08585316e-02 -4.84043267e-03
      2.68546641e-02 1.80910397e-02 2.15288438e-02 2.79588196e-02
      5.53256180e-03 -1.17214620e-02 -4.24394831e-02 -1.73542779e-02
      2.70819943e-03 2.17467938e-02 3.58419605e-02 2.19847802e-02
      4.59623747e-02 2.94905752e-02 -2.93438714e-02 -3.41718979e-02
      -3.26590575e-02 -1.83374592e-04 3.39804776e-02 2.99371835e-02
      5.83449518e-03 2.93589178e-02 5.11465333e-02 3.51097733e-02
      5.97772747e-03 -6.29159575e-03 2.67048739e-03 1.48924990e-02
      -1.64363615e-03 1.86794065e-02 1.62973441e-02 -9.68954992e-03
      -6.71035331e-03 9.05506685e-03 5.35483332e-03 1.01637924e-02
      4.36247326e-03 3.56963906e-03 1.28067499e-02 4.45882380e-02
      3.37118916e-02 4.45107510e-03 -1.29921455e-02 -1.61845796e-02
      -1.35448470e-03 2.64633112e-02 6.37945067e-03 3.52929644e-02
      4.27808687e-02 -2.09752358e-02 -2.79537085e-02 -1.59205347e-02
      -1.88215505e-02 -7.76885403e-03 7.84380920e-03 7.81282503e-03
      1.43336887e-02 1.05405925e-02 -2.50365306e-02 -1.04278221e-03
      2.68687904e-02 1.80073511e-02 8.23602825e-03 1.11022647e-02
      -1.29589383e-02 1.55781889e-02 -7.98892637e-04 -1.18542388e-02
      1.94420125e-02 4.09922600e-02 2.66893227e-02 5.81325311e-03
      -1.26477182e-02 -7.89556932e-03 3.19770649e-02 2.64979787e-02
      -3.33581790e-02 -2.03661323e-02 -1.68850441e-02 -6.51930412e-03
      -1.46372942e-02 2.25290703e-03 1.04803555e-02 2.21561156e-02
      -1.76670682e-02 -1.55215245e-02 2.34679673e-02 4.71216254e-03
      2.29534023e-02 -2.01709904e-02 -2.74738055e-02 -9.41467844e-03
      1.00572333e-02 -2.68708379e-03 -2.57949461e-03 -8.59072898e-03
      1.17712026e-03 -3.85558000e-03 7.27305887e-03 -1.18531249e-02
      -2.42540520e-03 -5.45256119e-03 3.60516203e-03 -8.83179810e-03
      -9.49645042e-03 7.21100392e-03 7.64734112e-03 4.37201560e-03
      1.07128844e-02 -4.78995359e-03 1.13900211e-02 -1.23836976e-02
      -1.08809007e-04 -2.90864776e-03 7.25717237e-03 -2.91950908e-03
      -1.20601365e-02 -1.86053663e-02 -2.86014285e-03 2.22067302e-03
      -1.06714154e-02 -1.56060075e-02 -7.11569050e-03 1.19950287e-02
      8.30027647e-03 -6.76382426e-03 2.22535525e-03 -9.19819903e-03
      -2.63138860e-03 4.32768231e-03 -1.31593663e-02 1.03553015e-04
      2.41797287e-02 1.46525307e-02 -1.16808591e-02 4.08121012e-03
      -9.00449418e-03 2.91986242e-02 7.52268825e-03 -8.64503160e-03
      1.30756374e-03 -3.16597219e-03 -8.61535035e-03 -8.33848491e-03
      -7.68617401e-03 2.11636163e-02 -8.06087255e-03 -2.44282908e-03
      -1.04512693e-02 5.04821306e-03 2.03077234e-02 8.44610576e-03
      -4.93233884e-03 1.03219310e-02 -7.43408035e-03 2.01871283e-02
      7.60391587e-03 -9.02797934e-03 3.82705661e-03 1.68664120e-02
      -2.22275071e-02 8.37344117e-03 -5.64663578e-03 -5.73024247e-03
      1.15766302e-02 -1.13509325e-02 -1.21470951e-02 -6.33862219e-04
      -9.97349434e-03 -1.38427895e-02 -6.51818095e-03 -6.97888609e-05
      1.40996370e-02 -4.87998081e-03 -1.26046804e-03 3.29925604e-02
      -1.54783658e-03 -1.65898409e-02 -1.04448842e-02 3.70103796e-03
      -1.04892836e-03 -1.82390283e-03 8.46955553e-03 -1.54984917e-03
      -9.75198857e-03 6.05248753e-03 3.29922908e-03 -7.50749977e-03
      8.74385051e-03 -8.12408514e-03 -3.44208605e-03 -1.15086501e-02
      -3.53728328e-03 3.04262787e-02 6.67547807e-03 4.07995423e-03
      -2.37284997e-03 1.42442051e-03 1.02952123e-02 1.40674924e-02
      1.55862235e-02 1.18741645e-02 2.70907562e-02 1.68423168e-02
      -1.93821155e-02 -3.06151509e-02 -1.28271775e-02 -1.88477412e-02
      6.05530431e-03 5.62160276e-03 -2.81624612e-03 2.04508137e-02
      2.19497755e-02 -6.49092952e-03 -2.34982092e-02 -1.94967929e-02
      -6.48101885e-03 8.77910666e-03 1.72857603e-03 -6.68470562e-03
      1.66894905e-02 2.55895546e-03 -1.55614158e-02 -2.44498774e-02
      -6.90160831e-03 5.86637156e-03 1.70121510e-02 -5.67114213e-03
      -1.96965653e-02 -1.13004437e-02 1.19820144e-02 1.83762088e-02
      -6.07105996e-03 -4.02720645e-03 1.08425822e-02 1.18266018e-02
      -6.88166590e-03 -1.36927236e-02 7.18690315e-03 1.78921334e-02
      -2.69563589e-02 -8.95302463e-03 -1.65323559e-02 2.56856880e-03
      5.36508672e-03 -4.84129274e-03 3.32697737e-03 9.44305491e-03
      1.32897524e-02 -1.52877700e-02 -3.22531065e-04 -2.51244218e-03
      3.93833546e-03 1.24485500e-03 -3.47193680e-03 -2.77028605e-03
      -5.43935271e-03 1.48043139e-02 -7.18758616e-04 -7.77992466e-03
      -4.92189778e-03 2.89049279e-03 3.08692479e-03 3.53817083e-03
      8.08795728e-03 1.20550822e-02 2.73087099e-02 1.04004983e-02
      1.57815055e-03 1.17152883e-02 5.78153785e-03 4.34971089e-03</_></support_vectors>
  <decision_functions>
    <_>
      <sv_count>1</sv_count>
      <rho>2.1891167290620395e+00</rho>
      <alpha>
        1.</alpha>
      <index>
        0</index></_></decision_functions></my_svm>
</opencv_storage>
