<?xml version="1.0"?>
<opencv_storage>
<my_svm type_id="opencv-ml-svm">
  <svm_type>C_SVC</svm_type>
  <kernel><type>LINEAR</type></kernel>
  <C>1.0000000000000001e-01</C>
  <term_criteria><epsilon>1.1920928955078125e-07</epsilon>
    <iterations>1000</iterations></term_criteria>
  <var_all>2916</var_all>
  <var_count>2916</var_count>
  <class_count>2</class_count>
  <class_labels type_id="opencv-matrix">
    <rows>1</rows>
    <cols>2</cols>
    <dt>i</dt>
    <data>
      1 2</data></class_labels>
  <sv_total>1</sv_total>
  <support_vectors>
    <_>
      9.72833019e-04 3.78009304e-03 -5.56540117e-03 1.34689659e-02
      1.01542170e-03 -2.48476956e-02 -4.55405796e-04 1.48344021e-02
      1.24042900e-02 1.07689535e-04 5.36648324e-03 -6.25031861e-03
      2.28479076e-02 1.12294070e-02 -2.33650510e-03 1.08348373e-02
      8.04996956e-03 2.94060968e-02 1.25357620e-02 6.19735382e-03
      5.29315881e-03 2.55566407e-02 -1.47474073e-02 -1.59869120e-02
      -1.45179396e-02 9.07659624e-03 1.98400673e-02 2.29366459e-02
      1.91173404e-02 2.12011561e-02 3.33367139e-02 -2.90998037e-06
      1.38375923e-04 -6.53901696e-03 -2.66608689e-03 2.80419476e-02
      3.75617575e-03 -4.28101281e-03 -7.07695214e-03 1.43424869e-02
      -7.76280602e-03 -9.40233003e-04 -6.49779430e-03 -1.97282676e-02
      1.16715115e-02 1.51467761e-02 7.08822440e-03 -2.61406135e-03
      3.51634920e-02 2.14015674e-02 -4.73287608e-03 -1.17721623e-02
      -3.08394823e-02 1.73863675e-02 2.92516723e-02 8.69604014e-03
      1.72595307e-03 6.74204854e-03 -3.23068760e-02 1.20019047e-02
      -2.39257086e-02 -1.89508833e-02 2.01194659e-02 2.97391601e-02
      2.25376673e-02 1.36600845e-02 4.49190848e-02 2.15826314e-02
      3.05869095e-02 1.43788951e-02 -2.08048709e-02 1.70650631e-02
      7.65884249e-03 -6.96912827e-03 -4.98919701e-03 9.99921095e-03
      5.26508503e-03 -2.40140315e-02 7.84342363e-03 1.47217503e-02
      9.31678369e-06 1.80031098e-02 -5.71535947e-03 -1.23541644e-02
      5.65631548e-03 -1.31942453e-02 -3.91399227e-02 2.77216011e-03
      4.03113477e-02 2.12139264e-02 3.31618525e-02 2.36882549e-02
      9.78558231e-03 1.84807777e-02 -1.59685488e-03 5.68195852e-03
      1.10028116e-02 1.86120849e-02 9.69498791e-03 5.33992350e-02
      1.77328233e-02 4.98901308e-03 -6.76918961e-03 -2.27488503e-02
      -3.63058038e-02 2.63491366e-02 6.75162449e-02 5.36922775e-02
      -1.63967535e-02 -4.33324371e-03 -2.21905648e-03 2.14144401e-02
      1.07195005e-02 -2.74557453e-02 3.53084807e-03 2.31390018e-02
      3.04961763e-03 -2.77444813e-02 -3.47012728e-02 -1.27354907e-02
      1.15845324e-02 1.92486048e-02 -7.71197816e-03 2.09064353e-02
      3.21827978e-02 6.00274616e-05 1.47091988e-02 -6.12394419e-03
      -1.48486334e-03 1.06246714e-02 -1.87193174e-02 -2.64994353e-02
      3.31555828e-02 5.04378751e-02 6.62112683e-02 -5.79221174e-04
      -1.55101856e-02 -4.60057333e-03 2.14064727e-03 -1.39143839e-02
      -4.25723428e-03 9.36539378e-03 6.75998107e-02 4.80626486e-02
      -2.42447592e-02 -4.23257146e-03 2.64995196e-03 3.33927630e-04
      1.95261706e-02 -3.45652294e-03 1.65564045e-02 2.63180863e-02
      7.24749686e-03 -1.08263530e-02 1.03146909e-02 1.48032643e-02
      1.89823452e-02 5.59775438e-03 -2.53320243e-02 -7.95240141e-03
      2.46142820e-02 4.60405694e-03 5.21458162e-04 9.18167364e-03
      1.80516299e-02 4.05060826e-03 -5.43299830e-04 6.89480081e-03
      -1.56442057e-02 2.33802479e-02 3.42706628e-02 1.00760534e-02
      1.10291308e-02 2.33013593e-02 8.12486932e-03 -5.72671299e-04
      -4.05906653e-03 -1.89852901e-02 1.69323962e-02 2.74176523e-02
      6.47119107e-03 -4.50578053e-03 1.98060352e-05 1.13814455e-02
      1.79173499e-02 -1.45790065e-02 -5.20868273e-03 1.59632638e-02
      1.79668739e-02 9.90767591e-03 -3.55482381e-03 4.20653122e-03
      1.05148582e-02 2.65385881e-02 -6.55569928e-03 -9.45821963e-03
      7.38011813e-03 2.24520732e-02 5.24556870e-03 -1.06503014e-02
      -2.77167442e-03 8.39398708e-03 1.95942335e-02 -1.83378090e-03
      -2.49869400e-03 2.05723569e-02 2.03582067e-02 9.74373892e-03
      -2.30945200e-02 -1.55823855e-02 1.70353595e-02 2.25326028e-02
      1.73382498e-02 -5.45182778e-03 6.87596202e-03 6.70181122e-03
      1.56943761e-02 1.13221528e-02 5.86376246e-03 1.81892402e-02
      2.90786009e-02 -1.53979706e-02 1.92123849e-03 5.90140279e-03
      1.75356015e-03 2.87411804e-03 1.07374191e-02 -8.32890440e-03
      2.05945373e-02 2.92335171e-02 -1.70725416e-02 -1.97538524e-03
      3.30863670e-02 2.20646895e-02 2.24406850e-02 -1.72340963e-02
      -5.41694742e-03 2.92894598e-02 1.99113414e-03 5.20120282e-03
      -4.56282124e-03 7.33906217e-03 1.80072486e-02 -1.07172038e-02
      -3.65961678e-02 -1.92707740e-02 2.71818638e-02 1.55647164e-02
      1.07450392e-02 -1.81342111e-04 4.01773080e-02 2.43901704e-02
      -7.75577361e-03 -5.26732160e-03 -1.98431257e-02 -1.28441546e-02
      2.19670404e-02 -4.86359047e-03 1.33618433e-03 6.74674613e-03
      3.17967758e-02 -2.82730395e-03 -6.02006121e-03 5.04867826e-03
      -8.42242222e-03 1.87708996e-02 -2.62595387e-03 1.17153060e-02
      8.54132976e-03 7.54068745e-03 -9.66497976e-03 -3.62683423e-02
      -1.41272899e-02 -1.18006777e-03 1.64816286e-02 1.24287866e-02
      1.31786289e-02 3.90499607e-02 3.01827062e-02 1.98618043e-02
      1.11555168e-02 -3.60805984e-03 1.13195162e-02 1.02142496e-02
      2.92448532e-02 1.09675024e-02 1.95818450e-02 3.36625390e-02
      2.81794160e-03 1.58625916e-02 2.54239123e-02 1.29619171e-03
      1.24206664e-02 -8.77586007e-03 5.16419625e-03 -7.40447454e-03
      6.36411060e-05 4.91343904e-03 1.29039492e-02 3.90850492e-02
      3.34450416e-02 3.19430828e-02 -4.42185148e-04 3.42473909e-02
      1.18247385e-03 -1.49131268e-02 1.84752271e-02 2.49094833e-02
      1.88686289e-02 2.03920640e-02 -8.54199287e-03 7.61511829e-03
      8.55969265e-03 2.32390431e-03 4.38085431e-03 5.82036516e-03
      3.87386628e-03 2.53287684e-02 3.20088267e-02 -3.27087454e-02
      1.05852727e-02 3.98557112e-02 3.28080282e-02 8.17222812e-04
      2.08206126e-03 -5.57214115e-03 3.70644010e-03 1.28929159e-02
      -1.72478962e-03 -5.22995542e-04 -1.42101590e-02 -1.43975194e-03
      8.94790702e-03 1.04492297e-02 1.54403935e-03 6.61717216e-03
      1.91820301e-02 9.65205859e-03 2.42838431e-02 2.75974511e-03
      -4.81642224e-03 2.42983177e-03 -5.87432692e-03 -1.29243359e-02
      -3.19290627e-03 -1.07955076e-02 2.81497948e-02 3.36204730e-02
      1.20423296e-02 8.08330067e-03 3.65439220e-03 -3.11522186e-03
      2.30645342e-03 6.95420289e-03 -7.20449723e-03 1.37432525e-02
      5.67218661e-02 1.42499665e-02 -7.47620407e-03 -1.22396043e-02
      4.92993044e-03 1.67504838e-03 -8.20022915e-03 -7.45779788e-03
      -1.91644244e-02 1.60597432e-02 -1.07020047e-02 -1.77603494e-02
      2.54225545e-03 2.38724402e-04 1.48894330e-02 1.28278788e-02
      7.09566521e-03 2.43011788e-02 3.39520276e-02 9.56238899e-03
      -1.01164926e-03 -1.46212410e-02 -1.62068810e-02 2.41413079e-02
      -5.11022750e-03 -6.05807826e-03 -4.90697101e-03 1.33222602e-02
      4.41013742e-03 -1.18982922e-02 -4.18708697e-02 -7.87989609e-03
      1.00614289e-02 2.17425246e-02 2.88153719e-02 3.99775133e-02
      3.33480462e-02 4.36794711e-03 4.50935028e-03 -2.37924531e-02
      4.62778937e-03 9.82437469e-03 4.62020980e-03 8.24950449e-03
      -1.36350421e-02 6.09326549e-03 1.08147105e-02 1.49927652e-02
      -1.27395960e-02 3.15632485e-02 3.05226236e-03 7.11537246e-03
      3.17400694e-03 -1.70902051e-02 -2.06735767e-02 7.73639232e-03
      5.20705059e-02 3.30680646e-02 -2.23106332e-02 -5.16086677e-03
      1.32900048e-02 1.52038028e-02 1.78623740e-02 3.96035723e-02
      -2.44857301e-03 -4.64704307e-03 -1.71791725e-02 7.38798454e-03
      1.32772624e-02 2.61437465e-02 2.41783615e-02 1.33051462e-02
      2.96597332e-02 1.26114590e-02 3.24395932e-02 2.02527028e-02
      -7.97263347e-03 -5.16742701e-03 -1.60388704e-02 -1.15910974e-04
      -1.74901411e-02 -2.93527972e-02 1.49533181e-02 6.95040375e-02
      4.12865058e-02 -4.52527107e-04 -8.30911449e-04 -1.88941881e-02
      -1.34099927e-03 -4.09588218e-02 -3.74936908e-02 -5.36155654e-03
      5.53511269e-02 4.20611389e-02 -2.88038934e-03 3.48411687e-03
      -1.55687211e-02 -1.16307965e-04 -1.22691123e-02 -2.13655457e-02
      3.12356334e-02 7.15103224e-02 5.42284548e-02 1.25049045e-02
      9.09022856e-05 -2.00190712e-02 -1.99418981e-03 -3.92241254e-02
      -3.30739506e-02 3.18456180e-02 7.75837004e-02 4.61383462e-02
      -1.51503775e-02 1.06101157e-02 -2.88122846e-03 -1.61025615e-03
      -1.12528056e-02 -7.60192238e-03 -1.42868534e-02 2.03211010e-02
      2.85671838e-02 -2.28264611e-02 -1.15530873e-02 3.94098181e-03
      -9.78421303e-04 -8.83125525e-04 -3.72013380e-03 -1.40057383e-02
      1.79270096e-02 6.61009504e-03 6.19712472e-03 4.71945805e-03
      -1.13565437e-02 -2.90822028e-03 -9.70085897e-03 -1.03393868e-02
      2.02442706e-02 6.09018393e-02 5.28336987e-02 1.03403032e-02
      -3.99937201e-03 4.37032140e-05 -1.84118915e-02 -1.64077636e-02
      -1.70960766e-03 2.50753146e-02 4.93354537e-02 3.38180922e-02
      -1.07779987e-02 -1.56146241e-02 -3.21733486e-03 2.90627382e-03
      7.13953096e-03 4.15578805e-04 -1.24459965e-02 1.32019641e-02
      3.79455741e-03 -1.83455069e-02 -2.72814743e-02 -2.14890391e-02
      4.95724333e-03 1.40006728e-02 2.50987746e-02 -6.55893190e-03
      -9.35604621e-04 -1.91625785e-02 6.58199517e-03 9.88382660e-03
      -3.92041076e-03 -1.41125629e-02 -1.08073968e-02 3.25731933e-02
      1.68421920e-02 5.67119494e-02 3.55892926e-02 -1.05734207e-02
      1.96861359e-03 -2.95548961e-02 -5.76399686e-03 -1.58459914e-03
      4.23237085e-02 1.20460941e-02 5.54644801e-02 3.47094350e-02
      -1.21579617e-02 -1.84112098e-02 -1.27265304e-02 7.27354549e-03
      -9.76270996e-04 1.19739887e-03 -2.73996545e-03 7.78386928e-03
      3.26333800e-03 -3.33610848e-02 -4.06765752e-02 -2.22268351e-03
      9.03515518e-03 9.56409425e-03 -4.10150643e-03 4.12744517e-03
      1.02506001e-02 2.45630909e-02 4.17036377e-03 5.29271644e-03
      -2.15929421e-03 7.50932237e-03 -4.15509520e-03 -4.51228721e-03
      4.91770171e-03 4.10980396e-02 3.28128636e-02 1.41363051e-02
      6.40601676e-04 7.77621241e-03 -3.99864186e-03 4.73209005e-03
      -5.42950304e-03 -3.29708192e-03 4.32479419e-02 3.83227579e-02
      -3.43971737e-02 -4.53434847e-02 -2.29785424e-02 -5.25728008e-03
      1.89535115e-02 1.18212178e-02 4.56999196e-03 -5.84465126e-03
      8.47297721e-03 -7.24181253e-03 -2.49563921e-02 -2.05907822e-02
      -8.42641294e-03 2.03620959e-02 2.56568603e-02 4.52323072e-03
      -5.60695131e-04 1.05310567e-02 -1.17864823e-02 5.84123598e-04
      -1.08891027e-02 -2.39175721e-03 2.75141206e-02 1.04849078e-02
      6.15771685e-04 4.28751633e-02 2.65381299e-02 1.74454302e-02
      1.47323152e-02 4.70964797e-03 6.36684522e-03 2.57528219e-02
      2.03362796e-02 7.47015933e-03 4.01135050e-02 3.64041775e-02
      -2.34959391e-03 -2.47152080e-03 -1.17623229e-02 3.81328422e-03
      -7.84589734e-04 7.73678813e-03 1.08285313e-02 1.44868589e-03
      6.53985003e-03 4.27203951e-03 -1.09698670e-02 -3.67382192e-03
      -7.66282668e-03 -3.61282676e-02 1.94513588e-03 1.50160808e-02
      2.23311372e-02 1.59688517e-02 3.26918364e-02 5.35337767e-03
      -2.65096482e-02 -7.17081735e-03 -3.43347364e-03 8.87203641e-05
      3.15332189e-02 2.49275193e-02 2.49306485e-02 2.71222498e-02
      4.76746092e-04 -3.64338718e-02 -1.56774316e-02 -1.12326397e-02
      7.36388424e-03 4.05276231e-02 2.68570837e-02 4.67372164e-02
      -7.21559580e-03 -1.09320991e-02 -9.46396589e-03 -2.96835415e-02
      2.43554953e-02 1.32878302e-02 7.93156447e-04 2.74057640e-03
      1.37040054e-03 -8.55960138e-03 6.77214994e-04 1.62319187e-02
      -1.18856393e-02 9.53227933e-03 4.19339463e-02 6.87431823e-03
      -6.91538770e-03 -1.73914544e-02 8.95970594e-03 2.37757247e-03
      -6.65597012e-03 -2.82835923e-02 3.78588066e-02 5.67988493e-03
      -1.72428350e-04 6.50279224e-04 2.11998429e-02 1.48729468e-02
      2.13915631e-02 1.75286271e-02 2.08689682e-02 1.77816041e-02
      2.00134423e-02 -6.69367332e-03 -1.45336508e-03 -1.30297872e-03
      -5.55697689e-03 1.67184025e-02 -3.39234457e-03 4.74984525e-04
      -6.37695985e-03 1.25551531e-02 -1.17290765e-03 -1.91347543e-02
      -3.97448204e-02 -6.77462528e-03 8.28761980e-03 2.04637051e-02
      1.15233120e-02 2.78545376e-02 4.07405980e-02 3.68325110e-03
      -1.53039154e-02 -3.62280086e-02 3.91753638e-05 1.15973894e-02
      1.69441868e-02 1.29103959e-02 7.16127595e-03 1.05092535e-02
      -1.02047166e-02 -1.80991814e-02 -3.00468523e-02 -1.16288094e-02
      9.13452008e-04 -1.46863572e-02 1.39124729e-02 3.30430083e-02
      2.76305713e-02 2.34686658e-02 -2.63010561e-02 -2.99970675e-02
      -1.93605181e-02 -1.08855199e-02 8.36380757e-03 1.78895313e-02
      1.89513899e-02 2.52854954e-02 1.29044068e-03 -1.30211376e-02
      -1.90238692e-02 -1.43763879e-02 4.03446937e-03 2.44268961e-02
      2.86617950e-02 2.04597209e-02 1.86313409e-02 4.31856979e-03
      2.89627127e-02 -7.45430356e-03 -9.04783048e-03 -1.14733782e-02
      -3.66523978e-03 3.70228570e-03 3.91121162e-03 2.95163151e-02
      1.52305719e-02 -7.24642770e-03 -3.21428701e-02 1.57535064e-03
      1.25983555e-03 4.04344872e-03 9.83875478e-04 8.07494973e-04
      2.16126605e-03 3.14344205e-02 3.04980166e-02 1.11912526e-02
      -8.73699784e-03 1.84851221e-03 -6.96050096e-03 -5.79792322e-05
      -6.93377294e-03 -1.45976106e-02 1.78278945e-02 5.35779558e-02
      2.80514304e-02 -3.72043531e-03 -9.21056326e-03 -1.36273783e-02
      4.02024394e-04 -1.88722368e-02 -5.65197179e-03 3.24104503e-02
      5.99450134e-02 2.54854355e-02 -5.71337703e-04 -2.44149212e-02
      -1.97139475e-03 -4.82916366e-03 -1.43967485e-02 -1.26660690e-02
      2.27500405e-02 2.79861446e-02 2.34537888e-02 1.80821633e-03
      -2.14173924e-02 -1.30355917e-02 -1.93045370e-03 -5.67009160e-03
      -1.64061841e-02 1.12104714e-02 3.94180901e-02 2.50049774e-02
      -9.01621487e-03 -7.88098108e-03 -1.02136815e-02 -7.14943511e-03
      -7.04477401e-03 -2.72916188e-03 7.37236952e-03 5.37167713e-02
      1.27402060e-02 -8.34080484e-03 -5.68977557e-03 -3.94863077e-03
      -1.84178445e-02 -2.16522738e-02 -2.94293812e-03 6.82561193e-03
      4.56311330e-02 1.61541179e-02 -4.55812970e-03 7.61600910e-03
      -1.17504940e-04 -1.34105934e-02 -4.89236042e-03 2.53165024e-03
      4.37270105e-03 4.10943218e-02 3.25000915e-03 2.01636329e-02
      -2.79331929e-04 -7.90832285e-03 -1.78053379e-02 -1.19759860e-02
      -7.51819648e-03 2.50936428e-04 3.30789089e-02 1.13069462e-02
      -2.19831765e-02 -5.55000314e-03 -3.09650227e-03 -1.18442364e-02
      -9.54176765e-03 1.71858445e-02 -2.44997186e-03 4.25235666e-02
      1.32182492e-02 -3.11236884e-02 -1.52159445e-02 -2.81220768e-02
      -1.21919224e-02 -1.99129693e-02 2.45830622e-02 1.36697814e-02
      4.15645204e-02 6.15527527e-03 -1.87457483e-02 -1.41165657e-02
      -8.99157021e-03 -1.23670641e-02 -1.67105738e-02 1.81546656e-03
      1.87051129e-02 5.37774302e-02 2.72180922e-02 -4.12919633e-02
      -4.09172028e-02 -2.31893174e-02 -1.49154216e-02 -2.02041380e-02
      3.78597644e-03 1.93272829e-02 5.03042117e-02 3.06105781e-02
      -3.10074706e-02 -2.05100179e-02 -1.13805812e-02 -2.50260509e-03
      -1.24374535e-02 -2.54940172e-03 7.31891021e-04 2.36164033e-02
      1.33758280e-02 -1.13160554e-02 -3.28506250e-03 1.49287062e-03
      -9.24031343e-03 -1.21059464e-02 -9.94169619e-03 2.38362537e-03
      2.80748736e-02 7.67300790e-03 -1.78838167e-02 -4.43317443e-02
      -1.45439403e-02 -2.25680671e-03 -1.10342707e-02 2.96329916e-03
      2.26850472e-02 5.22163510e-02 4.85873222e-02 1.01140654e-02
      -1.38922846e-02 2.00240850e-03 -5.99249499e-04 -8.57428741e-03
      -7.60902418e-03 1.82835236e-02 3.47014889e-02 2.47188117e-02
      -2.44095698e-02 8.97226483e-03 -2.47524958e-03 -6.98008435e-03
      2.92084529e-04 -1.03722094e-02 1.41520379e-03 1.56394374e-02
      -8.75967182e-03 -1.35277053e-02 1.87608376e-02 -5.58636943e-03
      -8.04528221e-03 7.02310121e-04 -1.07710948e-02 3.02600721e-03
      2.73837429e-03 -4.74440306e-03 2.34884620e-02 4.65426631e-02
      6.36189803e-03 -5.30630723e-03 -1.63862240e-02 3.68436775e-03
      5.58687653e-03 -8.32865655e-04 1.47596011e-02 3.82744782e-02
      4.63726446e-02 1.23889400e-02 -5.34768729e-03 -1.15629025e-02
      -3.05668171e-03 -3.05280928e-03 -2.61243880e-02 7.55105913e-03
      3.46437749e-03 -5.09797072e-04 -2.29163915e-02 -8.73719621e-03
      -3.07603995e-03 -9.40028671e-03 1.77774820e-02 3.39060993e-04
      -1.11027835e-02 1.11402972e-02 1.18964096e-03 -3.48988622e-02
      -2.55117193e-02 7.15103606e-03 4.44467971e-03 2.53728908e-02
      -3.12619028e-03 2.65093031e-03 2.45553236e-02 2.19470635e-02
      -4.53930441e-03 -5.75688761e-03 1.56533606e-02 5.14046289e-03
      1.76483579e-02 -1.61409974e-02 -3.27590154e-03 1.26897385e-02
      1.32678403e-02 -2.47477051e-02 -3.55411996e-03 2.58220900e-02
      5.52717876e-03 1.49353575e-02 1.18058436e-02 7.75372097e-03
      8.96370038e-03 -7.22323870e-03 -1.01484836e-03 -2.44809389e-02
      3.21084857e-02 6.60805451e-03 -1.00946128e-02 -1.16601009e-02
      9.22325160e-03 7.05408957e-03 1.75024439e-02 1.56839434e-02
      1.28975483e-02 2.72429716e-02 1.80966891e-02 3.81860277e-03
      -6.70346338e-03 -4.05887561e-03 1.06443595e-02 -4.74310061e-03
      -2.32562609e-02 -3.73338424e-02 3.11679803e-02 2.68578194e-02
      1.02186762e-03 -1.18348384e-02 -1.31982472e-03 -1.25817750e-02
      1.68953557e-02 -9.68812313e-03 1.38466889e-02 2.71553844e-02
      1.76533144e-02 2.36725863e-02 4.72301384e-03 -1.42884338e-02
      -1.89194195e-02 1.37187885e-02 1.53399743e-02 9.67195258e-03
      3.26196733e-03 1.45100858e-02 -1.00613730e-02 -2.78885942e-03
      -1.85286961e-02 -1.32648945e-02 5.93516685e-04 -1.84807982e-02
      1.86613798e-02 1.48158297e-02 2.54743155e-02 3.87029275e-02
      9.85387433e-03 -4.72723274e-03 -1.33947944e-02 1.57515761e-02
      -1.33213121e-03 -4.48005646e-03 -9.73597262e-03 -8.45254690e-04
      -2.71223835e-03 6.57787221e-03 -1.36588654e-02 1.18432464e-02
      2.43609166e-03 -1.82696395e-02 -1.18110813e-02 -1.44176055e-02
      2.13436224e-02 1.47204492e-02 3.71454433e-02 2.01977212e-02
      -3.39230499e-03 -1.67137235e-02 -1.28876641e-02 -1.33235315e-02
      -7.25594210e-03 1.41816642e-02 2.47073080e-02 -8.25979747e-04
      -2.68061347e-02 3.79216969e-02 -2.11925786e-02 -3.02002940e-04
      -1.64012033e-02 -1.29415337e-02 8.18226486e-03 3.14556919e-02
      1.39862457e-02 3.11255828e-02 1.63842421e-02 -2.52290834e-02
      -2.05993149e-02 -2.14763526e-02 -1.96659435e-02 2.33638310e-03
      1.87310688e-02 1.65513100e-03 1.01013919e-02 4.39742990e-02
      -1.42947379e-02 7.39061681e-04 -1.64537560e-02 -1.99098084e-02
      3.22694727e-03 1.18940044e-02 -5.16424561e-03 2.00058650e-02
      -1.78634003e-03 -2.73150057e-02 -1.38716660e-02 -1.65557824e-02
      -2.60552503e-02 -1.32107921e-02 1.21318307e-02 2.49172747e-02
      4.40368280e-02 1.66908244e-03 -1.52793769e-02 -5.39653329e-03
      -1.63872074e-02 -2.27114931e-02 -3.12456507e-02 -1.63963232e-02
      3.24982032e-02 5.19754849e-02 1.56686213e-02 -2.03267056e-02
      -1.97026357e-02 -2.73015182e-02 -1.55232726e-02 6.94825687e-03
      1.39491474e-02 2.29446832e-02 3.34938839e-02 -1.26620485e-02
      -1.95678007e-02 -9.64060053e-03 -1.49182798e-02 -1.60943568e-02
      -9.18307342e-03 9.51477606e-03 3.37065533e-02 4.23412435e-02
      -8.95187538e-03 7.47933844e-03 5.99984545e-03 -4.94499598e-03
      -7.46993022e-03 -1.00206528e-02 -1.46930786e-02 2.28046142e-02
      9.82354674e-03 1.46898758e-02 -4.14111419e-03 -4.91789915e-03
      -4.91011655e-03 -8.54498800e-03 -9.62200947e-03 -9.77690797e-03
      2.27031019e-02 4.98453062e-03 -2.71992292e-03 1.65197853e-04
      1.88205813e-04 1.41398853e-03 9.70258284e-03 -7.97884446e-03
      3.05352528e-02 2.85516493e-02 -3.96787764e-05 -1.48882961e-03
      2.85129598e-03 -4.33278270e-04 1.54855615e-02 3.78091149e-02
      7.24006817e-03 1.62782539e-02 1.33692119e-02 -4.58632037e-03
      2.99213873e-03 -8.62962939e-03 -2.75438488e-03 -5.07277437e-03
      -1.09046111e-02 -6.96941605e-03 4.59190272e-03 4.54629548e-02
      3.13250422e-02 -9.56306141e-03 -2.37362105e-02 -1.66511238e-02
      -1.75408572e-02 -1.12918401e-02 -3.26457270e-03 1.92653816e-02
      3.95733118e-02 2.60081142e-02 -4.51097934e-04 1.15942641e-03
      1.24698561e-02 7.88151659e-03 1.02847563e-02 -5.46568306e-03
      1.33025376e-02 1.37896352e-02 -6.52170414e-03 9.23399534e-03
      -9.69353691e-03 9.55953787e-04 -2.16847416e-02 -3.71871074e-03
      -1.47496583e-02 2.00692434e-02 1.78008992e-02 2.46133357e-02
      5.97120123e-03 -3.09022274e-02 -1.65883955e-02 -6.52441243e-03
      -9.33864433e-03 -1.54446077e-03 2.14100275e-02 4.73780297e-02
      4.47851866e-02 1.70987826e-02 -1.79918818e-02 -1.33758190e-03
      3.97251453e-04 -8.94057378e-03 8.24438501e-03 1.91630311e-02
      3.69651429e-02 2.29439624e-02 -1.00243213e-02 -2.94020437e-02
      -2.59400290e-02 -2.27396637e-02 -1.23894662e-02 -2.23941617e-02
      2.52360497e-02 2.33694036e-02 2.25927550e-02 2.77649797e-02
      -1.86848268e-02 1.52225711e-03 6.03957148e-03 -1.15086995e-02
      1.99543289e-03 4.61025350e-03 2.24004239e-02 3.73421721e-02
      3.17868181e-02 2.89230570e-02 9.22258850e-03 -9.97700030e-04
      -1.26986932e-02 3.91701795e-03 -9.63924360e-03 -1.43451598e-02
      5.17412322e-03 3.76237556e-02 5.57885803e-02 -1.46249600e-03
      -1.00872694e-02 -1.52720464e-03 2.40080044e-04 -2.52051977e-03
      -3.91764566e-02 9.15766868e-04 2.48219632e-02 1.91047546e-02
      1.15344478e-02 1.70149412e-02 5.46615478e-03 -8.46240204e-03
      -7.20401108e-03 -1.98724587e-02 -2.45281551e-02 2.23815460e-02
      3.76771577e-02 -9.32445657e-03 1.53592639e-02 -3.08221526e-04
      -7.59391580e-03 -7.15143792e-03 -2.67746616e-02 -1.11441985e-02
      1.06899245e-02 1.69476960e-02 -1.98265947e-02 -4.46029613e-03
      1.13461064e-02 7.22101098e-03 -4.92561562e-03 -2.06107441e-02
      -1.13841780e-02 -7.03708408e-03 1.30693603e-03 -1.46328118e-02
      1.95475463e-02 2.57707518e-02 1.42698521e-02 3.65750771e-03
      9.45334265e-04 -7.12772971e-03 1.26935402e-02 2.27779970e-02
      -2.38543767e-02 2.31981631e-02 1.69752315e-02 -6.21488970e-03
      -2.65262537e-02 -1.65409297e-02 -2.33643278e-02 -1.77256893e-02
      1.44838309e-02 8.86026304e-03 5.25805689e-02 2.14184467e-02
      1.04841935e-02 -1.19832326e-02 -8.68356880e-03 -3.13858166e-02
      1.87946130e-02 4.80937678e-03 -1.56433266e-02 -2.62805056e-02
      2.20789164e-02 1.51468711e-02 2.93757999e-03 -5.54843980e-04
      -4.16388363e-03 7.94214546e-04 1.87140647e-02 -2.73646973e-02
      -4.77453135e-03 1.50111830e-02 1.56214635e-03 2.14865971e-02
      1.32689420e-02 -1.18169598e-02 2.61914097e-02 4.24849009e-03
      -1.07471924e-02 5.93714183e-03 1.21767875e-02 -7.77488481e-03
      4.10801824e-03 1.85179524e-02 1.55945809e-03 1.33685516e-02
      -6.08790107e-03 -1.43933054e-02 1.59245804e-02 -2.03616288e-03
      -1.07773198e-02 2.96293087e-02 2.98417006e-02 -1.01606711e-03
      7.41673983e-04 1.66593622e-02 -6.45230338e-03 -1.42542962e-02
      9.13674361e-04 -1.33902496e-02 7.09403167e-03 1.41826486e-02
      -5.18766092e-03 1.53785720e-02 1.88279673e-02 -1.44093400e-02
      -1.45567283e-02 1.39774650e-03 3.13788443e-03 5.94086573e-03
      3.57939489e-02 2.44461223e-02 -2.87241419e-03 1.78376772e-03
      -6.56099338e-03 -6.62425940e-04 1.22804020e-03 9.14389093e-04
      3.80818569e-03 7.05898460e-03 -5.63618448e-03 1.47257978e-02
      2.36940086e-02 -5.88831492e-03 9.30922863e-04 1.07663814e-02
      -1.25006875e-02 3.11651907e-04 8.93699937e-03 6.60023466e-03
      2.49523129e-02 -6.60309428e-03 -7.62758451e-03 -1.17967017e-02
      -8.08549765e-03 -4.87131678e-04 1.45281330e-02 7.33007211e-03
      1.79626588e-02 3.81273292e-02 -1.82430223e-02 3.14123440e-03
      1.88329373e-04 5.41839562e-03 -1.77005830e-03 8.56249779e-03
      -1.00537976e-02 1.78794079e-02 1.67534668e-02 -1.55677889e-02
      -7.35389162e-03 -1.37457801e-02 3.93634057e-03 2.28293426e-03
      3.11043207e-03 -1.05149439e-02 -1.43489633e-02 1.93967428e-02
      -8.00179783e-03 -3.01365100e-04 -3.93842719e-03 2.28067338e-02
      1.85094364e-02 4.34398977e-03 -1.05510373e-02 -1.97456265e-03
      -6.37840899e-03 -1.28912004e-02 -5.77282393e-03 -7.68121146e-03
      1.12195394e-03 2.03364566e-02 5.80542535e-03 5.38368057e-03
      1.22481436e-02 -2.24345531e-02 -6.47132425e-03 7.36982375e-03
      2.12390372e-03 1.53514091e-02 1.52261155e-02 3.14738564e-02
      2.01101489e-02 1.25756394e-02 -3.14277187e-02 -8.01901706e-03
      9.48764477e-03 7.45356595e-03 2.56173499e-02 9.64870863e-03
      -1.96776483e-02 -2.94455010e-02 -2.13844497e-02 -2.23170184e-02
      2.38913856e-02 3.61900888e-02 1.62192471e-02 2.47035157e-02
      1.59585122e-02 1.21175777e-02 -1.04308389e-02 -1.75515786e-02
      -2.35026143e-02 7.01710628e-03 3.43518867e-03 1.37728732e-02
      1.01001682e-02 6.40824484e-03 4.52948399e-02 2.66422667e-02
      -1.50661161e-02 -4.09339443e-02 -7.13283895e-03 1.50177768e-03
      2.00488530e-02 3.63783017e-02 3.35886776e-02 4.15269136e-02
      8.18329211e-03 -5.10183536e-02 -2.07306780e-02 1.90568212e-02
      2.96244882e-02 2.87943818e-02 -3.62103921e-03 1.75190791e-02
      3.57017554e-02 -1.56403389e-02 -4.81555238e-02 -5.09851985e-02
      -6.03761338e-03 9.20952391e-03 1.92767251e-02 3.38203199e-02
      4.36949581e-02 4.18497324e-02 -7.17768865e-03 -6.18550368e-02
      -4.62991325e-03 1.39135588e-02 2.32834239e-02 2.98425294e-02
      5.36321327e-02 3.69086377e-02 1.11769252e-02 -2.04695016e-03
      -3.22260447e-02 -1.03971269e-03 -8.66086967e-03 -1.78686669e-03
      5.07384248e-04 1.36901625e-02 -8.72643106e-03 6.96260482e-04
      4.54511057e-04 2.23455112e-03 -2.82031484e-02 -4.94239945e-03
      -3.50112142e-03 3.18300538e-02 6.33422062e-02 6.64554462e-02
      2.12483127e-02 -2.13321787e-03 -2.70378180e-02 1.16893109e-02
      4.71313775e-04 -1.50096454e-02 3.95231647e-03 1.06731402e-02
      7.69796874e-03 2.50462908e-03 -1.14760948e-02 2.29775701e-02
      -1.69171542e-02 -1.42423650e-02 -1.52645865e-02 -1.33810518e-02
      -5.77371428e-03 -1.26664583e-02 6.54191198e-03 1.68226045e-02
      -2.02404219e-03 2.78772172e-02 -4.58174944e-03 2.22179666e-02
      -3.79986392e-04 -6.91452157e-03 -3.67889041e-03 -1.02520315e-02
      8.91877513e-04 1.64270028e-02 3.82512920e-02 4.20547016e-02
      5.22153778e-03 -8.11514352e-03 -1.01648215e-02 -2.10473351e-02
      -1.72221046e-02 -2.42424831e-02 -1.28567975e-03 4.29068319e-02
      7.23601207e-02 6.27725571e-02 -2.31651887e-02 -1.28455246e-02
      -5.25218947e-03 -1.72326285e-02 -3.03358696e-02 -5.18517802e-04
      -3.22768767e-03 1.65893734e-02 1.64874382e-02 5.38467010e-03
      -6.13372400e-03 -1.15206400e-02 -3.95565014e-03 -9.68374871e-03
      -4.29824702e-02 1.83292627e-02 5.04676439e-02 3.27186659e-02
      2.57278923e-02 9.04817352e-05 -2.15153713e-02 -6.09372603e-03
      -6.44461345e-03 -2.98906025e-02 1.90534312e-02 5.85349463e-02
      4.03650478e-02 -1.67957786e-02 -1.97524987e-02 -7.57846516e-03
      -1.58921871e-02 5.34504093e-03 -2.98562143e-02 3.28296646e-02
      5.99576607e-02 6.61351830e-02 1.51484422e-02 -2.90726963e-02
      -2.28546597e-02 -2.76472755e-02 -4.42626001e-03 -2.39574388e-02
      1.27132293e-02 3.05511393e-02 -1.80474855e-03 3.22104730e-02
      1.32374344e-02 -6.27826061e-03 -1.65087301e-02 -1.33906109e-02
      -3.37699950e-02 -7.42489658e-03 1.58589538e-02 1.36504602e-02
      5.72805554e-02 2.26037987e-02 8.18176754e-03 -8.91315937e-03
      -1.30833667e-02 -4.04542461e-02 1.44437151e-02 3.20734344e-02
      3.54155377e-02 3.32049988e-02 3.81229725e-03 -1.61480177e-02
      -2.71180682e-02 -3.07929963e-02 -2.12594438e-02 -1.69263803e-03
      5.24955336e-03 4.91121225e-03 2.61526592e-02 2.41940245e-02
      1.52403731e-02 6.81109913e-03 -1.44850640e-02 -3.51238400e-02
      1.22832432e-02 -1.81872619e-03 -1.31184105e-02 2.20086481e-02
      -4.85728408e-04 -9.35111847e-03 7.80606642e-03 1.12270787e-02
      3.32425605e-03 1.49862301e-02 -2.58823065e-03 -7.27800280e-03
      2.59832796e-02 -3.18907155e-03 -5.56371035e-03 1.73260290e-02
      1.21843247e-02 6.43891003e-03 8.94440617e-03 -1.44897196e-02
      -8.21992662e-03 3.91632691e-02 6.94251293e-03 -1.67019852e-02
      3.39630153e-03 2.53527681e-03 -7.49113597e-03 2.34193495e-03
      -2.36902712e-03 2.09232792e-02 6.51435480e-02 2.82020122e-02
      -7.15008890e-03 -8.48088227e-03 1.04708550e-02 1.83414072e-02
      -6.98907254e-03 6.61697285e-03 4.67609894e-03 1.14490455e-02
      -5.90431131e-03 8.95918254e-03 -8.48418102e-03 -8.22203234e-03
      -2.42978288e-03 1.13962861e-02 1.16550168e-02 7.52677396e-03
      2.01185257e-03 9.06993821e-03 1.20255537e-02 5.83199202e-04
      -1.33241003e-03 -8.24133586e-03 -1.04664871e-02 -7.38450233e-03
      3.30415904e-03 2.36154627e-02 5.50477533e-03 1.23449787e-02
      -1.15181254e-02 -1.26555767e-02 8.85325484e-03 1.32860225e-02
      1.48182381e-02 1.09492335e-02 2.86060758e-02 1.71321463e-02
      2.12374460e-02 1.52766630e-02 -4.60192235e-03 1.57331314e-03
      4.70114785e-04 -2.56446972e-02 -1.22887921e-02 -1.92833673e-02
      2.65863095e-03 1.82586271e-04 -5.87439723e-03 -1.35473879e-02
      -2.32366957e-02 2.39759572e-02 8.04180559e-03 7.49031454e-03
      -4.37913975e-03 2.04983614e-02 1.35613373e-02 -1.68434959e-02
      -2.31825095e-02 -5.39750047e-03 1.29599981e-02 1.85067225e-02
      1.78220384e-02 1.44923022e-02 5.37997158e-03 4.89685964e-03
      -4.45172330e-03 -2.06588805e-02 -2.14226469e-02 4.32400778e-02
      4.84650023e-02 4.95263413e-02 2.73039155e-02 2.53960006e-02
      1.85710145e-03 -3.06725726e-02 -3.78307626e-02 -3.44411097e-03
      -8.37772992e-03 1.48489522e-02 1.21234618e-02 9.12455190e-03
      6.14469219e-03 -1.78030541e-03 -3.08740363e-02 -2.08142586e-02
      -9.66597628e-03 1.12156151e-02 4.15285528e-02 2.56179161e-02
      9.42469854e-03 1.84844492e-03 1.73401635e-03 -1.78923104e-02
      -3.46284471e-02 -2.13233810e-02 2.07439680e-02 5.47228344e-02
      2.97591370e-02 1.34746926e-02 -3.96473520e-03 -2.36550476e-02
      -4.42784354e-02 -3.56175601e-02 1.99301937e-03 1.01545975e-02
      3.02937329e-02 1.92337688e-02 1.01985419e-02 -1.85549501e-02
      -2.89202686e-02 -2.65774336e-02 -3.61293666e-02 2.05423925e-02
      6.04373170e-04 3.53925675e-02 3.09406761e-02 2.95810346e-02
      -1.37665542e-02 3.80987348e-03 1.62683688e-02 -2.17666253e-02
      -3.64586748e-02 -1.20737851e-02 1.10569708e-02 6.67203031e-03
      2.33410988e-02 1.42565416e-02 1.28397141e-02 1.20680016e-02
      4.15982737e-04 -4.64847125e-02 1.28864953e-02 2.82950723e-03
      1.15061421e-02 1.34849094e-03 -5.11780055e-03 -6.64180238e-03
      -8.66895076e-03 -9.77187976e-03 4.32365062e-03 3.37757766e-02
      1.30567290e-02 1.64336041e-02 9.16691497e-03 -5.95561136e-03
      -6.57936465e-03 -2.04183795e-02 3.78305512e-03 -5.45406062e-03
      -1.51866907e-02 2.28454173e-03 -2.53916755e-02 5.49404649e-03
      1.47627816e-02 1.42150773e-02 5.69658447e-03 -5.82972029e-03
      -2.55463235e-02 2.52854023e-02 2.94201858e-02 -2.26338916e-02
      -7.51330703e-03 -1.96926203e-02 -1.68502573e-02 -1.30262943e-02
      -1.83957908e-02 2.46804184e-03 5.09607494e-02 4.67629209e-02
      -2.28568092e-02 5.35724638e-03 -6.96615363e-03 -4.69737547e-03
      8.78222752e-03 -7.34976167e-03 -9.32850502e-03 5.47991805e-02
      4.60641049e-02 -5.93347196e-03 -9.81600769e-03 -2.42160596e-02
      -1.79832317e-02 -1.62640736e-02 -1.84555724e-02 -6.87624654e-03
      2.61465404e-02 5.03527075e-02 -7.30140321e-03 -1.79174524e-02
      -1.61826182e-02 -2.19420325e-02 -1.88316032e-02 -2.00774129e-02
      -1.84164774e-02 4.69590873e-02 6.85659125e-02 3.15035656e-02
      -3.60522456e-02 -1.84566136e-02 -1.41020389e-02 -2.12447699e-02
      -2.14406848e-02 -1.58711001e-02 5.19711301e-02 6.95015639e-02
      -7.12672435e-03 -2.64450368e-02 -1.28343096e-02 -7.65050808e-03
      -1.79035738e-02 -1.89717300e-02 -1.97091028e-02 3.89012024e-02
      6.78603575e-02 1.47174783e-02 -3.51313949e-02 -1.03530809e-02
      -9.75824893e-03 -4.06351909e-02 -1.89111587e-02 6.68858038e-03
      3.36196832e-02 7.02659786e-02 3.90474461e-02 -2.33714450e-02
      -2.03114524e-02 -8.11778661e-03 -1.12188617e-02 -8.79774976e-04
      -8.50394741e-03 3.98928188e-02 6.46135360e-02 4.06647399e-02
      -1.08583653e-02 -3.17223482e-02 -2.03921106e-02 -2.42727362e-02
      -6.25603693e-03 -1.14469575e-02 1.68722160e-02 5.43398708e-02
      8.37211311e-03 -3.40586640e-02 -2.11101342e-02 -1.95081607e-02
      -1.87608358e-02 5.16078575e-03 9.65575967e-03 1.04149459e-02
      3.04664653e-02 -1.85084715e-02 -2.49651056e-02 -1.18728438e-02
      -2.19910499e-02 -6.34143176e-03 6.54649048e-04 -4.99339402e-03
      3.72810848e-02 3.62078547e-02 3.42696384e-02 3.30160111e-02
      6.43371837e-03 -7.91999698e-03 -1.70685779e-02 -1.41344583e-02
      9.23722144e-03 1.84340887e-02 7.17996713e-03 3.65632051e-03
      3.06586493e-02 3.98793779e-02 2.52025835e-02 1.62266549e-02
      -4.36688121e-03 1.47878527e-04 8.63409485e-04 1.45089822e-02
      -3.54224723e-03 3.19852754e-02 2.56947987e-03 -9.80437919e-03
      -2.12666998e-03 -3.04765999e-03 -9.14435834e-03 -1.20256077e-02
      -5.40418332e-05 -1.53614208e-03 2.66512856e-02 1.50625501e-02
      -1.45074334e-02 -1.31403338e-02 -8.13101232e-03 -8.05093441e-03
      -1.76263496e-03 -6.73953770e-03 -7.63533218e-03 1.37743885e-02
      1.75216086e-02 -1.16692139e-02 -4.89410595e-04 -9.81865264e-03
      -7.37690320e-03 -4.63547511e-03 1.22289406e-03 1.30750434e-02
      5.43159321e-02 2.49601230e-02 7.49426987e-03 -1.21281231e-02
      3.23195593e-04 -3.31879873e-03 6.49464410e-03 -9.36577038e-04
      -1.17763169e-02 -2.25848611e-02 1.70328990e-02 3.44316401e-02
      2.11380050e-02 -9.31119267e-03 -1.80476457e-02 1.19807441e-02
      3.71409790e-03 1.73247252e-02 1.55694922e-02 3.49669009e-02
      4.17817943e-02 2.36744876e-03 -1.37315914e-02 -3.97473713e-03
      -9.39186569e-03 -9.85259842e-03 -5.07834787e-03 8.79363716e-03
      1.67818535e-02 1.40738478e-02 -5.92700951e-03 -7.47687090e-03
      -3.75783886e-03 2.74206279e-03 7.64669012e-03 3.15076672e-02
      2.88046803e-02 1.18446108e-02 2.67421752e-02 -4.17210069e-03
      -8.47836304e-03 -2.08314024e-02 -1.50922686e-03 -1.06493551e-02
      3.50495847e-03 1.66094583e-02 1.15200775e-02 1.54719651e-02
      -3.08622885e-03 -1.42450510e-02 -2.76633305e-03 -1.13579733e-02
      8.72219913e-03 3.10929082e-02 4.00944464e-02 3.16163339e-02
      4.61098328e-02 1.70959427e-03 -1.07581457e-02 -1.93991456e-02
      -1.82418071e-03 1.96437463e-02 6.91493135e-03 9.52768140e-03
      5.59799792e-03 1.05879027e-02 -6.56059710e-03 -1.01689128e-02
      -2.30052378e-02 1.71056297e-02 4.02385965e-02 3.68499123e-02
      2.67428458e-02 3.43706273e-02 3.09497537e-03 -1.49276173e-02
      -2.75340322e-02 -2.00694390e-02 -1.90666933e-02 1.22024426e-02
      5.34109119e-03 2.50503402e-02 1.99936386e-02 1.17896246e-02
      5.11784980e-04 -5.50128566e-03 -3.05729061e-02 -4.43388149e-03
      4.83975513e-03 2.77022272e-02 1.32728610e-02 1.70467868e-02
      4.00549453e-03 1.30661400e-02 4.39654524e-03 -1.36044389e-02
      3.44879888e-02 4.94645014e-02 2.90512908e-02 1.66391972e-02
      9.26538836e-04 -1.21844383e-02 -1.61304716e-02 -2.00263858e-02
      -1.85289362e-03 2.34486088e-02 2.33508907e-02 1.02603175e-02
      9.61347017e-03 -1.77378841e-02 -2.14360021e-02 -1.09640220e-02
      -1.64149106e-02 1.91122964e-02 2.63791275e-03 2.28196718e-02
      2.50818897e-02 2.85702734e-03 6.21728599e-03 -5.52805932e-03
      2.48232915e-04 -8.01196657e-05 -1.49409054e-02 1.63716804e-02
      1.80407874e-02 3.67958695e-02 -1.43965788e-03 -2.04941407e-02
      -1.95901804e-02 -2.23623030e-02 1.32833945e-03 1.54208736e-02
      1.84534695e-02 -2.85274233e-03 1.18769845e-02 -4.97675920e-03
      -2.90229311e-03 -1.02205491e-02 -1.04936957e-02 -6.36947434e-03
      5.66271017e-04 4.31449190e-02 3.50258127e-02 2.17277315e-02
      -5.59923612e-03 -4.40762937e-03 -6.11208659e-03 -1.25356140e-02
      -6.18307432e-03 -1.35020679e-02 2.33426057e-02 3.71176898e-02
      3.77917849e-02 8.67770426e-03 -1.68407094e-02 -1.27924588e-02
      -2.14594528e-02 -2.32747048e-02 -1.42088579e-02 2.54092366e-02
      3.94174382e-02 2.81757209e-02 4.41879127e-03 1.92066072e-03
      -9.50457342e-03 -1.91899911e-02 -3.73870395e-02 -1.50904497e-02
      2.16426887e-02 4.90771048e-02 -7.90857617e-03 5.39659522e-03
      2.88907002e-04 -6.52821641e-03 -3.79845547e-03 -1.27634443e-02
      -2.06980258e-02 4.59793508e-02 3.26406993e-02 -1.00485189e-02
      2.16964213e-03 -6.39493065e-03 -1.13534899e-02 -1.54608442e-02
      -2.95655429e-02 -1.38947191e-02 1.41117293e-02 3.83566432e-02
      9.19642579e-03 1.17893359e-02 1.38376029e-02 -7.46179419e-03
      -6.42714649e-03 -3.94380502e-02 -1.78828873e-02 2.74683125e-02
      2.43334267e-02 7.17494730e-03 3.98920337e-03 5.32282051e-03
      -1.15695996e-02 -1.16667533e-02 -2.11778451e-02 -6.32639462e-03
      5.57847172e-02 6.89090341e-02 8.90930416e-04 -3.31734028e-03
      6.57949597e-03 2.29178299e-03 -1.66680403e-02 -1.00800609e-02
      -2.88439426e-03 4.64681834e-02 4.34904397e-02 1.03696268e-02
      -1.55265713e-02 4.19699727e-03 -3.89272068e-03 -3.08239032e-02
      -1.45506170e-02 1.68001594e-03 2.05293037e-02 2.21942272e-02
      -5.16972831e-03 -4.46109660e-03 7.37108802e-03 4.87356272e-04
      -2.85336538e-03 -3.34087876e-03 6.12540869e-03 3.37270182e-03
      2.36047339e-02 -1.29776411e-02 -7.93492794e-03 1.05417345e-03
      1.70458062e-03 -1.79376993e-02 -2.10110955e-02 -2.10558344e-03
      3.90110053e-02 3.96961384e-02 2.36086082e-02 -1.36350617e-02
      -5.94217889e-03 -1.39111485e-02 -1.81761943e-02 4.04150691e-03
      1.22805256e-02 1.45491371e-02 2.57908031e-02 5.79916639e-04
      5.55054890e-03 1.24397799e-02 8.46381809e-05 1.92670468e-02
      9.44185350e-03 -5.57447644e-03 2.08461396e-02 2.10636370e-02
      9.12210252e-03 -2.16390195e-04 -3.59542109e-03 -1.16254333e-02
      -9.45044030e-03 -8.02080799e-03 -3.83814098e-03 -3.57310195e-03
      1.57954879e-02 1.52224060e-02 3.61922085e-02 5.21218730e-03
      5.30685671e-03 1.95809100e-02 8.37036315e-03 -1.76430922e-02
      -6.69978699e-03 1.53801078e-02 -3.13529745e-03 3.51352766e-02
      1.42114768e-02 1.16220666e-02 3.99806164e-03 4.32346342e-03
      -8.71505495e-03 -3.45859095e-03 1.22935725e-02 2.97382445e-04
      2.82520950e-02 2.39006709e-02 -1.05435150e-02 -1.50417509e-02
      8.40962492e-03 2.42484966e-03 -2.56223790e-02 -1.29390517e-02
      3.92856542e-03 3.13389078e-02 4.41533662e-02 2.43478753e-02
      4.57832543e-03 5.25544258e-03 -1.04562342e-02 -9.25129838e-03
      -1.61911249e-02 -1.82337016e-02 1.38850035e-02 2.60238145e-02
      7.15946825e-03 -9.26661398e-03 -1.83110721e-02 8.74872599e-03
      6.33808784e-04 -4.18283464e-03 -2.30150553e-03 -1.83328986e-02
      1.14872828e-02 3.39883752e-02 1.79241151e-02 -5.25466818e-03
      -2.42660679e-02 3.58963455e-03 -1.46884704e-03 -5.28031169e-03
      1.71591202e-03 2.79344507e-02 3.32211629e-02 1.68007109e-02
      -1.33800097e-02 -1.87124740e-02 -1.62442704e-03 1.01114772e-02
      5.46487980e-03 3.09678400e-03 -5.97778847e-03 3.61474119e-02
      2.58987062e-02 -1.04823709e-02 -1.11726066e-02 1.46833470e-03
      -3.50664253e-04 6.49372442e-03 2.85566226e-02 2.57085823e-02
      2.00980883e-02 1.81168560e-02 -4.39507980e-03 3.43813736e-04
      -8.72436818e-03 -6.26147073e-03 -1.32498704e-03 1.77147239e-02
      2.41364515e-03 2.34987326e-02 7.55262445e-04 -1.15149748e-02
      -6.81630336e-03 -2.80646421e-02 -1.41202854e-02 6.26751082e-03
      2.69078054e-02 2.13087462e-02 5.27580641e-02 2.41074171e-02
      7.42223114e-03 -1.76948942e-02 -1.00367926e-02 -1.58111509e-02
      1.26936662e-04 1.62975341e-02 1.37243345e-02 1.18888728e-02
      1.89377414e-03 -1.29665714e-04 7.90587999e-03 -2.06277054e-02
      -3.50730270e-02 -9.73353907e-03 1.67967957e-02 1.00692250e-02
      3.81012335e-02 5.34102768e-02 4.11616974e-02 1.36514697e-02
      -1.83740351e-02 -1.03623727e-02 1.67879357e-03 2.81614456e-02
      2.02569943e-02 1.51971625e-02 7.54822511e-03 2.20969087e-03
      -1.64784808e-02 8.61063506e-03 1.33708771e-03 4.39379271e-03
      4.76797624e-03 4.55010775e-03 7.10123451e-03 2.08198689e-02
      3.38949859e-02 1.11845406e-02 6.57186750e-03 -2.46119052e-02
      -2.41940971e-02 1.40248425e-03 7.30172126e-03 1.35879852e-02
      2.62146629e-02 3.09636276e-02 5.91133675e-03 3.49202044e-02
      2.86782496e-02 -2.69760974e-02 -2.30265502e-02 -2.23610667e-03
      1.00275630e-03 8.51377193e-03 2.95383837e-02 3.68601903e-02
      1.49233937e-02 3.36163417e-02 6.42149895e-03 -1.56668723e-02
      -1.69537738e-02 -3.92548461e-03 -5.23937808e-04 1.11811301e-02
      2.94713420e-03 3.80998179e-02 3.74995098e-02 4.39719297e-02
      2.95481971e-03 -2.16537323e-02 -8.08255933e-03 -1.62171610e-02
      5.39963658e-04 8.30430351e-03 4.03875448e-02 3.73698696e-02
      1.75336916e-02 -1.88006386e-02 -4.43128832e-02 -1.96457207e-02
      -1.18762692e-02 1.07820444e-02 2.39856951e-02 3.17433737e-02
      2.59722658e-02 3.27507369e-02 2.38392185e-02 -2.58429088e-02
      -1.46472538e-02 -1.82841942e-02 -5.32018067e-03 8.17663036e-03
      2.09856648e-02 4.86298203e-02 5.17770536e-02 9.12700687e-03
      -1.21077886e-02 -1.24273654e-02 -1.02929249e-02 -1.06258821e-02
      5.71340229e-03 6.76815212e-03 4.41434905e-02 4.08801734e-02
      6.08713832e-03 5.17030526e-03 -1.19362790e-02 -1.26856398e-02
      -1.84002463e-02 1.46659724e-02 -1.54215773e-03 1.88077893e-02
      2.39592455e-02 2.43803971e-02 -5.26834978e-03 -6.69150101e-03
      -6.21949602e-03 -1.17412191e-02 -1.69544434e-03 -6.01927098e-03
      1.82149112e-02 1.47400778e-02 2.88383197e-02 -3.72751406e-03
      -2.23261933e-03 5.30168926e-03 -1.28768897e-02 7.06617115e-03
      2.85254307e-02 3.27244326e-02 2.04413235e-02 1.60087794e-02
      1.56057207e-02 -1.72926788e-03 4.29453840e-03 -1.23577574e-02
      7.40137976e-03 1.64420921e-02 8.70426092e-03 1.46700526e-02
      -1.55618531e-03 1.04986420e-02 -2.82217935e-03 7.84550048e-03
      2.55254237e-03 9.85876098e-03 -4.79475455e-03 3.78873479e-03
      -3.22563178e-03 1.13954218e-02 -8.01603682e-03 -8.18278082e-03
      1.58163831e-02 1.82439908e-02 6.94800494e-03 -2.26596650e-02
      -3.11469194e-03 -8.12105462e-03 -1.14891743e-02 -1.86480153e-02
      1.44403959e-02 1.73611846e-02 1.24443807e-02 3.93900182e-03
      1.46779474e-02 1.01070115e-02 1.37118911e-02 4.93577402e-03
      -1.64461567e-03 2.33919010e-03 7.14441808e-03 -3.10548441e-03
      2.03577187e-02 8.55062623e-03 1.43087683e-02 1.65184904e-02
      1.45768235e-02 -7.28121074e-03 4.01675142e-03 1.10379960e-02
      -1.43958430e-03 3.18094268e-02 -1.15995239e-02 -4.02347557e-03
      1.05930222e-02 5.88907721e-03 5.33494866e-03 1.37772132e-02
      8.19668639e-03 7.11985849e-05 2.47799922e-02 -3.03934310e-02
      -1.45870158e-02 1.20326988e-02 -1.90026709e-03 1.45133892e-02
      1.09300558e-02 1.93332527e-02 1.44725535e-02 2.35152943e-03
      1.39898565e-02 2.31696945e-03 2.28171144e-02 8.81596748e-03
      -1.12857893e-02 4.37827036e-03 1.48574624e-03 2.85820360e-03
      1.69909038e-02 -9.23458766e-03 1.14810010e-02 3.42797600e-02
      4.26749662e-02 -3.85361956e-03 3.21661821e-03 8.92101973e-03
      2.69729178e-02 1.30792633e-02 -1.59744378e-02 -9.77783184e-03
      2.42800266e-02 1.04033656e-03 -1.76788624e-02 2.61275191e-02
      1.53426602e-02 2.69936994e-02 -3.44467437e-04 -6.13163598e-03
      1.67487413e-02 1.95742846e-02 3.60442251e-02 8.86807032e-03
      8.47984478e-03 1.43311722e-02 3.15855667e-02 1.62054710e-02
      -4.82111983e-03 -5.64304134e-03 6.51434937e-04 2.66936440e-02
      4.24408428e-02 8.19994975e-03 -4.21746168e-03 2.11409722e-02
      9.22507327e-03 9.52373166e-03 -5.27623389e-03 -1.79574639e-02
      1.95374303e-02 4.47611213e-02 1.83280017e-02 -8.01145623e-04
      -5.24306018e-03 5.35208313e-03 -1.61785465e-02 -2.67448649e-02
      1.30845504e-02 3.35466713e-02 3.22564878e-02 -1.43135479e-02
      5.06694941e-03 1.51981283e-02 -4.19736840e-04 1.21498575e-04
      -2.81682201e-02 2.27732211e-03 1.92982908e-02 3.60683762e-02
      1.48135396e-02 -1.01891616e-02 -2.79240822e-03 7.84068555e-03
      5.78546058e-03 4.64980816e-03 1.15723005e-02 8.95472302e-04
      -1.00381719e-02 2.52589397e-02 2.08507292e-02 -4.12469450e-03
      -3.18604801e-03 8.61510076e-03 -3.47640691e-03 3.22710983e-02
      3.45653445e-02 9.29707848e-03 9.19214450e-03 1.81403626e-02
      1.13828611e-02 9.28490702e-03 -3.78879625e-03 -1.72733422e-02
      -1.48741119e-02 -1.46784820e-02 5.13605811e-02 1.65413860e-02
      1.01187918e-02 7.17796525e-03 -2.03263164e-02 -1.70945153e-02
      -1.83801521e-02 1.08359056e-02 2.39917263e-02 5.37531450e-02
      -7.60511449e-03 1.84301957e-02 9.56516713e-03 -9.66741517e-03
      -5.70640061e-03 -1.20777227e-02 1.97847113e-02 1.66685656e-02
      -4.30908076e-05 1.00072790e-02 7.34804943e-03 1.38343293e-02
      1.56292245e-02 -5.89721184e-03 -1.00055160e-02 9.13209189e-03
      4.93287714e-03 -2.15182900e-02 1.38952117e-02 5.01601622e-02
      4.47929539e-02 3.48488688e-02 -1.04097584e-02 -1.73701476e-02
      1.33046061e-02 2.06738915e-02 3.44588533e-02 -2.21992377e-02
      -6.55487180e-03 1.99640486e-02 2.00561923e-03 1.22550351e-03
      4.10581240e-03 -8.03740602e-03 2.68257200e-03 2.57912856e-02
      -2.34159846e-02 2.29521897e-02 2.92070527e-02 3.26130800e-02
      1.64054018e-02 8.84931628e-03 -1.33488663e-02 2.18982645e-03
      -6.32426469e-03 2.52004806e-03 1.56893265e-02 3.64427343e-02
      3.09488829e-02 4.02696617e-02 4.08968255e-02 -2.15228461e-02
      -2.70974208e-02 -6.57977164e-03 -8.86477064e-03 1.38715673e-02
      3.03629264e-02 3.92188169e-02 3.91216204e-03 1.10642826e-02
      -1.43111674e-02 -6.98561920e-03 1.75684690e-02 -1.91986021e-02
      -5.04965754e-03 1.22570768e-02 3.00663207e-02 9.68547352e-03
      7.36191450e-03 -2.12899372e-02 -2.98918039e-02 3.36853452e-02
      -5.24515379e-03 1.14254318e-02 2.01236699e-02 1.55688385e-02
      5.45439720e-02 3.71917188e-02 6.59138057e-03 -3.07151722e-03
      -2.84834374e-02 -1.64423790e-02 3.90075101e-03 1.79017484e-02
      4.49141338e-02 3.64161953e-02 1.08777257e-02 2.80244891e-02
      2.90024094e-02 -2.19164174e-02 -1.57796592e-02 -8.34715087e-03
      9.35193617e-03 3.91632654e-02 -1.02572935e-02 6.81453384e-03
      -1.27020106e-02 -1.18067889e-02 3.14623788e-02 -1.51351392e-02
      2.44409172e-03 6.07263064e-03 8.54241569e-03 6.10128045e-03
      -1.42879374e-02 -1.43082608e-02 4.29519312e-03 3.45279984e-02
      -2.28454359e-02 -1.43129192e-02 2.41508405e-03 1.72590464e-02
      3.41656096e-02 8.92302673e-03 1.98656283e-02 3.21111940e-02
      -4.56555421e-03 1.96956936e-03 -2.05967529e-03 -4.21707082e-04
      1.83134917e-02 1.26205049e-02 1.58988032e-02 1.37896352e-02
      4.07320820e-02 -9.59183741e-03 1.35884834e-02 8.27094540e-03
      6.96414988e-03 1.47358906e-02 1.77402049e-02 -1.29501028e-02
      -1.42072411e-02 1.28783444e-02 2.17613615e-02 -4.97189770e-03
      -1.36313075e-02 3.89391836e-03 2.12646592e-02 -6.10293634e-03
      -2.12473124e-02 -1.19298138e-02 1.53790480e-02 2.29121316e-02
      7.27728615e-03 2.09671538e-03 8.72657634e-03 2.35405620e-02
      4.41073207e-03 4.44888743e-03 1.41199846e-02 1.23909013e-02
      -1.56242540e-02 6.69050543e-03 2.18214057e-02 1.60309747e-02
      1.94199216e-02 -4.30800207e-03 6.49526017e-03 1.66971665e-02
      1.67944992e-03 -1.53200850e-02 3.46343815e-02 2.46229507e-02
      1.43160345e-02 2.29319911e-02 -1.75909530e-02 -2.00051013e-02
      7.91685283e-03 5.08969650e-03 5.47635406e-02 4.60712425e-03
      4.56882408e-04 -3.39212688e-03 6.67469110e-04 -1.28859747e-02
      -1.14129810e-02 1.68991057e-04 -9.15375259e-03 3.76723818e-02
      2.35692821e-02 1.57837139e-03 3.72856483e-03 4.39635944e-03
      1.10120513e-02 1.83561649e-02 4.03236551e-03 5.86752431e-04
      6.54572202e-03 1.83186196e-02 7.65209040e-03 2.22525490e-03
      1.87636707e-02 -2.95367837e-02 -2.97436956e-03 9.77225136e-03
      1.44630941e-02 2.00600941e-02 1.79563314e-02 1.97838489e-02
      1.56915803e-02 -1.38229551e-02 1.05166966e-02 -8.35735630e-03
      -1.68488752e-02 -1.23707755e-02 5.10040447e-02 1.56629458e-02
      -3.61538376e-04 1.04721002e-02 1.23726088e-03 -1.71882026e-02
      -2.16906238e-02 -6.81539951e-03 2.74923127e-02 7.38960654e-02
      1.51008246e-02 1.47597566e-02 1.06257731e-02 -3.88508365e-02
      -1.33828623e-02 2.31833756e-03 1.02606788e-02 1.01598185e-02
      -7.91746937e-03 2.13150084e-02 2.46958900e-02 2.64670644e-02
      1.63439417e-03 2.53682584e-02 9.90212988e-03 2.28337478e-02
      2.72182226e-02 1.17329024e-02 1.02330977e-02 1.22889336e-02
      1.98202822e-02 2.69907638e-02 -2.94114370e-02 -3.42721008e-02
      9.09564085e-03 2.68005077e-02 6.23705164e-02 7.70413363e-03
      1.35042798e-02 1.65353785e-03 -4.11429349e-03 2.03157123e-02
      -1.60922334e-02 1.11973835e-02 1.76344030e-02 6.36907890e-02
      -4.86089336e-03 1.37784267e-02 -1.69458948e-02 7.35356845e-03
      -5.79820154e-03 -1.33983558e-02 1.78279039e-02 2.39619948e-02
      1.60326641e-02 -3.40834260e-03 1.10551557e-02 -2.68126931e-03
      9.98019800e-03 -5.56565414e-04 -4.92521981e-03 2.02436801e-02
      1.02649527e-02 1.98575035e-02 1.16483364e-02 2.71688239e-03
      -1.39603027e-04 2.17778180e-02 2.65762629e-03 -1.81753598e-02
      1.02072144e-02 4.52638051e-04 7.50267431e-02 -4.34164889e-03
      3.29394545e-03 -9.28894337e-03 -1.24379518e-02 -7.49339582e-03
      -6.01680484e-03 1.92962785e-03 -1.01143243e-02 5.79720549e-02
      -1.00029632e-02 9.01089236e-03 1.34632615e-02 3.20840464e-03</_></support_vectors>
  <decision_functions>
    <_>
      <sv_count>1</sv_count>
      <rho>2.8489855864982463e+00</rho>
      <alpha>
        1.</alpha>
      <index>
        0</index></_></decision_functions></my_svm>
</opencv_storage>
