<?xml version="1.0"?>
<opencv_storage>
<my_svm type_id="opencv-ml-svm">
  <svm_type>C_SVC</svm_type>
  <kernel><type>LINEAR</type></kernel>
  <C>1.0000000000000001e-01</C>
  <term_criteria><epsilon>1.1920928955078125e-07</epsilon>
    <iterations>1000</iterations></term_criteria>
  <var_all>2916</var_all>
  <var_count>2916</var_count>
  <class_count>2</class_count>
  <class_labels type_id="opencv-matrix">
    <rows>1</rows>
    <cols>2</cols>
    <dt>i</dt>
    <data>
      1 2</data></class_labels>
  <sv_total>1</sv_total>
  <support_vectors>
    <_>
      2.54468154e-03 8.06839671e-03 8.19675066e-03 -1.19206565e-03
      -7.58150827e-06 -3.20508145e-03 -1.17629766e-02 -1.32690379e-02
      1.08650746e-02 2.14924514e-02 7.55059579e-03 -6.22595195e-03
      -7.60620832e-03 1.10110464e-02 -2.67463247e-03 -1.74752120e-02
      -1.34496707e-02 2.01003812e-02 2.47147698e-02 7.68137956e-03
      4.36773873e-04 3.73767246e-03 7.69725768e-04 -1.59311201e-03
      -1.95733402e-02 -8.64262227e-03 2.35205349e-02 2.07964368e-02
      -7.74258235e-03 -1.20338406e-02 9.91207454e-03 8.66716914e-03
      1.43597470e-04 -1.90075897e-02 -1.55180385e-02 1.80298500e-02
      2.89326627e-03 3.13254935e-03 2.77540274e-03 1.16789444e-04
      3.19382432e-03 -3.79763241e-03 -4.02122643e-03 -1.32279610e-02
      -5.06758271e-03 1.08173350e-03 -3.34518477e-02 1.32638896e-02
      2.37987749e-03 6.08964218e-03 -4.82116733e-03 1.64979056e-03
      -1.27606047e-02 -6.26428798e-03 2.35424265e-02 3.36648943e-03
      4.77352692e-03 1.04055153e-02 6.30430077e-05 7.46022619e-04
      -1.15920941e-03 -2.73522213e-02 5.59175605e-05 9.98884346e-03
      4.41576401e-03 2.80865133e-02 4.87427972e-03 9.11884650e-04
      -4.79488866e-03 -3.03466432e-03 -1.70842335e-02 1.33835734e-03
      -1.67412553e-02 -8.96232389e-03 1.89185317e-03 -5.17436815e-03
      -2.80614989e-03 -8.16985208e-04 3.58068454e-03 -1.43378628e-02
      3.42792203e-03 -2.22535152e-03 1.59212463e-02 -1.46760258e-05
      -9.61287878e-03 -1.10157896e-02 -4.76304209e-04 -1.48156025e-02
      -5.13557810e-03 1.83836203e-02 1.04739405e-02 2.80020223e-03
      1.38318185e-02 -7.64270453e-03 -3.04224063e-03 -3.25656496e-03
      -7.93387834e-03 -9.33842827e-03 2.22497489e-02 1.35582704e-02
      2.07876042e-02 6.30602567e-03 -1.18634785e-02 -5.45848953e-03
      -9.90826543e-03 -1.54476753e-02 1.41914245e-02 5.53506762e-02
      2.20214925e-03 1.36180548e-02 5.29653626e-03 -6.64779823e-03
      -1.13199558e-02 -2.47093919e-03 -2.02716887e-02 -1.93889288e-03
      5.73662855e-03 -6.96432218e-03 2.17030738e-02 1.34065710e-02
      -2.60301121e-03 -9.10090096e-03 -3.75951268e-03 -2.65643429e-02
      -1.89168118e-02 -5.94863901e-03 2.68086493e-02 9.63132083e-03
      -1.75552198e-03 -1.12616876e-02 -1.05852159e-02 -1.01217683e-02
      -1.41884219e-02 3.28900851e-02 3.42676081e-02 -3.71660851e-03
      1.59487557e-02 6.65747374e-03 -7.58799445e-03 -1.01910736e-02
      -1.38100917e-02 -1.26102231e-02 1.87687520e-02 2.09579151e-02
      1.00683682e-02 1.59657728e-02 6.24684850e-03 -3.11259972e-03
      4.07847762e-03 9.19477141e-04 -2.13858671e-02 -1.92308482e-02
      -2.87543586e-03 8.41286127e-03 1.43916602e-03 -2.01594405e-04
      6.32632291e-04 5.09295193e-03 4.99508064e-03 -3.61343031e-03
      -2.54459139e-02 -1.04243569e-02 2.43526213e-02 8.73208698e-03
      8.34520441e-03 -1.52054802e-03 6.61978498e-03 1.19293742e-02
      4.93807765e-03 4.20811074e-03 -3.19298706e-03 3.35926400e-03
      9.69822053e-03 1.24454731e-02 1.53436209e-03 1.86692625e-02
      2.74982061e-02 2.04534587e-02 -2.45409273e-02 -1.95159186e-02
      -4.69641015e-03 -1.83484936e-03 -2.36353604e-03 -3.40767088e-03
      1.45267863e-02 1.07612517e-02 2.65813861e-02 9.20012500e-03
      -1.21358177e-02 -2.20163520e-02 -2.19135601e-02 -3.55874351e-03
      4.20228695e-04 2.92185154e-02 2.00703852e-02 2.89370343e-02
      1.24149267e-02 -1.13310004e-02 -1.89596936e-02 -1.94401841e-03
      5.84943919e-03 6.27524569e-04 4.84239543e-03 1.96689088e-02
      3.53765897e-02 6.67503849e-03 -3.20821926e-02 -2.35054716e-02
      -2.78869900e-03 1.49569483e-02 -1.48167217e-03 -3.58857564e-03
      2.97158398e-02 2.57845633e-02 1.36346687e-02 -1.12800021e-02
      -7.28942314e-03 -3.35091874e-02 -2.67587579e-03 6.70852652e-03
      2.12814678e-02 1.54727669e-02 1.95012754e-03 3.87078646e-04
      1.15246717e-02 -2.02266797e-02 -2.13456210e-02 5.28382196e-04
      8.72576982e-03 1.55897504e-02 1.30947018e-02 2.39795763e-02
      5.78140235e-03 7.67112616e-03 -7.64560001e-03 -7.08979601e-03
      3.22339348e-02 4.24570544e-03 1.33693647e-02 -5.50058205e-04
      4.13927890e-04 1.44127524e-03 1.27337677e-02 -2.48750355e-02
      5.20694256e-03 2.52353810e-02 -8.38990510e-03 1.05712805e-02
      2.22825189e-03 8.60744901e-03 2.26067211e-02 1.41741233e-02
      3.77728511e-03 6.92626229e-03 -4.18331183e-04 -8.31145514e-03
      1.20237317e-04 1.66413914e-02 2.31196005e-02 -7.23112654e-03
      1.09648257e-02 -3.62746161e-03 1.46282623e-02 -1.81793738e-02
      -2.46114396e-02 1.56553388e-02 4.63026483e-03 1.63013693e-02
      1.82990432e-02 1.64280720e-02 -1.68628450e-02 1.90500524e-02
      -1.70936249e-02 -2.20048055e-02 9.32325725e-04 2.01376174e-02
      1.86729431e-02 7.96106178e-03 -1.41929593e-02 -8.27130163e-04
      1.63248032e-02 -6.48396323e-03 -2.48328727e-02 -1.02911994e-03
      1.02280546e-02 2.21403893e-02 2.45965645e-02 9.02778655e-03
      6.93111820e-03 3.10425088e-03 -1.62031632e-02 -3.38254285e-05
      8.09265999e-04 6.04255358e-03 8.26436188e-03 1.82307009e-02
      1.45629086e-02 2.59094536e-02 -1.94506906e-02 -2.77229026e-02
      8.18782579e-03 -3.82443215e-03 1.18925031e-02 1.21250171e-02
      5.45466272e-03 8.70835129e-03 6.73700823e-03 1.52161659e-03
      -6.03160448e-03 9.33961105e-03 -1.26913292e-02 1.26918694e-02
      1.73798706e-02 1.61048435e-02 2.11192090e-02 1.81784946e-02
      -1.69983169e-03 -6.33145403e-03 2.19774228e-02 -6.50505815e-03
      1.90148205e-02 6.47494523e-03 5.96790155e-03 7.46916840e-03
      1.48353754e-02 2.47920188e-03 -9.76071320e-03 -1.03727565e-03
      -4.43104655e-03 -1.02758419e-03 -2.99963802e-02 -1.93747301e-02
      9.40919016e-03 1.52963551e-03 1.48811834e-02 -2.09849495e-02
      1.24726761e-02 1.03822080e-02 3.77657986e-03 -1.74167082e-02
      -2.61408482e-02 8.24829657e-03 1.50578609e-02 4.09845682e-03
      -6.15308853e-03 -1.01360818e-03 -2.73228507e-03 -7.40543241e-03
      -2.82110386e-02 -2.26751622e-02 1.32047925e-02 1.96905155e-02
      2.93697156e-02 1.84228495e-02 8.41726363e-03 1.55734727e-02
      6.11493224e-03 -1.08524542e-02 -1.67902280e-02 1.75379403e-03
      8.11805017e-03 1.24674411e-02 -5.39981760e-03 8.01932719e-03
      3.80077772e-03 -1.66575785e-03 -1.71889912e-03 -2.76099648e-02
      -2.01949980e-02 -8.37923086e-04 1.82773843e-02 1.09711345e-02
      6.77853683e-03 3.16672702e-03 -5.90303587e-03 -6.87730731e-03
      -1.77632775e-02 -2.82475520e-02 2.52561904e-02 3.48317064e-02
      8.42162035e-03 9.18980408e-03 4.47526900e-03 7.98420224e-04
      -2.90892622e-03 -2.30556801e-02 -1.97426118e-02 7.33232312e-03
      1.69032514e-02 1.53116154e-04 2.89108767e-03 3.21679586e-03
      -2.13678950e-03 -4.71820589e-03 -2.47904472e-02 -2.14454513e-02
      5.27402060e-03 7.60969706e-03 1.46203591e-02 -3.65098496e-03
      1.74989842e-03 -3.21184285e-03 -1.19139059e-02 -1.52339358e-02
      2.60054320e-02 6.76923804e-03 8.64571333e-03 4.72104410e-03
      -1.02939690e-02 8.03130271e-04 -8.88410211e-03 -1.76580679e-02
      -1.38115123e-04 6.54634237e-02 -2.10787402e-03 3.86510015e-04
      7.21665751e-03 -2.82018981e-03 -3.47228575e-04 1.04207185e-03
      -1.16179818e-02 -1.48478895e-02 1.77133195e-02 2.13021250e-03
      -3.80988815e-03 9.33217525e-04 -9.31091886e-03 -3.51507380e-03
      -4.91377572e-03 -4.85392148e-03 7.27784820e-03 3.45178060e-02
      2.68838578e-03 -9.50746587e-04 -2.16953317e-03 -5.86733734e-03
      -2.94094183e-03 -8.91024992e-03 -1.34756556e-02 3.04813497e-02
      4.93894517e-02 -1.21350270e-02 -6.18581846e-03 -1.27321202e-03
      -1.61633594e-03 -1.34367554e-03 -2.22327071e-03 -1.45000336e-03
      1.78197175e-02 3.65718850e-03 -1.73976850e-02 -1.31991170e-02
      2.45460682e-03 -6.85252016e-03 -2.17288546e-03 -7.86585361e-03
      -5.01226541e-03 1.21493433e-02 1.75087359e-02 -1.13836266e-02
      1.47490983e-03 2.05055042e-03 3.38850683e-03 1.06240064e-02
      5.31672547e-03 4.85006860e-03 -1.28778964e-02 -8.91224574e-03
      -5.08005789e-04 -8.17991886e-03 -4.28848714e-03 -4.82294057e-03
      2.46272888e-03 1.45797627e-02 2.93010976e-02 -2.42825202e-03
      -3.74950422e-03 -2.11072490e-02 -3.49184615e-03 -2.93626613e-03
      -6.97237113e-03 5.74292755e-03 2.11711638e-02 2.89498214e-02
      3.38750146e-03 -3.10984980e-02 -1.22053931e-02 -1.29291986e-03
      -2.60292948e-03 1.34297111e-03 3.08961514e-03 2.38846987e-02
      3.28857712e-02 2.89571704e-03 -1.02165230e-02 -2.71349568e-02
      -1.30060669e-02 -3.10806604e-03 -2.18330510e-03 1.03162816e-02
      1.13696968e-02 3.51402909e-02 2.39835754e-02 -1.54948141e-02
      -2.11164020e-02 3.15896788e-04 4.35295189e-03 1.11054594e-03
      5.82884415e-04 6.94260513e-03 1.80333517e-02 2.07705460e-02
      -3.62725519e-02 -1.66576914e-02 -6.36369502e-03 7.36395596e-03
      -3.87435150e-03 -1.01322364e-02 3.07878619e-03 5.53161325e-03
      4.02921438e-03 -3.53090814e-03 -2.66164746e-02 -1.58074393e-03
      4.94688936e-03 3.90629144e-03 1.26225818e-02 1.69454925e-02
      4.11647744e-02 4.94847409e-02 1.88592996e-03 -1.31677315e-02
      6.68966852e-04 8.11306480e-03 8.53355415e-03 9.33352672e-03
      1.22270752e-02 1.18363323e-02 2.24372596e-02 -4.55410499e-03
      -1.06600551e-02 -1.00882584e-02 1.46427983e-02 4.57423448e-04
      4.58330009e-03 -2.12123059e-03 -6.59881579e-03 1.09079257e-02
      2.62437183e-02 -2.04346180e-02 4.25391458e-03 1.17055350e-03
      -1.66477505e-02 1.01134200e-02 3.97900445e-03 6.49654632e-03
      3.16967741e-02 2.12309584e-02 4.13648318e-03 -1.13100009e-02
      -9.81940795e-03 7.12002302e-03 1.51114222e-02 -9.72860400e-03
      2.17194483e-03 1.95490122e-02 3.42313237e-02 -1.12955198e-02
      -1.05695450e-04 -1.82361957e-02 -1.70627199e-02 2.98660137e-02
      1.55759025e-02 1.13868136e-02 2.52766032e-02 2.61502024e-02
      -2.28468273e-02 1.70297511e-02 -1.48713468e-02 -6.70362310e-03
      8.15223320e-04 1.39230397e-02 6.96167909e-03 1.49264596e-02
      1.49192091e-03 3.03962780e-03 1.56488419e-02 -8.98936111e-03
      7.58410664e-04 -2.76888837e-03 5.10471500e-03 9.47751291e-03
      1.63758490e-02 1.90986525e-02 -2.01596189e-02 1.58845559e-02
      -2.00547613e-02 -1.31652998e-02 8.91324412e-03 2.30053253e-02
      1.23559348e-02 3.79112619e-03 -2.13079341e-02 2.12359428e-03
      2.62151789e-02 1.11380836e-03 1.78636387e-02 1.15148574e-02
      1.37171485e-02 1.67547632e-02 -3.46989866e-04 -4.47157072e-03
      9.03764833e-03 1.28678812e-05 -5.00781694e-03 1.15966843e-02
      -1.24066435e-02 1.12228887e-03 8.68735556e-03 7.77153298e-04
      1.80388626e-03 2.06350237e-02 -4.59078141e-03 3.18519957e-03
      1.57438461e-02 -1.24443397e-02 4.27429378e-03 -3.88233922e-03
      2.38286657e-03 2.20157439e-04 2.28630733e-02 2.77604479e-02
      1.46918893e-02 2.72856578e-02 -1.00602200e-02 -5.68739465e-03
      1.54272169e-02 6.51397416e-03 -1.23655489e-02 2.05780286e-02
      2.14858986e-02 1.80604849e-02 1.19314063e-02 -4.02241852e-03
      5.80234155e-05 5.10769431e-04 6.35489170e-03 1.17114391e-02
      1.61868217e-03 -2.21651280e-04 4.38644970e-03 4.13001573e-04
      -1.62904174e-03 -1.30779929e-02 -2.78347079e-02 -1.94929447e-02
      3.47088510e-03 1.12211620e-02 1.34167448e-02 3.95123288e-02
      1.48939099e-02 4.75195143e-03 -1.50083262e-03 -1.94453392e-02
      -2.07225271e-02 -1.35263763e-02 -3.33499949e-04 -1.78750430e-03
      2.65217032e-02 1.14574386e-02 1.21907089e-02 -1.67059936e-02
      -2.90233959e-02 -8.16144980e-03 -6.20101579e-03 5.21915453e-03
      1.25015387e-02 4.58719991e-02 2.61643566e-02 1.70815196e-02
      8.57407693e-03 -2.21953243e-02 -3.26654166e-02 -1.85163487e-02
      1.79591291e-02 2.54451297e-02 1.81730241e-02 7.85202812e-03
      8.69431626e-03 1.85690238e-03 -1.49707636e-03 -1.97044853e-02
      -2.32366174e-02 -6.25178311e-03 2.22779755e-02 2.83970544e-03
      -2.14879125e-04 6.51275739e-03 -1.80655555e-03 -1.67396385e-03
      -8.30453448e-03 -1.59816127e-02 5.35803242e-03 2.14579850e-02
      2.77633034e-02 1.67877879e-02 1.58171076e-02 5.28359506e-03
      -4.32007771e-04 -1.86923034e-02 -2.21545361e-02 -1.68561824e-02
      5.18613216e-03 2.57452875e-02 1.54188182e-03 1.46747604e-02
      -1.86905102e-03 1.26743026e-03 -8.32244754e-03 -1.95404105e-02
      -1.70372427e-02 4.49712109e-03 1.00999987e-02 -5.87156042e-04
      -2.34525139e-03 -5.74890478e-03 -1.44229913e-02 -1.87354442e-02
      8.79041478e-03 4.06151032e-03 6.36651739e-03 5.64195309e-03
      -6.50739251e-03 -4.66476567e-03 -9.35459044e-03 -2.25530528e-02
      -2.29165843e-03 1.60057638e-02 -7.90998247e-03 1.56983472e-02
      2.90853288e-02 5.32895699e-03 5.62884612e-04 -8.56549852e-03
      -2.04633959e-02 -1.57088730e-02 1.61870401e-02 2.98722330e-02
      3.50565203e-02 3.54428329e-02 -1.69189926e-02 -2.52937665e-03
      -1.51623571e-02 -3.12036816e-02 1.40976731e-03 3.15026008e-02
      -4.35558474e-03 -8.43452755e-03 3.03007639e-03 -2.72816117e-03
      -3.03422287e-03 -3.66496574e-03 -1.43140024e-02 6.00674888e-03
      -1.82008243e-05 -8.24584905e-03 5.94538590e-03 3.35832383e-03
      8.45604111e-04 1.43726508e-03 -1.40585913e-03 4.55617532e-03
      -1.37014026e-02 -2.17261817e-02 1.65736396e-02 1.33898640e-02
      -5.50205470e-04 -1.49340434e-02 -4.98558674e-03 -2.39413930e-03
      -7.35718058e-03 2.77253836e-02 2.54782420e-02 1.99320447e-02
      1.48390876e-02 -1.30343009e-02 -6.19970867e-03 -5.79519663e-04
      4.46339371e-03 -2.01313687e-03 1.13497197e-03 6.05622772e-03
      -1.96666326e-02 -3.35743022e-03 -1.24472135e-03 -3.51871364e-04
      3.79478699e-03 5.66001562e-03 1.18422667e-02 -1.54749118e-02
      -1.37023041e-02 -3.48893143e-02 -2.75851451e-02 -2.15456530e-04
      8.47300107e-04 7.12168450e-03 5.94709348e-03 3.74395028e-02
      2.22857688e-02 9.33547737e-04 4.24442068e-03 -3.48203350e-03
      -3.05813993e-03 -2.36247273e-04 5.09975944e-04 -2.80663557e-02
      7.63844559e-03 1.12975212e-02 -3.81029467e-03 2.82798032e-03
      -1.71200782e-02 -7.23154051e-04 5.97053161e-03 1.12439031e-02
      4.42281691e-03 1.56381372e-02 2.56089903e-02 6.40757056e-03
      -4.25088815e-02 -1.21272318e-02 4.52969130e-03 2.25664233e-03
      1.00674899e-02 2.14162264e-02 4.42231409e-02 1.75759438e-02
      -1.04445694e-02 -4.38349545e-02 -1.95921026e-03 8.82200897e-03
      3.46906250e-03 1.24147180e-02 2.00704820e-02 1.01088937e-02
      4.27559484e-03 -3.30807865e-02 -2.41017975e-02 -7.68597098e-03
      1.63186155e-02 1.07519869e-02 4.32454003e-03 2.39067934e-02
      4.33330797e-02 -8.10040720e-03 -9.96940769e-03 -2.51646992e-02
      1.11311106e-02 7.51759904e-03 1.89639698e-03 3.73025145e-03
      1.70009099e-02 2.42137499e-02 -8.77137389e-03 -2.73050945e-02
      -4.73546656e-03 -4.63202689e-03 8.95939360e-04 1.77767277e-02
      1.46763641e-02 -5.76509628e-03 1.47022784e-03 1.05132973e-02
      4.59806621e-03 -2.28514969e-02 -1.01220217e-02 -8.96636955e-03
      -6.74923370e-03 3.05799190e-02 2.81725507e-02 2.81853136e-03
      1.07383179e-02 3.96835851e-03 9.14579351e-03 5.42269368e-03
      -9.87484120e-03 2.41695940e-02 2.23675333e-02 -1.10803572e-02
      6.13293191e-03 7.85710942e-03 -8.78713001e-03 -2.12466326e-02
      1.98704517e-03 -9.34309885e-03 1.27374288e-02 3.58252265e-02
      2.11332738e-02 3.62960552e-03 1.68734472e-02 5.75587619e-03
      -2.81354897e-02 5.55412611e-03 -1.53523702e-02 -1.22988960e-02
      1.33105330e-02 1.00470316e-02 -5.92517760e-03 -5.48097398e-03
      -2.57017389e-02 -5.50261466e-04 2.59665530e-02 8.32527224e-03
      2.06480902e-02 7.22378446e-03 2.27322034e-03 9.68489982e-03
      -6.80631818e-03 -2.38106642e-02 -1.88106541e-02 1.04371849e-02
      1.94943640e-02 5.93009265e-03 -5.15130861e-03 2.45491462e-03
      -1.45963125e-03 7.43365893e-03 -2.02551130e-02 -2.54874793e-03
      4.36099023e-02 2.89732628e-02 3.43399644e-02 -5.11753047e-03
      -8.95463675e-03 8.53795838e-03 -2.85568787e-03 -1.84191000e-02
      7.86418654e-03 4.30781906e-03 4.65403730e-03 1.27436956e-02
      -9.69192944e-03 -2.85791559e-03 1.00976946e-02 7.15722446e-04
      -3.02756801e-02 -7.85214070e-04 -5.00213541e-03 5.89883747e-03
      3.39256879e-03 -1.55843515e-02 8.21865350e-03 6.93485327e-03
      3.69834015e-03 -7.12412084e-03 3.33500616e-02 2.24887244e-02
      8.48660246e-03 7.58927688e-03 -1.86515450e-02 -2.89167254e-03
      1.00550866e-02 4.12022043e-03 7.25369435e-03 3.18703689e-02
      6.88579027e-03 -2.52104388e-03 4.17343108e-03 -2.02391390e-02
      1.18702473e-02 -3.52688436e-03 -2.09988677e-03 2.97774710e-02
      -5.71885100e-03 -3.42340046e-03 1.30647225e-02 1.54774496e-02
      3.00128683e-02 -1.61925722e-02 -2.50907559e-02 -4.07828484e-03
      -2.98594404e-03 2.30428460e-03 -3.66347609e-03 2.65344679e-02
      1.85661837e-02 4.13419902e-02 -1.06576423e-03 -1.67018250e-02
      -2.98197661e-02 -6.74999412e-03 -6.20596809e-03 -4.61027143e-04
      -1.29671337e-03 5.80304163e-03 1.41705684e-02 -1.97009537e-02
      -2.83439038e-03 6.60756696e-03 4.70445165e-03 4.34784638e-03
      -4.84865345e-03 1.35806797e-03 1.59467082e-03 -6.49790606e-03
      2.24251556e-03 3.87795642e-03 -1.42132994e-02 8.58986285e-03
      -5.01869386e-03 -5.84351551e-03 7.12609012e-03 4.83092666e-03
      1.79345328e-02 3.43691604e-03 -4.13668435e-03 -1.96569674e-02
      -1.17697725e-02 -1.93386469e-02 -7.73645146e-03 2.60005221e-02
      -5.28925285e-03 1.05749154e-02 -1.32360228e-03 -2.91834562e-03
      -8.83556902e-03 -1.48136867e-02 -4.47819824e-04 -3.17928009e-02
      -5.45832468e-03 1.53932832e-02 9.67688765e-03 9.47713852e-03
      -1.48829329e-03 -1.18324496e-02 -3.48098506e-03 -4.82038502e-03
      -7.60520156e-03 3.53619605e-02 2.21764278e-02 1.97411124e-02
      1.77668016e-02 -2.26095319e-04 -9.15972795e-03 -1.13540934e-03
      -1.55108077e-02 4.35379939e-03 3.17423902e-02 -3.42911226e-03
      -2.28640856e-04 -4.18497948e-03 -1.13355452e-02 -1.08664529e-02
      3.83340463e-04 1.87805519e-02 3.16099487e-02 1.59738641e-02
      -1.74682047e-02 -4.85360768e-04 -6.41813735e-03 -2.34224424e-02
      2.76456913e-03 4.68706852e-03 1.61963385e-02 2.91558634e-02
      2.84068473e-02 -1.84315245e-03 3.64957610e-03 -2.84546521e-03
      -4.43295855e-03 -1.05841178e-02 -6.51362725e-03 1.20757222e-02
      1.37096550e-02 -1.37960380e-02 -2.07271762e-02 7.21811177e-03
      -1.26202358e-02 -2.69583426e-03 -3.14680254e-03 1.11275781e-02
      -2.28294451e-03 5.84916212e-03 -1.23545835e-02 -1.56570394e-02
      -1.18026452e-03 4.94210166e-04 1.26390063e-04 1.69168953e-02
      1.24746887e-02 -6.58312021e-03 -1.70840847e-03 -1.66458655e-02
      -7.38681993e-03 -1.45084476e-02 1.48330620e-02 -9.88376699e-03
      1.80961527e-02 3.51483142e-03 -1.01623246e-02 -7.46673392e-03
      -1.73250027e-02 -1.50171658e-02 7.55973952e-03 5.20195626e-03
      9.72411875e-03 2.80969357e-03 3.65769910e-03 -2.78424639e-02
      -2.11288072e-02 -2.55004354e-02 -2.09268555e-02 1.22584682e-02
      1.85823981e-02 1.92875713e-02 2.84484606e-02 6.45442493e-03
      -4.31127427e-03 -3.79505521e-03 -4.57949145e-03 -3.34007503e-03
      -2.51151295e-03 1.71476614e-03 1.59494951e-02 6.28032628e-03
      -2.63943966e-03 4.74443613e-03 -6.08368265e-03 5.14242973e-04
      2.56342813e-03 1.02365408e-02 -1.71685801e-03 5.55365486e-03
      -2.85708951e-03 -1.49973333e-02 -2.34473124e-02 -1.04024997e-02
      -5.35082351e-03 -3.94546939e-03 1.50233293e-02 2.87784357e-02
      3.21894437e-02 1.99734326e-02 -5.81405032e-03 -5.77723607e-03
      4.86625405e-03 6.06590067e-04 1.47128738e-02 9.38389730e-03
      1.19289209e-03 1.57832857e-02 -1.14410538e-02 -1.63829718e-02
      -6.13083038e-03 -9.73161368e-04 1.03600109e-02 3.48977535e-03
      7.88082741e-03 1.50839854e-02 2.22006794e-02 -1.63047872e-02
      -1.28982924e-02 -1.03291571e-02 1.06435698e-02 -1.12975296e-02
      -8.04546196e-03 3.56026366e-03 9.89761297e-03 1.39350835e-02
      3.99058481e-04 -1.91333070e-02 2.73086061e-03 8.61621555e-03
      1.42698223e-02 -8.36617220e-03 1.37543054e-02 -8.26000236e-03
      2.80534998e-02 -5.63826039e-03 -1.45542137e-02 2.20498559e-03
      1.69159602e-02 -2.67274044e-02 -1.31810606e-02 -6.19038939e-03
      1.74856428e-02 9.16404743e-03 1.33092506e-02 2.23494438e-03
      4.95082745e-03 3.70919704e-03 -1.73211563e-02 2.94267491e-04
      1.29651455e-02 -1.22199887e-02 1.09026991e-02 9.34786629e-03
      -1.64581761e-02 -1.49975112e-02 -1.06092328e-02 -2.13709865e-02
      -2.74241879e-03 4.49741585e-03 4.81495447e-03 -4.06534504e-03
      1.04614412e-02 -3.65259848e-03 2.08743736e-02 2.71861590e-02
      -3.99319567e-02 -2.89823320e-02 8.24399292e-03 -3.92202614e-03
      3.22513357e-02 2.74317022e-02 5.62954275e-03 1.87286455e-02
      6.93858042e-03 -1.23447524e-02 -1.49820372e-02 -8.62278324e-03
      -1.89181752e-04 2.44198274e-02 1.49740828e-02 1.57062337e-02
      -2.49903612e-02 -1.45322746e-02 1.26527483e-02 -5.87171922e-03
      -2.13511586e-02 -1.73645150e-02 1.14275281e-04 7.38890702e-03
      -1.48130096e-02 -1.14887981e-02 3.63583043e-02 4.59216386e-02
      1.60743762e-02 -2.40191780e-02 -8.08315538e-03 2.52895756e-03
      -5.01314085e-03 -2.38015074e-02 5.76927466e-03 1.53974155e-02
      2.43199058e-02 1.18269934e-03 -3.66963111e-02 -1.72757488e-02
      4.11426695e-03 1.03114033e-02 9.02794860e-03 3.64237977e-03
      4.66609560e-02 3.70111056e-02 7.78204668e-03 -2.94119027e-02
      -1.44730229e-02 -7.98981823e-03 -5.56023279e-03 -2.69229431e-03
      7.10100261e-03 2.66847089e-02 1.81624908e-02 1.88851717e-03
      -2.65762024e-02 -2.18616845e-03 -6.26929244e-03 -1.16641363e-02
      -1.20777851e-02 2.10059751e-02 1.17669860e-02 2.13812944e-03
      -3.87744629e-04 -2.26799231e-02 7.88369868e-03 -6.49133697e-03
      1.29895960e-03 7.89295044e-03 1.28556732e-02 2.76308507e-02
      3.41063775e-02 1.90683675e-03 -3.51180099e-02 -2.38854978e-02
      -2.50434410e-02 2.04033917e-03 7.36306095e-03 -3.07352748e-04
      1.50636891e-02 6.41292753e-03 7.10734818e-03 -1.82245020e-02
      -9.49514750e-03 -7.60811940e-03 1.99508518e-02 -8.52587167e-04
      -1.26476679e-02 -3.21086543e-03 3.44009069e-03 -2.75133061e-04
      6.27770135e-03 -1.02495290e-02 7.41957407e-03 9.37575568e-03
      4.28639958e-03 5.79172419e-03 -1.46130123e-03 -3.41951428e-03
      -1.54757062e-02 -8.68467428e-03 1.22142129e-03 1.14735132e-02
      1.48385458e-04 6.78387005e-03 -1.72058735e-02 -1.72067843e-02
      1.56085589e-03 1.56103568e-02 -2.74271029e-03 -9.91453067e-04
      2.06109583e-02 1.18464511e-02 -1.50323543e-03 -6.34485343e-03
      -1.13511439e-02 1.19061820e-04 1.01709599e-02 3.80985392e-03
      1.53523460e-02 1.66823398e-02 -9.25610214e-03 -5.27098402e-03
      6.86245970e-04 -2.86835618e-02 -1.19379293e-02 5.27174911e-03
      -1.30427331e-02 1.97026506e-03 1.01012811e-02 -3.56894149e-03
      -7.23828271e-04 7.25765200e-03 -1.53931268e-02 1.50716845e-02
      1.64942374e-03 1.97142605e-02 1.78567991e-02 7.65800569e-03
      -8.25679302e-03 -1.68053666e-04 3.84420482e-03 -1.39691290e-02
      4.16427199e-03 5.53487940e-03 -2.33376715e-02 -1.10869799e-02
      -6.66420034e-04 -7.61043234e-03 3.45990481e-03 3.55227944e-03
      -5.34416828e-03 5.09648072e-03 2.02310123e-02 6.38045743e-03
      -6.02428662e-03 1.99818518e-02 4.44066292e-03 1.84666982e-03
      1.79404505e-02 3.02421879e-02 2.35939380e-02 8.12493789e-04
      1.98486112e-02 3.06863966e-03 -7.85165653e-03 -9.45210643e-03
      -2.37766793e-03 1.40143791e-02 1.49601568e-02 -8.05813179e-04
      -1.63192246e-02 1.28509579e-02 -1.44380201e-02 -1.95722599e-02
      -1.01998495e-02 -4.79093799e-03 6.36852754e-04 1.92385400e-03
      1.23664131e-02 3.45832878e-03 1.26280691e-02 9.88929160e-03
      9.01252497e-03 2.19594333e-02 -2.79111671e-03 1.55651150e-02
      1.53864296e-02 8.35604221e-03 2.98011256e-03 -6.74055703e-03
      -2.14616004e-02 -1.33301597e-02 -5.73465880e-03 -8.41132179e-03
      -6.13357639e-03 -4.32034303e-03 -1.38073890e-02 -1.05457073e-02
      1.77991427e-02 8.04537814e-03 2.31903233e-03 -4.26140800e-03
      -6.68942113e-04 -2.55694259e-02 -2.24888548e-02 -2.08880249e-02
      -8.38463567e-03 9.81723890e-03 2.70991344e-02 1.19727599e-02
      2.49711312e-02 1.09496852e-02 -6.34293770e-03 1.99869182e-02
      -3.89075279e-03 -7.85426423e-03 9.99485981e-03 -9.04424023e-03
      2.29641981e-03 1.92363339e-03 -1.24595938e-02 -5.67548769e-03
      -1.01184323e-02 5.31310542e-03 1.36639632e-03 2.03688554e-02
      1.11632105e-02 5.31472405e-03 6.21057861e-03 -1.96308568e-02
      -1.46629950e-02 -8.37313104e-03 -4.99442639e-03 -1.77118497e-03
      7.49981403e-03 2.38782857e-02 1.57881808e-02 9.48676839e-03
      -4.18355130e-03 -4.38628066e-03 5.11124381e-04 -9.18337237e-03
      9.54602100e-03 4.00794344e-03 -1.42877726e-02 1.04469396e-02
      -1.15264999e-02 -6.81445049e-03 -4.06496273e-03 -2.36039776e-02
      1.64649859e-02 2.05346700e-02 -7.84892065e-04 1.70763135e-02
      -9.13682207e-03 -2.33394140e-03 -4.15587937e-03 -6.02963148e-03
      -2.17284150e-02 -8.11394118e-03 3.50355287e-03 2.21800408e-03
      -2.03906037e-02 7.25824153e-03 3.81170795e-03 -4.36849939e-03
      2.26910179e-03 3.47346743e-03 1.51166099e-03 -2.14755419e-04
      -4.86874860e-03 -1.15229590e-02 2.59593669e-02 4.22521308e-03
      1.26688497e-03 1.12361433e-02 5.52314054e-03 -1.63539425e-02
      -2.50043012e-02 -1.85964517e-02 8.31278414e-03 2.38560829e-02
      1.13451546e-02 8.54474865e-03 4.07895027e-03 -1.15991123e-02
      -9.65758692e-03 4.37644636e-03 -6.95887208e-03 -7.76812900e-03
      -5.21933287e-03 -3.12231178e-03 1.13826962e-02 1.72869060e-02
      -1.17280404e-03 -9.04192962e-03 -2.83831148e-03 8.75451602e-03
      -2.38579363e-02 1.96280349e-02 4.39057592e-03 8.09546281e-03
      1.63003560e-02 1.08256880e-02 -4.14719917e-02 -2.55343504e-02
      -2.52627432e-02 -5.44195389e-03 2.05233339e-02 1.14721153e-02
      9.90911759e-03 1.59309842e-02 1.33309253e-02 -1.55775240e-02
      -3.23045477e-02 -2.92070415e-02 -7.00649759e-03 1.52046354e-02
      1.72750112e-02 6.96917297e-03 2.02888716e-02 1.45201460e-02
      6.96485338e-04 -1.18480371e-02 -2.92873420e-02 -1.33384047e-02
      1.02542490e-02 1.45617407e-02 1.46279698e-02 2.10541766e-02
      2.86445245e-02 1.75981335e-02 -1.64286327e-02 -5.13848625e-02
      -2.02225354e-02 4.23106947e-04 1.42543446e-02 1.80408768e-02
      1.43679371e-03 2.27161013e-02 1.23332506e-02 -7.39666400e-03
      -4.17476930e-02 -1.17448699e-02 1.27529376e-03 6.52149413e-03
      6.53425697e-03 -9.05201712e-04 3.12890857e-02 2.91792378e-02
      -4.11483040e-03 -4.80712876e-02 -1.98186077e-02 -1.54849850e-02
      9.93933645e-04 -1.25831168e-03 1.72552913e-02 4.08796854e-02
      2.38680746e-02 -3.78024019e-03 -2.56959777e-02 -2.18565725e-02
      -1.63455680e-02 -1.07196243e-02 -8.89273360e-03 6.54697791e-03
      3.08479145e-02 2.35077832e-02 -2.48938017e-02 -4.17855941e-02
      -2.51546074e-02 -1.67084616e-02 7.15332013e-03 3.40391323e-03
      1.67983435e-02 1.98852569e-02 3.59385498e-02 -1.19677745e-03
      -2.75683776e-02 -2.95313355e-02 -1.61480810e-02 6.52556587e-03
      9.33904294e-03 7.89897633e-04 7.03509804e-03 8.46194755e-03
      1.79952011e-02 -3.42726111e-02 -1.14891259e-02 -1.26307579e-02
      1.51168397e-02 -3.43850418e-03 4.96741943e-03 9.93310753e-03
      4.63962816e-02 -3.51502630e-03 -3.33404280e-02 -1.22665185e-02
      2.89989123e-03 5.00878692e-03 -1.37725822e-03 2.54088035e-03
      1.77456364e-02 2.02133246e-02 4.00096131e-03 -3.94818708e-02
      -1.10813621e-02 -7.57737644e-03 -2.13362672e-03 -5.00824302e-04
      -1.76961776e-02 -1.88447814e-02 -5.43208653e-03 1.08240440e-03
      8.35742988e-03 9.00310278e-03 2.30811127e-02 1.04918545e-02
      -2.11441680e-03 -7.79060321e-03 5.11571299e-03 5.91853866e-03
      6.22501364e-03 1.11023197e-02 2.40118141e-04 1.86964011e-04
      -7.03625701e-05 -3.41284601e-03 -1.89980920e-02 -1.91142112e-02
      -1.69939548e-02 -2.10310221e-02 1.24269193e-02 2.75955396e-03
      4.06194441e-02 1.31483767e-02 -1.23299910e-02 -1.32383388e-02
      1.05184480e-03 1.36541771e-02 -6.45450316e-03 2.38068551e-02
      -7.55209429e-03 -2.87829828e-03 4.42760577e-03 -1.24421231e-02
      4.01407247e-03 -2.30227271e-03 4.60598059e-03 4.92609385e-03
      -1.54216599e-03 -1.63928568e-02 -1.36573929e-02 -1.26747589e-03
      3.45294573e-03 2.76696606e-04 -8.98646947e-04 1.28215109e-03
      1.07460581e-02 1.19582191e-02 1.29162790e-02 2.90893614e-02
      2.08642706e-02 2.28849775e-03 1.05350278e-02 2.10242602e-03
      8.19018111e-03 1.28367927e-03 7.06861634e-03 -2.11872216e-02
      -7.68134743e-03 -2.20254958e-02 -3.05971736e-03 -9.42154787e-03
      1.51889992e-03 -2.76833028e-03 -2.49325857e-03 1.09801805e-02
      7.13456422e-03 -1.28429476e-02 1.82492435e-02 9.73928906e-03
      -1.15589732e-02 -7.22957216e-03 -1.04238186e-03 6.57314155e-03
      -3.15804151e-03 -2.80433125e-03 1.04873711e-02 3.77130732e-02
      6.92337379e-03 1.19166158e-03 4.73790010e-03 4.65541612e-03
      1.24601787e-03 -1.06607229e-02 -3.23122554e-02 -6.57668756e-03
      4.76244465e-03 -2.52325251e-03 -3.15542743e-02 -1.53115969e-02
      -4.79091192e-03 4.31584567e-03 4.55498416e-03 -6.14787452e-03
      2.40670666e-02 3.02340798e-02 3.29783335e-02 -1.34139729e-03
      -2.03674026e-02 1.76611822e-04 9.08040535e-03 4.26799757e-03
      -1.10277794e-02 -1.98619976e-03 8.23190622e-03 5.33050159e-03
      2.70294514e-03 1.32488301e-02 4.96674655e-03 -2.70572794e-03
      4.56242880e-04 -7.85621163e-03 -3.64739052e-03 -8.34183395e-03
      -2.72967014e-02 1.97414170e-06 -1.85861660e-04 1.82106253e-02
      1.07973274e-02 1.22632449e-02 1.41823082e-03 -1.15863914e-02
      -7.87311047e-03 -1.74516868e-02 9.29727592e-03 1.59774031e-02
      1.27880508e-02 -2.47727148e-04 6.71677850e-03 -3.47739289e-04
      -1.87046770e-02 -3.70822661e-02 -1.78288501e-02 -1.44181645e-03
      -1.26884363e-04 1.11511992e-02 9.89664532e-03 8.92343279e-03
      -4.36040526e-03 -1.55404126e-02 -2.45444719e-02 -2.66597103e-02
      -5.16253570e-03 -4.87540197e-03 4.52111997e-02 1.70464553e-02
      3.56598524e-03 4.57307603e-03 -7.20009301e-03 -4.57481481e-03
      -4.03426867e-03 -1.27522899e-02 -1.40560791e-02 1.08499834e-02
      1.25945555e-02 9.88598354e-03 -7.86558632e-03 -1.15670394e-02
      1.00588799e-03 1.28207175e-04 -2.68013515e-02 3.52224195e-03
      2.82174796e-02 1.31544480e-02 1.69073232e-02 1.60112162e-04
      -1.03849983e-02 -2.14612787e-03 -6.04679296e-03 -1.40415551e-02
      -7.81570212e-04 2.21363455e-03 6.15500985e-03 1.81743242e-02
      -1.34520950e-02 -2.33817212e-02 3.95549316e-04 8.85997061e-03
      -3.36899678e-03 -5.13065513e-03 -1.79614057e-03 -4.85754292e-03
      2.22261287e-02 -7.86858145e-03 -9.78307799e-03 -5.62572014e-03
      9.46220197e-03 1.07486174e-02 1.17833056e-02 -1.47719905e-02
      7.27362232e-03 -4.88484791e-03 1.02068880e-03 6.17124839e-03
      1.19974222e-02 1.32396286e-02 1.13897044e-02 -3.14320391e-03
      4.92005929e-05 -2.43706703e-02 1.88154969e-02 -6.97936304e-03
      -1.16755962e-02 -8.34634062e-03 -2.58880924e-03 2.11584494e-02
      2.14401931e-02 -8.19798000e-03 -5.66503918e-03 1.95937138e-02
      8.82764999e-03 3.43159726e-03 1.59801859e-02 1.62805617e-02
      2.26138253e-02 2.96151843e-02 1.13284430e-02 -4.68857959e-03
      -2.45901514e-02 -1.99451968e-02 8.92715820e-04 1.81086287e-02
      2.38365382e-02 1.29135214e-02 2.74703279e-02 4.39811163e-02
      -4.99307923e-03 -3.09720598e-02 -2.18026470e-02 -2.03502662e-02
      4.47146874e-03 2.69378982e-02 2.21432783e-02 1.23591032e-02
      1.22880163e-02 -1.81645639e-02 -2.33890675e-03 -1.53839858e-02
      -1.01478491e-02 1.43396214e-03 2.18954869e-02 7.44782574e-03
      1.50363492e-02 4.30803187e-02 -8.32398236e-03 -1.57322641e-02
      -1.05949873e-02 -2.51942165e-02 -1.86330881e-02 1.40124774e-02
      1.91567652e-02 3.01306881e-02 3.88050750e-02 4.26110951e-03
      -1.48037551e-02 -4.96487599e-03 -1.46628385e-02 -5.56107797e-03
      1.11924596e-02 5.20079071e-03 3.45765427e-02 4.13816869e-02
      -4.03163303e-03 -1.80637427e-02 -7.37156544e-04 -9.76385362e-03
      1.15367072e-02 2.25151330e-03 -5.31927100e-04 2.16884185e-02
      3.55165042e-02 -1.86050925e-02 -1.78374872e-02 -7.25912862e-04
      -1.54160988e-02 -2.85669323e-02 -3.05985659e-03 -1.89045654e-03
      1.55756781e-02 4.65070233e-02 6.19220664e-05 -1.89923979e-02
      -3.84417908e-05 -1.21568553e-02 3.19504365e-03 -4.83339606e-03
      -7.59592187e-03 1.86390765e-02 4.36489768e-02 -5.19660022e-03
      -3.51143032e-02 3.64122121e-03 -2.13090423e-03 -3.43828532e-03
      2.12662737e-03 6.68321212e-04 3.03418748e-02 4.51900214e-02
      3.94697674e-03 -3.97879854e-02 -1.74662087e-03 -1.33702308e-02
      -1.13054533e-02 7.44705508e-03 -1.83050297e-02 2.13978477e-02
      3.61141711e-02 6.71662064e-03 -3.65366377e-02 1.74323749e-03
      -5.80834504e-03 -2.52795499e-03 7.66406022e-03 8.26541241e-03
      7.13550951e-03 1.91036537e-02 1.01181176e-02 -5.37172779e-02
      -4.17601410e-03 -1.14019215e-02 -7.89726991e-03 1.70212835e-02
      -1.09467003e-02 -8.67562089e-03 -9.01880302e-03 -1.81684680e-02
      -2.25805119e-03 -2.83452304e-04 2.80294158e-02 1.54425660e-02
      -6.83012512e-03 -3.74485040e-03 8.55551334e-04 5.90104517e-03
      1.39636267e-03 1.34132551e-02 5.10541908e-03 1.37042552e-02
      -8.18764977e-03 -8.33072700e-03 -1.75487790e-02 -1.47580467e-02
      1.61497435e-03 -1.32050610e-03 -5.09755453e-03 1.25352642e-04
      -4.48648119e-03 1.27528962e-02 -1.00811687e-03 -2.70411633e-02
      -7.88528845e-03 9.84245352e-03 1.40926754e-02 9.13330633e-03
      1.11607742e-02 3.37686986e-02 1.51185887e-02 -2.31668837e-02
      9.58564226e-03 4.18584794e-03 7.37196440e-03 3.87865910e-03
      2.92272680e-03 9.63202771e-03 -2.55578454e-03 -1.86289556e-03
      -3.47189768e-03 6.91413134e-03 -1.08129764e-03 -8.82699853e-04
      -3.04901949e-03 2.52829544e-04 4.90097702e-03 7.91292265e-03
      1.45587446e-02 1.71994846e-02 1.35730050e-04 1.62037322e-03
      6.20077364e-03 5.65429078e-03 4.42427676e-03 1.78303532e-02
      2.03847308e-02 1.55917620e-02 -2.19498686e-02 7.72760343e-03
      1.66127773e-03 -2.93224817e-03 -1.28550967e-03 4.74179769e-03
      1.30337859e-02 1.31607968e-02 3.20147281e-03 1.35404197e-02
      -5.59475739e-03 -1.23832896e-02 -3.49020329e-03 7.00067903e-04
      1.19331498e-02 7.53280660e-03 -6.40681759e-03 1.75857488e-02
      4.00103144e-02 1.29572330e-02 -1.36548001e-02 2.92334647e-04
      1.58897004e-04 1.08531276e-02 7.26085738e-04 -9.06285550e-03
      8.48838128e-03 2.22131219e-02 -6.99238517e-05 -2.12452170e-02
      -3.54374759e-03 -4.96111577e-03 9.73489601e-03 4.27316222e-03
      -1.44399228e-02 3.10553354e-03 3.33631523e-02 7.70124746e-03
      -7.75156822e-03 2.63018347e-03 4.09833330e-04 -1.96145687e-04
      -8.96493671e-04 -1.42397005e-02 -2.27857870e-03 2.21785679e-02
      1.49791241e-02 3.48977856e-02 9.97414533e-03 -3.12866434e-03
      9.37584788e-04 -4.50123975e-04 -1.64403319e-02 -1.57179013e-02
      -7.49332772e-04 3.70912789e-03 6.47168187e-03 2.74880584e-02
      1.41671347e-02 5.61538944e-03 -4.14433936e-03 -1.06232548e-02
      -1.76663809e-02 -1.93108618e-02 -1.09616340e-04 3.83134484e-02
      7.33728148e-03 1.52093358e-03 -1.79001000e-02 -4.71576350e-03
      -1.12026790e-02 -1.24350861e-02 -1.80233736e-02 -1.01806093e-02
      2.56259693e-03 1.25908358e-02 1.65453274e-02 -8.53335671e-03
      2.31534638e-03 -3.71750328e-03 -2.03459505e-02 -8.74950737e-03
      -7.13096000e-04 5.34589496e-03 3.75431478e-02 2.09383890e-02
      1.61714014e-02 1.31173816e-03 -8.70836992e-03 -5.11397468e-03
      -1.05646104e-02 -6.60805823e-03 2.30635679e-03 5.20310970e-03
      7.60367000e-03 1.40904933e-02 -1.34201453e-03 -2.80829985e-02
      -1.06157968e-03 4.75361245e-03 2.67698476e-03 6.41410751e-03
      2.17037853e-02 2.04037279e-02 1.05064805e-03 4.42281511e-04
      -4.52390546e-03 -6.90947147e-03 -5.42588811e-03 -1.64861605e-02
      5.00728004e-03 3.16216797e-03 -8.61555920e-04 -1.32390289e-02
      3.14525358e-04 -1.57521702e-02 -1.10271499e-02 -1.38681801e-02
      1.52787408e-02 4.72695893e-03 -4.59756190e-03 -1.34870028e-02
      6.17884891e-03 -5.94500545e-03 -1.28113441e-02 -1.31300022e-03
      9.84626450e-03 2.45533828e-02 1.47488676e-02 5.83347399e-04
      -1.33741600e-02 1.02436859e-02 -1.12422695e-02 -3.08672618e-03
      1.51818078e-02 1.58613324e-02 3.95898195e-03 -1.11807464e-02
      -1.12750391e-02 -6.16508583e-03 -6.67848019e-03 -2.27150926e-03
      -1.51294526e-02 -4.00359137e-03 -9.09283292e-03 2.57489067e-02
      4.94712591e-03 6.06645085e-03 -6.18811930e-04 3.36340722e-03
      -2.46743280e-02 -2.67224871e-02 -5.65618929e-03 1.30889267e-02
      2.46589724e-02 9.89955757e-03 2.67047272e-03 -1.75939221e-02
      3.45054548e-03 -1.20534068e-02 -1.77109409e-02 -8.07206240e-03
      1.74788684e-02 2.71114707e-02 2.47441661e-02 1.51919089e-02
      -1.37693295e-02 -9.89000499e-03 -4.28485824e-03 -2.62430627e-02
      -2.40105800e-02 -2.49528093e-04 3.95547524e-02 1.64149534e-02
      -5.09093748e-03 -1.39548033e-02 2.21018144e-03 -1.15603926e-02
      -2.45641619e-02 -1.73293799e-02 -1.52822118e-03 4.84567657e-02
      5.53308092e-02 1.60557088e-02 -5.42434212e-03 3.62736033e-03
      -7.37054693e-03 -2.45272554e-02 -2.32958701e-02 -1.80571284e-02
      1.79289225e-02 1.22483559e-02 1.84868108e-02 -1.89959034e-02
      -2.34916937e-02 -6.16024341e-03 -5.00348862e-03 -1.66166872e-02
      -1.79387648e-02 1.82098225e-02 2.96857040e-02 3.50750796e-02
      -1.09437685e-02 -2.11652890e-02 -9.60715953e-03 -6.88514207e-03
      -3.88740213e-04 -9.44396853e-03 2.71149781e-02 6.08301610e-02
      2.08884049e-02 -1.25079621e-02 -2.08862796e-02 -1.12572005e-02
      -2.09172629e-03 -2.70540807e-02 -9.67104640e-03 1.01602953e-02
      3.36296894e-02 3.75547297e-02 -1.32047702e-02 -2.09598206e-02
      -1.16711687e-02 7.29736930e-04 1.97992241e-03 6.70069642e-03
      -4.08089254e-03 1.86154507e-02 4.01271842e-02 1.30258296e-02
      -2.80725397e-02 -7.48038234e-04 6.61490078e-04 1.08014361e-03
      1.14575587e-02 6.71272492e-03 4.45405673e-03 2.61140224e-02
      4.14590957e-03 -1.74076874e-02 7.65037211e-03 3.68835335e-03
      1.69951387e-03 2.39616204e-02 1.06483686e-03 3.84260132e-03
      3.91173288e-02 1.85614359e-02 -2.12936942e-02 -7.24491710e-03
      -9.61096739e-05 8.79419502e-03 1.84412487e-02 -8.69457703e-03
      -1.26250163e-02 5.30334795e-03 1.81056652e-02 -8.49124137e-03
      -5.53613878e-04 8.38038395e-04 9.72367171e-03 9.51242540e-03
      -1.35658346e-02 -4.58539184e-03 9.41885170e-03 1.22870062e-03
      1.12349819e-03 1.19092045e-02 -1.96697563e-02 1.84130576e-02
      4.85875597e-03 -1.54708391e-02 -2.04224559e-03 1.06042530e-02
      4.40370385e-03 9.48777702e-03 1.95486471e-02 2.24538352e-02
      1.52281839e-02 -1.16211679e-02 -1.45379780e-02 3.52308969e-03
      1.19253937e-02 -8.44763964e-03 -5.28010167e-03 8.42182152e-03
      -1.46818478e-02 1.67735759e-02 -3.77139379e-03 -1.20584257e-02
      5.33705868e-04 1.38973128e-02 2.07511373e-04 6.70350762e-03
      1.78893562e-02 4.82132938e-03 -7.13327946e-03 -8.58924119e-04
      -3.97066679e-03 5.13154315e-04 2.01476086e-03 -1.90090935e-03
      6.41633989e-03 5.22055337e-03 2.82575041e-02 2.08016839e-02
      -3.17009650e-02 -1.62409861e-02 2.17595414e-04 -5.63338632e-03
      -6.47435943e-03 4.98564728e-03 6.25092536e-04 1.14047537e-02
      9.65447165e-03 -4.36971523e-03 -3.46361776e-03 -3.79661587e-03
      1.11777952e-03 -6.26887102e-03 6.77781040e-03 1.21084629e-02
      -2.68896169e-04 -2.96930782e-03 -1.57618094e-02 -2.63189077e-02
      -5.70036191e-03 -3.15400888e-03 -5.05189935e-04 5.61831146e-03
      1.27104670e-02 4.92344669e-04 1.89864729e-02 4.10545198e-03
      -2.60894988e-02 -1.01505164e-02 -2.38427147e-03 -5.10883052e-03
      1.85919122e-03 1.17213080e-04 2.00204528e-03 9.11867339e-03
      2.81307381e-02 -1.26387170e-02 -1.52542386e-02 7.73053034e-04
      7.88158970e-04 -3.35195032e-03 1.54315564e-03 -8.20304826e-03
      3.09726130e-03 3.26270163e-02 -3.03412154e-02 -1.23361517e-02
      -4.59597912e-03 -6.60901237e-03 -4.93580941e-03 4.31041885e-03
      1.22861434e-02 3.38508189e-02 1.57852285e-02 -1.67289320e-02
      -2.72089243e-02 -6.31003734e-03 -9.24631301e-03 -3.47008975e-03
      6.88864756e-03 4.93304525e-03 3.27129401e-02 2.91262195e-02
      -1.59026422e-02 1.32995518e-02 6.19479455e-04 3.30921891e-03
      -1.37154935e-02 -1.57569861e-03 -5.57464175e-03 -1.94764207e-03
      1.60577626e-03 2.07138574e-03 -1.49740288e-02 6.38920392e-06
      4.70140949e-03 -1.00688739e-02 -1.55698007e-03 2.61408393e-04
      -5.21555170e-03 1.64294261e-02 1.23988660e-02 -5.99740958e-03
      -3.57204978e-03 4.80001123e-04 -6.23955298e-03 -8.97166494e-04
      -9.20068379e-03 5.17430948e-03 3.01379226e-02 1.68256724e-04
      -7.94611592e-03 -1.45294517e-02 -1.09984307e-03 -5.74067421e-03
      -9.74675734e-03 -4.79765609e-03 8.69553350e-03 2.99172029e-02
      1.06770883e-03 -9.87690035e-03 3.02134850e-03 3.87837715e-03
      -2.71683908e-03 -5.17718308e-03 -6.99848169e-03 -6.54832833e-03
      -4.19460097e-03 1.48029102e-03 2.66205263e-03 -2.58929725e-03
      -1.56130060e-03 -1.25189470e-02 -5.34006953e-03 -1.14118177e-02
      -1.25960559e-02 -5.34156617e-03 3.82158458e-02 -1.91904735e-02
      2.24265363e-03 3.06730252e-03 -1.96697144e-03 -1.33180153e-02
      -7.13333813e-03 -2.41609593e-03 2.76204273e-02 2.42685471e-02
      -3.12975608e-02 -2.42644898e-03 -1.65132096e-03 -3.53275728e-03
      -8.06738343e-03 -7.56496051e-03 -4.39321343e-03 1.03569683e-02
      6.37255330e-03 -3.20610125e-04 -4.93519381e-03 -1.95948500e-03
      -5.90076856e-03 -1.86142232e-03 -1.09926602e-02 -1.22781668e-03
      -1.31249549e-02 5.15710637e-02 -5.86759183e-04 -1.80923648e-03
      -2.05020013e-04 -5.74052567e-03 -1.51025523e-02 -1.55641278e-02
      -1.51278405e-02 -1.56598333e-02 3.91154662e-02 -1.12183541e-02
      -1.75125001e-03 1.09666761e-03 -1.00237421e-05 -4.09139320e-03
      -6.78817648e-03 -1.51620237e-02 1.33531336e-02 2.45693158e-02
      2.20864955e-02 1.17854038e-02 1.40601351e-05 -7.20823789e-03
      -1.56378355e-02 -1.80989448e-02 -1.56062888e-02 8.12570658e-03
      5.56397215e-02 1.69628244e-02 -9.17844754e-03 -6.27418421e-03
      -4.20989050e-03 -1.02837561e-02 -1.25482157e-02 -2.46501435e-02
      -6.37475215e-03 3.76632139e-02 5.49504347e-02 7.66071305e-03
      -8.23017675e-03 3.41597502e-03 -6.69853855e-03 -1.58004053e-02
      -2.79642418e-02 -2.51769405e-02 5.37428744e-02 2.68418882e-02
      -7.96195772e-03 -3.38759017e-03 -1.18533764e-02 -9.97249503e-03
      -1.37156779e-02 -2.55446471e-02 -7.56792072e-03 2.46946551e-02
      3.02275140e-02 -7.20903836e-03 2.84547077e-05 1.58722489e-03
      -2.60649598e-03 -1.88124217e-02 -1.94680970e-02 3.35457560e-04
      2.19774973e-02 5.61737679e-02 1.40771028e-02 -7.03512877e-03
      -9.22890194e-03 -9.67225898e-03 -2.22824072e-03 -1.54490350e-02
      -3.16429127e-04 2.44255969e-03 1.74113959e-02 2.81925276e-02
      -6.42222352e-03 -1.52219916e-02 -1.44384410e-02 3.78607097e-03
      7.10955029e-03 1.76969692e-02 6.54623378e-03 1.23778377e-02
      -2.82438676e-04 -1.18943071e-02 -9.26606450e-03 -9.49150603e-03
      -8.21302272e-03 -6.15353789e-03 1.58222020e-02 -4.82578157e-03
      1.47191854e-03 8.58262926e-03 -2.54097953e-03 -2.27862522e-02
      -1.04464879e-02 -7.66960997e-03 -5.49379457e-03 9.03832912e-03
      -9.06602421e-04 1.01174302e-02 1.83864217e-02 2.04270873e-02
      -1.60174016e-02 -2.91962200e-03 -2.54370505e-04 1.12264650e-02
      2.47475840e-02 -2.81774602e-03 9.16509330e-03 1.11621304e-03
      2.06213724e-02 -6.33330597e-03 -1.82205602e-03 1.54055876e-03
      1.34317977e-02 1.23137850e-02 -7.64205167e-03 -1.87588588e-03
      4.07198491e-03 1.80255435e-02 -1.02359615e-02 7.93214981e-03
      2.59872642e-03 7.92173296e-03 1.97598822e-02 -1.23258810e-02
      -7.75635184e-04 -5.70495904e-04 1.98961589e-02 -3.53100011e-03
      -1.11113105e-03 1.12909768e-02 1.44418720e-02 -1.21860756e-02
      -7.95399211e-03 6.60717301e-03 8.75334535e-03 -4.26057074e-03
      5.47010778e-03 4.50168177e-03 -1.18811755e-02 1.69638284e-02
      -8.78424267e-04 -5.17741684e-03 3.50082479e-03 8.45400337e-03
      6.06315071e-03 1.66609660e-02 1.51761798e-02 1.61544178e-02
      -9.33082949e-04 -1.09028872e-02 -1.24813905e-02 -4.80203424e-04
      4.81604366e-03 -7.13563198e-03 4.94088465e-03 6.24797633e-03
      3.02611757e-03 7.88623933e-03 -3.25438799e-03 -3.06043937e-03
      -3.00739892e-03 2.32523587e-03 7.97424745e-03 -1.11134034e-02
      1.38365505e-02 2.21917462e-02 -1.39860716e-02 -2.30644885e-02
      1.88402692e-03 -1.52763491e-03 -4.25341213e-03 4.67575359e-04
      1.02645680e-02 9.21126455e-03 2.01078784e-02 -3.29642626e-03
      -1.65663715e-02 -6.66093500e-03 -3.02433083e-03 -4.70572384e-03
      3.02869733e-03 7.06071965e-03 9.70771816e-03 1.13588180e-02
      3.00024301e-02 3.53744091e-03 -7.21499790e-03 3.77746089e-03
      -6.47978345e-03 1.08402956e-03 6.11702399e-03 9.18799546e-03
      1.72244087e-02 -3.53474542e-02 -3.42562571e-02 -1.46857405e-03
      3.43815261e-03 -6.63950713e-03 -1.31795648e-03 1.77951232e-02
      5.95512567e-03 7.23154796e-03 9.58614610e-03 -1.88974235e-02
      -1.03305262e-02 -6.56272518e-03 -3.50724114e-03 -1.95443863e-03
      -3.80588725e-04 1.35278306e-03 6.46724086e-03 2.84372102e-02
      1.22678811e-02 5.19422069e-03 -2.53043920e-02 2.20507942e-03
      -3.65989306e-03 -1.52705656e-03 3.25826253e-03 4.71935002e-03
      2.79344730e-02 1.76510327e-02 -1.46199698e-02 -1.73023378e-03
      -5.58600063e-03 -1.77778048e-03 -6.36635174e-04 -3.21504450e-03
      4.57079755e-03 1.32135693e-02 -1.24360863e-02 3.30998190e-03
      -1.70332342e-02 7.19323661e-03 -9.40946105e-04 -9.18500964e-03
      -4.99990827e-04 7.25177443e-03 1.54537493e-02 7.65780592e-03
      9.67704691e-03 -3.72719392e-03 3.35126091e-03 -1.02277473e-03
      5.34679857e-05 -2.36807493e-04 -6.68555079e-03 5.18374145e-03
      1.62479263e-02 3.56474263e-03 -3.98979784e-04 -4.84940363e-03
      -2.55540072e-04 1.56292005e-03 -1.08250128e-02 -3.10565857e-03
      7.54523324e-03 2.02799961e-02 -2.08779760e-02 -8.10585264e-03
      9.54597723e-03 4.50386055e-04 -3.46324220e-03 -1.30441575e-03
      3.05530336e-03 3.31212929e-03 2.66721821e-03 7.59827904e-03
      -1.13184778e-02 -1.16075287e-02 2.86086556e-03 -1.93153489e-02
      -4.55106283e-03 2.24111672e-03 8.45277682e-03 4.54778969e-03
      1.85993165e-02 -8.70090164e-03 5.78220817e-04 1.35668030e-03
      2.86460679e-04 -6.17923867e-03 -6.31439127e-03 -2.67630583e-03
      2.79102940e-02 1.43465828e-02 -2.54669767e-02 1.58410741e-03
      3.18432489e-04 -3.82835721e-03 -5.39957266e-03 -6.44220784e-03
      -5.33315353e-04 2.03367043e-02 9.69419163e-03 -2.09682174e-02
      -2.14869599e-03 4.28200141e-03 -6.40460849e-03 -2.34311423e-03
      -1.12120518e-02 5.74141741e-04 2.37189252e-02 5.61833847e-03
      -2.76904460e-02 -4.45452752e-03 1.99239515e-03 -1.01796472e-02
      -2.16466817e-03 -9.53888427e-03 3.72559205e-03 2.74596550e-02
      3.45403776e-02 -8.49711150e-03 -3.23391799e-03 2.37232284e-03
      1.30564149e-03 -8.62975605e-04 8.96070014e-06 -1.09727457e-02
      1.53657030e-02 3.16356793e-02 1.62763838e-02 7.69578712e-03
      -2.34512053e-03 -5.81797026e-03 -7.60857714e-03 -9.70167480e-03
      -1.53907305e-02 1.27591481e-02 2.22869255e-02 -1.79079678e-02
      -1.19639728e-02 2.99524516e-03 -9.54579737e-04 1.23038224e-03
      2.78972555e-03 -7.36673130e-03 9.82111972e-03 1.40521359e-02
      -1.31717036e-02 -3.72925703e-03 -4.60667303e-03 -8.61195673e-04
      4.99778753e-03 -2.70742545e-04 -2.07789801e-02 2.42515164e-03
      4.29414473e-02 1.34435911e-02 -5.07683866e-03 1.20553974e-04
      -4.28229943e-03 3.16998689e-03 -5.41644311e-03 -1.54883731e-02
      1.10793095e-02 2.70257462e-02 1.58608556e-02 -1.01422658e-02
      -1.57351815e-03 -1.05330604e-03 1.20747508e-02 -1.22770818e-03
      5.74887614e-04 2.62261480e-02 8.46209191e-03 -1.56074967e-02
      -4.77093039e-03 -1.87971396e-03 3.80504364e-03 1.22836847e-02
      2.38966336e-03 -1.53156929e-02 -1.32264653e-02 -8.63211043e-03
      -1.26164984e-02 -1.25313457e-02 -3.69274011e-03 -3.73883202e-04
      1.40599841e-02 9.62502230e-03 8.09486490e-03 -1.04102837e-02
      -3.73664452e-03 6.38574827e-03 -7.19514582e-03 -9.98902018e-04
      -6.97025517e-03 8.73476092e-04 -1.32092834e-03 1.52135557e-02
      2.58931350e-02 5.29359467e-03 6.77587790e-03 7.55041884e-03
      1.15002105e-02 -1.25699174e-02 6.51365845e-03 -1.09800166e-02
      -8.35422799e-03 1.21062137e-02 -4.34871204e-02 1.79030874e-03
      -1.21414755e-02 8.32542125e-03 1.89260468e-02 5.31435898e-03
      4.65860916e-03 1.81223899e-02 1.12458644e-03 -2.81160977e-02
      7.68999197e-03 1.69093106e-02 2.29030345e-02 3.99419591e-02
      7.03460956e-03 -6.66298345e-03 -3.61229014e-03 -2.13528946e-02
      -1.73882004e-02 2.56240293e-02 1.00797154e-02 1.53925978e-02
      -8.57858267e-03 1.24861430e-02 1.68665894e-03 3.07450886e-03
      7.54235126e-03 -1.42076155e-02 -2.99125141e-03 2.10631825e-03
      1.81628820e-02 -1.84602011e-03 1.14179747e-02 1.53426556e-02
      2.12329309e-02 7.49192853e-03 -2.48801056e-02 1.30344257e-02
      2.06305850e-02 2.00843066e-02 2.10990645e-02 7.15077017e-03
      3.21600446e-03 8.86854436e-03 -1.81841180e-02 -1.95040256e-02
      -1.02876108e-02 6.94874534e-03 1.37560628e-02 7.43664149e-03
      1.36968121e-02 1.52811510e-02 3.04869357e-02 1.89301430e-03</_></support_vectors>
  <decision_functions>
    <_>
      <sv_count>1</sv_count>
      <rho>1.1194989006679841e+00</rho>
      <alpha>
        1.</alpha>
      <index>
        0</index></_></decision_functions></my_svm>
</opencv_storage>
