<?xml version="1.0"?>
<opencv_storage>
<my_svm type_id="opencv-ml-svm">
  <svm_type>C_SVC</svm_type>
  <kernel><type>LINEAR</type></kernel>
  <C>1.0000000000000001e-01</C>
  <term_criteria><epsilon>1.1920928955078125e-07</epsilon>
    <iterations>1000</iterations></term_criteria>
  <var_all>2916</var_all>
  <var_count>2916</var_count>
  <class_count>2</class_count>
  <class_labels type_id="opencv-matrix">
    <rows>1</rows>
    <cols>2</cols>
    <dt>i</dt>
    <data>
      1 2</data></class_labels>
  <sv_total>1</sv_total>
  <support_vectors>
    <_>
      1.16405245e-02 3.58678517e-03 3.68739711e-03 -2.89109279e-03
      -4.71499152e-02 -5.45977557e-04 2.00445578e-03 3.21810856e-03
      4.45433718e-04 4.58087251e-02 2.95038912e-02 2.79109888e-02
      -9.20884218e-03 -5.45187630e-02 -1.89783070e-02 1.70375127e-03
      1.12378458e-02 2.91232597e-02 1.51304286e-02 1.69145744e-02
      2.48945262e-02 1.44623583e-02 -3.16878483e-02 -5.08122146e-03
      8.89191986e-04 2.38080975e-03 -4.47259704e-03 3.51837799e-02
      5.60850576e-02 5.21939546e-02 6.00547669e-03 -5.01865707e-02
      -3.88548411e-02 -3.72738950e-03 5.95321925e-03 2.99268030e-02
      1.33992331e-02 5.58056217e-03 4.10137372e-03 -7.58593436e-03
      -4.02840637e-02 -2.07239557e-02 -2.30051856e-03 3.27048562e-02
      2.98141260e-02 5.44629234e-04 -1.40223140e-02 -9.82140843e-03
      -7.05274707e-03 -5.12914844e-02 -3.18220891e-02 6.57030661e-03
      4.15118337e-02 1.79422293e-02 2.15438530e-02 1.42408470e-02
      1.82372425e-02 -1.33297322e-02 -4.07401472e-02 -3.29483189e-02
      1.43743930e-02 3.61434408e-02 3.84890586e-02 -1.19636040e-02
      -1.83923300e-02 -2.04809085e-02 -1.48783056e-02 -3.93636823e-02
      -7.12287240e-03 3.35219912e-02 4.38938066e-02 1.09955892e-02
      -9.33088479e-04 -6.25931658e-03 -6.49818860e-04 7.08618492e-04
      -1.90166794e-02 -5.36453445e-03 2.09617224e-02 2.16490719e-02
      2.58071837e-03 -1.00420257e-02 -1.02230981e-02 -8.02382536e-04
      -3.90906353e-03 -1.96206663e-02 -1.33581385e-02 3.59344482e-03
      1.00941854e-02 7.13823410e-03 -2.55060382e-02 -2.35897116e-02
      -5.36062871e-04 1.80878900e-02 6.82570925e-03 2.20975466e-02
      5.24207875e-02 4.50780429e-02 2.51803407e-03 2.96443468e-03
      -4.78105200e-03 8.15316662e-03 1.10188602e-02 1.26598775e-02
      -4.04728996e-03 1.49661247e-02 1.38695659e-02 1.79776514e-04
      1.26697461e-03 2.00825725e-02 1.27451466e-02 -4.30040201e-03
      -2.06767954e-02 -7.82863609e-03 -1.28302386e-03 7.17691891e-03
      8.69706087e-03 1.22284051e-03 3.33012268e-02 2.06130594e-02
      6.66073523e-03 5.68135059e-04 -1.59608871e-02 6.91822715e-05
      -2.01867465e-02 -9.28799249e-03 6.61388785e-03 2.01074649e-02
      1.90440398e-02 -1.04790530e-03 -6.74447790e-03 -1.84878130e-02
      -8.92003998e-03 1.16787497e-02 1.32443644e-02 2.15187985e-02
      3.77132185e-02 1.98003389e-02 6.44724863e-03 -5.44190221e-03
      -2.68961135e-02 -1.52870109e-02 -9.83462110e-03 1.54665839e-02
      4.71043371e-04 7.29261944e-03 4.68837330e-03 3.83862131e-03
      -3.92872840e-03 -1.52962776e-02 -2.23023887e-03 -4.13787970e-03
      -4.20410605e-03 -9.76111088e-03 6.17743377e-03 1.00652613e-02
      4.84009826e-04 -2.50991411e-03 -8.45294818e-03 3.06108594e-03
      1.44917639e-02 -1.06183896e-02 7.56900292e-03 4.47066221e-03
      -9.85585246e-03 -1.19975619e-02 2.29760562e-03 -2.11361647e-02
      9.72292293e-03 -9.41117760e-03 1.01445208e-03 -8.37051030e-03
      -2.52524205e-02 -1.80597045e-02 -9.25321504e-03 9.06893611e-03
      -1.11249660e-03 2.26122905e-02 3.08882836e-02 9.58694983e-03
      -1.18906656e-02 7.15695554e-03 8.52195546e-03 4.54414636e-03
      -5.32680005e-03 -4.70787799e-03 5.03560179e-04 7.65013555e-03
      -1.07134059e-02 1.80422217e-02 1.59788057e-02 6.44440670e-03
      -2.75097508e-03 -1.66702177e-02 -1.44922221e-02 -1.74880959e-02
      2.40474357e-03 6.75068796e-03 6.41119480e-03 -5.05872164e-03
      -7.13888556e-03 2.56229221e-04 -2.12174072e-03 7.77415372e-03
      1.64232459e-02 2.59381020e-03 1.00320792e-02 3.32831107e-02
      1.20350532e-02 1.47983339e-03 -2.97420449e-03 -4.14247159e-03
      4.33231518e-03 -1.82978753e-02 -2.36611944e-02 8.82275961e-03
      6.66471617e-03 1.03575597e-02 1.11143980e-02 -3.82519187e-03
      -2.66208760e-02 -1.26644047e-02 -1.17104081e-02 6.83098007e-03
      3.29649192e-04 -8.96565430e-03 9.94736236e-03 1.45074502e-02
      -5.03933942e-03 -1.52847543e-02 -6.11722656e-03 -1.39694847e-02
      7.98875280e-03 1.10743362e-02 -1.20285701e-03 2.21008919e-02
      2.04762667e-02 -4.91333660e-03 -1.35121159e-02 -5.18985046e-03
      -1.02045871e-02 1.14446143e-02 -2.42549111e-03 -1.50329405e-02
      1.32964607e-02 5.24785509e-03 -8.75665247e-03 -1.17231216e-02
      3.08331358e-03 6.08256878e-03 4.11994457e-02 -1.09438896e-02
      9.20705404e-03 1.54644968e-02 1.71928741e-02 -3.06193135e-04
      -2.27227109e-03 -9.72548313e-03 -1.17250104e-02 -1.48721365e-02
      -1.06743127e-02 -1.12010008e-02 1.34577313e-02 1.62952244e-02
      1.80998258e-02 1.85575727e-02 6.19285693e-03 -9.77337454e-03
      -1.23322438e-02 -1.73398983e-02 -5.05485712e-03 2.42098980e-02
      9.16082226e-03 -8.77853762e-03 -1.23550603e-02 -1.98151544e-03
      -4.42265673e-03 1.49197364e-02 3.91333771e-04 -1.02931559e-02
      2.47532856e-02 3.11161708e-02 2.92947441e-02 2.17297650e-03
      1.08501408e-02 -1.80523992e-02 -1.31055256e-02 -1.20789083e-02
      -6.97870366e-03 2.71474244e-03 -1.12419238e-03 8.75635818e-03
      9.25478246e-03 2.17050035e-02 -3.09670810e-03 -1.21585019e-02
      -1.23161608e-02 -7.63832871e-03 9.32205992e-04 -3.84816155e-03
      7.79862050e-03 2.23748796e-02 2.42154058e-02 1.32296085e-02
      7.71108316e-03 -2.63203625e-02 -1.21612092e-02 8.36918037e-03
      -3.09943594e-03 9.56600008e-04 3.72503442e-03 2.03304850e-02
      -6.92281080e-03 -1.37066171e-02 -1.70526579e-02 -1.64946616e-02
      -1.15923882e-02 -1.55034484e-02 -1.60308294e-02 1.30580843e-03
      1.44872116e-02 2.04964131e-02 1.18699633e-02 -1.04493434e-02
      -3.77030158e-03 3.31209297e-03 2.70491443e-03 1.23124737e-02
      -2.25863773e-02 6.23864238e-04 -4.28179570e-04 -2.65635434e-04
      -7.27833435e-03 4.78205387e-04 3.12233865e-02 4.90070321e-02
      2.48865522e-02 -3.67680192e-02 -2.35059615e-02 -1.99797470e-03
      4.29590652e-03 1.27090588e-02 -3.71256680e-03 -3.77288228e-03
      -6.93408353e-03 1.57508887e-02 1.66062638e-02 3.23228538e-02
      5.21443971e-03 -4.05882299e-03 -8.50678701e-03 -5.93369035e-03
      6.96094614e-03 3.57336886e-02 1.78447645e-02 1.07642012e-02
      6.84124092e-03 -4.57043527e-03 -3.31041333e-03 6.45020697e-03
      6.01859298e-03 1.32330870e-02 1.80662628e-02 -7.28271389e-03
      -2.94336826e-02 -2.01126523e-02 1.84476096e-02 1.35288686e-02
      1.83254983e-02 -1.56443249e-02 -1.75350662e-02 -1.20590460e-02
      -1.10724131e-02 -1.95020065e-02 -4.86331992e-03 4.22486551e-02
      3.24872248e-02 8.27409513e-03 4.83572832e-04 6.64092973e-03
      1.71599500e-02 4.62567154e-03 -2.35746466e-02 -1.52251252e-03
      1.76417306e-02 1.15227336e-02 1.59435458e-02 -1.40495002e-02
      -1.26801198e-02 -6.24328479e-03 -9.06971376e-03 -1.53652541e-02
      2.02585999e-02 4.28671353e-02 1.52911618e-02 -1.62817398e-03
      -3.27210799e-02 -1.80519987e-02 -7.97915913e-04 1.97225530e-02
      4.83321404e-04 9.03607253e-03 2.07647868e-02 1.36834951e-02
      -1.44940279e-02 -1.76832043e-02 3.65250232e-03 2.67272000e-03
      1.00969113e-02 1.09561172e-03 -1.10396575e-02 -1.61692444e-02
      -1.34838289e-02 -1.35687040e-02 -2.51426790e-02 -8.52877833e-03
      5.45083953e-04 1.64322406e-02 2.49327328e-02 4.28431928e-02
      2.21226756e-02 -3.26370215e-03 -1.63400006e-02 -1.12285493e-02
      1.49236079e-02 1.01149296e-02 1.84205007e-02 4.09440212e-02
      3.92814316e-02 -1.45417759e-02 -2.78900675e-02 -1.23096732e-02
      -2.33802246e-03 9.98455845e-03 3.81503208e-03 3.63823236e-03
      -3.10525275e-03 -2.21581049e-02 -9.87868011e-03 1.52354361e-02
      1.01699941e-02 -9.70225129e-03 8.72732326e-03 3.94206960e-03
      -7.06805196e-03 -1.34323770e-02 -1.13666272e-02 -1.10540390e-02
      -4.87502199e-03 -2.05572974e-03 1.78029051e-03 2.10432578e-02
      1.46563407e-02 1.57492198e-02 6.58295676e-03 -5.74554596e-03
      3.68826953e-03 1.71474461e-02 7.59586180e-03 -5.62433247e-03
      1.48357917e-02 3.68413189e-03 2.11935607e-04 -1.85470004e-02
      -4.42726165e-03 2.46614292e-02 2.33949311e-02 2.78862715e-02
      -1.31027643e-02 -3.58594884e-03 -1.01016862e-02 -1.45061631e-02
      -4.51772893e-03 5.72739542e-03 1.17956558e-02 5.40534407e-03
      -5.97994309e-03 -1.69256348e-02 -2.68395767e-02 -1.81672256e-02
      -1.41792977e-02 1.45531679e-03 8.11236538e-03 2.22331062e-02
      1.97029375e-02 1.68785844e-02 -1.90823637e-02 4.10826132e-03
      -1.26643796e-02 -9.18303896e-03 -7.85139855e-03 1.92951802e-02
      2.19340087e-03 1.34764314e-02 1.09013431e-02 6.22543879e-03
      -5.72750228e-04 -1.27359331e-02 -1.73567235e-02 -2.40340014e-03
      1.40654724e-02 7.12138508e-03 1.08000999e-02 7.26348534e-03
      1.04268761e-02 -7.61363562e-03 -1.02432147e-02 -4.77977004e-03
      -5.74017363e-03 1.94480643e-03 6.98997313e-03 1.95540395e-03
      8.42133071e-03 2.92438883e-02 2.10707970e-02 3.18076811e-03
      -1.97163504e-02 -1.12522151e-02 4.42359829e-03 -1.75660923e-02
      -2.04700921e-02 1.09942369e-02 3.09514254e-03 1.71909935e-03
      -4.91349166e-03 -4.82232030e-03 -1.72757183e-03 5.05209155e-03
      4.71681589e-03 2.92356103e-03 5.32868644e-03 9.80972406e-03
      1.62337553e-02 -5.46322111e-03 -1.69940051e-02 -3.81421600e-03
      8.18495546e-03 -6.18224498e-03 9.34406836e-03 9.94675886e-03
      -3.13997990e-03 1.40803652e-02 8.89032893e-03 -5.75816585e-03
      -6.85368339e-03 3.57436744e-04 -2.81559979e-03 1.32604418e-02
      -7.79451337e-03 -2.95861438e-02 4.94100526e-03 -3.95839941e-03
      -7.97465350e-03 -4.19252785e-03 -5.27920481e-03 1.53977331e-02
      3.67220193e-02 -1.53498398e-02 1.13982661e-02 6.23900862e-03
      -1.03920605e-02 -3.30371875e-03 -9.58449164e-05 9.78027005e-03
      6.07030652e-03 1.57016031e-02 -1.76171456e-02 -1.64479446e-02
      1.11267800e-02 2.58039101e-03 3.08215880e-04 2.36446876e-03
      3.52670415e-03 7.50179635e-03 2.79841032e-02 -1.00965891e-03
      -1.74255669e-02 9.88372508e-03 -2.58230628e-03 -2.25643790e-03
      -5.61041851e-03 -4.79333987e-03 3.33612040e-03 1.44284479e-02
      -1.72535405e-02 -6.20914437e-03 2.17022207e-02 9.71172564e-03
      9.69394948e-03 -1.18881976e-03 8.24601389e-03 -1.53746633e-02
      -1.86365768e-02 -2.60803774e-02 8.91643763e-03 1.45488298e-02
      8.70901160e-03 -3.94958770e-04 3.59763275e-03 -4.03335830e-03
      -2.22759481e-05 2.20302455e-02 5.74251451e-03 3.42277028e-02
      2.89979801e-02 -3.15394806e-04 -2.75037979e-04 2.23826137e-04
      3.55172763e-03 -2.26374082e-02 -1.43446773e-02 1.92288251e-03
      -3.62362550e-03 7.36546796e-03 4.02754545e-03 -1.55559904e-03
      2.02854601e-04 1.51657732e-02 -1.04145072e-02 -1.37952669e-02
      -2.26043928e-02 -9.75196064e-03 -1.18712345e-02 -1.42807867e-02
      -3.45399277e-03 2.07764935e-02 4.71820170e-03 1.31435934e-02
      1.00969337e-02 -8.76671448e-03 2.41507608e-02 1.03510683e-02
      -1.41840443e-04 8.83780303e-04 -7.83512741e-03 -5.14045684e-03
      -1.97589044e-02 -7.80071551e-03 -1.39334761e-02 -1.18229631e-02
      -1.05930660e-02 3.88231082e-03 7.93959852e-03 1.88014302e-02
      -2.63931509e-03 3.05785844e-03 7.57377967e-03 4.91025450e-04
      2.05059143e-04 -2.06098310e-03 -1.50731560e-02 -9.79164150e-03
      -2.02606898e-03 2.73919664e-02 7.06276204e-03 -6.41259924e-03
      -7.35383015e-03 -1.18875667e-03 -7.77382078e-03 1.05322222e-03
      1.60378721e-02 1.73533484e-02 2.04047002e-02 -9.64289252e-03
      -9.56116896e-03 -3.97560565e-04 -3.42181558e-03 -9.34875570e-03
      -1.39075294e-02 -2.07062233e-02 5.49078407e-03 4.51933667e-02
      3.35162156e-03 -2.53244140e-03 -6.08569011e-03 -8.62321758e-04
      -1.36225764e-02 -1.52338399e-02 -8.11743457e-03 8.69670697e-03
      4.34277430e-02 2.33966741e-03 -8.29718634e-03 -2.16437294e-03
      -2.61560222e-03 -1.72316283e-03 4.58178716e-03 1.06686018e-02
      -1.16102546e-02 2.40827445e-02 4.13549627e-04 1.50816853e-03
      4.84335935e-03 -1.53472479e-02 -9.51995235e-03 -1.30679114e-02
      -7.89094716e-03 -5.92468632e-03 4.21088673e-02 4.55485024e-02
      -3.18430760e-03 -5.75953024e-03 -4.88615781e-03 -1.04084499e-02
      -1.19968494e-02 -1.94791981e-04 7.62054930e-03 4.01176810e-02
      5.52471168e-03 -1.00034727e-02 -4.41212964e-04 -2.84351110e-02
      -2.89038457e-02 -2.23627873e-02 -1.39991157e-02 9.54971928e-03
      5.00534326e-02 3.85210402e-02 -6.11650432e-03 -1.63673200e-02
      -2.08583642e-02 -1.24420030e-02 -1.22285252e-02 -6.03478355e-03
      1.14928195e-02 5.48710190e-02 8.62565916e-03 -1.69494189e-02
      -1.47239864e-02 -4.81102057e-03 -3.32580158e-03 -2.81958282e-03
      -4.71687410e-03 2.24396624e-02 3.85985449e-02 -2.39537824e-02
      -3.55095863e-02 -7.14582764e-03 -2.93281917e-02 -1.79028474e-02
      -1.17866984e-02 -1.53050609e-02 -4.77799540e-03 4.60651629e-02
      4.44080569e-02 9.47937276e-03 6.77233748e-03 5.28770126e-03
      -1.49145424e-02 -1.33139985e-02 -1.12303076e-02 -6.13630656e-03
      3.21094394e-02 4.66013327e-03 1.75393410e-02 2.30383705e-02
      1.62190292e-03 1.88662088e-03 -1.05676823e-03 -1.74403295e-03
      -1.70346303e-03 -5.18939085e-03 -1.92425139e-02 -1.43482955e-02
      -1.59601867e-02 2.32917257e-02 5.11796121e-03 -1.02028372e-02
      -1.31007414e-02 -2.39724610e-02 -1.35225160e-02 -1.51939653e-02
      -2.23297086e-02 -4.11429675e-03 4.80609499e-02 -3.24582472e-03
      -4.78451326e-03 -5.89371845e-03 -5.09118568e-03 2.55657570e-03
      -6.41452288e-03 -1.02545936e-02 1.94083322e-02 4.69661094e-02
      -6.66107051e-03 -2.12401282e-02 -1.13968756e-02 -1.66176371e-02
      -4.66749212e-03 -2.30576638e-02 -2.83300765e-02 2.93154567e-02
      -6.72785752e-03 -5.08165080e-03 -3.62521177e-03 -7.66189769e-03
      -6.93827262e-03 1.88176738e-04 -6.17658906e-03 -8.23686086e-03
      -1.36066228e-02 2.83742533e-03 -1.77000724e-02 -5.91947464e-03
      -4.49559838e-03 -6.93311595e-05 4.56010737e-03 -4.31694742e-03
      -2.04795692e-02 -1.14332875e-02 3.13516222e-02 -2.40308158e-02
      -9.81774461e-03 -6.96605304e-03 -3.23208258e-03 -2.52039055e-03
      -9.31324344e-03 -8.74800794e-03 2.51738187e-02 3.06618605e-02
      -2.46437695e-02 -1.38139604e-02 1.40420525e-04 3.01358849e-03
      1.64377247e-03 -1.21646943e-02 -2.64393110e-02 3.15303877e-02
      -7.80451996e-03 -7.75702484e-03 -5.98611729e-03 -1.13415741e-03
      1.94985431e-03 4.08157066e-04 -3.20589705e-03 -1.00806095e-02
      -2.57672984e-02 1.18379630e-02 -5.26396092e-03 -1.13850478e-02
      -7.96991680e-03 -3.30676138e-03 -7.19219539e-03 -8.19372293e-03
      -3.79458093e-03 -3.12259886e-02 6.03349209e-02 -9.89248790e-03
      -1.00365039e-02 -1.00395072e-03 4.67575446e-04 -3.72263999e-03
      -1.13109387e-02 -1.95137691e-02 3.59455012e-02 3.68632637e-02
      -4.85288166e-03 -7.67941074e-03 -8.98781978e-03 -8.79216008e-03
      -1.17315724e-02 -1.28528755e-02 -9.60540399e-03 2.73413360e-02
      6.26715831e-03 -3.95879819e-04 -5.79375401e-03 -1.42655603e-03
      -1.70462742e-03 -1.11701563e-02 -7.13905552e-03 2.95653217e-03
      -4.07304056e-02 1.17415413e-02 1.82444940e-03 -3.83766106e-04
      -1.19967223e-03 -1.39734230e-03 -1.14835510e-02 -9.74374358e-03
      1.23233832e-02 -2.78066825e-02 4.46675606e-02 1.29848241e-03
      -3.85097065e-03 -1.77364552e-03 -6.72058249e-03 -1.30039612e-02
      -1.42426463e-02 -5.04988944e-03 7.58502958e-03 5.47892712e-02
      7.42157595e-03 -8.55584443e-03 -7.98620097e-03 -8.67005717e-03
      -1.93752777e-02 -1.79604273e-02 -1.54047199e-02 3.49481553e-02
      5.26181050e-03 4.13106848e-03 -9.03791108e-04 -6.82824152e-03
      -4.36989416e-04 -2.42220121e-03 -1.23897279e-02 3.49099492e-03
      -5.12290420e-03 9.51637048e-03 -8.29784185e-05 -9.29498486e-03
      -1.16509069e-02 -1.19747138e-02 -1.36663914e-02 -2.35725120e-02
      -6.66796695e-03 1.20550059e-02 2.93087550e-02 -7.71978963e-03
      -5.63585479e-03 -1.16942152e-02 -1.07819063e-03 -3.53741273e-03
      -1.26040764e-02 1.44317811e-02 1.65628400e-02 -2.31687422e-03
      -9.16232076e-03 -1.40827931e-02 -9.88746993e-03 -1.63919218e-02
      -1.45851180e-03 2.04862580e-02 3.20069008e-02 2.06005275e-02
      1.27183704e-03 1.36396289e-03 -5.00059687e-03 -9.30588692e-03
      -1.99616458e-02 -1.43127870e-02 -1.04342159e-02 1.22131975e-02
      -3.41747445e-03 -1.07375933e-02 -3.54751828e-03 2.20694556e-03
      5.68308681e-03 9.62026138e-03 -1.14337848e-02 -5.22537949e-03
      -4.20631468e-03 -1.58348605e-02 -1.50368391e-02 -4.06751502e-03
      -1.25383921e-02 -6.07739994e-03 -1.57617610e-02 1.15750795e-02
      2.31963471e-02 2.81730033e-02 8.38666409e-03 -7.63463462e-03
      -1.26483978e-03 -5.10464981e-03 1.43950135e-02 1.47771032e-03
      1.67469457e-02 5.69024589e-03 1.01945773e-02 -1.43922912e-02
      -5.64689375e-03 -8.94148555e-03 -1.05476631e-02 -1.93301402e-02
      5.47797140e-03 3.37992385e-02 -5.98564884e-03 2.57962989e-03
      -1.35965843e-03 -5.14833536e-03 -1.45113859e-02 -1.41858188e-02
      -2.41628718e-02 2.39227563e-02 4.37967740e-02 2.52567022e-03
      -2.15904182e-03 -2.29588407e-03 -1.17140664e-02 -1.02455784e-02
      -1.49034178e-02 -1.13262264e-02 1.36600602e-02 1.70573834e-02
      -9.81586985e-03 4.41525452e-04 -2.84258486e-03 -1.31804990e-02
      -1.46903265e-02 -2.08734032e-02 -1.67078003e-02 3.07515617e-02
      1.86346322e-02 -1.58954896e-02 -2.24388507e-03 -3.94112570e-03
      -5.40703861e-03 -1.13587016e-02 -9.46796685e-03 -7.43834954e-03
      1.31541770e-02 4.33203839e-02 9.49256308e-03 -7.72791775e-03
      -2.78718607e-03 -2.33112592e-02 -2.58625131e-02 -1.60398893e-02
      -1.47773512e-02 3.00707412e-03 5.58278523e-02 3.47939134e-02
      7.86831789e-03 -1.26942610e-02 -1.01306867e-02 -2.46126130e-02
      -1.87917743e-02 -5.00293123e-03 3.29703577e-02 5.50785800e-03
      4.71144868e-03 -1.10914069e-03 -4.46432875e-03 -1.70214567e-02
      -2.38641780e-02 -2.81458907e-02 -9.03561711e-03 6.31992053e-03
      1.51058249e-02 2.89043542e-02 2.02205349e-02 -1.53143583e-02
      -2.31944267e-02 -1.54493721e-02 -5.97944483e-03 -1.09581845e-02
      -1.66569613e-02 2.23903488e-02 4.43580486e-02 1.89497583e-02
      2.23578210e-03 1.15118707e-02 -6.69645099e-03 -7.06723286e-03
      -7.05217058e-03 -8.23040865e-03 2.00042725e-02 9.70959198e-03
      1.04773846e-02 2.11347714e-02 -1.12924036e-02 -2.17379741e-02
      -1.22753065e-02 -1.77459698e-02 -2.53540240e-02 6.76248316e-03
      3.14166844e-02 2.50465255e-02 1.56081468e-03 1.29670501e-02
      -7.38934288e-03 -1.05582457e-03 -8.33733473e-03 -1.24389436e-02
      -6.93843816e-04 1.56577528e-02 -2.60475674e-03 9.92149673e-03
      2.92703509e-02 -4.52176621e-03 -3.45740281e-03 -2.69738748e-03
      -5.27713541e-03 -2.47293059e-03 -6.95783272e-03 -1.37100136e-02
      3.46740335e-03 1.60666909e-02 -3.54039185e-02 -1.70248486e-02
      -5.60253812e-03 -9.96469148e-03 -5.24921296e-03 -1.03167295e-02
      -1.70671195e-02 7.56837847e-03 1.66179854e-02 8.70674630e-05
      5.03579574e-03 -7.09707849e-04 -6.73273671e-03 -5.10941399e-03
      -1.14572458e-02 -2.43304390e-02 9.49290209e-03 1.24398535e-02
      -2.79173870e-02 8.40624701e-03 1.06612733e-03 -1.60056949e-02
      -1.23813776e-02 -2.45548487e-02 -1.87238920e-02 1.29559897e-02
      1.39347920e-02 -3.15017849e-02 -1.27335368e-02 -3.44865047e-03
      -2.03603320e-03 -2.62934132e-03 -5.50656999e-03 -9.86192282e-03
      3.28186862e-02 1.32644791e-02 -3.39206681e-02 -6.87381392e-03
      -1.33167638e-03 1.33037620e-05 -1.97546277e-03 -6.84757670e-03
      -3.15622538e-02 3.24112177e-02 8.48417170e-03 -3.13813910e-02
      -3.60717159e-03 -2.74368771e-03 -4.65001492e-03 -7.73255201e-03
      -1.63487941e-02 -8.90566129e-03 4.07512262e-02 1.60284073e-03
      -4.26379181e-02 -3.11999465e-03 -4.24165308e-04 8.39834916e-04
      -8.12242087e-03 -1.19205089e-02 -1.77624207e-02 3.02296188e-02
      4.04215306e-02 -9.78801399e-03 -1.46654143e-03 -2.12673447e-03
      -1.81351395e-04 -4.51438036e-03 -5.16915321e-03 -2.70610135e-02
      1.53089697e-02 2.14116666e-02 -1.22658154e-02 -1.10051094e-03
      -3.03238817e-03 -3.20227817e-03 -4.91610169e-03 -7.81191513e-03
      -2.06486192e-02 1.49808582e-02 2.16410514e-02 -1.96512528e-02
      1.18930114e-03 4.89516824e-04 3.18087841e-04 -5.58353867e-03
      -8.08727741e-03 -2.40230989e-02 3.08036394e-02 1.06575144e-02
      -2.11311728e-02 3.26582533e-03 1.50778797e-03 -3.56310979e-03
      -6.03123568e-03 -6.31802483e-03 -2.65102740e-02 1.02157323e-02
      3.15881483e-02 -1.22533608e-02 -2.74026999e-03 -1.56564009e-03
      -3.26402974e-03 -8.16221349e-03 -1.29021443e-02 -9.85181890e-03
      -8.36763065e-03 2.99625322e-02 -2.07901280e-02 -8.45924113e-03
      -1.80370151e-03 -5.66948298e-03 -1.58630274e-02 -1.84506681e-02
      -1.87876001e-02 3.41327637e-02 2.88057178e-02 -2.10129172e-02
      -3.69294221e-03 -3.65638523e-04 -2.55444972e-03 -5.90761425e-03
      -4.47656307e-03 -1.75704509e-02 1.81582430e-03 2.37886123e-02
      -3.35222743e-02 -9.08558909e-03 -5.34169027e-04 -1.57547742e-02
      -1.50322393e-02 -1.72109380e-02 3.63078248e-03 3.21341455e-02
      1.83359371e-03 -1.37075894e-02 -5.57402428e-03 -8.89455341e-03
      -2.76295957e-03 -5.10889012e-03 -1.11635420e-02 7.41087412e-03
      2.78393105e-02 -1.00026550e-02 -6.27685245e-03 -5.51503571e-03
      -1.61454063e-02 -1.65679976e-02 -2.03208323e-03 -1.53993443e-03
      2.49777511e-02 1.56749431e-02 8.23387585e-04 -1.94552206e-02
      -7.55907316e-03 -2.31115846e-03 -1.66985467e-02 -9.53157153e-03
      1.16482237e-02 3.70137803e-02 3.08954976e-02 -1.59139317e-02
      -1.56297777e-02 -1.00322999e-02 -1.60513464e-02 -2.45652199e-02
      -1.20002581e-02 1.45890238e-02 3.12483255e-02 1.28029669e-02
      -9.71518550e-03 -7.00185075e-04 -3.73990973e-03 -8.58035497e-03
      -1.27196545e-02 2.59560556e-03 2.13698242e-02 1.08029963e-02
      -1.08118802e-02 -1.43602602e-02 -1.48580724e-03 -2.21272348e-03
      1.04528405e-02 6.48229197e-03 -6.78990595e-03 2.89205951e-03
      4.03044396e-04 -2.08342150e-02 -1.50397895e-02 -5.52729098e-03
      -7.47715775e-03 1.45512528e-03 -4.31643939e-03 -3.13185342e-03
      2.73114145e-02 3.08012925e-02 -1.02496492e-02 -2.13645864e-02
      -1.12269521e-02 -3.38284858e-03 1.95541196e-02 1.43179931e-02
      1.25487307e-02 2.33908445e-02 3.31648253e-03 -1.94202811e-02
      -3.11923469e-03 -3.77969630e-03 -8.02780595e-03 -2.43702973e-03
      4.76467377e-03 -3.65659653e-04 -1.22926170e-02 -1.78477820e-03
      -3.21389968e-03 -4.60156379e-03 -7.00419256e-03 -2.06674431e-02
      1.34971633e-03 3.84158567e-02 3.97448149e-03 -2.38993987e-02
      -5.91221265e-03 -6.25002244e-03 -2.06512818e-03 -2.42531486e-03
      -4.72978037e-03 1.70224123e-02 2.28586476e-02 -2.60002017e-02
      -1.99016873e-02 -9.20616277e-03 -7.06292735e-03 -1.59485219e-03
      -3.86854447e-03 -1.48138115e-02 1.60409287e-02 3.19488123e-02
      -3.17384154e-02 -2.01470647e-02 -1.53035726e-02 -5.79750212e-03
      -5.50230639e-03 -1.61144361e-02 -1.64566841e-02 1.02911843e-02
      4.21872847e-02 -2.99345102e-05 -7.40089547e-03 -6.43251976e-03
      -8.14411603e-03 -1.45962639e-02 -1.52273728e-02 -1.07733468e-02
      1.15846153e-02 3.01016029e-02 9.38758440e-03 7.91803375e-03
      -2.98866566e-04 -2.46565603e-02 -3.65287787e-03 -3.29311495e-03
      -8.84354580e-03 1.08694490e-02 4.19053547e-02 -3.30580538e-03
      -2.30366141e-02 -1.17106559e-02 -1.30513832e-02 -1.65780038e-02
      5.24691073e-03 2.87099015e-02 3.42950448e-02 4.50346507e-02
      6.71732426e-03 -2.88963877e-02 -3.34139578e-02 -4.62003276e-02
      -1.39556092e-03 -1.09839933e-02 -2.36734888e-03 3.84246884e-03
      -8.20721313e-03 1.32132573e-02 2.35737842e-02 1.40232360e-02
      6.18964480e-03 2.28876434e-02 2.02662521e-03 1.11861946e-02
      2.66720704e-03 -6.31492818e-03 -1.62882428e-03 2.14126464e-02
      -1.15060515e-03 1.81208663e-02 -1.95964798e-03 2.11498458e-02
      3.56927216e-02 3.57582755e-02 5.05217910e-03 -1.12477073e-03
      -5.83321508e-03 -3.87091450e-02 -2.66010240e-02 4.90132626e-03
      1.42012478e-03 8.33732914e-03 1.00821303e-02 1.70073647e-03
      9.56804771e-03 1.50930025e-02 -8.36250000e-03 7.89675582e-03
      1.85565688e-02 -1.78302696e-04 1.01143122e-02 9.83620412e-04
      -2.20057135e-03 -1.02305820e-03 -1.87758135e-03 -8.99174437e-03
      8.01008660e-03 -2.19138688e-03 -1.43718785e-02 1.74158774e-02
      5.62641257e-03 -6.23957859e-03 -5.98863792e-03 -5.65100880e-03
      -9.94862337e-03 2.90221870e-02 2.15734541e-03 -2.85641830e-02
      -5.04838442e-03 -4.80070070e-04 1.22281292e-03 9.87000111e-03
      6.49399357e-03 8.21539573e-03 2.36487929e-02 -7.97700603e-03
      -2.76249666e-02 5.93971787e-03 2.41523609e-03 -7.36849383e-04
      -8.74031044e-04 2.73858663e-03 6.66804612e-03 2.82855667e-02
      -4.02031001e-03 -2.33995933e-02 7.98636302e-03 1.93309376e-03
      -3.39257158e-03 -4.91406163e-03 -8.60541221e-03 1.23965554e-03
      3.34475487e-02 5.25980676e-03 -1.94172561e-02 3.70373786e-03
      4.26248508e-03 -2.52196519e-03 -8.01834278e-03 -7.56825926e-03
      8.02138448e-03 2.02129912e-02 -1.03037236e-02 -2.35801917e-02
      2.13361322e-03 2.74073961e-03 -8.14542349e-04 -5.94498916e-03
      -2.11967202e-03 1.09917298e-02 3.55232954e-02 -1.31721525e-02
      -1.10894879e-02 -2.07842747e-03 8.05223826e-03 -8.34650360e-04
      -1.04168849e-02 -5.52610308e-03 2.00634208e-02 1.57131068e-02
      1.48384543e-02 -1.38183506e-02 3.16648139e-03 2.31111399e-03
      -2.20869086e-03 -4.75825462e-03 -6.62937574e-03 -1.09896809e-03
      2.05362141e-02 3.18723917e-02 -1.76526979e-02 4.22428874e-03
      2.10412871e-03 -6.90843957e-03 -7.89822359e-03 -1.94097904e-03
      -1.12575227e-02 1.13036335e-02 9.19901358e-04 -9.55913682e-03
      3.48834717e-03 2.90438556e-03 -2.59741629e-03 -6.59789750e-03
      -8.60021543e-03 7.99066201e-03 2.09309254e-02 1.00795869e-02
      -1.30170453e-02 3.58404079e-03 3.28806840e-04 -7.81136239e-03
      -1.13943927e-02 -1.43472878e-02 -3.28106433e-03 2.39766929e-02
      3.08421031e-02 -1.81236863e-02 2.24807445e-04 -2.60514673e-04
      -4.35328670e-03 -7.57160690e-03 -2.49290559e-03 -6.69479882e-03
      1.29521070e-02 3.35958973e-02 -2.85567176e-02 -2.08319398e-04
      -2.05011619e-03 -6.98369369e-03 -1.73457749e-02 -1.08123254e-02
      1.77588239e-02 2.15996187e-02 7.09425192e-03 -2.02981587e-02
      -2.11742753e-03 -1.13393960e-03 -3.21924197e-03 -7.87530001e-03
      -1.07783563e-02 8.02656170e-04 2.95599233e-02 2.03313418e-02
      -2.25659851e-02 5.55888750e-03 3.71016882e-04 -2.70845112e-03
      -1.35264443e-02 -7.75712822e-03 -4.23868012e-04 3.66662070e-02
      1.17906462e-02 -2.12217048e-02 1.01257535e-03 4.86431038e-03
      -9.63284820e-03 -3.86800594e-03 7.48283137e-03 3.42896208e-02
      2.02236325e-02 -9.91319027e-03 -1.79497637e-02 5.55975782e-03
      1.30034089e-02 -1.42988907e-02 9.86381061e-03 1.53757911e-02
      3.30752134e-02 8.60380847e-03 8.68312269e-03 5.59063815e-03
      1.99822914e-02 1.46192322e-02 3.35094146e-03 -2.11138686e-05
      -7.28850858e-03 6.05640560e-03 -8.50273483e-03 -2.17691455e-02
      1.17287477e-02 2.79647056e-02 1.75911710e-02 -1.80978118e-03
      -6.76039374e-03 -3.26083926e-03 8.77748709e-03 -3.12762000e-02
      -1.04589248e-02 -9.91991535e-03 5.72226103e-03 1.31467897e-02
      2.46992963e-03 3.45134991e-03 1.88927371e-02 1.48254251e-02
      -2.68305745e-03 -2.25782339e-02 -1.03852274e-02 7.04813935e-03
      1.93714853e-02 5.83113777e-03 9.95700806e-03 1.96060743e-02
      8.10471596e-04 -1.26719708e-02 -1.94565114e-02 4.63567115e-03
      2.00398806e-02 1.94247495e-02 5.14218537e-03 -1.50006339e-02
      2.82794004e-03 -5.45364711e-03 -8.84127989e-03 -1.64781101e-02
      -6.18945900e-03 2.49658749e-02 3.92190472e-04 5.64333377e-03
      1.96806481e-03 4.96064499e-03 -8.52306606e-04 -1.27654066e-02
      -6.93776179e-04 -5.87208488e-04 -1.02621550e-03 1.69944521e-02
      4.70444327e-03 -1.50493374e-02 -1.53119732e-02 -7.58926850e-03
      -2.64378288e-03 -6.97899959e-05 -2.56892596e-03 -1.11332396e-02
      1.53421992e-02 2.38784775e-02 -2.62183268e-02 -1.03108017e-02
      -1.23143168e-02 -4.55832062e-03 -2.34048627e-03 -1.81732804e-03
      3.16522759e-03 9.82503872e-03 9.54767875e-03 -9.32563283e-03
      -1.91021748e-02 -1.29735423e-02 -1.59370527e-03 -6.53032679e-03
      -7.77389947e-03 -6.91935513e-03 -8.70316941e-03 1.33260004e-02
      1.54434498e-02 -1.55455973e-02 -1.02366358e-02 -4.10884339e-03
      -3.78331961e-03 -2.57333042e-03 -2.47587194e-03 4.41970350e-03
      2.70018335e-02 -1.27375424e-02 -1.67563148e-02 -7.44282594e-03
      -1.02548050e-02 -2.99153160e-02 4.47885075e-04 3.91634107e-02
      3.07789650e-02 2.32618246e-02 -1.79009531e-02 -2.88060475e-02
      -2.78975256e-02 -4.80418913e-02 -6.37707999e-03 -2.98016035e-04
      1.37163699e-02 1.33309271e-02 7.23826233e-03 1.66396257e-02
      -8.13699979e-03 6.92726346e-04 -1.36597557e-02 -3.72205861e-02
      -2.57840566e-03 5.33908680e-02 6.19840808e-02 1.34390751e-02
      -3.36004011e-02 -3.12191788e-02 -1.73244700e-02 -4.11781482e-02
      -5.82059100e-03 9.01546236e-03 3.35130505e-02 2.68984083e-02
      5.90507640e-03 -4.23829211e-03 -8.83740559e-03 -2.83845421e-02
      -3.35354023e-02 -3.95076349e-03 -3.01411399e-03 5.96174598e-03
      9.43006482e-03 -1.55912503e-03 1.99832674e-03 3.14496085e-03
      -7.33539555e-03 8.33287742e-03 -1.62711348e-02 1.60426088e-02
      4.05773371e-02 5.05318940e-02 6.29443163e-03 -1.69737935e-02
      -1.80278514e-02 -1.85542591e-02 -2.78675426e-02 -9.36707761e-03
      1.20439436e-02 1.25606563e-02 2.25119218e-02 5.18979086e-03
      -1.58533584e-02 -1.19832586e-02 -3.11744865e-03 8.71348847e-03
      -8.35239608e-03 -3.28494720e-02 -6.31781062e-03 -2.29616161e-03
      -1.43219193e-03 9.05072084e-04 -5.55685139e-04 9.64351930e-03
      3.16157117e-02 2.32288148e-03 -2.99051832e-02 -5.25186211e-03
      -3.56338755e-03 -1.47566386e-03 -1.83600665e-03 -4.35179286e-03
      3.56281595e-03 3.40436473e-02 7.28885923e-03 -1.92954224e-02
      -5.31764096e-03 -4.44628438e-03 -5.76633820e-03 -5.41921193e-03
      -7.40405824e-03 -5.25419542e-04 3.41083258e-02 8.30771681e-03
      -2.01991983e-02 -8.28257855e-03 -8.00713059e-03 -6.20945683e-03
      -2.13778485e-03 -1.59248654e-02 -1.76925194e-02 4.11624387e-02
      1.12715894e-02 -2.08948776e-02 -1.49433454e-03 -9.11200012e-04
      -1.27831358e-04 -1.88894325e-03 -3.59055097e-03 -8.40574969e-03
      2.70854291e-02 6.96070399e-03 -1.56816784e-02 -1.42394612e-03
      6.21609914e-04 -2.71496883e-05 -5.76421712e-03 -5.67897642e-03
      3.24759661e-04 2.08210703e-02 1.73136052e-02 -2.18468290e-02
      -2.64355727e-03 -4.34986083e-03 -6.41212333e-04 -6.29199436e-04
      -8.73443577e-03 -2.20595654e-02 2.02876106e-02 7.91958719e-03
      -3.05191074e-02 -2.82141007e-03 -3.10170162e-03 -5.77908824e-04
      -6.55338634e-03 -8.08846299e-03 -2.27953382e-02 2.28924081e-02
      1.23463962e-02 -1.07346522e-02 4.16309369e-04 -2.37981367e-04
      -5.24105912e-04 -4.66736732e-03 -5.51347947e-03 -1.09973204e-04
      1.96807832e-02 3.08280834e-03 -2.06396505e-02 6.41701990e-05
      -1.96392299e-03 -1.98623585e-03 -3.96082969e-03 -7.83848576e-03
      -7.93254934e-03 2.65400428e-02 2.11573001e-02 -2.78274603e-02
      -1.23548519e-03 -2.47360487e-03 -9.50924004e-04 -6.61562243e-03
      -9.47552174e-03 -1.28048006e-02 2.97498591e-02 4.46004421e-03
      -3.18730958e-02 -2.32682470e-03 -5.49766980e-03 -2.11328780e-03
      -7.65954982e-03 -1.32764699e-02 -1.93551686e-02 1.25199370e-02
      -1.46908115e-03 -1.81467030e-02 -2.10940209e-03 -4.57520800e-04
      -1.85308629e-03 -4.07156907e-03 -9.11534298e-03 -7.12421630e-03
      3.30411978e-02 2.31122710e-02 -2.39156391e-02 -3.54685844e-03
      -5.24111046e-03 -3.73023935e-03 -9.13424511e-03 -1.12919277e-02
      -1.05599519e-02 3.55646163e-02 1.62426464e-03 -2.71610320e-02
      -3.56320431e-03 -4.23968676e-03 -2.74203718e-03 -9.77224763e-03
      -7.25694839e-03 -5.86614665e-03 3.42908949e-02 1.26516959e-02
      -3.58998999e-02 -1.25793042e-02 -1.50369657e-02 -9.98943020e-03
      -1.04165189e-02 -6.65942440e-03 -5.69538865e-03 4.34259474e-02
      2.80786380e-02 1.33237112e-02 9.84482188e-03 4.25681891e-03
      -1.22053875e-03 -9.32486169e-03 -1.04033239e-02 -5.16702561e-03
      -2.76304828e-03 1.09609088e-03 2.78933495e-02 3.71934511e-02
      1.86909083e-02 -6.26616878e-03 -1.16408374e-02 -1.43703204e-02
      -6.59930240e-03 -1.05776712e-02 2.50867233e-02 -1.24816662e-02
      -7.75108207e-03 -7.55230198e-03 -1.67390797e-02 -1.69907920e-02
      -1.32493931e-03 -7.25258514e-03 3.63522917e-02 2.88937129e-02
      1.57124661e-02 1.20293498e-02 6.36000326e-03 -2.20368486e-02
      -2.13015042e-02 -1.09663196e-02 -1.69344638e-02 1.08396458e-02
      -1.71599127e-02 1.81176066e-02 2.69121192e-02 2.97123939e-02
      -1.43134622e-02 -1.80742443e-02 -8.95976648e-03 -6.32453244e-03
      -5.99990087e-03 -4.08617593e-03 1.45283272e-03 1.81935318e-02
      9.32986662e-03 -1.06678512e-04 7.39990361e-03 -6.18454069e-03
      -1.77993067e-03 -5.91025176e-03 3.43755749e-03 1.79439560e-02
      2.57841405e-02 1.84200723e-02 -2.37468872e-02 -1.88587680e-02
      -8.51279497e-03 -1.33058233e-02 -5.68305189e-03 -1.22596668e-02
      2.84759956e-03 1.64434090e-02 8.92515201e-03 -6.12265198e-03
      -6.02649432e-03 -5.08842431e-03 -1.36356764e-02 -1.31026898e-02
      -1.79887889e-03 -2.07819263e-04 -1.01438130e-03 6.85443077e-03
      5.59691200e-03 3.88696487e-03 -1.57283768e-02 -6.43288810e-03
      -6.98925403e-04 -6.15178235e-03 -9.73625015e-03 -7.62175489e-03
      -1.17125995e-02 1.24110207e-02 3.72308940e-02 -7.87695684e-03
      -4.85201366e-03 -2.66435905e-03 -6.57554856e-03 -6.15929486e-03
      -1.34076551e-02 -1.23568869e-03 1.27680739e-03 1.79409496e-02
      -1.65452797e-03 -6.67395210e-03 -4.01504990e-03 -1.12521881e-02
      -1.70519352e-02 -1.68179516e-02 -3.39408696e-04 1.08695384e-02
      4.13393527e-02 2.36199573e-02 -9.00923857e-04 -6.26150810e-04
      -1.65353087e-03 -4.84718196e-03 5.89516480e-03 7.29922531e-03
      1.97056914e-03 6.78570149e-03 -3.73764691e-04 6.99814176e-03
      -7.48906285e-03 -2.85916328e-02 -1.89367272e-02 4.73539308e-02
      5.39355017e-02 9.26684123e-03 -2.90182270e-02 -2.75057200e-02
      -1.19496407e-02 -2.31931377e-02 -9.83302575e-03 -1.00220619e-02
      1.00475848e-02 3.14695314e-02 -3.96821043e-03 -1.22858118e-03
      5.13417553e-03 2.03599408e-03 -6.18696166e-03 -1.16999112e-02
      -1.03768734e-02 2.70629413e-02 4.72772494e-02 1.31785749e-02
      -1.51285632e-02 -1.16443159e-02 3.46915564e-03 -2.09559631e-02
      -8.37955624e-03 1.12328539e-02 3.96386273e-02 7.64215216e-02
      2.42938492e-02 -1.83308478e-02 -1.65276304e-02 -1.21698324e-02
      -1.51813775e-02 -1.74203364e-03 1.02276504e-02 1.70300230e-02
      2.92063113e-02 1.46903004e-02 -1.16178757e-02 -1.39070153e-02
      -1.48372147e-02 1.33957732e-02 -3.42446119e-02 -3.98242846e-02
      1.13482401e-02 6.12764284e-02 4.98869829e-02 7.34286616e-04
      -7.30855204e-03 -2.21972987e-02 -3.17879952e-02 -2.47935969e-02
      -2.15629917e-02 -4.94090654e-03 3.88334319e-02 3.33385579e-02
      8.75541754e-03 -7.94151099e-04 -3.74810509e-02 -2.30890848e-02
      2.52547525e-02 3.92469484e-03 -3.11614643e-03 6.84325350e-04
      5.71327331e-03 -8.99288920e-04 -3.98335746e-03 -6.47519110e-03
      4.94198389e-02 1.81480516e-02 -1.12170698e-02 2.89466721e-03
      -8.92749708e-03 -6.11504912e-03 -6.77947071e-04 -9.10773594e-03
      -1.62147712e-02 3.91060524e-02 -1.28241945e-02 -1.36787407e-02
      -1.18519003e-02 -8.90164077e-03 1.13529293e-02 4.95592132e-03
      3.82937049e-03 -2.48857476e-02 -1.23698625e-03 -8.52429308e-03
      -1.36083607e-02 -5.25934203e-03 -1.23339007e-02 -9.53955483e-03
      5.41259674e-03 1.27681135e-03 -6.27565244e-03 3.41427419e-03
      4.65675071e-02 -1.04191359e-02 4.74201806e-04 -2.85601686e-03
      -1.27946970e-03 5.45589370e-04 -8.61096662e-03 -1.88794490e-02
      4.20100391e-02 2.55476888e-02 -2.27791611e-02 -3.09520843e-03
      -3.02503584e-03 -2.17138184e-03 -5.21083502e-03 -1.18855247e-02
      -2.85050068e-02 4.69689369e-02 -8.06561112e-03 -1.33457948e-02
      -3.24423308e-03 -2.85198970e-04 2.10912302e-04 4.22180351e-03
      -8.84844922e-03 -1.71686299e-02 -7.10212765e-03 1.70999463e-03
      -2.86659313e-04 -5.59337158e-03 -4.47940640e-03 -1.39093387e-03
      1.08288159e-03 -1.31636737e-02 -1.77398063e-02 2.32255124e-02
      3.93222123e-02 -2.36465037e-02 -2.60428316e-03 -2.32652831e-03
      -1.77403050e-03 -8.61815829e-03 -1.28295403e-02 -7.01388204e-03
      6.25277683e-02 1.59930717e-02 -2.67120302e-02 -5.66199515e-03
      -4.61967476e-03 -2.50443607e-03 -9.57881380e-03 -7.53819942e-03
      1.42050174e-03 2.74650622e-02 -1.83862373e-02 -2.13956274e-02
      -1.49299856e-03 1.33307301e-04 -2.85942922e-03 -5.52010443e-03
      -1.17078619e-02 -9.54513438e-03 1.62705164e-02 -2.00927649e-02
      -1.91029310e-02 -8.06953572e-03 6.20025094e-04 -1.06687169e-03
      -1.01692742e-02 -1.34303735e-03 2.94705783e-03 2.25707889e-02
      1.06380126e-02 -2.12673694e-02 -5.82757592e-03 -4.13129339e-03
      -1.99298072e-03 -3.00172856e-03 -2.14276277e-03 5.63132530e-03
      4.52650376e-02 1.90921593e-02 -2.32527945e-02 -1.12335403e-02
      -9.13167186e-03 -8.03667493e-03 -8.57079495e-03 1.86048623e-04
      1.02583291e-02 4.42045480e-02 -1.98969729e-02 -1.00036701e-02
      -8.61868542e-03 -1.29991933e-03 -7.60068477e-04 -3.48956394e-03
      -1.64040714e-03 -7.27138016e-03 1.87903643e-02 -6.00079400e-03
      -1.15607660e-02 -3.35687632e-03 -9.09478927e-04 3.20603442e-03
      -3.35616339e-03 -3.51975090e-03 1.22813638e-02 2.91011501e-02
      2.96707191e-02 -1.61020886e-02 -5.60373021e-03 -9.00303200e-03
      -1.54588958e-02 -8.17641057e-03 9.08219442e-03 8.31147004e-03
      5.34289554e-02 4.15780693e-02 1.87511630e-02 7.94233754e-03
      -1.39629329e-02 -2.51260027e-02 -1.29655534e-02 5.73831936e-03
      -7.04452116e-03 3.68117467e-02 -2.24500000e-02 -1.90379918e-02
      -6.14656322e-03 -1.41679193e-03 7.04174105e-04 -9.60759632e-03
      5.01771038e-03 2.21973658e-02 2.18543485e-02 -3.04573798e-03
      -1.33983707e-02 -1.00493087e-02 -4.42356383e-03 -1.49035286e-02
      -7.76573131e-03 8.05641897e-03 1.69547852e-02 3.37921381e-02
      1.05940513e-02 2.57325321e-02 2.60838419e-02 1.96640170e-03
      -2.17612199e-02 -5.41688874e-03 -1.20608509e-03 -9.98605881e-03
      9.61993821e-03 -1.07094850e-02 9.99691151e-03 2.06498913e-02
      1.89806484e-02 -6.44721964e-04 -1.03959171e-02 -3.63552431e-03
      -1.16127823e-02 -8.62665568e-03 3.44248977e-03 -2.79261963e-03
      -1.88176017e-02 -3.58453067e-03 -1.72486715e-02 4.79031447e-03
      4.20761202e-03 5.88679127e-03 1.25511810e-02 -1.22854561e-02
      4.91779763e-03 2.69607827e-03 1.31790200e-02 2.68475292e-03
      7.94332195e-03 3.57028586e-03 1.46905482e-02 -2.03211866e-02
      -5.35397884e-03 -5.40867029e-03 -2.93516880e-03 -5.34754712e-03
      -8.78112949e-03 1.69108734e-02 1.62094291e-02 -2.15210789e-03
      -2.24292069e-03 -2.28281226e-03 -1.33130802e-02 -1.15010580e-02
      -9.75285657e-03 -6.65899552e-03 3.47390063e-02 5.62351346e-02
      1.17421746e-02 5.70199359e-03 2.36048969e-03 2.70292303e-03
      -7.81728607e-03 -2.21337359e-02 -3.11151631e-02 1.66913960e-02
      3.65971327e-02 2.33956613e-02 6.14772923e-03 3.75827751e-03
      -6.14283234e-03 -1.79844853e-02 -4.51074764e-02 -2.63648778e-02
      2.07915362e-02 6.77880198e-02 3.87227274e-02 2.24235971e-02
      -3.10909539e-03 -9.10974923e-04 1.42056635e-02 2.13222764e-02
      -1.54658072e-02 4.31760261e-03 2.53174603e-02 9.45162773e-03
      8.81324755e-04 -9.22098197e-03 1.00158127e-02 3.33402865e-02
      2.10135356e-02 6.63325714e-04 -1.25415744e-02 3.30956792e-03
      7.76791619e-03 -2.21700780e-03 -2.42027082e-03 6.93065580e-03
      3.54937743e-03 -1.19551476e-02 -3.30778435e-02 -4.00114805e-03
      3.30988318e-02 2.57748365e-02 2.79092453e-02 -2.79468601e-03
      2.49979645e-02 2.73349695e-02 3.38616967e-03 -2.14129817e-02
      -1.42681608e-02 3.03968205e-03 1.52015332e-02 4.69315285e-03
      -2.17465740e-02 -1.62864290e-02 1.88795812e-02 5.19295260e-02
      5.26777655e-02 1.77369341e-02 -2.73379311e-03 -9.32405330e-03
      -2.00228039e-02 -1.16038425e-02 -1.82505082e-02 2.38792691e-03
      2.36901492e-02 3.77685130e-02 2.43004430e-02 -8.62696033e-05
      -2.61412822e-02 -1.06121460e-02 -8.41955747e-03 1.24020716e-02
      3.48033458e-02 4.32820432e-02 3.05556972e-02 1.11737745e-02
      -9.82049853e-03 -5.86440507e-03 -6.37206854e-03 1.35233728e-02
      5.96496416e-03 4.89593949e-03 7.72246439e-03 1.17597142e-02
      9.39866249e-03 1.32719497e-03 -1.20846592e-02 -1.28944742e-03
      1.44261764e-02 5.20220771e-03 2.50043557e-03 -6.55167364e-03
      6.56505022e-03 1.14369625e-02 9.19113122e-03 -1.41777424e-02
      -6.86380034e-03 1.93507911e-03 -1.47779267e-02 -4.66001965e-03
      -3.32830474e-03 1.95463246e-04 1.56553574e-02 1.80879999e-02
      1.34984823e-02 -1.14122657e-02 3.32136713e-02 1.11745857e-02
      -1.55199263e-02 -1.00380313e-02 -1.59795268e-03 7.15709291e-03
      1.05396565e-02 3.44403088e-03 -5.73831005e-03 9.77384765e-03
      -3.55951604e-03 -1.24493511e-02 -3.24145518e-03 8.90468527e-03
      2.24644635e-02 2.04394385e-02 6.40345272e-03 -4.40087402e-03
      8.19845707e-04 -1.13146883e-02 6.81406772e-03 1.04303854e-02
      7.32781040e-03 4.16052993e-03 1.95073185e-03 5.48707414e-03
      -1.94626823e-02 1.09345210e-03 2.51713675e-02 7.45923538e-03
      2.04354059e-03 5.34530776e-03 4.52418160e-03 -9.19253216e-04
      -9.50073823e-03 1.40995742e-03 1.22548023e-03 -2.64157355e-03
      2.48194137e-03 3.19436309e-03 6.89413166e-03 3.43079166e-03
      1.54191460e-02 3.64486454e-03 -1.44840544e-02 -1.32925401e-03
      3.04394420e-02 1.23361191e-02 2.31679087e-03 8.44405033e-03
      1.42146111e-03 2.41226493e-03 -2.36425968e-03 -1.72266923e-02
      -4.69213026e-03 3.83902388e-03 4.07610415e-03 4.27393662e-03
      2.87929107e-03 2.29107728e-03 -6.68366160e-03 -1.25965613e-04
      -2.40025087e-03 -1.94727082e-03 3.81553080e-03 -2.60222959e-03
      1.95719581e-03 5.46512380e-03 -1.32630148e-03 4.45630681e-03
      7.17993313e-03 1.38443671e-02 1.79092456e-02 2.27187425e-02
      7.13835144e-03 8.03406001e-04 6.26651803e-03 6.33264717e-04
      -8.08647834e-03 -2.71121797e-04 -1.19027235e-02 2.27075294e-02
      2.86145471e-02 5.54603245e-03 7.94979837e-03 -3.71051766e-03
      -7.93061778e-03 -1.13135651e-02 -9.21220053e-04 1.41719403e-02
      -1.04429033e-02 5.81541425e-03 -2.29142653e-03 3.37222777e-03
      1.25127018e-03 -5.11904480e-03 1.50441227e-03 2.37175077e-03
      1.07584847e-02 -1.61643571e-03 1.36684449e-02 6.07699296e-03
      1.91974372e-03 7.32911611e-03 1.08972110e-03 8.33901204e-03
      1.42739061e-02 3.13052498e-02 1.08446972e-02 8.03014077e-03
      8.14352461e-05 2.54114135e-03 -2.46875756e-03 -8.31928570e-03
      -1.48829268e-02 2.10035418e-04 3.91029287e-03 2.89598783e-03
      2.38226876e-02 9.46658850e-03 -3.19645368e-03 -6.62284391e-03
      -3.55262891e-05 -6.19731145e-04 -1.00607052e-03 1.30301751e-02
      -2.39775702e-02 -5.09491982e-03 4.47853655e-03 8.81784223e-03
      1.29924826e-02 5.45121823e-03 1.10635646e-02 5.78035042e-03
      7.97465537e-03 -1.62834544e-02 -7.84907117e-03 -4.36018175e-03
      5.04087890e-03 1.34796528e-02 9.65637248e-03 1.03801098e-02
      1.40335960e-02 1.33876661e-02 1.54965930e-02 2.15755086e-02
      1.50569603e-02 1.14385015e-03 -6.73050154e-03 -2.62693339e-03
      -8.04814696e-03 -1.23960404e-02 -4.13617585e-03 6.72851689e-03
      9.23081301e-03 1.35006802e-02 1.68609936e-02 -4.42142505e-03
      -7.41698453e-03 -2.02572416e-03 1.04608471e-02 -5.83120389e-03
      8.79055413e-04 -5.66561287e-03 -2.22054999e-02 -1.42030185e-03
      -2.41330396e-02 7.14414194e-03 7.05611287e-03 1.31315170e-02
      5.14996238e-03 -1.74468458e-02 -6.03911513e-03 -4.21382952e-03
      -1.74784753e-02 -1.32612167e-02 1.80392396e-02 1.53546389e-02
      2.13865601e-02 -1.14178713e-02 8.59359105e-04 -1.20950788e-02
      -1.98209309e-03 8.51729978e-03 -1.99777856e-02 4.47695237e-03
      -2.50185910e-03 1.65521484e-02 8.02205317e-03 4.74053854e-03
      4.14747163e-04 -3.68409068e-03 -2.45625619e-02 -8.36215634e-03
      2.30525304e-02 1.29663935e-02 2.14166325e-02 -2.22552358e-03
      3.04707489e-03 6.06134394e-03 -1.55608961e-03 -7.18350802e-03
      -4.03552800e-02 4.21658251e-03 2.81192493e-02 2.78067794e-02
      1.06632756e-02 1.40031148e-02 2.23582890e-03 -3.42488452e-03
      -2.78845280e-02 -3.67052667e-02 1.06258644e-03 4.53082956e-02
      4.37126607e-02 3.10264826e-02 5.83296735e-03 7.82598276e-03
      7.78075214e-03 -3.65317520e-03 -3.22230831e-02 -9.69247241e-03
      1.11258253e-02 1.77423581e-02 2.70321146e-02 1.00255972e-02
      3.21975444e-04 1.05208131e-02 -8.26099236e-03 -1.44747589e-02
      -4.97172028e-03 1.98496263e-02 2.75125783e-02 2.15552170e-02
      6.26423676e-03 1.31730828e-02 4.70562465e-03 -1.37187783e-02
      -3.00852787e-02 -8.71835276e-03 1.81036443e-02 2.98380591e-02
      3.25639583e-02 6.21707318e-03 2.76201572e-02 1.66200809e-02
      -1.06864814e-02 -3.90090980e-02 -1.26662282e-02 1.94504764e-03
      2.65715942e-02 1.85411498e-02 8.21090303e-03 9.76766739e-03
      3.47108487e-03 -1.21387448e-02 -3.13703567e-02 -4.19550901e-03
      9.09433514e-03 2.21556500e-02 3.37626003e-02 1.07369125e-02
      2.45730728e-02 2.14081723e-02 -2.10444238e-02 -2.61041820e-02
      -1.60267111e-02 4.75146482e-03 3.50569673e-02 3.07639446e-02
      8.35757796e-03 1.83113031e-02 3.31642069e-02 3.69822234e-02
      5.87110687e-03 1.57269463e-03 3.44293914e-03 9.75894649e-03
      -8.11088923e-03 1.89439636e-02 1.80260707e-02 -2.00668187e-03
      5.76679409e-03 1.30822824e-03 -1.59843883e-03 1.00363046e-02
      4.40452481e-03 3.54017457e-03 8.10326729e-03 2.24393029e-02
      2.41875686e-02 1.66091584e-02 -8.03311728e-03 -7.50273652e-03
      1.29809824e-03 1.79463755e-02 -6.98378030e-03 3.27836238e-02
      3.28560024e-02 -2.00522430e-02 -1.52147189e-02 -1.04938447e-02
      -1.62703209e-02 -2.11578677e-03 2.70201406e-03 3.25417286e-03
      1.87445693e-02 1.87905356e-02 -1.14825210e-02 -6.73379982e-03
      7.43839098e-03 8.82888027e-03 5.80790266e-03 1.76114608e-02
      -4.69012419e-03 7.76675157e-03 -2.27559684e-03 -6.01042528e-03
      3.70928319e-03 2.30567399e-02 2.50726789e-02 1.51255196e-02
      2.26484844e-03 -3.49668856e-03 2.83571295e-02 2.24523228e-02
      -2.23544743e-02 -1.92640554e-02 -1.88545007e-02 -3.79021303e-03
      -4.84423898e-03 1.41214132e-02 1.81608405e-02 1.21978726e-02
      -9.16659553e-03 -1.47844199e-02 5.67322969e-03 -1.54857204e-04
      1.64178628e-02 -4.27972805e-03 -5.75611787e-03 4.04655607e-03
      3.64842732e-03 8.06229562e-03 1.00195035e-02 -1.95820187e-03
      5.64948386e-05 -3.14469216e-03 1.67590845e-03 -1.44339334e-02
      -1.24316365e-02 1.08010322e-02 2.51496583e-02 1.35742547e-02
      1.43514236e-03 1.25849647e-02 -3.28913354e-03 -9.01484024e-03
      -1.14764879e-02 -1.27049387e-02 8.48169439e-03 6.00298261e-03
      5.75943664e-03 3.11693153e-03 5.59986103e-03 -9.59801581e-03
      -1.36358384e-02 -2.06197146e-02 -7.75861787e-03 2.43203808e-03
      1.01395017e-02 2.91240704e-03 -1.08718174e-03 1.33424085e-02
      -4.21797438e-03 -1.48882596e-02 -1.16345426e-02 -1.92026142e-02
      5.46991313e-03 2.03772057e-02 6.88488688e-03 4.51799482e-03
      9.97340120e-03 -8.53303913e-03 -1.22653414e-02 -1.71952962e-03
      -1.75376963e-02 2.43913643e-02 2.39493400e-02 4.26138798e-03
      4.27101878e-03 -7.06921564e-03 -2.18335837e-02 -9.17466823e-03
      -4.87860198e-05 1.21173058e-02 -1.39354533e-02 7.34313903e-03
      3.89991631e-03 6.16309792e-03 2.07496490e-02 -1.00861471e-02
      -4.91052307e-03 8.62562039e-04 -1.87128354e-02 7.99686927e-03
      8.80283117e-03 1.19222759e-03 6.45390665e-03 1.70907546e-02
      -2.25699674e-02 1.15676438e-02 -1.61516550e-03 -1.72833614e-02
      7.35405460e-03 3.06470133e-03 -5.28223393e-03 1.78690732e-03
      -1.91175262e-03 -9.16086789e-03 -1.25171188e-02 -8.31758603e-03
      6.10942999e-03 -1.08515890e-03 4.60516848e-03 1.11696888e-02
      -1.56449806e-03 -7.13987928e-03 8.19588895e-04 1.13302225e-03
      -7.77504919e-03 1.52897189e-06 9.93227493e-03 7.17071583e-03
      -3.48265702e-03 -3.16269603e-03 -1.72815251e-03 -4.19027638e-03
      2.92927492e-03 -1.03882141e-02 -4.05409886e-03 -3.01847421e-03
      8.67323251e-04 4.98312572e-03 -1.65533402e-03 -1.82516989e-03
      3.00148362e-03 -4.69198043e-04 5.22347260e-03 2.04926990e-02
      1.63311530e-02 1.29574081e-02 1.02601778e-02 -1.02507463e-03
      -1.33122699e-02 -1.12828529e-02 -7.86293764e-03 -1.44687453e-02
      1.22038834e-02 9.30022821e-03 4.01422987e-03 9.94069967e-03
      4.84268181e-03 -3.34945996e-03 -7.52698164e-03 -1.05242357e-02
      -1.99249620e-03 6.45611016e-03 -1.54589524e-03 -5.02083683e-03
      -5.12982858e-03 -5.14351437e-03 -7.66937109e-03 -6.58506574e-03
      1.30780472e-03 7.15080509e-03 2.14241892e-02 -7.86785223e-03
      -1.72986668e-02 -1.95334889e-02 -8.73972941e-03 1.99035387e-02
      1.65641252e-02 7.56460521e-03 1.24308458e-02 1.04184151e-02
      -2.33670603e-03 -1.33497221e-02 -2.42781639e-03 -2.17642821e-03
      -9.94481798e-03 -1.82175660e-03 -1.17505584e-02 4.82967962e-03
      4.23687091e-03 -8.28431977e-04 1.18189515e-03 9.28480702e-04
      -7.00911321e-03 4.96247201e-04 6.44362392e-03 4.80948249e-03
      8.93580168e-03 3.20473546e-03 -1.72217470e-03 -3.11590638e-03
      -8.68313108e-03 -1.18487822e-02 4.96659148e-03 4.57946025e-03
      -1.25854718e-03 5.50313387e-03 1.36426289e-03 7.43110059e-03
      8.21250957e-03 7.36851385e-03 4.04450519e-04 1.67746451e-02
      5.09644998e-03 1.70358419e-02 1.08690839e-02 5.96992997e-03</_></support_vectors>
  <decision_functions>
    <_>
      <sv_count>1</sv_count>
      <rho>2.0203821240299877e+00</rho>
      <alpha>
        1.</alpha>
      <index>
        0</index></_></decision_functions></my_svm>
</opencv_storage>
