<?xml version="1.0"?>
<opencv_storage>
<my_svm type_id="opencv-ml-svm">
  <svm_type>C_SVC</svm_type>
  <kernel><type>LINEAR</type></kernel>
  <C>1.0000000000000001e-01</C>
  <term_criteria><epsilon>1.1920928955078125e-07</epsilon>
    <iterations>1000</iterations></term_criteria>
  <var_all>2916</var_all>
  <var_count>2916</var_count>
  <class_count>2</class_count>
  <class_labels type_id="opencv-matrix">
    <rows>1</rows>
    <cols>2</cols>
    <dt>i</dt>
    <data>
      1 2</data></class_labels>
  <sv_total>1</sv_total>
  <support_vectors>
    <_>
      7.71652861e-03 1.53064579e-02 1.16785215e-02 3.46598541e-03
      -1.47273310e-03 -9.23001394e-03 -1.75146498e-02 -2.68431250e-02
      4.86928318e-03 3.56849693e-02 2.35995203e-02 3.38668865e-03
      -6.03823597e-03 -1.95938838e-03 -2.12552641e-02 -2.43218709e-02
      -1.47327278e-02 1.59654114e-02 3.61854061e-02 2.36549117e-02
      8.45621526e-03 3.78291542e-03 -1.71460398e-02 -1.41082602e-02
      -1.45664224e-02 -2.00805124e-02 2.72312090e-02 3.88008542e-02
      1.01222806e-02 -1.71249398e-04 4.03021649e-03 -8.22615623e-03
      -1.37114814e-02 -1.59495026e-02 -1.24175120e-02 1.83249079e-02
      1.05533451e-02 1.43941781e-02 5.02825156e-03 -2.90442514e-03
      -8.64079688e-03 -1.32219288e-02 -1.92043069e-03 -1.16959587e-02
      -7.06228008e-03 1.75210442e-02 -1.76900961e-02 5.98321715e-03
      -1.04263565e-02 -1.10045047e-02 -6.47144439e-03 3.00296210e-03
      -7.44496705e-03 -1.19543017e-03 3.70745845e-02 2.13276427e-02
      -5.36424713e-03 -5.51875541e-03 -7.71695841e-03 6.89952285e-04
      1.64644013e-03 -2.82391608e-02 2.17686780e-03 2.96766106e-02
      -4.26358869e-03 8.77441745e-03 -1.31429592e-02 -3.42133944e-03
      -2.22748448e-03 9.77661039e-05 -1.51620405e-02 1.39463693e-02
      -6.97989436e-03 -1.00171156e-02 -5.43890987e-03 -2.02939846e-02
      -7.98977446e-03 -1.77026886e-04 4.84937662e-03 -8.73995107e-03
      1.47648770e-02 6.68630842e-03 8.60524550e-03 -1.45926848e-02
      -1.54854199e-02 -1.30470293e-02 -1.11117796e-03 -1.08074062e-02
      -9.97348572e-04 4.31309529e-02 6.16994873e-03 -1.22425109e-02
      -3.80261824e-03 -1.31258694e-02 -4.01361333e-03 2.93827543e-05
      -4.46054246e-03 -5.08219656e-03 4.22198698e-02 1.08130006e-02
      -3.88671062e-03 -1.90420833e-03 -1.32908430e-02 -2.67593493e-03
      -5.33026829e-03 -1.25062838e-02 1.42722875e-02 5.69631495e-02
      2.37727398e-03 1.30457086e-02 -6.87035266e-04 -1.27166463e-03
      -7.91652128e-03 -7.00517092e-03 -1.99930854e-02 2.30144616e-03
      2.33700685e-02 -2.79534521e-04 2.05897670e-02 -6.18467387e-03
      -2.27501709e-02 -8.38805828e-03 -8.82334728e-03 -2.31193155e-02
      -5.15967084e-04 1.12853441e-02 3.29967476e-02 6.03239145e-03
      -3.96301644e-03 -7.38665788e-03 -8.72564875e-03 -1.82291046e-02
      -2.59051993e-02 1.92605685e-02 4.81272787e-02 2.10537226e-03
      1.79679468e-02 -6.11561874e-04 -2.77818032e-02 -2.97926404e-02
      -3.43476869e-02 -2.79943440e-02 3.07766497e-02 3.66225131e-02
      2.01690998e-02 9.11132805e-03 -8.20700824e-03 -1.44950878e-02
      7.57149747e-03 2.71355081e-03 -1.12926587e-02 -1.17741572e-03
      4.12421447e-04 -5.01320173e-04 -1.69954784e-02 -1.76030565e-02
      -1.87784515e-03 2.49317521e-03 5.35508804e-03 1.45840058e-02
      -1.09468903e-02 -4.12442023e-03 3.03806756e-02 9.61319637e-03
      -4.22230363e-03 -1.83920972e-02 -1.49564659e-02 1.44208381e-02
      1.95550490e-02 2.96052247e-02 8.61205719e-03 8.24890193e-03
      -1.44619467e-02 -9.53363534e-03 -1.13899298e-02 5.80221834e-03
      3.56256738e-02 4.15981561e-02 9.13364929e-04 -1.31859304e-02
      -2.22046990e-02 -1.80380661e-02 -2.43184995e-03 6.94142049e-03
      1.42483572e-02 1.44995255e-02 3.35361138e-02 1.46132316e-02
      -7.52976537e-03 -3.30735967e-02 -1.54265892e-02 -4.01610555e-03
      1.46624520e-02 3.51469181e-02 2.96293199e-02 3.24928425e-02
      1.53706595e-02 -2.28917003e-02 -3.40591781e-02 -2.20748652e-02
      -4.06877371e-03 2.85674445e-03 1.65773239e-02 2.92835459e-02
      4.89637889e-02 1.77422520e-02 -1.87898669e-02 -3.34688090e-02
      -1.19154053e-02 1.57583952e-02 6.64883107e-03 6.31750422e-03
      4.64267172e-02 3.92913073e-02 1.74351241e-02 -1.64360348e-02
      2.98716855e-04 -2.46422142e-02 -4.36819484e-03 1.27537744e-02
      2.65034288e-02 1.81396008e-02 4.27590357e-03 -1.41134709e-02
      9.46937187e-04 -8.50843452e-03 -1.00689381e-02 2.98660132e-03
      1.38868811e-02 1.83926802e-02 1.73671432e-02 1.16180060e-02
      -1.40444627e-02 5.09041036e-03 5.98642323e-03 6.86519663e-04
      3.19208503e-02 1.50443632e-02 1.53619535e-02 6.51589083e-03
      6.82734651e-03 -1.10659068e-02 6.89361617e-03 -8.16205330e-03
      1.23963002e-02 2.73763537e-02 2.52716639e-03 1.35536948e-02
      -4.06976556e-03 -1.16971424e-02 1.82179399e-02 1.95915513e-02
      1.12765254e-02 1.07984794e-02 1.71873928e-03 -5.51963272e-03
      7.56804552e-03 1.82031803e-02 1.20276753e-02 -2.18829215e-02
      5.18556451e-03 -6.40681246e-04 2.25694850e-02 -1.90283898e-02
      -2.21148394e-02 2.77589895e-02 8.52168538e-03 1.24232974e-02
      2.15105452e-02 1.00936955e-02 -2.42204685e-03 2.02936418e-02
      -1.14382682e-02 -1.80821829e-02 6.45298464e-03 1.84663329e-02
      3.07264621e-03 1.64634272e-04 -7.25949463e-03 1.44805517e-02
      2.20040195e-02 3.21330060e-03 -2.11987421e-02 9.23309661e-03
      1.50926160e-02 1.89959742e-02 1.58246178e-02 8.87841918e-03
      -1.78648345e-02 7.63206929e-03 -1.74897313e-02 5.59820840e-03
      1.44760367e-02 8.25442653e-03 1.06373550e-02 2.43584029e-02
      3.29162297e-03 1.28888339e-02 -1.02854613e-02 -1.95462126e-02
      1.72864143e-02 1.57027990e-02 2.00640410e-02 1.79781895e-02
      1.10285357e-02 -9.99457110e-03 -6.33504102e-03 8.52188468e-03
      -2.00177403e-03 1.62705760e-02 -7.57285068e-03 1.58076398e-02
      2.23893318e-02 2.05398407e-02 1.04294652e-02 1.41747631e-02
      -8.53781065e-04 1.72740920e-03 3.35198715e-02 2.01788661e-03
      3.21176127e-02 1.65652148e-02 1.74564272e-02 2.73066480e-03
      2.03042571e-02 1.23734055e-02 -2.60147615e-03 -1.20237032e-02
      -1.11685237e-02 -3.08029493e-03 -2.92966161e-02 -2.16102954e-02
      1.09255332e-02 9.23699792e-03 3.07372808e-02 -4.46756696e-03
      2.96199541e-05 -1.47557622e-02 4.96981852e-03 -1.87235996e-02
      -3.09534632e-02 1.13785304e-02 1.67174656e-02 1.65875684e-02
      -2.00846825e-05 -1.31419702e-02 -6.87672436e-05 -7.20894244e-03
      -2.82469373e-02 -2.02931594e-02 1.54820858e-02 2.61294544e-02
      5.31241260e-02 2.37229355e-02 6.43881923e-03 1.69038139e-02
      9.67141520e-03 -1.48313977e-02 -2.17619818e-02 3.17812013e-03
      1.62460227e-02 2.89681349e-02 -1.14556216e-02 -8.71573016e-03
      2.08427501e-03 4.45651152e-04 -2.48165964e-03 -3.08002718e-02
      -1.91542525e-02 1.06267193e-02 1.64370146e-02 -1.00367256e-02
      1.57205126e-04 5.98289073e-03 -5.12202736e-03 -5.44618210e-03
      -1.60507765e-02 -1.91927701e-02 3.78313102e-02 6.22054115e-02
      5.14775515e-03 -7.47178122e-03 5.61278407e-03 1.30374252e-03
      -5.47621818e-03 -2.90439352e-02 -1.99944191e-02 2.61835605e-02
      1.51654016e-02 -9.43124853e-03 -7.03662867e-03 6.97612111e-03
      -1.21651299e-03 -5.57965226e-03 -1.57755967e-02 -1.31666875e-02
      3.09680891e-03 -8.94963462e-03 8.70249514e-03 -1.77761400e-03
      2.55556870e-03 -4.82668111e-04 -8.33973102e-03 -1.01675410e-02
      4.03015018e-02 2.06276448e-03 -6.53854106e-03 6.63114432e-03
      -7.28128618e-03 2.30651093e-03 -4.71753674e-03 -1.09204333e-02
      1.29853736e-03 6.56115562e-02 -3.54063418e-03 -1.60296764e-02
      9.74040653e-04 1.57870608e-03 2.44579860e-03 2.24381639e-03
      -1.07732369e-02 -5.21387858e-03 2.61316001e-02 -4.65323776e-03
      -5.84667129e-03 6.68136263e-03 -1.28515041e-03 2.82581113e-05
      -4.63621644e-03 -2.67142756e-03 -5.60575863e-03 2.95788981e-02
      1.18188579e-02 -1.15771778e-04 -1.32284884e-03 -2.12579523e-03
      5.95346210e-04 -8.68370011e-03 -2.03106254e-02 2.43905298e-02
      6.27850071e-02 -9.72763542e-03 -3.11839674e-03 8.43870337e-04
      -4.81718127e-03 -2.16427781e-02 -1.74023006e-02 -1.02898395e-02
      2.72022858e-02 1.87204573e-02 -7.28263473e-03 -1.02208816e-02
      7.90984277e-03 1.16901960e-04 4.17193631e-03 -8.15388188e-03
      -2.27329750e-02 -3.72427143e-03 2.04480290e-02 -1.56925526e-03
      8.11509974e-03 3.96759622e-03 5.03015518e-03 -5.55657456e-03
      -1.12243379e-02 -5.21554658e-03 -1.34147163e-02 1.28372284e-02
      5.29656932e-03 -4.48672753e-03 -5.54244127e-03 -1.53117366e-02
      -2.38028187e-02 8.30260012e-03 3.91629636e-02 1.77502800e-02
      2.69300654e-03 -2.14559622e-02 -1.13228904e-02 -1.50389336e-02
      -2.39280239e-02 -1.56901479e-02 2.59359684e-02 5.21791466e-02
      2.50137076e-02 -2.42445879e-02 -5.61499549e-03 3.22787371e-03
      -1.54840911e-03 -1.68541167e-03 -2.31433641e-02 6.86652446e-03
      4.18602191e-02 2.57459506e-02 2.30643735e-03 -2.95191202e-02
      -1.60310026e-02 -8.29095021e-03 -7.85294175e-03 -9.13056359e-03
      2.84269592e-03 5.89381829e-02 5.15687689e-02 -1.18689770e-02
      -2.68207528e-02 -2.23540813e-02 -1.34261455e-02 -8.76726676e-03
      -3.36410827e-03 1.50640514e-02 3.62353846e-02 2.90409047e-02
      -2.83373650e-02 -2.38681883e-02 -2.50254460e-02 2.31965329e-03
      -4.79611475e-03 -5.48072113e-03 8.95410497e-03 1.36571005e-02
      -1.16634415e-03 -4.21322417e-03 -2.70652659e-02 -1.35842757e-02
      -2.27208529e-03 -9.95573495e-03 2.87159928e-03 1.99461374e-02
      5.19717708e-02 6.35823756e-02 1.56084914e-02 -6.40489906e-03
      -1.58064347e-02 7.51720229e-03 1.02594448e-02 2.33011823e-02
      2.27469821e-02 1.39952907e-02 2.07415111e-02 9.26791411e-03
      -2.40922393e-03 -9.92402714e-03 1.86784342e-02 4.45115939e-03
      6.15883851e-03 -5.18111512e-03 -4.65000840e-03 3.75175290e-03
      3.06062903e-02 -6.15394954e-03 8.70957784e-03 4.41026967e-03
      -1.30903460e-02 9.60025843e-03 -2.20855214e-02 -6.35876181e-03
      2.32986007e-02 3.25326547e-02 9.57967713e-03 -7.79414782e-03
      -9.18046199e-03 1.79238059e-02 1.86818726e-02 -1.29409581e-02
      -3.12467222e-04 2.66591478e-02 4.22910303e-02 3.04447324e-03
      1.41141051e-02 -6.56462461e-03 -2.34310585e-03 1.16140749e-02
      -7.52617780e-04 5.35186892e-03 3.49569693e-02 3.62278670e-02
      -1.06865130e-02 1.80524886e-02 -1.07405633e-02 -2.60208920e-03
      1.29835750e-03 1.10598386e-03 -4.40626359e-03 -3.72785522e-04
      6.16599154e-03 1.68101452e-02 2.52325665e-02 -3.43203219e-03
      3.86143825e-03 2.91161821e-03 4.07217396e-03 -4.41413978e-03
      -8.30162782e-04 1.26995044e-02 -7.74030806e-03 2.48098411e-02
      -9.85535048e-03 -3.76175647e-03 -1.01745818e-02 7.08247628e-03
      8.69878381e-03 2.02066917e-03 -9.01670661e-03 2.36095693e-02
      4.22544740e-02 1.59251988e-02 2.56701764e-02 8.94235075e-03
      8.14541336e-03 2.89382320e-03 -1.85578596e-02 9.61927790e-03
      9.36884992e-03 -1.32447795e-03 -4.65708552e-03 1.29199810e-02
      -9.31799877e-03 -4.50534746e-04 3.20882048e-03 -8.48752633e-03
      -2.06366740e-03 1.30487410e-02 -1.99523494e-02 5.94434747e-03
      2.23145168e-02 -6.66310778e-03 9.31506604e-03 -2.80371006e-03
      6.39921380e-03 3.21599166e-03 3.62312645e-02 3.98549438e-02
      1.92669239e-02 2.93370374e-02 -5.19855600e-03 -6.37503201e-03
      6.24934735e-04 -1.65260471e-02 -1.46337617e-02 2.97710672e-02
      2.90689524e-02 2.20948290e-02 1.78470686e-02 6.00476656e-03
      5.34494966e-03 -7.82310555e-04 -5.02041541e-04 1.16420742e-02
      1.64186151e-03 5.81063144e-03 8.42060801e-03 -1.35869840e-02
      2.14258768e-03 -1.32713681e-02 -2.89484560e-02 -1.91267617e-02
      3.54864052e-03 1.41726620e-02 3.05341501e-02 4.25931476e-02
      1.04461154e-02 1.23757357e-02 -1.70118187e-03 -2.20465511e-02
      -2.55244970e-02 -1.53075922e-02 6.88220898e-04 1.81998219e-03
      3.72471772e-02 1.90406165e-03 1.71820205e-02 -1.29649052e-02
      -2.83492804e-02 -4.03856765e-03 -3.93900834e-03 9.09328461e-03
      2.62393709e-02 4.57976349e-02 1.98092014e-02 3.06840204e-02
      7.76420906e-03 -1.99626442e-02 -3.37652005e-02 -1.71476137e-02
      2.50947569e-02 4.32057604e-02 1.17336744e-02 9.18607751e-04
      1.23071186e-02 2.27383734e-03 -3.84138012e-03 -2.49446332e-02
      -2.54925359e-02 6.27976935e-03 2.62446683e-02 -2.09413096e-03
      -3.62106855e-03 1.14056831e-02 1.43246690e-03 -3.87610612e-03
      -2.33576866e-03 -1.34673612e-02 9.00399033e-03 3.28436159e-02
      2.18256693e-02 1.15475915e-02 2.43861321e-02 4.97791497e-03
      -2.25253989e-05 -1.89713817e-02 -2.12604087e-02 -1.10617150e-02
      5.57880430e-03 3.04380469e-02 -6.76912023e-03 2.25083958e-02
      2.23404379e-03 6.94536604e-04 -3.30724497e-03 -1.80133749e-02
      -2.46614944e-02 -1.62295508e-03 1.45418588e-02 2.96243303e-03
      -1.07627668e-04 -6.19401876e-03 -1.70577373e-02 -1.17960740e-02
      1.06675774e-02 -5.50612458e-04 1.34285260e-02 1.41230905e-02
      -5.69397467e-04 -2.62267492e-03 -1.10734040e-02 -2.51357965e-02
      -1.30187497e-02 1.28556080e-02 -1.78296044e-02 1.45504661e-02
      3.34204398e-02 8.16935208e-03 8.19822482e-04 -1.02461809e-02
      -1.90057103e-02 -9.43048950e-03 1.47425812e-02 3.04268729e-02
      4.92616333e-02 4.62422073e-02 -1.38753960e-02 -4.94567165e-03
      -1.78829879e-02 -3.33814062e-02 -6.69448823e-03 3.61104645e-02
      4.22947435e-03 -8.22032709e-03 5.52800996e-03 6.20634644e-04
      -2.82119930e-04 -3.48410523e-03 -2.46253945e-02 -5.54780336e-03
      5.29551366e-03 7.28984771e-04 6.56322669e-03 9.32417228e-04
      2.32883613e-04 1.42696535e-03 -1.11639565e-02 -4.97383764e-03
      -6.30157674e-03 -8.88220314e-03 3.04344893e-02 1.68346949e-02
      -1.76789553e-03 -1.26943989e-02 -5.11258049e-03 -4.82307514e-03
      -1.74023565e-02 1.88140385e-02 3.57217342e-02 3.17149088e-02
      1.69636030e-02 -1.49210421e-02 -7.31015019e-03 2.39852723e-03
      3.80852702e-03 6.99850440e-04 4.10357490e-03 2.18752827e-02
      -1.66209918e-02 -1.83151045e-04 4.70655563e-04 -9.06550093e-04
      -1.54981925e-03 -1.19679747e-02 7.73610640e-03 4.54300432e-04
      -7.24959467e-03 -3.62376384e-02 -3.22489999e-02 -1.79563789e-03
      7.77859183e-04 1.78331509e-03 1.72321231e-03 4.57247943e-02
      4.15641889e-02 4.98439092e-03 7.47475168e-03 -9.78079508e-04
      1.33682170e-03 2.38565379e-03 2.79049412e-03 -3.50572132e-02
      7.83130620e-03 2.54657529e-02 2.97089829e-03 4.45029326e-03
      -1.86121687e-02 4.58720792e-03 8.35362542e-03 1.08527429e-02
      6.43567415e-03 2.09812354e-02 3.22887562e-02 1.32071637e-02
      -4.45021763e-02 -1.97375063e-02 1.82551739e-03 1.75895938e-03
      1.19315563e-02 2.58939806e-02 5.13976142e-02 1.91541743e-02
      -5.57047501e-03 -4.87956852e-02 -1.54971946e-02 8.17896519e-03
      1.11409407e-02 2.27846541e-02 3.30852866e-02 1.70234274e-02
      1.72357250e-03 -3.49515676e-02 -2.21068431e-02 -1.26998629e-02
      9.75165982e-03 1.47289149e-02 7.98529107e-03 4.51228991e-02
      4.77360189e-02 -2.15370543e-02 -1.41995326e-02 -5.29554151e-02
      1.48789817e-03 2.33846996e-03 1.17600597e-02 1.99065730e-02
      4.09316942e-02 3.71936448e-02 -1.59917716e-02 -4.72614132e-02
      -1.14474623e-02 -8.76973104e-03 1.64814340e-03 2.69036125e-02
      1.63296293e-02 2.04535143e-04 4.78502596e-03 1.63110849e-02
      1.25244597e-03 -2.07988247e-02 -1.00127878e-02 -6.27577584e-03
      6.67333137e-04 1.00600785e-02 2.20665075e-02 9.52362828e-03
      1.49805648e-02 7.81182619e-03 -1.87202934e-02 -1.24598956e-02
      -1.99299748e-03 3.89541425e-02 3.25200185e-02 5.41082211e-03
      2.21323296e-02 1.34211713e-02 -2.71073077e-02 -3.27420011e-02
      -6.52085198e-03 -1.55433416e-02 1.53907146e-02 3.51360627e-02
      3.44223306e-02 1.62730999e-02 1.93246901e-02 7.05538271e-03
      -2.12849882e-02 1.33893015e-02 -1.90177150e-02 -1.42071061e-02
      -1.27805229e-02 4.16541845e-03 -5.74463606e-03 -6.52250974e-03
      -2.36894414e-02 1.49187911e-02 3.69199403e-02 1.32373571e-02
      2.38703992e-02 -6.70156768e-03 2.54806655e-04 -4.70478786e-03
      -1.69975869e-02 -1.85214765e-02 -1.42422225e-02 1.10717835e-02
      1.40402876e-02 -3.03462171e-03 -1.04340063e-02 7.93630909e-03
      2.48124381e-03 1.03130052e-02 -2.09562201e-02 1.28975008e-02
      6.10647500e-02 3.11374608e-02 3.67688201e-02 -1.34642944e-02
      -3.95061867e-03 9.67597589e-03 -4.05465066e-03 -1.05045428e-02
      1.59104839e-02 1.42234573e-02 1.03931483e-02 1.57467872e-02
      -6.80285459e-03 -3.51403112e-04 1.10164436e-03 -1.94219612e-02
      -3.42323594e-02 -9.91749112e-03 1.13329394e-02 1.46014094e-02
      8.31575599e-03 -7.95310549e-03 1.38095003e-02 5.62625006e-03
      -3.52557609e-03 -2.35354975e-02 3.51241678e-02 3.24019976e-02
      2.00295560e-02 1.02933161e-02 -2.58912649e-02 4.39897133e-03
      2.23058206e-03 9.35630058e-04 1.32617150e-02 1.36915473e-02
      1.67995207e-02 1.22822076e-02 1.06513565e-02 -1.81587227e-02
      1.94545016e-02 5.12967864e-03 -3.84350860e-04 1.22084748e-02
      -3.18320980e-03 -1.65787863e-03 2.58114859e-02 4.43513086e-03
      2.39607561e-02 -1.57368686e-02 -2.59424541e-02 -2.62664678e-03
      -1.43985066e-03 6.95486041e-03 5.30765345e-03 3.80604789e-02
      8.83672945e-03 3.56532820e-02 -4.46880655e-03 -1.83327682e-02
      -3.24309245e-02 -4.87371208e-03 1.28136249e-04 2.86303740e-03
      7.70831620e-03 1.23294881e-02 9.48257104e-04 -1.34968488e-02
      -1.98481116e-03 9.13984049e-03 5.37227700e-03 1.18804658e-02
      3.12302494e-03 1.65910590e-02 -5.39887371e-03 -1.50580127e-02
      3.53895151e-03 2.27951817e-03 -1.57006942e-02 1.09642362e-02
      -5.54691581e-03 1.10919983e-03 5.94066828e-03 -3.40052461e-03
      1.91304199e-02 2.61416915e-03 -1.74432073e-03 -1.83824673e-02
      -1.10287545e-02 -2.12366395e-02 -1.28006609e-03 2.46190876e-02
      -7.47664599e-03 1.08842235e-02 -2.11969274e-03 9.42144601e-04
      -3.98846157e-03 -1.30787520e-02 -1.00209285e-03 -2.94770356e-02
      1.61384093e-03 1.12028429e-02 5.45412023e-03 1.52329803e-02
      7.72120897e-04 -7.70771177e-03 -1.69886788e-03 -6.18248386e-03
      -5.37976017e-03 4.10732776e-02 2.07595639e-02 1.12234866e-02
      2.24800799e-02 3.25700082e-03 -2.24061823e-03 7.51524116e-04
      -2.88171005e-02 3.71912145e-03 3.39380838e-02 -4.02247650e-04
      -2.97091971e-03 -7.74219958e-03 -7.23448722e-03 -6.29386539e-03
      8.55783408e-04 1.71254873e-02 3.75255086e-02 2.58091222e-02
      -1.41764041e-02 -5.18877804e-03 -1.01732332e-02 -2.80735437e-02
      -9.71157104e-03 9.16138757e-03 1.60893723e-02 2.87305228e-02
      3.41936536e-02 -5.58205321e-03 -5.44944825e-03 2.28379900e-03
      -5.01318660e-04 -5.85011113e-03 -4.15771175e-03 2.15137340e-02
      1.22161964e-02 -5.95704420e-03 -1.37369167e-02 -7.35133979e-03
      -2.26269215e-02 -1.69068556e-02 -9.17910971e-03 1.76515076e-02
      1.10567585e-02 7.39949197e-03 -1.08181806e-02 -1.41262189e-02
      -3.87109839e-03 -7.23247370e-03 -8.88482854e-03 1.32917017e-02
      1.97386090e-02 4.69370279e-03 6.69569999e-04 -1.56276319e-02
      -7.83338584e-03 -1.64095331e-02 7.44789932e-03 -8.88353400e-03
      2.81290375e-02 1.10255079e-02 1.29914272e-03 -5.12086879e-03
      -1.38626928e-02 -1.18096080e-02 -2.35462561e-03 -1.24543356e-02
      4.71901009e-03 9.45320571e-05 1.26833506e-02 -1.60356537e-02
      -1.53544378e-02 -2.19369326e-02 -1.38764326e-02 5.30208636e-04
      1.40540916e-02 2.79979110e-02 3.39387916e-02 9.75395273e-03
      -3.37656122e-03 -1.43092277e-03 -3.97863006e-03 -3.70183290e-04
      -1.48583599e-03 -3.91169777e-03 1.02225086e-02 1.67314969e-02
      -7.55793240e-04 2.64809560e-03 -7.91554246e-03 5.21720946e-03
      4.96586924e-03 1.08480891e-02 -5.40084019e-03 7.64569268e-03
      3.30189709e-04 -1.48945153e-02 -2.05798261e-02 -7.69429095e-03
      -5.84076112e-03 2.18881830e-03 1.99836176e-02 3.03326361e-02
      4.45115268e-02 2.58228928e-02 -6.07870985e-03 -8.19299463e-03
      -8.82851309e-04 1.27597875e-03 2.36732438e-02 2.39470899e-02
      1.58722373e-03 1.62246097e-02 1.29123509e-03 -1.42465103e-02
      -5.73459547e-03 -5.48378425e-03 7.81338103e-03 5.73979458e-03
      7.61668291e-03 2.61442233e-02 2.40023453e-02 -2.47030500e-02
      -1.37999179e-02 -2.97516175e-02 3.86888813e-03 -1.34832542e-02
      -5.83269051e-04 1.08086299e-02 2.65052840e-02 2.88833547e-02
      -5.30325761e-03 -2.98611876e-02 4.28873533e-03 3.13645415e-03
      1.35322288e-02 5.48700627e-04 1.94059797e-02 -1.27909668e-02
      3.08296327e-02 -9.57158767e-03 -1.00709582e-02 -1.08926212e-02
      1.46307535e-02 -2.36599017e-02 -3.15727433e-03 -2.04978697e-03
      2.37649474e-02 1.59789938e-02 1.35403452e-02 -3.96054145e-03
      -2.54602339e-02 -1.00431964e-02 -8.55580065e-03 7.17433076e-03
      1.98862180e-02 -4.85457573e-03 2.40499098e-02 1.41777955e-02
      -3.08561418e-02 -3.20390128e-02 -2.14140769e-02 -1.45027265e-02
      -1.07889855e-03 8.21458735e-03 5.38249314e-03 1.88219873e-03
      1.41584426e-02 -6.87197130e-03 5.27547579e-03 2.60077491e-02
      -2.49743499e-02 -2.23758519e-02 1.91164799e-02 1.17340859e-03
      4.61118072e-02 2.42977571e-02 -7.13361939e-03 1.85993891e-02
      9.89073329e-03 1.25699090e-02 -7.80557143e-03 -1.39094377e-02
      -4.28722240e-04 2.70800777e-02 7.75354728e-03 9.67482012e-03
      -2.32670270e-02 -1.88851133e-02 1.45966315e-03 -8.06311239e-03
      -2.30229665e-02 -1.61407515e-02 7.92204926e-04 6.56942045e-03
      -2.10274719e-02 1.18615797e-04 4.98985164e-02 4.81293835e-02
      1.92867257e-02 -3.11597902e-02 -9.60177276e-03 -1.00097293e-03
      -3.06671089e-03 -2.60380022e-02 1.01245977e-02 2.69759763e-02
      4.27292921e-02 6.22861553e-03 -5.12810722e-02 -1.84747111e-02
      1.13698165e-03 5.48494805e-04 7.05934688e-03 1.52856903e-02
      4.46148999e-02 3.83093096e-02 1.47151966e-02 -3.44197974e-02
      -2.09793225e-02 -1.37515794e-02 -4.06785589e-03 2.26547127e-03
      1.78131089e-02 2.96294801e-02 2.25098189e-02 2.06892355e-03
      -3.08981426e-02 4.04739039e-05 -6.40446832e-03 -1.03254281e-02
      -7.35977385e-03 -1.02915883e-03 3.07120732e-03 5.73343039e-03
      3.02049983e-03 -1.94909293e-02 1.61973070e-02 3.32201924e-03
      4.38905787e-03 -9.40006285e-04 2.49447394e-02 2.93402690e-02
      2.45689172e-02 1.00380499e-02 -3.40636335e-02 -2.44088043e-02
      -2.32677422e-02 8.34761653e-03 1.48206707e-02 -2.38738954e-02
      5.60049724e-04 -9.17377044e-03 1.88617557e-02 -3.40443989e-03
      5.55095403e-03 3.82439379e-04 2.53082048e-02 2.85294652e-03
      -7.81793706e-03 -1.75517530e-03 3.72292218e-03 9.22304392e-03
      -7.62542943e-04 -2.66255229e-03 8.91698711e-03 1.21674612e-02
      4.88502998e-03 1.20774070e-02 7.68829428e-04 5.66045754e-04
      -2.22515152e-03 -1.36441318e-02 1.08590978e-03 1.37206549e-02
      -1.67620921e-04 7.58397765e-03 -1.45769557e-02 -1.66121311e-02
      -1.86512608e-03 1.83360353e-02 -7.22726062e-03 -4.65596793e-03
      2.49848720e-02 1.70540493e-02 3.45619745e-03 -3.87922884e-03
      -9.71882511e-03 4.48103121e-04 1.53519185e-02 -3.48027353e-03
      1.13440435e-02 1.22507475e-02 -5.14870882e-03 -2.54126731e-03
      3.85288760e-04 -3.06529682e-02 -9.03716497e-03 1.25305075e-02
      -1.55892204e-02 3.52083077e-03 1.30272647e-02 -7.57769973e-04
      4.69525003e-05 7.61287799e-03 -1.70871224e-02 1.74934939e-02
      9.19020176e-03 1.48474481e-02 1.80689953e-02 1.08794067e-02
      -2.19624070e-03 7.92130479e-04 3.77546996e-03 -1.58422217e-02
      7.94573128e-03 1.09598991e-02 -2.79447250e-02 -1.31922178e-02
      -6.80654310e-03 -4.42545488e-03 4.54617711e-03 4.63459548e-03
      -4.43103490e-03 8.68836418e-03 2.54736468e-02 -4.54413355e-04
      -7.52949971e-04 1.78902131e-02 3.81114514e-04 1.92026910e-03
      2.04063505e-02 3.05269640e-02 2.90070046e-02 9.89786722e-03
      7.98671320e-03 9.37090907e-03 -7.81505276e-03 -6.74449606e-03
      6.93676702e-05 2.70541459e-02 1.56288054e-02 4.86479141e-03
      -1.24727348e-02 -1.62057602e-03 -1.99414603e-02 -2.73536853e-02
      -1.33471722e-02 3.03728529e-03 6.58205198e-03 6.68526581e-03
      2.11584736e-02 9.57258046e-03 1.00881457e-02 1.55525859e-02
      1.07166432e-02 1.71971843e-02 -1.04371756e-02 9.56531614e-03
      5.41570922e-03 1.37944417e-02 -5.10025071e-03 -1.13165677e-02
      -1.34789413e-02 -1.17709152e-02 -1.32059949e-02 -8.13675020e-03
      3.72892083e-03 -1.46186387e-04 -1.13233058e-02 -1.16599863e-02
      7.18613295e-03 -9.94670950e-03 1.62179989e-03 -6.22465834e-03
      5.80804422e-03 -1.71774048e-02 -1.54779302e-02 -1.60318632e-02
      -1.70917565e-03 3.16103944e-03 2.24146824e-02 3.07207834e-02
      2.73418427e-02 1.24300998e-02 -2.59555789e-04 1.40875280e-02
      -7.12713413e-03 -2.43629031e-02 1.54600199e-03 -1.41637288e-02
      3.84536036e-03 3.92947067e-03 -2.73498730e-03 3.22674494e-03
      -6.34769164e-03 4.73233638e-03 6.51729666e-03 7.80529017e-03
      7.94170797e-03 1.89489350e-02 1.01383980e-02 -1.57531407e-02
      -1.51727349e-02 -7.01673655e-03 -5.22810640e-03 1.10078361e-02
      6.27601147e-03 1.81153733e-02 2.38268115e-02 8.22064187e-03
      -5.74007677e-03 -8.52934830e-03 -6.59761485e-03 -1.02051497e-02
      2.19384022e-02 8.72324966e-03 -1.62671190e-02 1.90525297e-02
      -3.19406739e-03 -5.56004746e-03 -5.55156264e-03 -2.08356008e-02
      1.25525529e-02 3.22525911e-02 -3.50550585e-03 1.67677179e-02
      -2.30721082e-03 -1.29906961e-03 -4.11055377e-03 -1.05918664e-02
      -1.91467125e-02 -9.86357592e-03 5.21841133e-03 -1.22123864e-03
      -3.09948754e-02 1.78914368e-02 8.10647942e-03 -4.25524078e-03
      1.96557539e-03 -5.69045078e-04 -3.31424199e-05 6.32634666e-03
      -8.19794182e-03 -2.26036385e-02 2.85923779e-02 3.24246963e-03
      3.42642516e-03 7.59580499e-03 6.84607308e-03 -1.26125459e-02
      -1.11001432e-02 -1.46711534e-02 6.10369677e-03 3.58666517e-02
      2.61264690e-03 5.47816558e-03 5.72072016e-03 -9.92255006e-03
      -2.12402083e-02 -1.03122294e-02 -2.37412900e-02 -1.62993502e-02
      5.55132004e-03 -1.88675441e-03 1.19463438e-02 2.80063450e-02
      -1.37258852e-02 -2.29372028e-02 5.36630163e-03 9.08706430e-03
      -2.64440607e-02 3.65615003e-02 5.09978505e-03 1.17009543e-02
      1.39004728e-02 1.80838145e-02 -3.25244181e-02 -2.66158320e-02
      -2.42507681e-02 -6.16302853e-03 2.62329075e-02 -2.56391708e-04
      1.41184870e-03 1.80081949e-02 3.25158685e-02 4.57518222e-03
      -4.33658957e-02 -3.73278074e-02 -9.59662348e-03 1.18627707e-02
      3.57982679e-03 2.20716884e-03 2.69001517e-02 5.82584459e-03
      7.54971988e-03 -1.52983777e-02 -4.30317149e-02 -1.88655891e-02
      1.71181224e-02 1.64062362e-02 1.86337139e-02 1.74021795e-02
      4.02691551e-02 3.68270613e-02 -3.64182852e-02 -8.00200924e-02
      -2.32725944e-02 -1.74528919e-03 1.52084716e-02 2.10908055e-02
      3.56581062e-04 3.41142118e-02 3.75645049e-02 -3.17202765e-03
      -4.72553633e-02 -1.33665316e-02 -2.11140164e-03 -2.52040196e-03
      2.70607043e-03 2.01729313e-03 2.85168253e-02 2.35509574e-02
      9.63949412e-03 -4.87802066e-02 -2.33030971e-02 -1.85183156e-02
      5.96637779e-04 9.42780869e-04 1.84058566e-02 4.57543358e-02
      3.59325558e-02 3.09269410e-03 -3.32496352e-02 -2.33544242e-02
      -1.76099967e-02 -1.25100324e-02 -6.86160056e-03 1.69224832e-02
      1.67598482e-02 1.12716621e-02 -7.65447784e-03 -3.77218984e-02
      -2.38533635e-02 -2.00315360e-02 7.42372824e-03 1.09578371e-02
      2.25211494e-02 2.20489092e-02 2.66886819e-02 4.46971413e-03
      -2.57927850e-02 -3.00692692e-02 -1.62113942e-02 9.77446698e-03
      1.21109672e-02 -1.16224634e-02 -5.20169735e-03 -2.81690806e-03
      2.56652832e-02 -2.12042667e-02 2.15567555e-03 -7.00831274e-03
      1.63646266e-02 -3.39390337e-03 1.20509183e-02 1.68952979e-02
      4.02397774e-02 -8.02715030e-03 -2.72561666e-02 -1.24722542e-02
      2.53132265e-03 5.08826273e-03 1.74817606e-03 1.91412715e-03
      2.78683603e-02 1.43169593e-02 -4.58662352e-03 -2.79184561e-02
      -9.96261742e-03 -1.35730188e-02 -1.18860966e-02 -1.77591702e-03
      -1.58329029e-02 -1.67709123e-02 -5.52489003e-03 -2.00416031e-03
      1.11343870e-02 7.30105024e-03 2.39665210e-02 1.55699058e-02
      3.93836666e-03 -4.77898167e-03 1.02071250e-02 7.22016441e-03
      -7.71869498e-04 9.08276718e-03 4.00899164e-03 -1.01760263e-02
      3.84998624e-03 -9.50134941e-04 -1.70972310e-02 -1.44690704e-02
      -1.61474999e-02 -2.17606407e-02 1.95296109e-02 7.69058522e-03
      2.71341559e-02 1.33906184e-02 -6.83038402e-03 -5.85430348e-03
      8.83911550e-03 1.47091597e-02 -1.12165138e-02 3.22447941e-02
      -2.92079872e-03 -3.75317875e-03 -4.32064291e-03 -9.87535808e-03
      4.78875590e-03 -2.82106432e-03 5.41700469e-03 5.21458313e-03
      6.60655508e-03 -1.14041977e-02 -2.28231251e-02 -7.49063503e-04
      4.37639840e-03 1.97052187e-03 -1.10243273e-03 1.60161080e-03
      7.33630685e-03 1.95029583e-02 2.27452889e-02 3.35072950e-02
      1.02098370e-02 2.31772498e-03 1.55600617e-02 7.46546872e-03
      1.04112495e-02 -2.79880757e-03 1.20509816e-02 -5.98115847e-03
      -1.01391654e-02 -3.59935053e-02 1.59060047e-03 -4.82658623e-03
      3.93479131e-03 -1.48132764e-04 -4.40157112e-03 2.27170233e-02
      2.15326007e-02 -1.04236444e-02 1.99556109e-02 1.16650471e-02
      -8.01811740e-03 -4.05828701e-03 2.69926223e-03 -1.35281283e-04
      -4.87287901e-03 1.19932937e-02 2.57725567e-02 3.36733349e-02
      1.74092100e-04 -1.07784551e-02 4.53094952e-03 5.67403482e-03
      -7.94994272e-03 -1.40873510e-02 -2.50220746e-02 5.46789588e-03
      9.51848179e-03 -2.28818133e-03 -3.03922035e-02 -1.47564067e-02
      -3.62073281e-03 9.92501038e-04 3.00327712e-03 -3.45944485e-04
      4.67093438e-02 3.54243405e-02 3.41902263e-02 -1.63646117e-02
      -2.99583897e-02 1.17754994e-03 3.40509880e-03 6.95655821e-04
      -9.74387582e-03 1.18912430e-02 1.69356205e-02 8.89092777e-03
      2.18211068e-03 3.15181119e-03 3.31836543e-03 -9.62998066e-03
      -3.05779581e-03 -8.48717242e-03 -1.81482465e-03 -4.77529317e-03
      -1.88578665e-02 7.92648084e-03 -1.05133653e-03 1.74341258e-02
      1.41582862e-02 5.74536808e-03 -5.56379266e-04 -6.72325352e-03
      -4.04754514e-03 -1.29540628e-02 5.27533377e-03 1.59743824e-03
      1.53987836e-02 -3.02919676e-03 3.32034635e-03 -1.73542032e-03
      -1.63276326e-02 -2.80023888e-02 -4.78409743e-03 -5.06208977e-03
      -4.11038613e-03 9.63450875e-03 1.88855883e-02 9.20512527e-03
      -1.05522247e-03 -1.25635536e-02 -1.91834271e-02 -2.11430490e-02
      -4.10941243e-03 5.81572473e-04 3.97398472e-02 2.24160068e-02
      3.91293969e-03 5.01296995e-03 -3.89129505e-03 -3.03355185e-03
      -2.17616558e-03 -1.15362629e-02 -5.48094278e-03 1.98957208e-03
      9.28707793e-03 9.64541920e-03 -7.65188225e-03 -4.42237128e-03
      2.61168205e-03 1.98293099e-04 -2.09184811e-02 5.49331191e-04
      2.80157495e-02 2.32165977e-02 2.38038860e-02 3.83597752e-03
      -5.64695802e-03 -1.08511699e-03 -5.82581712e-03 -3.34336492e-03
      6.88768690e-03 4.93581989e-04 3.37155629e-03 2.37203073e-02
      -1.21226823e-02 -2.08003111e-02 -2.06235913e-03 6.63874019e-03
      -1.63609642e-04 -3.59558500e-04 -1.93063095e-02 -2.11529918e-02
      2.23695897e-02 -4.68801567e-03 2.77880317e-04 -4.96849278e-03
      9.96199995e-03 2.49885004e-02 -1.73627888e-03 -2.85771862e-02
      1.39553379e-02 6.40220894e-03 1.28674693e-02 2.35766843e-02
      1.71328448e-02 2.01015435e-02 1.84029341e-02 2.57938192e-03
      -1.13677140e-02 -3.83865871e-02 2.34019496e-02 2.15825927e-03
      -6.77339779e-03 -1.45485075e-02 -1.48026813e-02 2.28302069e-02
      1.50790485e-02 -1.72059238e-02 2.54648528e-03 3.05827186e-02
      2.93861106e-02 2.26490386e-02 1.83441956e-02 1.38243819e-02
      3.06494758e-02 1.53596010e-02 1.65937915e-02 -2.66770978e-04
      -2.75303088e-02 -1.98345259e-02 8.71821120e-03 2.46344116e-02
      3.17772664e-02 1.67529769e-02 3.89716253e-02 5.73002435e-02
      -7.05083553e-03 -4.21782956e-02 -2.27566492e-02 -1.72786247e-02
      6.11036038e-03 2.80935057e-02 1.23777492e-02 3.04287113e-03
      1.72421765e-02 -8.88045225e-03 -1.78482581e-03 -1.13147767e-02
      -1.68783928e-03 3.46434233e-03 2.08866820e-02 4.18872992e-03
      2.26002019e-02 4.74663675e-02 -6.06452860e-03 -2.36354377e-02
      -1.29649490e-02 -1.79870166e-02 -2.78833676e-02 1.63368846e-03
      2.63434332e-02 3.89900319e-02 4.25763577e-02 8.14290252e-03
      -1.73894446e-02 -6.34184014e-03 -1.23647833e-02 -3.94960912e-03
      1.36408415e-02 2.00029444e-02 2.76022162e-02 2.44600754e-02
      4.09433478e-03 -1.43309627e-02 -8.74707242e-04 -9.37343482e-03
      1.28753306e-02 9.20662005e-03 -3.49571957e-04 1.84492785e-02
      3.42673883e-02 -1.82899572e-02 -1.80842243e-02 -2.19068513e-03
      -1.05566634e-02 -2.63361372e-02 -6.99788332e-03 5.13306493e-03
      8.29469413e-03 3.65887359e-02 -4.23357775e-03 -1.93972643e-02
      5.82438894e-04 -8.43006186e-03 7.33910082e-03 1.76859426e-03
      -2.52011843e-04 1.82357915e-02 3.26940492e-02 -1.89967465e-03
      -3.15892771e-02 -3.98491771e-04 -3.61369108e-03 -1.17651955e-03
      6.85065193e-03 -9.48062225e-05 3.94078195e-02 4.18088101e-02
      4.06818092e-03 -3.24002653e-02 -5.60014043e-03 -1.97026730e-02
      -1.55577641e-02 9.07953084e-03 -1.36579284e-02 1.88223589e-02
      3.99451852e-02 6.54147146e-03 -3.65576521e-02 4.90185164e-04
      -6.19310653e-03 1.38705608e-03 1.33643933e-02 -6.11566007e-03
      2.52234098e-03 2.66367737e-02 1.61461197e-02 -5.42288013e-02
      -7.07654608e-03 -9.47732478e-03 -7.84409419e-03 7.86646549e-03
      -8.13161116e-03 -4.78259567e-03 -8.18742160e-03 -1.46448640e-02
      4.33102949e-03 1.22496756e-02 1.35363080e-02 8.53314064e-03
      -2.03057984e-03 6.18504419e-04 5.69096021e-03 6.23656949e-03
      3.03475675e-03 2.02972032e-02 2.31650565e-02 1.36689125e-02
      -2.67076064e-02 -3.42776324e-03 -1.49787515e-02 -1.17818182e-02
      1.47142692e-03 2.22642953e-03 3.64844222e-03 4.32303362e-03
      -8.71760771e-03 -4.59614908e-03 -7.18005002e-04 -2.35636607e-02
      -3.36328265e-03 8.82325601e-03 1.80758554e-02 1.40370736e-02
      2.34494321e-02 2.81546414e-02 1.33997696e-02 -1.42839188e-02
      1.62895005e-02 1.15246139e-02 9.70961619e-03 3.00197653e-03
      3.15371086e-03 1.83813479e-02 -5.89928450e-03 -1.86961852e-02
      2.72217859e-03 1.37740402e-02 6.72828732e-03 2.03599292e-03
      -1.38305081e-03 3.10483528e-03 8.03414918e-03 1.31454654e-02
      1.32579738e-02 1.54391453e-02 1.08606694e-02 7.91657064e-03
      6.52931770e-03 4.19442030e-03 3.75429285e-03 2.05458533e-02
      2.55213212e-02 1.47797484e-02 -1.64474081e-02 1.53519614e-02
      1.20282648e-02 -1.44053216e-03 1.30790134e-03 1.99764757e-03
      1.26045849e-02 1.98338758e-02 -1.11320463e-03 1.61780673e-03
      -1.50885957e-03 -1.05534038e-02 -2.32565333e-03 2.79714027e-03
      1.01454072e-02 7.67970039e-03 7.05575943e-03 1.98916756e-02
      4.02413383e-02 4.01922641e-03 -1.73254311e-02 2.94699497e-03
      1.24505386e-04 8.48264713e-03 1.15521357e-03 -1.27721496e-03
      2.04749089e-02 3.03997248e-02 -1.94417441e-03 -1.71533749e-02
      -1.52270158e-03 2.10274055e-04 6.31071813e-03 4.61143209e-03
      -1.17270108e-02 1.14359194e-03 2.85073724e-02 1.80083956e-03
      -3.15334601e-03 7.18105212e-03 2.85242219e-03 3.04661621e-03
      -1.03877217e-03 -1.06879501e-02 2.25548027e-03 2.58774292e-02
      9.45917983e-03 2.52915490e-02 1.52678499e-02 -3.02453176e-04
      7.80504895e-04 -1.63247308e-03 -1.30647831e-02 -9.97887738e-03
      9.43764672e-03 -6.81981025e-03 1.59232644e-03 3.60797197e-02
      2.16704011e-02 1.14026610e-02 8.84901601e-05 -7.21371872e-03
      -1.32323653e-02 -1.07896151e-02 -4.72927280e-03 4.18565758e-02
      1.06843133e-02 6.55685132e-03 -1.36399148e-02 -2.90151453e-03
      -8.78331903e-03 -1.16313603e-02 -2.49857735e-02 -2.27300450e-02
      -9.60622448e-03 1.73196271e-02 2.39398684e-02 -8.81241285e-04
      6.67180587e-03 2.25828774e-03 -1.60179399e-02 4.19481844e-03
      4.16487502e-03 3.54040787e-03 3.12036462e-02 2.68675964e-02
      1.96486134e-02 4.59151156e-03 -4.09976486e-03 -2.03629839e-03
      -9.60716326e-03 6.91127591e-03 2.31926539e-03 -2.32133991e-03
      1.03807375e-02 1.33425090e-02 3.21080489e-03 -2.32462976e-02
      9.53447947e-04 2.24120333e-03 -3.75957321e-03 -2.80256313e-03
      2.56902054e-02 2.08069384e-02 2.79563991e-03 3.15139489e-03
      2.06965022e-03 -1.98995019e-03 9.76394769e-03 -2.01781821e-02
      7.35152978e-03 6.61950093e-03 -1.24061678e-03 -1.08679170e-02
      1.95059972e-03 -4.93814191e-03 -1.12902233e-02 -1.99963339e-03
      2.49085519e-02 7.99630419e-04 -2.29744799e-02 -1.64694656e-02
      4.69953567e-03 -1.25730643e-03 -7.84828048e-03 -3.20420065e-03
      4.00142744e-03 3.00336108e-02 6.78123906e-03 -9.37432889e-03
      -6.95913751e-03 1.18462481e-02 3.39972321e-03 1.04695037e-02
      1.69872940e-02 1.72094330e-02 1.83022544e-02 -1.58547349e-02
      -1.33335749e-02 -7.52230827e-03 -4.82942769e-03 -1.02372002e-03
      -7.41068553e-03 -6.50208676e-03 -9.11025517e-03 2.40603220e-02
      9.08314716e-03 5.30473562e-03 -9.44237865e-04 3.90432938e-03
      -1.50370533e-02 -1.51350731e-02 -8.62515345e-03 1.95540283e-02
      1.63684264e-02 5.43641392e-03 2.70347414e-03 -1.37358047e-02
      1.35020667e-03 -9.84452385e-03 -1.30836405e-02 -4.46045958e-03
      1.56910215e-02 2.45805234e-02 4.36027274e-02 1.53759010e-02
      -1.13223065e-02 -1.08456416e-02 -5.29322540e-03 -2.11457349e-02
      -2.23132093e-02 -1.41465534e-02 3.63946855e-02 2.19285619e-02
      -8.13312177e-03 -8.55009165e-03 3.71928094e-03 -8.06070119e-03
      -1.93642452e-02 -1.88170876e-02 -1.02342349e-02 4.36804444e-02
      7.22018555e-02 1.31990165e-02 -2.48108478e-03 6.70810929e-03
      -5.91438683e-03 -2.05798596e-02 -3.25566046e-02 -3.20653878e-02
      1.69476252e-02 1.22472066e-02 1.79970134e-02 -2.03501489e-02
      -2.03116983e-02 -5.19453268e-03 -2.26806826e-03 -1.58051886e-02
      -2.21880432e-02 2.70333625e-02 2.52501629e-02 3.84342633e-02
      -1.95562243e-02 -1.88605338e-02 -7.57054798e-03 -4.18028515e-03
      1.39196054e-03 -5.91961434e-03 3.35396305e-02 6.44738898e-02
      1.45523027e-02 -1.41111100e-02 -1.93181168e-02 -1.23065822e-02
      -2.16168724e-03 -3.12164202e-02 -1.68208275e-02 7.97435176e-03
      3.36978771e-02 2.83215698e-02 -2.18143705e-02 -2.19080206e-02
      -1.15543660e-02 4.04378818e-03 -1.49592408e-03 9.54217650e-03
      3.31955822e-03 1.94344949e-02 5.17811365e-02 1.23934839e-02
      -2.74041425e-02 6.84753468e-04 2.05767481e-03 2.55247136e-03
      1.51349623e-02 2.32150452e-03 -1.32460671e-03 3.39584909e-02
      1.09311109e-02 -1.54629741e-02 1.19699845e-02 4.64230217e-03
      4.58563073e-03 1.58247389e-02 -2.06667674e-03 1.36400084e-03
      4.39899378e-02 1.63055994e-02 -1.59985088e-02 -3.59417545e-03
      4.63834591e-03 1.12335151e-02 2.30812300e-02 -1.73710641e-02
      -2.46535521e-02 9.01007745e-03 1.89226829e-02 -1.75439593e-04
      1.10653341e-02 3.64163332e-03 1.23085901e-02 -6.37691421e-03
      -1.09962681e-02 -1.50632975e-03 8.67011491e-03 7.69015588e-03
      6.64390484e-03 1.00571318e-02 -1.60379149e-02 -1.00807250e-04
      7.37072481e-03 -1.01245362e-02 -3.27906309e-04 8.76331609e-03
      1.06509859e-02 1.49312187e-02 2.72834450e-02 1.78712569e-02
      1.56335514e-02 -1.01932045e-03 -1.16130617e-02 1.01449564e-02
      1.69811435e-02 -2.11432925e-03 -5.94401313e-03 3.45551712e-03
      -2.42775027e-02 1.31408963e-02 4.29427397e-04 -7.80826341e-03
      7.68593559e-03 1.31476717e-02 3.07839620e-03 1.31201549e-02
      1.47577543e-02 -8.81997985e-04 -1.23063866e-02 8.30872916e-03
      5.95884980e-04 3.45552177e-03 1.26208353e-03 -1.98577647e-03
      8.57364759e-03 4.84745018e-03 3.44582498e-02 1.95417479e-02
      -2.51989979e-02 -1.59969274e-02 3.28006805e-03 -3.11973295e-03
      -4.47694445e-03 6.04228629e-03 1.19039440e-03 1.79291368e-02
      1.10148760e-02 -1.58805978e-02 -9.40606231e-04 1.71300722e-03
      2.92795885e-04 -3.54721188e-03 1.01482347e-02 1.39302127e-02
      8.66646972e-03 -8.35376699e-03 -7.86224566e-03 -2.77840942e-02
      -2.63651018e-04 -1.72680418e-03 2.08865199e-03 1.07588246e-02
      1.38773080e-02 1.50830681e-02 1.96004771e-02 -1.65533391e-03
      -2.99447663e-02 -6.71330607e-03 -4.34597750e-04 -1.10319932e-03
      2.13445676e-03 -1.30200782e-03 2.16678577e-03 7.32049812e-03
      2.53310297e-02 -2.29512490e-02 -8.14801641e-03 3.68327531e-03
      3.89657822e-03 3.76829761e-04 -2.31328391e-04 -1.00084366e-02
      1.76405942e-03 3.72935422e-02 -3.08621563e-02 -6.71767723e-03
      -1.46608020e-03 -2.89295660e-03 -1.35934388e-03 3.17036244e-03
      1.54223470e-02 3.79858054e-02 1.67856123e-02 -1.96325388e-02
      -1.86825730e-02 -1.72285200e-03 -3.46421078e-03 3.30872368e-04
      4.41526622e-03 4.99983132e-03 3.67785841e-02 3.50322761e-02
      -2.53116488e-02 1.72378141e-02 1.63994916e-03 6.76333578e-03
      -9.55562666e-03 -2.16981425e-04 -5.03209978e-03 -2.39871093e-03
      -8.59779399e-03 -3.91057553e-03 -1.81505419e-02 2.39359768e-04
      1.03638163e-02 -5.38662868e-03 4.23745671e-03 4.90063243e-03
      -6.00896659e-04 2.32106987e-02 1.26753198e-02 -8.89086747e-04
      -8.08684446e-04 2.52112746e-03 -2.80716852e-03 -3.28930109e-05
      -7.29504367e-03 7.51238316e-03 2.15940271e-02 3.15256440e-03
      5.80790127e-03 -1.29965059e-02 2.28211842e-03 -2.58864858e-03
      -5.80350962e-03 -2.29035108e-03 1.05323354e-02 2.39707008e-02
      -3.50577314e-03 -2.64467951e-02 2.95099383e-03 4.11613565e-03
      -2.06932891e-03 -3.18828807e-03 -4.31249896e-03 -4.99665691e-03
      3.73634254e-03 3.90919764e-03 -2.13534269e-03 1.79579854e-03
      -2.51699635e-03 -9.67128761e-03 -3.60344397e-03 -7.21519720e-03
      -1.33817550e-02 2.31063832e-03 4.77174073e-02 -1.25473915e-02
      1.07992440e-03 3.08334571e-03 -6.48566638e-04 -9.71355662e-03
      -6.24833256e-03 -4.58201487e-03 1.36650903e-02 3.03679090e-02
      -2.37905011e-02 -2.17958773e-03 -3.31516610e-03 -1.04220898e-03
      -6.29833434e-03 -5.67898620e-03 -8.07356089e-03 8.50800704e-03
      7.08746864e-03 -1.18958736e-02 -8.27265810e-03 -4.18887427e-03
      -3.71482410e-03 -1.08948827e-03 -6.42305799e-03 -9.54516872e-04
      -1.43661713e-02 4.86267395e-02 -3.73185100e-03 -6.01697806e-03
      -4.78172908e-03 -3.92389856e-03 -1.01982839e-02 -9.88944434e-03
      -1.59140695e-02 -1.34740779e-02 4.11879383e-02 -6.74979808e-03
      -4.62351367e-03 -2.80776084e-03 1.11007690e-03 -2.73893727e-03
      -2.12955312e-03 -1.36826849e-02 1.08789969e-02 3.48776095e-02
      3.39997448e-02 8.19910690e-03 -6.11709151e-03 -9.60755069e-03
      -1.12901153e-02 -1.35000898e-02 -1.69500150e-02 1.21844765e-02
      5.03048114e-02 2.87175234e-02 -9.31511261e-03 -4.52709524e-03
      -3.00298305e-03 -7.78019475e-03 -8.14250577e-03 -3.05577014e-02
      -2.36168522e-02 3.45246568e-02 7.47111663e-02 8.84920452e-03
      -5.09970449e-03 1.79239700e-03 -3.11158784e-03 -2.18741111e-02
      -5.52040935e-02 -4.46290486e-02 5.60818575e-02 4.79827896e-02
      -4.33986774e-03 -1.23574841e-03 -1.52761480e-02 -6.28133677e-03
      -1.32141523e-02 -2.64472533e-02 -6.18662825e-03 3.28149647e-02
      4.87230644e-02 -9.26821784e-04 3.27801169e-03 -1.13202585e-02
      3.14571802e-03 -4.07459959e-02 -3.46913598e-02 7.82201998e-03
      3.41558866e-02 7.32411295e-02 1.12469913e-02 -8.18159524e-03
      -1.07364645e-02 -8.98210052e-03 -3.81845888e-03 -2.49404181e-02
      3.97227658e-03 8.25429615e-03 1.98337622e-02 1.00452276e-02
      -1.76532641e-02 -1.63843445e-02 -1.43504329e-02 9.23138484e-03
      3.28577030e-03 2.62574423e-02 1.54267559e-02 2.20981818e-02
      -6.81274058e-03 -2.54045837e-02 -1.13423476e-02 -8.09667818e-03
      -1.52978869e-02 -1.07847061e-02 2.76540220e-02 2.72533949e-03
      -6.65753440e-04 -1.05032809e-02 -2.61373390e-02 -2.28580609e-02
      -1.16717489e-02 -2.03312770e-03 1.96057628e-03 2.03717686e-02
      1.58867601e-03 4.91255848e-03 2.24289671e-02 1.88910142e-02
      -8.78963806e-03 -1.83261442e-03 3.59768071e-03 1.70739815e-02
      3.04025095e-02 -8.09464045e-03 -4.18073218e-03 7.40306312e-03
      2.55047213e-02 7.06327334e-03 1.15438327e-02 5.70691237e-03
      1.93103831e-02 7.65917357e-03 -1.30971093e-02 -1.30606797e-02
      9.27851710e-04 9.84801725e-03 -3.04648234e-03 4.00713598e-03
      8.01905990e-03 1.85385775e-02 2.77118515e-02 -2.17956621e-02
      -1.04614878e-02 3.70048895e-03 2.72846334e-02 1.30789494e-02
      1.14010312e-02 1.66941602e-02 2.07858421e-02 -1.78191550e-02
      -2.28758319e-03 8.92156549e-03 1.79027915e-02 1.15500833e-03
      3.50697758e-03 3.22129414e-03 -1.89394709e-02 1.21159023e-02
      2.26187753e-03 1.80602469e-03 5.39995590e-03 1.04141608e-02
      5.69687691e-03 2.11621802e-02 1.80017166e-02 7.64183328e-03
      -7.49596721e-03 1.38458167e-03 -8.75059702e-03 -6.12403825e-03
      1.71858296e-02 6.70783804e-04 1.07342377e-02 5.11810556e-03
      2.03643646e-03 -4.97061387e-03 -1.35981292e-02 5.55172330e-03
      -1.57585479e-02 -9.09986254e-03 4.31303261e-03 -1.91798024e-02
      2.31475886e-02 2.37336308e-02 -2.03664955e-02 -1.45016452e-02
      6.78593991e-03 4.89444472e-03 -5.77604771e-03 1.70328724e-03
      1.24792326e-02 1.19038029e-02 2.57142223e-02 -1.49592748e-02
      -6.38681836e-03 -4.02486214e-04 6.32425305e-03 -1.72011869e-03
      6.15266245e-03 1.32140275e-02 1.16703836e-02 1.83172915e-02
      2.77239960e-02 -6.20658603e-03 -4.37390711e-03 6.31991541e-03
      -1.78538598e-02 7.94077176e-04 5.21590561e-03 1.45457508e-02
      2.03088280e-02 -4.21831049e-02 -2.71686856e-02 5.19372011e-03
      1.29895834e-02 -1.10338870e-02 -1.04827876e-03 2.00192798e-02
      7.58410338e-03 1.19942855e-02 -1.40029134e-03 -1.45059191e-02
      -6.99039456e-03 -2.85414560e-03 -7.35962298e-04 1.19912450e-03
      2.95725605e-03 -1.18881569e-03 9.77721252e-03 1.29177067e-02
      5.30457124e-03 3.25421221e-03 -1.65275224e-02 5.19810570e-03
      -1.75887239e-04 1.72912329e-03 2.18312605e-03 4.41379845e-03
      2.59248670e-02 1.58732217e-02 -2.61534448e-03 2.68873898e-03
      -4.44007077e-04 2.12901598e-03 1.11112520e-02 -5.61254704e-03
      4.74365661e-03 1.95896486e-03 -1.10774962e-02 1.93826333e-02
      -1.16271069e-02 9.57213901e-03 3.27597326e-03 -3.57429241e-03
      -1.58726692e-03 4.60684812e-03 -1.80211407e-03 3.77522642e-03
      8.62812903e-03 9.80485464e-04 6.36394834e-03 9.31719376e-04
      1.73476408e-03 -4.14805574e-04 -5.77005418e-03 3.70862475e-03
      6.40529953e-03 1.42534822e-03 7.50734704e-03 -2.25233380e-03
      3.56426043e-03 -1.43404026e-03 -1.01142339e-02 -3.12861265e-03
      7.38193654e-03 1.12622194e-02 -6.73983200e-03 -5.25893876e-03
      9.62047372e-03 1.94114319e-03 -7.24381441e-03 -1.60968618e-03
      6.67034299e-04 -6.93848915e-03 4.02513845e-03 1.91680957e-02
      -9.10793431e-03 -9.04533733e-03 5.28991967e-03 -3.65152135e-02
      -7.63728190e-03 -3.19541269e-03 8.86824075e-03 3.19259614e-03
      2.72977650e-02 1.84583396e-03 -3.69481975e-03 -1.71352131e-03
      -2.77142809e-03 -4.99714306e-03 -4.76350170e-03 -3.64236068e-03
      1.33915963e-02 2.01484412e-02 -1.11387400e-02 -4.76532849e-03
      -2.47901306e-03 -2.09398963e-03 -4.10395628e-03 -4.79509216e-03
      -1.61222077e-03 9.32501070e-03 3.29184979e-02 -1.05982302e-02
      -1.04991468e-02 -5.41211432e-03 -2.03010794e-02 -2.47872621e-03
      -8.35101400e-03 2.23544170e-03 2.14063525e-02 8.38283449e-03
      -2.20660660e-02 -2.22945455e-02 -4.00737766e-03 -2.08175126e-02
      -1.19053794e-03 -7.42933154e-03 5.90400724e-03 3.08166873e-02
      3.68503183e-02 2.87999283e-03 -4.45133261e-03 6.06151123e-04
      3.30832344e-03 8.00067442e-04 4.71524399e-04 -8.46440904e-03
      1.69418287e-02 3.51348557e-02 3.57484184e-02 8.60432070e-03
      -1.58731523e-03 -5.49216941e-03 -5.23754675e-03 -7.30817299e-03
      -1.28826266e-02 9.30624455e-03 1.95989106e-02 -2.06011869e-02
      -1.40387239e-02 2.66558467e-03 -7.17326161e-03 4.83057043e-03
      -1.19907374e-04 -4.38302103e-03 1.38593083e-02 8.66904389e-03
      -1.18339760e-02 -3.80009273e-03 5.88348485e-04 4.01299709e-04
      4.71095322e-03 -1.67641824e-03 -1.62374489e-02 -1.52958259e-02
      4.90844771e-02 2.90620122e-02 -2.48662313e-04 1.67886505e-03
      -2.60997168e-03 4.97135706e-03 -1.65343389e-03 -1.21358149e-02
      1.27795553e-02 2.57766359e-02 2.94391718e-02 -3.03727621e-03
      -2.44215387e-03 -4.07415535e-03 1.47849806e-02 -4.17047599e-03
      3.16679687e-03 2.68501416e-02 1.20379962e-03 -8.49022530e-03
      -2.64592026e-03 -1.29073975e-04 8.52677505e-03 9.16443858e-03
      9.41217318e-03 -5.16623538e-03 -3.08646336e-02 -2.23959591e-02
      -9.74372681e-03 -1.24537637e-02 -8.74896161e-03 -1.17506748e-02
      1.50768943e-02 1.28962370e-02 8.83113965e-03 -2.08208561e-02
      1.23721650e-02 1.70299243e-02 -6.67151343e-03 -9.09331162e-03
      -4.75945603e-03 -1.48201571e-03 -4.99348668e-03 1.43966703e-02
      4.08589914e-02 2.05785576e-02 1.62696354e-02 7.39680603e-03
      -1.32471500e-02 -1.06764948e-02 -8.43078177e-03 -5.96505636e-03
      1.05060509e-03 2.48162970e-02 -3.88553925e-02 3.74189782e-04
      -1.00438790e-02 7.72921427e-04 4.74065915e-03 2.70080520e-04
      -1.88548831e-04 1.37356343e-02 1.29229659e-02 -1.94295589e-02
      7.79201975e-03 2.09345296e-02 1.54740056e-02 3.11513729e-02
      -1.57855526e-02 -9.96031705e-03 8.99086415e-04 -8.16273596e-03
      -1.67426150e-02 2.23134123e-02 7.24847289e-03 1.51972519e-03
      -4.18151217e-03 4.81921388e-03 5.14452718e-03 9.53151938e-03
      1.83656160e-02 -3.05488110e-02 -8.80700164e-03 6.64042216e-03
      1.45774987e-02 8.58675223e-03 1.87441707e-02 2.35544052e-02
      3.17077152e-02 9.52224247e-03 -2.07442828e-02 1.38073545e-02
      2.62988210e-02 8.32618959e-03 1.62136257e-02 -8.70689377e-03
      5.28677076e-04 6.79374021e-03 -2.45435117e-03 -2.75258161e-02
      -1.22818975e-02 1.56955719e-02 -6.11670082e-03 3.88691248e-03
      2.00993363e-02 2.18648333e-02 2.94086989e-02 6.99740695e-03</_></support_vectors>
  <decision_functions>
    <_>
      <sv_count>1</sv_count>
      <rho>1.6806802867989474e+00</rho>
      <alpha>
        1.</alpha>
      <index>
        0</index></_></decision_functions></my_svm>
</opencv_storage>
