<?xml version="1.0"?>
<opencv_storage>
<my_svm type_id="opencv-ml-svm">
  <svm_type>C_SVC</svm_type>
  <kernel><type>LINEAR</type></kernel>
  <C>5.0000000000000000e-01</C>
  <term_criteria><epsilon>1.1920928955078125e-07</epsilon>
    <iterations>1000</iterations></term_criteria>
  <var_all>2916</var_all>
  <var_count>2916</var_count>
  <class_count>2</class_count>
  <class_labels type_id="opencv-matrix">
    <rows>1</rows>
    <cols>2</cols>
    <dt>i</dt>
    <data>
      1 2</data></class_labels>
  <sv_total>1</sv_total>
  <support_vectors>
    <_>
      3.34683992e-02 2.15099435e-02 -7.95243979e-02 -4.93368283e-02
      -4.39914502e-02 -6.26751827e-03 1.01835541e-02 2.33992711e-02
      6.05762601e-02 7.05581456e-02 -6.18572347e-02 -2.91854888e-03
      3.68522145e-02 5.07827699e-02 2.70503797e-02 2.52027623e-02
      2.72020437e-02 2.09167600e-02 -1.41685558e-02 -2.59212982e-02
      -2.83313822e-02 3.62233236e-03 2.44528037e-02 -1.19688706e-02
      1.69736445e-02 -2.02831742e-03 2.46447474e-02 6.07298724e-02
      2.03875247e-02 1.79464999e-03 3.41491364e-02 4.09664363e-02
      1.64942108e-02 1.68993995e-02 -2.68934132e-03 3.91611159e-02
      8.79821740e-03 -7.87822977e-02 5.44608757e-03 2.76573859e-02
      7.39699900e-02 3.42661254e-02 2.38396786e-02 1.09569158e-03
      -6.00611418e-02 6.97510259e-04 -5.63732050e-02 6.72164327e-03
      5.65500595e-02 7.82990307e-02 3.20427231e-02 2.28831768e-02
      -6.65245391e-03 -3.82922888e-02 -4.49627228e-02 6.12274930e-02
      3.30471843e-02 3.06034839e-04 1.56407747e-02 3.71746607e-02
      1.12529891e-03 -9.83693916e-03 -5.22002615e-02 8.59482810e-02
      4.35898937e-02 8.28620270e-02 -1.26694213e-03 2.07758285e-02
      2.61194315e-02 -1.11900782e-02 -2.66464278e-02 -2.78385039e-02
      -5.82576543e-02 -8.96137953e-02 4.13783304e-02 1.55267296e-02
      4.38204408e-03 1.28826138e-03 -1.23977046e-02 -3.38277370e-02
      -2.48438790e-02 3.22681256e-02 -4.56878915e-03 6.83372095e-02
      1.31205062e-03 -3.13761942e-02 2.89009418e-04 -3.36740352e-02
      -2.92648505e-02 2.82152109e-02 2.11971980e-02 2.91643329e-02
      2.44195629e-02 -8.02655052e-03 6.34027226e-03 -2.12217141e-02
      -2.40400843e-02 -2.61886381e-02 -2.72235107e-02 6.40760511e-02
      9.93158817e-02 6.24023788e-02 -3.82576808e-02 -3.00293900e-02
      -2.44445596e-02 -5.04397862e-02 -2.63817701e-02 -1.71303321e-02
      -2.60972492e-02 -2.67152358e-02 1.54441884e-02 -1.15466751e-02
      -3.41525488e-02 -1.49643626e-02 -4.77937162e-02 1.87772256e-03
      9.53251347e-02 4.05349284e-02 3.68992127e-02 1.11445207e-02
      -8.11990537e-03 -9.94866155e-03 -1.06373439e-02 -5.31330444e-02
      -1.89589453e-03 1.02915585e-01 8.24729633e-03 7.91379139e-02
      3.60682532e-02 -3.36734019e-02 -2.39820573e-02 -1.34904785e-02
      -2.48117093e-02 -9.56220739e-03 -1.51537992e-02 -2.25284118e-02
      5.73357232e-02 -3.72068658e-02 -2.27969810e-02 -4.09696996e-03
      -5.29643754e-03 -2.25315411e-02 -9.42889415e-03 3.78791504e-02
      7.68817263e-03 2.78349798e-02 -2.16981699e-03 -7.97561835e-04
      7.28177698e-03 -7.95568514e-04 -1.30175529e-02 3.41239036e-03
      3.36926132e-02 4.06300686e-02 1.42330453e-02 1.92524877e-03
      -5.15441317e-03 -2.33458239e-03 -1.28592392e-02 -8.32138676e-03
      -1.25772646e-03 7.94795156e-03 -4.42298725e-02 1.84923150e-02
      -1.21401241e-02 -2.27142184e-04 6.36170199e-03 -4.68625966e-03
      -1.54664163e-02 8.57319974e-04 1.72036532e-02 1.44163221e-02
      1.11087374e-02 -8.10122583e-03 6.05869980e-04 -6.15431741e-03
      -4.00214158e-02 9.07475688e-03 8.45054537e-03 4.54321280e-02
      4.04445194e-02 7.86143914e-03 1.90307368e-02 -3.98213463e-03
      -2.39194068e-03 -2.31473264e-03 1.31438645e-02 3.85416410e-04
      3.82157718e-03 3.68533246e-02 -6.06998941e-03 9.95360035e-03
      -1.99996005e-03 3.36381519e-04 -4.17765277e-03 5.26944958e-02
      -1.42152207e-02 -7.70176873e-02 4.82237041e-02 -1.01045817e-02
      -4.92020929e-03 -1.91204995e-02 -2.10565608e-02 -1.22603113e-02
      3.90135758e-02 6.21489808e-02 3.06919054e-03 -5.07818162e-02
      -2.15981137e-02 -6.43720990e-03 -2.94921026e-02 -4.63876920e-03
      -5.80206374e-03 7.17459992e-02 7.34944418e-02 -4.96392027e-02
      3.04820947e-02 4.57785232e-03 8.79160315e-03 3.70844244e-03
      2.23996416e-02 1.56711992e-02 3.36985737e-02 -5.67000210e-02
      -5.25395796e-02 5.35623133e-02 1.40920961e-02 1.68786906e-02
      -3.25270859e-03 2.03078743e-02 3.91481072e-02 -7.07030250e-03
      -1.25101924e-01 -1.76450629e-02 -7.04827998e-03 -1.11112176e-02
      7.29939528e-03 1.61547353e-03 1.71707347e-02 -1.99355488e-03
      2.05836818e-02 4.75940332e-02 2.60176156e-02 6.27568886e-02
      -7.32653355e-03 2.06661206e-02 5.16966730e-03 1.67785585e-02
      1.10450480e-02 -3.99352983e-02 2.68893521e-02 8.39558542e-02
      5.64045422e-02 9.22057685e-03 2.16543674e-02 3.44151119e-03
      7.60544688e-02 7.19930883e-03 5.25423093e-03 -1.00911170e-01
      1.12347770e-02 5.34052514e-02 1.25792129e-02 1.54646942e-02
      -2.00806558e-02 7.22954199e-02 1.32957958e-02 2.44162735e-02
      -9.21337754e-02 5.83343767e-03 1.01472311e-01 8.92538298e-03
      1.62140448e-02 2.46050935e-02 1.34017700e-02 -1.43720640e-03
      -8.44703391e-02 2.98788715e-02 6.08501025e-02 7.23521113e-02
      1.64161157e-02 4.26818654e-02 3.58283296e-02 4.19247225e-02
      3.19260545e-02 4.54104599e-03 -3.91552672e-02 6.49968833e-02
      1.22858882e-02 2.56242193e-02 4.84870672e-02 6.17787940e-03
      5.97911216e-02 -2.80682072e-02 -7.35720843e-02 -1.13198552e-02
      2.92731673e-02 -3.99794132e-02 5.74963167e-02 7.38184899e-02
      1.17702015e-01 1.18493430e-01 -4.07999083e-02 -6.92822412e-02
      -9.18294862e-02 -3.48061509e-02 6.27500862e-02 5.04917875e-02
      2.15391591e-02 5.48582338e-02 7.63606578e-02 -5.15583903e-02
      -2.75950953e-02 -2.85446011e-02 3.41941416e-02 -9.03147459e-02
      -4.42016572e-02 7.33631058e-03 1.18022263e-01 1.59999475e-01
      2.95047611e-02 -2.98391711e-02 -5.54272532e-02 -8.55136365e-02
      -3.87803428e-02 -6.50710484e-04 -1.04063712e-02 4.95209359e-04
      -7.29463820e-04 8.36590491e-03 1.07004205e-02 1.04385605e-02
      -2.78223678e-02 2.45758463e-02 1.53240738e-02 2.82426830e-02
      -1.94418952e-02 -7.84981530e-03 -5.91564924e-03 1.00881066e-02
      -1.08930294e-03 1.72734167e-02 -7.07631838e-03 -2.04058480e-03
      1.24245100e-02 -8.71322397e-03 3.55251171e-02 2.88765617e-02
      1.28345741e-02 2.21187603e-02 -1.54689383e-02 3.96711715e-02
      5.18679619e-02 3.30285951e-02 7.01639876e-02 1.27222287e-02
      1.66444369e-02 6.88152527e-03 2.93643977e-02 3.05473488e-02
      4.55965428e-03 -2.66162641e-02 3.50545198e-02 -5.25334850e-03
      -1.84413251e-02 -1.42337643e-02 5.83707122e-03 3.96437012e-04
      -1.24501614e-02 -2.36217189e-03 4.34979014e-02 3.29383798e-02
      -3.42562608e-02 -8.82688072e-03 -9.38227680e-03 1.92869250e-02
      4.85485746e-03 -8.69103521e-03 3.36162699e-03 -2.28464063e-02
      7.74274170e-02 -3.46460333e-03 -3.14023495e-02 -2.31655445e-02
      -9.66163352e-03 9.64526739e-03 2.34420300e-02 -1.98466815e-02
      -1.80183835e-02 1.98466964e-02 -2.14951672e-02 -4.18391973e-02
      -2.15751491e-02 1.51303438e-02 1.28838215e-02 2.87012961e-02
      -8.36552307e-03 4.05810885e-02 3.74040604e-02 -8.26694816e-03
      1.02097457e-02 -4.45851684e-03 -9.70486668e-04 2.56975298e-03
      1.06527302e-02 -1.69950817e-02 1.47858346e-02 5.40976264e-02
      -6.55448204e-03 6.61959499e-03 -5.63237700e-04 -2.40670727e-03
      8.66600033e-03 -3.43837775e-02 4.25484031e-02 -5.44298403e-02
      -3.73163633e-03 -1.82266925e-02 -3.40295094e-03 5.11531811e-03
      4.05235449e-03 1.16806626e-02 2.48829275e-02 3.76796722e-02
      8.93570948e-03 1.38928918e-02 6.03671069e-04 1.00878403e-02
      8.87731928e-03 3.04719731e-02 1.89315453e-02 1.88636053e-02
      1.62205137e-02 3.90249826e-02 3.23773772e-02 5.05633885e-03
      2.77701858e-03 -1.09023124e-03 4.17118892e-03 2.66301800e-02
      -6.00551963e-02 -8.13722983e-03 3.48328389e-02 -1.49942422e-03
      9.57196765e-03 1.25592789e-02 3.99331329e-03 1.01272715e-02
      2.54943315e-02 2.20832303e-02 -3.23092332e-03 7.38205854e-03
      1.49587011e-02 2.44409740e-02 1.00131156e-02 2.54757958e-03
      9.65980906e-03 2.76631229e-02 5.03818784e-03 7.41006657e-02
      -9.44954623e-03 5.88135142e-03 -6.54506963e-04 1.61030553e-02
      3.66931874e-03 7.81259313e-03 -1.23056853e-02 6.91764802e-02
      -5.50042875e-02 4.07525396e-04 5.76536218e-03 9.56521370e-03
      4.84591292e-04 2.26687966e-03 1.91293730e-04 6.34923158e-03
      -1.98900532e-02 8.19967035e-03 -4.84671071e-03 9.62737761e-03
      1.53960939e-02 -2.32949946e-03 2.74397014e-03 3.17047536e-02
      3.29213850e-02 1.25590730e-02 4.29428108e-02 3.62644531e-02
      -1.95497274e-02 -2.45825853e-03 -2.20918555e-05 1.16057298e-03
      1.34587539e-02 -3.94832827e-02 6.48553446e-02 6.60199896e-02
      1.38376867e-02 3.76963825e-03 2.36500949e-02 3.60384904e-04
      1.60092078e-02 2.69363131e-02 3.83663215e-02 -1.83648188e-02
      7.28778029e-03 -8.54780432e-03 8.04078765e-03 4.58870549e-03
      1.14173582e-03 1.07007027e-02 3.33854444e-02 5.93330860e-02
      -1.74825210e-02 -7.47615099e-02 -4.43549687e-03 8.85263737e-03
      1.42636755e-03 1.13023473e-02 2.29282188e-03 3.44363824e-02
      8.59371275e-02 -1.78280436e-02 5.78872077e-02 -1.15076331e-02
      1.86664592e-02 2.29912959e-02 1.13394111e-02 2.24591922e-02
      2.86110230e-02 6.99067563e-02 5.08566536e-02 -8.42539370e-02
      -6.52063359e-03 3.18611152e-02 2.81855818e-02 3.83717604e-02
      3.10937185e-02 2.04074159e-02 5.28699197e-02 -9.83262528e-03
      -2.85528246e-02 6.94821076e-03 8.12609028e-03 3.12869926e-03
      3.92815564e-03 -6.85302028e-03 7.70044839e-03 2.79731210e-02
      -2.70550475e-02 -4.87151119e-04 3.00141890e-03 6.42495137e-03
      2.85579846e-03 4.56034299e-03 -2.63184123e-03 -1.57902837e-02
      -1.42731955e-02 3.99688482e-02 -6.34032637e-02 1.92893669e-02
      2.45641749e-02 1.78974271e-02 2.63449959e-02 1.03738895e-02
      9.67517216e-03 5.56480885e-02 -6.95799962e-02 -3.95032614e-02
      3.05841528e-02 2.34733950e-02 1.36403255e-02 1.12851067e-02
      2.03604661e-02 1.28988391e-02 -2.05444288e-03 -1.15429312e-02
      -1.85909146e-03 9.17852973e-04 -7.69912498e-03 3.70763429e-03
      -3.60365841e-03 1.47929776e-03 -4.60715443e-02 -2.16892746e-04
      3.90928723e-02 -2.37068553e-02 -2.71231402e-03 -1.18697416e-02
      4.50090785e-03 -9.12334863e-03 -1.74624082e-02 -1.64219365e-02
      -3.92127596e-02 3.32476422e-02 -8.87745805e-03 1.45859960e-02
      9.42827959e-04 8.28078389e-03 7.47410161e-03 6.05108403e-03
      -2.93724742e-02 5.03177159e-02 -3.25671094e-03 -5.38264289e-02
      2.03580931e-02 1.38557041e-02 2.23593954e-02 3.55807971e-03
      2.98121888e-02 5.89502640e-02 3.93625610e-02 4.60351668e-02
      9.86523088e-03 -1.50258951e-02 -2.64359955e-02 3.37733738e-02
      3.95770408e-02 -6.58284407e-03 -2.45933793e-02 2.07098257e-02
      3.14998701e-02 -3.36684994e-02 -8.51424560e-02 -1.64059699e-02
      7.42201507e-02 1.01096682e-01 3.57188210e-02 -2.25487072e-02
      7.27802981e-03 -5.54253682e-02 -6.25418546e-03 2.00957842e-02
      2.46366952e-02 1.90150961e-02 3.13448571e-02 1.90249551e-02
      2.22056471e-02 7.53341094e-02 1.09848510e-02 -3.66141535e-02
      -2.46099327e-02 2.13207249e-02 5.38988858e-02 1.06273361e-01
      1.08651035e-01 -4.36773850e-03 1.32946800e-02 -4.90265898e-02
      -2.29857285e-02 -1.53061226e-02 -2.63094343e-02 -8.17185715e-02
      1.86930150e-02 4.28829417e-02 -3.02609918e-03 -1.18271040e-03
      -1.54843051e-02 2.54629715e-03 2.28973459e-02 4.76670638e-02
      1.80914681e-02 1.33140050e-02 8.89233779e-03 -2.23687291e-02
      4.28997539e-03 -7.87380617e-03 -4.96280864e-02 -3.27666961e-02
      2.94717979e-02 -1.70133691e-02 7.08994493e-02 7.94555843e-02
      -5.96721284e-03 -6.02998352e-03 -2.17546448e-02 -6.52764924e-03
      7.68984631e-02 1.43653721e-01 1.21522211e-01 -8.10193829e-03
      1.48163056e-02 -3.13829146e-02 -2.03161445e-02 -1.99342892e-02
      -2.12442335e-02 -1.28208715e-02 5.68177551e-02 -1.10303108e-02
      -1.93142351e-02 -1.55371139e-02 -1.29398368e-02 2.99643492e-04
      1.83676165e-02 -4.36680391e-03 -1.66052524e-02 -5.57249133e-03
      -4.24293568e-03 -4.16652784e-02 -1.84819326e-02 -1.31593412e-02
      1.94605514e-02 8.62565823e-03 -8.47927108e-03 4.57429551e-02
      6.96915612e-02 2.84220446e-02 8.85093026e-03 -3.68064875e-03
      -3.13871615e-02 -9.81774274e-03 -5.86102437e-03 1.20683819e-01
      -3.27421050e-03 7.45351464e-02 -1.10558060e-03 1.53134456e-02
      -1.98774021e-02 -3.29114571e-02 6.87054219e-03 9.25195962e-03
      -2.57440191e-02 -1.31339744e-01 -3.56498398e-02 1.10481819e-02
      -2.75030006e-02 9.00395622e-04 -8.69086245e-04 4.33513150e-03
      -1.21362368e-02 1.02300756e-01 -1.60734206e-02 -1.45592000e-02
      -2.14135721e-02 -2.73641348e-02 -6.35787752e-03 2.71675107e-03
      -1.80926938e-02 -5.45666069e-02 8.85418132e-02 2.07562819e-02
      -1.27909407e-02 4.96651419e-02 -2.98670493e-02 -1.65694784e-02
      -9.35825985e-03 1.46450778e-03 -5.80147430e-02 2.65497882e-02
      3.34049016e-02 5.78809604e-02 2.58778762e-02 -1.02850758e-02
      -1.53699592e-02 -1.60181411e-02 -4.07544561e-02 -3.58965173e-02
      7.73239508e-02 -1.31183770e-02 -2.63055097e-02 -2.13608984e-02
      -2.04792973e-02 -1.82280634e-02 -1.18389046e-02 -3.87135074e-02
      -3.86962816e-02 1.32267132e-01 -8.44926015e-03 -2.54664849e-02
      -5.73734641e-02 -1.70570612e-02 -1.68030281e-02 -2.29906403e-02
      -1.31373435e-01 1.11393951e-04 8.95447358e-02 -3.78952622e-02
      4.24155667e-02 -2.03358997e-02 -1.01589262e-02 -3.02387401e-02
      -4.36300598e-02 -5.16767576e-02 -1.91109851e-02 5.74100278e-02
      -6.87107723e-03 -5.38923070e-02 -4.46103849e-02 -4.25729062e-03
      -2.60704067e-02 -5.01054935e-02 -9.94450077e-02 1.17837958e-01
      2.87212376e-02 3.70738991e-02 -4.01163287e-02 -2.44992413e-02
      -3.74902110e-03 -7.78478710e-03 -7.93271232e-03 -6.79153502e-02
      8.69675260e-03 5.53174168e-02 -3.31079550e-02 -3.47894616e-02
      -8.27383995e-03 -5.42127574e-03 -7.60591589e-03 9.43811517e-03
      4.16219560e-03 3.16502266e-02 9.48198214e-02 1.50565365e-02
      -5.32701500e-02 -2.32552513e-02 -8.08344781e-03 -1.35389101e-02
      -1.21766031e-02 -2.84473002e-02 3.73318419e-02 -2.88964622e-02
      -3.23889479e-02 -4.78207581e-02 -9.70272813e-03 -6.87000202e-03
      -1.19300606e-02 1.26411431e-02 1.43753663e-02 1.05226869e-02
      -2.42009498e-02 -1.69337615e-02 -2.76513281e-03 2.17006868e-03
      -2.40641623e-03 1.06794767e-04 5.07152127e-03 9.05669236e-04
      5.40714525e-02 -7.94821233e-02 -2.17852872e-02 5.80010936e-03
      5.34137292e-03 2.23407196e-03 2.78588221e-03 -6.38690516e-02
      -5.93612902e-02 4.57721017e-02 3.25621129e-03 -3.62228416e-02
      -2.62052175e-02 -5.33846393e-03 -1.03652326e-03 2.64719268e-03
      1.30264452e-02 2.10242644e-02 3.95833142e-02 2.64156796e-02
      -3.29726078e-02 -7.43306801e-03 -4.00786428e-03 6.14858058e-04
      1.46562159e-02 -5.45589849e-02 -7.53307855e-03 4.00105789e-02
      -6.95790574e-02 1.56781822e-03 8.42168648e-03 -1.46185420e-03
      1.77045539e-02 1.19709997e-02 -2.31574047e-02 -1.58902239e-02
      3.83885615e-02 -6.77480549e-02 1.32096959e-02 8.24830774e-03
      -6.09340658e-03 1.11180674e-02 2.16977410e-02 -1.06698368e-02
      -3.39801200e-02 -1.98871102e-02 -2.82171071e-02 -7.27474550e-03
      6.30959112e-04 -1.71038732e-02 2.93024257e-02 3.28796282e-02
      1.99240427e-02 2.05291379e-02 9.40923616e-02 -2.77174190e-02
      -2.27912441e-02 -1.01152323e-02 -4.75062476e-03 9.85842943e-03
      4.51030135e-02 2.53854669e-03 2.81318687e-02 2.90071368e-02
      -1.98996812e-02 6.17638882e-03 4.95924265e-04 -2.24087760e-03
      -2.07898370e-03 -2.35829670e-02 -4.86140549e-02 2.63629630e-02
      2.93288816e-04 -3.28133814e-02 2.03036980e-04 2.42464105e-03
      -5.57225151e-03 -4.16735653e-03 -1.62381753e-02 1.72993708e-02
      9.41884220e-02 -1.83706190e-02 -7.80784152e-03 2.37329537e-03
      -3.16956732e-03 -6.02146843e-03 -1.95979867e-02 -2.27163285e-02
      4.94848490e-02 5.36609367e-02 4.21403237e-02 -1.72019470e-02
      -1.57364062e-03 -1.77830271e-02 -4.17378508e-02 6.17047399e-03
      8.74135457e-03 5.96936271e-02 9.37827975e-02 -3.14854234e-02
      -1.13498894e-02 -1.23952115e-02 3.29238810e-02 -5.72661869e-03
      2.11069062e-02 1.15245031e-02 2.77632102e-02 1.99321434e-02
      -1.64751932e-02 -2.37480197e-02 -1.31432794e-03 4.58061993e-02
      6.02551224e-03 3.59445773e-02 2.39001252e-02 -8.07905048e-02
      7.05256872e-03 -1.90793741e-02 -2.78312881e-02 -2.30423026e-02
      4.60045179e-03 -1.09960930e-02 5.00092432e-02 3.77890989e-02
      9.89415422e-02 3.47610600e-02 -3.69222909e-02 -3.09253410e-02
      -2.65605338e-02 4.87015322e-02 7.83250295e-03 6.35009781e-02
      3.84856649e-02 -2.19172779e-02 2.98412908e-02 -6.08884590e-03
      -5.13542518e-02 -6.51973188e-02 -3.75949033e-02 2.78181918e-02
      3.02731283e-02 4.00249474e-02 -1.76064891e-03 -1.95271196e-03
      -2.81768665e-02 -2.74089351e-02 -7.59788044e-03 1.35067567e-01
      6.84514120e-02 -1.39270741e-02 -1.04104774e-03 -2.77767275e-02
      -2.52387263e-02 -2.54290830e-02 -2.99553964e-02 -5.76960184e-02
      -6.10590689e-02 8.61638188e-02 3.85874920e-02 5.14467470e-02
      -5.74296294e-03 -1.00239506e-02 -2.23742463e-02 -3.02738976e-02
      -2.97838654e-02 3.89143154e-02 9.38080847e-02 2.19352320e-02
      -7.59268925e-03 -1.57216676e-02 -2.74579506e-02 -2.44911890e-02
      -5.11979461e-02 -1.02860769e-02 1.19126616e-02 2.31433008e-03
      1.96774374e-03 4.05319873e-03 -2.19996907e-02 -4.83976724e-03
      -1.68244485e-02 3.41365347e-03 8.70950595e-02 6.03806637e-02
      6.57843500e-02 3.39286178e-02 -3.14292908e-02 -5.39753437e-02
      -5.75812859e-03 -2.20259205e-02 -4.48755398e-02 -6.07500225e-02
      -5.42847589e-02 8.06099400e-02 7.59501681e-02 -3.46967392e-02
      -9.69580188e-03 -6.67492114e-03 -1.92559008e-02 -3.93674113e-02
      6.69750497e-02 2.34400239e-02 1.04606040e-01 8.67494866e-02
      -2.71747336e-02 -1.66157819e-02 -2.42600241e-03 -3.27152088e-02
      5.59026897e-02 -1.34478947e-02 2.17991397e-02 3.93446739e-04
      -4.34218273e-02 -2.11812854e-02 -1.77922528e-02 -6.25755731e-03
      -4.28822227e-02 -1.65160745e-02 9.78927012e-04 -1.47812590e-02
      3.66339795e-02 -1.07237808e-02 -7.43404170e-03 -1.06232017e-02
      -2.28531323e-02 -3.27862538e-02 -6.67609554e-03 6.44207746e-02
      4.99439798e-02 -8.13213550e-03 6.59894422e-02 -5.08055761e-02
      2.29497836e-03 1.60485716e-03 -3.75416279e-02 8.56445450e-03
      -1.92026347e-02 8.33302829e-03 -3.30803990e-02 2.61999574e-02
      -4.19073552e-02 -5.67030674e-03 1.11036524e-02 6.34120265e-03
      6.40091375e-02 -4.03040312e-02 4.17989828e-02 6.69317460e-03
      1.34573914e-02 -1.61759555e-02 -3.37103754e-02 -2.30939500e-02
      5.79421185e-02 9.12778303e-02 -2.34279279e-02 -3.52913588e-02
      -2.12229341e-02 1.95880793e-02 -1.61891393e-02 -5.62688559e-02
      -4.48011532e-02 9.88585427e-02 -7.13353045e-03 -3.30103002e-02
      -1.17293596e-02 4.54990566e-02 7.17837503e-03 -3.53099294e-02
      -1.49438744e-02 2.47646943e-02 1.58762876e-02 5.28973714e-02
      -6.42694607e-02 -3.27087194e-02 2.74179839e-02 -1.44799808e-02
      -5.65852132e-03 -1.24013508e-02 1.69760082e-02 6.33876538e-04
      1.04716010e-01 -1.11166462e-02 -2.36207228e-02 2.33950429e-02
      2.61196261e-03 1.18793398e-02 -1.17788436e-02 8.82895570e-03
      7.07574636e-02 5.73305972e-02 7.95431901e-03 4.03352361e-03
      9.40897129e-03 -3.12653184e-03 2.30067279e-02 1.83944050e-02
      1.77774038e-02 1.33779775e-02 3.10252905e-02 -3.99241000e-02
      -1.39134182e-02 1.77992266e-02 -8.28532036e-03 2.15785019e-02
      -3.50265801e-02 1.54513847e-02 -8.07411149e-02 2.98628118e-02
      4.56224494e-02 -5.24499975e-02 -6.10473342e-02 -4.07206826e-04
      4.94191907e-02 -2.24037077e-02 -1.54712098e-02 1.16055170e-02
      4.98289242e-02 -2.54764818e-02 -1.71331819e-02 -8.55289772e-03
      1.67763494e-02 2.00119764e-02 -4.73431917e-03 8.99807457e-03
      5.64092174e-02 6.52309880e-02 -1.48845473e-02 -6.16384717e-03
      2.33135026e-04 7.68729579e-03 1.78306550e-02 -3.14055197e-02
      2.76626311e-02 4.93854545e-02 1.96607877e-02 -3.61249479e-03
      -4.66679595e-02 -4.15771790e-02 2.38947757e-02 2.16187350e-02
      -7.25101754e-02 -1.25908479e-01 -2.37562675e-02 4.22315970e-02
      -1.78625658e-02 -1.59708411e-02 1.13864355e-02 3.74947637e-02
      -1.76091455e-02 -2.73267645e-02 -3.67735550e-02 6.77869022e-02
      -4.72738370e-02 -1.51576623e-02 -1.40009122e-03 -3.45197320e-03
      2.11410133e-05 2.74355020e-02 2.15041954e-02 5.25369085e-02
      4.32445854e-02 -3.96701768e-02 -2.76006218e-02 -1.43376291e-02
      2.17630551e-03 8.40769988e-03 4.39363755e-02 5.25676366e-03
      1.77235175e-02 5.21897664e-03 -5.55353127e-02 -2.61798445e-02
      -3.35793942e-03 4.47407272e-03 1.37311574e-02 -2.11117067e-03
      3.90935652e-02 8.83192122e-02 1.14391930e-02 -4.51781414e-02
      -3.56848277e-02 -3.77005711e-02 3.20712617e-03 4.78276610e-02
      -1.32367993e-03 4.79141325e-02 2.26795655e-02 -3.13637592e-02
      -1.54635590e-02 -1.27002755e-02 -8.31228681e-03 -4.61394666e-03
      -9.73042566e-03 1.45209837e-03 4.25533541e-02 8.24260265e-02
      1.32244115e-03 -1.30489515e-02 -5.89017337e-03 -2.09482405e-02
      -3.84861305e-02 1.88647665e-03 4.05922830e-02 2.95457020e-02
      4.57736291e-02 -4.97385561e-02 -1.37315877e-02 -2.59663761e-02
      -1.40990242e-02 -1.96857639e-02 9.62250680e-02 6.57674298e-02
      1.86841618e-02 4.82915379e-02 -1.53613444e-02 -1.67350322e-02
      -3.72126587e-02 -4.08898704e-02 -9.53651965e-03 1.85258072e-02
      2.88915765e-02 -2.57604141e-02 -4.28832602e-03 -2.32052803e-02
      -2.55984329e-02 -5.13152312e-03 -1.24910735e-02 -1.72576923e-02
      3.12178563e-02 9.75683704e-02 8.28402340e-02 -4.22974490e-02
      -4.68256585e-02 -2.64402013e-02 -1.92660093e-02 8.84813198e-04
      -1.30685903e-02 -8.01309943e-03 6.76897392e-02 -2.63482872e-02
      -1.70152111e-03 -1.64360609e-02 -1.61915459e-02 -9.49928723e-03
      -2.06225235e-02 -1.41803278e-02 1.78042483e-02 5.12972325e-02
      2.29325015e-02 -8.23583901e-02 -3.51622663e-02 -2.94830929e-02
      -1.39071690e-02 -4.03200835e-03 6.46042230e-04 4.49820124e-02
      2.55337991e-02 1.37026794e-02 -3.68267447e-02 -1.90816820e-02
      -8.95452779e-03 -1.74685828e-02 -3.91350389e-02 3.63771468e-02
      -2.73267552e-02 4.30982411e-02 -6.92607416e-03 -1.46073932e-02
      -1.84995197e-02 -1.99718289e-02 -1.86821315e-02 -2.71817595e-02
      6.59610629e-02 -8.87624454e-03 5.65052330e-02 3.88462562e-03
      -2.14600340e-02 -2.13312674e-02 -3.58269340e-03 -1.25105511e-02
      1.34545669e-03 6.39894083e-02 -2.10742541e-02 1.26293525e-02
      -5.93251735e-02 -2.36913376e-02 -1.92011893e-02 -3.23419422e-02
      -2.52286177e-02 -1.10164117e-02 3.66950259e-02 1.17985010e-02
      2.61004791e-02 1.57862194e-02 5.62067423e-03 -1.92993935e-02
      -2.83420067e-02 -3.88468988e-02 -6.62301034e-02 2.45302431e-02
      3.34497429e-02 5.79947140e-03 -1.14152320e-02 -2.48011183e-02
      -1.71045437e-02 -5.71180359e-02 -1.61675140e-02 -4.07280177e-02
      7.63700083e-02 9.46016312e-02 5.01058958e-02 1.47492131e-02
      -2.63677556e-02 -3.51496525e-02 -3.03161424e-02 -2.98461411e-02
      -2.93117296e-02 -9.63861775e-03 -4.04478796e-03 1.88556649e-02
      -5.73998783e-03 -3.76556143e-02 -1.11193340e-02 -1.45815304e-02
      -1.85877294e-03 -1.52781429e-02 1.30741997e-02 5.95645122e-02
      6.41338006e-02 3.22156325e-02 -1.01265768e-02 -5.66013083e-02
      -3.48086245e-02 7.44704157e-02 2.11021435e-02 7.61037882e-05
      8.33880976e-02 -2.80262493e-02 4.66119638e-03 2.06085551e-03
      -4.01726365e-02 3.71942557e-02 2.62614992e-02 -5.82762482e-03
      -4.29225378e-02 5.36490791e-02 -6.45830333e-02 -3.15634347e-02
      -1.91427283e-02 -4.96442392e-02 1.47804273e-02 3.69667672e-02
      6.93631079e-03 1.91924740e-02 3.87891978e-02 6.55768290e-02
      4.54122573e-03 -3.36479694e-02 1.94956828e-02 8.58788863e-02
      6.86114579e-02 -4.10083542e-03 -2.23303400e-02 2.34423522e-02
      3.68468910e-02 -4.23966534e-02 -6.47942498e-02 -1.09263686e-02
      1.94198750e-02 1.09615352e-03 -8.68600700e-03 4.00939174e-02
      4.52556312e-02 -4.39118929e-02 2.19569411e-02 2.68006995e-02
      -3.30955558e-03 -1.48803173e-02 -6.91457316e-02 7.34339701e-03
      4.34525907e-02 -1.72960795e-02 -5.11648208e-02 -1.46940658e-02
      4.70559020e-03 -4.98679020e-02 7.77149424e-02 5.54199554e-02
      5.26586839e-04 2.38641053e-02 7.98412040e-02 2.42744386e-02
      3.17461640e-02 -2.49869898e-02 1.10217249e-02 2.00183578e-02
      3.55635025e-02 2.37570256e-02 4.29398119e-02 1.33320820e-02
      -1.37429405e-02 4.15218137e-02 -6.70510679e-02 -2.13949364e-02
      -1.89585332e-02 -4.27944260e-03 -1.60524920e-02 2.73033953e-03
      -2.47541554e-02 1.24418447e-02 -4.04380989e-04 4.25336324e-02
      -3.10018826e-02 6.10601157e-03 3.74068096e-02 -8.98590591e-03
      -9.21543241e-02 -8.93286616e-03 3.16145718e-02 8.07200465e-03
      3.16292122e-02 2.01085955e-02 1.20716393e-02 9.14837196e-02
      4.33930717e-02 -4.91703255e-03 -5.67011610e-02 -3.16791274e-02
      2.63689402e-02 6.82791695e-02 -2.69833636e-02 5.19888010e-03
      -7.73865804e-02 1.15621321e-01 1.73868872e-02 -9.71564092e-03
      8.80721305e-03 3.25598419e-02 5.64259365e-02 2.99360361e-02
      -3.31498682e-02 -2.09407751e-02 -2.34999508e-02 -5.74117377e-02
      3.75611745e-02 1.75578855e-02 -2.36339513e-02 -5.27799390e-02
      -3.12029272e-02 2.57309712e-02 -1.60790291e-02 3.38069722e-02
      -2.67271828e-02 1.86175741e-02 -3.93428393e-02 1.10725835e-02
      -1.12917905e-05 5.39363101e-02 3.34293325e-03 -8.17339644e-02
      -3.04044709e-02 -1.45342732e-02 7.76526406e-02 3.18010785e-02
      -7.43372319e-03 -4.42849472e-03 1.67502183e-02 7.46259019e-02
      6.00689352e-02 1.27727352e-02 -6.02454543e-02 -2.12710835e-02
      -3.67920585e-02 -1.49466784e-03 2.79495120e-02 1.01468474e-01
      -1.81555171e-02 -9.93928500e-03 1.52154267e-02 -1.02842329e-02
      -5.07236226e-03 -3.21253575e-02 -9.95032955e-03 2.92119142e-02
      -5.95603138e-03 -2.79330462e-02 -1.78053658e-02 -1.62713248e-02
      -4.99607576e-03 1.91250220e-02 2.74942182e-02 2.70826239e-02
      7.00191269e-03 -4.43598144e-02 5.86919338e-02 8.82695541e-02
      -2.14836653e-03 -4.18163426e-02 -6.76621124e-02 7.67827081e-03
      -1.01170558e-02 7.28409598e-03 3.14231142e-02 -9.35618859e-03
      8.81054774e-02 1.44577790e-02 2.61770692e-02 2.54210550e-02
      3.01652923e-02 1.13086738e-02 -2.90649161e-02 -4.41123582e-02
      -1.07679740e-02 -1.41348857e-02 -1.08517651e-02 -3.39100845e-02
      8.58387575e-02 8.38741958e-02 8.54377262e-03 1.78758486e-03
      -1.92206204e-02 2.01093801e-03 -3.57498340e-02 -3.50510851e-02
      1.31088318e-02 -3.78014557e-02 1.64262019e-02 4.71165823e-03
      -1.01445895e-02 -2.13891477e-03 -2.39679944e-02 -7.23880343e-03
      -4.25558202e-02 -1.11951455e-02 7.05887303e-02 1.05046399e-01
      5.41413836e-02 -1.56206032e-02 -5.27088866e-02 2.33152956e-02
      2.10016146e-02 -2.81580966e-02 -4.36480045e-02 9.06496309e-03
      1.08615942e-02 5.18925935e-02 -4.96828323e-03 -1.97436754e-02
      -7.70010101e-03 -8.47876910e-03 -1.56121273e-02 5.82317561e-02
      1.73476897e-02 2.67298222e-02 -3.26719321e-03 -2.85988022e-02
      -1.16096847e-02 -2.43240483e-02 -1.08048879e-02 6.34783506e-03
      3.00037283e-02 1.21308919e-02 -3.44746187e-02 4.53696912e-03
      -3.79657634e-02 -1.52075319e-02 -3.14320019e-03 -2.60096490e-02
      4.24605235e-03 8.31379667e-02 4.24060673e-02 -2.54614791e-03
      -2.31342129e-02 -2.03522108e-02 -1.02736410e-02 -1.62583962e-02
      -6.31393120e-03 2.98999120e-02 2.58570723e-02 4.86860499e-02
      -1.38308601e-02 -2.04347279e-02 -3.56744118e-02 -1.80740710e-02
      -6.87674573e-03 -7.83919450e-03 1.12523953e-03 6.93300813e-02
      4.03660256e-03 7.57083471e-04 -7.25867227e-02 -2.48268601e-02
      -1.79465152e-02 -2.17127334e-02 -1.22306496e-02 -1.08968401e-02
      5.06736599e-02 7.06557930e-03 5.17165773e-02 7.21752644e-02
      -1.41715119e-03 -5.65187261e-03 -2.96642873e-02 -1.39121031e-02
      -1.72639580e-03 5.85687608e-02 -3.44597138e-02 3.46418917e-02
      -2.88859494e-02 -7.62664378e-02 -2.78846808e-02 -2.24332716e-02
      -6.52437238e-03 -1.28610795e-02 3.08538489e-02 1.62252430e-02
      9.58786085e-02 3.90505753e-02 -6.84704259e-03 -5.18196216e-03
      -1.34027749e-02 -5.83983632e-03 -7.17601040e-03 5.84265683e-03
      1.20268250e-02 2.91180164e-02 2.63949744e-02 -1.38650108e-02
      -5.98687166e-03 2.73618381e-03 8.18970054e-03 -6.35868683e-03
      -1.68862361e-02 2.78865807e-02 8.17061737e-02 5.44523709e-02
      3.33243348e-02 -3.84956449e-02 -5.07197715e-03 1.03892572e-02
      -3.89593537e-03 4.48735617e-03 1.20344963e-02 -3.28648835e-02
      2.77969055e-02 3.30415368e-02 -1.85217131e-02 -3.63710560e-02
      1.87132061e-02 -6.28462434e-03 -1.97294429e-02 2.25453116e-02
      -1.34139527e-02 3.24244685e-02 1.41891390e-01 -2.51211766e-02
      4.72969282e-03 3.51175852e-03 7.09674973e-03 -6.43455237e-03
      -4.14260291e-02 -2.28450517e-03 1.77859012e-02 -1.28817661e-02
      4.35034446e-02 2.79458836e-02 -2.76193279e-03 2.44556717e-03
      -1.34013901e-02 1.15371756e-02 2.25041006e-02 -4.78022844e-02
      -3.57775502e-02 6.77100271e-02 -5.96690504e-03 -1.70242079e-02
      -4.27797996e-03 -1.39914742e-02 -5.06659299e-02 -4.50873282e-03
      9.66624450e-03 3.83709483e-02 1.07893519e-01 7.41567016e-02
      -3.12973075e-02 -1.86415836e-02 -9.29174852e-03 -3.25883366e-02
      -2.59659253e-02 -1.29227042e-02 7.90735707e-03 1.14170812e-01
      2.38512065e-02 -3.40889692e-02 -3.28372270e-02 -7.19368737e-03
      1.25229592e-02 2.08160467e-02 1.22782392e-02 -6.36488125e-02
      1.85092334e-02 7.57750706e-04 3.46604269e-03 -3.05661932e-02
      -2.47887578e-02 -5.34135429e-03 3.90002094e-02 -1.15555255e-02
      -7.81905726e-02 -1.81069672e-02 6.41734526e-02 -4.65217270e-02
      -5.42770000e-03 6.55069901e-03 -2.00922601e-02 -2.07512155e-02
      8.70855525e-03 -8.31603259e-03 7.89911672e-02 -3.49501148e-02
      2.45106388e-02 -1.74474511e-02 -1.35475043e-02 -2.41850037e-02
      -1.22630019e-02 -2.13261452e-02 -1.59561392e-02 7.42785633e-02
      -2.86109876e-02 4.20254515e-03 -1.03600305e-02 -3.49785984e-02
      -5.02717867e-02 -8.52851756e-03 -1.33025665e-02 -2.96888035e-03
      -2.39330903e-02 -4.10329849e-02 -7.85983130e-02 7.54965609e-03
      2.65973061e-02 -1.04933893e-02 9.71734989e-03 -1.10267503e-02
      -1.10562397e-02 -5.83260804e-02 7.60584623e-02 5.49824797e-02
      -5.88358715e-02 -4.79602516e-02 -3.45556140e-02 -1.51688913e-02
      -2.35426389e-02 5.70274070e-02 8.15760717e-02 6.31683469e-02
      -1.61002483e-02 -3.58314291e-02 -2.18670312e-02 5.06694894e-03
      -6.56524673e-03 -3.21004167e-02 2.98647229e-02 1.48631737e-01
      4.68435027e-02 -7.19904974e-02 -4.01808098e-02 3.15220170e-02
      1.73214469e-02 -1.62207149e-02 -5.74143901e-02 -3.35365497e-02
      -2.74390094e-02 1.38978884e-01 8.12053755e-02 -1.23261563e-01
      -6.81635663e-02 -4.04764265e-02 -3.27293240e-02 -4.26155999e-02
      -8.08012187e-02 -1.68244708e-02 1.72223404e-01 5.64858690e-02
      -2.16021296e-02 5.18718734e-03 2.19794586e-02 4.53262823e-03
      -3.25723551e-02 -2.77015511e-02 -5.98270399e-03 1.90725014e-01
      1.04801454e-01 -1.00281119e-01 -7.23057240e-02 -2.59208884e-02
      -1.25894640e-02 -3.84948440e-02 -7.94852301e-02 -2.83501428e-02
      4.10007872e-02 1.26036406e-01 2.74988450e-02 -2.16309670e-02
      -4.04558554e-02 1.76876690e-02 -4.00339626e-03 -6.29847450e-03
      1.71842556e-02 -4.30268422e-03 9.38915014e-02 5.33684269e-02
      2.91005187e-02 2.39773449e-02 5.82964905e-03 2.04798882e-03
      -1.57311670e-02 -4.41876277e-02 5.68449572e-02 2.82047577e-02
      1.22108273e-02 -6.89768344e-02 -3.66953313e-02 -7.92736094e-03
      -8.66081100e-03 5.81239536e-03 -4.58098613e-02 -3.38297486e-02
      1.97629128e-02 1.75239872e-02 -3.94621631e-03 -3.91921634e-03
      -1.00819077e-02 -2.01354343e-02 1.22084599e-02 -6.78948611e-02
      -2.79111639e-02 1.48482649e-02 -4.41400111e-02 2.25460473e-02
      7.24856779e-02 1.02904104e-01 4.30904068e-02 6.81343162e-03
      -2.95776259e-02 6.33905223e-03 4.68204096e-02 -1.88193340e-02
      -4.85681929e-03 -1.28871379e-02 5.41285425e-02 4.56275232e-02
      1.64137315e-02 -8.32145102e-03 7.14035239e-03 -2.12557092e-02
      -4.25690133e-03 4.63638008e-02 5.81146255e-02 4.50158231e-02
      1.01480223e-02 2.66598072e-02 -4.46878513e-03 -1.98718882e-03
      2.86070388e-02 -1.91310644e-02 -6.51062652e-03 4.08397196e-03
      2.16456223e-02 5.80476085e-03 4.14703302e-02 1.82282832e-02
      -4.20010649e-03 -4.20560800e-02 4.72987704e-02 1.15892731e-01
      2.72663720e-02 2.08954159e-02 -1.93388965e-02 -1.88438613e-02
      -5.17040771e-03 -2.02181786e-02 -1.36428894e-02 2.18235701e-02
      3.20428461e-02 -1.78899872e-03 -7.29767000e-03 -2.75972337e-02
      -2.83315163e-02 -1.18778702e-02 -2.94243451e-02 -8.23935345e-02
      1.04997046e-01 8.86269882e-02 5.53034842e-02 -5.88652957e-03
      -2.35983767e-02 -2.52021812e-02 -6.64816564e-03 -5.61341457e-02
      -4.56079431e-02 2.51408648e-02 3.74895781e-02 9.57424492e-02
      1.95506308e-02 -1.45376939e-02 -2.22559310e-02 -3.71347331e-02
      -3.28943841e-02 -6.68086763e-03 1.62849296e-02 3.34631577e-02
      4.04012576e-03 6.00352660e-02 -8.36088881e-03 -7.25752786e-02
      -7.73187820e-03 -3.55133340e-02 -3.95963248e-03 -1.64959126e-03
      3.31779011e-02 4.82545830e-02 1.53939143e-01 6.98363334e-02
      3.72601449e-02 -8.05844646e-03 -1.50077557e-02 -1.12991137e-02
      3.79058868e-02 2.54742205e-02 4.61613126e-02 3.50212009e-04
      -9.10013393e-02 -7.56152123e-02 -2.56451089e-02 -2.30398346e-02
      -1.78505946e-02 3.22917253e-02 4.71096672e-02 9.93429869e-02
      7.61464387e-02 6.68335408e-02 -2.55198330e-02 -2.14136038e-02
      -2.57456210e-03 8.67530797e-03 3.33721749e-03 6.68469351e-03
      1.18716033e-02 -2.77749412e-02 7.09555373e-02 6.35658950e-03
      1.48689477e-02 -1.98796261e-02 1.55876270e-02 8.71095154e-03
      -1.10640726e-03 -2.60339142e-03 -1.38980784e-02 7.31006414e-02
      6.00729734e-02 -3.88857472e-04 -8.55852198e-03 -9.78395037e-05
      1.32403001e-02 1.54743576e-02 1.61624346e-02 3.23649719e-02
      6.75355867e-02 -2.27222368e-02 1.27307260e-02 -4.65188660e-02
      -8.01575836e-03 1.30108176e-02 6.32912898e-03 1.01059710e-03
      3.85978557e-02 3.36655155e-02 -5.13851717e-02 4.30563418e-03
      5.89493848e-03 2.42539565e-03 2.92712706e-03 -2.73177517e-04
      -1.23543413e-02 -2.05347165e-02 2.05313656e-02 1.71659049e-02
      7.08640441e-02 8.22734386e-02 -8.51037155e-04 9.41599195e-04
      4.03591571e-03 -1.95009131e-02 -4.56616841e-02 6.40460406e-04
      -3.10750492e-03 1.11600108e-01 -6.97580203e-02 -3.34127285e-02
      -5.88110229e-03 1.55837946e-02 4.18593967e-03 2.11311486e-02
      1.87131185e-02 1.40824877e-02 -3.42732705e-02 2.17804518e-02
      1.16940197e-02 5.88058634e-03 -9.66595765e-03 -2.00321451e-02
      -1.37169904e-03 2.30083857e-02 -3.52263749e-02 4.41431850e-02
      5.34576513e-02 -3.31469588e-02 -2.36144429e-03 -1.39405932e-02
      -2.85284184e-02 -4.60907631e-02 -1.77281816e-02 -6.55993447e-03
      1.18859515e-01 -1.59041602e-02 1.21905068e-02 -1.76023077e-02
      -3.15758809e-02 -3.21472920e-02 -4.35956568e-02 1.60755273e-02
      1.07496999e-01 6.06834404e-02 4.05539051e-02 -5.71413198e-03
      -1.88136585e-02 -4.48430516e-02 -5.12900725e-02 -2.23684795e-02
      -2.10870374e-02 -7.56283700e-02 2.22843271e-02 6.35839719e-03
      -1.05660651e-02 -1.75589751e-02 -3.94679420e-02 -4.87556159e-02
      -3.68019491e-02 2.74004471e-02 5.29123563e-03 2.68818364e-02
      1.44917546e-02 4.11988720e-02 -2.78171580e-02 -3.31196934e-02
      -1.62388571e-02 -1.45896450e-02 -6.99709682e-03 6.65594712e-02
      6.33153096e-02 1.94699205e-02 2.43377901e-04 -3.92099805e-02
      -3.35824266e-02 1.31477918e-02 -6.98883785e-04 -8.84158071e-04
      3.36047076e-02 8.28806683e-02 -7.70219117e-02 -1.81962755e-02
      -2.32494939e-02 -3.78621891e-02 -1.83830056e-02 9.76756960e-03
      -3.79583857e-04 4.09152508e-02 1.53919840e-02 -1.72630213e-02
      1.16588036e-02 -5.04089110e-02 3.16667283e-04 7.19074206e-03
      1.49380378e-02 2.58844369e-03 -8.20625853e-03 6.54378161e-02
      1.73994079e-01 3.40348072e-02 1.52318785e-02 -4.64983191e-03
      6.09048642e-03 -6.59796502e-03 -2.81953681e-02 -5.99407814e-02
      4.25773598e-02 1.18162699e-01 1.15823925e-01 -4.84666936e-02
      -2.54126992e-02 -5.08082174e-02 -2.61581298e-02 -3.19520906e-02
      -5.90649955e-02 -5.44979125e-02 9.08346251e-02 -6.68612216e-03
      1.81635097e-02 1.30817527e-02 3.81260924e-03 -9.05536674e-03
      -1.04318494e-02 -8.98537263e-02 2.26373784e-02 6.22401834e-02
      7.11281374e-02 -5.87526057e-03 1.47970568e-03 -5.21151423e-02
      -4.51958328e-02 -4.79599759e-02 -8.51472765e-02 1.65926870e-02
      1.17906541e-01 1.26458809e-01 1.73909012e-02 -4.72020693e-02
      -3.30708995e-02 -2.01695524e-02 -1.86132058e-03 2.66855359e-02
      -1.45676127e-02 2.88468525e-02 5.29228039e-02 5.45506552e-02
      -1.69511922e-02 -1.47687998e-02 -2.02041995e-02 -1.15104625e-02
      2.19797622e-02 -1.61595754e-02 1.01264924e-01 1.42715052e-01
      -1.46374735e-03 -3.82037833e-02 -7.36716716e-03 -4.31708023e-02
      -3.90609093e-02 6.19336357e-03 -4.34747413e-02 -6.19757958e-02
      4.17705551e-02 1.05616286e-01 -5.77703211e-03 2.42860317e-02
      -4.86147180e-02 -3.53378654e-02 -3.26758102e-02 -7.20257163e-02
      1.49947731e-02 -6.68600351e-02 8.89260788e-03 2.12986842e-02
      4.76346724e-03 8.63126665e-03 -6.87393011e-04 1.71434367e-03
      1.55330328e-02 2.01280741e-03 -3.45982201e-02 1.84517484e-02
      1.82122476e-02 -1.28050679e-02 -3.44095659e-03 -4.18569520e-03
      1.02572786e-02 2.56009400e-02 -6.18615523e-02 1.45772472e-02
      5.01534827e-02 4.08006608e-02 3.16220801e-03 -6.35976577e-03
      -9.24902968e-03 -1.41607514e-02 -7.28669902e-03 -5.77628799e-02
      -2.47567687e-02 1.65984500e-02 -5.09556336e-03 2.03269348e-03
      -8.92578065e-03 2.78165075e-03 -1.63161941e-03 -2.36798034e-04
      -2.90337522e-02 -1.42136682e-02 8.68698657e-02 8.38623270e-02
      5.67503683e-02 7.10606761e-03 -1.75575148e-02 -1.25311501e-02
      -2.26771515e-02 -3.83604132e-02 -2.84761132e-04 3.29317637e-02
      4.09398191e-02 9.96919125e-02 1.40505964e-02 -5.76327089e-03
      -1.43370088e-02 -4.22277190e-02 -1.86473671e-02 9.40680504e-03
      4.93362397e-02 4.51463461e-02 4.17743921e-02 1.38025370e-03
      -7.34710973e-03 -3.61335501e-02 -3.89909819e-02 -2.59952410e-03
      2.27299277e-02 -1.62192862e-02 -2.70935558e-02 2.17226706e-02
      -1.84001531e-02 -2.51818681e-03 9.87775531e-03 -3.38266715e-02
      -3.05134282e-02 -1.84940137e-02 1.43124079e-02 2.94707660e-02
      5.87855540e-02 1.15795424e-02 -6.50390908e-02 -8.88957921e-03
      4.39654832e-04 9.46043991e-03 -2.60855127e-02 2.32340768e-02
      2.27079559e-02 7.26400986e-02 5.84528260e-02 7.05153346e-02
      -1.12106027e-02 4.00490053e-02 -2.22323183e-02 -3.27248797e-02
      -1.52962403e-02 4.97887433e-02 6.63227737e-02 1.81704424e-02
      -4.84529138e-02 1.20004099e-02 -1.22116925e-03 4.98914011e-02
      -8.72222614e-03 3.20925303e-02 4.55141453e-05 7.19105750e-02
      1.77292842e-02 4.35099863e-02 4.73853201e-02 5.98896295e-02
      -8.89166072e-03 -9.13946610e-03 1.32977040e-02 1.88059974e-02
      1.07658030e-02 3.46701033e-02 2.79216915e-02 -1.78785771e-02
      4.04526703e-02 -5.70890196e-02 -1.55170327e-02 6.42865850e-03
      1.08951135e-02 3.24559445e-03 3.00157126e-02 4.48433049e-02
      1.11528616e-02 4.01984341e-02 5.04655801e-02 -9.85797122e-03
      1.23685403e-02 -1.81319448e-03 -6.32587727e-03 4.51283576e-03
      -4.53146845e-02 -3.27455858e-03 4.23181765e-02 3.49398777e-02
      6.31607650e-03 7.30163325e-03 -4.32100007e-03 -3.23936678e-02
      1.08979188e-03 1.44263944e-02 4.94285002e-02 -1.23076281e-02
      -7.52004385e-02 -3.73006314e-02 -1.54529372e-02 -4.54427395e-03
      2.01659836e-03 2.12606136e-02 5.67423366e-02 8.12247396e-02
      -1.31576657e-02 -6.09921254e-02 -3.01759038e-02 -3.31155546e-02
      -3.09604947e-02 -9.80059803e-03 -2.31464696e-03 5.48482910e-02
      1.03613064e-01 4.09782007e-02 -6.28612787e-02 -2.44145710e-02
      -7.14444602e-03 -1.17035210e-02 2.42667482e-03 7.74477143e-03
      5.40797412e-02 8.11087638e-02 -1.03659288e-03 -1.24923415e-01
      -3.09068095e-02 -3.18993591e-02 -3.69819142e-02 4.76623140e-03
      6.10714918e-03 1.70862526e-02 1.17365427e-01 -2.32529375e-04
      3.01458500e-02 -1.16053540e-02 -2.56307404e-02 -4.46678959e-02
      -3.14343832e-02 -5.03606861e-03 1.02992225e-02 -2.04162281e-02
      8.23858827e-02 3.06121632e-02 -3.22497152e-02 -8.63703340e-03
      -2.58625317e-02 -2.40077153e-02 -1.30468712e-03 9.92774870e-03
      1.98995136e-02 5.92590682e-02 -1.50269661e-02 -4.14208956e-02
      -4.37227376e-02 -4.57520895e-02 -1.86633337e-02 -8.26961454e-03
      -3.20679806e-02 5.46071641e-02 6.53138459e-02 2.01855730e-02
      -8.22578892e-02 -2.07543243e-02 -2.51181498e-02 -2.04888321e-02
      -1.53626129e-02 -2.39830036e-02 5.61383143e-02 6.42415658e-02
      -4.69875075e-02 -1.13267666e-02 7.18149729e-03 -5.44560654e-03
      -1.48771261e-03 1.58299673e-02 -2.45780149e-03 2.00514309e-02
      2.89990250e-02 6.78745098e-03 6.00380115e-02 4.03192034e-03
      1.81249697e-02 3.76960710e-02 2.09351014e-02 1.48954001e-04
      1.08730597e-02 4.69140410e-02 -8.23888648e-03 -2.98257247e-02
      1.80037543e-02 1.32178487e-02 -1.34188542e-02 -1.29344303e-03
      -1.72184373e-03 2.99410969e-02 5.17999902e-02 7.45085068e-03
      4.71747369e-02 2.58708391e-02 1.04337232e-02 -1.65033562e-04
      1.26939304e-02 -2.10128222e-02 -1.60834901e-02 -2.68720393e-03
      5.70224933e-02 -1.84573047e-02 2.90513728e-02 1.64333452e-02
      1.92080773e-02 9.55922063e-03 4.44632396e-03 -5.80893382e-02
      -2.74074357e-02 1.61365718e-01 5.46135455e-02 2.73462515e-02
      1.49287712e-02 -2.56257001e-02 -3.32044996e-02 -1.77180115e-02
      -5.22713475e-02 1.06244143e-02 2.26239990e-02 4.56259623e-02
      3.59712206e-02 1.56731391e-03 5.86449867e-03 1.62755381e-02
      -1.27184195e-02 -4.80101258e-02 -9.31414776e-03 2.23235134e-02
      9.48516503e-02 5.82952844e-03 -5.28951269e-03 -1.34663275e-02
      -1.83345769e-02 -3.51793915e-02 -4.03321870e-02 -2.52621602e-02
      6.82242215e-02 1.35199666e-01 8.75849091e-03 -7.35489046e-03
      -1.24338102e-02 -4.85042259e-02 -5.16420081e-02 -2.67081894e-02
      -6.65321276e-02 -3.08515113e-02 1.53479457e-01 9.13101435e-02
      -1.61777553e-03 2.97829276e-03 -3.51105407e-02 -5.24633080e-02
      -5.67470193e-02 -9.35361162e-02 6.44553304e-02 1.25232473e-01
      -1.38138784e-02 -1.48323355e-02 -1.35274408e-02 -2.77742054e-02
      -3.06986626e-02 -5.51698357e-02 -2.02864837e-02 5.37581295e-02
      1.21159941e-01 -5.67163266e-02 -3.51910270e-03 1.28906604e-03
      -4.33307188e-03 -2.49515995e-02 -5.17606214e-02 -1.19837830e-02
      -5.42479120e-02 5.10150380e-02 7.48656392e-02 2.51593813e-02
      8.90360866e-03 -5.34457341e-03 -3.42030218e-03 -1.16381049e-02
      -1.75565984e-02 -7.72426128e-02 7.00794719e-03 6.33505806e-02
      3.31286862e-02 9.32899024e-03 -1.18727414e-02 1.06443493e-02
      5.30560641e-03 7.24808592e-03 5.55921122e-02 4.31855433e-02
      -6.52411878e-02 1.66314952e-02 2.58311387e-02 8.19211267e-03
      2.63505569e-03 2.49285542e-04 -3.73662543e-03 2.16426235e-02
      -1.33639611e-02 -1.06758913e-02 1.83276515e-02 -1.40231540e-02
      6.13938784e-03 6.60852063e-03 -9.19339061e-03 -5.88951167e-03
      4.99802921e-03 7.93715566e-02 3.40228640e-02 5.51719479e-02
      4.70985547e-02 7.63243949e-03 9.46075935e-03 -2.53166109e-02
      2.75806952e-02 7.16983620e-03 -5.14675025e-03 1.58568714e-02
      1.31396053e-03 6.55259890e-03 -4.69700247e-03 2.27963384e-02
      3.76505889e-02 3.27569507e-02 7.37908622e-03 1.71086155e-02
      7.36604482e-02 2.97968015e-02 5.36600826e-03 1.50881046e-02
      2.95762196e-02 1.73255391e-02 7.47101158e-02 -3.33827958e-02
      -5.48797026e-02 -1.01351431e-02 3.23964916e-02 3.52844521e-02
      4.38769050e-02 6.33766055e-02 7.91665539e-02 5.35601117e-02
      -3.70907634e-02 -1.86842140e-02 -4.10793070e-03 2.81640328e-02
      5.40179648e-02 -3.28349927e-03 -4.00774106e-02 2.21294677e-03
      9.15842596e-03 3.79317515e-02 4.35356200e-02 4.66924310e-02
      -1.22519452e-02 3.86043228e-02 5.01826825e-03 -1.58807542e-02
      4.77266312e-02 5.76550746e-03 1.23725459e-02 9.35722422e-03
      -3.99345625e-03 -2.34346837e-02 -1.62282921e-02 -1.66213159e-02
      1.50425211e-02 5.93685620e-02 8.54561105e-02 1.02130108e-01
      2.65614521e-02 2.85444874e-02 -3.69465314e-02 1.59109421e-02
      5.55850007e-03 2.23775990e-02 3.83998081e-02 1.90200831e-03
      2.57385839e-02 4.55621537e-03 3.44990008e-02 7.37831043e-03
      6.48678339e-04 -4.98486497e-02 -3.76758054e-02 -5.09750284e-02
      4.59142961e-02 6.35099858e-02 5.08498475e-02 3.35221849e-02
      6.55148597e-03 -4.16592248e-02 -3.66938636e-02 -4.02942207e-03
      6.74828961e-02 1.20509136e-03 6.24424368e-02 4.27130423e-02
      1.19905910e-02 2.73198932e-02 -6.58089528e-03 -6.90455362e-02
      -1.71929747e-02 -5.56613579e-02 4.19270284e-02 1.23719322e-02
      9.50789750e-02 2.99726930e-02 3.34230959e-02 6.48593381e-02
      -1.43410673e-03 1.78754982e-02 -7.24876300e-02 2.04309281e-02
      1.27926283e-02 7.21618766e-03 1.97506091e-03 -9.22821648e-03
      -2.41014771e-02 -2.97032620e-05 6.32756650e-02 6.00807704e-02
      2.67531071e-02 2.33829822e-02 -2.34074965e-02 -1.36403954e-02
      -1.50362430e-02 -2.32602889e-03 -2.34131999e-02 -4.21654340e-03
      8.23658854e-02 -4.76057001e-04 -3.57190729e-03 2.44211406e-02
      -5.55742858e-03 2.49804626e-03 1.68596730e-02 5.47568221e-03
      6.15072623e-02 -2.81133056e-02 -1.17468927e-02 5.49155995e-02
      -1.05931545e-02 -1.43418519e-03 2.13527214e-02 5.51672711e-04
      -4.56755469e-03 -2.00991193e-03 -5.82972579e-02 1.41254617e-02
      -3.96481939e-02 -8.14201124e-03 -1.29728448e-02 -1.60974488e-02
      -3.62195680e-03 -1.03083197e-02 -3.25362422e-02 1.71847213e-02
      6.32421225e-02 -1.13664381e-02 -1.79814938e-02 -2.17280108e-02
      -1.03665469e-02 -1.09791299e-02 -4.49015386e-03 -1.80592705e-02
      3.33995298e-02 5.27596399e-02 -2.69412026e-02 -3.28596681e-03
      6.47436874e-03 -8.80121067e-03 -2.03188546e-02 -1.03909662e-02
      -7.23253470e-03 -4.08275537e-02 3.46932071e-03 8.80518928e-04
      2.97442582e-02 7.54973665e-03 -1.24391848e-02 1.38674192e-02
      8.92202742e-03 1.33035323e-02 -3.12830284e-02 5.13479263e-02
      2.12404896e-02 -2.61037573e-02 1.06636705e-02 9.48315766e-03
      -1.26907853e-02 -5.28083928e-03 -7.22101051e-03 4.82136675e-04
      6.51144087e-02 3.19271302e-03 -1.23383133e-02 -5.02655795e-03
      8.93658865e-03 -1.03671756e-02 -9.91401379e-04 -3.22613008e-02
      -3.79170775e-02 -2.45389286e-02 3.13638486e-02 6.63021160e-03
      -3.31961503e-03 -5.16223954e-03 1.08279753e-02 -4.41240519e-03
      7.65568810e-04 -2.62387842e-02 1.43683404e-02 8.86517167e-02
      -6.26888201e-02 -3.93489748e-02 1.46488461e-03 2.20271051e-02
      9.87817440e-03 -8.19868874e-04 -8.22838396e-03 1.58033520e-02
      2.51221973e-02 3.11196540e-02 5.29393181e-03 5.98827144e-03
      -4.46380349e-03 2.49476125e-03 -1.19594391e-02 -1.03210658e-02
      -1.95308868e-02 4.93040960e-03 5.00249937e-02 -1.90616667e-03
      3.40900361e-03 -1.20533155e-02 -6.72076177e-03 1.79282506e-03
      -6.96421228e-03 -3.07423044e-02 1.08898189e-02 -4.32415158e-02
      -3.77413258e-02 2.54826881e-02 4.80227433e-02 1.19749820e-02
      2.53368746e-02 7.35858530e-02 -2.09971350e-02 1.48148062e-02
      -8.20344239e-02 -2.26684008e-02 3.63565385e-02 -9.84783936e-03
      1.71366539e-02 5.42069711e-02 5.95351681e-02 -1.30782241e-03
      5.28546721e-02 6.29783720e-02 -1.62967965e-02 -1.18368873e-02
      -7.66503299e-03 -1.10700969e-02 -2.04744413e-02 -4.00231555e-02
      2.56109312e-02 7.99814761e-02 7.34832808e-02 -3.41655873e-02
      1.14336959e-04 9.30882245e-03 1.25982845e-02 -1.35887703e-02
      -3.04773226e-02 4.90412377e-02 2.13041324e-02 -1.12079009e-01
      1.88954715e-02 -1.72610977e-03 2.64577568e-02 1.33443670e-03
      1.05362702e-02 1.22363986e-02 3.87290493e-02 2.71716912e-04
      -9.70439911e-02 7.04656690e-02 3.33412644e-03 6.27715066e-02
      7.63675664e-03 3.21015925e-03 2.61719301e-02 7.20906705e-02
      7.10711032e-02 3.85258794e-02 -4.77439240e-02 1.84397101e-02
      1.45874387e-02 2.33423486e-02 1.99936796e-02 9.45580844e-03
      4.38425019e-02 5.95296361e-02 6.43970026e-03 -3.03648617e-02
      3.44519541e-02 -5.93685126e-03 2.23297905e-02 2.77210050e-03
      1.84725337e-02 2.92277709e-02 2.01620739e-02 -8.80559236e-02
      6.08189553e-02 1.94633268e-02 9.91296843e-02 3.62282097e-02
      2.96403877e-02 2.49453727e-02 4.38001193e-02 -1.61566287e-02
      -4.82848957e-02 -6.76056296e-02 1.55185768e-02 3.10544185e-02
      4.24953029e-02 1.38429683e-02 6.02064058e-02 5.77367619e-02
      -1.30424602e-02 -7.27412999e-02 2.06281096e-02 2.21746229e-02
      1.72190387e-02 4.12936583e-02 3.11393067e-02 5.12282774e-02
      7.13528246e-02 -9.35422182e-02 -1.39697522e-01 -1.48503985e-02
      3.18588205e-02 3.44887041e-02 6.27450570e-02 4.41791527e-02
      6.84753805e-02 2.70883050e-02 -8.80638976e-03 -7.75021091e-02
      -6.02564737e-02 -8.23155139e-03 5.48066534e-02 2.56448369e-02
      2.44301986e-02 8.87491405e-02 9.44063812e-02 -7.05104694e-02
      -1.13973320e-01 7.79993786e-03 2.40397807e-02 6.73244521e-02
      2.71860473e-02 2.99321972e-02 7.67119303e-02 4.69071418e-02</_></support_vectors>
  <decision_functions>
    <_>
      <sv_count>1</sv_count>
      <rho>5.2598854205138057e+00</rho>
      <alpha>
        1.</alpha>
      <index>
        0</index></_></decision_functions></my_svm>
</opencv_storage>
