<?xml version="1.0"?>
<opencv_storage>
<my_svm type_id="opencv-ml-svm">
  <svm_type>C_SVC</svm_type>
  <kernel><type>LINEAR</type></kernel>
  <C>1.0000000000000001e-01</C>
  <term_criteria><epsilon>1.1920928955078125e-07</epsilon>
    <iterations>1000</iterations></term_criteria>
  <var_all>2916</var_all>
  <var_count>2916</var_count>
  <class_count>2</class_count>
  <class_labels type_id="opencv-matrix">
    <rows>1</rows>
    <cols>2</cols>
    <dt>i</dt>
    <data>
      1 2</data></class_labels>
  <sv_total>1</sv_total>
  <support_vectors>
    <_>
      -4.31150496e-02 6.50805095e-03 4.48762029e-02 4.23562946e-03
      2.00686734e-02 1.01715542e-01 5.19257151e-02 -6.22882601e-03
      -7.91973546e-02 -3.10866497e-02 -1.18919667e-02 5.69376871e-02
      6.37633204e-02 5.24809435e-02 2.79626828e-02 4.64792177e-02
      5.45308329e-02 -3.11067607e-02 -6.11026436e-02 5.50156040e-03
      4.69483621e-02 4.83661965e-02 -1.78442860e-03 8.88063982e-02
      2.99553629e-02 -2.30638143e-02 -6.72627240e-02 -3.19819013e-03
      -2.21251547e-02 2.98587400e-02 6.46046028e-02 3.56620438e-02
      1.19321505e-02 -2.24539004e-02 8.04956129e-04 -3.76227945e-02
      3.24192606e-02 5.44088930e-02 5.86109646e-02 2.97813024e-02
      1.30397249e-02 -2.35364754e-02 1.47708040e-02 2.77969409e-02
      9.32526812e-02 -8.30785558e-03 -5.34164114e-03 2.96180826e-02
      8.05193409e-02 4.86133993e-02 -3.99932079e-02 -5.61129786e-02
      3.88848744e-02 8.98968205e-02 2.75245216e-02 -3.55046131e-02
      1.40725300e-02 2.27334294e-02 1.51779186e-02 -4.36220393e-02
      -1.42409587e-02 1.25638191e-02 8.75464007e-02 6.31219298e-02
      2.02800222e-02 2.03619283e-02 3.32496054e-02 5.57810720e-03
      -1.23370178e-02 -4.10812125e-02 1.59342717e-02 7.23526403e-02
      4.32248041e-02 -3.49208117e-02 2.28106957e-02 4.59658764e-02
      5.17165624e-02 4.68280952e-04 -3.49798836e-02 -5.26139140e-03
      8.61053765e-02 3.39352479e-03 -5.73315397e-02 3.11179198e-02
      7.55636543e-02 3.12916525e-02 -5.22012897e-02 -5.14436178e-02
      -7.25811906e-03 1.18539348e-01 6.91780075e-02 3.93688306e-02
      2.20408440e-02 6.35246746e-03 -1.12487255e-02 2.74265781e-02
      -4.22545858e-02 -2.34201290e-02 5.95266558e-02 5.21921366e-02
      6.87515438e-02 4.11146767e-02 4.18994064e-03 -5.37707061e-02
      -9.41300241e-04 -3.57474387e-02 2.95334458e-02 1.11220866e-01
      -1.90996323e-02 -1.81716401e-02 3.44124734e-02 5.68090156e-02
      5.89647964e-02 -4.08049375e-02 -9.46543086e-03 -3.05853542e-02
      7.72153214e-02 -9.75587144e-02 -4.59958054e-02 2.94239689e-02
      5.44932224e-02 6.67637661e-02 -4.48268559e-03 -5.46546690e-02
      -5.20510785e-02 3.33084762e-02 1.95395481e-02 3.09159867e-02
      2.53913589e-02 6.17293417e-02 -9.97696538e-03 -1.64862964e-02
      5.39637953e-02 4.26757261e-02 7.48818517e-02 -5.08622441e-04
      -2.93547437e-02 9.55134258e-03 3.77404131e-02 5.82041889e-02
      3.95528739e-03 4.77306508e-02 2.19430309e-02 7.60047212e-02
      -9.80478078e-02 -2.13079508e-02 2.24544164e-02 4.13548760e-02
      2.60417257e-03 2.03082878e-02 -1.89869180e-02 -5.61688058e-02
      1.71171050e-04 -1.26911253e-02 1.69575103e-02 -2.74283672e-03
      1.81291401e-02 -2.58867815e-02 2.97058094e-02 2.39028456e-03
      -4.65112813e-02 2.38178894e-02 -2.86373794e-02 -4.04810943e-02
      4.68058931e-03 1.28668360e-02 2.86840759e-02 1.96117125e-02
      1.45567330e-02 1.04635106e-02 7.83174187e-02 3.94758955e-02
      1.73730478e-02 3.80139090e-02 2.71506757e-02 4.77766385e-03
      1.49528151e-02 -1.78918652e-02 -2.00756569e-03 4.13167253e-02
      -5.86638525e-02 -2.66690403e-02 4.87883430e-04 -2.78753391e-03
      -2.14589965e-02 2.78272294e-02 8.84804036e-03 -8.29685759e-03
      -4.52999696e-02 3.61599438e-02 -4.91217114e-02 -1.74057775e-03
      1.69830285e-02 7.23662646e-03 3.35707851e-02 1.43263368e-02
      -5.54584377e-02 -1.40500739e-01 9.18221101e-03 1.96208595e-03
      1.16839139e-02 3.50150932e-03 -1.31842215e-02 3.43647450e-02
      1.92812048e-02 -7.10580358e-03 3.56913940e-03 4.82318588e-02
      8.41705650e-02 4.07378143e-03 2.44150478e-02 -1.72614586e-02
      3.85955982e-02 1.56980529e-02 -7.75368065e-02 2.41023637e-02
      3.49424570e-03 -5.23594534e-03 -9.61930200e-04 2.17881636e-03
      3.30361426e-02 3.12918648e-02 6.93316618e-03 -1.79036334e-02
      -1.01811916e-01 1.99862011e-02 -3.21570933e-02 4.84833168e-03
      1.92666408e-02 4.78085540e-02 5.61844409e-02 -8.14671721e-03
      -2.19405163e-02 -9.21279639e-02 8.44162926e-02 5.09171449e-02
      6.33353693e-03 -3.97844648e-04 -8.56883172e-03 1.18920598e-02
      1.28259994e-02 -4.07128073e-02 -6.34391676e-04 7.07698241e-02
      1.64979324e-03 1.03368126e-02 4.82212519e-03 2.26058867e-02
      6.67097326e-03 7.37261027e-03 -6.39314950e-02 4.75863516e-02
      -2.17339676e-02 -7.63691589e-02 9.65217408e-03 1.98582262e-02
      2.41626967e-02 5.21154329e-02 5.28872758e-03 2.16002762e-02
      -7.62111470e-02 6.41309321e-02 -4.25019935e-02 4.35072184e-03
      -2.32962016e-02 3.53146605e-02 5.72199523e-02 6.53501898e-02
      6.94207149e-03 1.49592245e-02 -4.85775247e-03 -3.11308838e-02
      1.20467143e-02 3.03443018e-02 2.16785185e-02 -2.15954464e-02
      3.45247686e-02 1.14001185e-02 -6.90591857e-02 1.22306300e-02
      -9.78417601e-03 1.07980622e-02 4.30275174e-03 1.00202300e-02
      6.20220043e-03 2.01333109e-02 2.21060328e-02 -1.14308000e-02
      5.36471047e-02 3.54560837e-02 1.91765986e-02 -2.27851644e-02
      -4.59118281e-03 3.14863175e-02 3.69086936e-02 -4.22733203e-02
      3.99257615e-02 -1.34804025e-02 3.34250294e-02 5.60078013e-04
      -3.34827532e-03 -6.55712411e-02 2.99578626e-02 4.87770960e-02
      1.00586955e-02 -2.15291474e-02 9.40949321e-02 -6.08100975e-03
      1.55807715e-02 -1.70064643e-02 -2.97604781e-02 1.70918200e-02
      8.06075111e-02 6.50931150e-02 6.61207661e-02 -6.61138594e-02
      1.62168276e-02 -9.75895906e-04 4.38283533e-02 -1.16557874e-01
      4.95745093e-02 6.98711574e-02 1.25727713e-01 1.94593240e-02
      -2.51271892e-02 2.13944390e-02 5.67660742e-02 4.51553576e-02
      -3.38856578e-02 6.10200223e-03 3.20221996e-03 -6.08579535e-03
      -4.33201976e-02 1.41194053e-02 -1.42640471e-02 6.57596588e-02
      8.00683126e-02 3.54188611e-03 -3.66484039e-02 -4.49754186e-02
      -1.54259996e-02 2.13090703e-02 -2.16074958e-02 -1.60869434e-02
      3.05337738e-02 9.81360301e-03 2.61327922e-02 2.03921460e-02
      1.61476359e-02 2.83503029e-02 7.57163065e-03 4.42588180e-02
      5.20663485e-02 7.20700324e-02 3.73342521e-02 1.56038599e-02
      4.74983342e-02 -3.23027708e-02 1.22204600e-02 3.08497474e-02
      7.08124507e-03 2.41212845e-02 4.63813394e-02 3.13891023e-02
      3.99118522e-03 -3.08940019e-02 -2.61936374e-02 -1.65694151e-02
      2.57914122e-02 5.00156470e-02 2.07418054e-02 1.27913291e-02
      -4.19487134e-02 3.77313071e-03 2.22979486e-02 -2.57734116e-02
      -2.70723160e-02 4.02050726e-02 1.86374038e-02 3.89159583e-02
      1.94233153e-02 9.64214839e-03 -7.11004883e-02 2.42287442e-02
      1.54044165e-03 -1.22596957e-02 6.23884890e-03 5.92363812e-02
      3.47763412e-02 1.50269466e-02 -4.93177399e-02 -3.20217274e-02
      4.62649986e-02 -2.28600278e-02 -3.71063948e-02 -9.45452508e-03
      1.93337407e-02 -3.38413985e-03 7.03025889e-03 -1.92858540e-02
      7.88273104e-03 1.69100277e-02 -3.04968171e-02 -3.96350622e-02
      -5.12655219e-03 4.09059562e-02 6.03062250e-02 4.33227271e-02
      6.37465017e-03 -1.11742420e-02 -1.06805647e-02 -2.41697896e-02
      -7.02176988e-03 2.16048565e-02 7.19731748e-02 6.07294925e-02
      -2.10595913e-02 -3.29680592e-02 -2.55910475e-02 2.36110296e-02
      -1.39234550e-02 -3.44624706e-02 6.36452511e-02 3.23227793e-02
      -5.54632582e-02 4.52966383e-03 1.97411161e-02 -7.75997899e-03
      5.16101252e-03 2.68981718e-02 2.19791420e-02 3.78551558e-02
      3.40916216e-02 1.46050733e-02 2.29186714e-02 1.12112295e-02
      -5.52811380e-03 4.13066125e-04 4.92921136e-02 2.46515423e-02
      2.86737476e-02 3.29423286e-02 -3.88459899e-02 -1.52985342e-02
      -2.43071858e-02 -3.57872294e-03 2.98529677e-03 6.03619218e-02
      6.21801615e-02 4.11172397e-02 -2.51662377e-02 -3.10770124e-02
      -2.87803402e-03 4.99148946e-03 8.03797785e-03 -4.23965044e-03
      7.62299895e-02 9.85300988e-02 3.08122877e-02 5.42336069e-02
      -4.32167575e-02 -1.22903718e-03 -8.58229585e-03 -3.22380364e-02
      2.04617400e-02 3.71511765e-02 1.23247959e-01 9.03966799e-02
      2.40265648e-03 -9.01858136e-03 -2.46330928e-02 6.03413302e-03
      -1.53515488e-03 -1.36089716e-02 -1.82168593e-03 2.21471465e-03
      4.95007709e-02 1.77497379e-02 2.83687729e-02 2.49758847e-02
      1.52467825e-02 -4.14271839e-03 -1.24168897e-03 -1.34950466e-02
      5.19094057e-03 1.52334059e-02 3.30397114e-02 7.56898196e-04
      -2.14468921e-03 1.20595340e-02 -6.27040584e-03 -3.40925064e-03
      -3.00413184e-02 2.46283747e-02 9.01813582e-02 2.27187965e-02
      1.13795102e-01 7.06573427e-02 5.93176410e-02 2.80413236e-02
      -1.30454218e-02 -7.14096576e-02 3.01611312e-02 4.20045555e-02
      1.80956610e-02 5.72825707e-02 1.56901442e-02 -3.66777857e-03
      -2.54595000e-03 2.06820685e-02 3.27383098e-03 4.57363576e-03
      -3.21955793e-02 1.82527639e-02 8.47866759e-02 -8.26438237e-03
      3.17627937e-03 -1.06691550e-02 1.19135538e-02 3.63479927e-02
      4.24313964e-03 -2.68167444e-02 2.34172773e-02 9.58243757e-02
      -1.64582413e-02 -1.21213151e-02 9.66599770e-03 1.98605307e-03
      -2.66384371e-02 2.39387117e-02 1.80561095e-02 2.73966813e-03
      -2.09111702e-02 4.50439344e-04 -7.60987680e-03 -1.77362841e-02
      -2.67665815e-02 3.10993707e-03 3.32024880e-02 1.99284740e-02
      6.99414685e-02 3.87536399e-02 2.00111866e-02 5.65410452e-03
      -1.97531711e-02 -5.22380089e-03 2.46554594e-02 -7.99655914e-03
      -1.60857607e-02 6.55010119e-02 -3.91310491e-02 -1.05940718e-02
      -9.55681037e-03 -2.42803209e-02 -5.48972795e-03 -1.80584267e-02
      -3.81471477e-02 3.79596651e-02 6.05076179e-02 4.19240370e-02
      3.68508287e-02 2.36581825e-02 -4.24119681e-02 -4.55541164e-02
      2.25910787e-02 1.59808202e-03 6.31412268e-02 8.78098384e-02
      -9.30372532e-03 2.40361709e-02 -3.43296565e-02 -3.58203128e-02
      -2.70095859e-02 -1.11015057e-02 1.05572961e-01 1.15625538e-01
      1.10113982e-03 -3.71670420e-03 -2.20269174e-03 2.32225545e-02
      9.67168435e-03 -4.46031615e-02 -1.74283853e-03 5.56795932e-02
      -3.63265499e-02 3.70456539e-02 3.61662656e-02 9.63980146e-03
      5.75614069e-03 2.62527280e-02 -4.69944775e-02 2.12684069e-02
      2.72690342e-03 -3.66988406e-02 3.50875333e-02 -7.69701507e-03
      1.78820621e-02 -1.78321805e-02 -3.16461176e-02 -3.04821897e-02
      2.09538843e-02 6.10274859e-02 2.42233034e-02 7.42530674e-02
      9.36781336e-03 2.38627605e-02 -3.07470057e-02 -3.47637683e-02
      -3.38297822e-02 2.89657433e-02 -7.63142556e-02 -1.68167539e-02
      2.18305644e-02 1.29202334e-03 9.80203389e-04 -1.97055582e-02
      -3.02882325e-02 -3.15714888e-02 2.87398677e-02 -1.43862730e-02
      2.69292686e-02 -4.45403904e-02 -1.65178743e-03 -1.98423918e-02
      2.66086194e-03 -5.53310551e-02 1.75046381e-02 5.31929918e-02
      1.59367453e-02 1.12528671e-02 4.21829298e-02 -2.47556549e-02
      2.64854860e-02 1.21819144e-02 -3.07855811e-02 -3.27141359e-02
      1.24298101e-02 -2.11066213e-02 -2.05823395e-04 -3.25527117e-02
      -2.46170387e-02 -5.85470349e-02 3.54541503e-02 -3.14990967e-03
      1.69348195e-02 1.23452306e-01 2.13605575e-02 1.27427676e-03
      -2.11671405e-02 -1.12447832e-02 -1.37863560e-02 -5.45088165e-02
      -9.82929673e-03 3.36226411e-02 1.28403902e-02 1.33557785e-02
      -6.43704226e-03 -1.84103157e-02 3.72921415e-02 5.60105741e-02
      4.70117554e-02 6.95905474e-04 6.53404568e-04 -2.41563786e-02
      8.38749111e-03 3.78017803e-03 -5.28177768e-02 -2.18313355e-02
      4.05398868e-02 -1.21861910e-02 -6.24769740e-03 8.40841904e-02
      -1.10524269e-02 -6.18524253e-02 -3.97977903e-02 -3.72750796e-02
      8.91190302e-03 4.61800918e-02 5.44322245e-02 -5.22240922e-02
      -2.97623128e-02 -5.23736440e-02 -3.69284265e-02 -4.57247049e-02
      1.05280327e-02 4.90037166e-02 4.65838276e-02 -1.60585754e-02
      -5.15640080e-02 5.16117644e-03 1.85044890e-03 -9.15073848e-04
      1.55721679e-02 6.95563927e-02 3.88426110e-02 5.43601476e-02
      5.75415650e-03 2.56797532e-03 4.33118232e-02 -1.83329955e-02
      -5.44842565e-03 -1.84865296e-02 -5.15904883e-03 -9.57119092e-03
      1.28723951e-02 -6.53775558e-02 -1.27971396e-01 -1.97340478e-03
      -9.73405782e-03 7.37420795e-03 3.89680825e-02 -4.16821912e-02
      -2.74671223e-02 2.89282277e-02 5.92673011e-02 6.88034296e-02
      1.12279514e-02 -2.91186012e-02 -7.89440330e-03 3.13323177e-02
      8.64231884e-02 2.26349104e-02 2.61650607e-03 2.30831392e-02
      4.29422148e-02 1.73041373e-02 -3.22073735e-02 -6.10770658e-03
      4.27828580e-02 2.15218682e-02 -6.02922067e-02 -9.43243727e-02
      1.96240060e-02 4.92663123e-02 4.36493289e-03 4.29778779e-03
      1.51683828e-02 7.48074055e-02 3.34090590e-02 1.55813545e-02
      3.79894637e-02 5.86446673e-02 7.85481706e-02 1.24246841e-02
      -5.77462614e-02 -1.91082284e-02 -9.71804187e-03 6.53724521e-02
      -6.03524931e-02 -8.21394548e-02 -3.83964069e-02 -2.41052490e-04
      1.89768244e-02 -5.64223714e-02 5.47335483e-03 1.10453919e-01
      -2.61498289e-03 -2.21066382e-02 -4.69266735e-02 3.30731869e-02
      4.57683066e-03 1.82819143e-02 4.30072658e-02 4.96559069e-02
      5.39434366e-02 5.09955026e-02 -5.68925180e-02 -1.61449313e-02
      2.55031008e-02 -1.84956640e-02 2.86804270e-02 2.72817500e-02
      8.81294236e-02 1.20910458e-01 2.26604398e-02 -8.98944810e-02
      -1.21660881e-01 -3.19421664e-02 1.27305631e-02 3.03398129e-02
      5.21948412e-02 7.46409744e-02 9.21174362e-02 2.56146509e-02
      -3.88108939e-02 5.39750829e-02 5.99159785e-02 3.27460505e-02
      6.27955003e-03 -1.93113647e-02 2.32581962e-02 9.84308645e-02
      5.63406274e-02 -1.01410188e-02 -5.14483778e-03 -2.31076498e-02
      -2.26298696e-03 4.76215413e-04 -6.24469146e-02 8.32820125e-03
      9.52593908e-02 1.07367160e-02 6.69901026e-03 -2.08352935e-02
      2.04754770e-02 3.20657231e-02 4.48724404e-02 -4.61129434e-02
      3.92294079e-02 6.84764758e-02 1.18385471e-01 -1.16571812e-02
      1.15354592e-02 -1.02164336e-02 8.24761987e-02 -3.45983654e-02
      -9.77713838e-02 -8.55039619e-03 1.05346106e-01 2.45814044e-02
      -2.22859289e-02 -2.94314362e-02 -2.09364165e-02 4.04599905e-02
      5.24759591e-02 -1.30249020e-02 5.14786951e-02 4.98847030e-02
      2.44372226e-02 2.05000229e-02 8.66585225e-03 1.40761789e-02
      -1.90558825e-02 5.69536164e-02 -2.94010956e-02 1.44937430e-02
      -1.79866087e-02 5.37328348e-02 -3.68119939e-03 -2.95243300e-02
      -1.24319829e-02 -1.69066880e-02 -2.47548074e-02 -3.16155106e-02
      3.20911407e-02 2.25448962e-02 -1.79396104e-02 -5.00534326e-02
      -1.23883421e-02 -4.36162278e-02 5.40551590e-03 1.11878976e-01
      8.12682286e-02 1.60365365e-02 -1.77119337e-02 4.21550870e-02
      2.65634228e-02 -2.24776193e-02 -3.85625698e-02 2.42011417e-02
      -3.01429685e-02 -8.47032946e-03 -1.08765420e-02 -6.66936999e-03
      -1.87122915e-02 -9.93216969e-03 1.41255476e-03 2.56609544e-02
      -2.43878737e-02 -5.00364266e-02 -2.61775386e-02 -7.07844738e-04
      -1.52350115e-02 6.25839606e-02 -3.11817620e-02 3.07504330e-02
      -3.19059864e-02 -3.08183618e-02 -4.44301665e-02 -2.57175695e-02
      3.56720090e-02 7.80184716e-02 1.10130399e-01 2.00872347e-02
      2.46690474e-02 4.64238338e-02 -4.81268652e-02 -9.97486487e-02
      -6.75524920e-02 3.39508243e-02 6.39468506e-02 6.90028444e-02
      2.46064775e-02 3.04240081e-02 -1.49873877e-02 -3.74096222e-02
      -5.01675978e-02 -6.37462968e-03 4.79007810e-02 9.26263258e-02
      4.38216999e-02 -4.07741964e-03 8.96544009e-03 -3.24240737e-02
      -2.67325975e-02 -1.59713917e-03 1.27981780e-02 5.43592498e-02
      1.45621793e-02 5.67774400e-02 -2.43808571e-02 3.27162072e-02
      -1.47708980e-02 -4.13930342e-02 -3.18738669e-02 3.34578976e-02
      -3.18460353e-02 -3.29245403e-02 -1.02636172e-02 -2.55398341e-02
      -2.43763328e-02 -4.65472490e-02 4.05232161e-02 5.09693697e-02
      6.49127588e-02 5.90813383e-02 8.44804794e-02 2.28725486e-02
      -1.34083899e-02 -2.63793971e-02 -1.05070723e-02 2.87892707e-02
      6.34188578e-02 8.57902095e-02 9.62026790e-02 1.87527817e-02
      1.00883143e-02 -2.80080326e-02 1.99017897e-02 -1.00125149e-02
      -5.69770336e-02 -5.15632816e-02 2.13415474e-02 -6.03208728e-02
      4.53070365e-02 -4.35611233e-02 -1.75885782e-02 -4.54662815e-02
      2.57058181e-02 -4.73518530e-03 7.76181817e-02 8.86267722e-02
      -8.26512091e-03 3.46717425e-02 -2.57567875e-02 1.73775163e-02
      2.27766410e-02 -5.54043390e-02 -2.38584485e-02 -3.79880555e-02
      -6.74012722e-03 -3.67695466e-02 5.09934239e-02 1.44344615e-02
      1.66344866e-02 1.37202186e-03 -8.75532627e-03 2.03635427e-03
      2.08267793e-02 6.05134442e-02 -2.88719311e-02 2.19997931e-02
      -2.81912256e-02 -1.98893771e-02 4.13122997e-02 3.66997235e-02
      -1.93020087e-02 7.08146915e-02 5.58858458e-03 -2.36565191e-02
      -1.87988356e-02 -2.94406004e-02 -1.06938072e-02 4.00915854e-02
      2.35147085e-02 -2.16688048e-02 5.15306070e-02 -8.23864527e-03
      9.83940996e-03 -2.47610118e-02 -2.79079680e-03 -1.11446595e-02
      6.27666246e-03 3.18237580e-02 -2.88585182e-02 4.99086305e-02
      4.58060764e-02 4.08757059e-03 1.34277372e-02 -3.16045657e-02
      -1.74659751e-02 -6.34207623e-03 -8.28403160e-02 -2.54466496e-02
      -8.18530377e-03 1.91065799e-02 1.67987030e-02 -1.60112232e-02
      -8.39725044e-03 2.25744763e-04 4.19605374e-02 -6.78540990e-02
      -7.23254979e-02 7.38059450e-03 -2.14208663e-02 1.58748298e-03
      2.43041404e-02 -1.79466454e-03 -1.48222204e-02 -2.31121760e-03
      4.24858183e-02 1.09185465e-01 8.00614655e-02 -3.61892097e-02
      -2.56013889e-02 2.95935944e-02 -2.56265770e-03 2.28473283e-02
      7.56516308e-02 -9.08557475e-02 -9.56697166e-02 -1.65253207e-02
      -2.48490293e-02 -2.43342165e-02 4.08044644e-03 7.44548626e-03
      6.57631876e-03 3.87861654e-02 -2.29367334e-02 8.28540325e-02
      7.19139948e-02 -1.28484759e-02 -1.43705420e-02 3.94372176e-03
      -1.21230371e-02 -4.05122805e-03 9.65551659e-02 1.12410575e-01
      1.51881143e-01 5.01701832e-02 -2.50317492e-02 -3.55921909e-02
      -3.19004916e-02 6.80189133e-02 -3.12102381e-02 -3.17565240e-02
      -7.20852241e-02 2.26433482e-02 -4.24586982e-03 -3.37852128e-02
      -2.94903730e-04 1.05671845e-01 -5.50218113e-02 -4.14178856e-02
      4.84119318e-02 4.48391140e-02 9.38817635e-02 6.27829507e-02
      2.03196034e-02 -1.93804204e-02 -4.56175245e-02 1.09871505e-02
      -6.16003666e-03 6.65623927e-03 -2.32705120e-02 -5.35856758e-04
      -2.42175627e-02 1.06821442e-02 2.76234299e-02 5.91713609e-03
      -4.61109690e-02 -1.02513641e-01 -7.25067407e-02 -8.56309459e-02
      -4.31634150e-02 3.41676478e-03 4.29417863e-02 6.85789362e-02
      7.26559311e-02 -2.06516720e-02 -2.14807298e-02 7.36851543e-02
      2.84598954e-02 1.94483586e-02 -4.84258123e-03 4.23231870e-02
      1.66109037e-02 1.60487313e-02 -4.14987132e-02 -7.46757761e-02
      1.84058696e-02 -6.52856827e-02 5.77289537e-02 -8.18622336e-02
      1.92317031e-02 3.10128015e-02 3.33312489e-02 -5.50142340e-02
      -2.46844045e-03 3.51566002e-02 3.56621966e-02 7.49804825e-02
      9.04550776e-03 3.02892830e-02 2.65573934e-02 5.49601810e-03
      3.40889469e-02 1.39168464e-02 2.25357302e-02 -1.73930302e-02
      -8.10532738e-03 -4.97408770e-02 -5.26257716e-02 -4.74094879e-03
      4.83659394e-02 -4.16954346e-02 -5.46364608e-05 7.94363368e-05
      -6.06406033e-02 -1.36521952e-02 2.17987746e-02 6.14972375e-02
      6.14396520e-02 1.33727421e-03 3.67001332e-02 4.62095672e-03
      1.19701093e-02 8.16524029e-03 2.76566781e-02 -3.47737819e-02
      -3.88133563e-02 -2.07457691e-02 7.09778592e-02 -3.09568085e-02
      -3.06664798e-02 6.72140941e-02 -9.84019879e-03 3.39373834e-02
      5.36177382e-02 4.10717055e-02 2.26722490e-02 -1.27300425e-02
      -4.66371626e-02 -4.41969186e-02 -1.01225602e-03 -3.26077677e-02
      1.00045511e-02 6.52312487e-02 1.20877296e-01 4.44940515e-02
      -8.62137228e-02 -3.40563953e-02 1.96210411e-03 -3.45539190e-02
      -4.52801101e-02 3.31241786e-02 -5.06740846e-02 -2.72669713e-03
      -3.43646258e-02 -4.45215553e-02 -2.10467875e-02 -4.10527997e-02
      3.41564640e-02 5.47247753e-03 2.85265557e-02 5.25331125e-03
      6.92781359e-02 2.37371735e-02 -6.23749793e-02 2.72150058e-03
      -3.47102992e-03 -6.98971143e-03 -1.18468955e-01 1.09389769e-02
      -5.34097664e-02 -1.70623288e-02 -3.83905657e-02 3.37776653e-02
      2.02881340e-02 4.43252996e-02 7.16760606e-02 3.79937887e-02
      -1.24382991e-02 -8.74510258e-02 -6.80604875e-02 -5.03668096e-04
      -5.05572464e-03 1.70627295e-03 5.36842495e-02 8.33087564e-02
      -2.27428246e-02 2.53159441e-02 -9.66221243e-02 -3.99469845e-02
      2.30587274e-02 8.86189286e-03 -2.52738297e-02 5.38140163e-02
      6.69493973e-02 -1.33081386e-02 -8.07640608e-03 -7.68360049e-02
      -8.27249214e-02 -6.16396219e-02 -2.72927694e-02 -3.84078212e-02
      1.36348773e-02 7.18336031e-02 -2.18369570e-02 2.13946961e-02
      -7.89323971e-02 -3.52188274e-02 -1.89139191e-02 -3.17675620e-02
      -5.07312231e-02 -4.14636582e-02 -3.61466892e-02 -3.63640971e-02
      4.17475142e-02 -1.63745470e-02 4.84446436e-02 3.95807214e-02
      2.32544094e-02 -4.13069949e-02 -3.94239165e-02 -5.17282449e-02
      -1.09214466e-02 1.46875763e-02 -1.01630623e-03 4.03235927e-02
      6.77356869e-02 -6.56199118e-05 -8.99131130e-03 1.33394860e-02
      -1.95343494e-02 2.98031396e-03 1.32939704e-02 -3.75979692e-02
      1.01165541e-01 6.10676371e-02 4.23623100e-02 -2.04840321e-02
      -2.56623700e-02 -8.96716565e-02 -4.44152281e-02 5.17626926e-02
      5.19550033e-02 1.18596666e-01 5.09461015e-02 2.48154945e-04
      -5.01289964e-02 1.70175023e-02 9.97316465e-03 -4.51358892e-02
      -4.50205915e-02 -3.63556296e-02 4.35776450e-03 -1.99767179e-03
      2.27011628e-02 -1.05589489e-02 -3.53609561e-03 3.31950337e-02
      4.74095680e-02 7.99721852e-03 3.20152454e-02 2.35135593e-02
      -5.87983802e-03 -2.61144363e-03 -9.27865505e-03 3.73338647e-02
      -2.65442021e-03 -3.77112970e-04 -7.11677922e-03 -4.73940670e-02
      6.98297694e-02 4.64878939e-02 -1.84703507e-02 -3.71160135e-02
      2.15026196e-02 3.72557603e-02 9.45146829e-02 7.30199292e-02
      -4.54594102e-03 3.18183936e-02 1.11337742e-02 -3.50355208e-02
      2.39234269e-02 2.75962241e-02 3.41385938e-02 2.14885771e-02
      -1.44076822e-02 4.54112478e-02 2.98223048e-02 4.46827244e-03
      1.29059795e-02 -1.15437731e-02 -2.33864635e-02 6.64225826e-03
      -2.98504252e-02 6.61839359e-03 3.19036618e-02 2.05231551e-02
      1.24036539e-02 2.99110562e-02 1.20927915e-02 1.79348886e-02
      3.83294299e-02 5.25629036e-02 -3.31967101e-02 -3.43945064e-02
      -6.44121738e-03 5.48360264e-03 -1.98925864e-02 -1.30608492e-02
      -3.60278711e-02 1.53662749e-02 -3.49371545e-02 -4.64411965e-03
      5.82481846e-02 -1.33906119e-02 -6.62286654e-02 -3.29963234e-03
      -6.01809332e-03 7.05398619e-03 3.52239385e-02 -3.45906913e-02
      -7.65503794e-02 -4.52453382e-02 -1.05333775e-02 -1.81811377e-02
      -4.35487181e-03 -9.54666920e-03 1.95773281e-02 6.92065731e-02
      -2.18464918e-02 9.63472500e-02 2.53751352e-02 1.93605572e-02
      -2.31180843e-02 -6.41572755e-03 -1.38499737e-02 -1.19967584e-03
      9.91257094e-03 4.10362234e-04 -5.43616712e-02 -1.70236509e-02
      -3.77841323e-04 -2.67432407e-02 2.23304960e-03 -3.28678451e-02
      -1.03465570e-02 3.77922952e-02 2.37665214e-02 9.64636281e-02
      4.25102748e-02 2.83538308e-02 1.53605444e-02 -6.12326432e-03
      -3.17794718e-02 -2.31778622e-02 4.07327563e-02 1.98818613e-02
      9.26090181e-02 6.32877797e-02 3.14318873e-02 -1.12494621e-02
      -3.47331427e-02 -2.37618312e-02 -2.16803160e-02 -1.55811878e-02
      -5.84675595e-02 -1.64361298e-02 -6.07800633e-02 -1.67610813e-02
      -7.58422830e-04 -1.70974266e-02 -3.70423310e-02 -3.65043804e-02
      1.62207056e-03 -2.60084234e-02 5.35333343e-02 1.07983559e-01
      6.93773478e-02 1.02754412e-02 -4.82031778e-02 -2.34047566e-02
      -7.25336298e-02 -3.07431687e-02 -8.02713633e-02 3.40395905e-02
      -4.18512188e-02 -1.63295045e-02 -3.31333950e-02 -8.64852965e-03
      -2.92697828e-02 -6.79828525e-02 -3.45477015e-02 -2.22316161e-02
      3.68535481e-02 -5.31319529e-02 -6.34176517e-03 -1.37535259e-02
      -1.69708934e-02 -3.95092815e-02 -8.99373218e-02 3.38044129e-02
      7.17938170e-02 1.26374617e-01 5.29873557e-02 1.31580625e-02
      -4.95704450e-02 -9.45234857e-03 -7.84305185e-02 -5.14922142e-02
      -3.89868878e-02 9.95798223e-03 2.42643021e-02 -1.19549679e-02
      -3.77615914e-02 -1.09567560e-01 -6.44763410e-02 -8.90193731e-02
      -7.85245895e-02 -3.77114862e-02 1.20753281e-01 8.91693383e-02
      7.50659034e-02 8.76780376e-02 -7.56707788e-02 -5.50563484e-02
      2.24436577e-02 -3.01137473e-02 3.89017649e-02 -1.68473218e-02
      6.85165897e-02 -7.37291649e-02 -4.85691987e-02 -3.96588258e-02
      4.16047275e-02 -3.09864841e-02 -2.82479469e-02 6.36380538e-02
      3.39314267e-02 7.69206658e-02 8.39074254e-02 7.65016675e-02
      2.68274657e-02 -4.04559746e-02 -4.31583868e-03 -3.94304618e-02
      -1.88312382e-02 -2.13707797e-02 8.19471572e-03 -7.79709518e-02
      9.68222544e-02 -1.95038021e-02 -9.01946519e-03 -1.80895887e-02
      6.76467121e-02 7.19505921e-02 1.33179827e-02 1.03613004e-01
      5.33281863e-02 1.57853812e-02 -7.30100870e-02 -1.35337770e-01
      -3.63438739e-05 -1.58632956e-02 7.06566051e-02 5.87456152e-02
      7.79219046e-02 9.21053253e-03 2.05668882e-02 4.18887101e-03
      -1.89621132e-02 5.52968383e-02 -1.38700912e-02 -1.71463545e-02
      -1.27165526e-01 5.22765145e-02 -7.66632184e-02 -5.11094928e-02
      -2.96400264e-02 6.28277659e-02 -3.53881679e-02 1.92230125e-03
      1.08062111e-01 9.36957374e-02 1.61855832e-01 1.63492206e-02
      -2.08159201e-02 -7.91383907e-02 -9.52465981e-02 -1.35109639e-02
      -2.72219796e-02 -4.14016321e-02 -6.55345544e-02 1.11339644e-01
      -8.01179856e-02 -2.74993610e-02 -3.00186668e-02 -2.82037072e-02
      -2.19962243e-02 3.34976823e-03 -1.75096840e-02 -3.15263197e-02
      1.69034060e-02 -2.74689663e-02 -8.19028467e-02 -3.86919938e-02
      -5.81628736e-03 -8.83719549e-02 -4.48220968e-02 -4.57387723e-05
      5.42318374e-02 8.73276144e-02 -2.18580216e-02 -3.63601223e-02
      -1.61375217e-02 -3.05778459e-02 -6.36161119e-02 -2.76084468e-02
      -7.68112838e-02 -7.44947121e-02 -3.64514271e-05 -2.50065513e-03
      3.11406720e-02 1.87795870e-02 -1.44131118e-02 -8.21415782e-02
      -7.96331093e-02 -2.05039270e-02 8.31684172e-02 1.45698011e-01
      8.51929486e-02 -2.50113327e-02 -4.38937638e-03 3.58502334e-03
      -3.37345973e-02 -6.49844669e-03 1.09528080e-02 2.68499963e-02
      3.41846645e-02 -8.90386663e-03 4.50221002e-02 6.37351349e-03
      -4.90717329e-02 -4.88408580e-02 -3.24558504e-02 -5.90898432e-02
      3.70201133e-02 3.36826295e-02 2.09542103e-02 9.90967825e-02
      2.29712739e-03 -6.41222075e-02 -1.54661143e-03 1.35484943e-03
      4.14382592e-02 7.58850873e-02 7.92315453e-02 4.65503111e-02
      -3.79001759e-02 -3.90123986e-02 -8.02743807e-02 -3.20052989e-02
      -1.23026380e-02 8.18142965e-02 4.35321853e-02 6.34080321e-02
      -7.66669028e-03 2.61205602e-02 -3.62059847e-02 -1.00703605e-01
      4.94904816e-03 3.39855924e-02 2.15344802e-02 3.22340429e-02
      9.59619787e-03 -7.02865496e-02 3.38230468e-02 1.46008581e-02
      -3.09587549e-02 -2.17717905e-02 9.34567302e-03 1.34326266e-02
      1.45429358e-01 1.18409969e-01 -3.18890028e-02 -3.73214744e-02
      -1.92448534e-02 -4.44717146e-02 3.03241395e-04 7.48807052e-03
      2.54071951e-02 5.07903919e-02 4.17158119e-02 -1.46868052e-02
      -3.57441185e-03 3.47714871e-02 -1.38387755e-02 -2.52457596e-02
      -5.46122063e-03 2.93451995e-02 1.10755622e-01 1.05915293e-01
      1.64268375e-03 -2.85913572e-02 -1.08281169e-02 -1.87283568e-02
      1.64349899e-02 5.53898280e-03 -2.06936704e-04 5.92198707e-02
      -6.97968081e-02 -1.68137401e-02 1.43303955e-02 -1.61668081e-02
      -1.03448620e-02 3.07888980e-03 -1.98355061e-03 3.03661041e-02
      -3.41391303e-02 2.42306502e-03 7.33240023e-02 -2.66026985e-02
      -8.95260572e-02 -1.27239525e-02 3.14368308e-02 -3.90503462e-03
      -1.71889719e-02 1.51568314e-03 -6.38138726e-02 4.68065776e-03
      8.48096609e-02 9.94302332e-03 3.15203033e-02 -3.33974697e-03
      2.96498300e-03 1.70847960e-02 -4.71726805e-02 -2.81747989e-03
      4.65863682e-02 5.19792549e-02 -9.82992724e-02 -3.71997729e-02
      -3.02967336e-02 -2.41671633e-02 -3.18134055e-02 -1.94888934e-02
      -3.31759900e-02 4.39667515e-03 1.56346466e-02 -3.01622450e-02
      1.37426984e-03 -2.02752873e-02 -3.55902053e-02 -2.44913585e-02
      -8.36806651e-03 6.54401928e-02 4.47252430e-02 4.59666736e-02
      2.89569795e-02 8.15830659e-03 -9.14074481e-03 -4.67871539e-02
      -1.30730011e-02 -2.64283549e-02 -3.79263274e-02 -1.50232967e-02
      6.44607097e-02 -5.02722105e-03 -1.33630086e-03 5.43690799e-03
      -7.25456700e-02 2.39677000e-04 -6.70820847e-02 3.08283344e-02
      5.98998778e-02 3.39833014e-02 7.40016252e-02 5.28014153e-02
      -1.67233553e-02 -2.79662982e-02 -2.37332042e-02 -5.16769104e-02
      1.17209954e-02 8.25552344e-02 4.36413512e-02 3.27766761e-02
      -3.44559327e-02 -1.92516297e-02 -1.83020085e-02 -2.49480736e-02
      -6.69361055e-02 3.29635628e-02 -3.48058902e-02 -3.20484042e-02
      -6.58553019e-02 -2.72887740e-02 -3.25869434e-02 -4.71528843e-02
      -4.94739413e-02 -5.43169044e-02 3.51346843e-02 8.28562528e-02
      5.06419390e-02 1.79983173e-02 1.14200311e-02 -2.20045839e-02
      -1.99931860e-02 -3.79123166e-02 -6.33349642e-02 4.28551957e-02
      1.84748191e-02 5.96487662e-03 -8.00918043e-02 -6.11285046e-02
      -3.52616049e-02 1.61747318e-02 1.02309445e-02 -2.05885014e-03
      -3.52584235e-02 5.96723333e-02 1.94229314e-03 -1.05156913e-01
      -6.18225299e-02 -6.07705861e-02 -9.47318692e-03 1.05719045e-02
      6.99944496e-02 2.31939796e-02 2.03786194e-02 1.24357387e-01
      4.81232489e-03 -6.84328824e-02 -2.73074899e-02 5.49727790e-02
      4.53146286e-02 -1.10884300e-02 -2.88571324e-02 5.39452471e-02
      3.86606120e-02 -1.33736953e-01 -8.04342777e-02 -6.29367381e-02
      4.45713773e-02 1.04077220e-01 2.06877254e-02 -4.42153178e-02
      -2.38603521e-02 7.43094832e-02 4.80142497e-02 -1.29214739e-02
      1.95644964e-02 2.40964424e-02 1.88753214e-02 -5.65549871e-03
      -5.19164838e-02 -8.72736871e-02 8.31801891e-02 1.26656909e-02
      -2.92814225e-02 1.63378343e-02 1.13325849e-01 8.01773295e-02
      2.32711993e-02 5.01367375e-02 3.86925228e-02 9.25629679e-03
      -5.06385975e-02 -1.17776424e-01 3.51848863e-02 7.84919783e-02
      1.60943754e-02 4.96176705e-02 -4.32148874e-02 -1.01708710e-01
      4.88175228e-02 7.60901868e-02 1.75846200e-02 -2.81039700e-02
      1.07629813e-01 4.36692685e-02 2.73367278e-02 6.30832389e-02
      5.15651144e-02 -3.72924958e-03 -7.45869055e-02 -1.14313461e-01
      9.88223241e-04 3.22833918e-02 9.17614996e-02 2.20577419e-02
      7.75264427e-02 2.51633078e-02 2.78904829e-02 -6.28004596e-02
      -5.46936691e-02 -5.27060255e-02 -4.55034375e-02 -6.29634177e-03
      -5.27993254e-02 3.81939337e-02 -8.15724209e-02 -2.82952446e-03
      -8.61492939e-03 -1.26884773e-03 -9.62324589e-02 -2.71162367e-03
      8.20762217e-02 2.92622074e-02 1.68857947e-02 7.73561522e-02
      5.51585443e-02 -8.34355205e-02 -1.05449177e-01 -4.91921231e-02
      -2.74007041e-02 1.75215229e-02 -3.57975140e-02 3.47846486e-02
      4.14126068e-02 9.52279791e-02 4.33813594e-02 5.65548502e-02
      -8.59164745e-02 -5.84991165e-02 -4.15503494e-02 -6.34779036e-02
      -6.21793270e-02 -6.16204590e-02 6.40636533e-02 1.29518462e-02
      -1.86697803e-02 -3.64670418e-02 -6.05211332e-02 -3.01974211e-02
      2.37577818e-02 5.15290983e-02 1.77732222e-02 2.12845672e-02
      5.28941746e-04 6.48799399e-03 -5.19342422e-02 -5.24277166e-02
      6.78846613e-03 -7.28478879e-02 -7.50660375e-02 -4.02988791e-02
      7.68806115e-02 6.41790926e-02 2.96717547e-02 3.69114950e-02
      -5.32786408e-03 9.54259261e-02 -1.55453654e-02 -6.06206581e-02
      -7.46728182e-02 1.06249610e-02 3.68749015e-02 4.39173914e-02
      3.94647047e-02 2.92617641e-02 3.72833386e-02 7.32059553e-02
      8.71508196e-03 2.25080666e-03 -1.17640151e-02 -3.06724813e-02
      -4.80582230e-02 -6.02554996e-03 2.07466278e-02 5.02478108e-02
      1.55018549e-02 -3.84792611e-02 -5.17779738e-02 -3.64860669e-02
      -1.89745985e-02 -7.62233734e-02 5.56635037e-02 3.67900319e-02
      5.82440868e-02 5.48892617e-02 -4.27242406e-02 -5.05296141e-02
      -1.46395639e-02 -3.09090242e-02 -8.96324217e-03 1.86656583e-02
      3.35759558e-02 2.31622136e-03 -3.89370136e-02 -4.36051711e-02
      -7.99810439e-02 -4.15498018e-02 -1.19392034e-02 -3.09857689e-02
      -2.24400144e-02 7.73099670e-03 -8.41259141e-04 -4.50642034e-02
      -3.79501618e-02 -4.06889096e-02 3.52302939e-02 5.83426096e-02
      -3.04507418e-03 -3.70420106e-02 -2.02815812e-02 1.45858647e-02
      5.44450916e-02 4.41384055e-02 1.83413588e-02 7.72440387e-03
      -1.07354010e-02 -2.14350726e-02 -3.83661427e-02 -2.09794100e-02
      -3.95561183e-05 -1.71601512e-02 2.80094389e-02 2.00098474e-02
      6.98738992e-02 4.89548817e-02 3.37842759e-03 -4.81921658e-02
      -1.86115988e-02 -2.61011790e-03 -9.87326540e-03 3.37197520e-02
      5.81089109e-02 1.13236252e-02 5.93299791e-03 -2.13625077e-02
      8.43624771e-03 -4.21255548e-03 -4.68462966e-02 -8.85473099e-03
      -7.70222843e-02 -1.22511312e-02 7.06579685e-02 1.55306980e-02
      6.59150584e-03 2.84337532e-03 -8.86392314e-03 -1.57943089e-02
      -6.85099803e-04 -1.28058833e-03 1.22849653e-02 4.90136333e-02
      4.39263135e-03 -4.95698415e-02 8.25280789e-03 -1.29752327e-03
      -3.27535905e-02 -8.23730510e-03 -3.56517583e-02 -4.98333871e-02
      3.06554474e-02 2.38661747e-02 -9.52412665e-05 -1.63381454e-02
      -1.18566621e-02 -1.32571552e-02 6.39200509e-02 4.96758632e-02
      2.41804291e-02 -3.18327267e-03 1.43132620e-02 -6.49544448e-02
      8.62230919e-03 -2.58610137e-02 -1.85265057e-02 -5.31427003e-03
      -6.70564845e-02 -5.60470577e-03 5.69186322e-02 9.01315920e-03
      8.56208894e-03 -1.58684682e-02 -4.66073677e-02 -1.03525743e-02
      6.83734939e-03 -1.42123355e-02 -2.34440155e-03 3.16829011e-02
      1.63158437e-03 7.01122079e-03 -1.37136141e-02 -2.21951157e-02
      1.37710967e-03 3.07863373e-02 -4.11348790e-03 6.66233385e-03
      3.26544009e-02 5.43388501e-02 5.19961771e-03 8.81478004e-03
      -3.20156924e-02 -4.24485169e-02 5.93714193e-02 7.00398833e-02
      3.68088447e-02 1.40787354e-02 -9.43601970e-03 6.88684033e-03
      -2.17073727e-02 -5.77625521e-02 -4.42201570e-02 -2.58630179e-02
      3.17205340e-02 5.91276512e-02 2.98273712e-02 -1.25705274e-02
      9.14054178e-03 -4.13322778e-05 -4.67295460e-02 -4.90005538e-02
      -5.23247309e-02 -2.72692088e-02 4.85607125e-02 8.62227753e-02
      -3.13873328e-02 -2.42214669e-02 -1.65542495e-02 -5.70410006e-02
      -5.78839630e-02 -7.90156517e-03 9.75287054e-04 3.08435094e-02
      1.75911151e-02 8.15995689e-03 1.98283442e-03 -3.26979458e-02
      -1.48681765e-02 -3.60461473e-02 -3.96105573e-02 -1.65887065e-02
      9.99404639e-02 8.99450406e-02 3.14097404e-02 1.51852351e-02
      3.41190509e-02 3.93986553e-02 7.86858723e-02 -1.29549475e-02
      -2.36903913e-02 2.42603961e-02 9.44486856e-02 -8.48888457e-02
      -2.72597689e-02 3.04048210e-02 4.62113246e-02 9.82979313e-02
      3.70761007e-02 3.02634761e-02 -3.07951681e-02 8.19057673e-02
      7.37044886e-02 1.08537739e-02 -2.93967538e-02 1.62557214e-02
      2.46738233e-02 5.90918493e-03 8.36542435e-03 -3.89220230e-02
      1.27525806e-01 3.28971185e-02 -4.32008542e-02 3.95960063e-02
      5.09079210e-02 3.30808908e-02 7.15318993e-02 5.40490672e-02
      -1.63360462e-02 4.97524180e-02 8.57079774e-02 2.15289779e-02
      8.34725872e-02 3.13532315e-02 -5.32561587e-03 4.08602245e-02
      -1.85485389e-02 -1.11399204e-01 -1.06738217e-03 5.44809327e-02
      4.73354645e-02 8.02958459e-02 8.13022032e-02 -2.41206749e-03
      1.25696827e-02 1.77356843e-02 -8.05267412e-03 -2.81853732e-02
      -4.86548319e-02 -2.05845921e-03 1.47457808e-01 -2.43844301e-03
      -8.57053846e-02 5.80557110e-03 1.30250221e-02 -4.33768369e-02
      -2.35476810e-02 5.81791624e-02 1.07987463e-01 1.45349368e-01
      3.46075110e-02 -2.71163788e-02 -1.69215200e-03 5.76325022e-02
      2.55083852e-02 1.62757877e-02 -1.68465450e-02 1.00640729e-01
      -3.68710048e-02 -9.09043197e-03 8.61882605e-03 1.02283619e-02
      2.42254082e-02 5.70017770e-02 5.84661737e-02 -5.14296032e-02
      3.19456030e-03 2.13422738e-02 -1.34550054e-02 -4.89006154e-02
      -5.69518879e-02 6.09024940e-03 9.04241279e-02 6.56290501e-02
      4.42732424e-02 1.28055617e-01 5.04207872e-02 5.19573130e-02
      -3.14717591e-02 -4.72266898e-02 1.61358994e-02 5.10225669e-02
      -3.55531052e-02 -2.97120940e-02 2.82138400e-02 1.09373972e-01
      8.66696090e-02 -4.64773066e-02 -5.45751750e-02 4.44785180e-03
      6.82754070e-02 4.26060148e-02 1.00133359e-01 1.49273992e-01
      -2.40133274e-02 1.08663235e-02 6.97329501e-03 -6.36335462e-02
      -4.03399915e-02 -1.99565873e-03 1.93475317e-02 2.81127226e-02
      3.48538160e-02 4.58055437e-02 -1.47471689e-02 9.66110528e-02
      6.42083213e-03 -4.91420403e-02 -2.52062734e-02 2.04636753e-02
      -7.96705298e-03 2.34527905e-02 -1.48004638e-02 -8.50297417e-03
      -1.32167013e-02 -3.66098210e-02 -2.58323904e-02 2.01696195e-02
      6.41840994e-02 -4.10749391e-03 8.95990990e-03 6.10230025e-03
      -2.00045109e-02 1.02994546e-01 1.08096292e-02 -2.34079305e-02
      -3.82665135e-02 5.37612699e-02 1.37805995e-02 -5.07853739e-02
      5.85623905e-02 2.41644830e-02 1.21423811e-01 4.96912189e-02
      -3.35895689e-04 -3.33747454e-02 -1.04705170e-02 -3.20999622e-02
      1.33262044e-02 5.64973578e-02 3.07737347e-02 -4.81594726e-02
      -3.28296260e-03 -1.21674743e-02 -5.08128367e-02 -2.22111046e-02
      -1.34270815e-02 2.23626290e-02 3.04024690e-03 -6.31145854e-03
      9.05355439e-02 6.04268983e-02 -6.49320474e-03 -3.30140963e-02
      1.19899330e-03 -1.02807407e-03 7.79054826e-03 1.13409087e-02
      1.13335513e-02 -4.06406224e-02 -4.55129407e-02 6.91631343e-03
      2.51775631e-03 -4.83720116e-02 -4.30531465e-02 9.06715170e-03
      -4.05149050e-02 -2.42557209e-02 -3.89797129e-02 -2.99738254e-02
      -2.32024007e-02 -1.23055400e-02 3.18938345e-02 1.06301298e-02
      -5.56165352e-03 -3.46262902e-02 1.32054454e-02 4.63343635e-02
      -3.57083743e-03 5.84388301e-02 -8.06070678e-03 -1.29151465e-02
      -2.36706212e-02 -2.53272448e-02 -3.06838471e-02 3.95896658e-02
      6.96898028e-02 5.52299321e-02 -2.53272671e-02 -5.09685427e-02
      -2.64597256e-02 -3.50086279e-02 -4.88154516e-02 -2.62402687e-02
      5.17473221e-02 1.44038290e-01 1.03997797e-01 -2.01032609e-02
      -8.62534791e-02 -4.07056324e-02 -3.28642726e-02 -6.67978525e-02
      -9.13066324e-03 -2.46277894e-03 -2.06480343e-02 1.36308791e-02
      -3.69966030e-02 1.59033749e-03 1.77048910e-02 7.46453227e-03
      -5.09225938e-04 -7.44165666e-03 1.72525067e-02 2.02703103e-02
      7.69048408e-02 5.64592145e-02 6.25837371e-02 5.48629963e-04
      3.02728992e-02 -4.09005284e-02 -3.77516896e-02 -1.97794139e-02
      1.64384097e-02 2.70449538e-02 1.44869741e-02 1.56449992e-02
      -3.06125917e-02 2.02504378e-02 -4.65094261e-02 -7.58486614e-02
      9.77111235e-03 9.50186700e-03 4.46624085e-02 -1.54150743e-02
      2.62875278e-02 5.59493992e-03 1.88194215e-02 -4.81589176e-02
      -4.21677902e-02 -1.83496606e-02 4.28972300e-03 9.93475132e-03
      4.63087223e-02 2.30880696e-02 6.10409528e-02 5.94349727e-02
      -3.51000316e-02 -4.22482528e-02 -3.68515514e-02 -1.59763582e-02
      5.24952002e-02 8.45041350e-02 2.62027849e-02 5.98899312e-02
      2.85024219e-03 -1.94169078e-02 -8.79867077e-02 4.74325498e-04
      -1.11229718e-02 -8.77266284e-03 8.58715642e-03 -6.17241813e-03
      9.32632685e-02 5.39519042e-02 -8.76034945e-02 -1.39171509e-02
      -1.17098382e-02 -2.36577820e-02 4.48448118e-03 1.99567787e-02
      3.25204879e-02 5.01452498e-02 3.36891003e-02 2.97119580e-02
      -2.39542332e-02 -2.33649798e-02 -4.74997684e-02 -2.50884127e-02
      -2.46838070e-02 -2.15383898e-02 2.81920861e-02 5.10579580e-03
      -6.31251419e-03 -8.37968290e-03 -1.04196118e-02 -3.29654478e-02
      -2.80054361e-02 6.26308378e-04 3.08022578e-03 9.07310471e-02
      8.14745016e-03 -1.19033689e-03 -7.28425453e-04 -3.33141885e-03
      -3.52101550e-02 -2.75643002e-02 1.80328891e-04 -2.41910368e-02
      -1.35490661e-02 2.25600936e-02 4.66945246e-02 2.11905651e-02
      1.16687762e-02 -4.91806455e-02 -3.55119631e-02 2.76205447e-02
      2.47317879e-03 3.54363434e-02 6.02514893e-02 -3.32793267e-03
      1.11994389e-02 2.93439012e-02 1.29300142e-02 -1.36088086e-02
      -8.41449760e-03 -4.76062745e-02 6.71439245e-02 3.87562811e-02
      -1.20469935e-01 5.76112070e-04 3.64139229e-02 4.77349050e-02
      9.28847305e-03 -3.73069406e-03 -6.77431747e-02 7.93652888e-03
      7.75480270e-02 -1.04461368e-02 9.21797231e-02 6.73198923e-02
      -2.40278766e-02 -2.07034927e-02 -1.51179908e-02 -2.83461772e-02
      5.65518737e-02 9.58671644e-02 -5.48564866e-02 5.48883714e-02
      7.01683760e-02 9.88282636e-02 -1.68299340e-02 -1.60603207e-02
      -8.33099335e-02 3.07787086e-05 6.10642098e-02 6.00016080e-02
      3.03368587e-02 -8.24653823e-03 -9.05778855e-02 -1.26230912e-02
      -4.52806242e-03 -4.30257954e-02 -4.75068875e-02 4.49217893e-02
      5.27926497e-02 5.49897887e-02 4.63678427e-02 -4.27361727e-02
      -4.49207760e-02 3.09437257e-03 -1.31202750e-02 -4.08998206e-02
      3.86476307e-03 8.37175325e-02 1.09467268e-01 7.49140605e-02
      2.95225326e-02 -1.39768124e-02 -4.10848111e-03 -5.28018326e-02
      -3.10157519e-02 6.84921965e-02 1.18753567e-01 2.34502032e-02
      4.63272631e-02 4.45695296e-02 -6.65181549e-03 -5.96642587e-03
      -2.79360805e-02 5.64408675e-02 3.30615938e-02 8.40337276e-02
      4.87094335e-02 5.27768657e-02 -6.00104779e-03 -7.86833465e-02
      -1.52601302e-02 3.46401967e-02 -5.24758250e-02 -4.61631780e-03
      -1.81951933e-02 1.13552980e-01 6.50298074e-02 -1.62956566e-02
      -5.98744303e-02 1.43864397e-02 4.45737019e-02 3.44379880e-02
      3.37528214e-02 9.44259763e-02 -1.64636988e-02 2.26862207e-02
      3.00202183e-02 -5.78363575e-02 -4.43455763e-03 1.02285827e-02
      3.77791934e-02 4.91278172e-02 1.38692446e-02 8.82660821e-02
      5.95700815e-02 1.07055996e-02 -4.20709290e-02 6.81366352e-03
      4.79609594e-02 7.91752636e-02 9.71652865e-02 6.79870993e-02
      1.01213334e-02 5.06608263e-02 -2.16102451e-02 -2.46859454e-02
      -3.39456163e-02 2.52445024e-02 9.67723802e-02 3.33062932e-02
      5.63063100e-03 -2.30750814e-02 8.57370719e-03 3.79637852e-02
      1.13179376e-02 -5.31414896e-02 -1.75734982e-02 4.06753272e-02
      8.22055414e-02 3.57615054e-02 6.40158658e-04 6.60121366e-02
      -3.21664214e-02 -2.12760065e-02 -5.14847524e-02 3.38543281e-02
      1.47913188e-01 4.55462933e-02 -3.58619466e-02 -1.93331614e-02
      -2.99157784e-03 4.34918795e-03 2.57568788e-02 -6.34398311e-02
      1.67039558e-02 1.99525021e-02 7.37124085e-02 4.21131700e-02
      -1.82727799e-02 -3.54657173e-02 3.88286375e-02 3.41083333e-02
      -1.31488843e-02 -1.54616348e-02 -3.00284624e-02 1.29667390e-02
      2.58827731e-02 2.99316179e-02 7.61422515e-02 2.93887276e-02
      -4.03061649e-03 5.07673994e-03 -1.54944379e-02 -4.52975631e-02
      -3.47554795e-02 -9.39140655e-03 3.77228782e-02 -1.46758799e-02
      4.25593108e-02 2.16060393e-02 1.38883190e-02 -2.15359852e-02
      -5.12944125e-02 2.47444375e-03 3.64781283e-02 2.56940536e-02
      6.80784211e-02 8.41031000e-02 3.09437774e-02 -2.11943332e-02
      -2.36031245e-02 -4.62384820e-02 -5.66155091e-02 -8.40360206e-03
      2.02722591e-03 9.41004828e-02 1.31375030e-01 9.08800438e-02
      -1.04330247e-02 -5.19697592e-02 -3.37048434e-02 -2.56109387e-02
      -7.09795207e-02 2.02006511e-02 5.25804460e-02 1.38144806e-01
      1.26244292e-01 -6.51752651e-02 -9.59303156e-02 -5.08243218e-02
      -3.08478102e-02 -6.99651837e-02 5.48463315e-02 9.39172655e-02
      1.36656880e-01 4.95455563e-02 1.62123870e-02 -5.31600192e-02
      -2.87092980e-02 -4.45615537e-02 -3.84564176e-02 -6.40347926e-03
      1.92737132e-02 1.25709370e-01 5.14649153e-02 -3.24739292e-02
      -1.08362056e-01 -4.55441959e-02 -4.92851809e-02 -8.70657787e-02
      2.28009298e-02 -9.68860555e-03 2.88523771e-02 1.85616910e-02
      4.87960596e-03 3.80477719e-02 2.69351974e-02 -3.50690796e-03
      -4.56022248e-02 -5.03214970e-02 -3.30545544e-03 4.41116318e-02
      1.17243417e-02 -2.14341227e-02 3.59039307e-02 3.88561562e-02
      3.58424373e-02 -1.77518744e-02 5.11011332e-02 -6.56498538e-04
      5.80452243e-03 -3.45126390e-02 1.81247182e-02 5.98465744e-03
      8.40558577e-03 -3.02996263e-02 -4.53865975e-02 5.28082997e-03
      4.18699376e-04 3.18791233e-02 -8.93537775e-02 -1.06224827e-02
      6.23131096e-02 4.97107245e-02 9.75761842e-03 -3.55136245e-02
      -6.40097782e-02 -1.11366820e-03 -2.78992113e-02 2.49651577e-02
      -1.13468645e-02 -7.38447858e-03 5.76983169e-02 5.75110726e-02
      2.65132226e-02 7.38978107e-03 -2.08859220e-02 -1.56647153e-02
      -1.49758020e-03 -2.57939268e-02 7.60249235e-03 8.50728676e-02
      7.20656812e-02 1.39846936e-01 -4.33074124e-02 1.40416119e-02
      4.54529794e-03 -5.83243836e-03 4.94705439e-02 1.43630058e-02
      6.52999878e-02 2.40823068e-02 3.32410894e-02 5.14742732e-03
      -2.39908360e-02 -2.84664985e-02 4.15964657e-03 -3.40376906e-02
      -1.70211606e-02 4.06110696e-02 3.62148173e-02 7.48347193e-02
      6.23750389e-02 1.81155698e-03 -1.75953321e-02 -8.85441154e-03
      1.43028535e-02 2.99315788e-02 -1.96010172e-02 7.53765106e-02
      8.76026973e-02 9.06087160e-02 2.22796202e-02 -1.04667405e-02
      1.50419623e-02 2.83724815e-02 6.84055686e-02 2.80779675e-02
      1.24930099e-01 4.85705920e-02 -1.50751946e-02 -1.76564697e-02
      -3.49727906e-02 -2.05115527e-02 -8.94598216e-02 -8.28147028e-03
      7.53532071e-03 2.42585838e-02 1.20248161e-02 2.97114644e-02
      -2.24134326e-02 -7.64291454e-03 9.74427850e-04 -7.14767501e-02
      -1.88245475e-02 1.46395685e-02 7.53709227e-02 3.82625684e-02
      7.95744061e-02 -3.23097128e-03 -1.89404804e-02 -2.60280678e-03
      1.74307509e-03 -1.17440792e-02 4.76993248e-02 7.13303611e-02
      -2.71983743e-02 9.79758278e-02 6.93912581e-02 9.01989713e-02
      -1.75443990e-03 -2.22277436e-02 -3.45251821e-02 -2.32541747e-02
      4.00135368e-02 6.97818696e-02 2.58387923e-02 2.70756194e-03
      1.16625084e-02 5.32221841e-03 -3.09550613e-02 -1.17386729e-02
      -7.11525138e-03 -6.59159478e-03 -9.49493200e-02 7.90402591e-02
      4.10421379e-02 6.19681515e-02 -1.68903265e-02 -7.87812844e-02
      2.67530177e-02 -2.22054292e-02 -9.49125662e-02 2.60393079e-02
      1.05595991e-01 1.67213511e-02 7.39511251e-02 9.65820812e-03
      2.43975427e-02 -2.46551656e-03 -1.96406636e-02 -9.25483089e-03
      8.96113738e-02 4.12422568e-02 6.82868576e-03 3.96111831e-02
      2.63208468e-02 4.78037857e-02 -2.02859361e-02 6.80451766e-02
      -1.32732023e-03 4.48720381e-02 7.20299408e-02 -2.99790055e-02
      5.57084605e-02 -2.04473012e-03 -9.93575603e-02 6.57393876e-03
      4.50460948e-02 -9.12232026e-02 -3.44472639e-02 -1.84805393e-02
      -5.53883612e-02 2.53779460e-02 4.94957343e-02 -9.24370736e-02
      3.88647965e-03 2.04929244e-02 -1.38305826e-02 -9.44088586e-03
      -6.39991537e-02 2.18249485e-02 2.91712824e-02 4.51733451e-03
      3.13372724e-02 1.99463069e-02 3.04705463e-02 5.55685442e-03
      5.10492735e-02 9.55191106e-02 7.48759368e-03 9.02742147e-03
      -8.33490770e-03 1.24829970e-02 2.20302939e-02 6.55513108e-02
      9.80825797e-02 1.32771134e-01 -1.03021324e-01 -8.91498327e-02
      5.18445810e-03 3.67906205e-02 -3.09859198e-02 4.65860553e-02
      5.51417209e-02 -5.68534918e-02 -3.43902111e-02 8.27955361e-03
      -9.31851789e-02 -3.23535688e-02 1.89111475e-02 -8.81137773e-02
      -6.27935957e-03 1.97977223e-03 -3.96976694e-02 3.07336412e-02
      2.05636453e-02 1.00302203e-02 -2.61348765e-02 -5.40204579e-03
      -3.82357719e-03 2.70950533e-02 9.19151008e-02 6.44464269e-02
      8.85433778e-02 8.99666082e-03 2.56851595e-03 7.74023077e-03
      4.92865145e-02 -4.98829363e-03 1.87194124e-02 7.75922369e-03
      1.01203568e-01 5.91105334e-02 -5.08322008e-02 -7.38255680e-02
      -4.15582657e-02 1.15235616e-02 -8.71201456e-02 7.22703151e-03
      -1.08684646e-02 -4.84956807e-04 4.99083102e-02 -8.09795484e-02
      -7.72491023e-02 -1.28802285e-03 7.03026950e-02 -1.91876348e-02
      2.42793728e-02 -1.85513254e-02 6.62555471e-02 7.77424686e-03
      1.99190341e-02 -8.23482522e-04 4.59103547e-02 1.33200791e-02
      2.89131142e-03 -3.12866922e-03 -2.44247913e-02 -1.31965918e-03
      1.80956386e-02 6.54060254e-03 4.59358655e-02 9.56401005e-02
      7.50731258e-03 -5.23977242e-02 -4.82308082e-02 -1.07630221e-02
      -7.55010918e-02 6.62328163e-03 -5.38292639e-02 -1.29308738e-03
      3.27575319e-02 -7.25313148e-04 2.95406822e-02 3.16773355e-02
      -1.64965652e-02 8.72301031e-03 1.65157504e-02 -1.22497585e-02
      9.05062631e-03 7.71401301e-02 -3.86479758e-02 -2.99600866e-02
      -4.85878699e-02 2.56264340e-02 -4.15075757e-02 2.58317534e-02
      1.10240005e-01 9.90123600e-02 1.02446176e-01 6.10180162e-02
      -8.79335403e-03 -4.17363755e-02 -3.52287223e-03 -9.98151116e-03
      2.09988747e-02 -8.34137725e-04 1.11296372e-02 8.23543295e-02
      8.62341523e-02 -1.96134746e-02 -5.44754639e-02 -4.21307310e-02
      -1.64270177e-02 -2.72446480e-02 8.87386501e-02 3.62451971e-02
      8.35515410e-02 4.43574265e-02 -5.23608923e-02 -6.82086200e-02
      9.52175632e-03 1.63809117e-03 4.89964187e-02 -2.49985121e-02
      -1.09963298e-01 -2.32637990e-02 6.03760146e-02 -9.69894454e-02
      -6.60522431e-02 -2.30262149e-02 -2.53691524e-02 -8.67750123e-03</_></support_vectors>
  <decision_functions>
    <_>
      <sv_count>1</sv_count>
      <rho>4.5623300507226769e+00</rho>
      <alpha>
        1.</alpha>
      <index>
        0</index></_></decision_functions></my_svm>
</opencv_storage>
