<?xml version="1.0"?>
<opencv_storage>
<my_svm type_id="opencv-ml-svm">
  <svm_type>C_SVC</svm_type>
  <kernel><type>LINEAR</type></kernel>
  <C>1.0000000000000001e-01</C>
  <term_criteria><epsilon>1.1920928955078125e-07</epsilon>
    <iterations>1000</iterations></term_criteria>
  <var_all>2916</var_all>
  <var_count>2916</var_count>
  <class_count>2</class_count>
  <class_labels type_id="opencv-matrix">
    <rows>1</rows>
    <cols>2</cols>
    <dt>i</dt>
    <data>
      1 2</data></class_labels>
  <sv_total>1</sv_total>
  <support_vectors>
    <_>
      -1.67475641e-02 -2.81014689e-03 2.33459026e-02 2.48795142e-03
      1.08983591e-02 1.89771801e-02 2.57040691e-02 4.71095368e-03
      9.94335115e-03 1.17382733e-03 -2.11671786e-03 3.37722227e-02
      1.49848666e-02 1.39416335e-03 -3.37448753e-02 2.80205812e-03
      1.62192509e-02 6.93853153e-03 7.14017486e-04 -2.05766670e-02
      -4.18073637e-03 -1.01799257e-02 -2.04873476e-02 2.76118629e-02
      1.43494019e-02 1.65326223e-02 1.89019684e-02 -8.66242032e-03
      -4.71261330e-03 -6.76087989e-03 -6.07253052e-03 1.15504283e-02
      1.25836942e-03 9.92401689e-03 3.58648133e-03 -1.55002042e-03
      8.59186170e-04 2.94120423e-02 3.73093821e-02 1.54918171e-02
      2.63285544e-03 -1.24241579e-02 -5.55332238e-03 5.20794839e-03
      3.84626002e-03 -1.05029531e-02 -2.52337363e-02 1.60139296e-02
      1.40804322e-02 -4.34795348e-03 7.78988749e-03 -8.51116050e-03
      -1.22690259e-03 1.61001813e-02 -1.40490234e-02 9.94566921e-03
      4.26158458e-02 3.58621925e-02 8.04081373e-03 4.55260649e-03
      4.54035867e-03 -1.87479041e-03 -9.12637915e-03 -2.47946773e-02
      -3.19853518e-03 2.65332460e-02 1.80120599e-02 6.75811199e-03
      9.52803530e-03 -1.83140626e-03 -1.09637454e-02 6.80651609e-03
      -2.62897778e-02 -2.63501015e-02 2.57633743e-03 1.79986097e-03
      8.68840871e-05 3.28149810e-03 2.23633461e-03 -2.10169517e-03
      3.82079296e-02 -5.26361391e-02 -3.47757377e-02 -3.95896379e-03
      -1.13915198e-03 8.87700729e-03 5.44540444e-03 7.62710441e-03
      2.05925889e-02 5.80299273e-02 4.29192500e-04 -8.95349309e-03
      1.28835682e-02 -1.98712132e-05 -5.17912442e-03 1.69109798e-03
      2.29411013e-03 -7.74483522e-03 5.87039590e-02 -1.13225146e-03
      -2.68979147e-02 -3.04838689e-03 -1.15359183e-02 -1.21938623e-02
      8.16984742e-04 1.23893367e-02 3.39017473e-02 6.23041280e-02
      -5.41127920e-02 -1.01157576e-02 -7.46003911e-03 -2.54454417e-03
      -2.87228334e-03 3.86811630e-03 -2.90936395e-03 8.63298774e-03
      4.69342582e-02 -3.39036062e-02 -1.51347108e-02 -2.33948021e-03
      1.28787849e-02 1.22685349e-02 1.54534751e-03 -5.54657867e-03
      2.35974155e-02 2.12731455e-02 -2.18006340e-03 -2.45963410e-02
      3.27905477e-03 -1.96376583e-03 -9.96945985e-03 -2.72026728e-03
      -1.44662093e-02 1.11036478e-02 4.72276881e-02 -2.10198443e-02
      5.11584990e-03 7.65770767e-03 1.68159287e-02 -9.17571189e-04
      -3.34774852e-02 -1.00285010e-02 1.06779989e-02 1.34182144e-02
      -1.22827580e-02 -7.62398122e-03 6.43680431e-03 1.24818264e-02
      1.54734291e-02 -7.69068021e-03 -2.12641880e-02 1.31547480e-04
      1.40719442e-02 8.81656073e-03 -9.34978388e-03 9.04135872e-03
      -3.58951092e-03 -3.91788501e-03 4.51266242e-04 -2.20094025e-02
      -5.01998758e-04 -4.59268573e-04 5.17053623e-03 -1.14295557e-02
      5.74039761e-03 6.68047648e-03 -1.88730415e-02 -4.12896536e-02
      4.29908596e-02 2.82959547e-02 1.45796118e-02 -2.39672586e-02
      -1.36021478e-02 -5.33843599e-03 -1.73686035e-02 -3.03099882e-02
      -2.20416207e-03 5.26262596e-02 6.52521774e-02 7.84961134e-03
      2.42567267e-02 7.17211328e-03 1.06546714e-03 -2.50337529e-03
      -2.70987209e-02 -1.09165693e-02 5.64439397e-04 3.04655787e-02
      7.91562907e-03 1.73613466e-02 4.75237751e-03 1.34702055e-02
      -1.56251118e-02 -2.58275531e-02 -1.55534176e-02 2.35245656e-02
      3.48614044e-02 3.37655656e-02 -5.04779583e-03 -2.38957740e-02
      -2.16630120e-02 -3.52293602e-03 -1.27388034e-02 -5.89557225e-03
      1.73565131e-02 4.65839021e-02 5.24564320e-03 1.62230805e-02
      -2.98621114e-02 1.29092878e-05 -1.87308993e-02 -2.12049913e-02
      -2.24160869e-02 -7.66212912e-03 3.05700325e-03 2.42607892e-02
      1.49484938e-02 2.22080760e-03 2.80621462e-02 4.92859073e-03
      -1.43989380e-02 -5.83187724e-03 -5.94630139e-03 1.99428219e-02
      4.09863926e-02 8.43436923e-03 4.21100948e-03 3.69532853e-02
      2.56623626e-02 -5.66830393e-04 -3.47631238e-03 7.72318745e-04
      1.91884320e-02 1.90407336e-02 -1.57437678e-02 -7.59772956e-04
      3.55545208e-02 4.30629728e-03 -1.91728305e-02 -2.34122742e-02
      -1.53906178e-02 5.53226005e-03 -1.83252748e-02 -2.95360107e-02
      1.63949877e-02 5.14389668e-03 -1.34825492e-02 -2.14196052e-02
      -1.17679872e-02 3.99775291e-03 2.34468188e-02 -1.95257571e-02
      -6.11175736e-03 1.44871585e-02 1.84946582e-02 2.36617075e-03
      -2.42172624e-03 1.40378904e-03 1.63816735e-02 2.45230943e-02
      -4.18376643e-03 3.81730162e-02 3.86401303e-02 9.86054260e-03
      -3.91614065e-03 -4.00437415e-03 4.12141765e-03 2.39831768e-02
      2.19798107e-02 2.29398701e-02 1.85505464e-03 -1.83934178e-02
      -1.62853468e-02 -1.89153645e-02 -3.51968757e-03 -5.87519584e-03
      3.74952774e-03 1.57545451e-02 -2.14965548e-02 7.41496077e-03
      2.00703200e-02 5.97254978e-03 6.91835085e-05 -2.86644744e-03
      -2.06543691e-03 8.23539495e-03 4.85680299e-03 -1.76467821e-02
      3.33641544e-02 2.01927628e-02 1.82431601e-02 1.14523638e-02
      -2.53904145e-02 1.82940532e-02 5.98730100e-03 -6.40239706e-03
      2.35474128e-02 1.04619190e-02 1.98508911e-02 1.37031842e-02
      2.13450082e-02 1.00545753e-02 2.14942992e-02 5.35029871e-03
      -2.21401937e-02 -4.50353883e-03 1.39310909e-02 5.25626121e-03
      7.65778823e-03 2.35126223e-02 1.07142618e-02 1.84245799e-02
      -1.07427668e-02 -5.15428744e-02 -2.01873370e-02 -9.28171258e-03
      8.32909625e-03 1.49206342e-02 3.51036265e-02 1.24478098e-02
      2.43180562e-02 -2.63832305e-02 -5.13197444e-02 -4.40452993e-02
      5.45118749e-03 -1.74527131e-02 -1.28181663e-03 2.81491950e-02
      6.35318598e-03 2.33040936e-02 5.64280432e-04 -5.98103506e-03
      1.10307578e-02 -1.81505494e-02 -8.83816369e-03 2.40254179e-02
      3.56135331e-02 1.13821104e-02 1.34382872e-02 2.35936535e-03
      -1.42979436e-03 -1.48895278e-03 5.56907896e-03 -4.81625088e-03
      1.68374553e-02 3.40354778e-02 7.92234298e-03 1.33911297e-02
      -2.63079181e-02 -2.46571172e-02 1.84096151e-03 8.51464178e-03
      8.23183544e-03 7.19138933e-03 1.23475008e-02 -4.20882460e-03
      4.61936556e-03 -1.63649712e-02 -1.41061004e-02 8.80429801e-03
      8.65359884e-03 1.78064201e-02 3.34982574e-02 1.09074777e-02
      -3.63664958e-03 7.61915406e-04 2.07885588e-03 -1.27327219e-02
      -1.19602242e-02 -1.81313336e-03 5.48052881e-03 2.34171506e-02
      -4.62649018e-03 -3.66974552e-03 1.96082215e-03 2.21193396e-03
      -9.04815085e-03 -6.46422105e-03 4.01034169e-02 1.81178544e-02
      1.10690901e-02 -1.40296929e-02 -1.76822767e-02 -8.52483790e-03
      -4.18122872e-05 -2.48916214e-03 1.57589857e-02 1.20765995e-02
      -2.32978445e-03 3.78328864e-03 -3.21769565e-02 -1.01358537e-02
      -1.19829038e-03 1.11333956e-03 -1.91911322e-03 2.39572991e-02
      -1.77414510e-02 -5.82990050e-03 8.34659487e-03 -2.77473242e-03
      -1.29297434e-03 9.73473827e-04 -1.27301808e-03 -6.47079945e-03
      4.83355261e-02 -6.08904567e-03 -1.65736377e-02 -3.41804698e-03
      -8.23183544e-03 -7.09672412e-03 -1.23528554e-03 5.41605894e-03
      1.31323580e-02 5.47088087e-02 -2.38149129e-02 -3.66629884e-02
      2.86210086e-02 3.13670631e-03 -1.76062132e-03 3.52931302e-03
      -9.78348617e-05 1.29224518e-02 5.65405302e-02 -3.63294967e-03
      -4.87010814e-02 6.07816502e-03 3.67716653e-03 1.76035671e-03
      2.43155938e-03 2.97059044e-02 2.17168219e-02 2.67990138e-02
      4.05905861e-03 -2.28252355e-02 3.79692041e-03 -4.47244197e-03
      -5.25248889e-03 -9.11103841e-03 -2.00077382e-04 1.41673600e-02
      3.45682688e-02 1.01512484e-02 5.99946734e-03 7.74582615e-03
      -3.63864674e-04 -1.68940518e-02 -2.68214475e-02 2.42241230e-02
      2.13643759e-02 1.12870792e-02 -5.94087085e-03 -3.20786983e-02
      -1.25477547e-02 -4.15937463e-03 1.34530617e-03 -1.38618415e-02
      8.70179676e-04 1.29387202e-02 9.81096551e-03 -8.07282794e-03
      -8.97453912e-03 -1.19778709e-02 -1.09640071e-02 -1.23661757e-02
      -1.36662822e-03 4.87617999e-02 3.71789187e-02 -5.01690386e-03
      7.98697490e-03 -1.44876270e-02 -3.33805475e-03 -8.79988447e-03
      -3.13718244e-02 -3.46389227e-02 6.17849417e-02 1.71209890e-02
      6.68844907e-03 -3.53852101e-02 -3.45816873e-02 -9.08192433e-03
      -1.90908555e-02 -3.39939743e-02 2.46867916e-04 5.69831170e-02
      4.15150896e-02 -2.39483593e-03 -2.01857351e-02 -1.78314187e-02
      -1.25178909e-02 -3.03468816e-02 -4.03556935e-02 1.71579234e-02
      6.82239234e-02 5.51806502e-02 -8.97102430e-03 -2.52096411e-02
      -2.91797258e-02 -2.14506909e-02 -4.33543287e-02 -2.50197779e-02
      2.76479162e-02 5.86333424e-02 4.54037338e-02 -7.54962163e-03
      -4.09855368e-03 -1.09239789e-02 -7.46680563e-03 -5.23831183e-03
      -2.33112159e-03 9.56265535e-03 3.05087189e-03 2.80618984e-02
      -2.07744054e-02 1.40804863e-02 -2.51274416e-03 7.97367096e-03
      -9.06635728e-03 -1.20162889e-02 -3.28879431e-02 -2.26581469e-02
      4.18854598e-03 9.79970302e-03 -1.68868322e-02 6.47709146e-03
      -7.00622099e-03 -1.95505042e-02 1.11112846e-02 4.74756733e-02
      4.38946411e-02 1.77885145e-02 -3.03666126e-02 -3.55556444e-03
      3.62018333e-03 2.52575781e-02 1.10401623e-02 2.93456893e-02
      -4.99127060e-03 1.44253485e-02 -2.39621662e-02 -3.65173444e-02
      -1.51789356e-02 -5.95712755e-03 1.19543225e-02 -1.28039531e-03
      -5.23715571e-04 -1.55541440e-02 -1.09888951e-03 3.27822156e-02
      9.32735112e-03 -1.09870462e-02 8.82377289e-03 -2.32484955e-02
      -6.51582517e-03 3.35645676e-03 -2.62661721e-03 1.43990899e-02
      3.35667692e-02 3.88341094e-03 -2.99252127e-03 6.12839032e-03
      -6.72677858e-03 2.20121648e-02 2.15656888e-02 -1.47008318e-02
      1.91816278e-02 -6.40205247e-03 -4.34321957e-03 4.31517139e-03
      7.88119994e-03 -1.62685812e-02 1.11815324e-02 1.09330621e-02
      -3.94490035e-03 8.00436456e-03 1.25664435e-02 2.70001348e-02
      1.65831558e-02 6.26791874e-03 -2.13097148e-02 -1.04305018e-02
      -2.06416764e-04 8.66183429e-04 1.66309555e-03 1.33610507e-02
      8.48462526e-03 2.78197620e-02 2.14408319e-02 -6.05994184e-03
      1.71514824e-02 1.51109016e-02 1.48770940e-02 6.27272157e-03
      -3.78685468e-03 -1.17822234e-02 1.28517505e-02 2.10892409e-02
      -8.92873667e-03 -4.99535678e-03 -1.04584638e-02 2.72147749e-02
      8.42415262e-03 1.19033577e-02 -2.77591497e-02 1.96445510e-02
      3.28127034e-02 1.48691945e-02 2.12713201e-02 2.86765844e-02
      4.16762978e-02 4.57515521e-03 -2.51167528e-02 -4.04083505e-02
      2.30512135e-02 1.07720923e-02 -4.27931687e-03 3.56908664e-02
      2.69296374e-02 2.04887353e-02 -2.15539280e-02 -2.18848344e-02
      -1.43979423e-05 4.31700936e-03 -1.01535460e-02 1.47979511e-02
      5.13666868e-02 4.15413715e-02 2.54669543e-02 -2.84400955e-02
      -8.71974137e-03 5.77673607e-04 5.65185808e-02 1.69025585e-02
      5.68747241e-03 5.83248474e-02 9.54896864e-03 -8.84997658e-03
      -3.87141109e-02 -2.94413175e-02 -1.21566262e-02 -9.81737580e-03
      -2.76475530e-02 -1.13145420e-02 4.35399376e-02 4.19775061e-02
      6.86109625e-03 -1.60953160e-02 2.52709985e-02 8.04617163e-03
      2.85193510e-03 1.20979864e-02 3.05605605e-02 3.20023187e-02
      2.72706337e-03 -1.50017289e-03 -2.34514903e-02 -1.82598475e-02
      -2.39982619e-03 2.53835805e-02 1.25624882e-02 3.64180021e-02
      4.22285125e-03 -1.81137398e-02 -6.54086657e-03 -2.22058091e-02
      -1.19853141e-02 1.00110490e-02 1.26131671e-02 2.13833861e-02
      -8.60454515e-03 3.49766687e-02 1.98905673e-02 -5.81675617e-04
      -1.87207032e-02 -4.50283196e-03 -4.93097864e-03 3.87321673e-02
      2.68924851e-02 3.47169638e-02 2.26628520e-02 2.41016736e-03
      -1.67584214e-02 -1.31476251e-02 -1.29822306e-02 2.66466610e-04
      1.87602527e-02 1.20676057e-02 1.31108230e-02 -1.18466439e-02
      -1.44799417e-02 -7.70930341e-03 -3.78181180e-03 -1.15631726e-02
      -2.73568090e-03 2.79850103e-02 2.77430508e-02 1.02490652e-02
      -2.16036085e-02 -6.55719265e-03 -4.13527526e-03 -1.05110975e-02
      -5.85495261e-03 9.86188091e-03 1.08266985e-02 4.60626259e-02
      5.98440878e-02 1.17307231e-02 -2.49888245e-02 3.96569539e-03
      -3.03303800e-03 -1.74611732e-02 -3.16249090e-03 2.66186334e-02
      2.47577429e-02 5.63106611e-02 -5.93093457e-03 -9.63285752e-03
      1.21715833e-02 2.84051825e-03 -9.85508226e-03 2.46948143e-03
      -3.27455290e-02 -4.28672098e-02 1.11548267e-02 -2.84405402e-03
      -1.95036107e-03 -6.84070692e-04 -6.88392110e-03 5.35946898e-03
      4.94369827e-02 -1.32549684e-02 -4.77326065e-02 9.82498983e-04
      7.25291111e-03 6.36081822e-05 -2.13431218e-03 -7.70817278e-03
      -1.18711141e-04 2.67526656e-02 1.61819309e-02 1.36821298e-02
      9.95099079e-03 -9.15168133e-03 4.52361396e-03 -1.98456435e-03
      -1.36639811e-02 -7.43009805e-05 6.24468885e-02 3.73542048e-02
      -3.70723195e-03 -5.56383934e-03 -1.25071080e-02 -3.10908537e-03
      -1.65224187e-02 -2.03704555e-02 1.40106659e-02 6.66872337e-02
      9.49292164e-03 -3.68910208e-02 -1.24951331e-02 4.51404136e-03
      2.20029266e-03 -5.62531501e-03 -1.60323828e-02 -3.56249418e-03
      -7.01239239e-03 1.57500710e-02 -2.44922079e-02 -2.17067096e-02
      -1.11490386e-02 -7.97579996e-03 6.24988880e-03 1.11441379e-02
      2.76985187e-02 -1.48383724e-02 3.77551466e-02 -1.78926680e-02
      -1.27672609e-02 -5.14629437e-03 -1.53711634e-02 -8.02835729e-03
      -7.44406227e-03 3.06266937e-02 8.48868489e-02 3.62073220e-02
      -1.07362289e-02 -2.51963604e-02 -8.04067124e-03 -1.61342714e-02
      2.69912034e-02 1.24434568e-02 1.47732161e-02 4.81332764e-02
      -1.78634729e-02 -1.96637958e-02 -1.85697060e-02 -1.89904887e-02
      -3.18230838e-02 1.50107024e-02 5.39033674e-02 2.31421813e-02
      -5.98985190e-03 -1.97639000e-02 -2.27949154e-02 -1.94699448e-02
      -3.29056047e-02 -2.03236081e-02 3.07378210e-02 5.63713610e-02
      2.95628700e-02 5.49507979e-03 1.94374491e-02 -1.64239462e-02
      -1.22229187e-02 -1.54455081e-02 -1.71494875e-02 1.30842244e-02
      2.05127690e-02 1.80049222e-02 1.38497315e-02 5.34538121e-04
      -1.61797106e-02 -1.58525147e-02 -9.55083314e-03 -1.01901665e-02
      1.93531998e-02 1.84863638e-02 -3.30505520e-03 5.85511699e-03
      -1.10311257e-02 -1.83642562e-02 -5.61729714e-04 -1.31976772e-02
      2.97846878e-03 2.83248052e-02 5.04573546e-02 -6.09125290e-03
      -4.03374024e-02 -4.92181182e-02 -2.06346065e-02 1.40680233e-02
      5.78569621e-03 2.71355696e-02 1.99463144e-02 3.84651832e-02
      -1.24414647e-02 -6.14339672e-02 -1.26658892e-02 -3.29741314e-02
      4.66420024e-04 7.65747018e-03 6.63320161e-03 1.13209418e-03
      3.56024168e-02 -3.73706669e-02 -4.71090227e-02 -6.99153841e-02
      -2.07483880e-02 -1.87881070e-03 8.23294651e-03 1.20486813e-02
      3.08609679e-02 4.81435061e-02 7.03317299e-03 -3.51845175e-02
      -4.09269780e-02 -2.13735830e-03 1.08732302e-02 2.25771312e-02
      1.73968859e-02 -3.98886576e-03 1.52792968e-02 -2.97836475e-02
      -1.22452127e-02 -3.68131846e-02 1.93803832e-02 3.15436460e-02
      2.08395477e-02 4.09073709e-03 -2.50088722e-02 -1.36558274e-02
      -2.86810938e-02 5.75539423e-03 -1.10298418e-03 -1.29603837e-02
      2.76854243e-02 3.88778150e-02 2.48856023e-02 2.40371954e-02
      1.42885800e-02 -3.89908142e-02 -1.85943488e-02 1.35890665e-02
      1.60107967e-02 1.53528834e-02 3.03745084e-02 2.15632115e-02
      -2.51787133e-03 -1.09480293e-02 -2.08988134e-02 1.71471555e-02
      -1.26022920e-02 2.23740023e-02 1.01347864e-02 -4.74661216e-03
      -1.29941944e-02 2.53691687e-03 -5.42406633e-04 6.74784463e-03
      -2.67882813e-02 1.43526699e-02 3.47026773e-02 1.45709692e-02
      1.02755576e-02 7.79840816e-03 1.50940800e-02 -3.93307069e-03
      -1.29765905e-02 -4.32970747e-02 8.60993844e-03 2.35343948e-02
      2.68814974e-02 -3.23564047e-03 -2.11268347e-02 2.37182789e-02
      1.47500178e-02 3.85269001e-02 2.56405436e-02 5.75724104e-03
      6.47332519e-02 4.89864834e-02 6.15899405e-03 7.38343177e-03
      9.00980644e-03 5.11306943e-03 1.22562023e-02 1.29150888e-02
      4.00674678e-02 1.49753485e-02 2.57371292e-02 4.06670235e-02
      2.39950768e-03 -1.24075217e-02 -3.84880006e-02 -1.31461462e-02
      1.26479613e-03 2.15215757e-02 -3.09572201e-02 1.49812680e-02
      4.51739356e-02 3.24566215e-02 3.21635865e-02 -1.64412335e-02
      -4.07801289e-03 4.06930130e-03 5.26130088e-02 3.09252609e-02
      4.24173139e-02 3.66599746e-02 3.14937904e-02 4.48115822e-03
      -1.30916741e-02 -2.59821047e-03 1.62656815e-03 1.19527113e-02
      6.00068271e-03 2.21758354e-02 6.42720312e-02 4.94327731e-02
      3.60873044e-02 -7.75778620e-03 -3.16555277e-02 3.01357568e-03
      6.23875251e-03 5.82525367e-03 -1.30856149e-02 1.83915887e-02
      4.47879322e-02 -6.22212794e-03 -1.94500517e-02 -5.80890058e-03
      -2.18346133e-03 1.35626355e-02 1.94867495e-02 3.43694426e-02
      2.42087506e-02 3.48891690e-02 -2.54664551e-02 -2.36460511e-02
      -2.59303376e-02 -7.12396530e-03 -6.60407066e-04 3.35563230e-03
      7.14185508e-03 -1.48028303e-02 2.30023116e-02 1.10815484e-02
      -1.83280092e-02 -1.11280903e-02 -3.33620323e-04 3.22459382e-03
      1.48008056e-02 7.16620171e-03 2.83713881e-02 -1.23910327e-02
      -6.95223175e-03 -2.18164157e-02 -1.56699121e-02 -1.41099794e-03
      -1.22843608e-02 2.16780286e-02 1.89157780e-02 -7.43710145e-04
      -8.16184934e-03 5.42943878e-03 -7.15459790e-03 -2.39940416e-02
      -9.38395318e-03 -2.47687194e-03 2.72793099e-02 4.40356545e-02
      -2.27766894e-02 -6.22483063e-03 2.07502693e-02 2.01727962e-03
      -2.09578779e-02 -1.93717945e-02 -7.42625026e-03 1.73469037e-02
      -9.70709836e-04 1.10318586e-02 2.63220700e-05 7.83085916e-03
      -3.18252784e-03 -7.06935255e-03 -5.21398243e-03 -9.61342361e-03
      2.06048153e-02 4.49025556e-02 -8.33078846e-03 3.65348086e-02
      4.83437516e-02 1.05470521e-02 -1.93891563e-02 -1.78939961e-02
      -1.73584349e-03 -1.17904302e-02 7.25356105e-04 -2.15664525e-02
      -4.20469511e-03 1.15831755e-03 -4.42745723e-03 -9.75463353e-03
      2.71702297e-02 2.08120849e-02 1.42324325e-02 -2.61908257e-03
      -2.79085450e-02 -1.95160545e-02 -1.40972985e-02 -5.82294911e-03
      2.75232643e-03 2.52220146e-02 4.51901276e-03 -1.52726017e-03
      2.28942633e-02 3.15960869e-02 1.25326244e-02 1.35483807e-02
      2.32455833e-03 -1.24605484e-02 3.44567839e-03 4.54571843e-02
      2.51585934e-02 1.24586560e-02 1.07115032e-02 -2.10490413e-02
      -1.29033672e-02 4.61796671e-03 1.43568171e-02 1.87621284e-02
      1.11287311e-02 -2.21334342e-02 -2.38545388e-02 -9.32533108e-03
      -1.70337260e-02 -2.23668735e-03 9.71561007e-04 2.21639425e-02
      4.19181511e-02 -1.29177440e-02 -3.84607203e-02 -2.08388846e-02
      -7.67704099e-03 -2.15030015e-02 4.92078066e-03 1.06291873e-02
      8.05985555e-03 1.94075108e-02 2.62431912e-02 9.11872834e-03
      -1.83209907e-02 -9.77070630e-03 -1.46641042e-02 -2.74348567e-04
      1.35627119e-02 1.80203542e-02 3.50852199e-02 -5.10354713e-03
      -3.59400325e-02 -1.40978824e-02 -1.79657098e-02 -3.23720872e-02
      -4.27663513e-03 1.94576234e-02 2.81145833e-02 2.69578677e-02
      -1.67458970e-02 -1.22780474e-02 -1.54032251e-02 -9.97117627e-03
      -2.22504959e-02 1.79257989e-02 2.38992982e-02 1.95499435e-02
      6.88121654e-03 4.19466896e-03 -1.51007641e-02 -1.72716118e-02
      -1.58940013e-02 7.14955153e-04 1.62861682e-02 2.15036701e-02
      -1.65499728e-02 -3.57758850e-02 -2.84335651e-02 -1.01358863e-02
      4.61999467e-03 5.53346654e-05 -2.17960794e-02 5.04698157e-02
      4.02434729e-02 5.54390587e-02 4.84337891e-03 -2.43742466e-02
      -1.22917173e-02 -1.79131504e-03 -1.77250467e-02 9.59002320e-03
      4.74408492e-02 6.96101710e-02 6.42777421e-03 -2.25116219e-02
      -6.53954630e-04 -3.05831321e-02 -1.35709969e-02 -2.09537079e-03
      1.03533594e-02 3.53130624e-02 4.84782234e-02 -2.22784616e-02
      -2.58395411e-02 -4.77823131e-02 -2.47344170e-02 -5.95092867e-03
      -6.26476016e-03 9.15247132e-04 5.08406311e-02 4.90436889e-02
      6.76140143e-03 -1.07849529e-02 -3.00884005e-02 -2.26360895e-02
      -2.03266945e-02 -2.62663607e-02 1.86392630e-03 3.39254625e-02
      4.34695482e-02 2.17117891e-02 -3.38933943e-03 -4.67935763e-03
      2.41220966e-02 -2.42219307e-03 -2.24329121e-02 -1.46461213e-02
      3.64903472e-02 5.05354777e-02 3.17112878e-02 1.34459476e-03
      -8.06283113e-03 -1.05618974e-02 2.03847848e-02 7.26660108e-03
      1.11990068e-02 2.77887583e-02 2.76551116e-02 -4.98077087e-02
      -2.47273687e-02 -2.01678532e-03 -8.40850081e-03 2.51796450e-02
      7.42986426e-03 1.72970549e-03 -3.29517154e-03 -1.30905509e-02
      -1.55753894e-02 3.25171277e-03 5.13805682e-03 3.47589492e-03
      2.44809408e-02 -2.04522442e-02 -1.50836883e-02 1.88820343e-02
      2.73658633e-02 1.79278746e-03 -1.51224006e-02 1.18723894e-02
      2.78376732e-02 4.34620976e-02 -1.95787009e-02 -3.73836048e-02
      -1.73611604e-02 3.72978114e-03 8.00205581e-03 -4.22151340e-03
      -7.73413805e-03 9.03970283e-03 2.14964841e-02 -5.33220638e-03
      -1.10196192e-02 -9.90681932e-04 -1.30726704e-02 1.14291739e-02
      -1.28240313e-03 1.73853766e-02 6.30006343e-02 2.51413751e-02
      -1.50396600e-02 -7.35223852e-03 1.85816344e-02 -1.74972042e-02
      2.10052422e-05 -5.34028001e-03 1.68589093e-02 6.14482276e-02
      3.55557203e-02 7.33675947e-03 -2.48905402e-02 -1.14755994e-02
      -6.60733366e-03 2.63831429e-02 1.32956645e-02 2.71032806e-02
      3.89112160e-02 4.41188142e-02 -3.02101922e-04 -8.02227389e-03
      3.28493007e-02 7.03474740e-03 1.12055205e-02 1.99557617e-02
      3.01992111e-02 2.21530497e-02 1.75877903e-02 1.44320149e-02
      1.04921283e-02 1.66752599e-02 -1.86848212e-02 -1.10940421e-02
      4.21312312e-03 1.03956461e-02 5.68343420e-03 1.43950479e-02
      4.16264646e-02 2.46011522e-02 2.07148362e-02 -5.89886168e-03
      -2.67312601e-02 -7.06014363e-03 -4.87274583e-03 4.28402349e-02
      3.46796215e-02 -2.38481374e-03 3.84506816e-03 3.23263593e-02
      1.93172656e-02 1.72690824e-02 6.71758829e-03 -1.22321267e-02
      3.63418907e-02 4.23276424e-02 3.70110534e-02 -1.14912726e-03
      -9.67966951e-03 6.74122758e-03 1.48711577e-02 -8.21815711e-03
      -5.54308202e-03 -7.62412418e-03 1.38954045e-02 -2.16170847e-02
      6.84796413e-03 1.32030277e-02 -9.19159409e-03 -7.58970249e-03
      -1.88119255e-03 -3.75465304e-03 -2.53734901e-03 2.42227893e-02
      -9.09956079e-03 -1.21666649e-02 5.28905366e-04 -3.03281355e-03
      -5.23617957e-03 -3.60526494e-03 -1.79106444e-02 -2.25108434e-02
      1.06119458e-02 1.48409335e-02 -5.78398863e-03 1.48089919e-02
      1.61326267e-02 -8.69693328e-03 -1.09889265e-02 -2.65438389e-02
      -2.06328053e-02 8.26763362e-03 -1.16323670e-02 -1.38646513e-02
      1.53068975e-02 1.89882256e-02 -1.78909618e-02 -2.11212337e-02
      -3.99777154e-03 3.93489003e-03 8.48835986e-03 -6.90446189e-03
      -8.25678930e-03 -9.69357416e-03 1.73808320e-03 1.82541751e-03
      -1.01603742e-03 -6.51859213e-03 8.94731190e-03 1.03468224e-02
      -2.97962502e-02 3.51648778e-02 3.42121050e-02 -1.32244325e-03
      -9.95701551e-03 -1.53944464e-02 -8.47515650e-03 2.90082698e-03
      1.70393921e-02 -3.41753429e-03 -9.51384101e-03 -1.61880348e-02
      8.76929425e-03 5.81573788e-03 -2.66709109e-03 -7.17751263e-03
      1.73533298e-02 8.95001646e-03 1.15207499e-02 2.34795436e-02
      1.12614781e-02 -2.01385724e-03 1.63401533e-02 -1.25521431e-02
      6.54353353e-04 -7.11034378e-03 -2.15305202e-03 -1.00842898e-03
      2.55565289e-02 9.94242076e-03 -2.94263265e-03 -1.30517473e-02
      -2.67425971e-03 3.04151024e-03 2.09571272e-02 1.62545014e-02
      1.25029767e-02 1.83218289e-02 -1.15489475e-02 -3.65245133e-03
      5.14611276e-03 -8.49570520e-03 -4.94476873e-03 7.26875244e-03
      -4.81137133e-04 -3.02814879e-02 1.65256616e-02 2.64745597e-02
      -9.07794014e-03 2.22981311e-02 1.64295007e-02 2.11295821e-02
      -7.73854321e-03 -8.13706219e-03 -2.22568922e-02 1.36024533e-02
      -2.66910950e-03 3.03700957e-02 4.02951278e-02 1.18483277e-02
      1.12984031e-02 1.06179183e-02 1.93166267e-03 -9.33004543e-03
      -7.88888708e-03 -1.05962669e-02 1.88036996e-03 1.31758871e-02
      -1.01987375e-02 -1.03377076e-02 -1.16871810e-02 -2.01627351e-02
      -8.42762832e-03 -1.90499872e-02 3.53766046e-03 1.82380751e-02
      4.23840173e-02 -2.96270358e-03 -1.94004900e-03 1.46896103e-02
      1.40094000e-03 8.14875867e-03 2.85822693e-02 -4.18424048e-03
      1.66406631e-02 2.15986613e-02 -7.65959499e-03 -2.26855446e-02
      1.76633243e-02 -1.32170254e-02 2.04238053e-02 4.67371158e-02
      9.50845331e-03 -1.42460093e-02 1.34298559e-02 -2.73435507e-02
      -1.57430228e-02 -9.35494527e-03 -1.49656623e-03 1.89486966e-02
      -1.33047625e-02 4.18299884e-02 3.95712443e-02 2.41925586e-02
      -4.18408122e-03 -1.58513114e-02 -2.35018358e-02 -1.24957841e-02
      -2.32488140e-02 -6.90574665e-03 4.00642492e-02 4.01449837e-02
      -6.40425889e-04 -1.89938750e-02 -2.68702954e-02 -2.35833563e-02
      1.03756329e-02 2.00132318e-02 3.65662314e-02 2.59491578e-02
      1.69248879e-02 -1.88286211e-02 -1.32598802e-02 -2.07106099e-02
      -2.78290622e-02 -3.45053263e-02 1.23760859e-02 5.38485870e-03
      3.27388160e-02 2.68811882e-02 -2.78541353e-02 -2.42814925e-02
      -6.71455776e-03 -1.29179507e-02 -1.06732994e-02 -2.63708849e-02
      -1.99301895e-02 5.96117275e-03 2.76237521e-02 1.96336731e-02
      1.25027550e-02 2.87604565e-03 9.83178988e-03 2.96488293e-02
      -2.84465365e-02 -4.63500656e-02 1.52448714e-02 3.16660106e-02
      3.52292769e-02 1.46237183e-02 1.41567662e-02 -2.57625636e-02
      2.59459391e-03 -6.82968553e-03 -7.41656916e-03 2.49255691e-02
      3.72890830e-02 1.57348607e-02 2.08819471e-02 -1.77149214e-02
      1.11642750e-02 4.76532429e-02 -1.89678408e-02 -8.64348933e-03
      -7.03855883e-03 1.70822442e-02 3.42701562e-02 2.06769276e-02
      3.38295288e-02 1.02224788e-02 3.18714082e-02 -2.69047692e-02
      -3.60090099e-02 -1.01465115e-03 1.93769895e-02 1.98653191e-02
      6.58032252e-04 3.88969742e-02 1.61856990e-02 1.61676928e-02
      -6.17493317e-02 -6.37160167e-02 -2.89604068e-02 1.16581907e-02
      1.46274017e-02 1.26120923e-02 2.29500001e-03 1.43070212e-02
      6.04419149e-02 -2.70488784e-02 -3.38513441e-02 -2.50565168e-03
      2.47495938e-02 3.27058323e-02 4.02685720e-03 5.34653626e-02
      2.55222786e-02 1.31181870e-02 -5.99846579e-02 -6.23859204e-02
      -2.97931046e-03 2.56163459e-02 2.80752983e-02 3.38963345e-02
      3.38131338e-02 3.04472074e-02 3.35115679e-02 -1.72766186e-02
      -4.68321107e-02 -2.87385061e-02 -1.15111168e-03 1.84441209e-02
      -2.07920116e-03 2.43719341e-03 1.82758905e-02 4.81936000e-02
      8.27171188e-03 -3.07921157e-03 1.09544853e-02 9.84482653e-03
      1.25768371e-02 -5.95339201e-03 6.28866702e-02 5.48364669e-02
      2.49556322e-02 -2.62130145e-02 -3.46928649e-02 -4.47901059e-03
      4.70371405e-03 3.98994976e-04 -2.98139057e-03 2.68854722e-02
      2.21381299e-02 6.67162538e-02 1.54145537e-02 -2.51890030e-02
      -1.99423619e-02 -1.26580680e-02 7.86001608e-03 -1.42189721e-02
      -9.31014400e-03 3.11363880e-02 4.20601033e-02 2.74445233e-03
      -8.38542543e-03 1.23781590e-02 3.05610546e-03 2.28344426e-02
      1.78594911e-03 -2.54046973e-02 3.07138320e-02 5.83764352e-02
      1.48342876e-02 -4.36000153e-02 -1.67077929e-02 -5.73074399e-03
      1.53268995e-02 -6.00972306e-03 8.36185459e-03 1.36764888e-02
      6.38177693e-02 3.53681892e-02 -2.05212571e-02 1.45864310e-02
      -5.95258316e-03 8.73371307e-03 3.46435397e-03 -9.26772226e-03
      1.91450585e-02 7.13047236e-02 2.14758739e-02 -2.93138139e-02
      9.52739548e-03 2.82991841e-03 -5.83442685e-04 -4.85456176e-03
      -1.88542660e-02 -1.82573292e-02 -5.07839397e-03 8.26475583e-03
      8.15949496e-03 1.65361073e-02 2.03307346e-02 -4.32198402e-03
      -6.99850870e-03 -2.40290612e-02 -9.42506827e-03 7.24336272e-03
      -5.00812149e-03 3.58141190e-03 2.31884904e-02 3.77273490e-03
      -8.34698603e-03 -1.56671796e-02 -2.18989756e-02 -1.54558197e-02
      -1.19717428e-02 -1.85890105e-02 2.25265808e-02 3.31621654e-02
      -2.75174435e-03 4.40979656e-03 -1.04670543e-02 -1.87855046e-02
      -9.02372971e-03 -1.43080717e-02 -2.73788553e-02 2.16321219e-02
      3.17711048e-02 3.89055582e-03 -6.35857834e-03 -1.47803500e-02
      -3.60768940e-03 -4.42008860e-03 5.94778312e-03 -1.47052889e-03
      1.36215454e-02 -2.85821082e-03 3.86304175e-03 1.04069570e-02
      -2.75373022e-04 -1.48909353e-02 -5.71539719e-03 2.34938636e-02
      1.12896264e-02 4.47559245e-02 3.92209254e-02 2.34194030e-03
      1.85815506e-02 5.66928182e-04 2.54186190e-04 -1.02127772e-02
      -9.63099860e-03 -1.40415523e-02 1.90146249e-02 1.59746446e-02
      -1.90334208e-02 -1.67861115e-02 -7.12237693e-03 -2.82531045e-02
      -5.40759834e-03 3.42417881e-03 1.87713709e-02 4.52427976e-02
      1.53137604e-02 3.76037415e-03 -1.72833949e-02 -3.65628139e-03
      -1.61715522e-02 2.54050363e-03 7.42144603e-03 -1.24288350e-02
      2.33624559e-02 3.22255604e-02 -3.17129493e-03 2.29202770e-02
      1.62403360e-02 1.19683398e-02 -8.01280979e-03 -3.58743849e-03
      -2.34912895e-02 3.54133584e-02 -1.55423512e-03 3.85023989e-02
      4.82361428e-02 3.08495276e-02 -2.27446742e-02 -2.00138539e-02
      2.48759006e-05 4.22423647e-04 1.04914550e-02 8.85120220e-03
      2.20727026e-02 3.52460030e-03 -1.10075725e-02 6.67136686e-04
      -7.31720636e-03 1.15082199e-02 4.38170391e-04 -1.00444034e-02
      4.24201600e-03 1.44810081e-02 7.77951768e-03 -5.26781054e-03
      9.95309092e-03 1.72654055e-02 8.11131857e-03 1.64316352e-02
      2.63077803e-02 -1.15294359e-03 1.03470329e-02 1.96573641e-02
      9.47472453e-03 5.19726519e-03 2.35500969e-02 7.98867829e-03
      2.89124679e-02 6.26808628e-02 -3.89395934e-03 -9.94717516e-03
      -5.80544537e-03 -4.81541501e-03 -1.01957181e-02 9.53022670e-03
      2.86541600e-02 2.29281895e-02 1.40966782e-02 -1.63376834e-02
      -1.93745382e-02 -1.87313352e-02 -2.64576524e-02 -2.60856971e-02
      -8.20704456e-03 1.56620555e-02 4.71980833e-02 2.00545490e-02
      -2.60599591e-02 -1.70917176e-02 -2.34139860e-02 1.01844836e-02
      -9.74013936e-03 1.57715622e-02 2.49926466e-02 3.11708674e-02
      3.68049853e-02 1.59303136e-02 3.67479865e-03 -1.31229851e-02
      -5.19996928e-03 -1.30991517e-02 -1.01065524e-02 8.46305303e-03
      2.15270948e-02 2.10892633e-02 1.74183585e-02 1.49563784e-02
      -1.54516585e-02 -1.14149852e-02 -2.30666939e-02 -3.07756774e-02
      1.44784385e-02 4.77367900e-02 1.13350451e-02 -8.57930724e-03
      9.64729954e-03 -1.42214904e-02 9.65503696e-03 -1.55892577e-02
      8.14767496e-04 -1.65823323e-03 4.11123671e-02 2.63790693e-03
      -5.98997576e-03 7.87787896e-04 3.57355475e-02 2.79535074e-02
      1.04993917e-02 -2.56533809e-02 -3.62520479e-03 -1.06830301e-03
      2.81506050e-02 4.52334294e-03 1.17081944e-02 7.04990840e-03
      2.57928055e-02 -1.15210935e-02 1.04067335e-02 5.77881634e-02
      7.19941454e-04 -3.06239771e-03 2.01371126e-02 1.13885300e-02
      1.46921873e-02 -7.20971357e-03 1.90305151e-02 7.81903602e-03
      9.88735817e-03 1.68164559e-02 3.26198600e-02 -8.05485121e-04
      -9.48009454e-03 5.78377908e-03 2.45878957e-02 1.95520055e-02
      1.93415750e-02 4.25996520e-02 2.86134556e-02 1.94819476e-02
      1.99545044e-02 -2.81383679e-03 -9.76061635e-03 -2.03765444e-02
      -2.39765216e-02 1.05758598e-02 4.53032888e-02 -8.00719671e-03
      -2.32745055e-02 5.81053086e-03 3.65551934e-02 2.01188922e-02
      -3.10864039e-02 2.38812566e-02 3.23385112e-02 2.41145417e-02
      -3.51534709e-02 -2.45230980e-02 1.20850420e-02 2.43287459e-02
      1.10323252e-02 1.96255334e-02 -1.14797903e-02 1.24853402e-02
      4.77494895e-02 5.40463088e-06 -9.59221460e-03 8.05496005e-04
      2.10009012e-02 3.82798468e-03 -2.02247873e-02 1.34884920e-02
      1.60566401e-02 4.04215753e-02 -4.00818605e-03 -1.95958484e-02
      1.01621160e-02 2.08177883e-02 6.81529148e-03 5.93078928e-03
      4.29132804e-02 4.43560332e-02 1.30319903e-02 -1.98774971e-02
      -4.52898117e-03 1.42224543e-02 -2.33686384e-04 -1.34684518e-02
      -2.66486872e-03 2.83503998e-02 2.60159634e-02 5.07989451e-02
      2.34599486e-02 -2.00319383e-02 -1.18315592e-02 -2.65319943e-02
      -4.99556307e-03 -1.52410800e-02 2.28122193e-02 6.15473948e-02
      3.49729881e-02 -2.59949267e-02 -1.20524969e-02 6.59289863e-03
      -6.68020220e-03 -2.65204944e-02 -4.42797737e-03 4.35485592e-04
      1.68465134e-02 4.55388613e-02 1.65945981e-02 -1.20881414e-02
      -2.22166069e-02 -2.88182367e-02 -1.91018190e-02 -2.34342348e-02
      4.77169361e-03 1.31305493e-02 6.32599667e-02 4.67522331e-02
      -2.38986760e-02 6.99459808e-03 -1.77117512e-02 -8.65756627e-03
      2.87154573e-03 2.12991852e-02 1.64624657e-02 6.43591210e-02
      2.57190038e-02 -9.51040816e-03 6.94386894e-03 -1.22061279e-02
      -1.45967109e-02 2.13258644e-03 2.62106000e-03 2.25304645e-02
      4.67437282e-02 4.55413088e-02 -2.55401358e-02 -1.18827038e-02
      -3.42393070e-02 -2.18576323e-02 -1.13927964e-02 3.63801569e-02
      5.91251217e-02 3.52431871e-02 3.65442745e-02 -1.71662010e-02
      -7.60215241e-03 -2.28540581e-02 -1.93453152e-02 2.19140965e-02
      -1.22427242e-02 -4.25237417e-03 -3.02797975e-03 -1.34825613e-02
      9.60793626e-03 3.15325744e-02 -1.97849311e-02 8.29719752e-03
      -8.37282930e-03 -4.01875284e-03 -3.62105784e-04 -1.54987006e-02
      -3.94169949e-02 -4.61123278e-03 4.44891490e-02 4.88987230e-02
      -2.11328641e-02 -2.80945445e-03 -1.52155040e-02 -2.54955702e-03
      1.36081660e-02 1.69544071e-02 1.24883037e-02 3.36790383e-02
      -6.48505194e-03 -3.29937250e-03 -1.80496722e-02 -7.13500939e-03
      8.67738854e-03 -9.70122695e-04 -2.23031994e-02 -5.19791506e-02
      3.76166180e-02 4.51750569e-02 3.34977582e-02 -6.80265808e-03
      2.24488275e-03 -2.20122838e-05 -8.62397812e-03 -1.59384757e-02
      -1.03770550e-02 5.25239334e-02 7.78571819e-04 7.69719249e-03
      -5.13041113e-03 -1.46849332e-02 -3.57106375e-03 -7.05785700e-04
      2.49207631e-04 1.91256236e-02 1.71769168e-02 5.79281989e-03
      1.58732980e-02 2.29697069e-03 -5.90858166e-04 -1.70861825e-03
      -4.69157053e-03 -1.72405541e-02 -4.25350815e-02 1.36590358e-02
      2.24846397e-02 4.94909696e-02 -1.16350241e-02 -5.76262223e-03
      6.23015175e-03 1.51694892e-03 -1.46751350e-03 -1.20381452e-02
      -1.30546233e-02 -2.15298496e-03 2.28461754e-02 2.78283115e-02
      2.73434725e-03 -1.35108512e-02 3.41962883e-03 5.23590483e-03
      1.56217320e-02 2.33276337e-02 1.85803138e-02 1.38782607e-02
      1.68694723e-02 2.58070808e-02 2.61975508e-02 2.24243980e-02
      3.16823274e-03 -2.97966157e-03 1.57725532e-02 7.01434910e-03
      1.78016927e-02 1.33517552e-02 4.12249099e-03 -2.06953427e-03
      7.28293322e-03 7.50252884e-03 6.17998186e-03 2.12646718e-03
      -2.12683547e-02 -1.42973149e-03 1.40948826e-02 1.78249646e-02
      7.16137327e-03 2.14490741e-02 2.83168512e-03 -6.58400450e-03
      8.60837474e-03 8.87098443e-03 -1.74350291e-02 -1.33190127e-02
      1.05127646e-02 5.66972084e-02 3.06554232e-02 2.39212923e-02
      -1.19513110e-03 -1.92386564e-02 -5.74235048e-04 -3.63872480e-03
      -1.06696738e-02 -6.68786047e-03 3.18546314e-03 3.79199646e-02
      3.87768298e-02 -3.24487686e-03 -2.90222839e-02 -1.33783538e-02
      -3.91448289e-03 1.57015882e-02 -3.37610058e-02 3.33262654e-03
      6.48162211e-04 2.35727821e-02 -6.25322619e-03 3.55472649e-03
      2.29185577e-02 -8.46259482e-03 -5.07556200e-02 -3.02485656e-02
      -2.79019754e-02 2.21785996e-03 3.55737470e-02 1.32767484e-03
      6.43750047e-03 3.48807685e-02 3.23188379e-02 -3.20617831e-03
      1.29499403e-03 -2.70704497e-02 1.85892116e-02 2.67925225e-02
      6.89446414e-03 -1.67274717e-02 2.05455013e-02 -5.48522500e-03
      7.83089455e-03 1.67703442e-02 4.22782963e-03 1.23409787e-02
      1.75628439e-02 1.32710580e-02 -4.46658861e-03 1.19068576e-02
      2.48440187e-02 3.74243669e-02 2.20213588e-02 -1.72653943e-02
      -9.38024372e-03 1.51189172e-03 1.65605266e-02 6.09214744e-03
      2.14928966e-02 -6.96618110e-03 9.87221021e-03 2.87905689e-02
      1.96802579e-02 1.01167401e-02 -1.37584610e-02 2.31734179e-02
      1.51277902e-02 1.25918193e-02 -3.20235873e-03 4.63838317e-03
      6.01483090e-03 5.85188577e-03 2.55328906e-03 2.48683225e-02
      8.58528260e-03 -3.21816583e-03 -2.03313101e-02 -8.42308719e-03
      1.14941681e-02 2.01784559e-02 3.90596092e-02 4.18053903e-02
      1.82137713e-02 2.41884822e-03 -6.61027897e-03 -2.52752453e-02
      -3.48517485e-02 -2.85202991e-02 3.37146372e-02 1.94277726e-02
      -1.31172249e-02 -5.00667654e-03 3.74162686e-03 5.65830711e-03
      5.82471257e-03 -1.35395573e-02 -3.19168493e-02 -3.87853687e-03
      6.23550415e-02 4.87779304e-02 -1.43125420e-03 -7.55247707e-03
      -1.52826710e-02 -1.61110125e-02 -3.48430127e-02 -4.77810837e-02
      -1.05162067e-02 3.09256371e-02 3.67128551e-02 1.15285488e-03
      -8.10633693e-03 -1.11983605e-02 -9.52841900e-03 -1.74690075e-02
      -2.41715647e-02 4.52764286e-03 3.77008133e-02 2.71800719e-02
      3.53122759e-03 -1.87053904e-02 -1.03651416e-02 -1.22658890e-02
      -3.01595707e-03 -1.41137466e-02 9.47218796e-05 6.62385225e-02
      3.83894928e-02 -5.39406843e-04 -6.77191783e-05 -8.89331009e-03
      -1.53263593e-02 -2.33922675e-02 -5.02202287e-02 -6.57932973e-03
      3.75886559e-02 -2.67747068e-03 -8.76349024e-03 4.74597001e-03
      -7.76757672e-03 -1.08925626e-02 -1.40382219e-02 -4.25739512e-02
      4.08935994e-02 7.55092129e-02 2.97241006e-02 -3.20024882e-03
      -2.73275003e-02 -1.21754613e-02 -5.20479633e-03 -9.12414771e-03
      -1.81388967e-02 5.48730530e-02 4.82070707e-02 9.45716817e-03
      1.30571518e-03 -2.57804301e-02 -1.52318934e-02 -8.10006820e-03
      -1.01737101e-02 -2.54788790e-02 5.34984022e-02 4.32368405e-02
      -2.80113071e-02 -1.77856851e-02 -2.18880028e-02 2.58470350e-03
      1.10831717e-02 -1.23504819e-02 -7.22819753e-03 4.64625694e-02
      1.86936948e-02 -3.92002873e-02 -2.72316090e-03 -1.46040088e-02
      9.39751882e-03 2.09628697e-02 -1.24362623e-02 -9.17653460e-03
      2.85258275e-02 2.25225110e-02 1.92854106e-02 2.66615041e-02
      -2.80942116e-02 7.99019763e-04 -7.98416790e-03 -1.19088516e-02
      6.88018836e-03 1.94016211e-02 3.84227224e-02 7.74093717e-03
      2.72246972e-02 -9.24499799e-03 1.69271044e-02 1.39703192e-02
      -1.12463916e-02 -6.27557281e-03 2.29019299e-02 -2.13601328e-02
      -1.79168899e-02 1.84997544e-02 -2.14942582e-02 8.96235183e-03
      1.78643130e-02 -9.63494182e-03 2.04663575e-02 1.04292138e-02
      2.30020024e-02 8.70117173e-03 2.81390436e-02 -2.00090650e-02
      4.75815218e-03 6.77068019e-03 7.18762306e-03 3.42632155e-03
      -1.88085977e-02 1.13541333e-04 1.70569476e-02 1.75484046e-02
      1.67111475e-02 4.53356430e-02 9.82837984e-04 -1.31083159e-02
      -3.36340666e-02 -7.61501817e-03 5.38143143e-03 7.06375530e-03
      -1.72668751e-02 -5.44321015e-02 1.52818561e-02 4.87164557e-02
      5.61805330e-02 -1.61867347e-02 -2.06175130e-02 6.52729254e-03
      8.17705318e-03 -4.99560591e-03 3.08610145e-02 4.48562801e-02
      8.49031657e-03 -4.14407775e-02 -3.50079872e-02 1.68831495e-03
      -1.41123281e-04 -7.72405928e-03 -5.13765216e-03 -2.44828593e-02
      9.33301868e-04 2.97866780e-02 2.58303285e-02 -9.41187050e-03
      -6.69041555e-03 -8.60392768e-03 -3.54840234e-03 -1.35282408e-02
      -2.35934928e-02 -3.16101313e-02 4.16165665e-02 6.45666942e-02
      -1.09324576e-02 -1.57207083e-02 -3.80474934e-03 -2.24452955e-03
      -6.08132407e-03 -1.39287552e-02 -2.67782342e-02 -3.27973850e-02
      2.01653074e-02 3.10553256e-02 -7.19157793e-03 -1.83725674e-02
      -1.44447424e-02 -1.30391149e-02 -1.45414229e-02 -2.71626320e-02
      3.11419088e-02 6.18810505e-02 -5.60380798e-03 -4.20490652e-02
      -2.58376338e-02 -1.41101684e-02 -9.17835534e-03 -1.22923963e-02
      -1.62423756e-02 -1.59478839e-02 2.70015001e-02 1.17162894e-02
      -1.29481556e-03 5.56325307e-03 4.89556137e-03 1.07414438e-03
      1.29749288e-03 5.84712543e-04 -1.76944379e-02 -8.01396929e-03
      3.99583615e-02 2.27025319e-02 2.87881983e-03 1.09981848e-02
      2.92914617e-03 -3.32721364e-04 5.57919964e-03 1.33919425e-03
      -3.09910923e-02 1.30293509e-02 2.47459020e-03 -1.48506444e-02
      -4.44264431e-03 -9.81717021e-04 1.02316344e-03 -3.09334369e-03
      -5.53075876e-03 1.31192897e-02 3.72545756e-02 3.24183851e-02
      -2.00311560e-02 -7.89182819e-03 -2.27707275e-03 1.34750921e-03
      -2.99255294e-03 -6.14333991e-03 -3.48774740e-03 2.93649640e-02
      -1.60860810e-02 -2.67968308e-02 -8.46540031e-04 1.01985233e-02
      2.64918548e-03 1.14830742e-02 2.20309868e-02 7.51358690e-03
      -3.98630723e-02 3.07232495e-02 -5.75558059e-02 -1.74809340e-02
      1.42057519e-02 7.61496136e-03 1.46840718e-02 3.19682546e-02
      3.95186059e-02 2.39701499e-03 4.91331331e-02 -2.22373158e-02
      -7.98352901e-03 1.36099441e-03 2.19954015e-03 1.34209415e-03
      3.64415813e-03 -1.93913758e-03 1.07595269e-02 2.59619579e-02
      -2.86362488e-02 -2.66416706e-02 2.10692943e-03 2.99980841e-03
      -1.28125853e-03 3.22622596e-03 1.62078775e-02 4.15635630e-02
      4.74373959e-02 -3.72876152e-02 -1.35713927e-02 -8.11638869e-03
      2.11801426e-03 3.25043825e-03 3.61140491e-03 -9.68402531e-03
      1.28585065e-03 4.73612249e-02 6.89033745e-03 -1.27579011e-02
      -1.85698587e-02 2.47226423e-03 5.14271948e-03 8.06658436e-03
      -1.42899845e-02 -6.46191463e-03 5.00076786e-02 -4.13870364e-02
      -2.04884764e-02 -1.38491462e-03 5.57178515e-04 1.58057723e-04
      -3.24926851e-03 -5.30698290e-03 2.44512502e-02 4.07768935e-02
      -2.44102348e-02 -2.00925693e-02 -9.47141089e-03 1.38716807e-03
      1.67713221e-02 2.60228058e-03 -3.13569158e-02 -8.35253566e-04
      5.12028225e-02 3.27644497e-02 -8.72664526e-03 -8.26852210e-03
      -2.59153708e-03 6.43263990e-03 1.71698350e-02 -8.13649688e-03
      -4.36534844e-02 2.10066885e-02 4.69764657e-02 3.37316841e-02
      -2.42906623e-03 -5.69002377e-03 -2.21745577e-03 9.67289694e-03
      -2.28730720e-02 -6.48937449e-02 4.17114049e-02 -4.24649194e-03
      -2.17230935e-02 -8.47359281e-03 -1.48368743e-03 2.38403510e-02
      1.85699333e-02 -2.97799241e-02 -2.76883822e-02 4.01602266e-03
      2.52757277e-02 3.99735011e-03 8.00490612e-04 -3.26525792e-03
      1.57110356e-02 1.72668807e-02 -1.97656397e-02 -1.12364674e-02
      2.17652153e-02 4.88214828e-02 1.82088651e-02 1.05417790e-02
      1.09791188e-02 6.25678047e-04 -6.45344146e-03 -2.12937072e-02
      -3.67736034e-02 -6.52842131e-03 1.82144865e-02 -8.87599960e-03
      -2.30189878e-03 1.58250742e-02 1.52985370e-02 -7.14502670e-03
      -1.22033302e-02 -7.88000226e-03 1.95535216e-02 1.57125928e-02
      1.62591226e-02 2.45868531e-03 9.41664074e-03 1.02702361e-02
      -4.52204328e-03 -2.48919744e-02 -1.10048270e-02 1.40891820e-02
      -2.61184364e-03 -3.58996657e-03 8.43871385e-03 6.23869244e-03
      2.85573415e-02 -6.58099027e-03 -1.99397840e-03 1.82112008e-02
      3.65344137e-02 2.12507863e-02 -3.41896117e-02 7.60177209e-04
      9.96791059e-04 1.76854543e-02 5.48226852e-03 -1.64725874e-02
      -1.15021616e-02 3.44420783e-02 4.89997255e-05 -1.37982760e-02
      2.66662892e-02 5.32192132e-03 1.03337197e-02 1.47302849e-02
      -2.89874654e-02 -1.01098018e-02 9.79388505e-03 8.37156456e-03
      1.79467711e-03 8.75165500e-03 1.31885493e-02 2.91759484e-02
      6.56236010e-03 1.02660898e-03 -7.39629660e-03 2.38916967e-02
      4.38572327e-03 4.24603932e-02 5.88469543e-02 6.24962803e-03
      2.30661351e-02 8.24624579e-03 -2.35468652e-02 -2.31527947e-02
      2.95084435e-02 -2.52652280e-02 -1.95783898e-02 2.03437284e-02
      -4.17848155e-02 2.15199799e-03 1.58345569e-02 -7.77186174e-03
      3.28428522e-02 1.06743975e-02 1.99980643e-02 1.15907378e-02
      1.15509834e-02 -3.64666395e-02 -1.59400776e-02 1.89792868e-02
      1.35820350e-02 2.11869031e-02 4.02210392e-02 2.92491657e-03
      2.90239025e-02 2.58571245e-02 -1.79544594e-02 7.45511102e-03
      1.29756937e-02 -9.32275970e-03 3.40165943e-02 6.24496629e-03
      5.95269492e-03 1.81208868e-02 1.41641628e-02 -5.97580150e-03
      4.97934292e-04 3.90377976e-02 8.66786391e-03 3.13314726e-03
      -2.22509522e-02 -3.30982963e-03 1.95052940e-03 -7.72996526e-03
      4.52242866e-02 3.98445502e-02 -5.96309081e-03 -3.35395671e-02
      -1.52069619e-02 -6.26682304e-03 -1.59979742e-02 8.83566961e-03
      1.78008247e-02 -8.51337425e-03 8.06842092e-03 2.90455539e-02
      8.50172807e-03 -2.52121035e-02 -3.05417925e-02 -3.13969404e-02
      1.66595599e-03 9.75047518e-03 3.72184105e-02 4.80935536e-02
      6.36050012e-03 -1.00440867e-02 -7.47142592e-03 -2.11106408e-02
      -3.64414118e-02 2.85590272e-02 3.97790894e-02 3.67409401e-02
      3.71448994e-02 2.15043537e-02 -2.98367217e-02 -4.19415720e-02
      1.25938095e-03 -8.18784162e-03 -4.23200335e-03 1.24695804e-03
      -2.39606830e-03 -5.05184662e-03 2.52571553e-02 4.06295657e-02
      -1.10849487e-02 -2.73799319e-02 -1.71239004e-02 -3.37211415e-03
      -1.77746005e-02 -1.26218228e-02 2.04101694e-03 -2.60468735e-03
      3.37416641e-02 -1.14211561e-02 -8.53608362e-04 1.33810341e-02
      1.62955131e-02 2.20482890e-02 4.35715877e-02 9.47590824e-03
      1.04122953e-02 -2.15456802e-02 -5.19851483e-02 -1.00485552e-02
      1.91661865e-02 1.50250075e-02 -1.55779235e-02 1.22220069e-02
      -2.95585557e-03 -4.18975577e-03 4.87324735e-03 -1.06986612e-02
      8.72495235e-04 -9.75837931e-03 -1.10987086e-04 -4.27701697e-03
      -4.55158530e-03 -3.11293919e-03 -3.96104762e-03 8.63138307e-03
      1.51481284e-02 2.39248984e-02 -2.62958277e-03 -2.66571948e-03
      -4.87450743e-03 -3.09275882e-03 -9.65272170e-03 -1.39737716e-02
      -1.60803483e-03 2.65080156e-03 1.06320875e-02 2.51468644e-02
      1.44521957e-02 -1.06472243e-02 1.93299409e-02 -2.74402113e-03
      -1.88288111e-02 6.34364784e-03 -1.20640127e-02 2.97102425e-02
      2.72895601e-02 2.26645488e-02 -9.29273665e-03 8.44825804e-03
      -9.47795808e-03 -1.47848725e-02 4.64980229e-04 -1.46068716e-02
      5.02150171e-02 -1.70333702e-02 -6.52024988e-03 -2.34332308e-03
      -1.05437334e-03 -5.08962944e-03 -5.40609797e-03 1.25212409e-03
      -2.41564866e-02 3.72464620e-02 -2.06832737e-02 -1.83979608e-02
      1.93608648e-05 -6.90469984e-04 -1.21010793e-02 -2.37125345e-03
      2.06783898e-02 4.78393259e-03 3.69573757e-02 -3.34581782e-05
      -1.63434050e-03 -7.89300166e-03 2.64675968e-04 -5.82406763e-03
      4.55011008e-03 9.68120713e-03 -3.81872840e-02 2.10885759e-02
      2.88478634e-03 -2.27606180e-03 -4.71145706e-03 1.29613597e-02
      -1.92209855e-02 3.79443634e-03 4.02778648e-02 -4.03459035e-02
      3.60728614e-02 -1.49695762e-02 -1.62195899e-02 7.99606903e-04
      3.52299539e-04 -1.97240547e-03 -1.00074196e-03 -3.69393430e-03
      1.07398406e-02 2.71055363e-02 -2.24057194e-02 -7.28895841e-03
      2.23739607e-05 6.73533604e-03 1.89183783e-02 -4.63568931e-03
      -3.48302238e-02 1.57264490e-02 1.32177202e-02 9.23284143e-03
      -5.26976492e-03 -8.44576163e-04 4.25962498e-03 -9.43075493e-03
      -1.90861255e-03 1.22826491e-02 -2.69940030e-02 1.33599956e-02
      -1.17643736e-02 1.42481155e-03 8.32615793e-03 1.82257667e-02
      9.75539628e-03 -2.18910631e-04 -2.81573292e-02 -6.60909247e-03
      4.12313379e-02 -1.03129875e-02 -8.00170656e-03 -6.40425459e-03
      -1.41121936e-05 1.97822526e-02 1.18599813e-02 -3.75474654e-02
      -3.62236029e-03 2.41259150e-02 -1.36399397e-03 -1.15129054e-02
      -9.22151562e-03 -1.02877924e-02 1.30933560e-02 2.53123115e-03
      -1.44149652e-02 3.35528813e-02 1.58423856e-02 -2.55819876e-02
      8.60973541e-03 -6.89130323e-03 3.39973085e-02 1.05900802e-02
      6.10625977e-03 -1.39238946e-02 1.03914505e-02 3.09558231e-02
      -2.17877515e-02 -1.96070876e-02 -7.62842782e-03 4.05678935e-02
      9.87619162e-04 -3.07710259e-03 -3.67240724e-03 3.98196764e-02
      -1.08467822e-03 -2.89208777e-02 7.86472764e-03 -1.55295944e-03
      -1.73294684e-04 5.00874408e-03 -8.66719522e-03 -2.05437317e-02
      2.43744217e-02 -1.41694397e-02 -3.39459348e-03 5.27425902e-03
      2.77573662e-03 -7.78581016e-03 3.02635804e-02 1.18314773e-02
      -6.37851516e-03 3.23684104e-02 7.79981492e-03 -1.63311996e-02
      -3.46395187e-03 2.67170020e-03 1.56157846e-02 -6.47581974e-03
      -1.98597759e-02 3.22372001e-03 4.39079143e-02 -9.58009064e-03
      -9.68374719e-04 1.66407377e-02 -1.53352588e-03 7.85985868e-03
      1.04661081e-02 3.03564942e-03 2.52560768e-02 4.67753038e-02
      -4.70134914e-02 -5.42730652e-03 -1.81874901e-03 7.94395804e-03
      -7.80875515e-03 2.69114058e-02 1.39500936e-02 1.72178615e-02
      -7.41118286e-03 -1.56918596e-02 -2.20707096e-02 2.32990943e-02
      2.73002554e-02 -1.32052675e-02 2.70819906e-02 9.21459775e-03
      -2.97860592e-03 -2.50807684e-02 -3.83453853e-02 3.29036498e-03
      1.57138668e-02 7.02625560e-03 1.88220348e-02 1.31816575e-02
      1.94297303e-02 4.08904068e-02 1.24108540e-02 -2.64798291e-02
      5.15246019e-03 3.48123498e-02 2.48402338e-02 3.63134444e-02
      9.13884677e-03 2.29455736e-02 1.47418212e-02 -1.00143894e-03
      -2.17018719e-03 -6.50111958e-03 1.37700001e-02 2.25911848e-02
      -8.21480248e-03 6.93582231e-03 1.26908245e-02 1.90192182e-03
      1.78587921e-02 -3.75960134e-02 -3.39727141e-02 5.99668501e-03
      1.99668724e-02 1.59685630e-02 1.55084552e-02 3.73341963e-02
      2.43677441e-02 -1.56502761e-02 -4.39175684e-03 3.35433483e-02
      3.01112235e-02 2.28089690e-02 6.12963643e-03 -6.50301622e-03
      1.32539365e-02 1.54106887e-02 2.22286060e-02 -3.43219787e-02
      -1.86135750e-02 1.85631756e-02 1.34860026e-02 1.17902020e-02
      1.82616487e-02 3.32697295e-02 3.73006277e-02 -2.86904885e-03</_></support_vectors>
  <decision_functions>
    <_>
      <sv_count>1</sv_count>
      <rho>2.5787643123818804e+00</rho>
      <alpha>
        1.</alpha>
      <index>
        0</index></_></decision_functions></my_svm>
</opencv_storage>
