<?xml version="1.0"?>
<opencv_storage>
<my_svm type_id="opencv-ml-svm">
  <svm_type>C_SVC</svm_type>
  <kernel><type>LINEAR</type></kernel>
  <C>1.0000000000000001e-01</C>
  <term_criteria><epsilon>1.1920928955078125e-07</epsilon>
    <iterations>1000</iterations></term_criteria>
  <var_all>2916</var_all>
  <var_count>2916</var_count>
  <class_count>2</class_count>
  <class_labels type_id="opencv-matrix">
    <rows>1</rows>
    <cols>2</cols>
    <dt>i</dt>
    <data>
      1 2</data></class_labels>
  <sv_total>1</sv_total>
  <support_vectors>
    <_>
      -2.99844705e-03 -5.11484081e-03 9.48273949e-03 6.79197861e-03
      8.17213207e-03 2.43020570e-03 5.19038294e-05 1.87667971e-03
      1.68459036e-03 -7.07977917e-03 -2.30492149e-02 -1.31477648e-03
      -4.59925504e-03 1.93688981e-02 1.14831189e-02 1.29243974e-02
      1.98274236e-02 2.25713737e-02 4.92680119e-04 -1.55081507e-02
      -2.12650470e-04 6.11003302e-03 6.92020077e-03 -2.07356550e-03
      4.04163776e-03 1.96068385e-03 -7.16070645e-03 -5.92284559e-05
      -4.66539850e-03 -1.68847553e-02 7.09204841e-03 3.54425004e-03
      3.19995591e-03 1.01701329e-02 1.06960470e-02 2.29294412e-02
      -8.26680008e-03 -1.04471724e-02 -1.71167299e-03 -1.47321296e-03
      1.51276228e-03 -9.98032279e-04 1.04079000e-03 7.28326244e-03
      1.84997655e-02 2.80314032e-03 -9.15988348e-03 -7.74927394e-05
      -5.12735825e-03 6.96086499e-04 -4.19944618e-03 -2.92361691e-03
      6.30101562e-03 3.02794967e-02 1.63358282e-02 -2.96273585e-02
      -1.07199689e-02 3.66643828e-04 -3.93361785e-03 -8.72882269e-03
      -1.16809448e-02 -3.98654694e-04 2.64150519e-02 1.29154865e-02
      6.05320884e-03 -9.06075910e-03 -1.00882091e-02 -1.13869263e-02
      -1.63738374e-02 -1.54081974e-02 -8.37943796e-03 2.20830422e-02
      3.97047680e-03 -5.84497722e-03 -9.64997162e-04 -4.22768481e-03
      -8.37084837e-03 -1.53387105e-03 -2.71222508e-03 -2.86595919e-03
      2.77233236e-02 3.05675063e-03 -8.33253376e-03 -5.11556817e-03
      -2.25465861e-03 -1.04741137e-02 1.41846045e-04 -4.06093709e-03
      -1.50558888e-03 2.50566117e-02 5.61021734e-03 -2.65882723e-03
      -4.69518034e-03 -9.63020977e-03 -1.50634190e-02 -1.28379380e-02
      -1.12827094e-02 -3.64109897e-03 7.81071512e-03 5.27841132e-03
      -9.95944254e-03 -8.61907005e-03 -6.39822474e-03 -4.91964398e-03
      -3.94943170e-03 -1.02660311e-02 -4.67690686e-03 1.12753985e-02
      2.14313474e-02 -1.57384982e-03 -2.79237749e-03 -2.71309121e-03
      -4.18970734e-03 -3.90924048e-04 -2.23689550e-03 -5.76743763e-03
      1.39457919e-02 2.60003302e-02 5.88085444e-04 9.56431846e-04
      2.49017030e-03 -1.68919105e-05 -1.14017865e-03 -1.09863151e-02
      -2.04991344e-02 6.54123211e-03 -1.34744111e-03 -1.34193748e-02
      -5.97614050e-03 -2.67395144e-03 -2.29657418e-03 -3.08194011e-03
      -1.06777698e-02 -5.38028358e-03 1.70570463e-02 1.52000505e-02
      -1.97230019e-02 -6.03255758e-04 -1.87536713e-03 -3.80185759e-03
      -7.87661411e-03 -2.21134946e-02 -2.48673232e-03 1.83815751e-02
      1.65866744e-02 1.91856141e-03 3.73231061e-03 8.03931151e-03
      8.45041033e-03 -3.13192164e-03 -1.21227186e-02 -5.61261363e-03
      1.89288650e-02 -1.85717829e-02 -9.08477791e-03 -1.68635382e-03
      2.55644438e-03 1.38659999e-02 -4.61802920e-05 -5.76352514e-03
      2.03215089e-02 1.36305569e-02 3.49453045e-03 -1.44390324e-02
      -5.90604439e-04 2.62000063e-03 1.23140891e-03 -5.99499326e-04
      -5.00125205e-03 1.04976576e-02 1.58760622e-02 -9.80295241e-03
      -2.14369874e-02 3.05569358e-03 5.98135963e-03 1.13742640e-02
      1.03630843e-02 3.08998697e-03 2.07283758e-02 8.82837828e-03
      -1.46199511e-02 2.64355214e-03 1.12869183e-03 2.34449035e-04
      8.65483284e-03 2.24903924e-03 -2.42201099e-03 1.21131325e-02
      2.35718098e-02 -1.93342776e-03 2.84483470e-03 -1.01243984e-03
      3.08565423e-03 8.15341622e-03 7.37335591e-04 -2.65773176e-03
      9.11625475e-03 6.29835529e-03 -2.46390849e-02 -2.41248403e-03
      7.53997732e-03 7.69517571e-03 1.39366454e-02 3.55389388e-03
      3.40911001e-03 6.29146351e-03 1.29436236e-03 -8.72247014e-03
      1.14885364e-02 3.57289333e-03 1.43903531e-02 1.50205623e-02
      4.69355006e-03 1.12532573e-02 7.56371906e-03 -1.05821909e-02
      1.36121791e-02 6.93263859e-03 5.45967510e-03 5.31689636e-03
      4.79579251e-03 2.50526844e-03 -4.47822595e-03 -5.28509635e-03
      -1.00423973e-02 1.43521689e-02 2.60264110e-02 1.10357963e-02
      4.93974565e-03 8.73936806e-03 -6.21087104e-03 -1.44357487e-04
      -8.11830536e-03 -2.22101267e-02 -1.65192652e-02 1.23367589e-02
      1.39712673e-02 2.27148179e-02 1.56986173e-02 9.85722337e-03
      -2.32987618e-03 -1.31956618e-02 -3.28872390e-02 1.18511934e-02
      2.72211675e-02 2.52863765e-02 2.09491532e-02 8.16374552e-03
      -5.45821711e-03 -5.34594583e-04 -8.02194979e-03 -1.04101906e-02
      7.46696955e-03 1.97461639e-02 1.52288598e-03 -2.50915560e-04
      1.09991124e-02 -2.57753092e-03 -3.29266698e-03 -3.54991318e-03
      9.91938752e-04 -5.88152977e-03 1.39210466e-02 9.42847971e-03
      3.51705751e-03 1.63895115e-02 3.82634834e-03 -2.51786201e-03
      2.88084336e-03 9.68585198e-04 6.52751094e-03 1.53635517e-02
      6.64338795e-03 -1.50222878e-03 -3.81956488e-04 2.25718040e-03
      -2.06502434e-03 1.03085954e-02 -5.20842755e-03 -4.07773274e-04
      7.67289056e-03 4.02568420e-03 1.42162855e-04 1.75456877e-03
      -2.05987162e-04 -3.30878189e-03 2.11601309e-03 -3.25023406e-03
      -3.11576296e-03 4.89101373e-03 7.69634964e-03 6.01978041e-03
      8.16798536e-04 -7.42700431e-05 3.85593111e-03 2.11669318e-03
      -2.48424592e-03 -6.28037192e-03 1.94470049e-03 2.29074201e-03
      1.02907168e-02 7.94705935e-03 -1.18465750e-02 8.97367299e-03
      1.95509987e-03 -8.33110977e-03 -1.00191683e-02 5.23941079e-03
      5.38202655e-03 4.72141051e-04 -2.75483006e-03 -2.81983195e-03
      1.58977264e-03 -2.53208564e-04 -3.78968660e-03 -1.86141040e-02
      1.77297334e-04 4.76221275e-03 4.19943221e-03 2.77837040e-03
      7.54845887e-03 1.61547016e-03 8.09969008e-03 -1.08933588e-02
      -5.20415464e-03 -3.34059005e-03 -6.78296061e-03 7.76631245e-03
      1.18657975e-02 -3.10633937e-03 6.18874386e-04 1.66071914e-04
      -9.44557134e-03 1.58092845e-02 3.01605789e-03 -1.85407326e-02
      1.26196677e-02 3.44402785e-03 -2.53047701e-03 -5.36071369e-04
      2.03497824e-04 6.35572057e-03 -6.69373292e-03 7.31288735e-03
      -8.31145607e-03 1.29133752e-02 1.83667354e-02 -1.78788905e-03
      -3.57322133e-04 -2.64551985e-04 -9.70144197e-03 2.87352931e-02
      3.37855634e-03 -1.02634564e-04 5.64627396e-03 6.38567097e-03
      -6.94140000e-03 -4.90225852e-03 -1.20944215e-03 -3.91994463e-03
      2.42249016e-02 -1.82562005e-02 -8.29448923e-03 1.90033682e-03
      -6.39784755e-03 -7.69398501e-03 -1.10494783e-02 -3.77854123e-03
      1.59683749e-02 2.41231304e-02 -5.65046538e-03 -6.63951458e-03
      -5.67298755e-03 -1.18633769e-02 -1.33034904e-02 -1.47755276e-02
      -3.20147001e-03 1.77535638e-02 4.43514623e-02 -1.11738534e-03
      -1.36905471e-02 9.62903630e-03 -1.33995414e-02 -1.16457706e-02
      -1.04526635e-02 -2.24444596e-03 1.12023260e-02 2.85191853e-02
      -8.11180566e-03 -1.25910593e-02 -1.54248276e-03 -1.51645020e-02
      -1.11512039e-02 -5.11804176e-03 2.57526617e-03 3.14565226e-02
      9.85240936e-03 6.79810019e-03 -1.44280179e-03 -8.02257750e-03
      -1.22297788e-02 -9.56226327e-03 -4.33166279e-03 1.21639532e-05
      6.97168475e-03 6.97277114e-03 1.48570619e-03 -4.03628964e-03
      -3.60357738e-03 -4.38520918e-03 -1.58223521e-03 -6.64736656e-03
      -8.39945208e-03 2.01498773e-02 1.09575577e-02 -8.66114907e-03
      -1.15213823e-03 -9.89011023e-03 -1.50353070e-02 -8.01407825e-03
      2.83583766e-03 -2.44533597e-03 1.60070546e-02 7.75016099e-03
      -9.95832495e-03 -6.86901063e-03 -1.17483037e-03 -1.76510762e-03
      -2.26197136e-03 5.91590535e-03 -2.26626405e-03 1.30552780e-02
      -2.66088638e-03 -1.19112972e-02 -3.03886109e-03 -1.50326767e-03
      -3.08512454e-03 -1.02880527e-03 -7.17876246e-03 -6.36922056e-03
      2.46475600e-02 2.43611820e-03 -2.24617850e-02 -4.14879946e-03
      -1.71424437e-03 -2.67010625e-03 -6.84672873e-03 -9.68151726e-03
      1.17609780e-02 2.68826243e-02 -4.34917351e-03 -1.88443847e-02
      -3.13688815e-03 -1.06921425e-05 -1.54837675e-03 -3.77853191e-03
      -4.19300562e-03 -1.16464635e-02 2.10481640e-02 -1.08233849e-02
      -2.58863326e-02 -6.39779540e-03 1.34467613e-03 -3.07087554e-04
      1.35700990e-04 1.05481641e-02 2.56471075e-02 3.03533915e-02
      -1.82671715e-02 -1.43831447e-02 -2.44697090e-03 -8.61278386e-04
      1.71712396e-04 -2.09303154e-03 3.85532039e-03 2.17672102e-02
      1.24786003e-02 -1.96107198e-02 -1.55747663e-02 3.89660825e-03
      1.55819778e-03 3.11125256e-03 8.66908580e-03 9.74009186e-03
      8.33174959e-03 -5.48385689e-03 -3.05208452e-02 -2.04505753e-02
      -1.15954864e-03 6.75032008e-03 1.35819800e-02 3.15423869e-02
      3.84090282e-02 3.74366492e-02 8.38058477e-04 -2.00371612e-02
      -5.33613004e-03 4.97060642e-03 1.87020749e-02 1.68913808e-02
      3.10139209e-02 2.56047435e-02 1.78949605e-03 -2.83244029e-02
      -2.43728068e-02 -4.94892057e-03 4.83767083e-03 9.33430903e-03
      1.20653585e-02 8.97282362e-03 3.93173611e-03 6.82183541e-03
      -4.06266004e-03 -1.34713091e-02 1.69524923e-02 -2.76323641e-03
      1.10172266e-02 1.36509379e-02 1.33952023e-02 9.53918882e-03
      2.86765187e-03 -1.47022670e-02 -1.09629454e-02 -6.60900073e-03
      5.40311588e-03 1.51953241e-02 1.67343933e-02 1.60395261e-02
      4.69686417e-03 4.43980010e-04 -1.13704912e-02 -1.54547151e-02
      -3.85555252e-03 -5.20878332e-03 6.73009222e-03 1.66021641e-02
      1.27066085e-02 -5.15177962e-04 1.15142129e-02 -2.21564360e-02
      -1.36811770e-02 1.14605734e-02 7.14238500e-03 1.46361468e-02
      1.32017415e-02 6.15563383e-03 -4.08524089e-03 -6.66423608e-03
      -3.70828211e-02 3.12844873e-03 1.55601744e-02 2.07844451e-02
      2.22467147e-02 1.00365803e-02 -3.94592946e-03 -4.72871540e-03
      1.72173791e-03 -1.37450499e-02 -2.31607389e-02 -1.79855735e-03
      2.27126479e-03 1.43487826e-02 1.22153563e-02 1.42358122e-02
      -4.18357970e-03 4.28597257e-03 -1.68557093e-02 -1.53772328e-02
      1.97503879e-03 1.84260048e-02 2.51410268e-02 1.84151717e-02
      1.35075832e-02 2.95105856e-03 -4.09538578e-03 -1.50101883e-02
      -9.84947779e-04 5.17412880e-03 5.57348365e-03 1.29005732e-03
      9.77889867e-05 -4.61919978e-03 9.01398435e-03 9.78025980e-03
      3.40015790e-03 -2.66095321e-03 -1.78904657e-03 -1.65198324e-03
      -6.72157039e-04 3.99593293e-04 -7.17737572e-03 8.93279910e-03
      1.28476713e-02 1.83259079e-03 -5.07341046e-03 3.21792322e-03
      5.08410204e-03 7.25674769e-03 8.78108945e-03 2.35423027e-03
      1.18005071e-02 1.60759185e-02 -5.55862207e-03 -8.52191634e-03
      -7.65782967e-03 -2.74656666e-03 -1.55150925e-03 -9.84381046e-03
      -6.40913146e-03 1.54376505e-02 2.29913685e-02 1.96294021e-03
      -8.40959977e-03 -1.73193286e-03 -1.23723736e-03 -1.24802100e-04
      7.38248741e-03 -6.19027996e-03 2.91263772e-04 3.87120387e-03
      -9.66126274e-04 -1.11880554e-02 -5.11827879e-03 -2.32754252e-03
      -2.28736689e-03 2.22435035e-02 1.16329724e-02 -1.39517331e-04
      7.19493022e-03 -7.28960335e-03 -8.96140561e-03 -1.27283540e-02
      -8.66603758e-03 5.12666954e-03 -5.86589891e-03 -6.81604305e-03
      2.03036983e-02 4.44915378e-03 -1.89663121e-03 -1.06507484e-02
      -1.39286220e-02 -1.35788321e-02 -3.60599865e-04 1.86787006e-02
      1.53451180e-02 -3.54428310e-03 5.91496844e-03 -2.46408163e-03
      -6.85228035e-03 2.52299476e-03 -8.43670778e-03 1.86211593e-03
      1.38197513e-02 4.90535640e-05 -4.54466935e-04 -3.36557539e-04
      -1.01283509e-02 1.04144989e-02 1.42823700e-02 -2.97911908e-03
      9.47853271e-03 9.85806575e-04 -8.27200804e-03 -2.93683889e-03
      -1.33695558e-03 -7.16350833e-03 -3.83198727e-03 -1.15954159e-02
      -1.62381809e-02 3.86210298e-03 2.14183740e-02 1.60217918e-02
      1.79822755e-03 -1.67639329e-04 -1.28144876e-03 2.53776583e-04
      1.27371444e-04 3.01758875e-03 1.19417394e-02 1.77468937e-02
      -2.56513420e-04 -3.82366561e-04 -8.76900507e-04 -1.52852139e-04
      3.13671231e-02 6.12024311e-03 -7.24784518e-03 9.62217618e-03
      -1.91798266e-02 -7.69096613e-03 -1.24705327e-03 -1.35371229e-03
      1.31130847e-03 1.90789551e-02 -6.15498750e-03 -6.97190408e-03
      9.52395238e-03 -2.19825115e-02 -5.73388487e-03 3.32043692e-03
      1.00156222e-03 2.49899048e-02 1.51457628e-02 1.41840046e-02
      6.83173956e-03 2.05403753e-02 -1.07013173e-02 -2.89575825e-03
      8.21042107e-04 -1.70720241e-03 -1.15338061e-03 1.32312980e-02
      1.19615095e-02 2.03740913e-02 1.79841649e-02 -1.19620105e-02
      4.42836853e-03 2.04647984e-03 -3.77630163e-03 1.50185367e-02
      -7.06160115e-03 -1.37303183e-02 -7.33283086e-05 -7.24527752e-03
      -1.65206119e-02 -6.53718272e-03 3.35359666e-03 -1.50393043e-03
      1.33437160e-02 -7.25492742e-03 -1.78666525e-02 -4.57269233e-03
      1.12220424e-03 -7.93929026e-03 -8.25846940e-03 4.90909163e-03
      1.53485117e-02 7.58499885e-03 1.49456160e-02 8.33197124e-03
      1.73145514e-02 8.83154385e-03 -1.99541673e-02 -3.08453850e-03
      6.40339113e-06 5.94864425e-04 2.40576491e-02 -2.31323135e-03
      -4.62410785e-03 -6.07308291e-04 2.19352054e-03 -1.95155255e-02
      -4.84764948e-03 3.07966433e-02 3.29794101e-02 2.59205978e-02
      4.75856615e-03 -1.26599129e-02 -2.01702258e-03 9.17032536e-04
      -6.68821216e-04 -1.80808990e-03 6.91822032e-03 -2.91397027e-03
      4.01059538e-03 -6.43441128e-03 -1.35630248e-02 -3.03930743e-03
      1.93742092e-03 -1.03324139e-03 1.23881735e-02 1.56307593e-02
      2.65526175e-02 1.73825268e-02 -1.38802808e-02 -2.01847702e-02
      -8.89046211e-03 -3.61566385e-03 -8.46014172e-03 2.87000462e-02
      3.00706234e-02 2.48190649e-02 9.64089483e-03 -1.62540227e-02
      -1.60980131e-02 -5.70880855e-03 4.64277295e-03 1.63820386e-02
      2.83132531e-02 3.35364230e-02 6.72357902e-03 -5.00877108e-03
      -1.88426487e-02 -1.13124670e-02 -1.48552563e-03 6.64203288e-03
      1.54771991e-02 3.48940678e-02 2.43186578e-02 1.44588733e-02
      -1.61799155e-02 -1.11139035e-02 -7.20447255e-03 -5.49818622e-03
      1.00748101e-02 2.58670934e-02 2.98279114e-02 9.52434260e-03
      -1.03762643e-02 -2.98201479e-02 -2.08481196e-02 -8.70969985e-03
      -1.07235636e-03 4.90071578e-03 2.08689887e-02 3.63441594e-02
      -2.39132042e-03 -2.23107357e-03 -2.14471184e-02 -3.41877993e-03
      -1.30150169e-02 -5.82723785e-03 1.12410020e-02 3.02397553e-02
      3.51969451e-02 -1.28070591e-02 -1.37652829e-02 -1.91485770e-02
      5.56841679e-03 -4.99945879e-03 6.89548254e-03 1.34802600e-02
      1.34371174e-02 7.19409948e-03 -7.32119847e-03 -4.55883564e-03
      -4.64529637e-03 -1.25671821e-02 -4.48787119e-03 7.08778854e-03
      5.09124529e-03 4.12759883e-03 3.41001758e-03 -6.10862439e-03
      5.23032434e-03 -1.30163897e-02 1.85526162e-02 -9.21324827e-03
      1.63845997e-03 1.77386403e-02 2.26450339e-02 -5.56954939e-04
      -1.89751238e-02 -1.99941453e-04 4.79728403e-03 -1.01676341e-02
      -7.39137223e-03 3.20466072e-03 2.01393776e-02 1.54438298e-02
      5.36385970e-03 -5.99253504e-03 -5.70766069e-03 -1.60952192e-02
      -1.43028218e-02 -1.78226887e-03 -1.65517617e-03 1.30453717e-03
      7.98315834e-03 9.56198107e-03 -1.11660280e-03 -4.92136984e-04
      -1.26430709e-02 -8.76305904e-03 -2.80244136e-03 9.97958123e-04
      6.05634274e-03 1.60558317e-02 2.84497458e-02 7.93099031e-03
      -8.05183686e-03 -1.00686001e-02 -9.71554592e-03 -4.34635486e-03
      -4.55142930e-03 -3.35980044e-03 6.70180004e-03 2.26295423e-02
      3.26576247e-03 -1.58557612e-02 -1.97721999e-02 1.80013000e-03
      -5.06019639e-03 -2.74073472e-03 -5.71257574e-03 1.71239544e-02
      3.67170572e-02 1.08680176e-02 -8.61791614e-03 -8.53466336e-03
      -3.60780163e-03 1.61356246e-03 1.06732722e-03 2.72488571e-03
      8.94381292e-03 4.24977159e-03 8.27184971e-03 3.88915581e-03
      -6.76437467e-03 -4.85117827e-03 -9.70812980e-03 -5.09440200e-03
      -2.79639545e-03 -2.63008624e-02 -1.21216252e-02 2.76294015e-02
      1.33501487e-02 -2.66440446e-03 2.13010609e-03 -1.63591118e-03
      -2.63966853e-03 -5.38732065e-03 1.65409967e-02 1.78431701e-02
      7.55886361e-03 6.13028009e-04 7.87526742e-03 2.45549396e-04
      -3.14511359e-03 -5.46067255e-03 -1.05852513e-02 -5.62106026e-03
      5.68695506e-03 3.24262865e-02 1.32617541e-02 9.89599992e-03
      -1.48390548e-03 -7.25206360e-03 -3.63009679e-03 5.43281017e-03
      -2.40057819e-02 -5.05635189e-03 2.27759331e-02 2.41969689e-03
      -4.67879989e-04 -3.05465725e-03 -9.80751216e-03 -3.96629283e-03
      3.29237245e-03 1.90287293e-03 1.70767605e-02 -2.52909539e-03
      -1.34820782e-03 -9.11806012e-04 -1.99824525e-03 -3.81699996e-03
      -2.86202040e-03 3.63089261e-03 2.77382392e-03 1.84311457e-02
      2.28558183e-02 2.56404327e-03 2.49061210e-04 -1.90411902e-05
      5.09321573e-04 -6.78671931e-04 1.28270127e-02 1.41535681e-02
      5.77642955e-03 -3.73144960e-03 -9.50897287e-04 7.80774746e-04
      -4.91604581e-03 -1.00005353e-02 -1.43952891e-02 1.83255950e-04
      1.57876518e-02 1.48908244e-02 1.33648620e-03 -1.59133066e-04
      -8.58000887e-04 -1.67889812e-03 -1.26015227e-02 -1.51663655e-02
      3.11490390e-02 1.83510799e-02 -9.65916959e-04 1.15728508e-04
      -1.21560541e-03 -1.13979378e-03 -7.90898781e-03 -1.15248375e-02
      -1.51881315e-02 -2.30166269e-03 1.28896069e-02 1.91441905e-02
      4.44157136e-04 -7.44192395e-04 -2.04123813e-03 -6.76748669e-03
      -1.93753876e-02 -1.94113012e-02 3.83621641e-02 1.14779342e-02
      -3.70076997e-03 -1.69174490e-03 -5.64299931e-04 -1.95820513e-03
      -1.36914279e-03 1.35291182e-03 -9.36031356e-05 2.43423972e-02
      -1.34368679e-02 -2.71801301e-03 1.45894490e-04 -1.41126744e-03
      -5.52626047e-03 9.70396120e-03 2.84163840e-03 1.68010276e-02
      2.44713742e-02 -1.94285642e-02 -1.35769160e-03 -1.04681822e-05
      -6.97066030e-03 -7.71505991e-04 -9.05763265e-03 -1.26493499e-02
      -4.86089988e-03 3.27313393e-02 1.09532429e-02 -8.74347799e-03
      -1.25699083e-03 1.24476705e-04 -4.16942826e-03 1.27159583e-03
      2.56059947e-03 2.38991641e-02 3.39355953e-02 5.20346919e-03
      -9.88696702e-03 -3.01025179e-03 -8.05723295e-03 -6.60741236e-03
      6.36308407e-03 -4.09142394e-03 1.05428230e-02 4.94422019e-03
      -2.40735877e-02 -2.79620476e-03 2.46115116e-04 -2.38620606e-03
      1.03191482e-02 -4.97866748e-03 -1.42922020e-02 9.84660233e-04
      -4.22692671e-03 -1.81449298e-02 9.42540914e-03 2.39640698e-02
      2.58426350e-02 1.45960758e-02 7.99514633e-03 3.16743832e-03
      8.71635694e-03 1.31287351e-02 -2.31565759e-02 -5.58711588e-03
      -2.24169367e-03 -4.93941479e-04 3.91148031e-03 -2.10240320e-03
      -4.48657945e-03 4.15984076e-03 5.04932599e-03 -1.01841716e-02
      2.57911980e-02 3.14915627e-02 2.55601313e-02 9.86686721e-03
      -6.79044612e-03 -1.52347060e-02 -5.66246314e-03 -3.09838937e-03
      -1.49057414e-02 2.90971976e-02 3.61675173e-02 1.18784513e-02
      6.46813633e-03 -1.52962338e-02 -1.74761452e-02 -2.60791718e-03
      2.56002555e-03 4.26762411e-03 2.21037250e-02 1.48057081e-02
      -2.94701452e-03 -4.21937555e-03 -9.47732106e-03 -1.69888008e-02
      -1.27263088e-02 -5.21151070e-03 5.15955035e-03 2.78807804e-02
      2.95975693e-02 1.19006531e-02 4.54841508e-03 -1.42330108e-02
      -1.84825025e-02 -5.59413433e-03 5.17535023e-03 -2.73879105e-03
      1.69526190e-02 7.61865498e-03 -1.70462226e-04 -5.28833549e-03
      -1.07494341e-02 -4.16428596e-03 8.36637802e-04 2.41471385e-03
      2.64359675e-02 2.61465050e-02 -6.53867889e-03 -4.30521043e-03
      -1.25629203e-02 -1.93283486e-03 -7.62893585e-03 -1.48502691e-02
      -4.33704536e-03 3.85055952e-02 2.64257826e-02 -1.98298115e-02
      -9.46695916e-03 -9.29655228e-03 -9.34062339e-03 -9.73420963e-03
      6.90113055e-04 1.60314457e-03 1.94727872e-02 1.91104915e-02
      -7.98748713e-03 -1.42487660e-02 -1.30399596e-02 -2.30286317e-03
      -2.74218712e-03 -1.50189539e-02 -8.04786105e-03 2.79668309e-02
      3.03569622e-02 -2.05204301e-02 -1.34701030e-02 -9.36607644e-03
      1.26970923e-02 -1.10539002e-02 -1.05429580e-02 1.21911382e-02
      3.00181676e-02 -4.96040471e-03 -1.48148416e-02 7.92874722e-04
      3.96669097e-03 -1.72084663e-02 -1.13148876e-02 -4.49342327e-03
      1.46760801e-02 1.30241085e-02 2.22618319e-02 7.01524317e-03
      -1.40660803e-03 -1.27110686e-02 3.92106408e-03 3.45608059e-05
      -1.14231976e-02 1.17265235e-03 2.00441778e-02 1.99859757e-02
      -7.29025342e-03 3.69051448e-03 3.48848291e-04 -1.02277007e-02
      -9.41930525e-03 -3.86891817e-03 5.52597735e-03 -1.65407255e-03
      2.01750752e-02 2.22951472e-02 4.71588783e-03 1.48143983e-04
      -7.38007389e-03 -7.07275141e-03 -2.12682015e-03 -4.37408686e-03
      9.11063980e-03 2.17157975e-02 -1.77526299e-03 -1.59538500e-02
      -1.39407413e-02 6.57744124e-04 -9.00427718e-03 -1.06829228e-02
      -9.67780594e-03 2.23910101e-02 3.60393301e-02 4.26996639e-03
      -2.21422557e-02 -3.03298724e-03 -9.06033348e-03 -1.39754489e-02
      -6.84651919e-03 -6.36655232e-03 1.33193498e-02 2.81563383e-02
      1.08193439e-02 -6.40813261e-03 -1.94529537e-03 -1.27027929e-03
      -1.35939270e-02 -2.16078311e-02 -1.00862617e-02 3.95335555e-02
      2.69979686e-02 -8.08988791e-03 -4.53508645e-03 4.22531128e-04
      1.90901023e-03 -2.93425098e-03 -6.52308203e-03 -8.69583990e-03
      1.68244485e-02 2.11693589e-02 -7.91799929e-03 -6.20051462e-04
      4.00877325e-03 9.60669480e-04 -2.18502851e-03 -7.24581443e-03
      -1.35391923e-02 -1.34099759e-02 2.62338724e-02 2.03724876e-02
      3.42348614e-03 3.57536366e-03 1.90056569e-03 -4.48940275e-03
      -1.37875658e-02 -9.04106349e-03 2.41576098e-02 1.91517081e-02
      -1.38769988e-02 1.14928778e-04 1.10593764e-03 1.60921121e-03
      -2.15472793e-03 -1.34289274e-02 -1.68571435e-02 5.92671509e-04
      2.18785107e-02 1.18886661e-02 2.17016716e-03 7.59655726e-04
      -9.05946712e-04 -1.81582093e-03 -1.41677947e-03 -6.76646316e-03
      -1.05082588e-02 2.78236214e-02 7.18304468e-03 1.08224293e-03
      -3.77780147e-04 -4.49108949e-04 -2.43941995e-05 -2.80966360e-05
      1.29941916e-02 1.27265404e-03 3.12419282e-03 5.22254268e-04
      1.55379646e-03 -2.69347482e-04 -2.26745178e-04 -1.98288425e-03
      -8.63935146e-03 -1.22552160e-02 -5.46568353e-03 2.39804499e-02
      1.13149788e-02 5.44906012e-04 -4.95496206e-04 -7.60234892e-04
      -2.34209001e-03 -3.07014096e-03 3.91213177e-03 -1.07765971e-02
      1.30951041e-02 7.14687211e-03 1.60229090e-03 -6.15207071e-04
      -2.00287905e-03 -7.47975055e-03 -1.09969815e-02 -3.09626549e-03
      1.25096608e-02 9.30430647e-03 -1.07136357e-03 -8.09313322e-04
      -1.32173300e-03 -4.01720684e-03 -1.71770826e-02 -1.49430241e-02
      1.37287965e-02 1.92356128e-02 6.66067423e-03 -1.99589855e-03
      -8.31784797e-04 -1.61170610e-03 -9.55343072e-04 -1.37083866e-02
      -1.46810198e-02 2.52051069e-03 2.02743169e-02 5.73512167e-03
      -3.80532118e-03 -1.63332734e-03 -8.58311367e-04 -6.96174568e-03
      -1.71982218e-02 -1.67155936e-02 1.67826272e-03 1.89854410e-02
      2.04277914e-02 -1.94501271e-03 -2.15836149e-03 -1.77237950e-03
      -7.92983640e-03 -1.22844521e-02 -7.65582314e-03 1.36364521e-02
      1.33924354e-02 -2.79444060e-03 -1.92172779e-03 -1.82401229e-04
      -1.14740408e-03 -6.55073347e-03 -8.09515547e-03 2.77578970e-03
      3.63090411e-02 1.51527785e-02 -4.77467151e-03 -4.22908552e-03
      -1.12133408e-02 -8.66442546e-03 -8.87467060e-03 -1.41101601e-02
      -6.21496094e-03 1.09227002e-02 2.10748147e-02 2.51511717e-03
      -6.20824192e-03 -4.18784516e-03 -7.92170817e-04 -1.41898002e-02
      -1.59204155e-02 -2.01604213e-03 3.03445868e-02 2.54483391e-02
      1.01012187e-02 -1.20289279e-02 -1.57451816e-02 -1.77912228e-02
      1.34074525e-03 -1.82379212e-03 5.98455314e-03 1.94164533e-02
      -2.79783853e-03 1.60760107e-03 -4.24028083e-04 -3.86636285e-03
      5.15406718e-03 -7.10463268e-04 -9.53176152e-03 2.62301043e-03
      1.86896827e-02 2.04316992e-03 2.70281974e-02 2.03465726e-02
      9.78065748e-03 1.92943104e-02 -1.06844315e-02 -1.90665368e-02
      -9.30703431e-03 1.97962243e-02 6.71985233e-03 1.11954100e-02
      6.69371709e-03 -4.50521149e-03 4.97471588e-03 3.66934389e-03
      -1.14214374e-02 -6.82565803e-03 2.26728078e-02 1.38219371e-02
      1.70609131e-02 8.42521247e-03 7.27735518e-04 1.93497557e-02
      -4.01827693e-03 -1.46293668e-02 -1.31725967e-02 9.39461228e-04
      1.36489803e-02 3.55961807e-02 1.68891121e-02 -3.84499505e-03
      5.49434393e-04 -1.00860270e-02 -1.56113049e-02 -9.60950740e-03
      -6.81913865e-04 -8.22565146e-03 1.73686985e-02 8.34192615e-03
      -4.35243268e-03 -3.44671262e-03 -2.04942957e-03 -1.40378578e-02
      -1.57862809e-02 7.44713377e-03 1.50041506e-02 3.76042649e-02
      5.39139379e-03 -9.76715703e-03 -1.66146562e-03 -8.21609702e-03
      -1.49626611e-02 -1.84429605e-02 -9.14094876e-03 4.64583514e-03
      2.93626711e-02 1.62671506e-02 -1.41639281e-02 -1.19309006e-02
      -2.44108844e-03 -5.63998381e-03 -7.85449520e-04 -1.25207670e-03
      6.56824745e-03 2.23870575e-02 -7.09087215e-03 -1.06961904e-02
      -7.21412897e-03 3.56013246e-04 -3.64563573e-04 -4.46806429e-03
      -8.87702964e-03 1.54452203e-02 2.04061475e-02 -1.92438327e-02
      -1.19974241e-02 -4.30753967e-03 -7.66594079e-04 -1.74229220e-03
      -2.67213234e-03 -7.33492291e-03 -6.90297643e-03 4.32792827e-02
      1.15179168e-02 -1.45199047e-02 -6.80203550e-03 5.14125568e-04
      1.87613390e-04 -3.57053446e-04 5.70195448e-03 1.23554864e-03
      1.35088852e-02 1.00681698e-02 -7.67095760e-03 -8.76460690e-03
      5.98957622e-03 3.78049118e-03 -8.90398771e-03 -1.34036494e-02
      6.47356780e-03 9.88982990e-03 -4.89462493e-03 5.74819976e-03
      -1.85253040e-03 3.99108976e-03 -7.10156397e-04 -1.18212728e-03
      -1.01839257e-02 -1.43270316e-02 1.27029093e-02 1.55457910e-02
      8.36510025e-03 1.62961439e-03 1.16111869e-02 1.49712071e-03
      -1.70142541e-03 7.03016622e-03 -9.50032566e-03 6.92643784e-03
      6.72633434e-03 2.84304973e-02 -1.94264110e-04 3.20994519e-02
      6.11323398e-03 1.24788971e-03 -2.42958847e-03 -2.06841920e-02
      -2.13262159e-03 5.17811580e-03 3.27868275e-02 2.55083069e-02
      -6.32312428e-03 -6.52818661e-03 -2.20610085e-03 -5.57335466e-03
      5.70038054e-03 1.36517072e-02 4.01541544e-03 -3.60551244e-03
      1.38109236e-03 -1.43691967e-03 -9.88769904e-03 -8.17403942e-03
      1.13206152e-02 1.66126639e-02 1.60745215e-02 -1.13123031e-02
      -1.69722119e-03 3.08113312e-03 1.19607849e-02 2.53124330e-02
      9.57951974e-03 -7.32778059e-03 -5.42240124e-03 2.35697464e-03
      -1.82249444e-03 -2.60266522e-03 6.30459189e-03 2.83151912e-03
      2.27966830e-02 2.71211825e-02 7.44542340e-03 7.95390515e-04
      -2.04026140e-03 -3.93054727e-03 -2.30415957e-03 7.69621180e-03
      1.56675174e-04 -6.82486268e-03 -1.09798107e-02 8.56775045e-03
      1.62106212e-02 1.08668087e-02 -7.39753991e-03 2.28826830e-04
      8.24978706e-05 -2.19597259e-05 -3.49864759e-03 -1.22304782e-02
      2.13844306e-03 4.23405459e-03 1.17469402e-02 4.17558337e-03
      8.96687969e-04 -7.97034765e-04 -2.22184323e-03 -9.00300778e-03
      2.20925435e-02 1.39288828e-02 1.21211568e-02 -3.91856855e-04
      1.00945821e-03 5.94827521e-04 3.19318147e-04 9.83180245e-04
      -1.09928437e-02 1.53084109e-02 7.44228391e-03 7.60659436e-03
      3.34467599e-03 1.08182582e-03 -4.70903382e-04 -1.88424578e-03
      -1.48695719e-04 -1.62530679e-03 -1.03607960e-02 -3.57071706e-03
      6.40337821e-03 1.57188829e-02 3.74524412e-03 1.05654566e-04
      -3.16603750e-04 8.33711296e-04 -2.67225364e-03 -5.97567996e-03
      -1.52738881e-03 -7.36820418e-03 8.27780273e-03 1.52704201e-03
      2.12736544e-04 2.03856936e-04 -2.66609539e-04 -6.97792554e-03
      6.40784623e-04 1.16381887e-02 7.95997772e-03 6.11169077e-03
      -2.93148041e-04 -4.34146990e-04 -9.29686066e-04 7.57373357e-03
      -2.72255810e-03 -3.54134548e-03 3.11599835e-03 -1.00822444e-03
      5.18535916e-03 -1.90601067e-03 -8.63619032e-04 2.21372023e-03
      -9.49161942e-04 -1.12965088e-02 -1.24637336e-02 1.50207244e-03
      1.69024188e-02 -2.51432625e-03 -2.47397856e-03 -1.28712959e-03
      -7.83271447e-04 -4.48698970e-03 -1.53709678e-02 -1.53962793e-02
      -1.44367944e-03 1.96398329e-02 1.80596057e-02 -2.79771304e-03
      -2.04154733e-03 -1.61604711e-03 -4.62394767e-03 -9.68500692e-03
      -1.20783960e-02 1.62276719e-03 2.72965990e-02 2.84289313e-03
      -7.04498217e-03 -1.63964916e-03 -2.17298046e-03 -4.83397907e-03
      -1.48134893e-02 -9.11006518e-03 9.02722124e-04 2.18993071e-02
      1.30963689e-02 -3.59479501e-03 -1.71055435e-03 -1.08339929e-03
      -7.64861284e-03 -1.28639964e-02 -6.44127047e-03 7.52191991e-03
      2.44016778e-02 -1.92653795e-03 -8.80160183e-03 -7.40178721e-03
      -1.66881073e-03 -1.67972185e-02 -1.32535314e-02 -4.65834001e-03
      2.17454340e-02 3.66040170e-02 1.67942718e-02 -1.52616063e-02
      -1.86999571e-02 -1.92086902e-02 -5.51266968e-03 -1.20806089e-02
      -4.82071051e-03 1.42703932e-02 2.58773342e-02 4.96419147e-03
      -7.66331470e-03 -4.13908716e-03 -8.03012983e-04 -1.28809689e-02
      -1.33534474e-02 3.43442569e-03 2.74214447e-02 4.67013828e-02
      2.33683586e-02 -1.59307588e-02 -2.61998326e-02 -1.54648786e-02
      -9.34242457e-03 -1.61612853e-02 -8.83581024e-03 8.50681495e-03
      1.79983359e-02 2.75934096e-02 5.04091242e-03 2.30093743e-03
      3.15879541e-03 3.75271216e-03 -1.16346478e-02 -6.41594315e-03
      1.49031179e-02 2.32184362e-02 2.08119173e-02 3.66922165e-03
      3.67447874e-03 1.93568040e-02 -8.77977163e-03 -1.49425231e-02
      -8.26783385e-03 1.96640342e-02 1.89672038e-02 2.80064344e-02
      -4.29389067e-03 -3.97510501e-03 -1.11731766e-02 -5.43578854e-03
      -2.08774116e-02 -1.86908375e-02 7.57894246e-03 2.17683874e-02
      3.27868760e-02 6.56047091e-03 5.56078088e-03 2.08750163e-04
      -4.20253724e-03 -1.06717786e-02 -1.53442966e-02 -1.10065623e-03
      1.44417733e-02 4.32120152e-02 8.82119581e-04 -3.62580223e-03
      -9.94219095e-04 -8.74501280e-03 -6.86287275e-03 -1.56735443e-02
      -1.43356705e-02 -4.87850606e-03 5.50384410e-02 2.95773353e-02
      -1.04941931e-02 -1.24942437e-02 -1.47048710e-02 -2.30688117e-02
      -2.85643842e-02 -1.22190574e-02 6.88411295e-03 5.01583517e-02
      2.34825816e-02 6.94028800e-03 -5.11599518e-03 -1.41967144e-02
      -1.75282918e-02 -2.20635068e-02 -1.91025883e-02 -1.17958384e-02
      3.56182531e-02 4.01481353e-02 2.90963450e-03 -1.43075623e-02
      -8.32206104e-04 -5.08128549e-04 -5.01791667e-03 -8.92814808e-03
      -2.06659790e-02 4.76446263e-02 1.74651518e-02 -1.19264796e-02
      -6.54741842e-03 -8.04036914e-04 -1.49420412e-05 -6.38184953e-04
      -9.55262862e-04 -1.91806145e-02 1.38188815e-02 1.34240398e-02
      2.61199102e-03 -8.74125399e-03 -3.05088842e-03 -2.01861723e-03
      -6.72186585e-03 -1.09534422e-02 -2.49036681e-02 2.86354478e-02
      2.99377926e-02 -4.98547591e-03 -6.44731987e-03 -5.89175802e-03
      -1.33573008e-03 -2.42681359e-03 -1.35090658e-02 -2.27998514e-02
      1.15248701e-02 2.30677389e-02 2.60057393e-02 -7.39933457e-04
      -2.02130037e-03 -1.09031564e-03 -4.26083105e-04 1.19012536e-03
      -2.11922321e-02 -8.51849932e-03 1.62199941e-02 1.98413227e-02
      -1.54256867e-03 2.05663741e-02 4.76615317e-03 -8.49885575e-04
      -6.96638506e-03 -1.92113016e-02 -1.38352644e-02 -9.25687142e-03
      1.84719730e-02 1.42052649e-02 2.60468968e-03 -2.96547380e-03
      -1.10441714e-03 -7.87915848e-03 -2.20563561e-02 -2.84817710e-04
      1.51841482e-02 2.23469846e-02 2.95834653e-02 3.72704826e-02
      1.40482346e-02 7.44351419e-03 -1.28281331e-02 -2.23673470e-02
      -1.08540840e-02 -1.65979285e-02 1.75597314e-02 2.05284338e-02
      1.18152490e-02 3.15504149e-02 8.02245829e-03 -1.14340093e-02
      -5.45867532e-03 -1.40337367e-03 -2.66742986e-03 -1.93530670e-03
      1.56011153e-03 -3.45642655e-03 3.32821123e-02 2.53883563e-02
      -8.76291562e-03 -2.19661649e-02 -3.39522120e-03 -2.57659703e-04
      -1.58050878e-03 -8.91057018e-04 1.90055743e-02 3.63579206e-02
      9.66878515e-03 -1.79162752e-02 -1.35095259e-02 -3.08814668e-03
      -4.42557409e-03 -7.19589321e-03 -2.09389511e-03 8.18115310e-04
      2.43063606e-02 1.78160220e-02 -2.61982977e-02 -2.46666446e-02
      -1.23173567e-02 -2.51764338e-03 -1.56193122e-03 -7.28412950e-03
      -2.02571671e-03 -2.07787519e-03 2.56203283e-02 9.62216035e-03
      -8.70238617e-03 -4.91066463e-03 1.34967384e-03 4.87295387e-04
      3.10337869e-04 2.98675499e-03 -6.01808447e-03 2.52933856e-02
      1.78423170e-02 -8.42740200e-03 -5.81661984e-03 -4.84332995e-04
      -3.33182572e-04 9.15267447e-05 3.53917276e-04 2.21283529e-02
      1.52257141e-02 4.24218690e-03 -1.78294517e-02 -1.08457310e-02
      -4.65611322e-03 -3.65331396e-03 1.09486212e-03 4.63920552e-03
      1.42897302e-02 1.41401896e-02 2.52114236e-03 -2.07627472e-02
      -7.65422126e-03 -5.63882617e-03 -5.68321114e-03 6.01157080e-04
      -3.63615487e-04 -7.62856193e-03 9.32822749e-03 1.89089961e-02
      -6.99858041e-03 -1.14092929e-03 -4.45400103e-04 -4.16768569e-04
      -3.35053744e-04 3.78431729e-03 -3.52817611e-03 -3.24805989e-03
      1.05382269e-02 -3.36947013e-03 -9.83750913e-04 -9.50982852e-04
      2.03028438e-04 6.84278668e-04 -1.32631243e-03 6.14846498e-03
      1.62138231e-02 1.49017554e-02 -1.70673653e-02 -2.75487592e-03
      -1.20070134e-03 -5.46238793e-04 -1.67309699e-04 -9.08984337e-04
      -5.89800626e-03 1.29208695e-02 1.24930134e-02 8.54031742e-03
      -3.76719772e-03 -9.76637937e-04 1.05128845e-03 -1.72349985e-03
      -5.67138661e-03 -9.86842718e-03 -1.22980401e-02 3.07091954e-03
      2.77367625e-02 -1.43887301e-03 -3.97415413e-03 3.14005767e-04
      -1.68467534e-03 -3.53931030e-03 -1.31899072e-02 -7.81205157e-03
      9.59340425e-04 1.81022789e-02 6.25954289e-03 4.67455899e-03
      6.89738477e-03 3.23686237e-03 -5.28752571e-03 -1.04640080e-02
      -1.43720722e-02 -1.40896311e-03 2.23625619e-02 1.27007416e-03
      8.29009898e-03 7.67764263e-03 1.54066435e-03 4.77402937e-03
      5.63767506e-04 -3.23137757e-03 -6.16659131e-03 3.74931982e-03
      1.69818141e-02 1.24487998e-02 1.45832403e-02 1.84572730e-02
      -4.07245057e-03 -1.17510119e-02 -5.70368255e-03 1.43352076e-02
      1.65088773e-02 4.77932021e-03 -8.10875557e-03 -1.01041142e-03
      5.93761681e-03 -5.61680226e-03 -1.66508779e-02 -5.38884087e-05
      2.29888353e-02 3.26031186e-02 1.61992479e-02 -1.62650365e-02
      -2.54970770e-02 -7.46167870e-03 1.46264881e-02 -9.17716883e-03
      1.14581047e-03 1.31349443e-02 1.36995995e-02 -1.08861562e-03
      -6.40750770e-03 -5.97385457e-03 1.63867064e-02 4.33552824e-03
      -7.26894999e-04 3.32405325e-03 2.33174041e-02 2.55868025e-02
      1.35739231e-02 -1.69639289e-02 -2.03808509e-02 -5.47562922e-05
      -1.44100771e-03 -7.40749529e-03 -6.77837990e-03 1.96720380e-02
      2.35764179e-02 2.43508350e-02 -8.44178814e-03 -3.26471985e-03
      -1.18214879e-02 -8.04305077e-03 -2.23481487e-02 -1.39748594e-02
      1.99932978e-02 2.27022339e-02 2.61379518e-02 6.74461294e-03
      3.59923858e-03 -5.15518989e-03 5.94136398e-03 1.64957391e-03
      4.44589881e-03 1.01202670e-02 2.31003985e-02 2.20574327e-02
      -1.05536834e-03 1.12680718e-03 -7.41693424e-03 -1.21404487e-03
      -5.89383347e-03 1.36641674e-02 2.67548468e-02 1.18349493e-02
      1.73692480e-02 7.80486036e-03 5.03690215e-03 -5.82418172e-03
      -1.43738668e-02 -2.41460688e-02 -2.33932696e-02 -4.27406095e-03
      9.64735053e-04 2.82409415e-02 2.22417805e-02 9.18955076e-03
      -3.61481961e-03 -1.39415627e-02 -1.88304670e-02 -1.82656310e-02
      -1.23481173e-02 -1.32362889e-02 2.96651050e-02 4.35693003e-02
      1.11910813e-02 -1.59397125e-02 -1.26661081e-02 -2.03970205e-02
      -8.52696225e-03 1.21863559e-02 -6.30368741e-05 7.04788696e-03
      1.75299179e-02 2.79274932e-03 -5.88300824e-03 -1.71443056e-02
      -2.12752428e-02 -1.23801697e-02 -2.26941123e-03 -8.52093939e-03
      5.85612049e-03 3.92071940e-02 3.46065648e-02 -2.08661389e-02
      -5.41399280e-03 -1.93952152e-03 -5.11492835e-03 -4.11800807e-03
      -1.90664921e-02 1.47353597e-02 3.20527926e-02 1.45289982e-02
      -1.04839755e-02 -1.05337026e-02 -2.05518445e-03 -2.01667403e-03
      -1.28481723e-02 -2.05329228e-02 1.74107961e-02 2.23064963e-02
      2.50284635e-02 -6.29289122e-03 -2.23734640e-02 -1.36112636e-02
      -2.92828027e-03 -1.43413653e-03 -6.52649114e-03 -1.63846940e-03
      3.14269438e-02 2.24344004e-02 -2.20376607e-02 -1.59420166e-02
      -1.35012763e-02 -1.01472549e-02 -1.25787398e-02 -1.09786950e-02
      1.13339443e-02 2.02469975e-02 1.64914243e-02 -7.26204459e-03
      2.95278709e-03 -3.82582285e-03 -1.20580674e-03 -1.33727202e-02
      -1.48596270e-02 -7.49207684e-05 5.89643931e-03 2.08728481e-02
      3.03692743e-02 3.23546752e-02 3.63853876e-03 -3.44509986e-04
      -1.18135968e-02 -1.62306745e-02 -4.09354456e-03 -1.22968294e-02
      5.53565193e-03 2.47073192e-02 5.11687575e-03 -6.45444402e-03
      -6.59075379e-03 -1.35104237e-02 -1.15518318e-02 1.27111300e-04
      5.82599360e-03 1.53075363e-02 2.35157907e-02 1.87664516e-02
      6.90391893e-03 -4.39984398e-03 -1.52658988e-02 -1.19249057e-02
      -4.90454538e-03 -2.61253817e-03 -7.41272513e-03 2.10154504e-02
      2.08241437e-02 2.96835657e-02 5.30186482e-03 -1.10183554e-02
      -8.88286438e-03 -2.90878164e-03 -1.44219329e-03 -5.04650827e-03
      2.78839347e-04 3.96732753e-03 1.79049429e-02 1.96993221e-02
      -1.16165634e-02 -2.12076046e-02 -1.79620963e-02 -2.44857022e-03
      -4.13244765e-04 -5.11692488e-05 1.48134166e-02 2.50113849e-02
      -6.45274355e-04 -6.18673768e-03 -8.83031730e-03 -1.75968802e-03
      1.07067311e-03 -5.01638837e-03 -3.76042910e-03 1.24080535e-02
      1.52953155e-02 1.25824381e-02 -3.79306264e-03 -1.88985746e-02
      -1.77275278e-02 -6.65040640e-03 3.23756161e-04 2.15108064e-03
      -6.63051149e-04 1.89775620e-02 -1.20020821e-03 4.41419939e-03
      -1.38276936e-02 -1.06410896e-02 -4.27568238e-03 -3.90319712e-03
      -1.65431446e-03 1.78583572e-03 1.59183666e-02 8.68878793e-03
      -8.97852145e-03 -1.21749053e-02 -5.39527973e-03 -4.97590750e-03
      -5.28197829e-03 -3.80686019e-03 -6.66810339e-03 2.55671088e-02
      1.95357595e-02 6.19736966e-03 -1.20029412e-02 -1.30330361e-02
      -9.70620476e-03 -6.97846059e-03 -9.45484918e-03 5.02839405e-03
      5.62055968e-03 1.31319538e-02 -1.05750291e-02 -1.01687722e-02
      -9.99467168e-03 -1.01345023e-02 -8.61232355e-03 -6.28000684e-03
      5.37746213e-03 1.56902336e-02 7.11203692e-03 1.84284127e-03
      -9.65143181e-03 -3.14181088e-03 -9.07744456e-04 -5.77001410e-05
      3.40757612e-03 1.55797624e-03 6.29211543e-04 1.46739343e-02
      8.13623425e-03 9.89515521e-03 -5.53715648e-03 -2.05741194e-03
      7.22797762e-04 1.20375841e-03 1.80305708e-02 1.24025224e-02
      -8.72192532e-03 -1.57824308e-02 -1.01142442e-02 6.42889412e-04
      4.64180857e-03 5.24412561e-03 1.34275854e-02 6.55035535e-03
      2.02218769e-03 8.81177559e-03 -1.00551257e-02 2.25743349e-03
      4.60126996e-03 1.45090814e-03 3.45024699e-03 5.83477039e-03
      -4.91665537e-03 -9.27636400e-03 -1.20904669e-02 -8.91359930e-04
      1.58927981e-02 1.81045663e-03 9.29592364e-03 1.74854114e-03
      1.52495888e-03 1.19349230e-02 3.92571930e-03 -4.35691606e-03
      -1.20071881e-02 8.27710668e-04 -6.35589380e-03 1.25285778e-02
      6.17672363e-03 1.54321790e-02 -1.45070127e-03 -6.80847606e-03
      -1.18648522e-02 -7.69759063e-04 1.85666587e-02 1.24172317e-02
      1.61784850e-02 9.92583344e-04 5.40453149e-03 2.51173750e-02
      1.31807346e-02 -8.66109133e-03 -1.44491410e-02 4.57918737e-03
      3.44505068e-03 4.12230380e-03 4.46580863e-03 2.20328830e-02
      2.14977153e-02 1.16101152e-03 2.04985263e-03 5.50461328e-03
      3.38696502e-03 -7.54098524e-04 -8.74485262e-03 -8.17931909e-03
      1.22547010e-02 1.37530882e-02 4.85617854e-03 8.42175726e-03
      1.14478171e-02 1.19992783e-02 7.06959842e-03 -1.00638708e-02
      -1.57757234e-02 -4.65806719e-04 1.64025798e-02 1.13229183e-02
      8.29449855e-03 -5.49282739e-03 -6.79227570e-03 8.47332645e-04
      -5.95222972e-03 -1.16430307e-02 1.30493985e-02 1.35822305e-02
      -2.28853023e-04 8.52821954e-03 7.61316624e-03 1.06154708e-03
      6.29687170e-03 -2.28181481e-03 -1.41564757e-02 -5.04261907e-03
      8.77832714e-03 3.70723312e-03 4.88507608e-03 7.07891677e-03
      1.18798614e-02 1.25507684e-02 5.17400855e-04 2.13797484e-03
      -5.45272371e-03 -6.73742592e-03 1.84110692e-03 1.43726869e-02
      1.43912993e-02 1.18823145e-05 1.12095922e-02 5.30246086e-03
      -5.56018727e-04 -5.17074810e-03 1.16402870e-02 -1.74607849e-03
      -6.30997354e-04 3.87929496e-04 5.52316476e-03 1.09203383e-02
      3.40447342e-03 1.13954570e-03 -6.27977354e-03 -3.70418094e-03
      -4.30939812e-03 1.24059003e-02 7.54797040e-03 6.25941716e-03
      1.30184609e-02 1.01001346e-02 5.54748951e-03 -7.56544666e-03
      -6.90686936e-03 -1.51706515e-02 -2.53446912e-03 1.89545918e-02
      7.13836309e-03 9.22522880e-03 5.30551048e-03 -2.07596458e-03
      -1.60151348e-03 -1.84249133e-02 -2.09037568e-02 -7.88209494e-03
      4.90026828e-03 2.20269244e-03 3.04550235e-03 3.26874591e-02
      3.12963724e-02 -1.62783507e-02 -1.25129381e-02 -2.22591758e-02
      -8.42662714e-03 1.56027656e-02 1.49856620e-02 1.63030792e-02
      7.24862795e-03 -1.18164567e-03 -9.07635316e-04 -1.25972563e-02
      -2.13523991e-02 -9.71447583e-03 8.38897470e-03 2.10109185e-02
      1.25201894e-02 3.11293323e-02 2.83408966e-02 1.50042516e-03
      -2.02091224e-02 -1.31258564e-02 -7.77283160e-04 -7.60136987e-04
      -1.51386077e-03 -5.61648887e-03 2.62419134e-02 3.08095980e-02
      -1.77427679e-02 -1.49268620e-02 -1.46456398e-02 -1.01043275e-02
      -1.03772217e-02 -1.26363756e-03 -5.15678851e-03 1.24798408e-02
      1.83723439e-02 -2.97583290e-03 -2.56078299e-02 -1.71625353e-02
      -8.31464189e-04 -1.50196522e-03 5.35698608e-04 -6.09153300e-04
      1.23918625e-02 2.74661053e-02 -9.27700568e-03 -2.15495192e-02
      -1.61699094e-02 -1.15725026e-02 -4.08179685e-03 -1.51884276e-04
      -1.78002007e-03 8.94539338e-03 1.38803208e-02 1.37790069e-02
      -5.28179924e-04 -6.82250410e-03 -1.16883991e-02 -1.10835396e-02
      -9.40672494e-03 -1.71366264e-03 -5.18915243e-03 6.51246868e-03
      1.85048711e-02 1.81704033e-02 1.02821516e-03 -5.97492093e-03
      -1.33727910e-02 -8.19576066e-03 -5.54561708e-03 -1.67877984e-03
      -1.52965039e-02 1.72822438e-02 -4.57308488e-03 -1.09511623e-02
      -1.19729331e-02 -1.09096142e-02 -9.76023031e-04 -9.33059084e-04
      -3.72870639e-03 2.40377318e-02 2.56106537e-02 1.59492381e-02
      4.46563587e-03 -1.51401153e-02 -8.39589257e-03 -3.08126747e-03
      -2.51436466e-03 -2.04708683e-03 1.47913536e-03 2.19002236e-02
      1.86256990e-02 4.63992683e-03 -8.90859682e-03 -6.40891818e-03
      -7.35316984e-03 -1.61931862e-03 -1.17045536e-03 -3.72898439e-03
      -6.33013714e-03 2.33594533e-02 2.08351091e-02 -6.31039497e-03
      -5.18579828e-03 -1.66959036e-02 -1.56830940e-02 -1.06286127e-02
      -2.32748478e-03 -3.17452312e-03 2.44559366e-02 1.34237632e-02
      -1.32633066e-02 -6.14085142e-03 -6.06988231e-03 -1.22239999e-03
      -1.99915166e-03 -5.94016630e-03 -9.57560667e-04 2.39788126e-02
      2.26426702e-02 -1.94723364e-02 -1.07230395e-02 -1.64744426e-02
      -1.45203974e-02 -1.46423662e-02 -8.06783047e-03 -1.28388070e-02
      -9.45673150e-04 2.34437138e-02 8.70556384e-03 -1.24317000e-03
      -7.34534906e-03 -1.10954577e-02 -8.95881467e-03 -5.74375549e-03
      -8.13311338e-03 -2.14516011e-04 7.93541688e-03 7.36678531e-03
      -4.23848117e-03 -3.14203906e-03 -4.73780744e-03 -6.01074426e-03
      -6.01952663e-03 -5.74471988e-03 1.67146139e-02 2.16479357e-02
      -4.72984603e-03 -4.77476977e-03 -7.72200571e-03 -5.87481353e-03
      -1.08629996e-02 -6.72856160e-03 -1.28797702e-02 -1.57729170e-04
      8.94767791e-03 -4.23564203e-03 3.14474385e-03 8.16019438e-03
      -3.13297787e-05 -4.74060746e-03 -3.32362135e-03 -1.08302608e-02
      1.48531701e-02 4.29999596e-03 -1.95708200e-02 -1.17667308e-02
      9.82200494e-04 7.73965986e-03 9.29590221e-03 9.48806759e-03
      8.85867979e-03 2.51448751e-06 -2.63417000e-03 -9.68714897e-03
      -9.27812047e-03 7.87052792e-03 1.35081830e-02 8.28057900e-03
      5.68242464e-03 2.37570982e-03 -7.05009210e-04 -9.23184957e-03
      -2.19153687e-02 9.02527105e-03 2.10455339e-02 1.08572030e-02
      5.54938195e-03 1.14238122e-02 1.94854243e-03 -1.71141035e-03
      -7.53554888e-03 -2.10666321e-02 -4.43328079e-03 1.18600987e-02
      1.34375384e-02 1.12750232e-02 7.94866495e-03 4.66986268e-04
      -3.47664673e-03 -9.98152420e-03 -1.06690954e-02 -4.18501021e-03
      1.74634047e-02 3.41353216e-03 1.02552725e-02 4.37067030e-03
      9.07717214e-04 1.80758704e-02 4.78336867e-03 -1.63644142e-02
      -1.78385843e-02 7.63442507e-03 -3.86855495e-03 4.73687705e-03
      -6.01617200e-03 1.53688695e-02 -1.72772503e-03 -1.06050326e-02
      -1.55429135e-03 7.10161694e-04 7.01590441e-03 -3.76774278e-03
      3.18639027e-03 8.52701440e-03 6.52599242e-03 8.68689641e-03
      -4.42194380e-03 -1.31603898e-02 -5.29892091e-03 2.88797985e-03
      4.92158055e-04 -2.27507483e-03 -2.16659508e-03 1.00989761e-02
      2.22529639e-02 4.11793357e-03 5.73898107e-03 -8.61216988e-03
      -1.52107247e-03 5.88435400e-03 8.16043932e-04 -1.68062933e-02
      1.45181501e-02 1.26994494e-02 -3.97426914e-03 -1.79691764e-03
      5.51806903e-03 3.74105712e-03 7.12917605e-03 3.27675906e-03
      -1.04076294e-02 -7.21077248e-03 1.20080030e-02 -1.84543373e-03
      -3.40067549e-03 -4.37142653e-03 7.05391075e-03 7.93836545e-03
      3.15841613e-03 -4.18035220e-03 1.36211682e-02 -1.09395140e-03
      -1.98075622e-02 -8.12109746e-03 2.93559441e-03 1.16470195e-02
      6.33704662e-03 -2.25957902e-03 -8.59533902e-03 -1.24152685e-02
      1.37991819e-03 -1.19428104e-03 -1.30112302e-02 -6.82871556e-04
      6.05058018e-03 5.36148995e-03 3.38816084e-03 1.32399192e-02
      -5.20048011e-03 -5.40025812e-03 1.28197472e-03 -5.11299307e-03
      -1.46972854e-03 1.02809928e-02 1.36188623e-02 1.32279349e-02
      7.52156600e-03 -3.90824024e-03 3.56599758e-03 -4.43901541e-03
      -1.06994137e-02 8.33906792e-03 4.80420794e-03 -3.32999672e-03
      -4.72307409e-04 1.39569277e-02 -5.31701557e-03 -4.61373059e-03
      4.09718743e-03 -2.02100463e-02 2.27245758e-03 9.91066266e-03
      6.71206461e-03 9.69514903e-03 2.09733397e-02 -4.91787505e-04
      -1.50824729e-02 -2.21596099e-02 -8.86090472e-03 7.14298151e-03
      2.04098728e-02 1.58147588e-02 1.07189696e-02 -4.60250210e-03
      -5.95187442e-03 -1.30704278e-02 -2.22149044e-02 -5.91845904e-03
      8.65472015e-03 2.43087988e-02 2.25935802e-02 1.94720756e-02
      1.50339454e-02 -6.20541675e-03 -1.75600834e-02 -6.61095604e-03
      -1.02285482e-02 -4.27432964e-03 1.37088178e-02 1.88736618e-02
      1.33233862e-02 -4.78152186e-03 -5.44707524e-03 -1.42622339e-02
      -1.23782391e-02 -2.21848604e-04 3.28015303e-03 1.38780251e-02
      2.75665484e-02 1.96967386e-02 6.13358896e-03 -1.19636264e-02
      -2.12459527e-02 -1.33526316e-02 -3.03636375e-03 -3.73350177e-03
      7.02259829e-04 -2.30722548e-03 7.60616502e-03 2.62666028e-02
      -6.24528201e-03 -2.19267495e-02 -1.56357829e-02 -1.29196486e-02
      -5.29964687e-03 -1.54850539e-03 -6.48142351e-03 1.23295831e-02
      1.54589508e-02 1.65307743e-03 -2.02442566e-03 -2.86229886e-04
      -4.51341271e-03 -3.33035178e-03 1.03452906e-03 -1.90358853e-03
      9.31251328e-03 1.60706844e-02 -7.16397539e-03 -5.04637184e-03
      3.82639584e-04 -3.33775510e-03 -3.27070942e-03 -7.84127880e-03
      -1.09454924e-02 1.63082033e-02 1.11319637e-02 -1.07938973e-02
      -1.43347047e-02 -1.31441699e-02 -1.12455832e-02 -6.22324925e-03
      -1.08624634e-03 -1.36372098e-03 4.03067470e-03 9.78364423e-03
      1.00200474e-02 1.87800254e-03 -6.28665730e-05 -1.38961114e-02
      -7.75428955e-03 -3.10298568e-03 -1.73655804e-03 3.02100531e-03
      5.20825945e-03 1.11911967e-02 -1.42074516e-02 -7.39436783e-03
      -2.94566178e-03 -2.12875893e-03 5.57237258e-03 -2.45452556e-03
      1.08804516e-02 1.32102128e-02 -2.35693762e-03 -1.25302961e-02
      -5.62961854e-04 -4.65892069e-03 -5.75379422e-03 7.87704345e-03
      -1.86507835e-03 1.10145677e-02 1.30089428e-02 6.67703990e-03
      1.21018523e-02 1.73578132e-02 -7.18228333e-03 -7.70886661e-03
      -4.52545006e-03 -8.01972928e-04 -1.65276346e-03 -3.92040564e-03
      -5.67990681e-03 1.30628040e-02 1.46666560e-02 -1.15632135e-02
      -1.53352264e-02 -1.32293506e-02 -4.78821201e-03 -1.17613804e-02
      -9.57922451e-03 -7.42899533e-03 -1.40832346e-02 2.65766419e-02
      5.74863702e-03 -9.62179620e-03 9.46951841e-05 -1.83621785e-04
      -7.29641353e-04 -6.12801523e-04 -2.18895194e-03 -1.79736631e-03
      1.97282434e-02 1.03969844e-02 -1.01745827e-02 4.03989339e-03
      -2.06456729e-03 -1.03561301e-02 -9.02217347e-03 -4.17264923e-03
      6.62748516e-03 2.10776553e-02 -1.67079289e-02 -4.42901580e-03
      -3.81608820e-03 -1.58080435e-03 -8.62874184e-03 -8.52153730e-03
      -7.58852391e-03 5.06282970e-03 1.23946718e-03 -1.81617960e-02
      9.60008986e-03 1.82468370e-02 4.21044184e-03 -5.20360982e-03
      -3.56966653e-03 -9.54298768e-03 1.21386535e-02 2.81286822e-03
      -4.28609410e-03 -3.75355827e-03 9.95221315e-04 -5.28683478e-04
      -4.08471748e-03 -4.09505609e-03 3.62806395e-03 -2.26120092e-03
      -1.04034450e-02 -1.25359762e-02 7.71165499e-03 5.69278654e-03
      5.43115521e-03 -6.56987214e-03 -1.71829807e-03 -6.73585164e-05
      -5.36005851e-03 -9.59456805e-03 -2.29506977e-02 1.35694584e-02
      2.96121798e-02 5.09151770e-03 6.12179807e-04 7.20981369e-03
      -4.92349872e-03 -2.53866962e-03 -1.47093097e-02 -2.59072036e-02
      -6.52542897e-03 1.38778742e-02 9.59305838e-03 2.41335062e-03
      5.08384034e-03 -3.51642701e-03 -3.56918992e-03 -1.39842397e-02
      -1.37068257e-02 1.99873429e-02 1.28518334e-02 7.74853164e-03
      1.26113778e-03 2.85244663e-03 -1.14177633e-02 -9.19520564e-04
      -1.26288924e-02 -1.85117591e-02 7.61414273e-03 5.31469472e-03
      9.24453232e-03 1.49684108e-03 -1.71220489e-03 -7.99555797e-03</_></support_vectors>
  <decision_functions>
    <_>
      <sv_count>1</sv_count>
      <rho>1.8191637821380824e+00</rho>
      <alpha>
        1.</alpha>
      <index>
        0</index></_></decision_functions></my_svm>
</opencv_storage>
